base_model/conv2d/kernel:0
(5, 5, 3, 6)
[[[[ 0.07853075  0.00785236 -0.07212491  0.07022574  0.0254223
    -0.13336325]
   [-0.05516198  0.04104201  0.16605572 -0.17115328  0.01020285
    -0.17201634]
   [ 0.04594113  0.1495772  -0.06334221  0.07234942  0.12376073
    -0.16277139]]

  [[-0.06561652 -0.03012368 -0.15233502 -0.00887135  0.23618829
     0.05390289]
   [-0.08980078  0.04635997 -0.00256921 -0.00597632 -0.0256477
     0.12011093]
   [-0.03959094  0.17674768 -0.01924524 -0.01884467 -0.01030225
     0.16645469]]

  [[-0.18943442  0.05999617 -0.19270204  0.01888781  0.2111879
     0.07327437]
   [ 0.11108963 -0.24686264 -0.14510988  0.12025636  0.00191056
     0.14683776]
   [ 0.13782626 -0.13534789 -0.03760792  0.02158906  0.0502329
     0.12654504]]

  [[-0.20400675  0.1299992  -0.2696645  -0.1722502  -0.00881882
    -0.13676439]
   [-0.04796154 -0.20275363  0.12932011  0.18329859 -0.05444393
    -0.0753579 ]
   [ 0.07114246 -0.07023169  0.00757048 -0.10691716 -0.15804033
    -0.1754084 ]]

  [[-0.09932861  0.25493976  0.09994683 -0.0499645   0.03372138
    -0.01720538]
   [ 0.23696142 -0.28059077 -0.04058517  0.09790841 -0.01153657
     0.06531212]
   [-0.00575889 -0.15044023  0.10835241  0.09575043 -0.13832478
     0.0721033 ]]]


 [[[-0.0417539   0.07744656 -0.03026407  0.23602377 -0.05479304
    -0.04922036]
   [ 0.13493976  0.19067466 -0.16088453 -0.05216316 -0.03753998
    -0.09987044]
   [ 0.17798562  0.06160577 -0.18057348  0.20233877  0.10333458
     0.02934846]]

  [[-0.0252817  -0.00287628 -0.15719238  0.25790486  0.08569225
     0.10549439]
   [ 0.13459876  0.14168416 -0.06821524  0.1616527   0.03435257
    -0.12481827]
   [-0.01334413  0.03350405 -0.03969595 -0.04393129  0.08542956
    -0.15914354]]

  [[ 0.06134235 -0.15401287  0.03394865  0.22847256  0.15740174
     0.13322802]
   [ 0.04515885 -0.10494518 -0.07160874 -0.06492487  0.08797819
     0.08110058]
   [ 0.28496253  0.05242804  0.03529854 -0.04201593  0.12826845
     0.11067543]]

  [[-0.18948579  0.1226377  -0.00128119  0.20638672 -0.02710431
     0.11244153]
   [ 0.14772204 -0.21712628  0.11411742  0.18226382  0.04446015
    -0.0207944 ]
   [ 0.20550586 -0.02733659  0.27561572 -0.07252495 -0.10075204
     0.03171073]]

  [[-0.05644356  0.2030714   0.1645903   0.11012694 -0.26860395
    -0.06065863]
   [ 0.22182317 -0.19054459 -0.02295249 -0.14976107 -0.01905156
    -0.08371392]
   [ 0.09985477 -0.14494613  0.20859131 -0.11377078 -0.20117557
     0.00667903]]]


 [[[-0.21896432  0.00689712 -0.0431372  -0.24295038 -0.01314336
     0.17529912]
   [-0.06854667  0.16082993 -0.07944947 -0.26993626 -0.14104626
     0.17982803]
   [-0.05681706  0.2922175  -0.1566276  -0.20326412 -0.02837161
     0.14929795]]

  [[-0.19938482  0.1442411  -0.02706153 -0.12581138  0.17521337
    -0.29278773]
   [-0.16636254  0.1964158   0.05667648 -0.2622648   0.1100473
    -0.15852304]
   [ 0.13058685 -0.01618151  0.17303799  0.00061364 -0.02069996
    -0.2125992 ]]

  [[-0.1877267  -0.19534959  0.08407784  0.04967443  0.10735942
    -0.23623762]
   [-0.11308631 -0.04457599  0.12920958 -0.25418302  0.31689587
    -0.00813497]
   [-0.10772611  0.03495682  0.16592984  0.00956956  0.3037293
    -0.23153703]]

  [[-0.29228458 -0.11111169  0.08602265  0.1501262   0.154311
     0.29033956]
   [-0.10398573 -0.23051989  0.02432657 -0.06428515  0.23504308
     0.40139976]
   [-0.00564839 -0.20188716  0.12269215 -0.15920964  0.40174353
     0.11106483]]

  [[ 0.01297143  0.17501447  0.06973859 -0.04046005  0.03625705
    -0.12939668]
   [ 0.11656297 -0.17083928 -0.2340134  -0.09090474 -0.04858832
     0.06159234]
   [-0.0944828  -0.10189644 -0.03280615  0.03827444  0.18709145
    -0.06864005]]]


 [[[ 0.07287279 -0.01890112  0.05910468  0.11909031 -0.06033155
     0.14035209]
   [ 0.04673753  0.24710712  0.00808175  0.14378463 -0.22287205
     0.05190723]
   [ 0.16859429  0.07189069  0.08857101 -0.04775926 -0.08876099
     0.03098102]]

  [[ 0.00281835 -0.07618675  0.16649315 -0.028265   -0.15320943
     0.06694716]
   [-0.10249884  0.09095338 -0.15564585  0.07228664  0.04362109
    -0.04795655]
   [ 0.21168505  0.11309239  0.22285841  0.10168342 -0.07476892
    -0.00483947]]

  [[-0.12464231 -0.04616015  0.17957538 -0.274207    0.05664987
    -0.35674262]
   [ 0.13270138 -0.08650137 -0.13185    -0.06068998 -0.0375303
    -0.07380467]
   [ 0.15508758  0.10164368  0.07451481 -0.12545228  0.28533426
    -0.18440713]]

  [[-0.03265331 -0.13653228  0.05321828  0.01261923  0.05502772
     0.21381362]
   [ 0.04679115 -0.22061819 -0.1504569  -0.02786974  0.09204311
     0.01439386]
   [-0.11713036  0.04292208  0.06102669 -0.05881226  0.10247198
     0.11812331]]

  [[-0.00820028  0.12408099  0.10097411 -0.09191385  0.10368726
    -0.04429139]
   [-0.08617013 -0.07111596 -0.07930702  0.07369549  0.07095633
     0.07333329]
   [ 0.09209005 -0.06914704 -0.12248037  0.17576455  0.1378414
     0.01484371]]]


 [[[ 0.03117675  0.02055602 -0.03511165 -0.22697958 -0.0409734
     0.16692947]
   [-0.0130977   0.09689534  0.14576156  0.04069018 -0.05541115
    -0.09102271]
   [-0.10190987  0.13925529  0.00110137  0.1360469  -0.19202244
     0.03894043]]

  [[-0.04499364  0.04221161 -0.00238146  0.06216666  0.0678921
    -0.14879443]
   [ 0.00344681 -0.02791899 -0.00687124 -0.04745926 -0.07587684
    -0.09247529]
   [-0.11801998  0.1744948   0.11887732  0.12128499 -0.09950113
    -0.04526366]]

  [[ 0.17019491 -0.03993526  0.0830821  -0.07091799  0.13106588
     0.07723754]
   [-0.14791287 -0.17514326 -0.20366973  0.10761649 -0.12972233
    -0.10291128]
   [ 0.14609504 -0.04371574  0.02898623  0.15238278  0.15389708
     0.17675567]]

  [[-0.1531121  -0.03266429  0.10387832  0.05790442  0.18272524
     0.02103182]
   [-0.07555804 -0.19777283 -0.23282693 -0.09533729  0.09434684
    -0.06810217]
   [ 0.04095691 -0.07112306 -0.03578839  0.04434199  0.17652667
     0.03193485]]

  [[ 0.00621506 -0.03237007  0.14313553 -0.22977361  0.03021027
    -0.12155654]
   [ 0.02748153 -0.05774595 -0.08764866  0.00940609  0.10092302
     0.0945856 ]
   [ 0.04729824 -0.02415788 -0.2424137  -0.02468698 -0.02587718
    -0.01655854]]]]
base_model/conv2d/bias:0
(6,)
[-0.03397593  0.08714686  0.01280718 -0.06242086  0.00373548  0.08729932]
base_model/batch_normalization/gamma:0
(6,)
[0.65498394 0.87507427 0.6923292  0.94377583 0.5939257  0.75302356]
base_model/batch_normalization/beta:0
(6,)
[-0.05577646 -0.22874406 -0.36880967 -0.50846404 -0.29865816 -0.17038268]
base_model/dense/kernel:0
(1536, 128)
[[ 9.25095845e-03  6.10290281e-02 -9.55571234e-02 -8.90465677e-02
  -3.57944518e-02 -3.25158089e-02 -8.54232013e-02  3.08796228e-03
  -6.65474012e-02 -6.34230077e-02  5.48356958e-02 -1.40848067e-02
   4.66912566e-03 -5.65568693e-02  6.25707656e-02 -7.75077790e-02
  -8.01344886e-02 -1.45010045e-02 -2.15628464e-03 -5.31157758e-03
   5.10479510e-02  7.01807290e-02 -8.00473839e-02 -3.51186953e-02
  -6.64114766e-03  3.93687412e-02  5.08327633e-02 -2.41668127e-03
   4.02256250e-02 -1.65179312e-01 -1.61602031e-02 -5.07862419e-02
   5.00435196e-02 -6.43815845e-02 -1.30267190e-02  8.85516554e-02
  -4.64178547e-02  2.30123065e-02 -5.93838803e-02 -1.90959647e-02
  -4.43344116e-02 -2.34227609e-02 -5.25991395e-02  2.03738688e-03
  -3.87826376e-02 -8.09317082e-03  1.85756996e-01  9.73895192e-03
  -4.82086539e-02 -3.16825844e-02  3.50940749e-02 -9.26291198e-02
  -4.58137598e-03  8.66033658e-02  1.55048100e-02 -5.24859615e-02
  -1.13795444e-01 -6.24925382e-02  4.69536670e-02 -7.55782723e-02
  -1.20147187e-02 -1.34819210e-01  4.39491123e-03 -6.55264035e-02
  -4.53200303e-02  1.01904042e-01 -1.33532956e-01 -7.10793361e-02
   2.21268106e-02  3.07750702e-02  2.39190105e-02 -3.23467469e-03
  -4.27777842e-02 -3.97712849e-02 -2.89361253e-02 -2.11976189e-02
  -5.74861392e-02 -3.49808820e-02  1.44026786e-01  4.22076210e-02
   1.90123543e-02  3.40998285e-02  9.32589620e-02 -6.58106816e-04
   3.06688044e-02 -5.41433580e-02  3.73996831e-02  3.44751868e-03
  -2.57526115e-02  1.20048001e-02 -4.93795834e-02  3.36053297e-02
   3.64629403e-02 -2.76646223e-02  2.41373968e-03 -1.88822001e-02
  -7.51860440e-02  4.79970239e-02 -1.89265348e-02  4.33215918e-03
  -1.07526496e-01  6.98205754e-02 -1.25638321e-01 -5.13068326e-02
   2.50300076e-02 -3.69640738e-02 -6.21555708e-02  6.61892593e-02
  -7.23062307e-02 -1.14375865e-02 -1.95038207e-02 -3.89758758e-02
  -4.35761660e-02  2.94443127e-02  1.33296654e-01  2.43811272e-02
   4.54299478e-03  3.74183431e-02 -6.04431902e-04 -3.87153029e-02
  -4.07405794e-02 -4.15336527e-02 -2.19895039e-02  6.33172467e-02
   3.03092040e-02 -2.44090222e-02  3.17788571e-02 -3.05341035e-02]
 [-1.25984810e-02 -3.14466581e-02  1.18956156e-01  2.74770316e-02
  -1.18776545e-01  2.91958749e-02 -1.12997241e-01 -7.39711523e-03
  -2.01679286e-04 -7.60488352e-03 -4.32992205e-02  1.71454698e-02
   2.43966747e-02  1.12699121e-01 -2.44935066e-01 -8.15283209e-02
   9.30795148e-02  1.24381803e-01 -9.62434523e-03 -5.51212989e-02
  -3.02078966e-02 -7.24515617e-02 -4.86820415e-02  1.16594443e-02
   7.18812048e-02  1.34850517e-01 -1.35375082e-01 -2.20962018e-01
   6.05468489e-02 -6.05560355e-02 -6.19541742e-02  1.91711843e-01
  -3.46011966e-01  2.72291079e-02  5.84801510e-02 -2.53229707e-01
  -4.45485152e-02 -2.85239041e-01 -2.84414515e-02  2.34152153e-02
   4.24659997e-02 -1.74479201e-01 -1.74694452e-02 -2.83755194e-02
  -8.36306140e-02  9.51064844e-03  1.94787666e-01  5.95789626e-02
   4.21314426e-02 -5.92079349e-02  2.78965682e-02  1.24492072e-01
  -4.09393460e-02 -1.03032991e-01  5.87596074e-02 -3.40934545e-02
   1.05806403e-01 -7.34515935e-02 -3.30207013e-02 -3.35082300e-02
   4.12720814e-02  1.66119218e-01  1.77371383e-01  2.95290779e-02
   2.21210290e-02 -9.36444383e-03 -4.08757068e-02  6.57120124e-02
  -3.03826090e-02  4.42801714e-02 -1.31558497e-02 -5.76337017e-02
  -1.93664934e-02 -2.35227514e-02 -1.28032416e-01 -3.32833757e-03
   3.38976592e-01  1.74726740e-01 -8.89882147e-02  8.24259594e-02
  -2.06347406e-02 -1.20232768e-01 -5.06756544e-01 -1.78547964e-01
  -2.28451490e-02 -2.44326442e-01 -2.16768250e-01  4.66315560e-02
  -5.53725660e-02 -4.53179367e-02  3.56628373e-02 -6.87040985e-02
   4.96682860e-02 -6.44041225e-03  9.33136269e-02 -2.10254006e-02
   5.29458113e-02 -6.44926801e-02 -8.25998560e-02  3.01038120e-02
  -1.49290442e-01 -8.98319110e-02  7.08507150e-02  6.99541122e-02
  -3.65478569e-03 -1.43389367e-02  4.29398865e-02 -7.12737888e-02
  -1.33950412e-01  3.53639461e-02  2.49108318e-02 -5.81362545e-02
   4.13020998e-02  2.48868838e-02 -6.32744581e-02 -3.45572047e-02
  -2.85418592e-02 -5.17456457e-02 -9.53264609e-02  2.78226584e-02
   9.79967639e-02  2.57535428e-02 -7.10724890e-02  9.45004374e-02
  -1.65988699e-01  3.02375704e-01  1.41733870e-01 -2.08982751e-02]
 [-7.97625631e-03 -3.17691788e-02  5.82552627e-02 -8.17321911e-02
   6.43227324e-02 -4.88307029e-02 -1.86682865e-02  5.49165197e-02
   7.18867779e-02  5.32173030e-02  2.32862551e-02  7.35082431e-03
   1.41395442e-02 -8.09937119e-02 -1.42211281e-02 -1.00312389e-01
   3.27484608e-02  5.23178130e-02 -1.07518202e-02 -5.25694825e-02
   4.13658693e-02 -1.49749309e-01  2.15384141e-02 -5.28846495e-02
  -5.28008416e-02 -4.50342335e-02 -4.37159911e-02  9.37456340e-02
  -5.95541261e-02 -3.19565497e-02  1.58510339e-02  2.65385583e-02
   7.46884346e-02 -7.12208152e-02 -9.01774541e-02  8.50223750e-02
  -3.05624828e-02  9.83648449e-02  2.92174667e-02  2.64512133e-02
  -2.49630306e-02 -2.13626847e-02 -9.85066593e-02  2.09602825e-02
  -9.66485962e-03 -2.66772974e-02  1.34355007e-02  3.19609605e-02
  -7.22355619e-02  1.56302005e-02 -2.19207481e-02  5.93989566e-02
   2.82710437e-02 -4.73106727e-02 -6.68140873e-02  1.43122282e-02
  -7.28551224e-02 -1.65855151e-03 -4.01475690e-02 -8.56446624e-02
  -1.30650401e-02  4.81320471e-02  2.99607757e-02  2.05251966e-02
  -5.11164479e-02  2.17104121e-03 -9.07323286e-02 -1.51942056e-02
  -6.08055741e-02 -7.78644606e-02 -3.67913209e-02 -5.28211065e-04
   1.60688907e-02  2.22376678e-02  9.53917280e-02 -2.72189882e-02
  -1.52035907e-01 -5.34981750e-02  5.82202151e-02  3.40637453e-02
  -7.50859827e-03  8.64669830e-02  4.19546776e-02  3.49873900e-02
   4.59749997e-02 -9.14367884e-02  9.26660560e-03 -6.40858663e-03
   1.19732423e-02 -1.29343215e-02  4.55697849e-02  2.47894302e-02
   5.28598353e-02 -1.21534420e-02 -5.53962849e-02 -3.60411741e-02
  -5.73650636e-02  1.82952993e-02 -3.82372588e-02 -5.41597232e-02
  -8.35685506e-02  7.08524650e-03  2.35765916e-03  2.81323399e-02
  -8.60747509e-03 -2.40178872e-02  5.52005656e-02  6.93055540e-02
  -9.64812040e-02 -1.48192653e-02 -2.14010477e-02  4.58427556e-02
  -1.10119738e-01 -1.51994396e-02  4.17600498e-02  2.68777907e-02
   2.94716675e-02 -1.17658852e-02 -2.40462404e-02  8.09935108e-03
  -1.27070591e-01 -2.93371305e-02 -4.98229302e-02 -9.54423696e-02
  -1.16498880e-01 -5.19809164e-02 -3.88459526e-02 -1.14004724e-02]
 [-8.45775977e-02 -4.38765250e-02  1.07208733e-02 -4.37095985e-02
  -1.21296585e-01 -4.32961211e-02  2.45355703e-02 -6.98710680e-02
  -7.84251280e-03  2.02885084e-02 -1.58163264e-01  4.44358066e-02
   3.20575163e-02 -9.50731859e-02  3.96764204e-02  7.15524331e-02
   2.61586625e-02  8.66526440e-02  4.50251326e-02  1.05162032e-01
   1.59400776e-02  3.89677547e-02 -2.89257281e-02  1.72754675e-02
  -7.42807835e-02  6.98445961e-02 -9.80719626e-02 -2.18849197e-01
  -3.13485563e-02  1.50360167e-01  3.48812565e-02 -1.72526494e-01
  -1.62912846e-01 -1.74957924e-02  5.16869649e-02 -1.47357330e-01
  -8.71230382e-03 -7.47895539e-02  8.81520391e-04  4.77886125e-02
  -2.15018075e-02 -1.14116386e-01  3.22611406e-02 -7.10545555e-02
  -5.11744097e-02  9.35095921e-03 -6.44543618e-02  2.56249487e-01
   5.39179631e-02  5.96126765e-02 -5.03639542e-02  1.51947914e-02
  -4.45042104e-02 -4.97102924e-02 -3.65309161e-03 -1.50273871e-02
  -9.58494842e-02 -3.21553051e-02 -3.15305069e-02 -4.51724567e-02
   8.52205232e-02 -9.64516252e-02 -5.09753041e-02 -1.11360237e-01
   2.29652226e-02  6.56939521e-02 -4.07378413e-02  4.04709764e-02
  -2.25227661e-02 -2.53452007e-02 -1.36745377e-02 -1.57683060e-01
   2.63775680e-02 -6.80622682e-02  8.71189963e-03  4.20189239e-02
   1.42880827e-01  3.14706750e-02 -1.38425320e-01 -3.60733345e-02
   6.00690348e-03 -7.57323653e-02 -1.03757106e-01 -2.09710717e-01
   3.87292504e-02 -6.99067265e-02 -1.05598927e-01 -1.02837887e-02
   2.81929281e-02  9.56963189e-03 -3.79356742e-03 -4.68508191e-02
  -2.59463452e-02  4.77458090e-02  2.31108852e-02  2.13214047e-02
   3.80731449e-02  2.83870492e-02  3.93070094e-02  5.18231317e-02
  -3.97774614e-02  6.90226406e-02  2.22201254e-02  7.84282759e-02
  -3.59863006e-02 -9.71352160e-02 -1.08488917e-03 -1.16013661e-01
  -5.63534722e-03 -2.62171738e-02  1.76081687e-01 -4.25027637e-03
  -9.55927558e-03  7.80989975e-02  1.37604056e-02 -3.00908126e-02
  -2.02601757e-02  1.73057392e-02 -1.68850701e-02  3.87455747e-02
   1.27332479e-01 -5.88814691e-02  4.91838641e-02  1.64946184e-01
   4.10067402e-02  1.80505469e-01 -1.96881425e-02  3.75367738e-02]
 [-3.23519073e-02 -9.77851301e-02 -2.99748600e-01 -3.07983831e-02
   5.52573204e-02  1.12180943e-02 -1.48105696e-02  3.41465551e-04
  -1.33512244e-01 -7.58965639e-03 -1.19671933e-01 -5.21942079e-02
   7.13286642e-03 -1.05072252e-01 -7.15682795e-03 -9.45176482e-02
  -1.80702329e-01 -1.35031611e-01 -6.12317845e-02 -2.67815217e-02
   2.77253501e-02 -1.04255453e-01 -6.90800622e-02 -6.18455149e-02
  -2.67474651e-02 -2.50473678e-01  3.40255611e-02  1.49593189e-01
  -6.21176362e-02 -1.39523670e-02  1.14807934e-02 -2.13675678e-01
   9.61006284e-02 -3.98912430e-02  4.41328548e-02 -5.04554249e-02
   1.56870391e-02  3.83728556e-02 -5.10361120e-02  3.33837117e-03
   3.45501713e-02  3.66341509e-02 -7.23547116e-02  3.65162417e-02
  -6.47064373e-02  2.46827397e-02  7.50817806e-02 -2.12841153e-01
  -3.46406247e-03  5.04353680e-02 -7.07081100e-03 -2.17347313e-02
  -4.57229540e-02 -5.92028834e-02  1.37548251e-02 -3.28238420e-02
  -2.12042555e-02  3.14164236e-02  2.93431468e-02  1.69077013e-02
  -7.13513643e-02  8.63073021e-02 -7.63586257e-04 -2.70218831e-02
  -7.25046322e-02  7.18412995e-02 -9.36381966e-02  4.79125343e-02
  -2.72513796e-02  5.16273640e-02 -4.92587909e-02 -1.49795052e-03
  -3.24885622e-02 -4.96045463e-02 -2.54313592e-02 -5.43839671e-02
  -1.60683349e-01 -4.32463810e-02  2.15788692e-01  5.85977249e-02
  -5.63854724e-02 -6.35127500e-02  9.77153704e-02 -7.43020549e-02
   9.81402956e-03  6.31857291e-02  2.18032207e-02 -5.23304492e-02
   1.13695720e-02  3.23669687e-02  2.08965745e-02 -5.43158799e-02
   7.09953085e-02 -4.41444889e-02  1.85986422e-02 -2.86318902e-02
   1.39645450e-02  2.66012494e-02  5.10051437e-02 -8.39068815e-02
  -2.51093298e-01  6.49555326e-02 -4.17382196e-02 -9.15119275e-02
  -1.91687401e-02 -2.64373398e-03 -5.45703694e-02 -4.18261364e-02
  -9.01972130e-02  4.31287549e-02 -4.31219116e-02 -4.08427194e-02
  -4.47299369e-02 -3.38836461e-02  1.51588604e-01 -1.48619907e-02
   1.30159652e-03 -1.14383353e-02  5.69821186e-02  2.33383104e-03
  -2.23245367e-01  2.01725969e-04  4.08525998e-03  3.69922519e-02
  -1.05084091e-01 -3.95969637e-02 -1.19824000e-02 -5.56870177e-02]
 [-7.57335201e-02 -4.25821468e-02 -2.45508738e-02 -6.54969066e-02
   1.15545340e-01 -6.22611716e-02  5.65042682e-02 -6.34118244e-02
  -5.53739294e-02  3.05955559e-02  5.98252639e-02 -4.83751856e-02
   1.59476772e-02 -1.86481431e-01 -2.71069780e-02  7.56042600e-02
   6.61689490e-02 -9.63899568e-02 -1.80234276e-02  1.85487531e-02
   4.39935029e-02  9.19541344e-03 -2.81896703e-02 -3.83128151e-02
   8.13142583e-03  6.55311421e-02 -2.59537566e-02  6.36172667e-02
  -5.90961762e-02 -1.07688218e-01 -2.53273584e-02 -4.75810394e-02
   8.63407478e-02  1.80073064e-02 -1.13056954e-02  1.41462743e-01
   3.93909682e-03  1.13715991e-01 -6.52845055e-02  1.40959239e-02
  -7.82689825e-02 -2.00622752e-02  6.02501631e-03 -1.17707541e-02
   3.58708985e-02 -2.16721036e-02 -9.91770327e-02 -3.15956138e-02
   7.05261622e-03  3.65029089e-02 -6.42897785e-02  5.42269014e-02
   2.40210891e-02  1.11362614e-01  4.00468074e-02 -6.90381378e-02
  -2.18204353e-02 -1.05589151e-01 -3.56703065e-02  7.80564034e-03
  -4.43053767e-02 -1.26200300e-02 -3.26651335e-02 -8.91913287e-03
   5.04774414e-02 -1.72627624e-02 -4.31130789e-02 -4.85695750e-02
  -6.39176220e-02  1.57331452e-02  8.93624313e-03  6.27380311e-02
  -2.32739300e-02 -5.79121523e-02  5.28002484e-03  1.95408165e-02
  -1.14664249e-01 -1.79012761e-01  6.20998442e-04 -6.80022761e-02
  -6.37598708e-02  6.02294952e-02  1.21054597e-01  1.31683111e-01
  -5.72217852e-02 -3.40215117e-02  9.78475288e-02 -5.90448864e-02
   3.10213733e-02  1.05251279e-02 -6.37375191e-02 -3.26157212e-02
   2.55731214e-02 -6.24866746e-02  2.37428248e-02 -7.00075626e-02
  -3.38728614e-02 -5.99115528e-02  1.15902731e-02 -7.12667853e-02
  -1.08304573e-03 -5.11242449e-02 -8.83693574e-04 -1.05636613e-03
  -1.16170580e-02  5.29161245e-02  5.72359450e-02  7.59728253e-02
  -4.29705065e-03  3.43540236e-02 -1.70045570e-02  2.46391073e-02
  -1.87505960e-01  2.15147436e-02  1.97153315e-02 -1.43607175e-02
  -5.49511127e-02 -4.59098816e-02  2.93411892e-02  8.18973593e-03
  -1.16871379e-01  2.98120510e-02  2.09193397e-02  3.36625939e-03
   4.19406742e-02 -1.66859165e-01 -9.19064730e-02  2.30722409e-02]
 [-2.47320812e-02 -6.81192987e-03 -1.55148149e-01 -7.36509785e-02
  -6.25456944e-02 -2.66497824e-02  5.77767286e-03 -5.02637252e-02
  -4.06948105e-02 -5.39701395e-02 -1.35219432e-02 -2.12351400e-02
   2.91093197e-02 -3.63420695e-02  8.21431354e-02 -3.62139344e-02
  -2.08768666e-01 -1.11816907e-02  4.69507352e-02 -3.20941070e-03
   2.16647740e-02  7.45368898e-02  2.37945039e-02 -5.57422191e-02
  -7.13343322e-02  4.23575453e-02  3.28777768e-02  5.30446917e-02
   4.58781421e-02 -2.00715289e-02 -1.64237488e-02 -7.68534839e-02
   1.25775427e-01  4.93267737e-03 -1.52159007e-02 -5.40840179e-02
  -2.12019999e-02  5.79195470e-02 -1.09092789e-02 -2.61851531e-02
   2.01441650e-03  2.36169063e-02 -6.88219517e-02  6.70812512e-03
  -3.81822027e-02 -2.78381668e-02  4.19047922e-02 -9.31601040e-03
  -3.24265771e-02 -2.40275897e-02  1.20037897e-02 -6.99939355e-02
   4.76792566e-02 -1.04275094e-02 -2.69108210e-02 -5.22279665e-02
  -1.04585486e-02  2.46569188e-03  2.82577090e-02 -5.71683981e-02
  -1.12374820e-01 -7.25250244e-02 -1.55196879e-02 -1.14673320e-02
   5.55903651e-02  2.52064057e-02 -2.63559725e-02 -5.13140950e-03
   1.70739982e-02  7.43860612e-04 -4.17709686e-02  1.81145668e-02
   4.83082905e-02  2.21963320e-02  2.19811290e-03  5.08743711e-02
   3.86327319e-02  2.21547280e-02  9.00201052e-02 -3.44169699e-02
  -2.08236463e-02 -3.83537747e-02  5.89771383e-02 -1.20952204e-02
   3.86530720e-02  4.25550640e-02  1.93035901e-02 -5.15796579e-02
   3.38903032e-02  1.65982433e-02  4.60674241e-02  2.47996184e-04
   1.46238074e-01 -2.69915499e-02 -2.94096973e-02 -2.68675899e-03
   2.94115916e-02 -1.53797483e-02  4.96604331e-02 -7.23261684e-02
  -9.16166138e-03 -2.51054540e-02 -1.39381746e-02 -7.09207878e-02
  -1.49930855e-02 -1.45506253e-02 -5.55396862e-02 -2.59706955e-02
  -3.67608331e-02  6.69305101e-02  8.79951380e-03  3.05864923e-02
  -5.52138649e-02  3.20749655e-02  1.56749889e-01 -9.16033313e-02
  -3.38793397e-02 -4.70582061e-02 -6.56501278e-02 -2.18922738e-02
  -6.97669759e-02 -3.13950665e-02 -5.96629307e-02 -4.24388722e-02
   4.64264350e-03 -3.03855520e-02  6.09754100e-02  2.54538450e-02]
 [ 9.97684710e-03  3.89372185e-02  8.84030163e-02 -3.36836353e-02
  -1.10515282e-01 -7.47477114e-02  1.96128562e-02 -4.13063876e-02
   6.34872764e-02 -5.92137389e-02 -1.06813297e-01  1.56204216e-02
  -5.61706945e-02  5.78922592e-02 -8.80513526e-03 -1.03169978e-02
  -1.22790865e-03  1.20253481e-01  1.71524454e-02 -3.19298171e-02
  -4.58161943e-02  7.39415362e-02  3.90182137e-02  3.43991332e-02
  -6.64633885e-02 -9.64061171e-02 -4.19294499e-02 -2.18712091e-02
  -5.69495074e-02 -6.89821392e-02 -2.78244782e-02  9.45188180e-02
   3.84034850e-02 -2.20043752e-02 -5.20043746e-02 -4.39855233e-02
  -1.44363670e-02  7.60319531e-02 -5.51140346e-02 -2.93224901e-02
  -5.40200025e-02  3.97772267e-02  4.22822423e-02 -3.17028873e-02
  -5.47676161e-02  1.85923930e-02  9.79728997e-02  6.16668686e-02
  -2.86388174e-02 -1.25862928e-02 -1.04516642e-02 -8.70294422e-02
  -3.10923625e-03 -4.49239016e-02  8.82919319e-03  3.42339873e-02
  -3.82224806e-02 -7.51625374e-02  8.97927303e-03  1.88735209e-03
  -7.96378031e-02 -1.05541088e-01  7.67479017e-02 -4.50448543e-02
  -5.31238280e-02  1.27966031e-01  9.47178826e-02  3.96135040e-02
  -2.58034393e-02  1.53222319e-03 -5.67059182e-02 -8.39959383e-02
   2.53236834e-02 -6.24562129e-02  7.17644021e-02 -4.00733016e-02
   1.16711646e-01 -1.55692231e-02  1.94854215e-02 -2.76097823e-02
   4.42851745e-02  5.01082987e-02  9.27283466e-02  7.99103379e-02
  -1.80719644e-02 -2.63552237e-02  1.16179027e-01  3.31686772e-02
  -2.23244652e-02 -2.91019995e-02 -6.36195904e-03  3.13170366e-02
  -6.14009472e-03 -2.80392729e-02  3.26023251e-02 -6.89237490e-02
   3.55637185e-02 -2.80957147e-02  7.57481612e-04 -1.98763050e-02
   1.67474486e-02 -9.75598544e-02  8.67221598e-03  1.07722946e-01
   1.63896065e-02 -2.63983551e-02 -2.47153509e-02 -3.64266783e-02
  -1.59936759e-03 -1.68299116e-02 -4.53608111e-02 -5.24227843e-02
   6.14385456e-02  2.84661260e-02  8.61333013e-02  1.50125637e-03
   1.88698713e-02 -6.07626513e-02  1.20534725e-01 -2.11038850e-02
   1.85716115e-02  9.97596793e-03 -1.57973748e-02 -5.69327921e-02
  -1.37026832e-01  1.32559508e-01  8.26898366e-02  1.85361914e-02]
 [-3.13306414e-02 -8.15936849e-02 -1.29757794e-02 -1.59405507e-02
  -7.59921828e-03 -2.83205416e-03 -9.31888372e-02 -1.67590547e-02
   4.44731601e-02  2.47349739e-02  3.77364014e-03 -3.06671429e-02
   1.32030370e-02 -5.32288030e-02  1.32491644e-02 -6.07488714e-02
   1.33813068e-01  4.38567996e-02 -3.64258774e-02 -3.99623476e-02
  -3.30251679e-02 -8.56077671e-02 -6.27848282e-02 -8.99130479e-02
  -8.99020955e-02  3.36123668e-02 -2.67406856e-03  9.30226669e-02
  -5.93305274e-04 -3.47436704e-02 -6.68749139e-02 -2.79075559e-02
  -5.06491624e-02 -7.28175568e-04 -4.92489971e-02 -7.08177090e-02
  -4.86420915e-02  5.28822886e-03  1.81652959e-02  3.61039340e-02
  -3.27398144e-02  3.91115062e-02 -4.54821400e-02 -5.66072054e-02
   1.10591007e-02 -5.18256314e-02 -3.68227251e-02 -1.62170995e-02
  -3.94123532e-02 -2.49292199e-02 -6.46885708e-02  2.57065073e-02
  -6.57143146e-02 -6.64706305e-02 -4.98781204e-02  3.98465507e-02
  -8.80846456e-02 -9.20893177e-02 -2.66009588e-02 -7.84868672e-02
  -2.26477012e-02  7.62727112e-02 -4.93437657e-03 -5.55165596e-02
  -2.96380986e-02  4.05292585e-02  1.49836708e-02 -4.74970266e-02
   1.52098006e-02 -1.81700028e-02 -1.90525334e-02  5.98596893e-02
   4.69237864e-02 -7.29875360e-03  1.31466212e-02 -9.75434110e-02
  -1.31901979e-01  4.29206388e-03  6.90739835e-03  3.38427210e-03
  -1.54281277e-02  8.47796202e-02 -1.21322349e-02  5.13238050e-02
  -5.38983531e-02  2.75150742e-02  7.16223270e-02 -2.01209206e-02
  -3.78035940e-02  4.70308587e-02  4.46592830e-02 -3.86662297e-02
   3.00904475e-02 -1.29005574e-02 -4.45692353e-02 -6.32662997e-02
  -2.71067526e-02 -4.25445549e-02 -6.28641713e-03 -1.03534117e-01
  -5.32074533e-02  1.81547850e-02 -5.59680015e-02 -9.02981833e-02
  -3.65121067e-02  3.48321861e-03  5.49831875e-02  2.51573361e-02
  -8.47713798e-02 -2.40310859e-02 -1.18942000e-03  4.64172475e-02
  -7.52295852e-02  2.75816936e-02 -1.59560665e-02 -3.84000503e-02
   6.73856586e-03 -2.81209312e-02  1.77596435e-02 -1.70340540e-03
  -9.17730555e-02  2.33675390e-02 -1.79302432e-02 -1.92427393e-02
   3.63112497e-03 -1.26292884e-01  1.94550753e-02  1.92462876e-02]
 [-8.48954991e-02  2.17300514e-03  5.21550998e-02 -1.78806260e-02
  -1.91780910e-01 -5.71875498e-02  4.57862094e-02  2.94279736e-02
  -2.31317785e-02 -1.69889405e-04 -2.28113402e-02  4.90893945e-02
  -1.37501126e-02  1.24694124e-01  1.17756929e-02  6.52218387e-02
  -7.21895322e-03 -3.31285633e-02  2.65345629e-02  9.77867916e-02
   4.35467809e-02 -4.60878238e-02 -1.13023655e-03 -2.70695463e-02
  -2.23834421e-02  8.30522925e-03 -1.08387209e-01  9.92038753e-03
   7.38539919e-02  7.01327324e-02 -1.98326837e-02 -1.40136510e-01
  -4.67628464e-02  6.91339700e-03  7.75723755e-02 -1.53268620e-01
   2.52476633e-02  6.20129183e-02 -3.90082672e-02  5.61888553e-02
   2.05222052e-02 -4.34998749e-03  5.20634353e-02 -6.06655255e-02
  -9.75441113e-02  2.73353606e-03 -3.28033976e-02  1.39392421e-01
  -2.45254133e-02  2.64037549e-02  4.83496860e-02  2.22400606e-01
   3.06524560e-02 -4.89237979e-02  1.09745860e-02 -2.68166624e-02
  -7.69684985e-02 -5.29048145e-02  5.01696095e-02 -3.45955640e-02
   1.93546098e-02  1.68121949e-01  1.26570255e-01 -3.27969454e-02
   1.41300231e-01 -1.33198528e-02  6.96875975e-02 -2.71986593e-02
   5.19246943e-02  2.88641322e-02 -3.22876833e-02  1.30283209e-02
  -3.06238085e-02  3.90265062e-02  8.61458629e-02  1.40378838e-02
   1.85302898e-01 -3.90980253e-03 -2.22262830e-01  2.22081691e-02
   1.93539038e-02  1.39421433e-01 -1.63725317e-01 -1.71988029e-02
   1.33392960e-02 -2.34036297e-02 -4.64091152e-02 -4.27619033e-02
   1.11838207e-02  8.52402207e-03 -6.14342047e-03 -3.85745056e-02
  -4.58825566e-02 -7.47193620e-02  5.74068539e-02  5.41049019e-02
  -1.90191697e-02 -8.89128894e-02  2.02909242e-02  8.13551545e-02
  -4.09950577e-02 -1.24856800e-01 -2.13229116e-02  5.05731218e-02
   5.92500642e-02 -1.35797888e-01  2.30260402e-01  3.15373344e-03
  -2.90369382e-03  3.34197991e-02  1.66385397e-01  2.36678272e-02
   2.09533766e-01  1.40674829e-01 -6.04286827e-02  2.60529779e-02
   4.19673398e-02 -4.67782766e-02 -7.04106269e-03  1.64972451e-02
  -8.53761211e-02 -3.63526051e-03  3.38197351e-02 -5.23700342e-02
  -9.86642465e-02  2.47215286e-01  4.93487902e-02  3.28428298e-02]
 [-4.85653691e-02 -5.87853827e-02 -2.42200688e-01 -8.17707181e-02
   3.44921509e-03 -5.81313968e-02  6.53306171e-02  7.47192744e-03
  -1.32941246e-01 -6.64029345e-02 -1.34024248e-01  1.43745113e-02
   3.49554755e-02 -4.73051667e-02 -1.10127544e-02 -9.73326340e-02
  -2.24946648e-01 -1.44566983e-01  3.00663002e-02  1.31498855e-02
   4.75114621e-02 -2.00814500e-01  2.47394741e-02 -4.02016342e-02
  -2.15712190e-02 -2.38326296e-01 -4.71682400e-02  1.36799797e-01
  -3.97411063e-02 -7.33329803e-02  4.33970131e-02 -1.66565597e-01
   1.47920111e-02 -1.12036215e-02 -4.76917578e-03 -1.11164287e-01
   1.91271175e-02  7.10089654e-02 -3.90771367e-02 -3.58014256e-02
  -4.74801362e-02  1.51933715e-01 -2.14030668e-02  1.53371030e-02
  -5.43708317e-02  3.98678482e-02  6.39366806e-02 -2.28274196e-01
  -6.16075806e-02  2.70581096e-02 -1.70151945e-02  4.67796661e-02
   4.05407324e-02 -1.38803139e-01 -8.14252868e-02 -9.16439295e-03
  -2.66199168e-02  3.14624310e-02 -3.64414006e-02  2.16483157e-02
   1.50757367e-02  1.20203001e-02  3.53318192e-02 -3.22214030e-02
  -3.77554423e-03  3.53214294e-02 -9.82670411e-02  4.27317582e-02
  -2.58991960e-02 -3.01356111e-02  1.46213947e-02 -6.69763833e-02
   2.70503238e-02  3.10347825e-02 -5.37064523e-02 -4.57974337e-02
  -2.07870439e-01 -3.80434841e-02  2.31073990e-01 -4.98835258e-02
  -4.44059148e-02 -2.73688138e-02  1.05110191e-01 -5.10859191e-02
  -5.33687659e-02 -2.46225949e-02 -7.21562728e-02 -6.42236844e-02
  -3.24637658e-05  5.11039756e-02 -1.67819709e-02  4.37565893e-02
   9.25774127e-02 -3.97632793e-02 -3.00092367e-03 -1.44352233e-02
  -5.45098409e-02 -1.13450671e-02 -3.17577794e-02 -5.45984209e-02
  -2.02774614e-01  1.09652989e-01 -2.49970052e-02 -2.18118787e-01
   8.02787393e-03 -6.59125522e-02 -4.82013039e-02 -1.07865520e-02
  -2.69278437e-02  2.96604689e-02 -2.17164949e-01 -5.36538176e-02
  -1.97050683e-02  3.79290059e-02  1.67589962e-01 -4.56460305e-02
   5.38526773e-02 -1.15571609e-02  1.40230462e-01  8.59084819e-03
  -2.39673525e-01 -5.64993843e-02 -3.02287936e-02 -6.48720488e-02
  -1.97821662e-01 -1.91649616e-01 -1.97464880e-02  6.34264713e-03]
 [ 1.97253134e-02 -2.06307881e-02  2.10476648e-02  6.46174923e-02
   2.22085789e-02  4.79471013e-02  4.81026657e-02 -5.57975098e-02
  -1.45092517e-01  9.85463150e-03 -1.33717600e-02  2.76854280e-02
   3.15907821e-02 -6.16418123e-02  6.04379699e-02  2.03655303e-01
   5.31919487e-02  3.18838432e-02  1.66090615e-02 -2.92413607e-02
  -1.56164587e-01 -4.68567200e-03 -8.14776048e-02  1.55069251e-02
   4.97423857e-02 -1.45759314e-01 -6.74899295e-03 -7.95198083e-02
  -7.11375754e-03 -1.70646273e-02  1.67317782e-02 -1.00694038e-01
  -1.21914938e-01 -6.82454929e-02  1.20198213e-01  4.51142341e-03
  -7.10967556e-02  1.91746745e-03  3.74311134e-02  2.26858538e-02
  -2.54553482e-02  6.19263090e-02 -4.38293293e-02  1.36699257e-02
   7.49799330e-03 -7.16780126e-02 -4.82045412e-02  7.54414275e-02
  -4.61774021e-02 -1.54775903e-02 -7.67658874e-02 -1.98966935e-02
  -6.79517910e-02 -6.37789257e-04  5.29892230e-03 -3.97772305e-02
   2.57696491e-02 -2.07024310e-02  3.59254703e-02 -1.51876733e-02
  -6.94495887e-02 -1.35155827e-01 -8.88010859e-02 -3.66719216e-02
   7.72755891e-02  1.11602023e-01 -7.52220722e-03 -2.52405107e-02
   1.61716416e-02 -5.67657724e-02 -1.76270977e-02 -1.74346864e-01
  -5.09337373e-02  3.02642584e-02  7.79767931e-02 -2.19135713e-02
   5.36948517e-02  7.57178739e-02 -1.48647711e-01 -3.95971090e-02
   6.52809918e-04 -2.73199290e-01 -1.56807210e-02 -3.08509082e-01
  -3.70715559e-02 -1.05993688e-01  4.44899052e-02  5.30229928e-03
  -2.17885543e-02 -7.88620301e-03 -2.75271460e-02 -5.20558935e-03
   4.02021967e-02 -3.88384350e-02 -1.10966057e-01 -2.74978820e-02
  -5.45599200e-02 -2.02735476e-02 -3.02968211e-02  2.99898768e-03
   1.85840521e-02  1.85334701e-02 -2.47591846e-02 -2.27636799e-01
   2.52307672e-03  8.70574266e-03 -7.80619159e-02 -3.17912787e-01
   3.64031866e-02  8.49909335e-03 -1.16015702e-01 -6.94992170e-02
   1.86448649e-01  1.77577473e-02  5.09215146e-03 -2.25258130e-03
  -3.58416885e-02 -1.06270304e-02  6.54152706e-02  2.35284232e-02
  -2.08614729e-02 -9.06649604e-02 -1.67105813e-02  4.10721265e-02
   9.78424400e-02  1.21355327e-02 -7.32819289e-02  1.19443797e-02]
 [-1.84364524e-02 -8.71060193e-02 -7.20020980e-02 -8.21323246e-02
  -1.15519792e-01 -8.65246262e-03 -5.21040782e-02 -2.85508786e-03
   3.47375288e-03  2.71140039e-02 -1.09619247e-02  4.28797081e-02
   2.09919214e-02  6.89953044e-02 -3.73951197e-02 -9.94409472e-02
  -2.64502615e-01 -4.96686213e-02 -2.52191983e-02 -1.88909750e-02
  -1.19922552e-02  1.24377757e-01 -5.30869775e-02 -7.00717121e-02
  -8.92460123e-02 -5.10327443e-02 -3.00347875e-03  6.24446236e-02
  -3.80983762e-02 -4.21917364e-02 -3.28671187e-02 -1.44960955e-01
   3.61789088e-03 -5.79499565e-02 -4.93412651e-02  1.00370012e-02
  -7.72735402e-02  1.52590442e-02  2.32920796e-02  2.01410279e-02
  -8.45181383e-03  4.87408116e-02 -4.06151550e-04 -3.29613425e-02
  -6.31106868e-02 -4.08288240e-02  3.58243622e-02 -1.42398081e-03
  -6.34211153e-02  2.30506025e-02  3.18806879e-02  7.87079409e-02
  -5.87919913e-02 -3.99012165e-03  5.85699230e-02  1.04973675e-03
  -4.13931347e-02  2.11948417e-02 -5.47280014e-02  3.60529423e-02
  -1.80750210e-02 -2.19822943e-01 -3.02217621e-02  3.49678621e-02
  -3.22254258e-03 -7.35445246e-02  3.27051268e-04  4.14390303e-02
   3.33261420e-03 -2.86500920e-02 -2.05773842e-02  3.26336618e-03
   4.91618253e-02 -5.51963188e-02  1.08021339e-02 -6.63108528e-02
  -3.57568376e-02 -9.80030522e-02  1.21543959e-01 -2.69979630e-02
   1.87038276e-02  4.37181965e-02 -3.61500382e-02  1.16070593e-02
   1.71580957e-03  2.83376873e-02 -9.70714316e-02 -2.72196699e-02
  -7.47716054e-02 -5.11990935e-02  5.30239940e-02  2.48352066e-02
  -1.08160416e-03 -6.42629489e-02 -4.43827957e-02 -6.35730103e-02
  -3.49840820e-02 -1.06077874e-02  2.23993566e-02 -7.99439028e-02
  -6.91987127e-02  7.64348581e-02 -2.89306492e-02 -3.59539799e-02
  -5.22475466e-02  2.54357401e-02  3.36709507e-02  7.91340619e-02
  -2.55812425e-03  4.12476920e-02 -7.64273405e-02 -4.60760109e-02
   2.85067149e-02 -4.68331808e-03  1.18012272e-01 -2.85345688e-02
  -9.98619571e-03 -1.22697651e-02 -8.01638290e-02  8.10833927e-03
  -6.28434643e-02  2.15098113e-02 -4.55148425e-03  1.07260784e-02
  -6.94530364e-03  8.91508460e-02  3.76324616e-02 -3.75548340e-02]
 [-7.83037022e-03 -1.63998194e-02 -3.83941419e-02 -7.34151453e-02
   1.57616176e-02 -2.37122569e-02 -3.53269763e-02 -5.58309257e-02
  -1.21116806e-02 -4.29273248e-02 -1.41007304e-01 -1.44606875e-02
   1.37882242e-02  2.96614226e-02  1.53213937e-03  9.69642252e-02
   1.92590745e-03  9.74335894e-02 -7.85239637e-02 -6.14525191e-02
  -6.33882955e-02  1.07948244e-01 -5.29656783e-02 -7.81556070e-02
  -1.61979035e-01 -1.28611907e-01 -1.86934210e-02 -1.43335639e-02
  -3.20852622e-02 -1.70497447e-02 -5.42887114e-02  1.11431733e-01
  -5.15124239e-02  2.89930925e-02 -6.33247718e-02 -1.10357367e-01
   5.18359058e-02  7.48300776e-02  2.23056730e-02  1.14391949e-02
   4.54693958e-02  1.49641484e-01  5.53622562e-03  1.90538634e-02
  -6.64309338e-02  3.98228578e-02  4.92001930e-03  1.07390054e-01
   1.20356826e-05  4.77317162e-02  1.72871072e-02  3.71715636e-03
  -6.07494377e-02  1.20343938e-02 -4.82000820e-02 -5.24836555e-02
   6.68110652e-03  8.32004771e-02  4.52175550e-02 -1.15399152e-01
  -7.23627349e-03  1.32660151e-01  3.93138900e-02 -1.87233072e-02
  -3.82014886e-02  1.99637245e-02  1.37772679e-01 -7.11250156e-02
   1.26851462e-02  7.21799629e-03  1.97227746e-02 -8.95569846e-02
   3.25168259e-02 -9.61691327e-03 -2.40793768e-02 -4.87785302e-02
   1.49939120e-01  7.38414675e-02 -7.37327784e-02 -2.25543734e-02
  -1.29090725e-02 -1.67437702e-01 -1.45479320e-02 -2.96800584e-02
  -4.71297838e-02  1.13340179e-02  4.90015298e-02 -1.48576014e-02
  -2.44872365e-02 -2.40964838e-03 -6.37051389e-02  3.66682373e-02
  -5.89479171e-02 -4.77321036e-02 -8.19312483e-02 -5.78305982e-02
  -3.28641012e-02 -1.04967235e-02  4.37062569e-02 -9.84909460e-02
   4.14863639e-02 -9.20733958e-02  4.30164533e-03  1.84968747e-02
   6.76374743e-03 -4.25930433e-02 -1.15937054e-01 -7.30628148e-02
  -7.36486260e-03 -4.02996764e-02 -8.27358812e-02  2.45780591e-02
   4.77081351e-02  1.60252079e-01 -3.58216912e-02 -1.34290298e-04
   6.20039776e-02 -4.89587486e-02  1.76866397e-01 -6.27323985e-02
  -1.22041561e-01 -1.89349949e-02  2.23096609e-02 -1.45563871e-01
  -8.33804160e-02  8.15577880e-02  9.28981155e-02 -1.57736279e-02]
 [-7.81890843e-03 -9.27217677e-02  5.25991097e-02 -3.51855680e-02
   4.90014721e-03 -2.74893735e-02 -3.62498462e-02 -5.36223687e-02
  -1.22732492e-02 -5.59139177e-02  6.67911544e-02 -5.39024360e-03
  -8.71780701e-03 -1.57019094e-01 -6.92467913e-02 -8.87557715e-02
   1.30054057e-01  9.39819291e-02 -5.69819361e-02  1.17665390e-02
   6.08575181e-04 -7.85372183e-02 -6.76183477e-02 -1.33676287e-02
  -2.01804345e-04  4.07365672e-02 -4.86345589e-02  3.57271023e-02
  -5.61275817e-02  7.16176676e-03  7.15682209e-02  2.71971971e-02
   7.12517044e-03  1.39740547e-02 -4.67065908e-02 -1.26120120e-01
   5.59791960e-02 -3.64287831e-02 -3.71854566e-02 -3.39130349e-02
  -3.57835777e-02 -1.21412445e-02 -5.24287745e-02  4.68862941e-03
  -6.61393926e-02  6.01466373e-03  4.49027941e-02 -1.06943935e-01
   1.12147192e-02  1.21973008e-02  1.96436909e-03  4.11248021e-02
  -2.63251606e-02 -5.25312126e-03  9.10624978e-04 -4.19057533e-02
  -3.30560952e-02 -9.12453543e-05  2.76897978e-02 -6.53214157e-02
   4.66910191e-02  9.18129683e-02  2.41845306e-02 -1.01126656e-02
  -2.37230826e-02 -2.15961151e-02  1.71433389e-02  2.71429494e-03
  -1.12067498e-02  7.86032621e-03 -3.25932801e-02  3.89255653e-03
  -4.76930439e-02  3.43249626e-02 -2.55161338e-02 -6.12561181e-02
  -6.23067133e-02 -1.10172302e-01 -1.67397503e-02 -3.30555029e-02
  -2.56328098e-02 -1.02525400e-02  4.56098430e-02  1.40099181e-02
  -3.24842297e-02  4.10519280e-02  1.83005084e-03  1.37050990e-02
  -7.73428380e-02  3.54831442e-02 -4.42628078e-02  4.47678529e-02
   7.70330802e-02  6.71379617e-04 -5.87678887e-02 -1.85005311e-02
  -5.96748665e-03 -1.37114590e-02  1.64374672e-02  1.83891077e-02
  -6.39804732e-03  1.00045670e-02 -3.65864299e-02 -8.30171183e-02
  -6.63989559e-02 -8.56863037e-02 -2.55212262e-02  1.64037626e-02
  -2.02520322e-02  1.64127890e-02 -4.82215248e-02  6.07470274e-02
  -7.46845156e-02 -6.05648058e-03 -1.90692469e-02  4.76405025e-02
  -4.20066491e-02 -3.33037227e-02  1.30677661e-02  2.84697935e-02
  -1.14993483e-01 -5.05681299e-02 -4.09379937e-02 -1.65560897e-02
   5.03170080e-02  4.98905964e-03  1.56313982e-02  9.00195539e-03]
 [-6.45852536e-02 -1.45739252e-02  2.09568441e-02  5.03919600e-03
  -1.29607439e-01 -2.31924616e-02 -9.64359846e-03 -2.44199410e-02
   3.57258096e-02  5.31400293e-02  8.75944793e-02 -2.35114209e-02
  -1.55792488e-02  1.44111067e-01 -1.80078521e-01  8.34925771e-02
   4.32794355e-02  4.17988673e-02  3.07225212e-02  1.16423532e-01
  -5.59289083e-02  3.89175548e-04  3.46436128e-02  5.62448055e-02
   3.68839689e-03  1.48297427e-02 -5.45515865e-02 -9.54044983e-02
  -2.95608733e-02  9.15753171e-02 -3.24574932e-02 -2.08166968e-02
  -1.23289324e-01 -5.47413416e-02  1.16138337e-02  8.20708945e-02
   3.34752575e-02 -1.10167265e-01  1.83079094e-02 -3.97172831e-02
  -4.60976921e-02 -2.14287534e-01  8.80711526e-03 -5.91019429e-02
   2.75414195e-02 -1.09530808e-02  1.53124169e-01 -5.69718657e-03
  -1.26598096e-02 -2.01962590e-02 -2.48252954e-02  2.36911565e-01
  -1.34367496e-02  1.44170821e-01 -1.23443641e-02 -2.33617574e-02
  -1.31776676e-01 -4.61892858e-02 -7.53998011e-03 -1.03358254e-01
   1.17468655e-01  1.82946194e-02 -2.72693913e-02  4.72692549e-02
   1.49613887e-01  6.50083348e-02  5.57006672e-02 -3.52345333e-02
   3.45922709e-02  5.20685315e-02  5.64152859e-02  1.44661441e-01
   2.41834223e-02 -2.11599302e-02  6.74279258e-02  3.17309126e-02
   4.05325033e-02 -1.35942688e-02 -3.82602662e-02  5.14131114e-02
  -9.61484294e-03 -4.40886877e-02 -1.27476037e-01 -1.54604567e-02
   2.90073082e-02 -3.07877213e-02 -2.62823943e-02 -1.77726336e-02
  -5.06494157e-02  6.08645240e-03  5.13470955e-02 -1.48266274e-02
   6.03496395e-02 -4.29310650e-02 -5.98025508e-02  5.73684415e-03
   3.87246348e-02  3.95214632e-02 -1.12800403e-02 -1.88392047e-02
  -2.85010748e-02  3.53952348e-02 -1.85105167e-02  1.42857015e-01
   5.23270220e-02  3.95754306e-03  3.64066809e-02 -5.08354791e-02
   5.76262027e-02  1.17704645e-02 -1.52906440e-02 -3.64110544e-02
   6.35036081e-02  3.40424702e-02  1.49632916e-01 -2.39657033e-02
  -2.89047062e-02  3.08312383e-02 -2.82149930e-02  2.24179998e-02
  -2.36629136e-02 -2.22017244e-02  3.35657224e-02  1.10420570e-01
  -6.56765252e-02  9.03128833e-02 -1.30910501e-01  7.21638426e-02]
 [-1.24655077e-02  6.22421852e-04 -3.02716613e-01 -3.87416594e-02
  -9.29176733e-02  7.88973272e-03  1.48553243e-02 -1.05789527e-02
  -1.01179026e-01  5.92404138e-03 -2.58997902e-02  4.52738442e-02
  -3.77857611e-02 -1.77189650e-03 -2.43728310e-02 -9.94872153e-02
  -1.98028564e-01 -1.57542840e-01  1.40060252e-02 -2.42769551e-02
  -7.26289526e-02 -1.71309948e-01 -1.82708341e-03 -3.97484973e-02
  -3.69129293e-02 -1.36086181e-01  1.48832845e-02  8.80298987e-02
  -2.15962287e-02 -2.08028629e-02 -3.32535207e-02 -1.11301698e-01
   1.55919353e-02 -1.70428827e-02  1.48272784e-02 -1.57461658e-01
   2.04828046e-02 -1.39287952e-03  1.18504884e-02 -4.70665284e-02
   1.84120815e-02  1.13854669e-01 -2.71959081e-02  4.87640873e-02
   1.47374636e-02 -1.98758598e-02  2.50490606e-02 -1.89332858e-01
  -4.19085287e-02 -2.14889683e-02 -1.72595009e-02 -5.62608913e-02
   1.56589709e-02 -1.05118938e-01 -5.38857765e-02  3.56520116e-02
  -7.82888755e-02  2.17585601e-02 -3.61555628e-02 -8.17129668e-03
  -1.14055257e-02 -1.14603862e-01  4.48178500e-02 -2.15995293e-02
  -7.03603476e-02 -1.60851814e-02 -7.16394559e-02 -7.50894919e-02
  -6.83102161e-02  5.68441465e-04 -3.15600298e-02 -9.38837975e-02
   1.60936955e-02 -4.35247272e-02 -1.20467827e-01 -2.23155669e-03
  -7.86559060e-02 -6.16957694e-02  8.88551846e-02 -8.13589804e-03
   5.06311543e-02 -5.32598607e-02  7.14163557e-02 -1.40181229e-01
   5.18017039e-02  1.62993819e-02 -3.77997197e-02 -5.06151542e-02
  -6.58830181e-02 -4.80021983e-02  9.82352812e-03  4.75235060e-02
   9.25872251e-02  9.88289528e-03 -2.59073358e-02 -4.00910936e-02
  -8.60339496e-03  8.88466462e-03 -5.34214638e-02 -4.72441651e-02
  -8.42958912e-02  9.54409316e-02 -9.22941882e-03 -1.38459057e-01
  -2.07051858e-02 -2.29725540e-02 -9.72391386e-03 -3.90244462e-02
   3.60027440e-02  4.59551141e-02 -4.65642996e-02 -5.52791655e-02
  -8.10538307e-02  3.71896178e-02  4.44363952e-02  3.32652032e-02
  -4.03465256e-02  3.32208313e-02  1.34328380e-01  2.55857706e-02
  -2.42416829e-01  1.10310810e-02 -2.20405627e-02  6.14591353e-02
  -4.02416252e-02 -6.04908355e-02 -8.47501960e-03  3.06844339e-02]
 [-3.44640366e-03  5.35530858e-02  7.35534057e-02 -1.21610733e-02
  -1.60236098e-02  5.19315805e-03  3.91113684e-02 -4.26394120e-02
  -1.45542294e-01 -2.76343469e-02 -1.22121468e-01  9.46592912e-03
   7.32610151e-02 -2.11460695e-01  7.42369816e-02  6.67186826e-02
   1.31061420e-01  2.26912256e-02 -4.51755617e-03 -1.00586720e-01
  -1.34265199e-01 -8.56411923e-03 -3.04795080e-03  4.00213699e-04
  -4.90642861e-02 -1.48438498e-01 -1.60800010e-01  1.95862819e-02
   1.93207227e-02 -4.55711000e-02  9.11270306e-02  3.66737768e-02
  -1.52760819e-01  1.92740150e-02 -7.90604427e-02  4.45742458e-02
  -7.02564418e-03 -9.87471268e-03  2.98083294e-02 -8.30014236e-03
  -5.86126745e-02  7.88739026e-02 -9.50307399e-02 -3.22681367e-02
  -9.83453728e-03 -4.30178829e-02 -1.47334337e-01  1.29715234e-01
  -7.22295232e-03 -2.52634399e-02 -4.27128701e-03  3.39141972e-02
  -7.59628341e-02  3.37085547e-03  4.14439961e-02  2.37027127e-02
  -4.67579030e-02 -6.85058311e-02 -2.74953023e-02 -5.85455075e-02
  -7.07077086e-02  1.84497293e-02  7.26078898e-02 -9.53563973e-02
  -7.23361317e-03  4.42978665e-02  2.38396507e-02  6.57782517e-03
  -1.19206905e-02 -5.56260832e-02 -5.10898754e-02  3.04679610e-02
   8.68192222e-03  2.05651615e-02 -8.84092376e-02 -2.66900361e-02
   7.69583583e-02 -5.20885400e-02 -1.75470710e-01 -4.70815524e-02
  -2.50797216e-02 -3.10368419e-01 -4.05520992e-03 -1.76334932e-01
  -2.52110679e-02 -1.27876982e-01 -2.02500299e-02  1.49975251e-02
  -8.80224034e-02 -2.17657220e-02 -3.33609851e-03  3.45767587e-02
   4.28125672e-02 -1.22366473e-02 -7.22085759e-02  2.55836360e-03
   2.51797494e-02 -6.48835450e-02  1.32364500e-02  2.63515748e-02
   5.03006130e-02  1.65379301e-01 -9.80689283e-03 -1.90990597e-01
   9.12855007e-03 -2.50899177e-02 -1.11228287e-01 -1.24848776e-01
  -1.84189994e-03 -3.93672250e-02 -1.20542310e-01 -2.95680929e-02
   1.78115308e-01  2.98063550e-02  2.19239034e-02 -9.43051130e-02
  -1.30124558e-02  1.14324922e-02  5.84268235e-02  1.30153084e-02
   6.33706376e-02  2.72960439e-02 -6.96207955e-02 -2.60222331e-02
   9.27084312e-02 -3.18020657e-02  1.07596122e-01 -6.07544594e-02]
 [-3.29304300e-02 -5.87649085e-03 -2.68693566e-02 -3.35640758e-02
  -1.01098150e-01 -6.63172901e-02 -8.92585665e-02  4.08469141e-02
   1.10527538e-02  1.61654856e-02 -1.45364895e-01  8.38876795e-03
   1.64816435e-02 -5.42282164e-02 -2.70879874e-03 -1.21239899e-03
  -2.27826506e-01 -7.45408833e-02 -5.69149628e-02 -3.65270041e-02
   1.28663296e-03  2.00122267e-01 -3.12344003e-02 -2.70008761e-02
  -1.02078758e-01  2.37304848e-02  5.37033454e-02  2.41396800e-02
  -6.85248571e-03 -7.33152628e-02  3.99214588e-02 -2.69842714e-01
  -8.91278964e-03 -3.20209051e-03 -2.86282003e-02  1.30539611e-02
  -1.50297703e-02  4.98627126e-02 -2.78296620e-02  7.99938687e-04
  -4.47503850e-03 -9.07632932e-02 -8.92912075e-02 -1.81232598e-02
  -4.20698859e-02 -4.57963385e-02 -3.11585795e-02 -1.33556891e-02
   6.26667030e-03 -5.64174615e-02  2.26890296e-02  5.12215681e-02
   3.54150981e-02  4.42552157e-02 -1.95784289e-02  2.70985495e-02
   1.33645786e-02 -6.70624897e-02  7.61375483e-03  1.16520552e-02
   3.32421786e-03 -1.08496107e-01 -8.02553371e-02 -4.99025807e-02
  -2.06322763e-02 -7.41263628e-02 -5.95658496e-02 -3.14498171e-02
   1.29622370e-02 -4.98606600e-02 -5.81786260e-02  5.08885980e-02
   4.09474708e-02  3.35560851e-02  3.50462720e-02 -9.62548330e-02
  -8.03069547e-02 -1.01394684e-03  4.23807129e-02 -1.71881132e-02
   3.54026482e-02  3.05516776e-02  4.02431190e-03  7.78727755e-02
   4.18849103e-02  3.23590226e-02 -6.61086068e-02 -4.89181913e-02
  -1.40453828e-02 -1.49901500e-02 -7.12584658e-03 -3.20407934e-02
   7.92948306e-02 -3.02321371e-02  1.16960406e-02  4.79942337e-02
  -2.14997977e-02 -4.59797606e-02 -6.35458753e-02 -8.77274051e-02
  -7.41378069e-02 -1.10542623e-03 -4.04004427e-03  5.44732809e-02
  -2.63784472e-02 -5.73067367e-02  4.08179201e-02 -2.86509749e-02
  -3.21416231e-03  3.61323804e-02  5.38413599e-02  2.35730782e-02
  -1.12390146e-01  4.83033108e-03  1.02931574e-01 -5.71642397e-03
  -8.92208740e-02 -5.00552133e-02 -1.36316791e-01  5.29260635e-02
  -1.86114386e-01 -6.79151788e-02  2.73984969e-02 -7.76464641e-02
  -4.15900685e-02  1.05372965e-02  3.18944007e-02  1.18080340e-02]
 [-3.23001407e-02  2.96232961e-02  3.15323728e-03 -4.24198546e-02
   7.65181109e-02  3.78756709e-02  3.50034162e-02 -5.17879128e-02
  -3.97004224e-02  1.45916203e-02 -6.31532073e-02 -2.95614600e-02
  -1.71712029e-03  2.44731642e-02  6.41963957e-03  1.58055931e-01
   2.52173170e-02  2.04984099e-01 -7.06661046e-02 -1.18268533e-02
   1.43826175e-02  5.70764616e-02  2.17791344e-03 -1.71650499e-02
   2.02436820e-02 -4.75807451e-02  4.71262671e-02  2.69383052e-03
   4.79895659e-02  2.50040623e-03  2.59662364e-02  2.24358439e-02
  -6.97297975e-02  5.00379764e-02  4.47008796e-02 -1.09961398e-01
  -6.10341355e-02  5.73328957e-02 -4.19009700e-02 -2.65632700e-02
  -4.59299162e-02  1.10283852e-01 -3.82274911e-02 -1.38210384e-02
  -1.36927804e-02  1.62879508e-02  9.39466804e-02  9.76794958e-02
   1.69211514e-02  5.67239821e-02  1.67215727e-02 -4.04802524e-02
  -6.28132746e-02  4.60436530e-02 -1.33066978e-02  4.30146558e-03
   6.30951077e-02  8.69381987e-03 -3.62792462e-02 -5.85136097e-03
  -4.51792702e-02  1.11091830e-01  5.00401296e-02 -4.38781902e-02
  -1.79821346e-02  4.53166179e-02  1.64494544e-01  2.53139269e-02
  -1.93342250e-02 -1.93145666e-02 -7.62819946e-02 -5.00646532e-02
  -4.59099412e-02 -1.07141677e-02  1.00595411e-02 -3.61726023e-02
   1.09583624e-01 -3.39997523e-02 -9.33521613e-02  4.33862396e-02
  -2.04119161e-02 -8.99110064e-02  9.25490558e-02 -1.44505665e-01
  -5.55829071e-02 -4.79055755e-02  2.27861200e-02 -5.23471273e-02
  -4.11939248e-03  3.65435444e-02 -1.06442580e-02 -3.96234766e-02
  -7.47498646e-02  3.49547230e-02 -4.26643156e-02  4.06427905e-02
  -1.95927508e-02 -5.22441454e-02 -4.41768058e-02  2.35695373e-02
   7.22735897e-02 -7.54639357e-02 -7.85744041e-02  3.89364315e-03
  -3.27969971e-03 -3.60181406e-02 -1.43317610e-01 -1.03455797e-01
  -9.33327898e-02 -2.43296158e-02 -6.79152310e-02  5.22448011e-02
   5.98972440e-02  4.98433970e-02  2.20405264e-03 -7.05406303e-03
  -2.74642520e-02  4.22382019e-02  6.70054555e-02 -4.12608348e-02
  -1.14002086e-01 -3.48410942e-02 -4.86937687e-02  5.80033846e-02
  -6.26820177e-02  2.78553851e-02  2.04724576e-02 -1.73520446e-02]
 [-9.69787166e-02 -1.07017480e-01  5.34758493e-02  2.81081479e-02
  -1.10337827e-02 -2.84993481e-02 -2.56646033e-02 -2.82049295e-03
  -3.23200114e-02 -7.92028569e-03 -2.39188951e-02 -4.92568798e-02
  -7.48684108e-02 -8.65995586e-02  3.09936889e-02 -7.36343116e-02
   1.09121902e-02  1.09141007e-01 -8.11259169e-03 -8.22349414e-02
  -1.22050690e-02 -1.79321870e-01  1.23519013e-02 -3.18077356e-02
   4.19908427e-02  3.89415473e-02 -5.22002727e-02  5.75117804e-02
  -4.92585674e-02 -1.88285690e-02  8.68470315e-03  8.02991018e-02
   1.67887304e-02 -7.88921192e-02 -1.16810426e-02 -1.11724578e-01
  -6.22468255e-03  8.15729797e-02 -4.76950072e-02 -5.06529585e-02
  -3.51342931e-02  5.31270988e-02 -4.47154567e-02  2.09905319e-02
  -4.45914455e-02 -2.73177903e-02  3.54049839e-02 -2.02668846e-01
   2.10357606e-02 -3.16186436e-02 -9.81684308e-03 -6.06907420e-02
   3.63273174e-02 -7.16669634e-02  2.00241655e-02 -7.26244040e-03
   1.87978428e-02 -6.19224124e-02 -2.56166724e-03 -9.24015567e-02
  -3.72788496e-02  6.89302683e-02  1.05976425e-02 -7.49366060e-02
  -8.98999125e-02  5.58391027e-03  2.58229543e-02 -5.35068987e-03
  -1.44831964e-03 -4.03966904e-02  1.03313394e-03  7.18864352e-02
   2.84460019e-02  2.02013161e-02  7.04636723e-02 -5.65194711e-02
  -3.38285752e-02 -5.04925586e-02  2.81197168e-02  3.13814171e-02
   2.24298984e-02 -4.09895219e-02 -4.52276282e-02  5.27052358e-02
  -6.33812174e-02 -7.51306340e-02 -3.96756679e-02 -5.47238626e-02
   3.47427242e-02 -3.63716744e-02  5.31052127e-02  3.93980816e-02
   1.11073218e-01  3.47548053e-02  7.12323515e-03 -1.14721842e-02
   9.12284479e-03 -5.13222180e-02 -3.91099416e-02 -4.97953780e-02
   7.68660521e-03 -1.37474742e-02  2.89895050e-02  2.91951047e-03
   3.40769999e-02 -1.98357217e-02  3.61334234e-02  4.69690077e-02
  -6.37119487e-02 -6.20368794e-02 -4.66051213e-02  9.01490636e-03
  -1.06083147e-01 -1.00524180e-01 -4.33284640e-02 -3.34310979e-02
  -3.39458808e-02 -1.33247469e-02  9.34326928e-03  2.90206932e-02
  -1.77187566e-02 -7.24527426e-03 -3.66154127e-03  2.01687757e-02
   5.48636820e-03  2.83452496e-03 -8.68983492e-02 -6.36010170e-02]
 [-6.20353455e-03  2.62172092e-02 -7.96393901e-02 -2.50373557e-02
   7.71785080e-02  7.35688163e-03  4.51485962e-02 -4.01907973e-03
   2.57610679e-02  1.59719177e-02  3.82381938e-02  3.98938283e-02
  -2.87953224e-02  3.90991755e-02 -1.99584737e-01 -1.76559284e-01
  -1.60504028e-01 -4.35582176e-03 -6.56350851e-02  4.97712148e-03
   2.16233060e-02 -6.62315413e-02  1.77509582e-03  8.14517960e-02
  -5.13357781e-02 -8.35810378e-02 -8.68250653e-02 -1.54938981e-01
   4.75393608e-02  3.82469371e-02  3.20023596e-02 -7.96149671e-03
  -1.92359746e-01 -1.67009383e-02 -4.12979871e-02 -2.04841226e-01
  -5.23462594e-02 -8.15607980e-02 -1.90538242e-02 -4.93900944e-03
  -2.38718893e-02 -3.43442082e-01  3.90684828e-02  1.73893832e-02
  -3.66683602e-02  3.32403183e-02  4.19091582e-02  9.76219475e-02
  -4.78800498e-02 -5.43493740e-02  3.27556431e-02  1.27234101e-01
   5.45635372e-02 -5.51769584e-02  1.55580938e-02  2.59446874e-02
  -9.79361013e-02 -7.02905878e-02  4.86624427e-02 -3.69512402e-02
   1.02272384e-01 -2.96183154e-02  2.52687614e-02 -8.93144086e-02
   4.04934213e-02 -1.97128542e-02  3.96835022e-02 -2.14323513e-02
   5.44677526e-02  4.96502444e-02  4.50279936e-02  2.04769239e-01
   2.09021419e-02 -3.39271687e-03  1.12407796e-01  5.66053651e-02
   2.96501145e-02  6.94049075e-02 -4.44900915e-02  6.75825328e-02
  -6.46635890e-04  1.15805462e-01 -4.70135882e-02 -1.05114222e-01
  -2.43378729e-02 -3.39786597e-02  6.30760565e-02 -4.63627167e-02
   1.09952316e-02 -4.77389917e-02  6.79580774e-03 -3.27956267e-02
   1.06862009e-01 -4.39143777e-02 -8.15859661e-02 -7.94419795e-02
   2.65060645e-03  4.39769924e-02  9.66174062e-03 -7.08013698e-02
   1.71796024e-01 -4.26804684e-02 -3.53411548e-02  7.03538358e-02
  -3.30703594e-02  1.49243362e-02  1.12237222e-01 -8.01890939e-02
   9.14813485e-03 -3.74959484e-02 -4.67563942e-02  5.09044528e-02
   1.97599251e-02 -1.94501260e-03  1.44530833e-01 -1.51365101e-02
  -5.72781451e-02  2.43453830e-02 -1.37565173e-02 -1.11321853e-02
   3.74323726e-02  1.88914023e-03 -3.93314846e-03 -1.29611529e-02
  -2.23576739e-01 -1.49502903e-02 -1.49539635e-01  8.55729356e-02]
 [-5.63848019e-03 -1.28826752e-01 -2.35220879e-01 -8.96884277e-02
  -7.84282610e-02 -7.32157677e-02 -7.57061783e-03 -6.59926012e-02
  -8.02510902e-02  2.25463603e-02 -8.49428922e-02 -5.15942648e-02
  -5.72457388e-02  1.03315003e-02  5.35869226e-02 -9.03288424e-02
  -1.02253109e-01 -9.67065990e-02 -5.05982824e-02 -7.07787946e-02
  -1.13595091e-02 -2.35878915e-01 -1.06154969e-02 -4.77144308e-03
  -1.44967278e-02 -1.97398603e-01 -4.04067636e-02  6.95055276e-02
  -3.69581394e-02 -3.33467945e-02 -3.02988067e-02 -1.70469448e-01
  -1.15119303e-02  9.51609947e-03 -8.28253329e-02 -1.61800589e-02
  -2.10723747e-02  1.07282154e-01 -1.97141035e-03 -6.91438690e-02
   2.67192945e-02  2.58504841e-02  3.64160351e-02  3.14926207e-02
   2.76369303e-02 -2.98772287e-02  4.92799059e-02 -1.06244877e-01
  -1.19439205e-02  1.09899826e-02 -5.29831909e-02  3.63623090e-02
   5.35808690e-03 -1.71709806e-01  3.31931226e-02 -2.58739591e-02
   1.64526086e-02  1.42107103e-02 -3.69397663e-02  7.08876401e-02
  -3.20528448e-02 -3.13285068e-02 -3.09309410e-03 -4.67005670e-02
  -7.28448853e-02 -1.78659987e-02 -7.85574093e-02  7.49200732e-02
  -2.24354696e-02 -7.33701047e-03 -6.36302531e-02 -4.56970893e-02
  -1.44480565e-03 -1.06314849e-02 -7.32422471e-02  5.50861936e-03
  -1.08121909e-01 -4.08124626e-02  5.24384193e-02  2.75180787e-02
  -6.67470843e-02 -1.01906143e-01  5.87761886e-02 -1.10532396e-01
   2.61217263e-02 -5.36654741e-02  2.96428464e-02 -2.40035187e-02
  -6.13602363e-02 -1.19043961e-02 -6.69325963e-02  1.25568574e-02
   8.31250995e-02 -5.84845319e-02 -5.20142093e-02 -2.59371717e-02
  -6.45802617e-02 -2.52621509e-02 -6.55469000e-02 -1.08543439e-02
  -3.17703113e-02 -2.26130430e-03 -8.25467110e-02 -1.40011474e-01
  -6.25617877e-02 -2.34894399e-02  2.66526453e-02  2.88916770e-02
  -4.48696539e-02  5.66959986e-03 -1.03159681e-01 -2.29712501e-02
  -1.09488778e-01  7.92148486e-02  1.03016514e-02  2.96806172e-02
   5.89763606e-03  2.03837845e-02  2.40047593e-02  4.46853191e-02
  -1.54495776e-01 -2.83340545e-04 -5.10217398e-02 -3.21666487e-02
  -1.86512619e-02 -1.95239127e-01 -1.51208088e-01  1.38668185e-02]
 [ 4.80697751e-02  1.86340010e-03  3.76725905e-02  1.75745822e-02
  -2.23841816e-02  1.41593860e-02  3.93031016e-02 -7.45226908e-03
  -7.65700936e-02 -7.55207287e-03 -4.77375090e-02 -3.43891904e-02
   6.10175803e-02 -4.19902839e-02  5.37295528e-02  1.02143839e-01
   8.81302729e-02 -9.71194729e-03  2.77594477e-03 -4.53363843e-02
  -5.60589023e-02  1.79896489e-01 -3.09517477e-02 -8.92852992e-03
  -5.66825308e-02 -1.91774130e-01  2.38931440e-02 -6.54336996e-03
   5.06598614e-02  3.17949057e-02  1.73931364e-02  4.07485031e-02
  -2.18407407e-01 -5.75188063e-02 -2.32904330e-02 -7.11384937e-02
  -3.91677655e-02 -9.90215316e-03 -5.86356223e-02  3.53995189e-02
   7.00999424e-03  2.92329490e-02 -9.65842791e-03 -3.46002541e-02
   1.27321305e-02  1.27343843e-02 -8.70181844e-02  4.14829999e-02
   3.64890648e-03 -6.25029728e-02  4.87711988e-02 -1.27471924e-01
  -9.27003287e-03 -2.63754632e-02 -6.43661022e-02 -7.07011297e-02
  -2.61005312e-02  3.73081751e-02 -5.60540371e-02  1.06188320e-01
  -1.01337492e-01  1.06679099e-02  1.98339857e-03 -6.60125539e-02
  -1.57023091e-02  1.14777431e-01  3.08676215e-04 -2.39475407e-02
   3.19254957e-02 -7.71173090e-02  4.65711020e-02 -1.40584752e-01
   6.24006661e-03 -4.62895110e-02  7.90018365e-02 -9.29052085e-02
   1.18819155e-01  4.64600399e-02 -1.22958869e-01  1.09855356e-02
   2.53245607e-02 -2.28037670e-01  2.60184938e-03 -2.10247323e-01
   1.52713130e-03  3.40446346e-02 -6.53302744e-02 -6.42070174e-02
  -6.95374161e-02 -2.92664338e-02 -5.00890911e-02 -4.89553139e-02
  -2.32036952e-02  1.24287326e-02 -9.68429670e-02 -7.79528124e-03
  -1.33604724e-02 -6.64974824e-02 -4.05486263e-02  7.55835697e-02
   3.18145379e-02 -2.38635391e-02 -7.65513927e-02 -2.47593582e-01
  -1.46419173e-02  1.05631929e-02 -4.00470681e-02 -1.25920489e-01
   1.04042202e-01  1.84248723e-02 -1.49136931e-01  8.27978030e-02
   4.14618924e-02 -1.78796612e-02 -3.35608199e-02 -4.51574661e-02
  -6.33007362e-02 -4.42983434e-02 -2.60902084e-02 -8.56848136e-02
   1.17802002e-01 -3.13500836e-02  1.97924487e-02  6.97838189e-03
   7.23501071e-02 -9.00288448e-02  8.24647844e-02  7.08711939e-03]
 [ 1.38803702e-02 -2.32034903e-02 -1.49791278e-02 -5.80517426e-02
  -1.09799020e-01 -6.91229403e-02 -1.27943784e-01 -4.34893044e-03
   2.47142799e-02 -3.40465494e-02 -7.89695233e-02 -1.13783572e-02
  -3.74758360e-03 -2.38695480e-02 -5.53118736e-02 -2.18174923e-02
  -2.43721649e-01 -5.33429794e-02  5.47026563e-03 -4.71665971e-02
   4.21078242e-02  7.44383782e-02 -4.91084941e-02 -4.31678779e-02
   2.10444089e-02 -8.64278749e-02  3.50745283e-02 -2.04463098e-02
   4.68715793e-03 -1.25326723e-01 -6.11739717e-02 -7.74164796e-02
   1.24022461e-01 -1.02856280e-02 -7.53381848e-02  1.20674993e-03
  -7.19172508e-03  4.59719338e-02  3.30850966e-02 -2.70321220e-02
   4.11954038e-02 -1.35427773e-01 -1.93400197e-02 -1.43630551e-02
  -3.09393764e-03  4.42514010e-02  5.03322594e-02 -9.43677872e-02
   4.51503731e-02 -7.89582031e-04  3.69160920e-02  4.21826914e-02
   3.08963731e-02 -2.10450478e-02 -2.98474878e-02 -2.32438538e-02
  -2.38258280e-02 -4.28892151e-02  3.51547599e-02 -9.80969742e-02
  -7.95691833e-02  9.55556333e-02  5.74566014e-02  7.21250987e-03
   2.57012583e-02  7.60101676e-02 -6.15678653e-02 -6.70486316e-02
   3.11709400e-02  5.18289171e-02  3.09154242e-02  2.89588771e-03
  -3.28080952e-02 -7.40003660e-02 -5.45907654e-02 -5.01539633e-02
  -4.87578548e-02  6.29214048e-02  9.79963019e-02 -6.20406009e-02
  -2.07534246e-02  1.54965883e-02  2.06402671e-02 -1.85084492e-02
   4.43197638e-02  2.88741123e-02 -3.92528810e-02 -3.01034693e-02
   1.33617902e-02  3.30822431e-02  3.92665267e-02 -4.24251407e-02
   5.28457239e-02 -4.80795046e-03 -2.95478757e-03  2.18206551e-02
  -4.84219529e-02 -5.02882816e-04  1.41559606e-02 -5.19761927e-02
  -3.02029196e-02 -1.21321250e-02 -5.85118048e-02  6.62117079e-02
  -4.12850864e-02 -5.23875393e-02  2.47553177e-02 -3.55697572e-02
  -2.61542033e-02 -1.52844563e-02  1.97342914e-02 -2.99487282e-02
  -5.74165732e-02 -2.20040679e-02  9.60423518e-03 -6.25092536e-02
  -3.64751406e-02  4.74579930e-02 -1.16231129e-01 -9.80313495e-03
  -2.49533847e-01 -6.42883629e-02 -3.45708281e-02  2.89307460e-02
  -6.97089657e-02 -1.81525182e-02 -5.39941601e-02 -4.91543226e-02]
 [-7.12032393e-02  5.71993925e-02  2.85040364e-02 -1.23829998e-01
  -7.83018023e-03 -5.06180106e-03  4.45501320e-02 -5.74681200e-02
   7.61152059e-02  1.09494402e-04 -1.66180387e-01 -3.21797989e-02
   1.05532743e-02  1.00353705e-02  8.57010409e-02  4.77215461e-02
  -3.18282954e-02  6.05151616e-02  2.91227382e-02  3.67138721e-03
   1.47067467e-02  4.01897319e-02  2.38120332e-02 -1.28833074e-02
  -8.54620188e-02 -1.77330151e-01  9.85120982e-02  1.69093639e-01
  -3.08500864e-02 -1.09969510e-03 -6.82665110e-02  3.67477909e-02
   7.70424381e-02 -8.83485284e-03 -1.04848333e-02 -5.04565090e-02
   3.97150312e-03  2.03520373e-01  3.43221948e-02 -5.78689724e-02
   2.88978014e-02  4.34271432e-02  4.64691687e-03  2.66581979e-02
  -7.18503669e-02  2.34644059e-02  4.24240902e-02  2.78404392e-02
  -6.36439472e-02  5.08561023e-02  1.58236106e-03 -3.02445907e-02
   6.11576485e-03  5.42542664e-03 -7.11933076e-02 -3.57089341e-02
   4.45729680e-02 -6.27079085e-02  1.99991651e-02 -1.94756426e-02
  -4.05947649e-04 -3.80796380e-02  7.27462620e-02  4.19938490e-02
   2.53878571e-02  1.20939180e-01  2.07928240e-01 -6.44420460e-02
  -4.36113216e-02 -5.80826448e-03 -8.18188563e-02  2.03099605e-02
  -5.35423271e-02 -5.86877316e-02  1.88528329e-01 -6.43552914e-02
   2.56614331e-02 -3.45417447e-02  4.35615592e-02 -1.17831538e-02
   3.80427316e-02 -6.87482432e-02  4.88994345e-02 -2.17682645e-01
   1.25105307e-02 -2.83879172e-02 -8.13979059e-02 -9.66469869e-02
   1.05522666e-02  7.59916985e-03  6.55850861e-03 -4.54886854e-02
  -3.08695771e-02  9.48860403e-03 -5.98542877e-02 -2.64443476e-02
  -2.32044887e-02  9.42080747e-03 -6.19766228e-02 -5.48022017e-02
   5.84164597e-02  5.92668019e-02  1.58246960e-02 -2.62350459e-02
   1.08902110e-02  4.78811152e-02  6.57426789e-02  1.54959261e-01
  -9.01754722e-02 -2.16911007e-02 -5.26470691e-02 -3.78949456e-02
   1.27919093e-02 -1.99234262e-02 -9.09845904e-02 -5.49725033e-02
  -4.99715768e-02 -6.72616139e-02  1.57068104e-01  1.96496081e-02
   3.27445492e-02  1.78783089e-02  4.71270233e-02 -1.28643423e-01
   3.43944388e-03  6.99357241e-02  2.51650307e-02  2.48332601e-02]
 [-6.11251667e-02 -1.45212904e-01  5.16351648e-02 -6.88444972e-02
  -1.32956486e-02 -1.18506663e-02 -4.74726409e-02 -5.70335910e-02
   3.09638456e-02 -3.57890874e-02  5.15648313e-02 -1.28553784e-03
  -4.81765643e-02 -8.75661224e-02 -7.69239804e-03 -4.34679687e-02
   7.81749710e-02  4.67214100e-02 -3.02376561e-02 -7.58522749e-02
   1.35617331e-02 -1.46756694e-01  3.93651472e-03 -2.02652242e-04
   8.50806311e-02  8.17151666e-02 -3.23152803e-02  8.73085111e-02
  -2.73778699e-02  1.36131365e-02 -3.38850776e-03  1.40594661e-01
   2.27782596e-02  7.65624419e-02 -5.64682530e-03  2.89927032e-02
  -1.12985307e-02  1.58052053e-02 -3.83956805e-02 -4.90448847e-02
  -5.20528015e-03  5.58004826e-02 -3.35990302e-02 -4.60611619e-02
  -4.57851551e-02  4.73323837e-02 -3.55952010e-02 -3.64210941e-02
  -3.67352925e-02 -2.19588317e-02 -1.13821123e-02 -4.73511592e-02
   6.63652970e-03 -6.31019473e-02 -3.87129858e-02 -7.05400556e-02
  -1.45107090e-01 -4.81982604e-02 -5.40034696e-02 -3.57338227e-02
  -4.40835878e-02 -7.29598701e-02  6.44733384e-02  3.17973122e-02
   4.49231593e-03  1.51801221e-02  2.50196103e-02 -5.51609024e-02
   4.06122021e-02 -1.84875857e-02 -5.05820774e-02  3.51482667e-02
   1.66840851e-02  1.89370289e-02  1.11129163e-02 -2.85135005e-02
  -1.14929505e-01 -1.47695705e-01 -4.90644202e-02  3.62703800e-02
   4.44270186e-02  2.15972066e-02  4.61924495e-03  9.54347011e-03
   4.44308016e-03 -3.71058770e-02 -2.71416921e-03 -1.10661304e-02
  -5.12069128e-02 -3.74841131e-02 -6.02043644e-02  5.11613414e-02
   2.55244803e-02  4.81304899e-02  6.26378693e-03 -5.20757511e-02
  -7.05232099e-02 -6.61771670e-02 -5.94898462e-02 -1.03646629e-01
   2.74430215e-02 -2.41816640e-02 -4.44506966e-02 -3.36740501e-02
  -6.44662604e-02 -2.88070738e-02  2.35948712e-02  4.53726836e-02
  -9.48355794e-02 -7.51200542e-02  3.15425210e-02  2.62862016e-02
  -5.05242385e-02 -3.63079496e-02 -5.23663275e-02 -4.58382182e-02
  -1.02693727e-02 -1.43736349e-02  2.80748121e-02 -6.51792139e-02
  -6.27849251e-02  3.46920155e-02 -2.91758645e-02 -3.70253064e-03
   1.41769880e-03 -1.31174058e-01  3.30211110e-02 -4.20068838e-02]
 [-5.11073321e-02  1.20229237e-02  1.20465472e-01 -2.69160457e-02
  -1.01169251e-01  6.44603372e-03  6.20642416e-02  4.05620411e-03
   4.91422415e-02  5.92362806e-02  6.94865733e-02  2.68118083e-02
   2.72742212e-02 -9.49311815e-03 -4.24797311e-02  8.46076664e-03
  -6.62891194e-02 -9.26781818e-02 -4.32500914e-02  1.17096074e-01
  -6.49878979e-02 -8.78569558e-02 -6.16982616e-02  3.79325673e-02
  -6.86797872e-02 -1.41431570e-01  9.58772823e-02 -9.88606662e-02
  -1.39261102e-02  6.16321713e-02 -3.79782952e-02  1.26640424e-01
  -1.61229596e-01 -2.53867283e-02 -1.35045974e-02 -1.54380232e-01
   3.74465212e-02 -3.25192371e-03  2.08794558e-03  7.54842833e-02
   5.84771298e-02 -9.64995697e-02  2.01267526e-02 -4.88184541e-02
  -1.30107244e-02  5.13254181e-02  8.41877703e-03 -1.04301654e-01
   2.47698836e-02  4.02840748e-02  1.52040180e-02  1.20800547e-01
   1.88597068e-02 -6.54027387e-02  5.85410073e-02 -1.44110592e-02
  -4.04293500e-02  3.03795170e-02  1.17938966e-04  4.80827987e-02
   6.36000335e-02  1.90594614e-01  6.75924495e-02  3.34323682e-02
   8.54641758e-03 -1.16255835e-01  8.57669711e-02  1.53032830e-03
  -2.35468559e-02  4.71330956e-02  4.19197604e-03  1.47655398e-01
  -4.91810925e-02  4.42851335e-02 -2.69110799e-02 -8.64396915e-02
   9.73309427e-02 -1.84543140e-03 -9.79539007e-03  1.11749405e-02
  -6.19473904e-02 -2.07039565e-02 -7.45267719e-02  3.45188640e-02
  -1.13559477e-02 -1.92767363e-02  4.72399257e-02 -1.02684032e-02
  -4.17068973e-03  9.15991981e-03  7.02126101e-02 -1.72036644e-02
  -1.50434542e-02 -3.49386074e-02  1.35083552e-02  3.76797020e-02
   4.31750491e-02  1.30827287e-02 -5.61005548e-02  3.39239277e-02
   5.87887950e-02 -1.25468016e-01  2.91567929e-02  7.73716867e-02
   4.21870202e-02 -6.01237863e-02  7.84478039e-02 -7.38395900e-02
  -2.18808949e-02 -4.50010505e-03 -2.32449640e-02  5.03602698e-02
  -3.34887989e-02  6.69393614e-02 -2.31495928e-02  2.64497381e-02
  -4.84416820e-02 -1.15535157e-02  1.91641729e-02  1.10560302e-02
  -1.40693247e-01 -4.90666460e-03 -2.09933426e-02 -3.65121886e-02
  -2.24901333e-01  4.00142074e-02 -2.59709001e-01  3.90762836e-02]
 [ 1.61286760e-02 -1.99619494e-02 -2.32824817e-01 -2.66665313e-02
  -1.01234436e-01  3.56849954e-02 -6.67214617e-02 -5.03434017e-02
  -9.45191905e-02 -7.58583518e-03 -9.39113796e-02 -2.71974578e-02
  -2.14339029e-02 -9.23068076e-02 -2.18331087e-02 -2.17064604e-01
  -1.35082006e-01 -1.62526801e-01  4.64833528e-02 -3.38790826e-02
  -3.21142301e-02 -1.58359349e-01 -4.23936322e-02  1.73440704e-03
   1.95046216e-02 -1.98525786e-01 -4.28533182e-02  2.33102534e-02
   2.36881506e-02 -2.62493379e-02  6.37998804e-02 -6.91387951e-02
  -8.18154886e-02 -6.99445382e-02 -6.65806746e-03 -1.29776187e-02
  -1.14032282e-02  3.57026793e-02  5.02240798e-03  1.18019106e-02
   4.00687717e-02  6.91215172e-02 -2.19565798e-02 -1.80734217e-03
   3.55836116e-02 -3.55417514e-03  1.44722937e-02 -1.14679366e-01
  -7.79446913e-04  1.36872730e-03 -1.93366688e-02  7.54273171e-03
   3.80985364e-02 -1.20783061e-01 -8.87790099e-02  2.39879340e-02
  -6.77449331e-02 -1.55411372e-02  2.94702053e-02  7.95643032e-03
  -7.06931129e-02 -3.71069601e-03  2.56693773e-02  3.72218899e-02
   7.27005210e-03  3.58722880e-02 -6.93713352e-02 -1.81210153e-02
   2.48048585e-02 -5.37641943e-02  3.72808278e-02  2.57296488e-02
  -8.11548810e-03 -2.30544172e-02  7.31398445e-03 -8.32991675e-02
  -1.20145053e-01 -3.20370006e-03  1.58909336e-01  5.38107380e-03
  -9.26211104e-03 -1.05125524e-01 -4.50222008e-02 -2.23542619e-02
  -5.35572395e-02 -1.13971438e-02 -1.09955385e-01  3.40411551e-02
  -1.15297111e-02  4.76177335e-02 -1.08979382e-02  3.69234718e-02
   9.55609828e-02  2.37312098e-03  3.94670106e-02  2.21825149e-02
   1.61210932e-02 -5.08666933e-02  3.23129282e-03 -6.80761971e-03
  -8.81135538e-02  3.86713892e-02 -3.79996002e-02 -1.03529647e-01
  -3.13468501e-02  8.66328739e-03 -2.00007055e-02  1.24756014e-03
  -7.04623684e-02  3.14794704e-02 -8.56980383e-02  3.37904356e-02
  -1.18949033e-01 -1.41205750e-02  9.03601870e-02  4.63844091e-02
  -3.98901328e-02  1.75760854e-02  8.83029178e-02 -3.16461772e-02
  -2.38359854e-01 -3.09813190e-02  7.03511853e-03  3.61267440e-02
  -1.68879572e-02 -1.32470161e-01 -1.55797526e-01 -5.88688590e-02]
 [ 3.78950834e-02 -6.81425165e-03  8.14253651e-03  3.34222652e-02
  -6.97081015e-02 -2.47115251e-02 -6.15178868e-02  4.82633859e-02
  -1.34084478e-01  6.73811287e-02 -6.69358894e-02  3.80176008e-02
   7.60272937e-03 -1.64655730e-01  3.13800387e-02  3.43815014e-02
   7.31776357e-02  2.08739713e-02  3.38897593e-02 -1.56801380e-02
  -1.74823493e-01  5.85383363e-02  1.04396688e-02  3.62551436e-02
  -7.94208795e-02  1.06947217e-03  7.01701567e-02 -1.39474319e-02
  -2.40992047e-02 -4.53762859e-02  2.76742019e-02  7.67816277e-03
  -8.95619541e-02 -3.79345715e-02  1.16014093e-01 -5.32526262e-02
  -1.94003154e-02 -3.34312543e-02  6.57867780e-03  2.84336768e-02
  -4.04809713e-02  9.31215659e-02 -4.69620414e-02  4.23871316e-02
  -4.24946519e-03 -4.64894623e-02 -2.02814177e-01  2.89428294e-01
  -6.68115765e-02  5.01139686e-02  2.06476059e-02 -1.44437607e-02
  -2.98527814e-02  9.21445340e-03  6.78727916e-03  1.14288712e-02
  -1.24695316e-01 -7.05106482e-02 -3.15634459e-02  7.69528234e-03
  -2.71596871e-02  2.06920505e-03 -4.88461666e-02 -6.60455739e-03
  -9.63124540e-03  8.48583356e-02 -7.54792392e-02  1.21707536e-01
  -1.30672231e-02  4.36502043e-03 -6.22651875e-02 -9.76558849e-02
   1.88768860e-02  5.47874458e-02 -8.90005007e-03 -3.09148966e-03
   9.32723507e-02 -3.40834782e-02 -8.68520290e-02 -1.19275972e-02
  -1.45014394e-02 -2.45329440e-01 -2.37532277e-02 -5.88242449e-02
  -3.85172628e-02 -1.28223300e-01 -8.17163065e-02 -3.22435424e-02
   9.78528615e-03 -2.74820030e-02  3.66541035e-02 -1.15654878e-02
  -3.41942646e-02 -2.09350754e-02  8.22282117e-03 -3.63507122e-02
  -5.42404763e-02  1.73679795e-02 -5.36268242e-02  5.19137364e-03
   1.12305187e-01 -5.52195217e-03 -4.09114659e-02 -1.32667407e-01
   1.37733957e-02 -1.60381272e-02 -6.94626868e-02 -1.25389978e-01
  -6.30872846e-02  3.32569182e-02 -1.72028586e-01 -1.59195270e-02
   9.07036960e-02  6.72927499e-03 -7.06070215e-02  1.87965557e-02
  -8.41897130e-02  1.39461430e-02 -2.55987551e-02 -5.18720746e-02
   4.20089401e-02 -6.53386712e-02 -6.49189204e-02 -8.07911740e-04
   1.01333700e-01 -8.77035037e-03  4.01522890e-02 -7.90944546e-02]
 [-4.11465913e-02 -5.88768981e-02 -1.05710275e-01 -1.59011241e-02
  -1.24888077e-01 -1.63529962e-02  3.62115689e-02 -4.45223227e-02
   3.19497176e-02 -5.09038158e-02 -1.22952960e-01 -8.40009283e-03
  -1.52735263e-02 -7.67546073e-02 -8.98401886e-02 -6.99629411e-02
  -1.88066021e-01 -7.83146918e-02 -3.30508240e-02 -1.80681958e-03
   5.67298420e-02  7.16596395e-02 -4.63019498e-02 -4.53614034e-02
  -4.01905291e-02 -6.28328770e-02 -4.86953370e-02  1.46664187e-01
  -3.98195237e-02 -9.53492299e-02 -1.08808400e-02 -2.66750925e-03
   6.70849020e-03 -4.38487791e-02 -5.91856353e-02 -4.59175743e-02
  -1.22699067e-01  3.00013684e-02 -1.89704390e-03  3.43757048e-02
   2.53939480e-02 -1.74477063e-02 -3.40389088e-02  3.65975611e-02
   4.27943394e-02 -1.59624009e-03  8.90916362e-02  3.25113647e-02
  -6.73348010e-02  8.80376156e-03  7.28970207e-03  8.33262354e-02
   8.07768665e-03  3.89588997e-02 -4.72964644e-02  2.13448647e-02
   4.50391956e-02 -5.21187894e-02  1.40564525e-02 -3.56838815e-02
  -1.05968282e-01 -2.75691207e-02  8.22547823e-02 -2.51170509e-02
   5.10949306e-02  6.60108253e-02 -9.54829752e-02  2.32507139e-02
  -4.55076210e-02 -4.24469542e-03 -6.69571012e-02 -2.04384662e-02
  -6.57063024e-03 -5.16344979e-03  5.11209853e-02  3.81835736e-03
  -1.38043508e-01  1.13395818e-01  1.24556579e-01 -4.35322598e-02
  -5.36257662e-02 -3.78993973e-02  3.55357677e-02  5.44014154e-04
  -2.73030810e-03  2.91860430e-03 -8.64676535e-02 -7.36078918e-02
   4.81685251e-02  5.42143285e-02 -1.63281348e-03  1.80639289e-02
  -1.88508946e-02 -1.58586018e-02 -4.87976074e-02  1.79870501e-02
  -6.97212219e-02  6.37577288e-03 -2.54642721e-02 -5.05106859e-02
   3.83884087e-02  5.12382723e-02 -5.43283969e-02  3.24732661e-02
  -4.08235602e-02 -7.16439933e-02  4.99429852e-02  4.58893850e-02
  -1.75865237e-02 -4.97549437e-02  3.28735672e-02 -1.61756556e-02
   1.11190695e-02 -1.05236165e-01  7.71571174e-02 -4.26706150e-02
  -4.72088009e-02  1.30021444e-03 -4.23786081e-02 -5.37314191e-02
  -1.23071149e-01 -6.82534575e-02  3.22687365e-02  3.59742381e-02
  -1.28934737e-02  1.97514687e-02  6.44553900e-02  5.15682101e-02]
 [-5.45870736e-02 -4.06136177e-02  4.65860590e-02  2.63141077e-02
  -5.15308529e-02  1.53962839e-02  7.48485848e-02 -2.58079693e-02
  -4.67417128e-02  1.35650681e-02 -1.91847637e-01  3.83179113e-02
   1.62093565e-02  9.12535414e-02  8.69128630e-02 -4.48062159e-02
   5.13886139e-02  4.42927703e-02 -5.13239317e-02  5.98296225e-02
  -1.09862667e-02 -1.15876094e-01  2.33031232e-02 -6.28866926e-02
  -9.29632187e-02 -1.00109197e-01  4.18280810e-02  1.58522293e-01
   1.72169618e-02 -1.56040743e-01  2.45202798e-02  7.17672259e-02
   8.15847442e-02 -3.44522819e-02  1.77674685e-02 -1.17280066e-01
  -4.42570411e-02  2.79623531e-02  3.84685099e-02  2.64706295e-02
   4.47613224e-02  1.45429701e-01  4.64918418e-03 -2.18431167e-02
   1.81314107e-02 -3.33770216e-02  4.25614556e-03  1.08989805e-01
  -4.03233133e-02  2.89593246e-02 -1.15473820e-02 -9.44497585e-02
  -5.00871725e-02 -3.18229832e-02 -8.21529701e-02 -5.51192947e-02
  -2.23653228e-03  1.09565631e-02  2.59249583e-02 -3.82693224e-02
   6.53160561e-04  8.72671157e-02  1.22080326e-01 -8.52652788e-02
   3.04818172e-02  1.63259089e-01  1.36868641e-01  4.15840521e-02
  -2.07144301e-02 -5.20549454e-02  4.09026211e-03 -8.43157396e-02
   3.47599126e-02  4.94241826e-02  1.68080162e-02 -8.26353803e-02
   1.74957514e-01 -3.09765954e-02 -1.37972645e-02 -6.23020865e-02
  -2.89036408e-02 -1.65708423e-01 -1.06979363e-01 -1.12042107e-01
   1.46214273e-02  2.34577209e-02 -2.83845402e-02 -3.01531013e-02
  -3.36472988e-02 -3.23021994e-03 -1.02954460e-02  3.21186110e-02
   1.19928615e-02 -7.77458632e-03 -5.49622159e-03  4.31700572e-02
  -6.25103945e-03  2.75771413e-02  2.51010545e-02 -9.56202000e-02
   4.78586219e-02 -1.30995438e-01 -9.38041657e-02 -1.09791614e-01
  -4.66385623e-03  1.08537488e-02 -5.48014678e-02 -1.22256977e-02
  -5.11522815e-02  3.68055776e-02 -4.79561426e-02  1.20696472e-02
   4.43646535e-02  3.18486132e-02 -1.09231465e-01 -1.60032827e-02
   5.41921519e-02 -4.48692627e-02  5.80500625e-02 -6.77289441e-02
   1.07198367e-02 -6.81435391e-02 -6.35085031e-02  3.14454660e-02
   1.07441591e-02  1.34469718e-01  1.30868942e-01 -8.37981999e-02]
 [-5.85405380e-02 -4.43218537e-02  5.19633852e-02  2.20973883e-02
  -1.14564067e-02 -6.59200363e-03  2.17255782e-02 -3.55798751e-02
   4.75969864e-03 -4.39226702e-02  2.30243541e-02 -7.23307487e-03
  -6.59687892e-02 -1.18434519e-01  2.12176368e-02 -1.48468003e-01
   4.88233827e-02  4.23302352e-02 -3.32048163e-02  1.14352740e-02
  -5.13382219e-02  1.89163554e-02  2.52852738e-02 -6.60007522e-02
  -2.18277965e-02 -3.03379614e-02  4.66184057e-02  2.61525176e-02
  -1.95769779e-02 -1.11885503e-01  5.11306338e-03  1.11732580e-01
   1.04391232e-01 -3.12111564e-02  2.30562408e-02  6.03112131e-02
  -9.85239148e-02 -1.21414578e-02 -2.62871608e-02 -3.82467471e-02
   4.43453528e-02 -2.19255616e-03 -9.28132422e-03 -1.61649212e-02
  -5.68807609e-02 -3.55245769e-02  5.49454391e-02  2.79917158e-02
  -1.70903392e-02  3.64116281e-02  5.88356843e-03  3.42256874e-02
  -6.27228199e-03 -5.09190448e-02 -4.89176996e-02  1.82463266e-02
  -1.48349136e-01 -1.22743649e-02  4.09957506e-02 -1.83113329e-02
  -5.19624949e-02  1.88150890e-02  4.90016267e-02 -6.79663047e-02
  -7.08028525e-02  2.34342646e-02  9.17888340e-03  7.96988606e-02
  -1.81842856e-02  4.23941351e-02  2.72877850e-02  3.87703627e-02
   1.67588517e-02 -5.75388595e-02 -7.25239376e-03 -7.32892752e-02
  -1.59303322e-01 -6.51223660e-02  1.29953986e-02  3.37857567e-02
  -5.36097810e-02  7.79991969e-02  1.83220264e-02  6.84656352e-02
  -5.14397621e-02  9.63077024e-02 -5.60618825e-02 -2.32921299e-02
   2.56038085e-02  4.51962799e-02 -5.34665696e-02 -4.22419868e-02
   9.97884199e-02  7.92538840e-03 -3.02068908e-02  4.36247326e-02
   1.50933871e-02 -2.76871622e-02  1.75963361e-02  2.97237281e-03
   2.19304767e-02 -2.76761129e-02 -4.40174825e-02 -8.44471995e-03
  -2.54856907e-02 -7.27744997e-02  4.91043888e-02  6.27022237e-02
   1.84910204e-02 -7.05440491e-02  4.10330147e-02  3.43756229e-02
  -8.66713598e-02 -3.82231437e-02  3.10200900e-02  3.99649255e-02
  -7.28723407e-03 -4.10477407e-02 -4.88220118e-02 -3.87863778e-02
  -5.32063283e-02 -6.08634092e-02  3.59166414e-02 -1.26547152e-02
   4.56459112e-02 -1.08694285e-01 -6.50155768e-02 -6.43865764e-02]
 [-1.10225938e-02  2.14721262e-02 -7.32834339e-02  3.07016093e-02
   2.05160789e-02 -4.63042445e-02  9.83690172e-02 -2.42351424e-02
  -1.74481720e-02  2.69667711e-03  1.15530387e-01 -3.11421826e-02
  -4.22319733e-02  9.69051421e-02 -3.27470973e-02  5.20115271e-02
   3.12554576e-02  1.18711524e-01 -5.71953552e-03  3.30667831e-02
  -1.32599752e-02 -5.63853681e-02 -3.59192840e-03  3.09965406e-02
  -1.47835491e-02 -9.43187391e-04  9.81759951e-02  2.50099078e-02
  -1.33899823e-02 -3.67563143e-02 -2.35135332e-02  1.07801557e-01
   5.56390844e-02 -8.33863989e-02  3.94170565e-05 -5.11266813e-02
   5.88629022e-02  1.13472831e-03 -4.77550253e-02  4.93783318e-02
   1.63696874e-02 -1.24646857e-01  1.87768564e-02 -6.57804459e-02
  -4.59996201e-02  8.38982523e-04 -3.17200124e-02 -8.00519213e-02
  -3.54234800e-02  8.06754827e-03  3.93427089e-02  8.86047035e-02
  -2.70864256e-02 -1.00275949e-02  2.02842373e-02 -6.39292784e-03
   3.06941429e-03 -4.44291942e-02  2.31042132e-03 -6.18484206e-02
  -1.31931528e-02  1.14864528e-01  9.11238939e-02  1.37771480e-02
   9.96180624e-02 -1.07518651e-01  5.96500486e-02 -9.87982564e-03
   6.67077228e-02  2.48927996e-02  4.69667866e-04  4.33904938e-02
  -2.36380845e-04 -4.26794542e-03  1.77890822e-01  1.97098125e-02
  -2.99129523e-02  8.55699480e-02  2.31327619e-02  6.34801388e-02
  -1.48356678e-02  4.87174056e-02  8.57971329e-03  8.63823220e-02
  -4.14310880e-02 -1.86658502e-02 -2.54700482e-02  2.34173257e-02
  -4.51710485e-02  7.17989448e-03  1.96435787e-02 -1.94955757e-03
  -5.04670814e-02  3.32912356e-02  1.88256260e-02  2.09569372e-02
  -5.84537052e-02 -3.75261009e-02  4.51174825e-02 -4.40102629e-02
  -6.43114820e-02 -2.43581772e-01  1.05511807e-01  2.89663498e-04
  -2.77898591e-02 -3.70354168e-02 -3.08270287e-03 -5.86394444e-02
  -3.25919650e-02  5.32982498e-02 -6.80976063e-02 -3.52089703e-02
   3.00585236e-02  5.75542189e-02  2.24399641e-02 -1.10777691e-02
  -9.86649618e-02  3.25669311e-02  4.10262235e-02 -2.10773889e-02
  -5.03957421e-02  4.59240414e-02 -7.01937154e-02 -1.03857294e-01
  -1.59503937e-01  1.18681274e-01 -1.70119718e-01 -4.12120149e-02]
 [ 5.32859005e-02  1.17275231e-02 -2.14361146e-01 -8.36997181e-02
  -1.43081799e-01 -2.88441647e-02 -9.94072296e-03  2.70641055e-02
  -6.94983304e-02  6.83985949e-02  6.66080937e-02  8.46558309e-04
  -5.74169792e-02 -6.63226843e-02  2.65554041e-02 -1.95541173e-01
  -1.08187094e-01 -2.82433927e-02 -3.86020690e-02 -6.99975044e-02
   3.76702100e-02 -1.31657839e-01 -8.10245946e-02 -2.83538625e-02
   2.03461461e-02 -1.56118631e-01 -3.14744748e-03  2.31521262e-04
  -5.39333634e-02 -1.81823820e-02  3.52386758e-02 -7.55826309e-02
  -7.02199414e-02  3.80211733e-02  3.88077796e-02 -6.66381866e-02
  -4.93848585e-02 -6.82303533e-02  4.62852269e-02 -1.34975668e-02
  -3.73824202e-02 -2.49602925e-02 -1.23623088e-02 -3.07997819e-02
  -2.97742728e-02  3.47993895e-02 -2.75737401e-02 -6.79296330e-02
   3.84748578e-02 -2.22882237e-02  2.44833305e-02 -4.56733219e-02
   6.58835750e-03 -9.97387543e-02 -9.44437683e-02 -2.73334086e-02
  -5.20108789e-02 -2.46296264e-02 -5.60701266e-03 -3.25443000e-02
  -1.72669496e-02 -6.12120926e-02 -3.19027640e-02 -8.46521556e-02
  -3.26822884e-02  1.30871274e-02 -2.16995440e-02  5.75330891e-02
  -4.84964140e-02 -1.42325349e-02  2.92609818e-02 -3.34335081e-02
   5.60452156e-02  3.18637490e-02 -4.13340442e-02  2.62053348e-02
  -1.42056838e-01 -3.05487053e-03  9.91839990e-02 -4.97525185e-02
   1.57392863e-02 -4.00165096e-02 -5.05345799e-02 -4.73328643e-02
  -4.12992314e-02 -5.54922558e-02  7.60598388e-03 -5.13243414e-02
  -6.46544173e-02  2.35758871e-02  3.75190228e-02  3.12838592e-02
   2.00640976e-01  2.27998383e-02  3.56019586e-02 -3.43429111e-02
  -1.40358368e-02  2.60591339e-02 -5.82531802e-02  2.62672361e-02
  -1.71925705e-02  1.82008669e-01 -2.51361169e-02 -1.42351300e-01
  -2.52924860e-02 -6.72772974e-02  2.49000024e-02 -8.29613134e-02
  -4.67550494e-02 -7.96762388e-03 -9.18379948e-02 -2.69778315e-02
  -7.49697834e-02  7.54479766e-02  1.49203017e-01  2.17425525e-02
   2.59072073e-02 -3.92055400e-02  3.47256847e-02  5.20124808e-02
  -1.40032038e-01 -5.81036024e-02 -2.75978409e-02 -2.25790553e-02
  -1.38161018e-01 -1.26731750e-02 -1.19368672e-01 -6.78822622e-02]
 [ 5.03313839e-02  1.73033476e-01 -8.00339729e-02  5.74419051e-02
  -1.41087234e-01 -2.47799587e-02  4.50216271e-02 -9.04584653e-04
  -1.29091525e-02  9.02408659e-02 -6.77817836e-02  2.40499862e-02
   5.04096821e-02  1.36648742e-02  1.53532876e-02 -2.99269687e-02
   2.26252396e-02 -4.26956192e-02  2.60775164e-02 -1.48251563e-01
  -1.01147614e-01  1.02573298e-01  8.53610188e-02  7.38537535e-02
  -8.00227225e-02 -6.97025731e-02  5.57553470e-02  8.91493186e-02
   9.11322050e-03  7.08963275e-02  4.34253924e-02 -1.23127006e-01
  -1.37086183e-01 -1.89596470e-02  1.75446078e-01 -3.82822379e-03
   6.75977487e-03 -4.75327708e-02  4.73065331e-04  7.39467368e-02
   4.19739038e-02 -4.32283878e-02  1.81536227e-02 -1.77351888e-02
   3.73913497e-02 -5.54121621e-02 -1.76457509e-01  3.44087750e-01
  -3.45918611e-02  3.83248873e-04  2.11019162e-02  5.00918441e-02
   2.91585904e-02 -1.75506435e-02  2.68760566e-02  7.34765604e-02
   1.12955747e-02 -3.01072784e-02  1.77793950e-02 -2.71035582e-02
  -4.76315385e-03  2.55179927e-02 -6.96938187e-02 -6.74482360e-02
   3.71714085e-02  1.97228506e-01 -8.31583142e-02 -5.36468700e-02
  -5.23976348e-02 -1.14161540e-02  8.08482073e-05 -9.92450193e-02
   4.51844968e-02 -2.70848852e-02  1.78334620e-02 -5.72334900e-02
  -1.09597128e-02  2.63702385e-02 -1.18398685e-02 -1.73265133e-02
   5.17345257e-02 -1.11096799e-01 -8.40610489e-02 -2.10921034e-01
   1.53037915e-02  2.84839012e-02 -8.30465630e-02  2.05350574e-02
  -5.92852123e-02 -1.58483479e-02  2.29672920e-02 -2.45757066e-02
  -2.14953497e-02 -2.22612787e-02 -3.18540670e-02 -2.21410319e-02
   5.08856438e-02 -6.39993176e-02  3.51654850e-02 -2.90094558e-02
   4.07744944e-02 -2.43081003e-02 -1.85597353e-02 -6.88790902e-02
  -5.19029945e-02 -6.78294525e-02 -5.25613315e-03  2.36997977e-02
   6.80510700e-02  1.48207396e-02 -1.14645556e-01 -4.82353158e-02
   1.02896787e-01  8.54758844e-02 -6.84696883e-02 -4.38086130e-02
  -2.60018390e-02  2.55667716e-02 -8.34329501e-02 -6.48309812e-02
   1.07639596e-01 -8.45748112e-02  5.44097228e-03 -1.71170067e-02
   8.29895213e-02 -1.02432147e-01  8.00619945e-02 -8.98603164e-03]
 [ 9.45419911e-03 -1.26841525e-03 -3.06877103e-02 -9.30568501e-02
  -9.76538807e-02 -2.98078191e-02  3.19817141e-02  1.42894452e-02
  -7.18795136e-03 -1.36502516e-02 -1.46542490e-01 -4.95827757e-02
  -1.37564987e-02  8.91317427e-03 -5.94334155e-02 -2.24652700e-02
  -2.51896024e-01 -8.70123953e-02  4.30436991e-02 -1.00691626e-02
   2.39056479e-02  6.98312223e-02 -8.18414167e-02  1.99787952e-02
  -7.96886906e-02  1.72241293e-02  2.24743355e-02  9.20827463e-02
   4.00304943e-02 -5.49403206e-02 -2.25404240e-02 -2.26848125e-02
   7.31810480e-02  3.03720068e-02 -5.70283756e-02 -6.18484579e-02
  -6.35598600e-02  3.91676389e-02  1.74352396e-02  4.55486737e-02
  -1.20332101e-02  3.72356549e-02 -6.75590858e-02 -3.61519121e-02
  -4.02480550e-02  3.32983434e-02  1.14915088e-01 -7.66750351e-02
   1.18558099e-02 -3.11164875e-02  4.52611558e-02  3.39641087e-02
   4.78710942e-02 -6.88372254e-02 -6.19060025e-02  1.83935016e-02
  -7.93159530e-02 -5.46112359e-02 -5.86623177e-02 -1.21394964e-02
  -7.70482644e-02  2.47165444e-03 -5.26398346e-02 -1.67960674e-02
  -6.91736257e-03  1.10941343e-01 -1.25211209e-01  6.99422276e-03
  -2.99830595e-03  2.83947568e-02  4.18380927e-03  1.83530729e-02
  -5.82278445e-02  3.19887549e-02  1.02612965e-01 -2.96792574e-02
  -2.05125324e-02  9.01647378e-03  1.72077596e-01 -2.20359359e-02
  -3.41373757e-02 -1.68520808e-02  1.19336724e-01  6.03415482e-02
   6.88508013e-03  1.86411273e-02  5.10028936e-02 -9.32269469e-02
  -3.44246887e-02 -3.10879424e-02  3.26799368e-03 -5.43848239e-02
   1.84386466e-02  2.27921810e-02  1.34511362e-03 -9.31054703e-04
  -5.68691827e-02  5.88682806e-03 -1.90944318e-02 -9.21391547e-02
  -2.74611730e-02  2.83597857e-02 -8.92614387e-03 -8.73969868e-02
   4.46196757e-02 -9.96790677e-02  2.52642035e-02 -1.24256834e-02
   2.76504434e-04  1.90678015e-02  3.09215151e-02 -4.32111807e-02
   1.55803710e-02  1.53810000e-02  4.88978475e-02 -8.40901677e-03
  -6.80956990e-03 -1.45039195e-03  2.99640764e-02 -3.31433006e-02
  -1.72044083e-01 -6.59158006e-02  3.53152305e-02 -2.23437846e-02
   1.82963088e-02  1.20705113e-01 -6.88127577e-02  3.63811385e-04]
 [-6.04425482e-02 -5.88283166e-02  2.87997536e-02 -2.25103963e-02
  -6.07702136e-02  2.21175402e-02  7.01928139e-03  1.74762551e-02
  -9.24143195e-02  3.09237521e-02  2.19932422e-02  1.08644208e-02
   4.40345258e-02  1.53540581e-01 -1.20541416e-01 -2.02290341e-02
   3.25662717e-02  6.22459315e-02 -3.75698209e-02  1.99859496e-02
  -4.94854264e-02  5.23491576e-02  1.21659115e-02  4.58067283e-02
   4.15859111e-02 -5.23288101e-02  1.20113343e-01 -6.07486404e-02
   4.62416653e-03 -7.52885863e-02  9.01938602e-02 -1.69810168e-02
   8.57873634e-02  7.51118660e-02  5.22772446e-02 -1.64929599e-01
  -5.54957837e-02 -6.89759403e-02 -4.29113656e-02  4.82610799e-02
   1.50996319e-03  1.54849677e-03  1.06476331e-02 -4.13679034e-02
  -2.06836988e-03  4.54163514e-02  1.20437384e-01  2.54112214e-01
   5.79792298e-02 -6.40512556e-02 -1.97474658e-02  1.92002971e-02
   1.55048966e-02  4.99577820e-02 -5.87082580e-02 -4.92854696e-03
   5.26012443e-02 -3.08549795e-02 -4.54739183e-02 -4.54421602e-02
  -3.54162008e-02  2.50009838e-02  8.43270421e-02 -6.09301999e-02
  -3.79056181e-03  5.89561611e-02  1.68821007e-01  3.51325125e-02
   1.68427974e-02  3.59464325e-02  5.90471849e-02 -1.78652540e-01
   4.47135344e-02 -2.62722913e-02  5.83897978e-02 -6.57353029e-02
   6.85425550e-02  9.62703228e-02  9.34984069e-03 -5.37051037e-02
  -5.46777993e-02 -1.25259578e-01 -5.63953556e-02 -4.05666195e-02
   2.34367736e-02 -3.18681486e-02  9.16568041e-02  3.36419977e-02
  -2.20065713e-02 -3.02963722e-02 -1.91745758e-02 -3.55990231e-03
  -1.31285209e-02 -3.48646007e-02 -1.08117294e-02 -5.03176227e-02
   2.81974226e-02  2.00163145e-02 -5.35778962e-02 -1.33068673e-02
   1.25539601e-01 -1.92771628e-02 -7.52648115e-02 -4.81309667e-02
   2.95619685e-02 -1.05363518e-01 -1.86600834e-02 -3.69053893e-02
  -4.38998081e-02 -1.94000092e-03  1.08119156e-02 -2.07658466e-02
   8.73896033e-02  1.15045346e-01  4.02213074e-02  1.49655826e-02
   4.08770591e-02 -5.90646267e-02  1.55060040e-02  3.30410972e-02
   7.74250105e-02  5.75809926e-02  2.00824626e-02 -9.77601483e-02
  -3.24395187e-02  2.14448735e-01  9.44032520e-02 -8.05734843e-02]
 [ 3.71596334e-03 -2.16374602e-02  9.44942143e-03 -1.95480157e-02
  -6.75638914e-02 -5.04348055e-02 -8.63828883e-03  1.19247390e-02
   6.31850678e-03 -5.33303283e-02  4.75446843e-02  2.65249722e-02
  -6.67826161e-02 -1.25292763e-01  2.29533995e-03 -9.61356834e-02
   8.44846070e-02 -8.48943666e-02 -6.23285845e-02 -5.44070862e-02
   7.67011344e-02  2.88148597e-02 -2.71546748e-02 -2.14206055e-02
  -1.98334921e-03  3.93266194e-02 -1.05344512e-01  5.58002964e-02
   1.52862002e-03 -6.51376322e-02 -1.70903020e-02  9.67549309e-02
  -6.07976951e-02  3.99474464e-02  6.26613870e-02  7.88241103e-02
   4.02043760e-03  4.47612591e-02 -2.60380246e-02 -1.30622147e-03
  -6.17191456e-02 -1.72830075e-02 -8.98304060e-02 -2.44326368e-02
  -5.81643358e-02 -3.77135612e-02 -4.41438965e-02  3.49215493e-02
  -3.58683504e-02  2.05452517e-02 -5.16903214e-02  1.04892775e-01
  -3.50848921e-02 -5.39060682e-02  1.84498150e-02 -1.39561004e-03
  -7.76317716e-02  9.96325165e-03 -3.00955363e-02 -6.35777265e-02
   1.96097344e-02  5.37640303e-02 -1.67845506e-02 -2.42358469e-03
  -7.27514997e-02  9.39175312e-04 -2.91229915e-02 -3.40695046e-02
  -5.31048253e-02 -5.23689203e-02 -4.07885201e-02  3.82049531e-02
   4.40295134e-03 -3.66780944e-02 -2.18870323e-02  2.67975801e-03
  -1.30088612e-01 -7.39952028e-02  8.28995369e-03 -2.47962978e-02
   1.78197734e-02  2.30567399e-02  1.01473257e-02  3.47702354e-02
  -1.09007740e-02  3.11035756e-02 -1.49243195e-02  1.59156099e-02
  -3.77300978e-02 -2.08629891e-02  4.56315987e-02 -4.69610952e-02
   1.36007905e-01 -5.75795537e-03 -2.62014791e-02 -4.46684211e-02
   3.72982095e-03  5.58575150e-03 -6.21695332e-02 -1.91602670e-02
  -2.67441496e-02  2.55065821e-02 -4.01900858e-02 -7.43410587e-02
  -4.11294289e-02 -4.84938249e-02  5.31822070e-02  1.05494104e-01
  -7.45545253e-02 -4.00897786e-02  5.21839932e-02  5.10152951e-02
  -3.13475430e-02  1.17729623e-02 -1.68035720e-02 -7.73220733e-02
  -5.53108193e-03 -5.38953990e-02 -8.27757921e-03 -6.32080138e-02
  -1.24466699e-03  5.98750822e-02  5.06928265e-02  4.42832075e-02
   6.63018450e-02  4.34936248e-02 -1.60393622e-02 -4.23837639e-02]
 [ 5.72841614e-03 -9.69500467e-02 -1.32556021e-01 -7.95650110e-02
   1.50783649e-02 -6.15304671e-02  3.99301350e-02  5.71694225e-02
  -8.12780932e-02 -7.94443786e-02  3.39437239e-02 -3.41570079e-02
   3.21807675e-02  5.80590963e-02  7.14425519e-02  8.94081071e-02
  -2.15166267e-02 -7.83085730e-03  1.96779296e-02 -2.36556027e-02
   2.28109844e-02 -9.24960300e-02 -4.69889790e-02  1.29202828e-02
   6.71726540e-02 -4.97249328e-02 -8.17033723e-02 -3.96633036e-02
   2.24079471e-02  2.73884181e-03 -4.01237421e-02  3.23755108e-02
   4.29978818e-02 -9.45924148e-02 -2.90090721e-02 -1.02349326e-01
   1.20647237e-01 -1.79165035e-01 -6.43938482e-02  1.55650089e-02
  -2.79435772e-03 -3.68901901e-02 -6.04618341e-04 -9.20290872e-02
  -6.71354830e-02  4.43280339e-02 -7.92221278e-02 -5.05946875e-02
  -2.65804082e-02 -2.70914510e-02  3.68244983e-02  1.09595843e-01
  -9.98052582e-03 -1.37618631e-01  4.11574282e-02 -1.49427811e-02
   2.84339730e-02  5.74644022e-02 -2.17471644e-03  3.35668847e-02
   9.61628109e-02  7.83838481e-02  1.10363856e-01 -4.01900560e-02
   9.61884856e-02 -1.35755375e-01 -1.92659184e-01  4.68705110e-02
   1.28582306e-02 -1.60003565e-02  7.47883394e-02 -5.12710288e-02
  -2.38635801e-02  2.63787378e-02  1.26914820e-02 -5.07468358e-03
  -3.45609933e-02  1.14529401e-01 -5.25247864e-02 -2.90970374e-02
   3.60440016e-02  4.20568325e-02  8.70552212e-02  1.59838244e-01
   2.24376172e-02 -1.12101257e-01 -1.62592791e-02 -6.06229017e-03
   5.72943091e-02 -5.09656928e-02  5.05236387e-02 -3.15396450e-02
  -5.92760853e-02  1.17683634e-02  1.21940924e-02 -5.34732118e-02
  -2.77772341e-02  3.30891535e-02 -2.57611517e-02  8.68439488e-03
   1.39200985e-01 -2.25325987e-01 -3.83244343e-02  5.55557869e-02
  -4.10604477e-03 -6.73398972e-02 -3.47681046e-02 -6.87643886e-02
  -2.94036251e-02  3.35049927e-02 -6.57375678e-02  1.34290159e-02
  -1.78223550e-02  2.48500183e-02 -1.07091360e-01 -1.03355991e-02
   4.31113364e-03 -3.73933241e-02  1.40458182e-01 -7.60229006e-02
   1.17101222e-01  5.60781769e-02  1.11806244e-02 -7.46313343e-03
  -1.75005153e-01 -2.36709267e-02 -1.09514728e-01 -4.17785756e-02]
 [ 1.22217592e-02 -3.11895888e-02 -1.94671914e-01 -2.28382330e-02
  -5.98368347e-02 -3.85742374e-02 -6.52190074e-02 -5.38046919e-02
  -4.50259484e-02  1.23436106e-02 -3.81491967e-02  4.40688878e-02
  -1.13444934e-02 -2.52630860e-02 -2.76885163e-02 -9.80819762e-02
  -1.53883263e-01 -1.41467243e-01 -4.31632847e-02 -5.98727278e-02
  -2.34416462e-02 -1.66160509e-01  2.91988510e-03 -4.81293239e-02
  -2.71748821e-03 -2.38315389e-01 -1.19293861e-01  9.26279090e-03
  -8.51012953e-03 -1.82517171e-02 -7.64473453e-02 -1.24691129e-01
   6.14512116e-02 -1.08544240e-02 -4.25819913e-03 -4.49392460e-02
  -1.15866922e-02  2.51600295e-02 -6.35210425e-02 -1.61278844e-02
  -3.54281440e-02 -2.56656539e-02  2.29007974e-02  2.88056321e-02
  -4.25489470e-02  3.88060249e-02 -1.89826451e-02 -1.30346298e-01
  -6.02773763e-03  5.19378111e-02 -6.56703860e-03 -8.05253685e-02
  -5.40895090e-02 -1.78894058e-01 -3.79633307e-02  1.03279715e-02
  -3.48436758e-02  4.09764890e-03 -4.06083465e-02 -1.36066861e-02
  -4.95870411e-02 -1.05926424e-01  3.82927954e-02 -4.37285304e-02
  -1.90155283e-02  2.14963034e-02 -4.89740260e-02 -7.62640461e-02
   6.31076400e-04 -5.05139865e-02  2.36526728e-02  1.04034329e-02
   2.79824380e-02 -2.07583997e-02 -4.21116091e-02  3.26367095e-02
  -2.13498443e-01  8.70539099e-02  1.33141652e-01  1.52668776e-02
  -3.33470404e-02 -2.30023693e-02  7.06402138e-02 -1.63585152e-02
  -2.43566185e-02 -2.28034537e-02 -7.76719153e-02 -8.60022977e-02
   3.09213288e-02  4.83957641e-02  4.14907485e-02  1.16611626e-02
   1.56145915e-01  2.28436571e-02 -3.53144482e-02 -5.90156280e-02
  -4.58045267e-02  7.95825757e-03  2.52495576e-02 -1.83799677e-02
  -2.03308284e-01  5.32505065e-02 -1.46776689e-02 -1.06286697e-01
  -1.41932741e-02 -3.92532460e-02 -5.33979870e-02  6.99689016e-02
   1.64248180e-02  2.72061843e-02 -2.99292039e-02 -2.25190558e-02
   5.21168821e-02 -5.34417368e-02  2.06848115e-01 -2.57648770e-02
  -5.95013960e-04 -2.07424965e-02 -7.49372467e-02 -6.52690157e-02
  -1.54855490e-01  4.03974988e-02  2.49982867e-02  3.73876356e-02
  -1.27544105e-01 -1.88108593e-01 -8.50102082e-02 -6.36606738e-02]
 [ 1.75683461e-02  3.84386852e-02 -7.19068944e-02  2.63466425e-02
  -1.50720626e-01 -8.52223933e-02  1.01338439e-01 -2.33263243e-02
  -6.44774437e-02  6.07262552e-02 -2.14233696e-01 -4.08191420e-02
  -6.04426675e-02 -1.16903090e-03  9.39492583e-02 -7.79369473e-02
   2.62975115e-02 -1.34757146e-01 -5.56438230e-02 -2.29279548e-02
  -7.28606880e-02  6.20102091e-03  4.29478250e-02  3.22722159e-02
  -1.91648733e-02 -9.27467272e-03  1.23608314e-01 -2.23261826e-02
   5.99217750e-02 -1.10572085e-01  1.06567882e-01 -1.11805908e-01
  -7.05242231e-02 -3.99459414e-02 -8.06384347e-03  3.63885500e-02
   7.39614107e-03  1.53955305e-02  2.45451294e-02  4.79729138e-02
  -2.13879272e-02  8.76817703e-02 -4.44901455e-03  5.61386161e-02
  -1.84465516e-02  3.80226932e-02 -1.56352326e-01  2.03118008e-02
  -7.49923661e-03  4.90952209e-02  2.18395609e-03  6.25796914e-02
  -8.39421526e-03  8.90573636e-02  2.46604737e-02 -2.05943566e-02
   3.73974964e-02  7.12887477e-03 -6.35963678e-02  3.69457826e-02
   1.64239351e-02  1.36073316e-02 -5.45230620e-02 -4.68951836e-03
   6.95414096e-02 -1.88070198e-03 -8.48656446e-02  6.59878999e-02
  -2.89983265e-02 -6.92344084e-02  8.47454742e-03 -8.11779201e-02
   1.63260698e-02  1.20599195e-02  8.99383128e-02 -1.46386016e-03
   2.41383035e-02  2.07386017e-02  4.90364358e-02 -4.71454710e-02
   1.36796553e-02 -1.02129266e-01 -2.19208952e-02 -1.67313144e-01
   1.97590515e-02  5.25613734e-03 -9.97394044e-03  9.22872964e-03
  -6.22235686e-02 -4.32433700e-03  4.39535733e-03 -5.03675453e-03
  -5.13410568e-02 -5.21327779e-02  2.29082126e-02  8.21734965e-03
  -2.14811917e-02 -8.25180113e-02 -4.98507284e-02  1.15963081e-02
   1.33060105e-02  3.13732922e-02 -7.67892450e-02 -2.60429949e-01
   2.45322548e-02  2.24022307e-02 -1.66353822e-01 -6.01975061e-02
  -1.60284173e-02 -4.52062301e-02 -1.92453727e-01 -9.44092497e-02
  -2.11736094e-03 -7.10150674e-02  4.00582924e-02 -6.16898686e-02
  -4.28358428e-02 -5.49918860e-02  9.03815962e-04 -8.30597132e-02
   1.59172297e-01 -4.06810418e-02 -3.68767530e-02 -5.16306385e-02
   1.29714400e-01 -1.01143114e-01  6.44896850e-02  4.58005164e-03]
 [-5.38988560e-02 -3.87273077e-03 -9.81010944e-02 -9.05546769e-02
  -1.77603349e-01 -3.59974317e-02 -2.12749792e-03  5.58793871e-03
   6.82818592e-02  3.76961492e-02  3.15502249e-02 -3.11791361e-03
  -6.39598584e-04 -2.80605573e-02 -3.58875468e-02  5.06626554e-02
  -2.58505642e-01 -7.49375969e-02 -4.47978079e-02 -4.15381417e-03
   7.25827590e-02  7.84537047e-02  3.19715552e-02 -8.09583217e-02
  -7.56378323e-02 -7.96265155e-02 -4.25337069e-02 -4.34558243e-02
  -4.36306521e-02 -3.79611216e-02 -3.30204219e-02  8.42595249e-02
   5.07051162e-02 -6.31507412e-02  8.66177306e-03  8.17336142e-02
  -6.63503483e-02  2.44106967e-02  1.38963992e-03 -6.74382448e-02
  -2.27868874e-02 -6.28304705e-02 -3.36344168e-02  1.15854908e-02
  -2.92526707e-02 -6.96193753e-03  3.55427302e-02 -2.07510561e-01
   1.54144047e-02  1.00250002e-02  5.04582049e-03  1.23034036e-02
   1.97185446e-02 -2.94918716e-02 -3.16500030e-02 -6.66664243e-02
  -1.82952788e-02 -8.11369121e-02 -8.48868769e-03  2.20620688e-02
  -4.90296520e-02  3.86262089e-02 -2.82330289e-02 -5.62711507e-02
   7.21398368e-02  3.84362787e-02 -9.82790142e-02 -6.16944842e-02
  -6.67331070e-02 -1.39611913e-02  1.14196492e-02 -2.38962080e-02
  -3.16508277e-03 -2.64242832e-02 -3.64507809e-02 -7.58267045e-02
  -4.22371104e-02 -9.05700307e-03  9.94121507e-02 -5.06063849e-02
  -2.83119176e-02 -3.62406895e-02  3.01923770e-02 -4.67969514e-02
  -2.35397518e-02  2.62636710e-02 -3.56648229e-02 -6.83200061e-02
  -7.48324469e-02 -2.01165862e-03 -9.03635379e-03 -6.06466308e-02
   6.71513751e-02  2.86249835e-02 -3.84517349e-02 -5.44392541e-02
  -5.89503013e-02  2.30725665e-04  5.15854172e-02 -1.98778100e-02
   3.85326892e-02 -9.74718407e-02 -4.30190237e-03 -1.18643735e-02
   4.77713458e-02 -1.92240532e-02  3.17898509e-03 -9.45947915e-02
  -6.02282546e-02 -4.66248505e-02 -6.30540922e-02 -3.55062820e-02
  -4.10294645e-02 -4.93117757e-02  5.80429696e-02 -5.14630824e-02
  -1.01886168e-02 -4.36941534e-02 -1.73221827e-02  8.92522372e-03
  -1.74832940e-01 -6.52034283e-02 -4.52497788e-02  5.04694842e-02
   3.83490026e-02  2.67104283e-02  2.11338494e-02  1.50143160e-02]
 [-1.12803634e-02  9.15466547e-02  1.54664427e-01 -2.49269349e-03
  -2.23315239e-01 -7.25723477e-03  6.04283363e-02 -3.26756984e-02
  -5.50082959e-02 -6.95633143e-02 -6.76874295e-02  2.97887363e-02
   3.87389176e-02 -2.81934626e-02  8.39719027e-02  5.69768660e-02
   6.03015535e-02  1.72860250e-01  4.28566826e-04 -4.76443134e-02
   8.97997990e-03  5.01910858e-02  1.40691213e-02  5.10507338e-02
  -1.44552272e-02 -7.09817410e-02  2.04299554e-01  4.28430401e-02
  -2.62817554e-02  2.07278901e-03  2.97853332e-02  2.22610474e-01
  -6.29514828e-02 -1.29942494e-02  2.01138426e-02 -9.74418893e-02
  -4.18988988e-02  1.27977833e-01  4.29962613e-02 -6.33873194e-02
   4.73485105e-02  4.13381048e-02  2.84454245e-02  1.34282548e-03
   3.22282538e-02 -5.74129559e-02  1.56857580e-01  1.69566765e-01
  -4.43442427e-02  2.35791951e-02 -3.28844376e-02  7.36282207e-03
  -1.52441524e-02 -6.10319376e-02 -5.07471443e-04  1.75530557e-02
   4.93769571e-02 -2.84814052e-02  3.53058614e-02 -6.50202408e-02
  -3.23993452e-02  8.33939835e-02  1.45038620e-01 -5.67671433e-02
   2.69116126e-02 -9.84657835e-03  1.76913962e-01  2.44152639e-02
   1.58327445e-02  8.35193973e-03 -3.78457941e-02 -4.60206419e-02
  -1.56246228e-02  1.10285496e-02  2.71400325e-02  3.34947603e-03
   1.74846575e-01  1.16602190e-01  8.71525481e-02  3.91755998e-02
   1.34673351e-02  6.84055686e-03 -8.18297416e-02 -2.18915984e-01
  -2.88852323e-02 -3.29150483e-02  4.72808816e-02 -2.71842405e-02
  -6.38276478e-03  2.62679253e-03  4.36963439e-02  1.77166834e-02
  -4.29215878e-02 -6.00079559e-02  5.45180077e-03  3.18089779e-03
   2.57719997e-02  3.80711816e-02  1.59617756e-02 -4.24854197e-02
  -3.18345316e-02  1.22055896e-02  2.60749850e-02 -1.06617436e-01
  -3.13771516e-02 -8.27839300e-02  1.10770598e-01 -1.08209416e-01
  -1.44924419e-02  3.45758796e-02 -8.46764259e-03 -5.40066697e-02
   1.41076699e-01  1.00649536e-01 -7.42354020e-02  9.22877900e-03
  -2.78160237e-02  4.57965508e-02  8.88434425e-02  6.33619819e-03
   5.19486777e-02  7.87837082e-04 -5.91918863e-02 -4.97880578e-02
  -8.55610520e-02  2.66988933e-01  1.15970828e-01  1.89229753e-02]
 [ 2.45943405e-02 -2.52023935e-02  9.97936353e-02 -5.01926616e-02
   3.77047025e-02  1.72778107e-02 -5.27369305e-02 -5.34611195e-02
   1.04343910e-02 -1.44817727e-02  2.76423339e-02 -1.26506891e-02
   4.41373400e-02 -2.60178089e-01  2.99289189e-02  1.92860272e-02
   5.83616644e-02 -1.92534644e-02 -4.77405684e-03 -3.91034558e-02
  -1.83499698e-02 -4.67078909e-02  3.93087417e-03 -4.88267019e-02
  -7.22915754e-02  1.34897628e-03 -9.50385630e-02  8.53889287e-02
