le_net/conv2d/kernel:0
(5, 5, 3, 6)
[[[[ 3.01637292e-01  3.63807201e-01  5.58569193e-01  5.44660211e-01
     4.74270791e-01  1.57042608e-01]
   [-2.15300724e-01  2.95268327e-01 -2.42138300e-02  3.75588834e-01
    -4.70498987e-02  8.58604833e-02]
   [-2.88569517e-02 -1.49631128e-01 -7.05765188e-02  9.77116302e-02
    -2.26928994e-01 -4.15198743e-01]]

  [[ 2.88242608e-01  1.69943884e-01  2.89790481e-01  5.50279915e-01
     4.57754642e-01  1.61102593e-01]
   [-2.55167603e-01  1.37300551e-01 -1.24147974e-01  3.26096952e-01
    -1.97733231e-02  7.26768747e-02]
   [ 5.51115237e-02 -4.46970195e-01 -1.10422626e-01  1.48190126e-01
    -4.45840247e-02 -4.36346442e-01]]

  [[ 5.45403063e-01  3.40639837e-02  2.60572910e-01  6.95934653e-01
     4.41377580e-01 -1.79127082e-01]
   [-3.60126002e-03 -1.42755628e-01 -1.89212728e-02  3.58854771e-01
    -5.42588253e-03 -2.07150444e-01]
   [-1.13324843e-01 -5.44406176e-01 -1.64528206e-01  4.36894834e-01
    -5.78836650e-02 -5.58746755e-01]]

  [[ 3.29748034e-01  1.00837722e-01  1.21439353e-01  4.46271122e-01
     2.65394866e-01  3.22729975e-01]
   [-3.10548395e-02 -4.82764654e-02 -9.51526612e-02  5.06428003e-01
    -4.14630979e-01  1.45325407e-01]
   [-1.12413429e-01 -3.68176401e-01 -2.06927612e-01  2.17102319e-01
    -2.94779986e-01 -3.14111650e-01]]

  [[ 3.56126755e-01  7.90361539e-02  7.81597868e-02  4.34595108e-01
     3.85953784e-02  2.03001827e-01]
   [-7.97234550e-02 -7.11384788e-02 -1.66558653e-01  3.80562842e-01
    -4.46554363e-01  3.25443000e-01]
   [-1.36370599e-01 -2.18205407e-01 -4.16031957e-01  2.40412965e-01
    -3.08175921e-01 -2.05673411e-01]]]


 [[[ 4.51018274e-01  3.61244790e-02  5.19040942e-01  1.32598445e-01
     5.76170802e-01  5.43692075e-02]
   [-2.87760258e-01  5.58933876e-02  7.15480564e-05 -6.57434762e-02
     2.20134228e-01  1.47528173e-02]
   [-9.82519519e-03 -3.82191092e-01 -1.42999381e-01 -1.50455534e-01
     1.94617156e-02 -1.96549162e-01]]

  [[ 5.89031041e-01  2.68579513e-01  3.13701659e-01  3.22479457e-01
     3.21251541e-01  1.34391621e-01]
   [-1.82561353e-01  2.09612206e-01 -1.26468733e-01 -3.18115652e-02
     2.49023139e-02  3.19126658e-02]
   [-1.57184675e-01 -2.20990866e-01 -2.18536407e-01  6.02306910e-02
     8.33417177e-02 -2.34122455e-01]]

  [[ 3.93997699e-01  1.95815310e-01  3.90300572e-01  2.98209161e-01
     1.64487377e-01 -2.92175025e-01]
   [-2.22588524e-01  1.10322729e-01 -1.61531433e-01  9.24980044e-02
    -1.01830631e-01 -3.11963201e-01]
   [-2.23350927e-01 -2.39802882e-01 -1.06920749e-01  1.84150100e-01
    -1.19365692e-01 -7.26656735e-01]]

  [[ 6.21331215e-01  7.95749351e-02  2.90498972e-01  1.48755699e-01
     1.19039759e-01  2.74425417e-01]
   [-3.46888870e-01  2.14323267e-01  2.45351214e-02  4.70953854e-03
    -4.52821076e-01  9.55480635e-02]
   [-3.67099047e-01 -1.64311826e-01 -3.28109533e-01  8.72353464e-02
    -6.78312421e-01 -1.32324785e-01]]

  [[ 4.02608871e-01 -6.15202589e-03  1.09157681e-01  2.35803872e-01
    -3.63585390e-02  6.29147530e-01]
   [-2.33185008e-01  1.82754293e-01 -1.96033373e-01  2.11825609e-01
    -3.50945026e-01  3.24094236e-01]
   [-4.32425976e-01 -4.72077817e-01 -5.24082720e-01 -1.11347064e-01
    -3.70113015e-01  2.02412009e-01]]]


 [[[ 3.87437940e-01  6.83467183e-03  4.53484774e-01 -2.54849166e-01
     5.23391783e-01  1.97327659e-02]
   [-3.29926819e-01 -1.73599824e-01  1.33366734e-01 -5.91774285e-01
     5.44928551e-01  4.98261414e-02]
   [-5.43158688e-02 -5.52150786e-01 -4.71154787e-02 -5.74020445e-01
     4.07778651e-01 -3.91749531e-01]]

  [[ 3.26691449e-01  1.12458840e-01  2.05554545e-01 -1.54006705e-01
     3.72200817e-01 -8.61071050e-02]
   [-2.35873476e-01  4.85586524e-02  8.13421234e-02 -5.90816975e-01
     2.60330975e-01 -4.49663103e-02]
   [-2.49596775e-01 -2.63242006e-01 -1.57783777e-01 -4.98230964e-01
     1.61423057e-01 -3.40449870e-01]]

  [[ 3.33656758e-01  2.63141125e-01  7.26303160e-02 -2.54069149e-01
     2.82396097e-02  6.34548590e-02]
   [-2.29280949e-01  3.28151941e-01 -1.22463614e-01 -4.45794433e-01
    -3.53095055e-01 -3.23946416e-01]
   [-2.84412652e-01 -1.00664183e-01 -3.61138314e-01 -5.36829114e-01
    -4.75764006e-01 -6.49756730e-01]]

  [[ 4.61879164e-01 -9.50667914e-03  2.53242224e-01 -2.86717027e-01
    -1.11444816e-01  1.97511241e-01]
   [-4.01268333e-01  7.15193599e-02 -1.32768944e-01 -4.23195392e-01
    -5.24014294e-01  1.35586202e-01]
   [-4.75228667e-01 -1.58630565e-01 -3.17639977e-01 -3.99439067e-01
    -7.66255617e-01 -1.04151443e-01]]

  [[ 4.60610688e-01  1.29161566e-01  1.53349951e-01 -2.71734983e-01
     2.68489551e-02  6.62011981e-01]
   [-2.40686029e-01  2.32857019e-01 -1.84395820e-01 -3.45927060e-01
    -5.49322724e-01  3.89681488e-01]
   [-5.26159346e-01 -4.25703824e-01 -4.56905097e-01 -3.67946863e-01
    -5.56022882e-01  1.06204957e-01]]]


 [[[ 1.90984055e-01  8.49452689e-02  4.36150312e-01 -3.34780484e-01
     5.37991762e-01 -2.21823618e-01]
   [-3.54778528e-01  2.82072246e-01  2.70208299e-01 -2.58321375e-01
     5.95791399e-01 -3.49387437e-01]
   [ 3.26440148e-02 -1.26778215e-01  8.27051178e-02 -2.50835299e-01
     4.04384404e-01 -7.02855408e-01]]

  [[ 3.25837672e-01 -6.87615797e-02  2.86056638e-01 -3.45753998e-01
     6.11953914e-01  9.36234444e-02]
   [-2.68870234e-01  7.12579414e-02 -2.88601518e-02 -4.25413132e-01
     2.99745232e-01 -1.43200345e-02]
   [-3.16118002e-01 -1.61620185e-01 -2.21895888e-01 -3.89661372e-01
     3.82221788e-01 -4.61461544e-01]]

  [[ 4.54082072e-01 -7.78201073e-02 -4.39432673e-02 -4.21160549e-01
    -2.56795347e-01  2.07588434e-01]
   [-4.16519582e-01 -2.04272615e-03 -1.36463735e-02 -3.65806222e-01
    -4.28988665e-01  1.02522887e-01]
   [-5.53638697e-01 -4.09463972e-01 -5.15879631e-01 -4.59215641e-01
    -4.61279422e-01 -3.72937381e-01]]

  [[ 4.09253150e-01 -8.44028369e-02  1.67250350e-01 -4.47985798e-01
    -3.05460811e-01  3.87982339e-01]
   [-6.00659668e-01  1.22918703e-01 -1.67393669e-01 -6.31258190e-01
    -8.47123504e-01  2.67679304e-01]
   [-4.08495188e-01 -4.14885759e-01 -5.01074910e-01 -5.98558605e-01
    -7.78532207e-01 -2.52974126e-02]]

  [[ 4.86957580e-01 -7.59591758e-02  5.26879914e-02 -3.55365604e-01
    -2.09283605e-01  2.74332225e-01]
   [-4.32153732e-01  1.66962638e-01  7.84153864e-02 -3.64166647e-01
    -5.65342069e-01  3.06669086e-01]
   [-3.70697618e-01 -3.31386387e-01 -1.57030493e-01 -3.80525500e-01
    -4.00438666e-01  8.50969031e-02]]]


 [[[-4.11245599e-02  1.99384883e-01  2.27344498e-01  2.12690011e-01
     4.12716478e-01 -5.87487221e-03]
   [-4.71884102e-01  3.50250095e-01  1.67579755e-01  2.19850719e-01
     5.56310058e-01 -2.55168021e-01]
   [-3.80861796e-02 -3.37122470e-01  6.61146790e-02  1.24071889e-01
     6.32172823e-01 -6.92776918e-01]]

  [[ 5.73702455e-02  1.22682735e-01  2.59759068e-01  3.11204821e-01
     5.07675886e-01  1.94448441e-01]
   [-2.88349748e-01  7.14278147e-02  4.98344079e-02  2.90894657e-01
     3.60983044e-01 -1.82121724e-01]
   [-4.27191645e-01 -2.94909537e-01 -1.74805686e-01  1.43179908e-01
     4.56192642e-01 -3.45087469e-01]]

  [[-2.43753325e-02  4.72569428e-02 -5.64985238e-02  1.86980352e-01
    -7.88351744e-02  4.02358413e-01]
   [-5.30589342e-01  5.53420326e-03  1.73616171e-01 -6.41863048e-02
    -2.91148633e-01  3.51334155e-01]
   [-1.77071810e-01 -3.81761640e-01 -2.40243912e-01  1.32075682e-01
    -1.42857041e-02 -1.13968074e-01]]

  [[ 1.67675376e-01  9.80146378e-02 -9.27235000e-04  2.86464453e-01
    -5.92215896e-01  4.84394848e-01]
   [-4.40121025e-01  1.52979577e-02 -2.53664315e-01  1.92804113e-01
    -7.24285424e-01  2.30628192e-01]
   [-3.58649224e-01 -1.15061231e-01 -4.26910639e-01  7.74626853e-04
    -5.11087477e-01  2.81957276e-02]]

  [[ 2.67837077e-01 -2.30257675e-01 -1.78542763e-01  5.28500117e-02
    -2.35474646e-01  2.61776060e-01]
   [-3.26139271e-01  1.87740959e-02 -1.14609122e-01  8.71034637e-02
    -3.56993109e-01  2.53470894e-02]
   [ 6.87029436e-02 -3.57870311e-01 -3.81365329e-01  1.07826307e-01
    -3.13948721e-01 -1.92164138e-01]]]]
le_net/conv2d/bias:0
(6,)
[-0.14510413  0.3998725   0.40848383 -0.27703977 -0.21234696  0.1926503 ]
le_net/conv2d_1/kernel:0
(5, 5, 6, 16)
[[[[-2.28017092e-01 -1.78431583e-05 -2.12272093e-01  1.53026342e-01
    -7.81991109e-02 -8.45525712e-02  6.29085898e-01 -3.14538151e-01
    -4.34524566e-01  4.73009437e-01  3.77130598e-01  2.77143210e-01
    -5.67036211e-01  1.31139550e-02 -8.73651430e-02 -1.93529040e-01]
   [-2.40145847e-01 -2.86323011e-01 -3.89198065e-01  1.64519310e-01
     1.36285603e-01 -4.56863075e-01 -2.38922220e-02 -1.52653366e-01
     1.62428766e-02 -1.58198908e-01  2.00109556e-01 -2.30456695e-01
    -8.22257757e-01 -3.58496517e-01 -1.94211289e-01 -3.76910299e-01]
   [-3.38006318e-02 -2.77995944e-01 -2.64725536e-01  2.61396408e-01
     2.23881200e-01 -8.74237865e-02  6.24533184e-02 -7.72407800e-02
    -5.02396002e-02 -1.17912211e-01  3.89191434e-02  1.42900914e-01
    -2.97589928e-01  1.79901451e-01 -2.10858166e-01 -4.13736939e-01]
   [-2.47766927e-01 -1.28194034e-01  6.10287130e-01 -1.48629993e-01
     1.15781941e-01 -1.04880959e-01  3.93440239e-02 -4.48636353e-01
     4.99968678e-01 -1.31585285e-01  6.65485084e-01  3.65515620e-01
     7.96672553e-02 -1.33366302e-01 -2.39991605e-01  1.32074673e-03]
   [-2.50075549e-01 -3.56145769e-01 -9.76937339e-02  4.52925563e-01
     3.40363294e-01 -8.35566893e-02  1.72334850e-01 -2.87091225e-01
     3.64366740e-01  1.65998518e-01 -4.39428128e-02 -4.87442017e-01
    -3.45848471e-01 -1.63550451e-01 -2.32315063e-01 -1.80333719e-01]
   [-8.23256820e-02 -5.85514843e-01 -7.03159451e-01 -1.96296424e-02
    -6.93601230e-03 -6.12276495e-01 -2.58449048e-01  1.72859617e-02
    -3.73194247e-01  5.53294234e-02  8.60335492e-03 -3.83887798e-01
    -6.49404883e-01 -4.52911675e-01  1.34244487e-01 -3.14547688e-01]]

  [[-2.37692371e-01 -1.72908120e-02 -6.96447939e-02  4.04912502e-01
     2.00253293e-01  1.10147670e-01  5.89191139e-01 -2.98631191e-01
    -2.97621489e-01  1.89990312e-01  4.36412603e-01 -1.02357797e-01
    -4.94070053e-01  1.36348382e-01 -2.68878847e-01 -1.15812145e-01]
   [-9.53139588e-02 -2.76848644e-01 -1.68562934e-01  8.51905569e-02
     2.44927540e-01 -2.48937488e-01  1.26050919e-01  8.69758874e-02
     3.15745100e-02 -5.34086525e-01  1.67922094e-01 -1.09650500e-01
    -5.23315907e-01 -1.11450747e-01 -2.51216114e-01 -2.61431038e-01]
   [-5.01427613e-02 -3.70066077e-01 -2.69567281e-01  3.32928687e-01
     4.15564924e-01 -8.09919611e-02 -1.65578146e-02 -5.99471442e-02
     2.78994851e-02 -5.73048413e-01  1.04495166e-02  1.23928681e-01
    -2.23536894e-01  9.09549221e-02 -1.65706962e-01 -3.33664536e-01]
   [-3.58418375e-01  1.13957841e-02  5.02483785e-01  1.93164676e-01
     3.29654008e-01  3.79809588e-02  2.93442070e-01 -4.35905725e-01
     5.60907781e-01 -2.97885984e-01  8.89301598e-01 -1.15555219e-01
    -3.54164396e-03 -1.11965083e-01 -3.38397861e-01  2.07784586e-04]
   [-3.79960299e-01 -5.02129160e-02 -1.09661549e-01  8.07473421e-01
     4.87691760e-01 -1.79444715e-01  1.35312350e-02 -3.67162198e-01
     1.05799258e-01 -7.03034639e-01 -1.10640600e-02 -3.70079279e-01
    -7.15148687e-01 -1.20950237e-01  5.73483631e-02 -2.99259573e-01]
   [-2.37695333e-02 -7.00562835e-01 -4.42265332e-01 -1.21039830e-01
     8.79064128e-02 -3.46987724e-01 -6.96567222e-02  1.56973958e-01
    -9.92934257e-02  2.98338860e-01  1.28019020e-01 -2.53708839e-01
    -1.22819863e-01 -2.12160304e-01 -1.06297620e-01 -3.98416340e-01]]

  [[-2.72064686e-01  1.09699354e-01 -9.09401104e-02  1.05121262e-01
     3.55231225e-01  1.81598216e-02  7.84715593e-01 -1.86759979e-01
    -9.31000784e-02 -3.64471555e-01  4.07374710e-01  3.65024433e-02
    -5.51999450e-01  8.90867338e-02 -3.69450837e-01 -3.76235723e-01]
   [-1.54446036e-01 -4.25111324e-01 -1.19888209e-01 -8.12210664e-02
     1.56427592e-01  5.18444777e-02  1.15524657e-01  3.94036025e-02
     3.89767885e-02 -6.27678156e-01  2.24240169e-01 -2.52893642e-02
    -4.87424582e-01 -9.92768481e-02 -2.44931489e-01 -3.07985693e-01]
   [-1.95469111e-02 -4.32118058e-01 -2.91908830e-01  3.91362645e-02
     2.29848236e-01  3.73625122e-02  5.92272729e-02  9.66617465e-02
    -4.61460352e-02 -5.08235872e-01  1.92365830e-03  1.91180363e-01
    -2.84883797e-01  6.81895986e-02  4.05477593e-03 -4.06243503e-01]
   [-4.10258889e-01  2.85646096e-02  6.15445435e-01  6.02875873e-02
     3.64429802e-01  1.30155772e-01  1.93231046e-01 -4.84908760e-01
     5.82386196e-01 -5.39448380e-01  8.26398134e-01 -2.79684812e-01
     1.44101515e-01 -1.47122264e-01 -1.84596747e-01 -6.48742169e-02]
   [-2.30192602e-01 -9.77058336e-02 -2.03726381e-01  2.16247439e-01
     4.20809865e-01 -2.76263207e-01  2.14382306e-01 -2.87442952e-01
    -8.84916708e-02 -5.05377650e-01  9.35502946e-02 -2.79495806e-01
    -6.22965753e-01 -8.34563524e-02  5.57267785e-01 -2.26694137e-01]
   [-2.05676064e-01 -5.60127079e-01 -3.98204833e-01  2.34030336e-01
     3.29507142e-01 -1.45324051e-01 -1.80296004e-01  1.04343586e-01
    -1.90059096e-01  3.31115611e-02 -3.67804244e-02 -1.24428399e-01
    -1.71153888e-01 -2.43669003e-01 -8.82271528e-02 -3.59614253e-01]]

  [[-1.63306147e-01 -8.95425212e-03 -8.40832144e-02 -1.09569117e-01
     9.45904851e-02 -7.42419958e-02  7.46666729e-01 -2.87246317e-01
    -1.96158573e-01 -1.91817462e-01  4.76301253e-01  1.60612576e-02
    -7.15938628e-01  2.10926190e-01  6.45157471e-02 -2.21950784e-01]
   [-1.30931567e-02 -3.50073248e-01 -1.49373502e-01 -7.16682971e-02
     8.27837810e-02  5.56199662e-02 -1.38438260e-03  8.60597566e-02
     1.53723862e-02 -2.33128965e-01  2.50190884e-01  9.01534259e-02
    -4.49405521e-01 -3.81002463e-02 -2.55874754e-03 -3.51666003e-01]
   [ 1.10837370e-01 -5.04601896e-01 -4.85047847e-01 -7.70229697e-02
     5.55742439e-03  1.51619911e-01  1.00450709e-01  1.47990227e-01
    -1.18477061e-01  4.99809794e-02 -2.86871269e-02  1.33247927e-01
    -2.41389126e-01  2.04353347e-01  3.37495834e-01 -4.79364872e-01]
   [-2.07364425e-01  2.24888161e-01  5.60714900e-01 -3.98080908e-02
     6.48670718e-02  2.64228404e-01  3.63078624e-01 -5.03263354e-01
     4.60967004e-01 -4.15203571e-01  9.11586463e-01 -2.82520443e-01
     1.82510987e-01 -1.06100768e-01  4.37363759e-02 -6.37510270e-02]
   [ 6.88774372e-03 -3.01378936e-01 -5.29198349e-01  3.28712687e-02
    -1.79499775e-01 -3.33605468e-01  4.08684015e-02 -1.34376884e-01
     1.41148210e-01  1.92757249e-01  1.55641571e-01 -2.02412963e-01
    -4.08615470e-01 -1.03756137e-01  5.75518489e-01 -2.30317548e-01]
   [-3.17088127e-01 -4.65207428e-01 -2.46885270e-01  1.33267343e-01
     3.88564795e-01 -1.83417335e-01 -2.43797466e-01 -1.36032879e-01
    -2.26197541e-01 -2.83001989e-01  5.96738681e-02 -1.60370260e-01
    -2.16409862e-01 -3.44977766e-01 -3.98762412e-02 -3.98896456e-01]]

  [[-2.04423591e-02  3.81318405e-02 -1.94421843e-01 -8.53474904e-03
    -5.17268538e-01 -3.90333161e-02  6.02052093e-01 -9.11718979e-02
    -9.05830041e-02 -2.24294867e-02  4.46984828e-01 -1.83899984e-01
    -8.99659097e-01 -1.78180672e-02  4.77009535e-01 -2.75631011e-01]
   [-1.84567720e-02 -4.93870914e-01 -9.81965810e-02 -1.03630170e-01
    -7.78181031e-02  1.18663281e-01  9.11769345e-02  6.02322370e-02
     8.82551670e-02 -3.75492685e-02  2.38199010e-01 -1.23229496e-01
    -5.69602430e-01  6.27366686e-03  2.33516425e-01 -3.82097274e-01]
   [ 8.04484487e-02 -6.39496088e-01 -4.42423254e-01  2.51773167e-02
    -2.11890683e-01  1.13876306e-01 -1.21740751e-01  6.23806268e-02
    -1.96562305e-01  4.72929962e-02  4.08064537e-02 -2.40017712e-01
    -3.24972540e-01 -1.68709699e-02  3.22032958e-01 -4.77791995e-01]
   [-2.10152641e-01 -4.75970507e-02  4.92867440e-01 -5.94062209e-02
    -3.28831822e-01  2.62848228e-01  2.31353745e-01 -3.90439779e-01
     5.10004640e-01 -1.77555427e-01  7.55372822e-01 -1.43451154e-01
     3.05806361e-02 -2.33355701e-01  3.73353988e-01  5.37225641e-02]
   [-8.19569919e-03 -5.19577444e-01 -4.29409623e-01  2.32940525e-01
    -3.81339401e-01 -2.68601477e-01 -6.29109666e-02 -5.10426387e-02
    -2.76585162e-01  1.24281898e-01  1.18298590e-01 -3.58967692e-01
    -7.58297205e-01 -1.61836445e-01  6.32004321e-01 -2.65237778e-01]
   [-2.77371377e-01 -3.23857129e-01 -1.19743243e-01  1.19311258e-01
     4.21565443e-01 -6.65728226e-02 -1.52107403e-01 -1.79896921e-01
    -3.63796771e-01 -1.79638460e-01  9.06630140e-03 -2.42361486e-01
    -1.35830283e-01 -3.91346604e-01  2.23519236e-01 -5.33954382e-01]]]


 [[[-8.44140127e-02  1.24302153e-02 -1.58685058e-01  3.57935488e-01
     3.84103119e-01  2.88134605e-01  4.36895013e-01 -4.70569789e-01
    -9.60241973e-01  7.37377286e-01 -1.77909151e-01  3.78590912e-01
    -3.61873448e-01  2.58320838e-01  3.27474207e-01 -4.14206125e-02]
   [-1.15187559e-02 -3.89523089e-01 -1.87641054e-01  1.80742726e-01
     2.51326799e-01 -2.31193915e-01  3.31324339e-02  6.68385625e-02
    -2.33068079e-01 -3.99446823e-02  4.92459089e-02  2.32121736e-01
    -3.49036336e-01 -6.25916272e-02 -4.35204729e-02 -3.41392726e-01]
   [ 1.08834974e-01 -1.29241362e-01 -1.31330311e-01  1.59686089e-01
     2.89425790e-01 -1.38881683e-01  6.48793355e-02  7.65106827e-02
    -1.36050224e-01 -4.10707109e-02 -6.47722408e-02  3.23947549e-01
     9.47170705e-02  2.51434356e-01 -1.55660972e-01 -2.79986054e-01]
   [-2.75094599e-01 -3.88828549e-03  6.61053240e-01  1.42064795e-01
     3.18502277e-01 -2.08846584e-01  4.02920902e-01 -6.43566251e-01
    -1.15399159e-01 -9.82161909e-02  5.83000600e-01  3.95994425e-01
    -3.79288755e-02  6.08686358e-03 -5.36234751e-02 -2.75309794e-02]
   [-1.45661980e-01 -2.51492411e-01  8.39391723e-02  7.88514495e-01
     1.98360696e-01 -1.16711840e-01  1.92134514e-01 -8.88248160e-02
     2.55997509e-01  5.60554683e-01 -1.53958052e-01 -4.47796285e-01
     3.86328213e-02  9.82576013e-02 -9.80850905e-02 -3.00148964e-01]
   [-1.14045314e-01 -4.70985264e-01 -4.02121216e-01 -1.59712195e-01
    -4.45681531e-03 -6.06187701e-01 -2.02645674e-01  5.00053428e-02
    -4.19428557e-01  1.65780917e-01 -6.25844114e-03 -1.75528359e-02
    -3.78877342e-01 -2.85234392e-01  1.07298587e-02 -2.69739211e-01]]

  [[-5.80241047e-02 -1.74273312e-01  2.39661727e-02  2.71326959e-01
     3.62323850e-01  2.50144631e-01  8.56471956e-01 -2.72030652e-01
    -7.89449275e-01  3.81757110e-01 -3.45888793e-01  8.83299187e-02
    -3.52434993e-01  9.39002782e-02 -2.68161237e-01 -2.18267664e-01]
   [ 9.29205120e-02 -3.88376445e-01 -2.61300569e-03 -4.57905158e-02
     2.87887275e-01  9.60501209e-02  4.80546318e-02  1.91968188e-01
    -2.30992734e-02 -2.57590115e-01 -7.41437227e-02  2.24447131e-01
    -2.34526441e-01  6.24001808e-02 -4.05895084e-01 -4.01451170e-01]
   [ 9.63531584e-02 -4.01372373e-01 -8.62113237e-02  4.96215820e-02
     2.26636305e-01  6.06778562e-02  1.12954400e-01  1.53149068e-01
    -1.35995775e-01 -4.17839348e-01 -1.31296784e-01  1.71457276e-01
     1.42871365e-01  2.55588204e-01 -3.27818722e-01 -4.40493375e-01]
   [-3.51378471e-01  7.26827048e-03  7.56334305e-01  2.15112656e-01
     1.59638092e-01  8.44162256e-02  4.18621212e-01 -4.99619007e-01
     2.05431551e-01 -2.39973187e-01  5.46553195e-01 -2.65201982e-02
     6.43266514e-02 -1.59608260e-01 -2.79534489e-01 -2.05971867e-01]
   [-2.65844017e-01 -4.48136717e-01 -9.60264876e-02  6.23665035e-01
     2.07798317e-01 -1.23127095e-01  2.51343459e-01 -3.23713392e-01
    -9.19890683e-03 -5.57623386e-01 -2.10496441e-01 -5.35443485e-01
    -7.88267180e-02  1.12398997e-01 -1.76315442e-01 -4.05927628e-01]
   [ 4.18536365e-03 -3.09289634e-01 -3.00022811e-01 -2.54862178e-02
     1.69686571e-01 -1.73278764e-01 -4.80571613e-02  1.55759841e-01
    -3.63042921e-01  3.65004271e-01 -1.22847192e-01 -1.75873993e-03
     1.08392775e-01 -6.96249381e-02  1.62693225e-02 -2.99975693e-01]]

  [[-3.21628936e-02 -2.01724678e-01 -4.64656763e-02 -1.95986852e-01
     2.24657461e-01  2.67643422e-01  8.68615866e-01 -2.16334626e-01
    -8.00861955e-01 -1.87879622e-01 -4.81429845e-01 -5.86368218e-02
    -5.05916297e-01  1.17952444e-01 -2.71223426e-01 -1.38200328e-01]
   [ 1.32509544e-02 -2.33144552e-01  1.41890854e-01 -2.24204406e-01
    -5.70149906e-02  3.58201675e-02  1.99476138e-01  2.95544147e-01
    -3.91758084e-02 -4.08788919e-01 -7.25537688e-02  2.14895964e-01
    -5.10773882e-02  2.06935883e-01 -3.05196553e-01 -3.33161294e-01]
   [ 1.14433058e-01 -2.95749456e-01 -8.45815763e-02 -3.00617158e-01
    -2.84353606e-02  3.66300419e-02  1.49156943e-01  2.23342348e-02
    -1.24873020e-01 -3.24750185e-01 -2.16155618e-01  2.69107312e-01
     1.89864442e-01  3.13939989e-01 -1.60259604e-01 -1.80174157e-01]
   [-2.74408013e-01 -4.07926440e-02  7.21457422e-01 -6.70636371e-02
    -8.73960704e-02  5.93380593e-02  5.66224813e-01 -5.59138596e-01
     2.02944666e-01 -3.44406366e-01  5.36176443e-01 -2.95299053e-01
     1.22385457e-01 -7.88575187e-02 -3.86798233e-01 -3.29119205e-01]
   [-2.51181692e-01 -3.41744661e-01 -2.76095301e-01 -4.39100832e-01
    -3.04381043e-01 -8.66003036e-02  3.99446219e-01 -2.33304635e-01
    -1.05509393e-01 -5.97159803e-01 -1.70181990e-01 -3.10629010e-01
     2.32349738e-01  1.27446771e-01  9.92004499e-02 -1.48810133e-01]
   [ 5.96849211e-02 -3.89678121e-01 -1.48771927e-01  1.00750253e-01
     2.30501190e-01 -9.83530879e-02 -1.78164408e-01  1.39505342e-01
    -3.61530840e-01  2.48499382e-02 -8.95868912e-02 -3.59928198e-02
     1.76881373e-01 -4.15875241e-02 -2.55723864e-01 -3.76246244e-01]]

  [[-1.05680682e-01 -1.34144410e-01 -3.41944955e-02 -3.44909698e-01
    -2.33075246e-01  3.21289092e-01  7.84809768e-01 -2.39739344e-01
    -4.97094691e-01 -1.31800503e-01 -1.78049684e-01 -3.04490536e-01
    -7.68805742e-01  2.55927771e-01  8.60170275e-02 -1.94364235e-01]
   [ 1.70320630e-01 -4.31731522e-01  6.97729215e-02 -1.96714878e-01
    -1.71893686e-01  1.76475421e-01  1.11455329e-01  2.26200268e-01
     1.30819324e-02 -1.16242804e-01  1.18427329e-01  3.28986436e-01
    -2.78133452e-01  2.73029983e-01  6.70476556e-02 -3.36506248e-01]
   [ 1.26628980e-01 -4.18971866e-01 -3.07677776e-01 -2.29888454e-01
    -1.76403895e-01  3.92873213e-03  2.05307111e-01  1.61017075e-01
    -9.16809514e-02  1.74357533e-01 -2.00878486e-01  2.15924606e-01
     1.40710905e-01  2.46165410e-01  4.32989746e-01 -2.23181129e-01]
   [-2.49162182e-01  5.05964234e-02  6.09620154e-01 -1.17024504e-01
    -2.98034847e-01  3.31275344e-01  5.35774708e-01 -4.97124642e-01
     2.69822866e-01 -3.10327679e-01  5.72834551e-01 -3.88072670e-01
     6.22057728e-02 -2.37310484e-01 -1.96059808e-01 -1.09484747e-01]
   [ 5.60870431e-02 -2.32563093e-01 -2.68031359e-01 -1.28512442e-01
    -5.33069909e-01 -2.61448890e-01  2.68033683e-01 -1.70059547e-01
    -4.13793437e-02  2.54432738e-01 -8.47075358e-02 -4.03255187e-02
     2.77042091e-02  2.97980029e-02  6.94907248e-01 -1.66846961e-01]
   [-3.05810839e-01 -2.85237968e-01  2.03317329e-02 -3.44306193e-02
     2.23112538e-01 -6.31480291e-02 -1.45226285e-01 -1.32473558e-01
    -3.35582882e-01 -3.35098833e-01 -2.99782157e-01 -2.41301119e-01
     1.33122653e-01 -2.17152506e-01 -3.46764863e-01 -2.35685557e-01]]

  [[-8.78234506e-02 -9.72916260e-02 -3.32260579e-01  2.81089009e-03
    -3.37154061e-01  2.55180210e-01  7.30290413e-01 -2.38399893e-01
    -4.28018659e-01  2.29102582e-01  5.11522777e-02 -5.20548999e-01
    -8.79784942e-01  1.93784274e-02  5.95299721e-01 -2.79060900e-02]
   [ 5.06657995e-02 -4.64910746e-01  4.85863574e-02 -1.50748655e-01
    -3.78678381e-01  1.89111769e-01  6.27179444e-02  3.25007796e-01
     3.01755778e-02  3.54675539e-02  1.84706330e-01  3.13484930e-02
    -2.54363447e-01  1.00118585e-01  4.08963650e-01 -3.39817047e-01]
   [ 8.34876150e-02 -5.26968181e-01 -3.89559209e-01 -7.03585520e-02
    -2.23686233e-01  1.29257202e-01  1.71796679e-02  1.53314561e-01
    -3.67021888e-01  3.51085812e-01 -5.36837429e-02 -6.48619309e-02
    -1.61747739e-01  9.65287164e-02  5.49154282e-01 -2.79615521e-01]
   [-2.97396541e-01  1.78314313e-01  3.80268604e-01 -1.77459434e-01
    -3.42402756e-01  3.42129141e-01  4.65430498e-01 -4.62254643e-01
     2.87057519e-01 -3.25445741e-01  5.38313568e-01 -4.45865214e-01
     2.95615911e-01 -2.53045231e-01  2.62072295e-01 -5.78985326e-02]
   [-1.21077776e-01 -4.00512189e-01 -4.97933477e-01  1.65642753e-01
    -3.22301298e-01 -2.19677731e-01 -2.07264815e-03 -1.42685547e-01
    -4.01427686e-01  2.43004411e-01  1.24692477e-01 -2.06386864e-01
    -1.80762500e-01  1.99436303e-02  6.72777891e-01 -6.57991543e-02]
   [-2.68026024e-01 -3.24722201e-01  8.73527583e-03  7.63918236e-02
    -5.92739247e-02 -1.20664537e-01 -5.28185219e-02  3.39842029e-02
    -2.99519449e-01 -1.71847895e-01 -2.47709960e-01 -4.48825568e-01
    -1.00439169e-01 -2.97025084e-01 -9.84653132e-04 -2.68024474e-01]]]


 [[[-1.18625917e-01  3.66505802e-01 -3.44671845e-01  3.56894732e-01
     4.32118803e-01  2.82288045e-01  8.30479041e-02 -3.03817958e-01
    -3.14848095e-01  5.85110843e-01 -8.81993830e-01  2.96310574e-01
    -4.24306273e-01  1.81732357e-01  3.33965063e-01  3.44378464e-02]
   [ 8.83784443e-02 -5.09608351e-02  1.94079652e-01  5.14951274e-02
     2.15686768e-01 -1.66507617e-01 -8.27234611e-02  5.80527261e-02
    -9.50129181e-02 -1.52283031e-02 -1.78796649e-01  4.36441451e-01
    -3.66245002e-01 -7.45662861e-03 -1.07841894e-01 -9.82887447e-02]
   [ 3.86559404e-02 -1.24906540e-01  2.91193109e-02  3.27797234e-01
    -4.35290933e-02 -2.44961396e-01 -4.04624492e-02  9.88360867e-02
     1.63584054e-02  1.61019161e-01 -3.87857795e-01  2.53511608e-01
     5.84601015e-02  9.73660201e-02 -2.59240985e-01 -5.89719340e-02]
   [-2.49345496e-01  1.63428962e-01  5.05531669e-01  3.18505645e-01
     1.58862561e-01 -2.28292719e-01  1.84446633e-01 -6.35624290e-01
     1.93740368e-01 -6.37006313e-02 -1.84039235e-01  3.28462899e-01
     1.34497490e-02 -2.52847429e-02  4.96299984e-03 -2.01855451e-01]
   [-2.97936708e-01  9.11198854e-02  2.02274248e-01  9.27379072e-01
    -1.94735676e-01 -2.23375708e-01  1.44636005e-01 -1.46322131e-01
     2.60574790e-03  7.06237197e-01 -5.94116151e-01 -9.22243372e-02
    -4.28027194e-03  6.32167561e-03 -1.74909364e-02 -7.22094579e-03]
   [-3.48995887e-02 -8.17524940e-02 -1.37762278e-01 -1.63501844e-01
    -3.91948083e-03 -8.21097910e-01 -2.02156097e-01 -7.17394203e-02
    -2.70774901e-01  2.11876512e-01 -1.18884243e-01  1.28384352e-01
     1.41070317e-03 -1.50554970e-01  1.74646989e-01 -6.09594509e-02]]

  [[-1.05094865e-01  5.48414439e-02 -3.46427895e-02  5.17896190e-02
     2.05300257e-01  3.60607177e-01  2.91977137e-01 -3.86736125e-01
    -6.13427341e-01  2.11775169e-01 -1.03507209e+00  2.23441303e-01
    -5.22487104e-01  1.99243743e-02 -1.97585747e-01  1.73782378e-01]
   [ 1.47906333e-01 -2.47177050e-01  3.49793464e-01 -1.54147381e-02
     2.87669227e-02  7.08804652e-02 -9.13474113e-02  2.65425444e-01
    -5.46468562e-03 -2.79947579e-01 -1.77052140e-01  5.10308802e-01
    -4.50240932e-02  9.61736664e-02 -4.56559360e-01 -1.09724119e-01]
   [ 3.64330001e-02 -1.93111181e-01 -6.95266798e-02  4.25047837e-02
    -2.36915231e-01 -1.08731382e-01  1.22142680e-01  1.74401551e-01
    -1.35232732e-01 -3.25948745e-01 -3.32918257e-01  2.17375323e-01
     1.91184178e-01  2.34225512e-01 -4.77184534e-01 -1.62464157e-01]
   [-4.11955476e-01  3.31716845e-03  5.77842712e-01  2.64498498e-03
    -2.44517788e-01 -3.87164950e-02  3.38560283e-01 -6.04062378e-01
     1.98193207e-01 -2.34435156e-01 -2.83432715e-02  1.30915001e-01
    -7.37753417e-03 -7.09559098e-02 -2.34752521e-01 -7.64760152e-02]
   [-2.52949655e-01 -2.95052826e-01  1.11335918e-01  2.45341748e-01
    -5.37022233e-01 -9.59850773e-02  1.49894040e-02 -2.25263521e-01
    -4.81645375e-01 -4.78420138e-01 -7.45254159e-01 -2.69766599e-01
     3.00580949e-01  7.60299712e-02 -2.95078009e-01 -3.22472788e-02]
   [ 5.91112860e-02 -1.09603114e-01 -1.34987399e-01  1.83216438e-01
    -4.12352048e-02 -4.35234964e-01 -2.07135826e-01  4.63345721e-02
    -2.07338601e-01  3.09375077e-01 -2.20905051e-01  1.81019947e-01
     2.44233608e-01 -4.06589247e-02  1.55260880e-02 -1.51289344e-01]]

  [[-6.39178455e-02  1.48961749e-02  8.51822570e-02 -4.13914442e-01
    -1.85267460e-02  4.32481676e-01  8.93251747e-02 -2.62832135e-01
    -7.18934894e-01 -1.16922095e-01 -8.03061664e-01 -3.37707140e-02
    -3.52840692e-01  1.29218698e-01 -1.63139865e-01  3.46866548e-01]
   [ 2.50959337e-01 -2.30998501e-01  4.18962479e-01 -1.08071953e-01
    -2.68317848e-01  2.29378417e-01  6.03519753e-02  2.67587334e-01
    -6.56275749e-02 -2.99359411e-01 -5.19784614e-02  4.63635594e-01
    -1.77760178e-03  1.04559794e-01 -3.47140849e-01 -1.50136709e-01]
   [ 1.26894861e-01 -1.84329078e-01  1.89289916e-02 -4.44777995e-01
    -3.87163609e-01 -7.46000744e-03 -2.23038513e-02  1.62601918e-01
    -2.24388286e-01 -3.02916288e-01 -2.74102241e-01  2.74588436e-01
     2.29470313e-01  2.20840693e-01 -2.40970194e-01  6.56554401e-02]
   [-4.67796236e-01 -2.60735869e-01  4.40091223e-01 -1.87730968e-01
    -4.48422432e-01  3.99480686e-02  3.31164092e-01 -5.27022719e-01
    -6.53439388e-02 -3.51736546e-01  2.77642999e-03 -1.31805718e-01
     1.73809398e-02 -1.48214772e-01 -3.40851605e-01 -8.04208517e-02]
   [-4.88859527e-02 -1.55818909e-01  5.16761001e-03 -5.14772177e-01
    -6.17618680e-01 -2.38058731e-01 -1.93608925e-03 -3.05164725e-01
    -4.70073074e-01 -5.49424946e-01 -6.75290763e-01 -2.23054767e-01
     4.00938094e-01 -9.51267406e-02 -2.05068320e-01  9.45049450e-02]
   [ 8.09481591e-02 -2.44687244e-01 -9.49940160e-02  1.05387516e-01
     1.64682921e-02 -2.13061899e-01 -1.92931384e-01  4.62580845e-03
    -2.94305444e-01  5.95778748e-02 -2.62543052e-01  2.91970372e-02
     2.14581877e-01 -1.96685120e-01 -2.26986349e-01 -2.82321610e-02]]

  [[-1.86221093e-01 -1.23848632e-01  8.63904133e-02 -1.00880623e-01
     1.04686469e-01  3.75925988e-01  1.22817583e-01 -2.51654088e-01
    -7.89229751e-01  3.51293795e-02 -7.86820173e-01 -3.79773915e-01
    -6.35369003e-01  1.72636271e-01  1.03655353e-01  3.27125549e-01]
   [ 5.69401197e-02 -2.34703809e-01  3.45516711e-01 -1.96544886e-01
    -3.62203032e-01  2.42044196e-01 -5.68588451e-02  2.51934499e-01
    -8.48171189e-02 -6.23777099e-02 -1.06524315e-03  3.20708603e-01
    -1.26495227e-01  1.63461655e-01 -4.04228549e-03 -6.70415163e-02]
   [ 1.97022304e-01 -1.48409188e-01 -4.09042984e-02 -7.97415674e-02
    -1.69915602e-01 -7.12921144e-04  2.00581234e-02  2.26952434e-01
    -2.50191092e-01  2.55453080e-01 -1.36939511e-01  6.66999519e-02
     2.42923200e-02  8.00532997e-02  2.28391975e-01  8.70143175e-02]
   [-4.49417174e-01 -8.10933113e-02  4.42787170e-01 -2.91410238e-01
    -3.30105454e-01  1.09722234e-01  3.53046685e-01 -6.12176776e-01
     7.09914938e-02 -3.37878078e-01 -3.20606981e-04 -3.78854811e-01
    -1.02243222e-01 -2.60810792e-01 -3.31482530e-01 -1.77030917e-02]
   [-8.70467797e-02 -1.01031110e-01 -2.78669387e-01  1.34610683e-01
    -2.82497555e-01 -2.09668696e-01 -2.43692630e-05 -3.19320679e-01
    -2.92065620e-01  1.62588254e-01 -4.58827585e-01 -2.00084537e-01
    -4.20888811e-02  6.42314181e-02  4.70617056e-01  6.84056953e-02]
   [-7.50437602e-02 -1.68644220e-01 -4.29024361e-02 -2.63129950e-01
    -1.77162081e-01 -1.47939920e-01 -2.44336233e-01 -3.70178781e-02
    -2.44123921e-01 -1.19047023e-01 -3.43595892e-01 -2.73425817e-01
     2.43951902e-01 -2.02503607e-01 -3.11808586e-01 -9.57134832e-03]]

  [[-1.11244418e-01  4.53247577e-02 -1.70854807e-01 -5.51741458e-02
     2.94647187e-01  3.39011282e-01  4.39745933e-02 -1.69712052e-01
    -6.44111276e-01  3.21403444e-01 -4.68470156e-01 -1.07770360e+00
    -7.10972786e-01 -3.71620543e-02  5.55418968e-01  2.07997456e-01]
   [ 1.19785197e-01 -1.26196772e-01  2.90287763e-01  4.51585930e-03
    -2.92082578e-01  3.34289342e-01 -1.45354643e-02  2.91604400e-01
     6.88968301e-02  2.43645951e-01 -1.10351905e-01 -2.03474104e-01
    -6.87795728e-02  1.40113860e-01  1.85038999e-01 -8.12815353e-02]
   [ 1.02767266e-01 -1.10510312e-01 -2.04687193e-01 -2.08756521e-01
    -8.33142102e-02  1.80277843e-02 -1.38779357e-01  6.23420887e-02
    -2.63535261e-01  3.17176104e-01 -9.02952850e-02 -5.05634248e-01
     1.81957632e-02 -5.56770898e-02  4.65354979e-01  6.36892468e-02]
   [-2.29738533e-01  5.63430339e-02  3.60872865e-01 -8.97614732e-02
    -1.06330041e-03  1.64083019e-01  3.12348425e-01 -4.22347844e-01
     1.46935090e-01 -2.43067771e-01 -9.65096522e-03 -5.96349180e-01
     2.02512637e-01 -1.29830852e-01 -3.38239186e-02 -2.49894243e-02]
   [-1.10375337e-01  3.04348499e-01 -3.89445007e-01  9.59244296e-02
    -9.87986848e-02 -3.28943908e-01 -4.01275344e-02 -1.58418342e-01
    -3.59462231e-01  3.69805872e-01 -3.03555071e-01 -3.97404522e-01
     1.49728253e-01  2.16224641e-02  8.44718516e-01  1.51684448e-01]
   [-1.34464294e-01 -1.21731423e-01 -1.81309264e-02 -6.30511567e-02
    -4.13167983e-01 -6.93426728e-02 -1.69146419e-01  7.96199888e-02
    -2.91776180e-01  2.40185065e-03 -3.80327880e-01 -7.18107343e-01
     1.73514076e-02 -4.54760671e-01 -2.51314957e-02 -1.51128769e-01]]]


 [[[ 2.02516377e-01  5.65446675e-01 -5.35644174e-01  2.14156136e-01
     1.37650967e-01  3.45123321e-01 -5.00476539e-01 -2.31700405e-01
     2.33571827e-01  4.52699125e-01 -4.54770356e-01  1.24194629e-01
    -6.07596278e-01  2.10642070e-02  2.19390616e-01  4.77722824e-01]
   [ 2.19442651e-01  2.88483016e-02  1.43469393e-01  1.06246591e-01
     4.20447588e-02 -2.40267888e-01 -1.77271560e-01  1.98469803e-01
    -7.60395601e-02  2.00526744e-01 -3.74175429e-01  4.46859181e-01
    -4.04063225e-01  1.39402360e-01  4.58231755e-02 -2.06587613e-02]
   [ 2.24751279e-01  1.07570216e-01  1.53456256e-01  1.90968946e-01
    -1.68653741e-01 -3.25872838e-01 -6.50799200e-02  1.05549596e-01
     1.03358917e-01  8.66119787e-02 -3.15407366e-01  2.46853039e-01
    -6.41069189e-02  1.09284945e-01 -2.06012189e-01  2.47729748e-01]
   [-3.02243948e-01  1.60540342e-02  4.69290048e-01  2.27775425e-02
    -1.34863500e-02 -1.73265994e-01 -1.56818673e-01 -3.88390869e-01
     2.40409628e-01 -1.60784289e-01  2.46257931e-01  3.06547284e-01
     2.09844664e-01 -2.16598541e-01 -5.13186269e-02  2.13716134e-01]
   [-1.17237851e-01  4.69376236e-01  1.20935954e-01  5.31757772e-01
    -5.16738236e-01 -3.33791792e-01 -3.14231247e-01 -1.53350383e-01
     2.49561548e-01  4.44614172e-01 -6.39268935e-01  2.81945229e-01
    -3.65498066e-01  1.27331287e-01 -5.67730144e-02  3.96119952e-01]
   [ 2.25414664e-01 -2.09517367e-02 -8.45393017e-02 -1.17924243e-01
     2.38113590e-02 -8.26313615e-01 -3.16497326e-01 -3.36826965e-02
    -7.94737563e-02  3.17576379e-02 -3.07195842e-01 -2.57653999e-03
    -5.76566868e-02 -2.30227157e-01  6.48378134e-02  1.58542112e-01]]

  [[ 8.68720748e-03  4.64822739e-01 -4.43668664e-01 -7.75194615e-02
    -3.38245109e-02  3.68494034e-01 -5.07487953e-01 -1.96529001e-01
     9.94053483e-02  1.04323149e-01 -2.83640414e-01  3.17213029e-01
    -4.03565645e-01  5.61280623e-02 -8.94563049e-02  6.04650378e-01]
   [ 1.97438464e-01  1.25271082e-01  2.89423376e-01  3.66406180e-02
    -1.72241613e-01 -2.92407814e-02 -2.04303056e-01  1.81784928e-01
     1.50004014e-01 -1.91818744e-01 -5.42141162e-02  6.23165071e-01
    -1.80727407e-01  1.23917945e-01 -1.86611220e-01 -9.81512219e-02]
   [ 7.30266869e-02  3.52877602e-02  2.72220615e-02 -1.60337210e-01
    -3.28270316e-01 -1.16390742e-01 -1.90988809e-01  1.86952114e-01
     4.72283829e-03 -3.10296685e-01 -6.38154568e-03  2.17947111e-01
     1.79306820e-01  1.37702420e-01 -3.31674904e-01  2.42470443e-01]
   [-5.57585835e-01 -1.65240705e-01  3.06245893e-01 -1.80808920e-02
    -4.35009271e-01 -1.54688403e-01 -2.01728791e-01 -4.72293466e-01
     1.85553834e-01 -2.96237320e-01  3.99117351e-01  2.11957306e-01
     1.55330360e-01 -1.23038903e-01 -2.05527961e-01  1.12624820e-02]
   [-2.30937943e-01 -8.10704231e-02  1.40732422e-01 -2.57658154e-01
    -6.30928695e-01 -2.59710252e-01 -4.70291257e-01 -2.13749886e-01
    -1.55634046e-01 -4.04841483e-01 -2.02123374e-01  1.22726887e-01
     3.90532583e-01  1.84548110e-01 -2.83754081e-01  2.83476532e-01]
   [ 3.24565798e-01  2.16794405e-02 -1.80471271e-01  1.50535673e-01
    -2.82780796e-01 -5.13274550e-01 -2.47364640e-02  9.94066522e-02
    -2.80529242e-02  2.78945237e-01 -1.53070047e-01  1.00210480e-01
     1.59040868e-01 -1.71696916e-01  6.47813603e-02  1.25817403e-01]]

  [[-1.12841442e-01  4.01365936e-01 -2.43823394e-01 -8.82692561e-02
     1.85082495e-01  4.12273139e-01 -5.70357800e-01 -2.22685158e-01
     8.03565681e-02  7.17298612e-02 -1.40961587e-01  1.01579778e-01
    -4.33453441e-01 -1.01645127e-01  5.60409687e-02  5.13936222e-01]
   [ 3.42603892e-01  6.42248541e-02  2.40176782e-01 -3.23800631e-02
    -4.57672238e-01  6.61892742e-02 -2.06700638e-01  2.12310135e-01
     2.35673264e-01 -1.17446117e-01 -1.40910849e-01  4.67248917e-01
    -1.20531753e-01  2.13715792e-01 -3.83178741e-01  1.86389927e-02]
   [ 2.49670327e-01 -1.65719688e-02 -1.00646168e-01 -2.06499934e-01
    -3.62096727e-01 -1.55951912e-02 -1.72941014e-01  2.21396804e-01
    -5.52444905e-02 -1.17450565e-01 -4.34298255e-02  2.19926223e-01
     3.26424778e-01  2.30811492e-01 -1.04524590e-01  3.47956270e-01]
   [-6.24326527e-01 -2.04490736e-01  1.15277864e-01 -2.07372382e-01
    -4.09448355e-01 -2.87186168e-02 -4.03192818e-01 -2.61399060e-01
    -2.05009818e-01 -3.93985838e-01  5.77990532e-01  4.92261313e-02
     2.75577456e-01 -2.62196630e-01 -2.96559960e-01  6.82712048e-02]
   [ 2.26835702e-02  3.40988077e-02  1.30595386e-01 -2.36595571e-01
    -3.51782143e-01 -2.50246823e-01 -5.61673939e-01 -2.28899017e-01
    -2.89526790e-01 -5.59029996e-01 -3.47765177e-01  3.29578407e-02
     3.77194673e-01  1.29456073e-01 -1.02517344e-01  3.51125717e-01]
   [ 5.60534857e-02  7.70981461e-02 -1.20121218e-01 -6.08260781e-02
    -3.80614430e-01 -2.83729911e-01 -1.22139022e-01  4.68516210e-03
    -5.41546717e-02  1.29623964e-01 -1.88228592e-01  1.04927070e-01
     2.82946169e-01 -9.09641385e-02 -2.69658685e-01  6.03859127e-02]]

  [[-1.30921841e-01  4.61400717e-01 -1.20095380e-01 -6.66068196e-02
     3.89869452e-01  2.97079742e-01 -5.71192324e-01 -1.46057054e-01
     2.03799326e-02 -1.79828890e-02 -1.94024310e-01 -4.15201485e-01
    -7.97096431e-01 -1.00959755e-01  1.17993802e-01  5.83996475e-01]
   [ 3.12867254e-01  7.58415088e-02  2.31384128e-01 -1.01013228e-01
    -3.36438000e-01  2.10537493e-01 -1.85339063e-01  3.72063607e-01
     2.56037503e-01 -4.14125994e-02 -6.53274953e-02  2.46394813e-01
    -2.12866336e-01  7.63721615e-02 -5.30043133e-02  5.02198189e-03]
   [ 2.61452317e-01  2.29459867e-01 -1.15155846e-01 -4.73041572e-02
    -2.04187110e-01  1.14534974e-01 -1.48815587e-02  1.99686602e-01
    -9.16946754e-02  4.02132124e-02 -7.72204548e-02 -1.36498630e-01
     4.80515230e-03 -5.26171236e-04  1.42835736e-01  2.94506848e-01]
   [-4.92344737e-01 -2.06705585e-01  2.81207800e-01 -1.61965325e-01
    -1.40581340e-01  1.13844112e-01 -4.44885343e-01 -3.69818777e-01
    -3.34168643e-01 -4.03562814e-01  4.22170132e-01 -2.95025080e-01
     2.88982481e-01 -1.45052761e-01 -3.47809076e-01  8.08038861e-02]
   [ 4.07876447e-02  3.42390984e-01 -1.70653433e-01  1.92884102e-01
     4.28282805e-02 -3.09771478e-01 -4.26460385e-01 -2.96061039e-01
    -3.89065117e-01 -7.89951882e-04 -1.16096191e-01 -3.80701236e-02
    -2.10634395e-01  1.62123710e-01  1.67489216e-01  2.94729441e-01]
   [ 1.34774089e-01  4.09773365e-02 -9.75342095e-02 -2.44856581e-01
    -5.91180921e-01 -1.46962151e-01 -2.38010436e-01  5.25195599e-02
    -2.15819970e-01 -3.52835543e-02 -1.58754900e-01 -1.78346574e-01
     2.41919413e-01 -3.14449877e-01 -3.10399324e-01  1.34354293e-01]]

  [[ 1.09098721e-02  5.61283767e-01 -1.64904520e-01 -5.27993441e-02
     6.11590981e-01  5.36303461e-01 -5.20992875e-01 -2.64023058e-02
     7.17670321e-02  2.99148023e-01 -3.27519953e-01 -1.35248804e+00
    -5.03752351e-01 -9.36617181e-02  3.61031264e-01  3.73175234e-01]
   [ 4.03738588e-01  2.63967693e-01  1.82886735e-01 -9.88229085e-03
    -3.96156274e-02  4.30512279e-01 -2.57824063e-01  3.67258430e-01
     2.56959438e-01  1.96739852e-01  2.96420660e-02 -2.81504124e-01
    -1.56607464e-01 -3.68250683e-02  2.08821431e-01  1.09711729e-01]
   [ 2.78190434e-01  2.14228436e-01 -2.19169900e-01 -7.34103993e-02
    -5.77529185e-02  2.74083614e-01 -6.25799149e-02  1.19792685e-01
     7.71082565e-02  3.13169062e-01 -1.41060010e-01 -5.27298927e-01
     2.79727578e-01 -1.40781924e-01  4.40078914e-01  1.68033019e-01]
   [-4.45354551e-01  1.21210419e-01  2.09380627e-01 -1.10711604e-01
     2.57062227e-01  2.51260549e-01 -5.20797074e-01 -2.59491712e-01
    -3.28215212e-02 -2.28069693e-01  3.33834141e-01 -6.62135959e-01
     3.09756100e-01 -8.65413696e-02 -1.89916998e-01  1.84490100e-01]
   [-9.65173636e-03  5.54188311e-01 -2.65721798e-01 -8.59394297e-02
     1.37750223e-01 -2.68184394e-01 -3.17228198e-01 -1.78917855e-01
    -2.36752987e-01  2.74820000e-01 -1.17051378e-01 -4.58978862e-01
     3.32749665e-01 -8.95597562e-02  5.92293799e-01  3.54407310e-01]
   [-4.56611887e-02  9.66346040e-02  3.55647430e-02  1.39383644e-01
    -4.70471799e-01 -1.28577640e-02 -2.63705730e-01  1.48405820e-01
    -4.18055244e-02 -7.57718235e-02 -1.71634808e-01 -7.70999372e-01
    -1.39813393e-01 -4.94480014e-01 -2.02193350e-01  1.33781999e-01]]]


 [[[ 5.44225872e-01  6.26125753e-01 -5.58956265e-01 -1.80203542e-01
    -8.84047747e-02  8.05138275e-02 -4.97859418e-01 -8.53926614e-02
    -1.53595477e-01  3.84248912e-01 -1.17092095e-01 -9.69612151e-02
    -5.03281772e-01 -2.21025068e-02 -3.12410779e-02  6.03709221e-01]
   [ 4.41217363e-01  6.74854964e-02  1.93871588e-01 -6.47945479e-02
     4.42236401e-02 -2.95470387e-01 -3.46635252e-01  2.13648334e-01
    -6.48253411e-02  1.50887981e-01 -6.11150861e-02  4.94845062e-01
    -2.48292014e-02  2.14753672e-01  3.49630304e-02  9.94008482e-02]
   [ 3.53027314e-01  1.29469976e-01  1.08195141e-01  8.67144838e-02
    -2.45591551e-01 -4.63311285e-01 -1.03046365e-01  1.02005839e-01
    -6.27099862e-03  1.41794965e-01 -5.40576428e-02  2.26020649e-01
    -2.32938036e-01  5.28817587e-02 -2.41634518e-01  2.57420957e-01]
   [-2.33863235e-01  5.41379750e-01  1.82562128e-01 -1.54019192e-01
    -2.02477463e-02 -6.66504055e-02 -2.41260499e-01 -1.17806330e-01
     4.67509121e-01 -2.52678126e-01  1.55074209e-01 -9.42797959e-02
    -5.34798950e-02 -1.34639949e-01 -1.56200767e-01  1.77659914e-01]
   [ 3.05163320e-02  5.60397029e-01  1.64659947e-01  3.09683442e-01
    -5.67567766e-01 -3.87409538e-01 -3.88955534e-01 -2.84130365e-01
     2.27684990e-01  3.20008188e-01 -2.28520781e-01  4.87898439e-01
    -6.34659111e-01 -1.57410070e-01 -1.19592808e-01  4.81310070e-01]
   [ 4.93166953e-01  8.25948790e-02 -8.36170167e-02 -8.65430459e-02
    -1.04481667e-01 -6.08386517e-01 -2.48239428e-01  1.63696766e-01
    -4.87276837e-02  2.02761516e-01 -2.32376561e-01 -6.24575913e-02
     1.84784368e-01 -1.24589339e-01 -7.48556033e-02  1.15470015e-01]]

  [[ 1.21416368e-01  6.40866160e-01 -3.41668099e-01 -3.05118084e-01
    -4.18680869e-02  2.60217786e-01 -3.00357550e-01 -1.95898950e-01
     1.65984645e-01 -2.48783734e-02 -7.66172409e-02  1.05736077e-01
    -6.24290586e-01 -2.75645703e-01 -1.81633160e-01  7.25316823e-01]
   [ 3.35197985e-01  8.66917893e-02  2.76437134e-01 -1.21803835e-01
    -2.78904676e-01  4.09909450e-02 -1.64038956e-01  3.55308205e-01
    -7.88441002e-02  2.57615503e-02  1.84709132e-01  5.97434223e-01
     2.61665024e-02  1.97145045e-01 -1.57643318e-01  1.95908099e-01]
   [ 4.21001673e-01  9.10418779e-02 -9.14333984e-02 -1.59040198e-01
    -3.27502817e-01 -1.22137241e-01 -4.92763706e-02  2.34694839e-01
     1.02109797e-01 -1.41615391e-01  3.02440822e-01  4.28651959e-01
     1.73964143e-01  1.83597341e-01 -1.88881487e-01  2.27533981e-01]
   [-5.77854455e-01  5.77104568e-01  8.52310210e-02 -1.57374769e-01
    -6.71220347e-02 -2.35934377e-01 -4.03168276e-02 -3.25959891e-01
     5.05523980e-01 -3.63446712e-01  1.04538143e-01 -4.32751253e-02
    -1.58424586e-01 -2.96970308e-01 -2.91446537e-01  3.24005216e-01]
   [ 1.21360391e-01  1.00817852e-01 -1.03347644e-01 -1.78734303e-01
    -2.63238937e-01 -4.17222008e-02 -2.77910888e-01 -1.97372496e-01
     1.18023187e-01 -3.82710546e-01  5.01474878e-03  6.73342943e-01
     4.01472598e-01  8.07930008e-02 -1.93092838e-01  2.83162415e-01]
   [ 4.49773580e-01  6.11812547e-02  7.20625417e-03 -7.74759799e-02
    -4.72801566e-01 -5.57612419e-01 -1.52679652e-01  2.96386153e-01
    -8.12898353e-02  3.38309079e-01 -4.15151007e-02  2.53466070e-02
     2.58645624e-01 -6.55427855e-03 -1.10503763e-01  1.06512696e-01]]

  [[-2.34865278e-01  5.58367848e-01 -2.30547652e-01 -2.93560505e-01
     4.52228747e-02  3.28978866e-01 -4.37958568e-01 -4.18211788e-01
     4.20589268e-01 -2.50986338e-01  3.85056585e-02  8.68268088e-02
    -8.49965692e-01 -4.08112735e-01 -1.56444669e-01  6.30197644e-01]
   [ 3.93520117e-01  2.22036391e-01  3.38337660e-01 -1.34913221e-01
    -2.93824911e-01  1.41289815e-01 -1.27488449e-01  3.90168607e-01
     1.79282993e-01 -1.03908442e-01  1.06302597e-01  6.19897008e-01
    -8.81600305e-02  1.64255559e-01 -1.92772686e-01  1.41668707e-01]
   [ 3.89364094e-01  5.84881864e-02  1.05858289e-01 -1.74749419e-01
    -2.09848046e-01  2.78901961e-02 -4.98879561e-03  2.12948278e-01
     5.21886088e-02 -1.46616265e-01  2.61175632e-01  2.26975381e-01
     2.29856223e-01  8.39090999e-03 -2.55453408e-01  3.59692842e-01]
   [-6.59143329e-01  4.77823496e-01 -1.73650235e-02 -1.94740370e-01
    -1.19136773e-01 -6.21128418e-02 -3.18805687e-02 -2.74235278e-01
     8.19360495e-01 -3.18635851e-01 -7.06712082e-02  1.24672771e-01
    -2.83853501e-01 -1.75382093e-01 -2.19161913e-01  2.50197679e-01]
   [ 1.82418630e-01  1.53677225e-01  1.29148707e-01  4.21031304e-02
     2.64749918e-02 -8.69946703e-02 -3.58226508e-01 -2.43205741e-01
     4.21249680e-02 -4.87888306e-01 -7.01465756e-02  3.29192668e-01
     2.06474677e-01  6.85272506e-03  8.21211841e-03  3.24505895e-01]
   [ 4.16383862e-01  2.44143698e-02 -1.12194911e-01 -1.52187794e-01
    -4.80667591e-01 -2.80320138e-01 -2.37083361e-01  2.37936497e-01
     1.10654617e-02  9.63212848e-02  3.92107852e-02  1.47377387e-01
     4.53198433e-01 -2.39464015e-01 -2.24101305e-01  2.44082004e-01]]

  [[-1.96894884e-01  7.25477517e-01  1.90716144e-02 -2.78861105e-01
     3.33274841e-01  2.86659718e-01 -3.93497705e-01 -2.40865931e-01
     2.78714448e-01 -3.35505962e-01  1.25734180e-01 -2.35714108e-01
    -7.62496471e-01 -4.23004270e-01 -2.15202593e-03  6.84882820e-01]
   [ 5.28112590e-01  1.13448121e-01  3.68601590e-01 -9.49214548e-02
    -1.81756511e-01  5.15437663e-01 -1.88572630e-01  4.89922106e-01
     2.16425076e-01  2.98576914e-02  2.59322613e-01  6.98094591e-02
    -1.17674299e-01  1.46840401e-02 -1.08234109e-02  1.17144018e-01]
   [ 4.70525950e-01  2.05736831e-01 -9.03529972e-02 -1.16685614e-01
     8.13161880e-02  2.85945445e-01  1.63862016e-02  3.13596785e-01
     7.77259469e-02  3.16973999e-02  6.44086525e-02 -3.82344395e-01
    -2.92012468e-02  3.07826940e-02 -4.70214300e-02  2.45571360e-01]
   [-5.93372822e-01  3.86677086e-01  3.22690117e-03 -1.37272313e-01
    -8.35840851e-02 -7.18530640e-02  1.37101531e-01 -1.52713016e-01
     8.84111226e-01 -4.89770472e-01 -6.69953078e-02 -1.15778342e-01
    -1.40347913e-01 -2.44169042e-01 -2.62895584e-01  1.41153023e-01]
   [ 3.80978733e-01  3.41176897e-01 -1.36610838e-02  6.14905953e-02
     1.20467335e-01  6.43558451e-04 -2.31229380e-01 -1.28424510e-01
    -4.77053523e-02 -1.08369373e-01  4.14932445e-02 -3.34026396e-01
    -3.68896872e-01  3.25286295e-03  1.37718618e-01  3.51759017e-01]
   [ 2.81970143e-01 -7.41123110e-02  3.16684060e-02 -1.86609507e-01
    -3.30075532e-01 -1.48403808e-03 -3.53341758e-01  1.43580019e-01
     4.23523709e-02  1.43348360e-02  6.06279299e-02 -1.19811289e-01
     2.91465044e-01 -3.56488526e-01 -1.97877347e-01  1.82269514e-01]]

  [[ 2.57356733e-01  6.93572640e-01 -9.26066786e-02 -3.25708449e-01
     5.41670322e-01  5.35598159e-01 -3.38381946e-01  1.37809396e-01
     4.45599169e-01 -1.13185637e-01 -4.48075868e-02 -9.44734812e-01
    -4.95200813e-01 -3.18480283e-01  2.97041535e-01  4.44607824e-01]
   [ 5.86931288e-01  1.31433696e-01  2.90347368e-01 -1.82873487e-01
     2.58136421e-01  5.93784332e-01 -2.32664987e-01  5.01726210e-01
     2.39497349e-01  3.04126471e-01  2.15336725e-01 -4.15866911e-01
     1.90081876e-02  1.38941426e-02  1.75459519e-01  4.78211530e-02]
   [ 5.81514359e-01  3.81215572e-01 -1.27190202e-01 -2.64060557e-01
     2.69716233e-01  3.90543640e-01 -1.22247666e-01  3.28248352e-01
     2.71298677e-01  1.88162625e-01  1.41937986e-01 -7.05300212e-01
     3.49100322e-01 -1.53841048e-01  1.60585716e-01  1.82372525e-01]
   [-3.93854290e-01  3.70780200e-01  1.93127796e-01 -1.29108205e-01
    -1.35821057e-02  1.40627950e-01  7.31170624e-02 -2.00720457e-03
     8.84650588e-01 -3.40238005e-01 -1.33360118e-01 -5.81858933e-01
     4.56716754e-02 -2.80850381e-01 -3.66385400e-01  2.14457348e-01]
   [ 5.69884241e-01  4.05654639e-01 -3.02685738e-01 -2.96511233e-01
     3.46305132e-01  1.63521543e-02 -2.95016646e-01 -9.80867893e-02
     7.61273280e-02  3.28646332e-01 -2.35922355e-02 -4.12123799e-01
     2.80016989e-01  7.93199707e-03  4.10605699e-01  5.48210561e-01]
   [ 1.70882478e-01 -1.41941849e-03  1.57589197e-01  1.07810006e-01
    -1.15061656e-01 -5.44287264e-02 -4.87755775e-01  1.05953984e-01
    -8.64695385e-02 -1.17521204e-01 -1.23787664e-01 -6.80621922e-01
    -2.92061493e-02 -6.20925426e-01 -2.17221051e-01 -2.17684358e-02]]]]
le_net/conv2d_1/bias:0
(16,)
[ 0.11577995 -0.17312215 -0.15242593 -0.44363716  0.64799637  0.8093225
  0.11707231  0.30959985  0.04867548  0.2544778   0.01829824  0.5172744
  0.5701452   0.846461    0.21805029 -0.15653384]
le_net/dense/kernel:0
(400, 120)
[[-9.81916790e-04  6.40939772e-02 -7.42503181e-02 -6.96187392e-02
  -9.69267339e-02 -1.26680687e-01  7.35562146e-02  6.22512437e-02
  -3.04058731e-01 -1.88132331e-01 -2.89167881e-01  7.30185360e-02
   1.54657841e-01 -4.36017141e-02  2.60897934e-01 -8.48584920e-02
  -8.38398486e-02 -2.95470119e-01 -2.83042282e-01 -9.06806737e-02
  -2.39510581e-01  1.11465506e-01 -1.42064095e-02 -1.38302162e-01
   2.51918763e-01 -2.08305009e-03  3.70916873e-02  4.00547497e-02
   7.60134161e-02 -1.52479023e-01 -7.35616013e-02 -2.06856564e-01
  -1.58658326e-01 -4.39020954e-02  3.24388407e-02  1.93815023e-01
  -1.64141759e-01 -1.87387332e-01  1.82219610e-01  9.55123752e-02
  -1.81987658e-01 -4.46126610e-02  2.58900896e-02  3.68966796e-02
   1.52932793e-01 -1.04065426e-02 -5.61822057e-02 -1.81211144e-01
   2.89118420e-02 -4.22006249e-02 -2.80629545e-02 -2.13592798e-01
  -1.02392815e-01 -1.56737104e-01  5.55010140e-02 -4.20729034e-02
  -1.08027235e-01 -1.98087126e-01 -2.26279855e-01  1.47175297e-01
  -1.61201414e-02  1.02492422e-01 -1.66746482e-01  1.24850301e-02
   1.73529804e-01  1.48844868e-01  1.08161882e-01  8.19637626e-03
  -1.08888075e-01 -3.45599353e-01 -3.10885403e-02 -4.80992869e-02
   1.40101425e-02  1.83644786e-01  3.28448303e-02 -4.34756637e-01
  -7.50882030e-02  1.55920103e-01 -2.89557129e-01  3.40722144e-01
   2.30410369e-03 -9.60170776e-02 -4.90830950e-02  1.02563445e-02
   3.06894153e-01 -2.10488290e-01 -5.53772971e-02 -2.49497995e-01
  -2.70984858e-01  2.52203289e-02 -1.10166758e-01 -2.70761043e-01
  -2.80018505e-02 -8.40441603e-03 -9.39373821e-02 -9.96503606e-02
  -1.64444610e-01 -2.67420322e-01 -1.49380252e-01  2.35915244e-01
  -1.65366322e-01 -6.98011443e-02  1.00824021e-01  1.15926884e-01
  -1.71167180e-01  9.72327292e-02 -3.10290568e-02 -8.78295079e-02
  -4.75290090e-01 -1.35830790e-01 -1.30771682e-01 -1.64036572e-01
   1.59519479e-01  5.03368452e-02 -1.52486442e-02 -2.39122599e-01
  -1.66941173e-02 -1.86024398e-01 -1.17283337e-01  9.43896025e-02]
 [ 6.43460918e-03 -2.24096760e-01  1.49391070e-01  3.16663086e-01
  -1.75259367e-01 -2.50477999e-01  3.33662257e-02  4.18947846e-01
   7.51455501e-02  3.35025154e-02  1.25461332e-02  3.02689016e-01
   2.68843323e-01  1.80686772e-01  3.98898810e-01 -5.08069247e-03
  -1.06368579e-01  2.06332114e-02  2.00844124e-01  3.73126827e-02
  -1.62666291e-01 -2.17133552e-01  3.48307431e-01  1.12921096e-01
  -2.70130187e-01 -2.72075713e-01  1.44330233e-01 -4.92164455e-02
  -1.04235157e-01 -2.41295353e-01 -1.10209823e-01 -6.01190746e-01
  -3.47746313e-02 -6.73642680e-02  5.03125250e-01  1.79542035e-01
  -1.39940605e-01 -4.16579962e-01  2.45608643e-01  1.69328004e-01
   2.07300812e-01 -1.21727683e-01 -2.04917386e-01  1.76624060e-01
   1.87357754e-01  3.00206274e-01  2.89681464e-01 -9.74063948e-02
   1.26627445e-01 -2.11053029e-01 -5.25699019e-01 -2.05332339e-01
  -5.34550607e-01  1.18450105e-01  5.00982851e-02  1.18731335e-01
   1.73120722e-01 -3.98224890e-01 -7.39179552e-01  5.48554122e-01
  -5.06388582e-02  4.56453860e-02 -2.46153131e-01  2.98326369e-02
   9.65508521e-02  2.50685900e-01  3.13031375e-01  1.80062763e-02
   7.24367276e-02 -5.39884388e-01 -1.12530388e-01  3.41356546e-01
   1.87812224e-01  1.40971363e-01 -5.15968263e-01 -5.10823965e-01
  -1.83748484e-01  6.23147011e-01 -5.57231791e-02  1.77524328e-01
   3.10253620e-01 -2.98461795e-01 -1.29057458e-02 -5.92993684e-02
   1.86083630e-01 -4.72028464e-01  3.66888523e-01 -5.48023641e-01
  -3.60263467e-01  2.00652063e-01 -3.21855396e-01 -8.39993834e-01
  -8.03001821e-02  9.20595601e-02 -1.59983799e-01 -1.60403457e-03
   1.09196015e-01 -3.49263966e-01 -3.66608620e-01  2.84065515e-01
   7.01348260e-02 -7.01687261e-02 -2.07156837e-02  5.80931455e-02
  -9.04059649e-01 -2.81964950e-02 -1.90607563e-01 -1.20400384e-01
  -1.20839603e-01  4.85543549e-01 -3.44030857e-01  2.29951411e-01
  -2.13877797e-01  2.30721831e-01 -3.95046949e-01  6.75472021e-02
  -2.88102835e-01 -5.98676465e-02 -4.06814545e-01 -1.72144771e-01]
 [-6.45422116e-02 -2.28680581e-01  7.31237829e-02  4.55778986e-01
   1.75320119e-01 -2.73855664e-02 -8.40167999e-02  2.52621144e-01
  -4.21388775e-01 -1.78490788e-01 -1.30310431e-01  3.51212591e-01
  -9.09050480e-02  2.69479483e-01  6.68297410e-02 -4.29320902e-01
  -4.61016707e-02  8.38028044e-02  1.96797073e-01 -7.88643733e-02
  -1.23831950e-01  1.01917528e-01  7.02198505e-01  7.36121237e-02
  -4.23723459e-02 -1.56003013e-01  3.27411711e-01 -2.15167314e-01
   2.04629287e-01  1.38390794e-01 -8.25914815e-02 -2.68151134e-01
   4.64239605e-02 -1.18233569e-01 -1.92266315e-01 -2.43176624e-01
   1.83334053e-01 -5.80979586e-01  2.20480978e-01  9.16348249e-02
  -3.42061184e-02 -2.05253035e-01 -1.71653666e-02 -1.30255893e-01
   2.51934268e-02  2.65522897e-01  8.70828982e-03 -3.75709862e-01
  -3.09238642e-01 -1.47782490e-01 -4.57963467e-01 -3.23182225e-01
  -3.29882205e-01  1.09945098e-02 -1.15357928e-01 -1.24904968e-01
   4.50065047e-01 -3.33678603e-01 -3.99289668e-01 -5.32999309e-03
   1.85165450e-01  1.29900560e-01 -5.51847339e-01 -3.22531730e-01
   3.17713767e-01  4.83704478e-01 -2.27940872e-01  8.09499174e-02
   5.54023869e-02 -1.85469002e-01 -3.49064350e-01  2.54451156e-01
  -5.74529134e-02 -4.55458127e-02 -4.86473292e-01 -3.41450244e-01
  -3.21191013e-01  4.92642462e-01  2.66326904e-01 -1.69960052e-01
   3.47112656e-01 -1.94418356e-01 -2.39456564e-01 -3.08430046e-01
   1.59498483e-01 -1.78940549e-01  1.95436463e-01 -5.66683948e-01
  -4.06002969e-01  1.97177589e-01 -2.70285308e-01 -5.19196093e-01
  -2.14994494e-02 -2.34706029e-02 -5.11126556e-02 -5.49636185e-02
   1.33700013e-01 -1.15057729e-01 -2.79099226e-01  5.79424128e-02
   3.67878616e-01  2.27359965e-01 -2.52311349e-01 -1.81453004e-01
  -4.75656658e-01 -1.17021039e-01 -2.52394915e-01 -1.33281440e-01
   2.23618418e-01  6.57869935e-01 -9.61437151e-02  3.23063225e-01
  -1.79569289e-01  1.78673133e-01  5.17605746e-04  3.48706618e-02
  -1.85539111e-01  8.02890584e-02 -5.06226003e-01  2.10678399e-01]
 [ 6.36180416e-02 -8.96543935e-02  1.90322444e-01 -2.53592014e-01
  -8.46777856e-02 -2.33998045e-01 -1.12689875e-01 -2.64978439e-01
   6.57724887e-02  3.17467719e-01 -8.76759738e-02 -1.18552417e-01
  -1.08642459e-01  2.62574013e-02 -4.29876819e-02  1.22887135e-01
   5.17216884e-02 -2.62272090e-01 -2.22825781e-01 -3.23648229e-02
   8.99943709e-03 -2.21904710e-01 -1.32980704e-01 -3.02057952e-01
  -5.48173934e-02 -5.91462255e-01 -1.36137843e-01  5.98442443e-02
   1.75217032e-01  1.87979773e-01  2.55429476e-01 -4.54908349e-02
   6.90270886e-02 -4.16086018e-01 -3.07783604e-01 -3.78368437e-01
   4.38377619e-01 -1.57885700e-01  2.79913574e-01 -5.27941696e-02
  -2.14107066e-01  2.98761159e-01 -2.24394605e-01 -6.16674460e-02
  -6.08988367e-02 -1.94151983e-01  2.75473986e-02  1.48303472e-02
   6.54917955e-02  1.95283040e-01  3.07200879e-01  2.41091356e-01
   3.81131142e-01 -3.11791956e-01 -3.30896936e-02  7.40612745e-02
   6.27683923e-02  1.01798281e-01 -2.22510442e-01 -1.05407499e-01
  -5.00715524e-02 -8.56965780e-02  1.41946614e-01 -1.79879670e-03
   4.97695543e-02  2.13486943e-02 -8.26282054e-02  3.04701984e-01
  -9.89042372e-02 -1.22872762e-01  1.55029461e-01 -2.19750017e-01
  -1.62004426e-01 -2.28324402e-02  1.96872070e-01  6.67256176e-01
   2.59145468e-01 -5.16555846e-01 -1.85672536e-01 -1.96500525e-01
  -2.45031655e-01 -1.98205575e-01 -2.36736923e-01 -2.48281091e-01
  -2.44614109e-01  1.18875429e-01 -1.53311014e-01  3.54004830e-01
   1.13101870e-01 -3.71381640e-01  3.78018439e-01 -2.24888399e-02
  -5.34654483e-02 -6.66332126e-01  1.81711301e-01 -4.19253170e-01
   1.61428586e-01 -1.82092682e-01 -8.82071108e-02 -2.67000888e-02
   1.84859842e-01  2.31490344e-01 -8.29615258e-03  1.23961113e-01
   3.77322257e-01 -4.54582185e-01  1.08909085e-01 -7.70001262e-02
  -2.09261894e-01 -2.28896976e-01 -5.01512885e-01 -1.78686917e-01
   2.66371574e-02  1.58610523e-01 -6.23572571e-03 -2.44907677e-01
  -1.39264867e-01 -1.48731127e-01  4.41511333e-01 -1.06615886e-01]
 [ 1.73693061e-01 -6.42580748e-01  1.96375713e-01  1.41443193e-01
  -4.69368130e-01 -3.69479358e-01 -1.22559369e-01  4.27485645e-01
   5.16495109e-01  1.87108949e-01 -1.35727495e-01  8.82415473e-02
   1.70407951e-01 -3.71515781e-01 -4.88826372e-02  1.16561152e-01
   3.50145310e-01  1.45196123e-02 -2.26728901e-01 -6.05464458e-01
   3.82444918e-01 -1.29502103e-01 -1.65518910e-01 -6.00629866e-01
  -5.96332550e-01  1.48011334e-02 -3.40116501e-01 -3.85292679e-01
   9.77601158e-04 -1.53951682e-02 -4.39791232e-01 -2.90220767e-01
  -3.18388015e-01  3.19103569e-01  1.92763820e-01  1.03165312e-02
   2.39397585e-01 -8.11743513e-02 -5.20462841e-02 -3.24510008e-01
  -2.59710848e-01  8.05243626e-02 -3.72333586e-01 -7.44051710e-02
   4.10254121e-01 -2.69926470e-02 -1.10209323e-01  3.27318311e-01
  -2.77604669e-01  6.11107171e-01  4.31871474e-01  3.12057227e-01
   1.60483271e-01  7.33194053e-02 -1.51182164e-03  3.47131461e-01
   9.69622880e-02  2.92676151e-01  3.62520307e-01  7.48324096e-01
  -3.71023178e-01  1.23972327e-01  1.94473252e-01  3.08352187e-02
  -2.78901029e-02  4.17481177e-02 -2.87873924e-01  3.91030133e-01
  -9.54553261e-02 -2.00697199e-01  2.90869385e-01 -2.50957370e-01
  -2.67728955e-01 -4.55119222e-01  5.63977242e-01  1.09926283e-01
   6.42488837e-01  3.43194269e-02 -2.07305551e-01 -2.72683650e-01
  -4.31133926e-01 -5.49034595e-01  1.64212063e-01 -3.41729909e-01
  -1.11435212e-01  2.77739346e-01  1.79992393e-01  2.12056953e-02
   1.80658534e-01 -3.97072695e-02  1.70569688e-01 -3.64451617e-01
   2.34361619e-01 -2.27792934e-02  1.86856046e-01  1.92752644e-01
   2.07535803e-01  1.02625310e-01 -1.04317836e-01 -1.09342642e-01
   2.73188919e-01 -1.58154815e-01  4.33376133e-01  3.45198251e-02
   4.48895097e-02 -1.04974508e-01 -1.40924200e-01  2.12007418e-01
  -3.80077213e-01  1.59033239e-01 -2.01675981e-01 -2.05990627e-01
  -5.13408303e-01  1.30664453e-01 -5.73570669e-01  2.11470589e-01
  -3.34827125e-01  3.66999209e-01  1.26667336e-01 -3.44241299e-02]
 [ 6.12959206e-01 -2.81063259e-01 -2.61043489e-01  3.56286556e-01
  -3.84525806e-01 -2.75821328e-01  4.99460734e-02  2.83085227e-01
   3.65488768e-01  2.04156160e-01 -2.03083277e-01  5.20486116e-01
   5.26025482e-02 -2.57577807e-01  6.47162125e-02 -1.86766028e-01
   5.50587177e-01 -1.42588511e-01  1.75496027e-01 -6.82626128e-01
   6.14692830e-02  3.79704446e-01 -9.90349501e-02 -9.95454863e-02
  -3.71859431e-01  3.61315846e-01 -8.40014741e-02 -6.37022734e-01
   1.46166861e-01  2.95667112e-01 -3.69279355e-01  1.68895461e-02
  -2.27085605e-01 -9.57329348e-02  4.04975843e-03  3.57012823e-02
   2.98184305e-02 -6.52387142e-01  4.43252653e-01 -1.28824815e-01
   7.39419237e-02 -2.58065313e-01 -4.64762360e-01 -1.63029537e-01
  -1.38595060e-01  4.52782422e-01  5.85432686e-02  1.53145343e-01
  -2.68490404e-01  6.92700297e-02  2.22750008e-01 -8.40870515e-02
  -5.75296700e-01 -7.45536461e-02 -9.41256359e-02  6.69383109e-02
   2.16656178e-01 -3.45963091e-01 -5.66213727e-01  8.87776196e-01
   4.72799063e-01  3.60874146e-01 -2.43760735e-01 -7.19654039e-02
  -5.99386208e-02  4.59657431e-01 -3.58280510e-01  4.12579030e-02
   8.09872597e-02 -5.36249541e-02 -2.85826445e-01  4.88232434e-01
   2.13305384e-01 -1.37540951e-01  5.90032823e-02 -1.40969753e-01
  -7.70043433e-02  3.88097495e-01  1.22993365e-01  5.28977178e-02
   2.44390592e-01 -1.81509048e-01  1.00655742e-01 -2.80561537e-01
   2.86378443e-01  4.96182255e-02 -1.64308727e-01 -3.11135650e-01
  -1.22977480e-01  1.42200053e-01 -3.85614276e-01 -3.66921008e-01
  -5.67523763e-02  2.89560378e-01 -1.57952338e-01  3.02751184e-01
   2.43506089e-01  3.68132479e-02 -2.38095060e-01  1.58126459e-01
   9.38923284e-02  3.26594502e-01  5.53571522e-01  4.64155406e-01
  -9.03470278e-01  1.63810238e-01 -1.76056787e-01  1.26702234e-01
  -5.77281751e-02  5.43962240e-01  1.02036305e-01  2.36171529e-01
  -7.43915915e-01  1.70537159e-01 -5.98498642e-01  2.57629305e-01
  -3.50366294e-01  3.42159569e-01 -7.53447294e-01  2.30982646e-01]
 [ 3.47763121e-01 -4.57267642e-01 -1.18833280e-03  1.23210549e-01
  -2.18373120e-01  1.01909526e-01  7.96555057e-02  1.86219625e-02
  -7.74020702e-03 -1.73397750e-01  1.20190136e-01 -5.37282564e-02
  -2.31257454e-01  3.11138853e-02 -1.58170179e-01 -3.99668545e-01
   2.39443444e-02 -2.57125273e-02  2.51349688e-01 -3.73227268e-01
   9.63818133e-02  4.29730229e-02  3.39985430e-01  3.60599980e-02
  -2.57415712e-01  1.15077153e-01  2.09525615e-01 -2.10217640e-01
   2.43004575e-01  2.63056725e-01  1.89856350e-01 -9.53739434e-02
   2.15191886e-01 -1.30127504e-01 -2.46893018e-01  1.15150586e-01
  -2.99035043e-01 -3.44683498e-01  7.84821957e-02 -5.55767454e-02
   2.59500921e-01 -1.05668835e-01 -2.36973725e-02 -4.76303771e-02
  -2.23556429e-01  3.89503166e-02  7.21939728e-02 -4.96893764e-01
  -3.23948681e-01 -1.21935785e-01 -7.16843829e-02 -1.23784102e-01
  -4.30004001e-01 -4.08264510e-02 -2.73711741e-01  3.41206998e-01
   2.79416084e-01 -1.29553387e-02 -5.60907423e-01  2.05762908e-01
   1.47064939e-01  2.08611384e-01 -3.21244806e-01 -1.11009613e-01
   3.87651354e-01 -1.65226966e-01 -1.09551750e-01  2.12239504e-01
   9.03843716e-02 -7.56511539e-02  3.18854824e-02  2.14933053e-01
  -2.51990676e-01  2.87194606e-02 -4.66636151e-01  9.04275104e-02
   6.52379170e-02 -3.73399742e-02  5.81448376e-02  2.93938797e-02
   1.78321123e-01  2.23906219e-01 -3.04085314e-02 -4.38545048e-01
  -1.61854386e-01 -8.45685303e-02 -2.70209968e-01 -3.42101336e-01
  -1.07573114e-01  1.72243789e-01 -1.46931872e-01 -5.31441987e-01
  -1.84521656e-02 -1.36370331e-01  1.13918997e-01  3.31338257e-01
   1.24921575e-01 -1.31681293e-01  1.39641568e-01  9.12271664e-02
   7.93715566e-02  2.79806674e-01  3.95871937e-01  2.14743018e-01
  -4.28081214e-01 -8.15027356e-02  1.00000985e-01 -1.39756992e-01
   3.59067202e-01  1.44206196e-01  2.24146441e-01  2.59436071e-01
  -5.77674329e-01 -5.68973571e-02  2.26790402e-02 -1.58981904e-01
  -1.43679231e-01  4.62481491e-02 -3.52604955e-01  1.21318862e-01]
 [ 9.95131060e-02 -1.61617041e-01 -3.75215262e-02 -3.83600861e-01
  -1.70290664e-01 -2.11036459e-01 -1.50714010e-01  1.22192822e-01
  -4.61260796e-01 -1.04900882e-01 -4.02567804e-01 -2.59071440e-01
   3.09871286e-02 -4.36682671e-01  1.31476998e-01 -1.33033812e-01
   1.73537537e-01 -3.15014273e-01 -4.30863649e-01 -2.90154457e-01
   1.50873601e-01 -2.40555346e-01 -1.25667930e-01 -6.67002380e-01
   3.25833678e-01 -7.35994801e-03 -6.75709918e-02 -4.59526598e-01
   3.24459672e-01 -1.44733146e-01 -9.40500349e-02 -7.65682757e-02
  -1.57346293e-01  7.85012916e-03  1.05336316e-01  6.45189583e-02
  -7.21163452e-02 -4.74618422e-03 -1.45473659e-01 -5.34663722e-02
  -5.57418108e-01 -7.36346692e-02 -2.07975544e-02 -2.07804129e-01
   3.37746926e-02 -1.40567765e-01 -2.20279679e-01  9.64954197e-02
   3.15834978e-03 -2.51658019e-02  2.95422167e-01  2.89803088e-01
   1.65583715e-02 -1.17809013e-01 -1.08139843e-01 -1.36031359e-02
  -1.64838463e-01  1.61263227e-01  2.83794492e-01  1.39190570e-01
  -2.99401075e-01  2.86482364e-01  1.57382950e-01 -1.61325470e-01
  -3.22590023e-01 -1.33650288e-01  1.59815013e-01 -4.58786003e-02
  -1.84664100e-01 -7.14288950e-02 -2.92942822e-01 -5.89556918e-02
  -1.89102694e-01  3.97863090e-02  4.15538281e-01 -2.97665268e-01
   2.67509758e-01  2.51502663e-01 -4.65631664e-01  8.21951684e-03
  -4.66909826e-01 -5.54054201e-01  4.08519432e-02  1.36016220e-01
   2.73216993e-01  9.74933282e-02 -2.00369760e-01 -2.19848335e-01
   2.05964118e-01 -2.16308340e-01  1.41206086e-02 -2.32406974e-01
   1.19607762e-01  1.24036089e-01  1.58426002e-01  1.30490750e-01
  -5.84624588e-01  1.59376860e-01  3.76907587e-02  1.61682248e-01
  -9.41639245e-02 -2.44249493e-01  7.72326961e-02  1.45819858e-01
   2.22362101e-01  4.23114039e-02  1.24817714e-01  3.27470094e-01
  -6.40396774e-01 -3.33196551e-01 -2.53786892e-03 -3.74847144e-01
  -8.83476064e-02 -1.55456021e-01 -1.54369071e-01 -2.34388392e-02
   1.96491629e-01 -2.29347810e-01 -5.44101149e-02 -1.15201555e-01]
 [ 9.10815224e-02  1.02230862e-01 -1.76210627e-02  2.79164881e-01
  -6.97965473e-02 -6.39659259e-03 -1.33523345e-01  2.01777685e-02
   1.06085457e-01  1.01664431e-01 -6.10157475e-02  2.16727272e-01
  -1.94503099e-01  3.04067712e-02 -1.43240839e-01 -2.38647163e-01
   2.98715681e-01 -3.19803916e-02  1.65521413e-01  1.45433471e-01
  -2.80349970e-01  4.68982421e-02  3.59406233e-01 -1.50818661e-01
   1.05193026e-01 -4.67916857e-03  2.96038836e-01  2.65528653e-02
   9.41651911e-02  1.41995475e-01 -5.36277369e-02 -2.75215477e-01
   8.24556500e-03 -6.25257865e-02 -7.05884174e-02 -6.04500547e-02
  -1.47740729e-02  7.40880445e-02 -1.12554535e-01  3.30100879e-02
   3.02679371e-02 -3.20405275e-01 -5.19743115e-02 -1.85785994e-01
   7.00083524e-02  2.89537460e-01  4.00836200e-01  2.96454817e-01
  -6.29100353e-02 -2.41900325e-01 -3.81418854e-01 -1.76237777e-01
  -6.91803634e-01  2.21354421e-02 -1.63350090e-01  4.59023938e-02
   4.50743064e-02 -3.89756233e-01 -2.65529186e-01  1.36954531e-01
  -1.23224355e-01  5.70956580e-02  6.24663197e-03 -1.95129022e-01
   1.74416408e-01  7.51040205e-02  1.47659648e-02 -3.08118612e-01
   1.89661309e-01 -1.32342666e-01 -1.26910925e-01  2.76061565e-01
   2.63543110e-02 -2.30764337e-02 -4.28836346e-01 -3.15747172e-01
  -1.12039007e-01  3.62522125e-01  1.51113182e-01 -2.24458233e-01
   2.40871489e-01  9.70622525e-03 -2.99125314e-01  1.54286176e-01
   2.53570396e-02 -5.18600680e-02  1.63740367e-01 -5.15830636e-01
  -1.88208446e-01  2.26740524e-01 -2.63799220e-01 -1.86537012e-01
  -7.60090351e-02  1.59965530e-01 -1.51332781e-01 -2.42270958e-02
   3.14244121e-01  2.20943466e-01 -3.91342975e-02 -6.71930090e-02
   1.55075155e-02  1.61798447e-01  7.42350966e-02 -5.76898418e-02
  -5.24159491e-01 -1.99481510e-02 -3.72944064e-02 -9.64795277e-02
   5.75240403e-02  3.88514310e-01 -5.33020198e-02  1.35814697e-01
   2.80373190e-02 -5.68397827e-02 -2.80153781e-01  1.54405475e-01
   8.48393962e-02  1.61241725e-01 -3.91254276e-01  5.63412569e-02]
 [ 4.67915505e-01 -1.17058389e-01 -3.47510457e-01  8.60924646e-02
   1.71768472e-01 -3.40600163e-01 -2.02324003e-01  1.38697838e-02
   5.11417925e-01  6.51852071e-01 -2.88220167e-01  1.34141609e-01
  -1.83315277e-02  6.69013113e-02 -2.12844331e-02 -2.85971075e-01
   3.78919452e-01  3.43067609e-02 -3.07755649e-01 -3.22424501e-01
   1.99068129e-01 -1.51837453e-01  1.79973304e-01 -2.63795555e-01
  -1.90904126e-01  1.06814191e-01 -1.84304655e-01 -2.00979695e-01
   2.29521781e-01  3.42130214e-02  5.93344569e-02 -2.24917084e-02
   1.35060400e-01 -4.42625210e-02  1.54220030e-01  4.67579588e-02
  -1.33029465e-02 -2.97922939e-01  3.83166149e-02  3.48682165e-01
  -4.49956805e-01  7.01151639e-02 -5.05204260e-01 -1.75640434e-01
   3.94441709e-02  1.33571357e-01  2.46459007e-01  4.85482991e-01
  -1.57723233e-01  1.43587530e-01 -3.96300018e-01  2.01248392e-01
  -5.52197695e-01 -1.08003460e-01 -3.31303358e-01 -1.52660042e-01
  -3.72757196e-01  2.05132261e-01 -2.41100177e-01  8.22089519e-03
   3.77576888e-01  2.58883506e-01  3.25369537e-01 -1.58502221e-01
  -2.31980696e-01  5.27193069e-01 -7.27707297e-02 -1.81662440e-02
   8.98955539e-02 -1.39137343e-01 -3.44048709e-01  6.37372211e-02
   2.16605321e-01 -2.99882386e-02  1.22626163e-01 -5.61367273e-01
   2.28299610e-02  1.55473605e-01 -3.63542199e-01 -1.60828665e-01
  -7.65067413e-02  2.45937884e-01 -1.29272968e-01 -3.07251662e-01
   1.61841318e-01  1.86509620e-02 -1.36766911e-01  1.19191810e-01
   4.03620541e-01 -1.38074368e-01  2.82539241e-03 -3.23053062e-01
  -1.43738762e-01  1.46040246e-01  1.76497325e-01 -6.71544671e-02
   6.52023405e-02  1.53368235e-01 -2.98556946e-02  2.07059383e-01
  -2.27930307e-01  1.34326935e-01 -1.17245078e-01  2.91508585e-01
  -2.94563115e-01  1.52477175e-01  2.50699341e-01  2.53125370e-01
  -1.36510670e-01  2.01955944e-01 -9.27539319e-02  1.32291131e-02
  -3.64309222e-01 -1.16547160e-02 -6.55057311e-01 -3.08523998e-02
  -1.32384539e-01 -5.90797551e-02 -3.60351890e-01  6.87110946e-02]
 [ 5.46911098e-02 -2.33399123e-01  1.01423852e-01  4.82799619e-01
   3.94061282e-02  5.72523922e-02 -2.11273745e-01  8.63280669e-02
   2.73710731e-02 -4.28143569e-04 -1.63565017e-02  1.68044362e-02
  -3.03321779e-01 -9.19151753e-02 -7.98142403e-02 -2.55237907e-01
   8.72519091e-02  1.60870120e-01 -6.51682913e-02  3.47129256e-01
   2.86732942e-01  2.11438403e-01  6.24812782e-01 -1.54352054e-01
  -1.58644676e-01  1.08345799e-01  2.73807198e-01 -1.19675897e-01
   2.50856221e-01  8.54369029e-02  6.26152679e-02 -4.73629951e-01
  -1.92458272e-01  3.35908264e-01 -1.23720236e-01 -1.40215009e-01
  -1.25092879e-01 -9.74684805e-02 -1.86235994e-01 -1.78064525e-01
   3.86532433e-02 -1.91554785e-01  1.57448314e-02 -1.66406482e-01
   1.08060136e-01  2.87596315e-01 -1.83822960e-01 -8.40092152e-02
  -4.09425497e-01 -1.46604210e-01 -5.73199615e-02 -2.31384501e-01
  -5.55135489e-01  1.75377205e-01 -1.94510132e-01  3.93691137e-02
  -2.95521915e-01  7.63757452e-02 -2.85036981e-01 -1.42661497e-01
   8.01079907e-03 -3.88251320e-02 -2.79716015e-01 -4.78863448e-01
   1.19675912e-01  4.18004533e-03 -2.04009175e-01 -8.09533447e-02
  -4.52842340e-02 -3.24052215e-01 -1.29362747e-01 -4.01472896e-02
  -4.15719002e-02  9.86830816e-02 -5.29292643e-01  3.41965929e-02
   2.67575324e-01  5.15743971e-01  1.80886924e-01 -1.91155493e-01
   2.53234982e-01  1.83093846e-01 -6.44151047e-02 -2.44320795e-01
  -3.19898665e-01  1.47630885e-01  3.21067780e-01 -4.31048304e-01
  -2.91157924e-02  2.53535241e-01 -6.61188662e-02 -2.46818736e-01
  -5.44322506e-02 -9.03709829e-02  9.18786600e-02  3.68983656e-01
   1.32743180e-01  1.42667204e-01  2.13480279e-01 -1.58605464e-02
   1.09202325e-01  1.87345460e-01 -1.53602690e-01  1.02407105e-01
  -3.87030654e-02 -1.03962123e-01 -1.82392657e-01  1.01517372e-01
   9.06077325e-02  2.79201359e-01  2.37346247e-01 -7.01793656e-02
   1.44267291e-01 -8.43169093e-02  5.17576747e-02 -9.78969503e-04
   1.07211685e-02  2.25527096e-03 -1.87592179e-01 -2.54872829e-01]
 [-2.35615045e-01  5.62008694e-02 -7.72514194e-02  2.92039067e-01
  -2.07095504e-01  2.15457622e-02 -8.65579844e-02  2.41072968e-01
  -3.71600300e-01 -2.63952732e-01 -4.96609975e-03  1.94476083e-01
  -8.76066759e-02  1.54690728e-01  3.65433276e-01 -2.05502465e-01
  -1.53363585e-01  1.33603707e-01  1.43155813e-01 -5.03275216e-01
  -3.36464584e-01  2.34932289e-01  3.77481371e-01  1.90530822e-01
  -1.61267981e-01  8.94824862e-02  2.74655908e-01 -3.20221871e-01
  -6.75474107e-02 -5.23137003e-02  5.34481145e-02  2.14881450e-01
   6.33267403e-01  4.82317209e-02 -9.53982845e-02 -1.39377058e-01
   1.20847017e-01  8.17249250e-03 -5.60019799e-02  5.73237062e-01
   1.20459637e-02 -2.78453588e-01  5.59148528e-02 -1.27161473e-01
   9.02955048e-03  6.80288970e-02 -2.53293008e-01 -8.44022259e-02
   2.52443612e-01 -1.22671658e-02 -6.67682350e-01 -6.34594485e-02
  -3.65948975e-01  1.67745829e-01 -1.80481419e-01 -3.74206990e-01
  -2.97928840e-01 -1.11886121e-01 -1.82539269e-01 -6.38366342e-01
   4.82520312e-02  1.06945224e-01 -1.88022539e-01 -1.02278464e-01
   1.41673356e-01  4.57468182e-01 -1.71366081e-01  3.66050825e-02
   3.17063928e-01  1.45865619e-01 -1.38178974e-01  4.98388022e-01
   7.88445026e-02 -3.09743583e-01 -2.88303852e-01 -6.17028534e-01
  -3.83787215e-01  5.72777577e-02  1.09422624e-01  1.83127344e-01
   5.38832843e-01  1.74460173e-01 -2.15646192e-01 -1.35043338e-01
   5.36942840e-01 -2.93374956e-01  1.45072713e-01 -4.85839508e-02
  -3.13587219e-01  2.21931219e-01 -2.52324879e-01 -2.94793099e-01
  -9.99236554e-02  2.14258805e-01  1.63941048e-02 -5.01131713e-02
  -3.26362729e-01 -2.20499188e-01 -4.07098711e-01 -2.92363297e-02
   2.90907234e-01 -9.04676095e-02 -6.88901722e-01 -3.96946549e-01
  -5.37321210e-01  2.39216670e-01 -3.56822461e-01 -4.80000190e-02
   3.91029716e-01  3.10712636e-01 -1.26704544e-01  4.65525746e-01
  -5.05453765e-01  1.59736350e-01 -1.50507286e-01 -2.11763121e-02
  -1.56389982e-01  8.53625983e-02 -4.12489206e-01  3.74893606e-01]
 [ 1.56600937e-01 -4.73097060e-03 -3.27162951e-01  2.99587131e-01
  -1.42694429e-01 -1.61945909e-01 -1.17095672e-01  4.60497588e-01
  -5.86221397e-01 -1.90775767e-01 -5.10022864e-02  1.06772251e-01
  -2.10036308e-01 -1.14928715e-01  1.42741159e-01 -4.33101952e-01
   3.03096384e-01 -1.73851669e-01  6.91097155e-02 -3.23683470e-01
  -2.24294797e-01 -7.04890862e-02  4.28388536e-01 -6.03228435e-02
   1.46637633e-01  1.21892229e-01  2.17220753e-01 -3.99411052e-01
   1.10313013e-01  4.42564636e-02 -1.70840532e-01  8.33245739e-02
   1.99266881e-01 -3.34617794e-02  2.94742882e-01  1.36314169e-01
  -1.66065827e-01 -2.39348821e-02  3.52335349e-02 -6.48614839e-02
  -1.50620993e-02 -3.07964861e-01 -2.26798475e-01 -1.39765143e-01
   7.02959597e-02  3.60042870e-01  1.43595219e-01 -3.34107935e-01
  -2.06673846e-01  1.82660464e-02 -3.74876708e-01 -1.77023515e-01
  -8.11109900e-01 -2.98640542e-02 -2.53218412e-01  5.37625551e-02
   1.03757016e-01 -4.51186955e-01 -4.84935194e-02  2.98878700e-01
  -3.10828518e-02  1.17497757e-01 -2.89006650e-01 -2.33638674e-01
  -2.81037260e-02  4.51061040e-01 -1.04064047e-02 -1.41083345e-01
  -7.16241375e-02  1.26909614e-01 -6.39632940e-01  4.71983731e-01
  -6.89716116e-02  7.35650882e-02 -2.94563472e-01 -7.11100101e-01
  -4.68549013e-01  5.56975245e-01  1.17300682e-01 -1.07663617e-01
   2.30259627e-01 -1.55512184e-01  7.05687748e-03  2.49541476e-01
   3.45739901e-01  1.02204993e-01 -7.38668814e-02 -6.75076663e-01
  -2.79882252e-01  2.84007013e-01 -4.70338762e-01 -4.09756094e-01
   1.31720290e-01  2.99304217e-01 -2.16981709e-01  1.50125578e-01
  -2.69944459e-01  7.85799399e-02 -1.79819793e-01  2.80201063e-02
   1.78253382e-01 -9.98166651e-02  6.09309003e-02 -7.10016564e-02
  -7.93515325e-01  2.82575369e-01  7.64725730e-03  1.41605854e-01
  -1.07045758e-04  5.25010049e-01 -4.29438092e-02  1.12715885e-01
  -6.25683844e-01  4.98829558e-02 -1.57696277e-01  2.85678715e-01
  -8.84777680e-02  4.98954095e-02 -5.04759908e-01 -1.56955030e-02]
 [-5.77620678e-02  3.96515846e-01 -3.44130695e-01  2.65825480e-01
   1.39331967e-02  1.48528531e-01 -8.54316354e-02  1.36981547e-01
  -3.39166850e-01 -5.82619429e-01  1.02648564e-01  1.92805365e-01
   1.76345304e-01 -5.05539924e-02  4.75915819e-02 -3.20002288e-01
   1.20696701e-01 -3.59604001e-01  4.26825523e-01 -4.53573525e-01
  -9.48583007e-01  2.82999575e-01  2.92654634e-01  4.14293200e-01
  -1.23328771e-02  4.93196577e-01  1.93593845e-01 -1.13736436e-01
  -2.60185394e-02  9.32759698e-03 -3.62910777e-01  2.65686721e-01
   3.37032676e-01 -3.33398930e-03  5.08436821e-02  1.72889680e-01
  -3.95726442e-01  2.10615501e-01  3.36691439e-01  3.14612299e-01
   3.94397885e-01 -4.22410041e-01  3.60028185e-02  1.30988047e-01
   6.21724408e-03  2.22763628e-01  2.33900890e-01 -2.84822136e-01
   1.28012151e-01 -4.46698964e-02 -4.59684461e-01 -5.80789685e-01
  -8.05928767e-01 -1.71607196e-01 -1.61758848e-02 -8.92291516e-02
  -2.20957085e-01 -6.95978045e-01 -1.46387041e-01  2.73908935e-02
   3.39742124e-01  2.86489844e-01 -2.31859013e-01  4.12109606e-02
   3.28562617e-01  3.89150053e-01 -1.25599310e-01 -3.43280673e-01
   3.57082665e-01 -5.42062372e-02 -3.16807836e-01  7.33896077e-01
   2.05876473e-02 -4.35673930e-02 -2.17234850e-01 -7.33854413e-01
  -6.50861561e-01  4.81770188e-01  1.98024228e-01  3.42494190e-01
   4.94531214e-01  4.49221224e-01 -1.26620591e-01  1.52548105e-01
   4.22023267e-01 -1.03954867e-01  1.13170557e-01 -3.94097775e-01
  -6.67887986e-01  2.84794301e-01 -4.58215266e-01 -2.08907813e-01
   2.41375640e-01  3.96494389e-01 -6.21658005e-02  2.70096689e-01
  -5.20704985e-02 -1.27562448e-01 -2.89509922e-01 -1.48487121e-01
   6.73850030e-02 -7.26293325e-02 -7.76455849e-02 -2.54850954e-01
  -1.14470184e+00  5.74567318e-01 -1.09425880e-01 -1.80412903e-01
   2.95944870e-01  3.92618775e-01  1.13779731e-01  3.89545113e-01
  -6.02918088e-01  1.27207085e-01 -1.19707890e-01  1.09841228e-02
  -4.11616303e-02  1.44415170e-01 -7.24808276e-01  3.80015582e-01]
 [ 1.93939060e-01 -4.16745931e-01  2.13463545e-01  2.68834084e-01
   1.36586890e-01 -2.52275646e-01 -2.45927647e-01 -2.38857195e-01
   4.01976407e-01  9.10179317e-01 -1.64864480e-01  2.88730830e-01
   1.15403105e-02  6.47204146e-02 -1.87087461e-01  3.51459950e-01
   5.73217988e-01 -4.20852512e-01 -2.50014603e-01 -2.19010502e-01
   9.80276614e-02  2.26155460e-01  2.13577449e-01 -4.17635173e-01
  -1.80973828e-01  1.38414443e-01  1.05277002e-01 -3.91463250e-01
   4.81340848e-02  6.01499267e-02  1.31705642e-01  7.89054558e-02
   3.82042229e-02 -1.01390213e-01  5.90832010e-02 -1.83269411e-01
   1.83578387e-01  6.22663135e-03  5.43525159e-01  1.61137640e-01
  -2.75950372e-01  1.59289911e-01 -5.39906204e-01 -2.60720789e-01
   1.07894354e-01  2.31187508e-01  2.29429930e-01  5.16512573e-01
  -2.80727476e-01 -1.30351186e-01  2.26275295e-01  1.24088302e-01
  -3.82269561e-01 -7.89762139e-01 -6.54001310e-02 -1.25221893e-01
  -1.13101497e-01  3.55544716e-01 -3.65164243e-02  6.64681867e-02
   4.26690668e-01  5.41652143e-01  2.76882946e-01 -1.49759382e-01
   7.10070878e-02  3.87708455e-01  1.03432097e-01 -1.46908641e-01
   1.36210635e-01 -1.70664325e-01 -3.20804000e-01 -1.09044380e-01
  -2.98661981e-02 -1.90940648e-01  1.63098902e-01  6.58361167e-02
   1.66921929e-01 -3.59059684e-03 -1.66953176e-01 -2.03601792e-01
   2.36337095e-01  3.57471824e-01  5.50167747e-02 -1.82534277e-01
   4.08885777e-02  1.48899034e-01  1.79046720e-01  3.86463851e-01
   3.38085264e-01 -3.53431046e-01  3.89310829e-02  1.69753745e-01
   1.87742095e-02  1.60820544e-01  3.55515629e-01  5.22990488e-02
   4.19373661e-01  2.12265894e-01 -1.40569314e-01  2.05088928e-01
   7.46852458e-02  5.35076320e-01  1.23796538e-01  5.91076314e-01
  -6.30483031e-02 -1.78768411e-01  4.03627800e-03  1.64567426e-01
   1.22182675e-01  1.98225245e-01  2.85295881e-02 -3.00340131e-02
  -5.45282774e-02  3.25335115e-02 -3.95247638e-01 -6.86167832e-03
  -1.93857327e-01  3.61341566e-01 -3.18657696e-01 -4.77219634e-02]
 [ 2.08116710e-01 -6.17371798e-01  2.18923986e-01  3.57795805e-02
  -1.86538342e-02 -2.41948664e-01 -1.77046016e-01  2.75811441e-02
   3.64412993e-01  1.40647784e-01 -3.12311023e-01  2.93479353e-01
   1.89050242e-01  4.07218695e-01 -1.08412169e-01 -1.50300395e-02
   1.67967349e-01  1.49238601e-01  2.21858114e-01 -3.46602350e-01
  -1.95088685e-02 -2.16873944e-01  1.70100182e-01 -2.63449311e-01
  -6.46796286e-01 -3.63271654e-01 -3.85158122e-01 -4.42193985e-01
  -3.89655866e-02 -2.03251407e-01  1.57799512e-01 -3.02839100e-01
   6.37449138e-03 -2.66358461e-02  4.06149141e-02  1.77622456e-02
   2.76100729e-02 -1.12492836e+00  4.97054011e-01  1.97462663e-01
   1.02741562e-03  1.19592492e-02 -3.13232154e-01  9.38943475e-02
   2.29354292e-01 -1.54250553e-02 -4.78673503e-02 -2.52682835e-01
   7.06836879e-02 -2.35542536e-01 -2.35807538e-01  9.77582857e-02
   1.22282736e-01  1.49508044e-01 -3.22575942e-02  4.27415460e-01
   6.13518953e-01  6.34584874e-02 -3.58829200e-01  1.33066729e-01
  -2.78757233e-03  6.80425689e-02 -7.47313276e-02  5.56353740e-02
   4.81652468e-02  4.05997455e-01  1.42001227e-01 -1.37761086e-01
  -1.08680651e-02 -3.28205764e-01 -8.10458213e-02  1.23098537e-01
   1.35203317e-01  4.38649096e-02 -3.11799556e-01 -5.25830507e-01
  -1.34527251e-01  2.11721316e-01 -4.99438532e-02  5.15068918e-02
  -1.48699999e-01 -3.67581844e-01 -1.65210277e-01 -4.83549386e-01
   2.52994180e-01 -6.47546649e-01  1.81475550e-01 -2.05064341e-01
   1.34267166e-01  1.35512382e-01 -1.28344953e-01 -5.24775445e-01
  -2.15364844e-01  1.89137831e-01  1.78367168e-01 -2.85014480e-01
   4.90059465e-01 -1.54793158e-01 -1.93569049e-01 -2.09791120e-02
   1.49566725e-01 -4.10333835e-02  1.93511903e-01  4.29151654e-01
  -4.58823621e-01 -4.15073447e-02 -2.56703705e-01 -6.83772862e-02
  -1.62015542e-01  3.96145344e-01 -5.43848276e-01  2.33680427e-01
  -6.16127312e-01  1.80224806e-01 -5.05128980e-01 -1.15678102e-01
  -4.99125183e-01 -1.06455311e-01 -2.95234650e-01 -1.51019648e-01]
 [ 1.96069673e-01  2.04100966e-01 -1.38609439e-01 -2.36444294e-01
   2.30800316e-01 -1.87343210e-02 -2.74740364e-02 -2.62777895e-01
  -1.11920021e-01 -5.86274937e-02 -5.91074191e-02 -2.82883942e-01
   4.53118533e-02 -1.03690594e-01  1.17296152e-01 -2.06143036e-01
  -7.49052837e-02 -2.88058490e-01 -3.00628752e-01  1.06245607e-01
  -6.72208220e-02 -3.41989025e-02 -1.25154063e-01 -1.43985868e-01
   3.88516605e-01  2.81739887e-02  2.18604207e-02  2.16873705e-01
   1.81542471e-01  2.85937991e-02  1.28988877e-01 -2.44696751e-01
  -1.88878462e-01 -1.96708366e-01 -1.15315355e-01  1.54442806e-02
  -1.34701684e-01  1.55408099e-01 -2.22962588e-01 -1.17501076e-02
  -2.20265120e-01 -1.21273607e-01  4.38956991e-02  1.66085586e-02
   7.79206604e-02  6.98646381e-02  1.95363924e-01  8.73049796e-02
   2.39680912e-02 -1.36919200e-01 -1.32572815e-01 -1.40251234e-01
  -2.47652903e-01 -1.92355335e-01  3.44862603e-02  1.41230762e-01
  -2.39495263e-02 -1.28995001e-01 -2.96935320e-01  3.06709737e-01
  -5.94514422e-02 -1.15729995e-01  1.56527713e-01 -2.14288101e-01
  -5.54334372e-02 -8.90011266e-02  1.17216818e-01  4.85603772e-02
  -2.55136013e-01  1.34143094e-02  1.52952731e-01 -8.98660049e-02
   7.97540694e-02  2.63063669e-01 -3.14203650e-02 -3.10702711e-01
  -6.74177557e-02  1.08917221e-01 -4.47506934e-01 -1.22215785e-02
  -3.32452774e-01 -1.03809997e-01 -3.06399047e-01  1.29218653e-01
  -2.29836674e-03  9.71760079e-02 -1.40507385e-01 -2.41880238e-01
  -2.25127369e-01 -7.91431740e-02 -3.99394613e-03 -2.08337829e-01
  -1.55873923e-02  5.29710129e-02 -1.94484472e-01 -1.13404365e-02
  -5.19258380e-02 -2.20807150e-01  6.57454357e-02  1.21114656e-01
  -2.72648722e-01 -6.68887515e-03  1.30346268e-01  1.18992262e-01
  -1.88614249e-01  1.38020709e-01  1.31007478e-01 -8.48977640e-02
  -3.23332876e-01 -5.92569374e-02  2.43521407e-02 -2.15372771e-01
   3.01106691e-01 -2.83678193e-02 -1.89860329e-01 -3.81269515e-03
   1.32523894e-01 -1.81407213e-01 -1.23562694e-01  1.22757852e-01]
 [-6.23908453e-02 -8.74919891e-02 -1.83913261e-01  1.06406584e-01
  -2.10053161e-01 -1.19684458e-01  2.22366303e-01  2.38504037e-02
  -1.82481572e-01  6.53956905e-02 -2.42074639e-01  1.38628438e-01
   2.90233672e-01 -5.47220632e-02 -1.46997049e-01  3.81695181e-02
   2.48826548e-01 -8.57353508e-02  9.60456859e-03  1.93094388e-02
   6.63475692e-02 -5.30458875e-02  2.08409414e-01 -1.70488387e-01
  -1.83591858e-01 -1.60066560e-01 -1.57920986e-01  1.30340299e-02
  -2.49032214e-01  2.06260636e-01 -8.90665408e-03 -9.02879089e-02
  -1.65797129e-01  1.03404082e-01  3.62073421e-01 -4.84776907e-02
  -5.69230095e-02 -1.96766421e-01  1.17526032e-01 -1.88171417e-01
  -3.30163501e-02 -1.29567921e-01 -1.67617071e-02  1.07946292e-01
   2.45757461e-01  5.78490309e-02  3.76901299e-01  2.92328894e-01
   7.95333683e-02 -2.19373077e-01 -1.68973505e-01  1.99088678e-01
  -1.73159704e-01 -1.05430134e-01  2.62495726e-01  1.74720466e-01
   7.32769296e-02 -2.66827673e-01 -6.95606694e-02  1.16337813e-01
  -1.77075908e-01 -1.96566015e-01  2.54606456e-01  3.47669497e-02
   1.68243006e-01 -8.08277577e-02  1.05869167e-01 -4.28454392e-02
  -3.55194420e-01 -8.74054655e-02 -1.22306272e-01  8.76576677e-02
  -1.15734581e-02  5.01210168e-02  2.09296495e-02 -1.45157561e-01
   9.72130448e-02  1.06999084e-01  1.65110677e-02  2.12801218e-01
  -2.61596024e-01 -4.55484062e-01  3.15667242e-02 -2.17826366e-01
   9.80132818e-02 -1.19281553e-01  1.80161342e-01 -8.45014006e-02
  -1.47106364e-01  1.39935757e-03 -2.69887507e-01 -3.23133081e-01
  -1.20993227e-01  1.71489030e-01 -1.04877710e-01 -5.41615784e-02
  -2.56547034e-01  1.44789428e-01 -9.51923952e-02  1.95569664e-01
  -3.95539589e-02  1.37844592e-01  3.27800564e-03  4.07265574e-02
  -3.61771852e-01 -1.06533438e-01 -1.14104666e-01 -7.97878206e-02
  -1.16452202e-01  1.85813069e-01 -1.37145340e-01  1.69811517e-01
   6.70953840e-02  1.55977249e-01 -6.50918931e-02  1.16380185e-01
  -4.74923057e-03  1.99563324e-01  3.44739389e-03 -1.89458370e-01]
 [-1.90328330e-01 -1.86801087e-02 -6.65280549e-03  2.58390903e-01
   2.79384375e-01 -1.41906977e-01 -8.63155350e-02  2.05487743e-01
  -6.18561387e-01  2.27751136e-02 -2.52882421e-01  3.71124357e-01
   3.11441533e-02  2.04138055e-01 -4.12196636e-01 -1.87792286e-01
   1.75690487e-01  3.66502674e-03  2.04619989e-01  2.39572197e-01
  -1.79794952e-01 -7.99538121e-02  4.80671197e-01 -2.54580647e-01
  -7.60850310e-02 -2.27691367e-01  3.69377024e-02 -5.17472327e-01
  -5.04654199e-02  1.70178100e-01 -5.38355783e-02 -2.32285168e-03
  -1.16792679e-01 -1.72898974e-02 -3.46690007e-02 -2.27296054e-01
   6.69620857e-02 -1.50182739e-01  4.06477034e-01 -1.86285272e-01
   1.11863296e-02 -9.40014273e-02 -1.15037404e-01 -8.75505134e-02
  -5.79960085e-02  1.67095378e-01  1.79103956e-01 -2.03001425e-01
  -2.42767096e-01 -1.78350322e-02 -1.80962339e-01  1.32884253e-02
   2.46427581e-01 -3.53003353e-01  2.11054683e-01  2.27147594e-01
   2.03535125e-01 -4.15956289e-01  2.81390369e-01 -2.30342120e-01
   9.16734897e-03  1.04619019e-01 -1.80084288e-01  4.35100533e-02
   3.36683542e-01  1.73587590e-01 -9.67200249e-02 -4.50146534e-02
  -1.85234845e-01  6.05173483e-02 -7.39197433e-02  1.29257903e-01
  -9.04259831e-02 -1.57508776e-01  1.66040137e-01 -3.16026472e-02
  -1.53810352e-01  1.78597212e-01  2.87117243e-01  9.04872175e-03
   2.62971874e-02 -3.38980377e-01 -3.58494222e-02  1.78913847e-01
  -9.09043252e-02 -1.28761098e-01  4.23368633e-01 -1.32470086e-01
  -2.63747007e-01  5.03381975e-02 -1.42063990e-01 -2.22022906e-01
  -6.13884889e-02 -2.58432865e-01  3.70601900e-02 -1.61313280e-01
   1.75762832e-01  1.91679597e-01 -2.26569206e-01 -2.83704221e-01
   3.72883707e-01  1.39838129e-01  1.12686977e-01 -1.36862531e-01
  -2.96652585e-01 -2.79793561e-01 -2.25444421e-01 -1.90505788e-01
   1.07599152e-02  3.96282613e-01 -5.44743538e-02  2.94026792e-01
   3.20475586e-02  2.13762805e-01 -8.75426605e-02  2.50148654e-01
  -4.02286164e-02  1.29684880e-01  8.70641693e-02 -9.28877667e-02]
 [ 1.90573752e-01  2.31693275e-02  1.62068173e-01 -1.78373799e-01
  -6.68821707e-02 -1.80325985e-01 -1.92926913e-01 -3.34766507e-01
   9.38978344e-02  1.48194760e-01 -1.41208649e-01 -7.76397157e-03
  -1.38888314e-01  1.27543509e-02 -9.85569358e-02  5.06415069e-02
   2.93766975e-01 -1.78698823e-01 -3.42564955e-02 -1.82811022e-01
  -1.53427556e-01  4.88542207e-02 -1.85807958e-01 -2.36667648e-01
  -2.17252821e-02 -3.76598090e-01 -8.35303813e-02 -4.15673666e-02
   4.44313772e-02  6.34591505e-02  1.07472531e-01  8.80538970e-02
  -5.42245805e-02 -3.39413196e-01 -1.23890206e-01 -2.30606377e-01
   2.51578093e-01 -7.12636560e-02  3.07658911e-01 -1.27801120e-01
  -2.44502723e-01  3.68911475e-01 -3.69801879e-01 -5.24160862e-02
  -7.25041181e-02  8.11636820e-02 -8.88959393e-02  1.76102430e-01
   3.98415625e-02  1.89657643e-01  3.13673392e-02  1.87749639e-01
   1.60015121e-01 -1.69089198e-01 -7.36176223e-02 -1.00520421e-02
   1.63248152e-01  1.24232709e-01 -2.81892195e-02 -1.14410408e-01
   2.19060346e-01 -1.10949084e-01  2.66937036e-02  1.35185525e-01
  -1.65478542e-01  1.93899006e-01  8.88183117e-02  3.00260074e-02
  -4.48113203e-01  1.34995937e-01  4.25450355e-02 -2.53595710e-01
   1.45544082e-01  1.32236108e-01  6.39779940e-02  3.08587581e-01
   6.20943308e-02 -1.66313961e-01 -4.16456550e-01 -1.48701540e-03
   2.94590872e-02 -3.23284388e-01 -1.89167261e-01  1.19654927e-02
   8.63715485e-02 -9.35345441e-02 -1.99733883e-01  2.14568421e-01
  -7.38884509e-02 -2.31199414e-01  4.11312819e-01  1.07842498e-01
   5.57459220e-02 -6.13612354e-01  5.96651584e-02 -8.79654512e-02
   2.39332825e-01  2.25972626e-02 -1.21802241e-01  2.11904243e-01
  -1.93182647e-01  1.59447446e-01  1.02803282e-01  2.21971497e-01
  -3.80241685e-02 -4.06582564e-01  9.45568830e-03 -1.76832870e-01
  -8.69032890e-02 -3.31747949e-01 -2.60198057e-01 -2.88228661e-01
  -1.43140554e-01 -2.43816320e-02 -3.14440578e-01 -2.23968029e-01
  -2.99216598e-01 -2.20736995e-01  9.25136358e-02 -3.36785883e-01]
 [-2.84638163e-02 -3.60103965e-01  1.44257978e-01  9.88402590e-02
  -5.03454626e-01 -3.82190682e-02 -1.13568909e-01 -1.59133878e-02
   1.47332083e-02 -6.23491816e-02  4.04449627e-02 -2.67771985e-02
  -5.30456798e-03 -2.85417825e-01 -1.43559769e-01  2.13368535e-01
   2.24021748e-01 -2.47509763e-01  1.14098862e-01 -5.22249758e-01
  -2.73499340e-01 -8.16787109e-02 -2.32453108e-01 -2.05799848e-01
  -5.32268584e-01  2.06158549e-01  7.04620406e-02 -6.78800344e-02
  -1.96858943e-01  3.14598009e-02 -2.12648213e-01  1.84352770e-01
  -6.31125644e-02  2.34934211e-01 -1.29829720e-03 -1.08483791e-01
   1.44666821e-01  3.39910537e-01 -2.58023709e-01 -2.00151261e-02
   2.15267196e-01 -8.25827941e-02 -9.21157002e-02  1.77035779e-01
  -3.58986296e-02 -3.94373685e-02 -1.90823093e-01  8.84904619e-03
   1.34538531e-01  3.40408832e-01  1.25876293e-01  2.94221073e-01
   1.52124360e-01 -2.58560199e-02 -4.94197085e-02  3.71796265e-02
  -8.95464495e-02 -2.22943705e-02  5.85344195e-01  2.58923739e-01
  -6.57470405e-01 -1.55037642e-01  1.05127402e-01  3.47665101e-01
  -1.33833587e-02  1.31873444e-01 -3.73157114e-01 -1.08686030e-01
   1.32646887e-02  3.61063421e-01  4.81496304e-01 -2.36142194e-03
  -2.08966017e-01 -4.75648999e-01  3.10968101e-01  1.25165820e-01
  -1.44243017e-01 -2.17601910e-01  1.65089190e-01 -9.51288640e-02
  -2.60211766e-01 -1.26120821e-01 -2.93682516e-01  8.19076449e-02
  -2.99411137e-02  1.63721055e-01  1.43105686e-01  2.86847442e-01
   1.18922211e-01 -1.01102233e-01  1.65488720e-02  1.80578735e-02
   2.57194489e-02  8.06153193e-03  1.11762859e-01 -1.94202010e-02
  -1.10083427e-02 -1.72958776e-01 -1.74852192e-01 -9.98142287e-02
   1.41560346e-01 -1.53562129e-01  2.41620168e-01 -3.41332495e-01
   1.14169799e-01 -2.67345369e-01 -2.45934561e-01  3.88237648e-02
   3.82317722e-01  7.26152807e-02 -3.88266534e-01  1.62577666e-02
  -3.30907524e-01  1.06022954e-01 -1.66648868e-02  2.08165243e-01
   7.80515894e-02  2.93270350e-01  2.18881726e-01  9.83535871e-02]
 [-1.06722206e-01  1.75623551e-01 -4.09742504e-01  2.72873253e-01
  -7.96121433e-02 -1.79295704e-01  6.38929084e-02  1.76017359e-01
  -3.24149996e-01 -2.27760807e-01 -5.55733927e-02  1.81677580e-01
   3.36327702e-01 -3.66890281e-01  2.35370528e-02 -8.42082053e-02
   1.44858167e-01 -2.36024722e-01  2.19528735e-01 -2.42333442e-01
  -6.89736426e-01 -1.07998960e-02 -1.34108616e-02  3.08554769e-01
  -1.19658418e-01  4.20665532e-01  2.91698933e-01 -1.34370476e-01
  -1.37341008e-01  2.65721362e-02 -3.45096558e-01  1.27400607e-01
   1.45926759e-01  5.46766222e-02  1.41032949e-01  9.74069461e-02
  -2.07985014e-01  1.85871750e-01  1.23733349e-01  1.41665116e-01
   2.99708582e-02 -1.31434321e-01  1.93018928e-01  1.32964656e-01
   1.67588994e-01  1.64685160e-01 -1.34177804e-01 -1.44706994e-01
   1.08613007e-01  7.70994183e-03 -3.92643362e-02 -1.73660800e-01
  -5.25644898e-01 -2.49583244e-01  7.43654594e-02 -3.69236946e-01
  -1.92983910e-01 -4.91357625e-01 -2.73952931e-01  2.06843078e-01
  -5.61776683e-02 -1.17710710e-01 -1.39491141e-01  2.41191864e-01
   1.39986858e-01  3.84676158e-01 -3.84249359e-01 -9.45804119e-02
   2.73705274e-01 -5.64030334e-02 -3.31706516e-02  4.70348299e-01
   1.35929966e-02 -2.16007218e-01  4.39879894e-02 -4.26507205e-01
  -3.01605701e-01  1.80206344e-01  6.75650463e-02  1.60907924e-01
   6.46191239e-02  1.51623875e-01  9.97490510e-02  2.67115742e-01
  -3.04621179e-02  1.26844063e-01  8.05414394e-02 -2.45780423e-01
  -5.68192899e-01  1.11489743e-01 -2.18722656e-01 -2.79731274e-01
  -8.70450288e-02  2.86280930e-01 -4.38942648e-02  1.66745767e-01
  -5.64246811e-02 -1.20213076e-01 -4.80904549e-01  7.39066303e-02
  -2.78341740e-01  6.66177049e-02 -5.40983491e-02  3.20745558e-02
  -6.22856379e-01  2.90210396e-01 -1.05358712e-01  4.27405387e-02
   1.26576275e-01  4.25905615e-01 -1.54860159e-02  1.38790339e-01
  -2.74774998e-01  1.61132708e-01  8.79866332e-02  3.21816057e-01
   2.43491203e-01  2.38016486e-01 -2.48764381e-01  5.84783137e-01]
 [ 5.34437656e-01 -5.95011294e-01 -2.79338628e-01  7.80460835e-02
  -8.42469037e-01 -1.59863636e-01  3.89157869e-02 -7.94693641e-03
   1.24491155e-01 -1.55134231e-01 -4.93198459e-04  2.20422253e-01
  -1.09575652e-01 -6.77477494e-02 -3.08507327e-02 -3.33185792e-01
   2.54785836e-01 -8.51837993e-02  1.73378542e-01 -5.54878831e-01
   1.94903076e-01  2.66421735e-02 -2.03900203e-01 -1.99163541e-01
  -4.26091552e-01 -7.09485710e-02  9.62864608e-03 -2.11927235e-01
   2.09389135e-01 -1.13316521e-01  1.19411483e-01  7.40973949e-02
   3.99016179e-02  1.14157591e-02 -1.16477743e-01  7.05740182e-03
  -2.38211468e-01 -1.89058587e-01  3.09717327e-01 -1.66079309e-02
   2.10301965e-01 -7.40170106e-02 -1.33498728e-01  3.95376272e-02
  -5.20766638e-02  1.18480660e-01 -3.64687927e-02 -2.76341736e-01
  -5.99746481e-02  1.38679743e-01 -9.07394588e-02  2.34439179e-01
   1.42212316e-01  1.41512781e-01 -2.08790213e-01  3.54167134e-01
  -8.08915496e-02 -5.42064337e-03  1.30407438e-01  2.75713801e-01
   3.47696543e-02  4.20177393e-02 -1.42716974e-01  6.07245862e-02
   2.39955075e-02 -3.42048928e-02 -6.59011230e-02  2.73755312e-01
   2.47193322e-01 -8.97387415e-03  2.13880967e-02  6.51929714e-03
  -4.58773375e-02  1.54311389e-01  2.93026298e-01 -9.28922296e-02
  -1.04114495e-01  1.40093237e-01  4.89027798e-02  4.90020066e-02
  -1.30374357e-01 -1.33966669e-01 -1.00229107e-01 -1.73653319e-01
   1.61292866e-01 -1.15389340e-01 -1.86663285e-01 -2.44111434e-01
   8.03607404e-02  2.19331399e-01  4.34761606e-02 -5.66867948e-01
  -5.93304299e-02 -1.15086980e-01  1.75738752e-01 -4.77559529e-02
   1.27326891e-01  1.75692409e-01 -2.26257876e-01  5.98097220e-02
  -7.91455746e-01 -1.76544979e-01  5.13992369e-01  2.36013025e-01
  -4.13731903e-01 -1.34113769e-03  1.88366562e-01 -1.06367253e-01
   1.74461663e-01 -3.17663729e-01  1.00496598e-01 -1.45964861e-01
  -8.08515131e-01 -2.20084265e-01  6.07959256e-02 -3.65782350e-01
   6.77946657e-02 -3.89658511e-01  1.94137618e-01 -4.30747941e-02]
 [ 2.95166939e-01  8.91913325e-02 -6.63419217e-02 -4.57007140e-01
   6.68347755e-04  7.16797486e-02 -3.18622082e-01 -3.02068405e-02
  -2.19293553e-02 -1.22057654e-01 -2.68640250e-01 -4.21605736e-01
  -2.25526437e-01 -3.01942408e-01  1.30178079e-01 -3.28496367e-01
   2.39073738e-01 -7.25972950e-02 -4.20992643e-01 -4.42827679e-02
   3.90265435e-01 -3.11041892e-01 -1.19451359e-01 -4.14161742e-01
   4.31913614e-01  3.08006052e-02 -2.59608001e-01  2.66892482e-02
   3.29740345e-01  1.33014798e-01  1.83386937e-01 -2.83613359e-03
  -1.19288275e-02 -1.13469563e-01 -1.46817371e-01 -5.16693704e-02
   1.54958833e-02  2.33069435e-01 -6.35983884e-01 -8.96534100e-02
  -4.71901268e-01 -1.65914640e-01  8.13226476e-02 -3.67207229e-01
   8.41755271e-02 -4.92797513e-03  3.83845158e-02  4.35223997e-01
   9.13842246e-02  2.80787535e-02  6.48737997e-02  3.22370172e-01
  -2.52022147e-01  3.53812054e-02 -2.88287789e-01  4.85217459e-02
  -4.77873325e-01  2.69719809e-01  4.43631746e-02  8.67748260e-02
  -2.86854833e-01  1.60589859e-01  2.29652703e-01 -4.65378702e-01
  -1.66777492e-01 -6.11570617e-03 -1.10354476e-01  1.75356954e-01
  -1.62795499e-01  1.98269457e-01 -1.95948720e-01  6.25501648e-02
  -4.16508578e-02  4.06059027e-02  2.83330619e-01 -1.85346812e-01
   1.56125769e-01  2.26274580e-01 -2.95640111e-01 -2.33090445e-01
  -6.06429100e-01 -1.28501415e-01 -2.03253984e-01  1.67745367e-01
   1.74912438e-01 -1.22439843e-02 -2.50899017e-01 -2.64021963e-01
   2.94684500e-01 -1.78174570e-01 -1.00783303e-01 -2.19720423e-01
  -4.62357216e-02  1.88878506e-01  6.01004101e-02  6.49325084e-03
  -4.27366436e-01  2.65018582e-01  4.47228283e-01 -6.61691874e-02
  -2.21946150e-01 -2.28028640e-01  3.10055837e-02 -1.95379592e-02
   1.66811377e-01  1.10057138e-01  2.18071237e-01  3.86801064e-01
  -4.63525087e-01 -2.53943771e-01 -1.41058236e-01 -2.30973154e-01
  -1.30179031e-02 -3.08395863e-01 -2.24687576e-01 -1.33338869e-01
   1.22377597e-01 -2.98081547e-01 -1.69913694e-01  1.27902016e-01]
 [-3.58574688e-02  2.05127746e-01 -9.47480500e-02  3.68993357e-02
  -4.94406093e-03  7.65035599e-02  1.33678079e-01 -1.74953848e-01
  -2.32114583e-01  1.15239002e-01 -2.92094529e-01  1.54831216e-01
  -8.86074230e-02 -2.90382188e-02 -2.50032663e-01 -1.26557797e-01
   2.00933218e-01 -1.04832590e-01  9.28098783e-02  3.29223990e-01
  -1.17866516e-01  5.10216504e-03  2.49153644e-01 -1.69179514e-01
   4.86621745e-02 -9.20249745e-02 -8.96624401e-02 -2.37397656e-01
   3.44213806e-02  2.88188964e-01  2.65454706e-02 -9.56535116e-02
  -1.12177081e-01  3.32780570e-01  2.40400396e-02  4.54358831e-02
  -2.85242889e-02  9.77875665e-02  1.06462494e-01 -1.33964792e-01
  -8.45497921e-02 -8.73454809e-02 -4.53066044e-02 -8.31830576e-02
   2.03989446e-01  1.02118522e-01  1.33291081e-01  4.00530040e-01
  -1.17869847e-01 -1.51086822e-01 -2.18497455e-01  4.11612540e-02
  -4.41307604e-01 -8.98271650e-02  2.76815649e-02  1.02943785e-01
  -4.36701588e-02 -3.43862057e-01 -5.42165376e-02 -2.32278183e-01
   6.61556646e-02 -1.06134050e-01 -3.53164114e-02 -2.43654046e-02
   8.46692026e-02 -1.13454610e-01  5.11098914e-02 -1.51939750e-01
  -2.77846426e-01  1.81220368e-01  2.20734216e-02 -3.20198089e-02
   2.64346629e-01  2.10973278e-01 -4.38336544e-02 -1.57779276e-01
  -8.38768557e-02  2.76154071e-01  1.30412564e-01 -6.85071340e-03
  -8.30265582e-02 -2.52514064e-01 -2.63497233e-01  1.86071202e-01
  -1.44173140e-02  2.56450847e-02  3.27397525e-01 -2.68338829e-01
  -1.66043788e-01  1.23557478e-01 -1.20017014e-01 -1.90687969e-01
  -3.02762501e-02  1.83725789e-01  4.63253967e-02  4.53582108e-02
   1.24799339e-02  2.83538163e-01  1.93991244e-01 -9.53003094e-02
  -1.10639900e-01  1.55847937e-01  5.75548112e-02  4.22710218e-02
  -2.99520075e-01  8.17747600e-03  1.06205955e-01 -8.79835635e-02
  -1.04232341e-01 -1.64878517e-01 -9.07802135e-02  6.55144602e-02
   2.76191443e-01  8.57612118e-02 -1.01453766e-01 -3.25858481e-02
   6.67766249e-03  1.29839078e-01 -1.37216285e-01 -1.67766407e-01]
 [ 8.30031559e-02 -1.62316769e-01 -2.87998796e-01  1.61602959e-01
   2.51861185e-01 -4.77361023e-01 -4.09269482e-01  2.07511172e-01
   1.92266092e-01  3.49657953e-01 -4.16618526e-01 -8.89138319e-03
  -2.00704515e-01  1.77975610e-01  4.27572466e-02 -1.05022565e-02
   4.04679567e-01  4.41507041e-01 -4.50438857e-01 -5.55869937e-01
   3.47981989e-01  2.12347209e-01  2.24299014e-01 -3.93549919e-01
  -2.54843920e-01 -1.45365104e-01 -3.44489276e-01 -1.35818139e-01
   1.61018133e-01  2.17417911e-01  4.93169986e-02  3.32751662e-01
   2.45715365e-01 -3.45031694e-02 -7.53511339e-02 -2.61022419e-01
   3.22605968e-01 -8.16413239e-02 -2.88452208e-01  1.77957475e-01
  -6.26936018e-01  1.83362007e-01 -3.77665550e-01 -2.04428494e-01
  -3.61699127e-02 -4.27880660e-02 -1.75804019e-01  6.00390315e-01
  -2.07249939e-01  2.20521763e-02 -4.26191211e-01  4.73054916e-01
  -1.11730315e-01  2.51074824e-02 -1.90772355e-01 -1.89162254e-01
   4.60834429e-03  2.46226892e-01  8.49224776e-02 -2.78043777e-01
   2.58524925e-01  1.92008708e-02  3.82545769e-01 -5.19772828e-01
