le_net/conv2d/kernel:0
(5, 5, 3, 6)
[[[[-1.61098748e-01 -1.73348069e-01 -2.70574182e-01  2.01115206e-01
    -1.37868738e-02  9.59964003e-03]
   [-1.84502810e-01 -1.93477347e-01 -1.32527361e-02  8.51341523e-03
     1.66073769e-01  2.08668411e-01]
   [-4.81147692e-02 -2.96452254e-01  7.74966255e-02  1.65803105e-01
     5.90250827e-02 -3.95645723e-02]]

  [[-2.93990910e-01  6.02455735e-02 -6.70102090e-02  5.14504254e-01
     1.92969162e-02  4.36507463e-02]
   [-1.81613982e-01  1.42247960e-01  1.20641515e-01  1.79517269e-01
    -5.82128251e-03  2.97818035e-01]
   [-8.02604780e-02 -2.63154596e-01  6.23319149e-02  3.49278748e-01
    -5.90669438e-02  3.52127850e-01]]

  [[-2.44185492e-01  9.87835415e-03 -2.87140250e-01  4.23332930e-01
    -2.72287056e-02 -2.07230464e-01]
   [-1.00341804e-01  2.44197890e-01  1.52543500e-01  2.97990263e-01
     1.47474274e-01  2.84149259e-01]
   [ 1.37294903e-01  2.75961477e-02 -1.37880355e-01  3.64912421e-01
    -1.24151736e-01  1.26773462e-01]]

  [[ 6.70957938e-02  8.34726691e-02 -3.02723497e-01  3.26913744e-01
    -2.95385927e-01 -3.68218243e-01]
   [ 2.59108037e-01 -1.09894667e-02  1.41697481e-01  2.49091998e-01
    -2.43325517e-01  1.08284876e-01]
   [ 4.05624002e-01 -3.89516890e-01  1.07834704e-01  9.41630825e-02
    -3.05502683e-01  1.51384577e-01]]

  [[ 1.53455287e-01  2.31888995e-01 -2.23042205e-01  4.06335264e-01
     8.41950476e-02 -2.51136333e-01]
   [ 2.66338438e-01  6.17214292e-02  1.19269744e-01 -7.92245194e-03
     7.07673877e-02  3.21251780e-01]
   [ 3.68439913e-01 -2.19994858e-01 -2.37856898e-03  2.25650534e-01
    -1.58662677e-01  2.33656093e-01]]]


 [[[-1.56108350e-01  7.19973668e-02 -2.86696643e-01  4.48110640e-01
     3.65215600e-01 -1.89630240e-01]
   [-3.80867004e-01  6.78011328e-02  7.90196881e-02  1.39317319e-01
     1.40894398e-01  3.40198785e-01]
   [-3.26521218e-01 -2.94646353e-01  6.55660778e-02  2.11129621e-01
     2.09791258e-01  2.08008811e-01]]

  [[-5.57487667e-01 -2.46614330e-02 -1.06796786e-01  6.74003839e-01
     1.15642503e-01  2.02579442e-02]
   [-5.11780977e-01  5.64700589e-02  1.32286221e-01  1.97424516e-01
     8.76818374e-02  5.29773951e-01]
   [-2.36977831e-01 -4.03449506e-01  9.11462232e-02  2.44125649e-01
    -1.23849057e-01  2.64910042e-01]]

  [[-2.83238385e-02 -8.96651018e-03 -3.29263985e-01  6.09763443e-01
     1.65298164e-01  1.36895984e-01]
   [-1.80675372e-01 -6.44113645e-02  2.21302703e-01  2.22903475e-01
    -6.87978864e-02  5.78614712e-01]
   [ 1.16945930e-01 -1.92576021e-01  4.40786127e-03  4.67518419e-01
    -1.38532087e-01  4.64922965e-01]]

  [[ 2.36684471e-01  1.40423104e-01 -2.02649519e-01  4.22674775e-01
    -2.83940256e-01 -3.44782293e-01]
   [ 2.56377429e-01  4.64638397e-02  1.65396750e-01  3.57110679e-01
    -2.06299350e-01  2.80794799e-01]
   [ 4.31270063e-01 -1.99683666e-01  1.13059506e-01  4.40875083e-01
    -3.12016010e-01  2.77467430e-01]]

  [[ 3.73060644e-01  2.72363037e-01 -1.80944651e-01  2.18796775e-01
     3.11915763e-02 -3.35479885e-01]
   [ 2.81179905e-01  4.10480917e-01  2.42004581e-02  2.27164537e-01
    -2.40569025e-01  2.00640231e-01]
   [ 4.71616030e-01  1.88745514e-01  1.29614666e-01  2.82399088e-01
    -4.18306619e-01  9.75201651e-02]]]


 [[[-5.77239811e-01 -2.66912412e-02 -6.00608945e-01  2.85692036e-01
     2.07725942e-01 -7.29838550e-01]
   [-6.01065934e-01  2.78862827e-02 -7.16637596e-02  1.77188665e-01
     1.83618605e-01 -1.97835229e-02]
   [-3.23923349e-01 -1.36488602e-01  1.03950061e-01  2.88300723e-01
     1.47286460e-01 -6.05824068e-02]]

  [[-6.51023269e-01  3.79952081e-02 -2.27604225e-01  3.25390160e-01
     3.37084472e-01 -3.20899844e-01]
   [-7.30668247e-01 -1.30856037e-01  4.17868227e-01 -2.17710406e-01
     4.27032858e-01  8.63666609e-02]
   [-6.25222981e-01 -5.37731171e-01  1.18080964e-02  1.54512629e-01
     1.71054304e-01 -8.80955085e-02]]

  [[-2.75669992e-01 -1.85580716e-01 -3.05801749e-01  6.57488704e-02
     4.31569256e-02 -1.42097965e-01]
   [-3.15751851e-01 -1.82393029e-01  1.46560028e-01 -8.08699131e-02
     2.08606184e-01  3.68743569e-01]
   [ 6.52336329e-02 -3.56518269e-01  1.01271279e-01  4.92700301e-02
     1.51418403e-01  2.38642082e-01]]

  [[ 4.64694798e-01  8.41320902e-02 -3.51744145e-01  1.44582108e-01
    -3.90865952e-01 -3.59099299e-01]
   [ 2.95339108e-01 -1.38776992e-02  2.63909642e-02 -7.30077224e-03
    -3.17051083e-01  2.47547954e-01]
   [ 6.78751707e-01 -1.31960779e-01  1.19214378e-01  1.38237104e-01
    -5.45093417e-01  1.72449470e-01]]

  [[ 4.02571440e-01  5.84188640e-01 -3.32102269e-01  3.18268053e-02
    -3.59549731e-01 -4.96484667e-01]
   [ 4.30923402e-01  4.49320823e-01  3.73343378e-02 -7.19164126e-03
    -5.22801697e-01  9.14201066e-02]
   [ 8.36174190e-01  2.93567389e-01 -9.08609927e-02  3.57015543e-02
    -4.73987371e-01  1.44370282e-02]]]


 [[[-3.23133320e-01 -2.68089890e-01 -1.88337773e-01 -1.72873989e-01
     1.30363509e-01 -4.39730823e-01]
   [-5.85208237e-01 -4.40501332e-01  4.54174250e-01 -4.96170998e-01
     1.39994279e-01  2.14797586e-01]
   [-3.54539692e-01 -8.09910893e-01  4.01593477e-01 -1.87146753e-01
     2.61512518e-01 -5.33097126e-02]]

  [[-6.20767772e-01 -2.18884796e-01 -3.71688068e-01 -5.57772040e-01
     4.70353305e-01 -5.59774935e-01]
   [-8.27321291e-01 -2.15846226e-01  1.99912652e-01 -8.39037359e-01
     3.45376432e-01  2.38645360e-01]
   [-4.84517664e-01 -4.89937097e-01  3.00450064e-03 -6.24221027e-01
     1.77339405e-01  9.42878351e-02]]

  [[-1.36030942e-01  2.45295748e-01 -4.43199337e-01 -8.41478646e-01
     3.39162558e-01 -7.83307076e-01]
   [-3.88088018e-01  4.09228325e-01  1.32320255e-01 -9.09455419e-01
     3.27908039e-01  1.24938630e-01]
   [ 1.83379129e-01  9.90377157e-04  5.75729162e-02 -7.40537822e-01
     1.74380839e-01  1.70919597e-02]]

  [[ 1.79155275e-01  1.82748869e-01 -3.39746565e-01 -7.51859546e-01
    -4.61763591e-01 -3.64793509e-01]
   [ 2.46624291e-01  4.29009318e-01  3.33650142e-01 -8.68655801e-01
    -4.28856909e-01  2.40480468e-01]
   [ 6.45951927e-01 -9.43026468e-02 -2.28958912e-02 -7.16684222e-01
    -6.99272752e-01  1.69410989e-01]]

  [[ 2.74529904e-01  1.89828411e-01 -9.64232758e-02 -3.09865534e-01
    -5.01836777e-01 -5.61627209e-01]
   [ 4.44792897e-01  4.51161683e-01  1.78256735e-01 -2.83124268e-01
    -4.98956650e-01  9.94615331e-02]
   [ 6.37248516e-01 -1.40432835e-01  2.48034984e-01 -3.04540128e-01
    -5.90642095e-01  2.19480604e-01]]]


 [[[-2.91453302e-01 -3.42830062e-01 -4.86399561e-01 -1.09927848e-01
     1.77997544e-01 -3.42808545e-01]
   [-5.38964510e-01 -9.69105661e-02  7.52470717e-02 -9.44702327e-03
     3.38732988e-01  1.94389269e-01]
   [-1.69377446e-01 -5.40265560e-01 -9.42040682e-02 -1.93406835e-01
     1.65171698e-01  2.48677924e-01]]

  [[-6.47535622e-01 -1.02778256e-01 -4.56520706e-01 -6.84986115e-01
     4.90420222e-01 -1.00798041e-01]
   [-6.62704229e-01 -2.20283315e-01  1.83146015e-01 -6.61606491e-01
     2.09611654e-01  4.50195014e-01]
   [-3.09414238e-01 -8.21294904e-01  1.71580732e-01 -2.95693845e-01
     2.63810724e-01  2.14204445e-01]]

  [[-2.37380177e-01  2.66094148e-01 -2.78807759e-01 -6.59579754e-01
     9.42533538e-02 -6.88974023e-01]
   [-2.18352899e-01  2.74393082e-01  6.39530495e-02 -5.59836745e-01
     2.91498572e-01  1.78901106e-01]
   [-6.57689720e-02 -2.37475842e-01 -3.30888368e-02 -5.04356086e-01
     9.30309147e-02  5.79048805e-02]]

  [[ 1.24247864e-01  2.59721696e-01 -2.15813413e-01 -6.26813889e-01
    -4.88791801e-02 -6.31858528e-01]
   [-3.72646522e-04  4.96587873e-01  1.91651106e-01 -6.73246682e-01
    -1.67926833e-01 -8.85975361e-03]
   [ 5.49905181e-01 -7.45798871e-02 -5.40047064e-02 -2.65915424e-01
    -4.14876282e-01 -9.06249657e-02]]

  [[ 2.91044533e-01  1.66691095e-01 -3.35248411e-01 -3.45277727e-01
    -5.45419276e-01 -6.02656066e-01]
   [ 3.19830716e-01  3.16525161e-01  9.83579680e-02 -8.97770822e-02
    -6.41435504e-01 -9.82744247e-02]
   [ 6.57171190e-01 -1.86145395e-01 -7.33052716e-02  2.67254692e-02
    -7.81859696e-01  1.20370418e-01]]]]
le_net/conv2d/bias:0
(6,)
[-0.12984417  0.55996966  0.37628508 -0.24122632  0.5505468   0.09107114]
le_net/conv2d_1/kernel:0
(5, 5, 6, 16)
[[[[-3.25589120e-01 -8.32274675e-01  7.98930079e-02  2.84022652e-02
    -2.72615463e-01 -3.64799201e-01 -1.26609668e-01 -3.76955420e-02
    -1.38598770e-01  2.16657728e-01 -9.79591999e-03  1.54607281e-01
     1.39234036e-01 -4.44295466e-01  4.37346064e-02  2.95458913e-01]
   [ 8.46778154e-02 -7.38800824e-01 -3.42709422e-01 -5.55981398e-01
     1.23533510e-01  1.39532268e-01 -1.73354968e-01  4.08475101e-01
    -1.86261326e-01  3.25793624e-01 -5.84122315e-02 -2.14481100e-01
     4.49316949e-01 -2.26721168e-01 -7.27046013e-01  1.00029960e-01]
   [-3.39639336e-02 -2.95736581e-01  1.26814485e-01  2.90381253e-01
     2.57744730e-01 -3.69668119e-02  1.35171905e-01  1.25761300e-01
    -4.99759428e-03  4.96094376e-01  2.48830989e-01  2.22281620e-01
    -3.62022728e-01 -4.38278377e-01  1.87870368e-01  1.62285879e-01]
   [-5.27444959e-01 -6.51272953e-01  2.80816704e-01  7.03422725e-01
    -5.99243902e-02 -6.30560637e-01 -2.52516359e-01 -5.71071029e-01
     2.82790124e-01  5.13920009e-01  3.01056425e-03  2.09920406e-02
     5.39846420e-01 -3.33394825e-01  1.64347619e-01  5.70747077e-01]
   [-3.80833372e-02  2.36284137e-01 -3.34955007e-01 -1.10590465e-01
     7.89011180e-01  3.53182524e-01 -1.31320715e-01  5.08189797e-01
    -3.76666009e-01  5.99468827e-01  3.14031959e-01 -2.70292442e-02
    -2.04006750e-02 -5.76050341e-01 -1.15134083e-01  8.28318670e-02]
   [-2.73947954e-01  2.90585477e-02  1.55387133e-01  6.29003584e-01
    -1.93742618e-01 -4.24115747e-01  2.12310523e-01 -1.08474776e-01
     3.64107154e-02  2.30363071e-01 -1.01291873e-01  4.17940728e-02
    -5.52664340e-01 -1.21334337e-01  1.56306520e-01  1.32514715e-01]]

  [[-3.57211292e-01  6.55192256e-01  1.75354987e-01 -8.84845853e-03
    -4.72794980e-01  3.95461798e-01 -5.77131271e-01 -1.77356467e-01
     3.18895906e-01  2.73113668e-01  2.54838280e-02 -4.55338731e-02
    -1.36836171e-01 -2.87339568e-01 -1.58896983e-01  6.41109124e-02]
   [ 1.59188986e-01  6.01721406e-02 -3.53861302e-01 -3.47849876e-01
     4.66427803e-01  4.09301400e-01 -5.37903726e-01  4.70069557e-01
    -1.07087635e-01  2.55192637e-01  1.84840769e-01 -3.21589820e-02
     1.67290524e-01 -1.41445762e-02 -6.50410473e-01  2.28119791e-01]
   [ 9.30422768e-02 -1.15314715e-01  3.35198015e-01  2.96318024e-01
    -2.89664380e-02  2.24203199e-01 -1.75295055e-01  1.39938474e-01
    -5.42220809e-02  3.68459374e-01  9.62153077e-02 -3.13269436e-01
    -5.48498154e-01 -4.12484288e-01  3.67351443e-01  2.13047639e-01]
   [-6.43780231e-01 -3.11091214e-01  1.32297590e-01  8.30895603e-01
    -1.08365588e-01 -3.75073344e-01 -1.01242864e+00 -4.79275614e-01
    -1.41683659e-02  2.29859655e-03  1.83604866e-01  2.41208151e-01
     5.29580653e-01 -2.83908933e-01  4.13623422e-01 -2.85848994e-02]
   [-4.31249179e-02 -5.98807633e-01 -3.95704687e-01 -8.18294436e-02
     8.00198019e-01  2.87896693e-01  3.61142009e-01  6.32634401e-01
    -8.23986828e-01  2.83296376e-01  1.79082960e-01  1.16146286e-03
    -4.72980104e-02 -6.71641588e-01 -1.74084734e-02 -3.92033964e-01]
   [-1.31867528e-01 -1.87419588e-03  3.61755848e-01  5.73968351e-01
    -4.34814662e-01 -9.95417610e-02  6.48384094e-02 -1.55239806e-01
     8.35623145e-02  9.87568721e-02 -2.22682860e-02 -6.48995101e-01
    -6.17502689e-01 -1.22284889e-01  9.07828435e-02  5.97599857e-02]]

  [[-2.84080237e-01 -4.49121654e-01  1.53003275e-01  7.12289847e-03
    -2.78563380e-01  5.32058477e-01 -2.10585654e-01  1.37535930e-01
     5.02751023e-02  2.41133511e-01  1.22319171e-02  2.13308586e-03
    -9.38748289e-03 -1.34287626e-01 -1.97517276e-02  2.48400837e-01]
   [ 1.42087027e-01 -5.04905164e-01 -4.20696825e-01 -3.19528431e-02
     4.64810401e-01  7.85011724e-02 -3.31861317e-01  4.73826349e-01
    -7.93237925e-01  3.00445020e-01  6.16438165e-02  1.93066791e-01
     5.00459000e-02 -1.67434588e-01 -6.36222899e-01  2.94522911e-01]
   [ 1.23746030e-01 -1.46346942e-01  2.83110708e-01  2.15962142e-01
    -1.29562154e-01  1.93836227e-01 -2.04486072e-01  2.76503533e-01
     2.83748042e-02  3.49286944e-01  2.91453283e-02 -5.40359437e-01
    -5.75485885e-01 -5.13432980e-01  3.51676881e-01  1.25821725e-01]
   [-1.06093717e+00 -5.90528727e-01 -2.53391594e-01  9.59094882e-01
     1.08947396e-01  4.64907706e-01 -4.82000858e-01 -1.16261110e-01
    -4.09177512e-01  4.34911028e-02  2.45243996e-01  2.49066412e-01
     5.39315104e-01 -3.30194570e-02  3.47016394e-01 -5.76935589e-01]
   [-3.35769355e-02  1.68675855e-01 -4.60403383e-01 -3.35587651e-01
     6.50397897e-01  5.31856596e-01  2.38572493e-01  6.28908277e-01
    -3.25484961e-01  3.57965022e-01  9.35685448e-03  1.77790225e-03
     5.45010790e-02 -6.37131870e-01  1.26792947e-02 -6.23511791e-01]
   [-1.85939088e-01  1.87968403e-01  3.36566836e-01  5.66131592e-01
    -6.15006566e-01  2.42478579e-01 -1.42344981e-01 -1.87530279e-01
     1.24969862e-01 -2.27781991e-03 -1.71754792e-01 -9.30116236e-01
    -4.98624116e-01 -5.30456491e-02  1.81865647e-01 -7.54613206e-02]]

  [[-1.93284377e-01  3.51059109e-01  3.25513005e-01  2.05391183e-01
    -2.27503348e-02  1.67302042e-01  3.19210410e-01  4.36226159e-01
     5.57809183e-03  1.35641277e-01  2.47305647e-01  8.67769867e-02
    -2.72240579e-01 -1.62968546e-01 -1.27062365e-01  3.20999950e-01]
   [ 4.89627384e-02 -2.36086398e-01 -3.60228717e-01 -1.52540118e-01
     4.94370967e-01  2.37341657e-01  3.65725189e-01  6.73104048e-01
    -1.05770659e+00  1.37045875e-01  1.25954345e-01  1.91396832e-01
     7.48763904e-02 -2.31653214e-01 -3.55056912e-01  4.52601165e-02]
   [ 1.00156248e-01 -1.29063085e-01  3.22376639e-01  3.31305236e-01
     1.80401676e-03  3.42165858e-01 -1.30729035e-01  3.32276076e-01
     1.98893860e-01  3.27536911e-01  2.02138320e-01 -5.91377795e-01
    -6.50641263e-01 -4.84413505e-01  2.23874286e-01 -5.84122427e-02]
   [-7.83408821e-01 -2.81926960e-01 -1.27643988e-01  1.04816663e+00
     6.96441308e-02  8.98228645e-01  3.49142343e-01 -4.32561077e-02
     5.39630800e-02  1.69144586e-01  1.63679764e-01  2.07913414e-01
     6.93769634e-01  1.60387337e-01  3.29235256e-01 -5.77090740e-01]
   [-6.02867864e-02 -7.60066286e-02 -5.67600429e-01 -6.05418682e-01
     4.84425396e-01  4.49224949e-01 -2.36646742e-01  1.78832129e-01
     2.55210400e-01  4.32138741e-01 -7.84110185e-03  2.29269490e-02
     5.50029986e-02 -5.79493821e-01 -7.95962438e-02 -6.68677211e-01]
   [-1.35089248e-01  7.48959333e-02  1.88110232e-01  4.86046076e-01
    -4.90818441e-01  2.69183576e-01 -7.35449642e-02 -1.85625881e-01
     1.20777249e-01  9.02773160e-03  7.52128437e-02 -8.17362607e-01
    -5.03533900e-01 -2.42422670e-02  9.03810635e-02 -1.48151621e-01]]

  [[-1.13781363e-01  3.67227733e-01  1.49713099e-01  1.70161635e-01
    -1.23636596e-01  1.16866522e-01  2.64495313e-01  5.19389033e-01
     3.18752289e-01  3.29653740e-01  4.36113507e-01  3.53173167e-01
    -3.42818052e-01 -2.40681157e-01 -3.24248336e-02  7.10752904e-02]
   [-2.12037042e-02 -1.90333456e-01 -3.60499442e-01 -2.46547252e-01
     3.89140218e-01  5.38045704e-01  4.33783770e-01  6.07845366e-01
    -3.34213018e-01  3.98056775e-01 -8.80169775e-03  2.93890368e-02
    -1.16982691e-01 -2.35289365e-01 -3.68359298e-01 -2.91827381e-01]
   [ 6.53318167e-02 -1.53246224e-01  2.30761558e-01  2.20835581e-01
     1.18070170e-02  3.47519100e-01 -3.38513106e-01  3.33980203e-01
     2.88084745e-01  2.36148853e-02  2.67632037e-01  3.11092362e-02
    -3.55635732e-01 -4.19965297e-01  1.72591671e-01 -1.10718403e-02]
   [-4.52660561e-01 -4.15887386e-01  2.42585748e-01  7.87764132e-01
     2.20702693e-01  6.15307316e-02  4.69850972e-02 -4.74778228e-02
     2.83256948e-01  3.42451781e-01 -1.13210708e-01  1.54337943e-01
     7.93002903e-01  1.88254848e-01  4.60940421e-01 -3.71475220e-01]
   [ 4.72413525e-02 -2.86766976e-01 -5.59135079e-01 -4.87991601e-01
     2.81859607e-01  3.16727787e-01 -4.50796425e-01 -3.00302561e-02
     3.73182803e-01  5.35232604e-01 -2.52349693e-02  1.09275013e-01
     1.63236842e-01 -7.10950494e-01 -1.24324538e-01 -3.66808832e-01]
   [ 4.68330719e-02 -2.64135487e-02  1.77399457e-01  6.08062088e-01
    -5.22066951e-01 -1.01680405e-01 -1.89530402e-01 -3.05461939e-02
     4.31188680e-02 -2.98983663e-01  2.48493001e-01 -1.01622261e-01
    -1.82739228e-01  1.36561515e-02 -1.45352885e-01  1.30711317e-01]]]


 [[[-1.55594766e-01 -8.41295898e-01 -2.08381429e-01 -2.16347992e-01
    -1.17774390e-01 -6.82296574e-01  8.97830427e-02  1.15552858e-01
    -3.47698867e-01  3.32039624e-01 -1.20508879e-01  1.45863499e-02
     4.43842471e-01  4.01837789e-02 -1.02603249e-02  3.51954162e-01]
   [ 3.80332470e-02 -4.56243843e-01 -8.10292140e-02 -2.95260459e-01
    -1.56789258e-01 -1.59356937e-01  7.74225369e-02  3.91891718e-01
     1.17621049e-01  2.95076579e-01 -2.87759542e-01 -1.36843827e-02
     3.95983577e-01 -9.20851231e-02 -6.82633877e-01  1.92435905e-01]
   [-4.44143340e-02 -2.64625102e-01 -3.58523466e-02  3.55840772e-01
     1.29212841e-01 -2.05875039e-01  3.43902916e-01  8.17180350e-02
    -2.04090834e-01  4.04411793e-01  3.18261713e-01 -5.23817446e-03
    -3.58118802e-01  1.88950330e-01  3.52766007e-01  2.96634823e-01]
   [-8.70079935e-01 -4.81113791e-01  2.19632864e-01  6.99908659e-02
     2.05097590e-02 -1.09338152e+00  2.34651968e-01 -2.52172291e-01
     3.24837029e-01  6.23901784e-01 -1.61948144e-01  1.91370100e-01
     6.25870407e-01 -5.93570828e-01  2.75773913e-01  3.53489965e-01]
   [-7.29495436e-02  4.89011794e-01 -1.98573023e-01 -1.37848213e-01
     2.96697289e-01  9.66038108e-02 -8.07977021e-01  1.69382289e-01
     1.98787481e-01  3.17070454e-01  2.45460778e-01  1.14357911e-01
    -3.24191362e-01 -1.12056293e-01 -1.92231566e-01  8.53403583e-02]
   [-4.09655981e-02 -1.29450664e-01  1.08326994e-01  3.27277064e-01
    -4.49653044e-02 -4.91180152e-01  4.60288763e-01 -5.13008125e-02
    -5.93843386e-02  1.01991758e-01 -5.23894504e-02 -4.18675095e-01
    -1.76369637e-01 -2.93664429e-02  1.96727008e-01  1.95562422e-01]]

  [[ 9.09691453e-02  8.47897768e-01  2.01089773e-02 -6.58329844e-01
    -1.84597149e-01 -7.27661312e-01 -3.26598495e-01 -2.42589355e-01
     6.00432932e-01  3.95209342e-01 -5.39298765e-02 -1.10058300e-01
    -8.23004693e-02 -1.11702783e-02 -2.89826751e-01  5.61913252e-01]
   [-5.70776290e-04  3.12542558e-01 -1.22630157e-01 -8.12901184e-02
     2.38252223e-01 -2.49047130e-01 -4.33355093e-01  2.17173368e-01
     1.88894495e-01  1.51090413e-01 -1.57757267e-01  1.98738918e-01
     1.73213765e-01  3.70897092e-02 -8.04283619e-01  4.63649392e-01]
   [ 2.22457591e-02 -2.28455905e-02  6.67410791e-02  3.54262650e-01
     1.72197502e-02 -1.30421221e-01 -7.06219748e-02 -1.21539414e-01
    -1.66179880e-01  4.47316259e-01  3.04261327e-01 -6.52008891e-01
    -6.04031622e-01  6.09898269e-02  5.28148413e-01  1.95912465e-01]
   [-1.32795286e+00 -5.18206000e-01  2.75534421e-01 -1.48820356e-01
    -2.58668393e-01 -4.26236801e-02 -5.95640123e-01 -1.52361006e-01
     8.11885744e-02  5.18664956e-01 -2.07742333e-01  3.02787870e-01
     9.79002714e-02 -3.67831469e-01  3.10181171e-01 -7.68332481e-02]
   [ 3.90585139e-02 -4.05825824e-01 -4.87546980e-01 -1.28871948e-01
     4.36139882e-01  5.75837255e-01 -2.90799111e-01  3.25073749e-01
    -1.35114622e+00  2.85942584e-01  2.29177643e-02  2.82527059e-01
    -3.95871639e-01 -3.19116414e-01 -7.32301101e-02 -5.10963023e-01]
   [-1.87362045e-01 -2.54691869e-01 -4.55792882e-02  5.65540157e-02
    -4.23719943e-01 -3.45063694e-02  1.40021384e-01 -1.16714090e-01
    -1.74215898e-01  2.78383940e-01  1.00116972e-02 -1.13560283e+00
    -4.47588563e-01 -1.63489014e-01  2.50027508e-01 -1.97558135e-01]]

  [[ 1.58291366e-02 -2.43939906e-01 -6.56773821e-02 -3.89322400e-01
    -4.22303200e-01 -2.77185529e-01 -5.18004000e-01 -2.73996770e-01
    -9.99749601e-02  2.13000894e-01  6.51839003e-02 -2.94899493e-01
    -1.99601531e-01 -7.65828639e-02 -1.13672160e-01  4.17417407e-01]
   [ 2.06198208e-02 -2.55041569e-01 -2.50699222e-01  7.26266727e-02
     2.64900923e-01 -6.63849711e-02 -7.88110435e-01  3.12794119e-01
    -7.19729125e-01  1.88376144e-01 -9.14642885e-02  2.93278843e-01
    -1.76391318e-01  7.30083734e-02 -6.44038737e-01  4.08998460e-01]
   [ 1.57376051e-01  1.24701085e-02  8.62045065e-02  3.43501657e-01
    -1.67978123e-01  1.56730294e-01 -8.16017687e-02 -9.68603510e-03
    -8.47189352e-02  3.97169977e-01  3.28591734e-01 -1.07190001e+00
    -6.23302579e-01  6.06089272e-02  3.82451683e-01  2.60937456e-02]
   [-1.38822722e+00 -8.52306366e-01  2.41729304e-01  7.79158548e-02
    -2.16689870e-01  9.65712667e-01 -1.33016527e+00 -1.86883077e-01
    -5.60223877e-01  4.54871804e-01 -2.86814719e-02  5.23775339e-01
     1.01079553e-01 -1.09983929e-01  3.34475368e-01 -8.84247959e-01]
   [-8.77256393e-02  4.53724176e-01 -3.03284675e-01 -6.97256997e-02
     3.82907212e-01  7.92777121e-01  3.14217985e-01  4.08453971e-01
    -3.28328639e-01  1.24890476e-01 -2.51192540e-01  1.48177490e-01
    -1.29819095e-01 -4.42916006e-01 -3.10676098e-01 -1.05463684e+00]
   [-2.31578555e-02  8.81529897e-02  6.63500205e-02  1.71231121e-01
    -6.32207930e-01  1.00334831e-01  1.25293970e-01 -2.41972804e-01
    -3.48464362e-02  1.36337861e-01 -1.19291581e-01 -1.55323994e+00
    -2.59400159e-01 -4.94759232e-02  1.16099104e-01 -1.17088258e-01]]

  [[-4.67238575e-02  3.05292040e-01 -4.14771475e-02 -2.70403177e-01
    -4.13145840e-01  4.80135441e-01 -2.60828733e-01 -5.38787171e-02
    -5.43293059e-01  5.41460887e-02  1.36542574e-01 -2.06704602e-01
    -1.89024761e-01 -1.18966931e-02  2.63879634e-02  2.21475273e-01]
   [ 6.55394047e-02  4.62129451e-02 -1.94186121e-01  1.52115524e-01
     3.14442158e-01  5.40594101e-01 -2.22851872e-01  2.40628883e-01
    -1.25990248e+00  1.69475839e-01 -1.71920776e-01  3.44951540e-01
    -3.81034225e-01 -6.27925619e-02 -3.67020816e-01 -1.36753708e-01]
   [ 1.16150253e-01  5.82162179e-02  1.74499471e-02  3.28495115e-01
    -2.35853672e-01  1.58573195e-01 -2.34521776e-01 -8.17157403e-02
    -1.45399988e-01  8.49522576e-02  3.13013524e-01 -8.65427852e-01
    -4.67000991e-01 -4.90599871e-02  3.55506420e-01 -1.74950764e-01]
   [-1.07113278e+00 -7.38936007e-01  2.22203478e-01  1.00548983e-01
     7.77741596e-02  1.04455137e+00 -7.75303662e-01 -1.61212087e-01
    -7.23308176e-02  2.58234203e-01 -3.41396630e-01  4.34013456e-01
     3.48362833e-01  1.08261831e-01  1.76257938e-01 -7.76521921e-01]
   [-5.02694398e-02  9.24261361e-02 -3.42692763e-01 -3.05329740e-01
     4.38984066e-01  3.71709794e-01  1.94010168e-01  3.69221836e-01
     4.32659447e-01  5.83212040e-02 -2.30471164e-01  6.21396415e-02
    -5.66736571e-02 -1.70492917e-01 -2.27516472e-01 -5.88486791e-01]
   [ 9.54238176e-02  3.52845551e-03  3.53883319e-02  1.97018385e-01
    -5.92882037e-01  1.53829664e-01 -2.43755162e-01 -1.45166233e-01
     1.34773716e-01 -6.11111298e-02 -2.36648531e-03 -1.17816269e+00
    -1.10295609e-01  8.95526484e-02 -3.39550115e-02 -1.54537365e-01]]

  [[-3.71163972e-02  3.15549135e-01 -2.86843143e-02 -2.65456229e-01
    -4.14004773e-01  8.30195010e-01 -3.96585315e-02  2.11272791e-01
     6.25329137e-01  2.02571183e-01  3.85637432e-01  2.24412411e-01
     1.11993179e-01 -1.86889544e-01  2.19757751e-01 -1.60086095e-01]
   [-1.46594733e-01  1.19151741e-01 -3.75170469e-01 -7.04549849e-02
     1.02683850e-01  8.50492656e-01  2.19656035e-01  3.62506568e-01
     1.04798675e-01  3.89160424e-01 -3.56664985e-01  1.68112233e-01
    -2.78805166e-01 -3.95048112e-02 -3.96560848e-01 -4.47222292e-01]
   [ 2.31161684e-01 -9.24673900e-02 -4.96092960e-02  3.15808862e-01
    -1.27344087e-01 -1.87149253e-02 -3.02725554e-01  4.33151983e-02
     4.28404771e-02 -2.47508734e-01  4.22305316e-01 -2.96087563e-01
    -3.11178863e-01 -8.27469528e-02  4.20009792e-01 -1.16817281e-01]
   [-9.07361329e-01 -8.15648139e-01  3.16326171e-01  3.24727386e-01
     2.89551198e-01 -1.20235555e-01  2.84342140e-01  1.34574220e-01
     3.61828983e-01 -2.12608073e-02 -2.88028181e-01  3.06502759e-01
     6.05279565e-01  7.06832707e-02  7.27302879e-02 -2.59221673e-01]
   [-4.36671488e-02 -1.75843909e-01 -2.83879250e-01 -4.16894853e-01
     2.76215047e-01 -3.46030980e-01 -3.10826153e-01 -3.36127840e-02
     2.16791973e-01  4.06296737e-02 -1.96107283e-01  7.13384524e-02
    -1.15437517e-02 -3.66659135e-01 -3.52558553e-01 -1.57683656e-01]
   [ 5.88209443e-02 -8.10673162e-02  1.54785901e-01  2.38095030e-01
    -4.74274099e-01 -7.12814257e-02 -2.27978025e-02  8.53089467e-02
    -1.41196936e-01 -4.79359210e-01  2.95498848e-01 -3.58404249e-01
    -5.04584936e-03 -8.08789358e-02 -2.11475134e-01  1.46704599e-01]]]


 [[[-2.70548373e-01 -6.51383877e-01 -2.68216729e-01 -3.49576771e-01
     1.13828167e-01 -7.68017352e-01  1.42392233e-01  1.13090761e-01
    -3.69986057e-01  4.01588708e-01 -3.51897031e-02 -5.84109910e-02
     4.11123812e-01  6.86900318e-03 -2.08794195e-02  5.25642812e-01]
   [-5.98396640e-03 -1.28310621e-01  5.74229360e-02 -8.23499188e-02
    -2.33437330e-01 -6.58447146e-01  6.34895936e-02  2.93777168e-01
     1.67830065e-01  2.34860912e-01 -3.91163379e-01  4.59452868e-02
     9.67308357e-02 -6.92193657e-02 -6.60211265e-01  5.82459450e-01]
   [ 1.44179007e-02 -5.77428676e-02 -6.87588751e-02  3.30622166e-01
     2.39874482e-01 -3.00103366e-01  2.81089693e-01 -6.57328069e-02
    -1.63938165e-01  3.09896082e-01  2.67023236e-01  1.32924855e-01
    -1.74816668e-01  3.79122496e-01  2.36899614e-01  1.07191987e-01]
   [-8.60218346e-01  2.75414556e-01  6.31860673e-01 -1.35398299e-01
    -5.06307073e-02  2.41202965e-01  6.35708332e-01 -6.26742393e-02
     1.97408840e-01  5.63237309e-01  1.77148983e-01  2.03531608e-02
     7.99622834e-01 -6.65083110e-01  5.28503299e-01 -3.37418765e-02]
   [-1.15591742e-01  3.17425072e-01 -2.63838321e-01 -4.15527821e-01
     3.99845615e-02 -2.26466298e-01 -7.51679420e-01  2.13026986e-01
     5.09153664e-01  3.14912617e-01 -2.06070319e-01  1.30591601e-01
     2.48482570e-01 -8.14966112e-02 -1.11384384e-01  1.68020695e-01]
   [-1.72242597e-01  2.71513760e-02 -7.24049797e-03  1.10647224e-01
     9.55064744e-02 -2.05391467e-01  3.45705599e-01 -1.22104332e-01
    -5.11472747e-02  2.49055594e-01  3.07790071e-01 -7.18800202e-02
     2.28232630e-02  1.31087109e-01 -4.83364100e-03 -7.23227039e-02]]

  [[-5.29949041e-03  4.27739412e-01 -4.11475182e-01 -8.71731222e-01
    -5.34145162e-02 -8.99207592e-01  2.46504545e-01  8.38802084e-02
     5.57170987e-01  3.27952683e-01  2.01551944e-01 -1.59141019e-01
     3.38908821e-01  1.30788490e-01 -2.72945404e-01  5.53966165e-01]
   [ 2.03298002e-01  3.81489277e-01  3.30938660e-02 -9.22406688e-02
    -2.17849270e-01 -4.65136468e-01 -2.26273268e-01  2.25610271e-01
     4.53647017e-01  2.14458436e-01 -3.49727839e-01  2.85882086e-01
     9.05830786e-02  2.43115336e-01 -6.65903986e-01  5.80887437e-01]
   [ 1.73662797e-01 -6.89573213e-02 -1.33855760e-01  7.24960715e-02
    -7.38177896e-02 -1.36116445e-01  1.31440103e-01 -1.20915830e-01
    -2.32495934e-01  4.13263470e-01  3.13599497e-01 -2.96763897e-01
    -2.78734833e-01  1.39704168e-01  3.16918582e-01 -1.29500981e-02]
   [-9.75707591e-01  2.29797304e-01  1.91345990e-01 -5.28847193e-03
    -8.97514373e-02  7.34841645e-01  2.63584107e-01 -5.89416809e-02
    -6.91714659e-02  5.56796134e-01  3.11285332e-02  1.48781747e-01
     6.34187043e-01 -5.78943074e-01  5.06811738e-01 -3.89823794e-01]
   [-1.17196925e-01 -4.43297237e-01 -3.80073488e-01 -1.56570002e-01
     3.18267584e-01  2.05926001e-01 -1.06284130e+00  3.19586217e-01
    -1.19978476e+00  1.20272279e-01 -4.28386122e-01  1.41767204e-01
    -5.51359177e-01 -2.77679581e-02 -1.46886349e-01 -4.43963766e-01]
   [ 5.20389434e-03  6.25017583e-02 -1.65778339e-01 -1.83486030e-01
    -2.50906825e-01 -6.79359511e-02  3.43303889e-01 -2.36598402e-01
    -2.31900170e-01  2.01171368e-01  1.31612569e-01 -5.59511721e-01
    -1.20650202e-01 -4.02010195e-02  1.55680589e-02 -1.78988099e-01]]

  [[-8.72895643e-02 -3.35837245e-01 -6.05982602e-01 -1.02041721e+00
    -3.40243489e-01 -1.96340412e-01  1.30259944e-02 -2.53676206e-01
    -2.18587205e-01  3.10635477e-01  1.43355504e-01 -1.68417394e-01
    -1.03922851e-01 -1.85509205e-01 -2.42398337e-01  3.07453752e-01]
   [ 1.06792636e-02 -1.71174988e-01 -2.33008936e-02  1.95521444e-01
    -1.79346334e-02  3.31853284e-03 -5.24817050e-01  2.64268428e-01
    -5.17213225e-01  1.57038167e-01 -4.25590813e-01  4.35938269e-01
    -3.26978832e-01  1.46117583e-01 -3.54856014e-01  2.06318855e-01]
   [ 2.68729806e-01  1.43102586e-01 -1.81547195e-01 -6.97814301e-02
    -1.28581852e-01 -8.21786821e-02 -3.90119455e-03 -1.82697028e-01
    -1.90724343e-01  3.34082186e-01  3.39128673e-01 -6.00273669e-01
    -3.67320806e-01  1.46084443e-01  2.90535808e-01 -7.89785907e-02]
   [-1.07863557e+00 -5.43379597e-02  5.58615141e-02  8.59436095e-02
     1.76680461e-01  2.68659741e-01 -4.57911015e-01 -1.35374203e-01
    -3.36855918e-01  5.70778131e-01 -7.64896423e-02  3.26316088e-01
     8.83463547e-02 -3.41549456e-01  3.19209039e-01 -4.98567224e-01]
   [-4.61645424e-02  1.24645740e-01 -3.18299800e-01 -7.23384246e-02
     4.63639706e-01  4.07144725e-01 -2.87617266e-01  2.99521416e-01
    -3.62063557e-01 -1.36388138e-01 -4.68432277e-01  2.26335928e-01
    -3.92636240e-01 -9.11616981e-02 -2.13947698e-01 -8.83477271e-01]
   [ 1.03485353e-01  2.31661320e-01 -5.51057756e-02 -2.14187920e-01
    -3.40059012e-01 -8.19897056e-02  1.46431446e-01 -2.81821877e-01
    -6.84417710e-02  1.90934822e-01  2.59607315e-01 -9.57924545e-01
    -4.87101125e-03 -1.64815709e-02 -1.01103671e-01 -2.53128082e-01]]

  [[-3.05324104e-02 -1.98128611e-01 -4.58420426e-01 -7.07633078e-01
    -3.04390550e-01  2.76685655e-01 -4.62379873e-01 -2.61199147e-01
    -6.75550520e-01  8.56155455e-02  4.15452093e-01 -9.19103846e-02
    -1.47141337e-01 -3.94770592e-01 -1.39602914e-01  5.00267036e-02]
   [ 3.84247564e-02  3.97862308e-02 -1.63494200e-01  1.15316376e-01
     2.06235915e-01  3.89252633e-01 -7.06841826e-01  2.11458266e-01
    -1.16194880e+00  3.48788910e-02 -4.18967456e-01  3.02007645e-01
    -4.27214742e-01  1.18117332e-01 -2.68028229e-01 -2.44466767e-01]
   [ 2.57882595e-01 -1.73241626e-02 -2.06691459e-01 -9.83881280e-02
    -2.40550786e-01 -1.42168611e-01 -2.33951122e-01 -5.56525402e-02
    -1.39746502e-01  5.80251124e-03  3.29446942e-01 -5.00589430e-01
    -1.80267289e-01  2.89430004e-02  3.02954853e-01 -1.53620139e-01]
   [-8.70353758e-01 -2.06551880e-01  2.66991645e-01  4.04318422e-01
     1.56848326e-01 -1.95351064e-01 -1.08288646e+00 -3.46457630e-01
    -1.22944437e-01  2.34920859e-01 -8.89533311e-02  1.94936901e-01
     1.33338854e-01 -1.74586803e-01  3.92653674e-01 -4.26645815e-01]
   [ 2.47473619e-03 -1.18047101e-02 -2.33830854e-01 -1.09441124e-01
     3.94344896e-01  7.79900029e-02  2.59091407e-02  4.01798666e-01
     7.62322187e-01 -6.97399527e-02 -1.54826745e-01  1.36500061e-01
    -1.53004900e-01 -8.75405222e-02 -8.50483552e-02 -5.04967868e-01]
   [ 1.66417301e-01  1.15381330e-01 -1.07556798e-01 -1.36693329e-01
    -6.20502651e-01 -1.99254617e-01 -1.54322997e-01 -3.41647327e-01
     2.97877137e-02 -2.44557541e-02  2.77712643e-01 -6.89621687e-01
    -7.30633512e-02 -8.41850936e-02 -1.12260468e-01 -1.78752288e-01]]

  [[ 9.14859474e-02  5.31106554e-02 -4.91739959e-01 -8.61738503e-01
    -1.79618403e-01  7.19653010e-01 -5.00955820e-01  7.15654865e-02
     8.39871228e-01  1.55727133e-01  2.39065662e-01  5.02014793e-02
     2.30678454e-01 -3.81310135e-01  1.39770582e-01 -2.09535375e-01]
   [-4.24223766e-02 -1.17333606e-02 -2.59591401e-01 -4.43643518e-03
     6.14280589e-02  3.73754472e-01 -1.74348012e-01  2.03254431e-01
     1.24856152e-01  1.38903737e-01 -6.59588635e-01  1.12557434e-01
    -1.60595194e-01  2.57471859e-01 -9.75076780e-02 -5.08842826e-01]
   [ 3.22398841e-01  1.07858315e-01 -2.27296948e-01 -5.26384711e-02
    -8.50939006e-02 -1.13850892e-01 -2.20997542e-01 -8.86442438e-02
     1.12888895e-01 -1.91792846e-01  5.22620976e-01  4.04014066e-02
    -2.60222942e-01  8.69946629e-02  3.37588161e-01 -2.88173467e-01]
   [-1.19362366e+00 -3.22214812e-01  4.67577010e-01  2.66887426e-01
     6.57371283e-02 -7.83808827e-02 -3.12509120e-01 -1.27610251e-01
     1.62058324e-01 -1.66971624e-01 -1.65078342e-01  1.25918329e-01
    -1.85997978e-01 -1.75905824e-01  4.39174771e-01 -4.61664438e-01]
   [ 1.59708902e-01 -1.65627360e-01 -1.65099278e-01 -2.90763974e-01
     4.59639758e-01 -2.65669048e-01  1.35044679e-02  4.05123711e-01
     3.29565704e-01 -4.75304455e-01 -1.43819496e-01  1.42068207e-01
    -1.81365609e-01 -3.20384353e-01 -2.28552014e-01 -1.31721094e-01]
   [ 2.37925619e-01  1.84700023e-02  6.02764711e-02 -1.14090227e-01
    -5.21684945e-01 -1.65723190e-01 -3.34394604e-01 -2.37002164e-01
    -1.62779704e-01 -4.79137987e-01  4.54443514e-01 -6.42013699e-02
    -5.48880398e-02 -1.77480876e-01 -1.26018807e-01 -1.00299112e-01]]]


 [[[-3.96142125e-01 -6.16358399e-01 -2.83024639e-01 -1.28232136e-01
     2.45334670e-01 -5.56944907e-01  9.85706821e-02 -8.18292331e-03
    -1.48055241e-01  2.14213476e-01  2.41448373e-01 -7.40513355e-02
    -2.91268706e-01  5.14120422e-02 -1.49888769e-01  5.76968729e-01]
   [ 2.02797040e-01  2.32665136e-01  3.96285295e-01 -8.66137818e-02
    -3.41849476e-01 -5.27588546e-01  1.89494655e-01  1.74083322e-01
     3.28188181e-01  1.51869357e-01 -5.02822340e-01 -5.74305467e-02
    -3.72542232e-01  1.81257159e-01 -3.98665518e-01  4.78438020e-01]
   [ 1.06854349e-01 -8.08533952e-02 -1.52052343e-01  1.43742099e-01
     2.91062087e-01 -3.03729296e-01  2.48618782e-01 -1.24096602e-01
    -5.83221167e-02  2.45863691e-01  3.20732594e-01  3.13634604e-01
    -4.47249748e-02  6.55504048e-01  2.66402692e-01  2.15451494e-01]
   [-2.87182003e-01  1.77907720e-01  9.33794320e-01 -2.55758166e-01
     4.26235609e-02  6.62378490e-01  7.08662793e-02 -3.82960737e-02
    -8.81160274e-02  6.13023221e-01 -2.24381149e-01 -3.18403095e-01
     4.34740558e-02 -3.31324279e-01  4.40798551e-01 -2.85156310e-01]
   [ 1.95219703e-02  3.07983011e-01 -1.41314119e-01 -5.30689716e-01
     7.31223822e-03 -2.73707867e-01  9.54967290e-02  1.88196152e-01
     3.47452253e-01 -7.17919096e-02 -3.80292028e-01 -9.61685553e-03
     8.43919337e-01  1.59473002e-01  1.49959013e-01  1.49553150e-01]
   [-2.35873908e-01 -3.71829420e-02 -7.11952895e-02  4.37520668e-02
     2.67496347e-01  2.37915702e-02  3.73633802e-01 -1.39589950e-01
    -7.86385089e-02  6.87490497e-03  1.45798162e-01  2.70678669e-01
     9.96196195e-02  2.11571813e-01 -5.47488444e-02 -6.07866496e-02]]

  [[-2.62608409e-01  5.50451800e-02 -2.91215748e-01 -5.01463771e-01
     6.36193752e-02  1.85027942e-01  4.05650139e-01 -1.09623194e-01
     4.84084040e-01 -1.29163682e-01  1.91400915e-01 -1.33145258e-01
     4.98644769e-01  2.06754776e-03 -3.03846031e-01  3.64161849e-01]
   [ 1.94411471e-01  2.41601557e-01  2.75283843e-01  5.48644811e-02
    -2.64173150e-01 -1.78017408e-01  9.86679494e-02  2.72741586e-01
     5.09310603e-01 -2.96587148e-03 -5.10109127e-01 -6.33151755e-02
     4.99039516e-02  2.69951850e-01 -2.45755240e-01  2.78183103e-01]
   [ 2.51691312e-01  7.69099072e-02 -1.29800498e-01 -2.29330454e-02
     7.51843825e-02 -1.25705644e-01  1.14163324e-01 -2.76508063e-01
    -6.29158039e-03  1.04691684e-01  1.72222167e-01  2.81095028e-01
     3.21861021e-02  4.14959311e-01  2.73577303e-01 -1.67060003e-01]
   [-5.24200737e-01  4.79212224e-01  7.86920369e-01 -6.19730949e-02
     2.99540479e-02  2.87945926e-01  7.79144317e-02 -1.11330919e-01
    -1.51530668e-01  6.35382652e-01 -3.21599722e-01 -1.69776320e-01
     5.19062340e-01 -5.77459097e-01  3.85976613e-01 -4.16874111e-01]
   [-1.28993645e-01 -2.57079184e-01 -5.24409972e-02 -3.04364234e-01
     1.05240032e-01 -2.82643676e-01 -3.99987787e-01  2.56301701e-01
    -6.96482897e-01 -2.30337635e-01 -3.98248971e-01  2.03627162e-02
    -3.68440598e-01  1.48983106e-01  9.52802375e-02 -3.38382453e-01]
   [ 1.66003071e-02  5.98928779e-02 -1.75236678e-03 -2.23641083e-01
    -2.58301361e-03 -1.09367035e-01  2.98095196e-01 -1.30244359e-01
    -6.56933486e-02  7.52069429e-02  1.05527073e-01 -6.61128312e-02
     1.21113323e-01  1.45397395e-01 -1.41640767e-01 -2.36430436e-01]]

  [[-9.97113064e-02 -5.34939289e-01 -4.27514464e-01 -6.11997426e-01
     2.13081408e-02  2.57783622e-01  4.91923869e-01 -2.09926367e-01
     5.24096042e-02 -4.90808822e-02  1.51705846e-01 -1.42994165e-01
     2.95280129e-01 -3.76670331e-01 -3.40928644e-01  8.38874802e-02]
   [ 6.93084821e-02 -6.24537878e-02  2.44718045e-01  1.40541106e-01
     3.27157937e-02 -9.88828763e-02 -1.34414926e-01  2.31817693e-01
    -3.61447901e-01 -7.05039501e-02 -5.08431554e-01  5.86659797e-02
    -2.22276300e-01  2.42949337e-01  6.24224916e-02  4.14857343e-02]
   [ 3.25404078e-01  2.12491706e-01 -2.10671067e-01 -1.30560338e-01
    -1.35868073e-01 -3.54825824e-01 -6.56187236e-02 -3.70075792e-01
    -1.48926347e-01  7.97850341e-02  3.71589363e-01  1.34926900e-01
     1.03931032e-01  2.55201966e-01  6.90814666e-03 -1.86550111e-01]
   [-6.62440300e-01  4.96227205e-01  6.71405196e-01  1.29219238e-02
    -1.98705774e-02 -5.39456189e-01 -1.07944272e-01 -1.25113875e-01
    -1.92160398e-01  5.66075504e-01 -2.80632645e-01 -2.34319672e-01
     6.13684893e-01 -4.47102487e-01  4.44031030e-01 -3.30250084e-01]
   [-7.69058242e-02  1.26861059e-03 -1.17167711e-01  7.94862211e-03
     1.31148204e-01 -2.92365283e-01 -7.89309025e-01  3.13601971e-01
    -1.34616494e-01 -3.50836575e-01 -4.14864957e-01  5.37178293e-02
    -2.66199231e-01  2.24888459e-01 -3.08851097e-02 -5.73654652e-01]
   [ 8.79262909e-02  3.20056587e-01 -3.27053964e-02 -2.70162284e-01
    -3.26913178e-01 -2.16544226e-01  2.73045421e-01 -2.08209366e-01
    -3.12947594e-02  2.71994881e-02  2.23152444e-01 -1.72382921e-01
     2.36645982e-01 -5.79861589e-02 -3.66473645e-01 -1.05211467e-01]]

  [[-3.51539254e-01 -2.55245328e-01 -2.57257432e-01 -8.28872800e-01
     7.49715418e-02 -5.51074371e-03  2.13558957e-01 -5.73427379e-02
    -3.44163924e-01 -2.17947409e-01  2.13257000e-01 -2.74712909e-02
     3.01871598e-01 -4.11148340e-01 -1.84430137e-01  1.51783988e-01]
   [ 1.14562288e-01  1.00378267e-01  2.06019595e-01 -2.60110274e-02
     6.90096095e-02 -9.67822745e-02 -3.66910398e-01  2.77581334e-01
    -7.93858886e-01 -9.09097418e-02 -5.78970850e-01 -4.21124212e-02
    -9.64001492e-02  3.76971573e-01  6.49358854e-02 -3.79507422e-01]
   [ 2.15495959e-01  1.42142206e-01 -1.96143493e-01 -7.04374462e-02
    -3.37463468e-01 -3.09942096e-01 -3.02571487e-02 -2.40223914e-01
    -5.69699556e-02 -2.29814470e-01  2.43865684e-01  2.01747462e-01
     3.71046439e-02  2.50672251e-01  1.24309793e-01 -2.93049097e-01]
   [-5.31868279e-01  4.78684932e-01  4.91993755e-01 -4.58192751e-02
    -1.31431026e-02 -6.67201936e-01 -2.45401561e-01 -2.18599364e-01
    -2.34266952e-01  5.60673550e-02 -4.21600491e-01 -1.38484582e-01
     5.09646595e-01 -1.40006602e-01  2.08637223e-01 -3.18160832e-01]
   [ 7.17248246e-02 -1.13695554e-01 -8.98658559e-02  2.57826336e-02
     2.77272910e-01 -3.02455481e-02 -3.85727793e-01  2.82439530e-01
     6.57438278e-01 -2.63483226e-01 -3.12409818e-01  6.70432672e-02
    -2.59964705e-01  2.50342131e-01  6.15656152e-02 -4.16019887e-01]
   [ 2.87696987e-01  2.25891382e-01 -9.03527066e-02 -2.68113941e-01
    -4.81607467e-01 -1.36286914e-01  1.09950736e-01 -2.54464239e-01
     1.61244068e-02 -1.62075534e-01  1.80726111e-01 -5.99273033e-02
     7.38501176e-02 -9.05010998e-02 -3.91098171e-01  5.72712068e-03]]

  [[-2.45891392e-01 -1.93754226e-01 -2.19228849e-01 -8.11114132e-01
     2.35132128e-02 -1.84623569e-01 -3.95109296e-01 -7.30647519e-02
     8.23285282e-01 -1.19132936e-01  2.42136940e-01  1.33150488e-01
     3.91548693e-01 -2.94161767e-01 -1.79914981e-02 -1.82985693e-01]
   [ 1.04119755e-01  9.62533057e-03  1.69056669e-01  9.32469442e-02
     1.29985496e-01 -2.07319349e-01 -4.16466802e-01  4.26759571e-01
     9.42099839e-02 -3.35939825e-02 -5.71748376e-01 -8.75664875e-02
     4.08855453e-02  4.25605237e-01  7.50640631e-02 -3.28768462e-01]
   [ 3.19191158e-01 -1.56851287e-03 -3.20050746e-01 -1.31756827e-01
    -2.41330802e-01 -1.41892329e-01 -1.58043250e-01 -2.40435123e-01
    -2.10400056e-02 -5.01946390e-01  3.40696245e-01  2.28684619e-01
     2.22199839e-02  1.11539979e-02  3.31687704e-02 -2.09113762e-01]
   [-3.38032395e-01  2.61561096e-01  5.03393054e-01 -1.77652836e-01
    -9.89805609e-02  1.74814984e-01 -4.86193419e-01 -1.23473227e-01
    -1.14973150e-01 -2.01779649e-01 -3.11090976e-01 -2.41757706e-02
     1.07139759e-01 -4.89426076e-01  1.48709223e-01 -6.40171349e-01]
   [ 1.67117774e-01 -2.14970723e-01 -1.24018006e-01 -2.93870240e-01
     3.50884736e-01 -1.71660334e-02  5.52209504e-02  4.65944290e-01
     6.84890866e-01 -5.88932276e-01  6.61191856e-03 -9.71463025e-02
    -5.12835503e-01 -3.44126344e-01 -5.78059666e-02 -4.25092690e-02]
   [ 3.07028174e-01  2.34729737e-01 -1.39212295e-01 -1.56870380e-01
    -6.16487384e-01 -2.88141537e-02 -1.18460447e-01 -2.34759018e-01
     1.68207418e-02 -4.51018870e-01  2.78466582e-01  2.44937137e-01
     3.76808867e-02 -2.96180636e-01 -3.90265256e-01 -6.56596944e-02]]]


 [[[-4.27918524e-01 -1.18843102e+00 -4.72087711e-01 -3.74513380e-02
     3.92607898e-01 -4.21913087e-01  4.05885512e-03 -1.49053246e-01
     4.50274050e-02 -7.83872485e-01  1.01964757e-01  1.66766524e-01
    -5.95944762e-01  4.08563353e-02 -9.82259065e-02  5.88568091e-01]
   [ 4.77077693e-01  3.62528771e-01  2.89548576e-01 -1.20882757e-01
    -3.27422112e-01 -6.42537832e-01 -1.27970263e-01  3.84882651e-02
     5.80911338e-01 -2.52257615e-01 -8.29455554e-01 -3.76067549e-01
    -6.69507444e-01  5.78917265e-01 -5.44323623e-01  3.62830937e-01]
   [ 7.25959335e-03 -6.73007742e-02 -1.03254929e-01  2.62201458e-01
     1.44725025e-01 -3.99197370e-01  3.27547580e-01 -8.10007006e-02
    -1.22004338e-01 -3.84950459e-01  6.08979985e-02  4.55988854e-01
     3.27803671e-01  8.18976462e-01  1.66089863e-01  2.13694200e-01]
   [-2.08038792e-01 -5.51565170e-01  8.31574798e-01 -6.13177598e-01
    -2.76532006e-02 -2.40747053e-02 -3.83119822e-01 -1.77814767e-01
    -4.85475957e-01 -1.48574483e+00 -1.57785267e-01 -3.18404168e-01
    -5.05143404e-01 -5.60518354e-03  3.38931978e-01 -4.11422908e-01]
   [-5.75403571e-02  5.65187335e-01  1.72777474e-01 -6.48198605e-01
     1.30604789e-01 -4.34772521e-01  2.50942677e-01  1.35913730e-01
     3.61166269e-01 -7.50594735e-01 -2.75313050e-01 -1.66220382e-01
     4.70088720e-01  7.43531823e-01  2.64251202e-01  1.68003350e-01]
   [-1.55508906e-01 -4.63933945e-01 -2.57720016e-02  9.18234214e-02
     1.97226435e-01 -2.97102332e-01  2.85306633e-01 -1.90970972e-01
    -2.11453810e-01 -4.08485264e-01  3.07194948e-01  5.66539049e-01
     2.83600330e-01  2.86433935e-01 -3.34479176e-02 -6.37568757e-02]]

  [[-6.13556385e-01 -3.48173112e-01 -4.51606542e-01 -3.64164673e-02
     2.08661377e-01  2.21006334e-01  3.17821920e-01 -3.10245335e-01
     4.22681719e-01 -1.23526013e+00 -9.23715010e-02  2.08828285e-01
     3.61545652e-01 -2.14591082e-02 -1.60634294e-01  3.05581748e-01]
   [ 3.11507314e-01  5.94775915e-01  3.51197928e-01 -3.60414013e-02
    -3.35317314e-01 -2.97189832e-01 -3.27439792e-02  3.19523294e-03
     3.88713211e-01 -4.95378196e-01 -7.77304530e-01 -2.23662838e-01
    -1.36381686e-01  6.97525620e-01 -2.62231410e-01  2.27625921e-01]
   [ 1.63817689e-01 -2.25627255e-02 -3.02792173e-02  7.27859139e-02
    -6.22995272e-02 -3.25589120e-01  2.12347254e-01 -9.81996953e-02
    -1.41740456e-01 -2.90772468e-01  6.45947754e-02  5.40152073e-01
     3.84230196e-01  5.61249554e-01  2.14905441e-01 -5.93774617e-02]
   [-2.14412361e-01 -7.69361377e-01  7.58190513e-01 -2.69058228e-01
     4.48229117e-03 -3.16895932e-01 -3.08782190e-01 -7.86773860e-02
    -5.16217232e-01 -1.47079766e+00 -1.20566145e-03 -2.71132886e-01
    -2.33744979e-01 -3.52763206e-01  3.26756418e-01 -5.66038728e-01]
   [ 1.69877276e-01  1.31714594e-04  4.75678919e-03 -3.29295456e-01
     1.83919266e-01 -7.04983532e-01 -5.40864747e-03  3.53351861e-01
    -3.34314436e-01 -7.13178694e-01 -1.86713606e-01 -1.60723105e-01
    -2.57239997e-01  5.84702492e-01  4.16238606e-01 -1.44106343e-01]
   [-4.81477939e-02 -2.03836799e-01  2.19316483e-02  2.94393096e-02
    -4.72718962e-02 -1.94057718e-01  2.24023402e-01 -3.55559826e-01
    -1.78947657e-01 -3.29078734e-01  1.50803745e-01  5.01494408e-01
     6.11542091e-02  1.80040494e-01 -2.24319890e-01 -4.20209914e-02]]

  [[-7.27310061e-01 -8.75354469e-01 -3.42221558e-01 -2.75048792e-01
     4.31418896e-01  3.34736794e-01  6.43155754e-01 -1.77105322e-01
    -8.18775035e-03 -9.26761568e-01  2.86879897e-01  1.40536159e-01
    -8.07553679e-02 -2.61316717e-01 -4.13892269e-02  3.19027960e-01]
   [ 3.11096460e-01  2.15422139e-01  3.58809352e-01  5.63478703e-03
    -1.33278370e-01 -2.63991684e-01  5.27591147e-02  1.66748270e-01
    -5.76726161e-02 -5.51305771e-01 -5.80057740e-01 -2.34579101e-01
    -3.65544349e-01  7.59320915e-01  1.98031053e-01 -4.81052138e-02]
   [ 1.46158963e-01  3.12552392e-01 -2.45702788e-01  2.75052302e-02
    -1.80524588e-01 -3.39293957e-01  1.39977172e-01 -3.26892227e-01
    -9.31961387e-02 -3.22964430e-01  5.70789613e-02  3.39538932e-01
     2.27869689e-01  5.09804845e-01  2.35563621e-01 -8.26952234e-02]
   [-7.03128346e-04 -6.91642404e-01  7.97045767e-01  7.06495419e-02
    -1.60594955e-01 -1.06148385e-01 -3.82608026e-01  1.38233826e-01
    -2.55136371e-01 -1.34372592e+00  1.99479014e-01 -3.05440664e-01
    -1.06917605e-01 -4.76736903e-01  2.36999825e-01 -4.26140338e-01]
   [ 1.38817281e-01  1.33245185e-01 -1.11197203e-01 -4.87052426e-02
    -1.02900900e-02 -5.52885473e-01 -1.22227818e-01  2.69667387e-01
     1.49316899e-02 -8.19735527e-01 -2.66541988e-02 -2.18047529e-01
    -6.13765270e-02  4.01882142e-01  7.58204833e-02 -1.32846028e-01]
   [ 2.34590039e-01 -9.03319567e-02  2.03656871e-02  3.38253714e-02
    -3.65580410e-01 -1.42773688e-01  1.31043032e-01 -3.60745549e-01
     6.41898960e-02 -2.79975861e-01  8.22726935e-02  5.06060123e-01
     3.29002738e-01 -2.91246753e-02 -4.31142479e-01 -1.14313111e-01]]

  [[-3.74655366e-01 -6.29355371e-01 -3.20427030e-01 -3.84046882e-01
     4.53078806e-01 -1.54758677e-01  5.60243309e-01 -4.98895682e-02
     7.64985234e-02 -9.75784063e-01  3.31095457e-01  2.70952404e-01
     1.87006578e-01 -4.92776424e-01  6.77286461e-02  3.81313384e-01]
   [ 1.28386334e-01  3.78628492e-01  2.94930667e-01  5.51231485e-03
     7.41966665e-02 -6.17627144e-01 -2.61610270e-01  2.33435795e-01
    -3.85391325e-01 -5.34006536e-01 -5.09888530e-01 -3.74772370e-01
    -4.49995279e-01  6.74671948e-01  2.56578505e-01 -1.46701649e-01]
   [ 2.98772961e-01  1.31358430e-01 -3.05265367e-01 -1.04614962e-02
    -2.08844185e-01 -1.73850760e-01 -1.66596144e-01 -3.00561428e-01
     7.67354481e-03 -5.00316501e-01 -2.10626218e-02  3.92539144e-01
     3.12329024e-01  3.22712451e-01  2.84217410e-02 -3.89332175e-02]
   [ 3.09936762e-01 -6.02257967e-01  7.10024953e-01 -2.33504437e-02
    -1.87110454e-01 -2.85283476e-01 -5.59719540e-02 -1.04201838e-01
    -5.69788694e-01 -1.33882797e+00  2.49720544e-01 -2.60660112e-01
     3.42678666e-01 -9.45835531e-01 -3.48446779e-02 -4.51268911e-01]
   [ 2.65555352e-01  9.79665518e-02 -1.93368658e-01 -1.26997128e-01
     1.80915147e-01 -2.93795556e-01 -1.33026183e-01  5.95296435e-02
     6.09477818e-01 -1.00009620e+00 -3.08034122e-01 -2.34450221e-01
     1.43758953e-03  5.03918111e-01  1.59795862e-02 -2.98042238e-01]
   [ 2.93509096e-01  3.04265227e-02 -6.07869215e-02 -1.49264589e-01
    -5.11405826e-01 -8.04488137e-02  2.56313264e-01 -3.11256170e-01
     7.50233233e-02 -4.44049060e-01  3.00507575e-01  5.79535902e-01
     3.93003076e-01 -1.33010417e-01 -5.40021062e-01  1.39136193e-03]]

  [[-2.77263492e-01 -4.89557564e-01 -2.48896271e-01 -5.43632925e-01
     2.52853841e-01 -5.38005233e-01  2.45737627e-01 -5.76595888e-02
     7.39914238e-01 -1.17305803e+00  4.05917615e-01  4.05055612e-01
     4.65285093e-01 -4.09637362e-01  1.14432901e-01  1.07670642e-01]
   [ 2.16511831e-01  3.45166683e-01  2.20834836e-01 -1.65995404e-01
    -3.29343341e-02 -5.35927892e-01 -1.76598981e-01  3.42982858e-01
     8.03123415e-02 -5.84306896e-01 -4.47021902e-01 -3.48547697e-01
    -3.50361131e-02  8.22816432e-01  2.21337989e-01 -2.59158731e-01]
   [ 2.90013909e-01  1.41223133e-01 -3.91867727e-01 -1.78049713e-01
    -4.19540793e-01 -1.90685511e-01 -1.06019288e-01 -2.73279399e-01
     6.76326305e-02 -7.88404703e-01  1.36119768e-01  4.76738989e-01
     2.22788766e-01  6.38120845e-02  8.22674409e-02 -5.65811619e-02]
   [ 1.38350621e-01 -7.03360021e-01  4.36263502e-01  2.10668370e-01
    -6.40598163e-02 -3.05925369e-01 -8.75587091e-02 -1.53007805e-01
    -5.84760427e-01 -1.55190957e+00  6.53939024e-02 -2.45018855e-01
     3.11194062e-01 -9.13248956e-01 -3.56566936e-01 -6.69378221e-01]
   [ 3.03012282e-01 -6.71727164e-03 -1.85506761e-01 -2.76924491e-01
     4.35576558e-01  7.48396963e-02 -1.81698188e-01  2.02449992e-01
     8.61083210e-01 -9.63353634e-01 -3.12195718e-01 -2.36940712e-01
    -5.09438276e-01  3.63938101e-02 -3.65337133e-02 -1.67915359e-01]
   [ 3.31028283e-01 -1.25534847e-01 -1.02713726e-01 -2.14810856e-03
    -5.67488730e-01 -5.63581586e-02  1.86241083e-02 -2.85748243e-01
    -5.83235659e-02 -7.72121191e-01  2.26078331e-01  6.20023847e-01
     3.28530729e-01 -3.83111238e-01 -6.30364776e-01  8.71393830e-02]]]]
le_net/conv2d_1/bias:0
(16,)
[ 0.2669009   0.33391827 -0.1996931   0.05346048 -0.36487943 -0.48736584
  0.46952143 -0.3695609  -0.16854319 -0.4498081  -0.22828354 -0.1254079
 -0.29472923  0.38313863 -0.32991278  0.23567332]
le_net/dense/kernel:0
(400, 120)
[[-2.97770947e-01  9.04698148e-02  1.97020859e-01  5.77517986e-01
  -1.15825385e-02 -7.08175421e-01 -3.10803503e-01 -3.84746432e-01
  -2.02457681e-01 -2.87930310e-01 -2.10285708e-02 -4.95692462e-01
  -4.63438898e-01  1.97107866e-01  3.48134845e-01  4.99073952e-01
  -7.94511288e-02  2.44939893e-01  8.56700689e-02 -1.94766253e-01
  -1.14584818e-01  7.13985920e-01 -5.26730120e-01 -6.66942835e-01
  -5.04877716e-02 -2.01523349e-01  4.13506240e-01  4.49360251e-01
   6.74605608e-01 -4.69356835e-01 -3.35094929e-01  4.10189666e-02
  -9.80485141e-01  3.39088917e-01 -5.41367903e-02 -5.16288221e-01
  -1.19474120e-01 -6.94214106e-01 -2.34181061e-02 -3.38302195e-01
   2.40997672e-01  3.33273292e-01  4.43329215e-01 -6.36629462e-01
  -5.52160680e-01  1.71589017e-01 -2.82377869e-01  2.09123582e-01
  -1.88315526e-01 -1.95547938e-01 -1.36347950e-01  8.82925913e-02
  -2.22345114e-01  1.59097672e-01 -2.81562675e-02 -2.59907037e-01
  -3.49838436e-01  2.03542069e-01  1.17451280e-01 -1.67734951e-01
  -2.34428123e-01 -1.24355525e-01 -7.03172266e-01 -4.61415499e-01
  -1.97384760e-01 -1.89286590e-01  2.79643655e-01 -7.83938020e-02
   3.69951934e-01  3.05446386e-01 -2.43472293e-01 -5.27632609e-02
  -4.60379273e-02  2.58581251e-01 -3.97696227e-01 -3.49924058e-01
   1.48460671e-01  2.88305938e-01 -1.44033417e-01 -5.40835857e-01
  -3.05964708e-01 -2.43097171e-01 -2.04179108e-01 -7.37409532e-01
   4.86062706e-01  2.35670656e-01 -6.66343942e-02  3.16692770e-01
  -7.03899086e-01 -4.07786369e-02 -7.64232920e-03  9.48472545e-02
  -3.08502704e-01  6.68759793e-02 -4.60682243e-01  1.66286990e-01
   4.19986695e-01  2.69271374e-01 -2.37356424e-01  3.97812009e-01
  -5.46064116e-02 -1.40560687e-01 -1.41932651e-01 -1.22309569e-02
   1.47438660e-01 -5.60851619e-02  1.07118182e-01 -8.36953163e-01
   1.17247060e-01 -1.00986093e-01  5.62030613e-01 -1.20564282e-01
   5.80943286e-01 -4.91306186e-01 -3.53673011e-01 -1.52564108e-01
   3.28812897e-02 -9.27271619e-02  3.50757331e-01  1.68594047e-01]
 [ 4.25979137e-01 -1.09909698e-01 -1.91703647e-01  4.89855826e-01
  -8.23503956e-02 -3.34178954e-01 -1.98474243e-01 -6.88611269e-01
  -2.94582188e-01 -3.04497927e-01  3.29317749e-01 -2.43254408e-01
  -5.01390934e-01  3.50101531e-01  2.70766020e-01  6.95143282e-01
  -6.55852035e-02  2.45255500e-01  2.47744054e-01  1.13062732e-01
  -4.53990102e-01 -7.54562020e-02 -3.21622938e-01 -1.43220708e-01
   1.92450419e-01 -1.65111586e-01  4.96980757e-01  9.64748263e-02
   2.86386281e-01 -8.12461436e-01 -3.99773121e-01  4.71616268e-01
  -2.50205725e-01  9.41718891e-02 -2.71443516e-01 -2.00964212e-01
   3.34071487e-01 -3.75855923e-01 -4.38105345e-01  1.38360411e-01
   3.73232991e-01  3.47554177e-01  3.64740193e-01 -9.54763517e-02
  -1.40798688e-01  3.46064448e-01 -1.91710547e-01  4.29033428e-01
   1.06769033e-01  1.48194119e-01  1.36529887e-02  7.97232836e-02
  -5.26688434e-02  3.26672792e-01 -1.60977691e-02  7.23189339e-02
  -4.24824685e-01 -3.11977535e-01  1.22319683e-01  2.47107949e-02
  -1.36649936e-01  4.30374473e-01 -3.47165734e-01  2.43291110e-01
   5.05664460e-02 -1.13793388e-01  1.22661985e-01 -2.66521305e-01
   1.08437583e-01 -7.25220367e-02  1.39524683e-01  1.50821850e-01
   1.29729658e-02 -4.24611300e-01 -3.83622736e-01  7.40343332e-02
   5.60194910e-01  3.66554648e-01 -9.32116330e-01 -8.62911195e-02
  -1.32104203e-01  5.38665950e-01  6.50845170e-02 -1.65607333e-01
   3.28733891e-01  4.79294322e-02 -3.85244608e-01  1.54642597e-01
  -6.81392908e-01  3.20795417e-01  1.59990743e-01 -1.71986699e-01
  -2.90239632e-01  1.54339015e-01 -3.13783407e-01 -4.21097338e-01
   2.42092639e-01  1.29686609e-01 -8.78585204e-02  5.90285696e-02
   1.00769922e-01  5.10233462e-01  7.05921173e-01 -9.29451585e-02
  -7.31910765e-02  3.92407864e-01 -1.18286714e-01  6.35100424e-01
   1.33848786e-01 -2.99217217e-02  2.89813392e-02  3.35768223e-01
   1.90106735e-01  2.53684130e-02 -2.12141816e-02 -2.55067080e-01
   3.25212806e-01 -9.62478854e-03 -2.19885349e-01 -1.81940570e-01]
 [ 5.98371327e-01  2.15200081e-01 -2.19814762e-01 -3.57484847e-01
  -7.46341765e-01  2.38478288e-01 -4.10834998e-01  3.28515202e-01
  -1.32858709e-01  1.19584374e-01 -5.24660908e-02  2.01246053e-01
   3.44875991e-01  3.01286727e-01 -2.04641968e-01 -9.24482048e-02
   4.97187555e-01 -6.41233623e-01 -5.36739349e-01  1.83409736e-01
  -5.44150770e-01  4.43062596e-02 -2.71352708e-01 -2.18119413e-01
   2.30607927e-01 -6.56345665e-01 -4.34901744e-01 -1.40446335e-01
  -4.05366905e-02  8.05798590e-01  2.60920435e-01 -5.63149005e-02
  -3.31980050e-01 -5.19499741e-02  3.41836251e-02  4.64987904e-01
   4.95238155e-02 -2.11759180e-01 -2.35818058e-01 -7.03966081e-01
  -1.43890232e-01 -5.59819877e-01 -3.07196472e-02  6.76141754e-02
  -3.62645000e-01 -9.32628140e-02  5.04719257e-01  4.16290797e-02
   3.30298841e-01  2.86668569e-01 -1.17119871e-01 -3.90312254e-01
   1.25051916e-01 -2.84154445e-01 -4.61943060e-01  6.48555830e-02
   1.10679686e-01 -3.93429756e-01 -1.04661472e-02  3.87561053e-01
  -6.07814193e-01 -1.10493131e-01 -8.87171566e-01  3.13179335e-05
   1.34835079e-01  2.43131354e-01 -1.55095860e-01 -3.77300173e-01
  -9.52093899e-02 -2.82519132e-01  4.21012715e-02 -5.15455753e-03
   1.27835870e-01 -1.89388260e-01  2.72765011e-01  1.56444296e-01
  -4.52287704e-01 -5.54255210e-02 -2.29934722e-01  3.69732589e-01
   7.23345578e-02  7.08334371e-02 -1.74217716e-01 -5.75160384e-01
  -4.95451503e-03  2.04676315e-01 -6.32243216e-01  6.75362954e-03
   1.56139195e-01 -7.01069534e-02  5.91029704e-01  2.67790526e-01
   4.27308269e-02  2.74467081e-01 -6.65835813e-02  3.93332422e-01
  -2.54562557e-01  7.03692958e-02  5.98678648e-01  2.20159963e-01
  -7.07913563e-03  7.49165356e-01  4.19606000e-01 -2.77506769e-01
   1.45334944e-01  5.04010431e-02  9.64773670e-02  6.29765749e-01
  -2.01205522e-01  2.90425271e-01  5.76849207e-02 -1.62890196e-01
  -1.03694662e-01  5.47039270e-01  5.14703572e-01 -8.40547234e-02
   4.02309924e-01 -1.34121820e-01  2.10549273e-02 -4.13630664e-01]
 [ 4.47377533e-01  1.04386009e-01  2.50734031e-01 -6.35144830e-01
  -1.15726686e+00  2.39622653e-01 -2.88857639e-01  1.83254004e-01
   4.85217758e-02  2.66603500e-01 -7.78346434e-02 -3.56885139e-04
   1.64759681e-01 -2.84115314e-01 -3.14314812e-02 -3.13771665e-01
  -1.77634686e-01 -6.61133751e-02 -6.21039271e-01  5.78349292e-01
   8.90779588e-03 -2.07279980e-01 -1.26470849e-02 -3.40484977e-01
  -1.66092440e-01 -3.08362901e-01 -2.50461519e-01  7.18783811e-02
  -4.79598254e-01  2.17754677e-01  4.40632343e-01  2.90265754e-02
  -3.61406982e-01  1.34216532e-01  1.21063329e-01 -9.30908173e-02
  -1.07794082e+00 -2.76633888e-01  4.06417809e-02  4.57283616e-01
  -4.16089982e-01  1.31369889e-01 -5.34111202e-01  1.67200059e-01
  -4.99100894e-01 -4.04246934e-02  3.13894361e-01 -3.86439681e-01
  -3.12941633e-02 -2.92139262e-01 -7.46581495e-01 -7.59138227e-01
  -6.76807687e-02 -3.18578780e-01 -2.02173993e-01  3.46526623e-01
   1.55747741e-01  6.38645589e-01 -2.17143953e-01 -1.00473739e-01
  -6.04150593e-02  2.45923605e-02 -1.99713504e+00  4.01535667e-02
  -1.20292917e-01  2.01834440e-01  1.03244945e-01  3.32033426e-01
   5.09818375e-01  1.14228308e-01 -2.29325563e-01  1.08450666e-01
   4.09521699e-01  1.22850277e-01  7.12926924e-01  7.18771100e-01
   1.05017193e-01 -1.40371054e-01 -1.67154260e-02  3.40901524e-01
  -4.92118925e-01  1.59473360e-01  1.10177673e-01  2.56878018e-01
  -3.11390162e-01  6.72188550e-02 -2.79601455e-01 -1.74682960e-01
   6.13994122e-01  3.41438472e-01  1.34210974e-01  1.58961105e+00
   2.33961329e-01  6.25270754e-02 -8.28853399e-02 -8.56218711e-02
   1.44445956e-01  6.11392446e-02  4.99826014e-01 -7.39655197e-01
  -1.33009434e-01  2.95773029e-01  4.69450921e-01 -5.55717409e-01
  -1.99613765e-01 -2.45476127e-01  6.30515218e-01  1.03403735e+00
  -2.22694218e-01  1.11199832e-02 -3.80361497e-01  1.00658804e-01
   2.66351908e-01  5.42658679e-02  5.99822700e-01 -4.39265877e-01
   7.49741137e-01 -4.84508574e-02  1.37426229e-02 -3.28174740e-01]
 [-2.10908800e-01  9.09424201e-02  2.60938466e-01  3.52659374e-02
   2.46750936e-01 -1.12930506e-01  5.26613817e-02  4.20584343e-02
   2.04686165e-01 -3.35919172e-01  1.45877331e-01 -1.34961694e-01
  -5.53743392e-02 -1.77367896e-01  7.36833736e-02 -1.45897880e-01
   1.40688464e-01  7.37349084e-03 -1.34339985e-02  2.15718642e-01
  -1.04804046e-01  6.51615262e-02 -6.42203867e-01 -5.73085606e-01
   1.75477326e-01 -6.18938804e-01 -1.40625536e-01  1.80078998e-01
   4.34936434e-01 -4.53911990e-01 -2.15489730e-01  6.79376870e-02
  -1.30935743e-01 -1.07568368e-01  6.41330928e-02  5.19264154e-02
   2.75069326e-02  1.29148439e-02  2.43260413e-01 -2.45276347e-01
   2.56554455e-01 -1.67332008e-01  2.33773455e-01 -1.41690683e+00
   7.59007782e-02 -1.13376632e-01  4.03614879e-01  3.26401323e-01
  -3.52294743e-01 -2.92815506e-01 -1.90561086e-01 -2.91632146e-01
   1.68386623e-01  3.19876075e-01 -8.94738436e-02 -2.32073247e-01
  -2.40709141e-01 -2.79834658e-01 -5.28274626e-02  1.00093400e-02
  -1.90077871e-01 -2.54735738e-01  2.72350878e-01 -1.92290172e-01
   1.69809818e-01 -2.85539776e-01  3.41821641e-01 -5.38252033e-02
   2.66646415e-01 -1.06433801e-01 -3.69954079e-01 -3.24071646e-01
  -4.86211866e-01  2.86580056e-01 -8.42145607e-02 -5.01883447e-01
  -5.62774718e-01 -9.47799012e-02 -1.88157521e-02  1.25882939e-01
   3.87071729e-01  2.73307204e-01 -3.80958885e-01 -5.22623181e-01
   3.66178244e-01  1.00377224e-01 -1.45786777e-01 -4.08908784e-01
  -7.76113391e-01  1.65047094e-01 -3.79265577e-01 -9.35575143e-02
   6.19684570e-02 -9.56582129e-02 -1.35250628e+00 -6.00652322e-02
   3.06964405e-02  3.44538718e-01 -2.64253944e-01  9.20283869e-02
  -9.87563729e-02 -2.61987709e-02 -2.16183327e-02  7.25782588e-02
   1.78048342e-01 -7.27561116e-01  2.12198179e-02 -2.93033749e-01
   1.35118961e-01  2.44143456e-01 -8.97613838e-02 -2.59251416e-01
   7.49257579e-02  3.57417852e-01 -4.39951904e-02 -2.65900671e-01
  -3.21198225e-01 -7.45858073e-01  3.92452627e-01 -2.52971083e-01]
 [-2.00672939e-01  1.45563379e-01  2.74286717e-01 -5.71775556e-01
   4.23357725e-01 -1.55175596e-01  5.35659492e-01 -5.32814085e-01
   1.47593945e-01 -4.71901685e-01 -7.79102862e-01 -2.42423847e-01
   4.63403761e-01 -5.64741492e-01 -2.50315785e-01  1.40020490e-01
  -3.03946763e-01  1.64054468e-01  4.70622331e-01  2.20667094e-01
  -1.21073671e-01  9.99636129e-02 -9.01256204e-01 -5.10842383e-01
  -3.14144641e-02 -7.23195016e-01  1.51963890e-01  4.81921323e-02
  -2.48709202e-01 -1.67441458e-01 -1.93619743e-01  1.86055645e-01
  -2.66231030e-01  5.51016815e-02  2.78635114e-01  1.64979026e-01
  -4.42994714e-01  2.78217375e-01  2.06562817e-01  3.26060623e-01
   5.62391698e-01  1.41793087e-01  6.06564403e-01 -6.08142801e-02
  -2.79428542e-01 -9.78715599e-01  1.22312963e+00  2.12078705e-01
   9.03070122e-02  2.47202531e-01 -1.89251438e-01 -4.13494229e-01
   1.58193693e-01  1.57401145e-01  3.12572241e-01 -3.14968154e-02
   1.03920972e+00 -5.56620210e-02  7.82832783e-03 -8.02058429e-02
  -8.11930895e-01 -3.78142953e-01 -4.09461230e-01  2.35075168e-02
   6.90758407e-01  1.42462656e-01  4.43547398e-01 -1.56824246e-01
  -7.77067423e-01  8.19998085e-02 -5.42862900e-02 -2.41367951e-01
   3.74452233e-01 -4.43068445e-01 -2.78427452e-01 -2.81370074e-01
  -6.59750700e-01 -1.88304961e-01 -2.70099044e-01  5.95611036e-01
   5.14129162e-01  2.06945360e-01  3.07315499e-01 -9.99334216e-01
  -8.98499310e-01  2.03899637e-01 -4.74717617e-01  3.65887016e-01
  -6.46269843e-02  4.63232845e-01 -4.27250862e-01  1.73080876e-01
   4.57630485e-01  3.18434015e-02 -1.00544298e+00  7.05338735e-03
   4.56892282e-01  2.68494040e-01  4.77445126e-01  5.78240633e-01
  -2.08631247e-01 -7.56428987e-02 -4.63938177e-01  1.43752415e-02
   1.72608823e-01  5.27584970e-01 -6.90934062e-02 -1.33356526e-01
   1.92928299e-01  1.60523072e-01 -3.04419547e-01 -4.04011399e-01
  -1.60077557e-01  8.87504667e-02 -3.48164827e-01 -5.21229863e-01
  -3.87044132e-01 -8.77133906e-01  2.00659603e-01 -1.48743510e-01]
 [ 3.61921757e-01 -7.07143724e-01 -1.08616143e-01 -5.89451492e-01
  -1.70151606e-01 -1.30630156e-03 -4.73282188e-01  6.33920357e-02
  -6.32570684e-02 -8.59210081e-03 -3.79293025e-01 -3.74364674e-01
  -7.57867873e-01 -5.30493498e-01 -9.52993929e-02 -3.07939142e-01
   1.22839391e-01  4.11887281e-02 -4.34184879e-01  6.05911613e-01
  -5.94966948e-01 -2.78115153e-01  6.40154541e-01  1.86449252e-02
   1.11836474e-02 -9.14262906e-02  4.73848581e-02 -2.17163771e-01
  -5.72293222e-01  2.28455722e-01  6.11066937e-01 -1.98537320e-01
  -9.57727283e-02  5.97388893e-02  1.60296842e-01 -6.03258610e-01
  -4.28276002e-01 -3.86312246e-01  2.59771973e-01  2.75346458e-01
  -7.18982279e-01  3.63000810e-01 -5.58231592e-01  3.27360094e-01
   3.98674347e-02  1.91269815e-01 -1.66515008e-01 -7.29044080e-01
   2.00911224e-01 -9.34090838e-03 -6.23904765e-01 -6.92102909e-01
  -1.19388714e-01 -4.90750700e-01  3.33729476e-01 -1.73906863e-01
   9.64036305e-03  3.49846095e-01 -4.49614823e-01  3.39581519e-01
   4.17634174e-02  4.48649108e-01 -5.16535103e-01  2.41911381e-01
  -7.12799013e-01  4.15319741e-01 -1.90028057e-01  2.56990045e-01
   4.54760164e-01  6.00453317e-02  5.97438753e-01  6.90768287e-02
   1.78269997e-01 -7.72273958e-01 -6.54836297e-02  2.95173645e-01
   4.25451517e-01  1.27188459e-01 -8.44303012e-01  9.30400670e-01
  -7.99741626e-01 -2.44123504e-01  2.12606892e-01 -3.02480102e-01
   4.95770276e-02 -2.58634239e-01  1.66742519e-01  3.74926597e-01
  -2.07838684e-01 -1.91763610e-01  7.97140658e-01  9.22927618e-01
  -4.52125102e-01 -2.71069020e-01  5.06817341e-01 -4.20385271e-01
   6.93005547e-02 -1.06927924e-01  9.10148919e-02 -1.16842628e-01
  -3.85596901e-01  7.55610049e-01  1.02857731e-01 -7.15034664e-01
  -4.25698996e-01  1.90952554e-01  2.85700828e-01  3.03763419e-01
  -2.91880351e-02  1.04591072e-01 -2.96776623e-01 -1.34675816e-01
   5.94732702e-01  1.75398439e-01  5.73961198e-01 -6.89706981e-01
   3.87938142e-01  3.72750998e-01 -7.76577815e-02 -3.44390661e-01]
 [-4.88302737e-01  2.70199656e-01  4.32847347e-03 -1.17261060e-01
   2.08102375e-01 -2.37891316e-01  1.92624986e-01  1.04165941e-01
  -4.19503450e-02 -9.96108204e-02  1.89038701e-02 -7.16168806e-02
   1.86636243e-02  2.11002138e-02  9.23289061e-02 -2.71341801e-01
  -1.15924291e-01 -4.16056961e-01 -9.18337703e-02 -2.36654982e-01
  -1.36441216e-01  4.29457277e-02 -8.27433169e-01 -2.49616861e-01
  -8.40736330e-02 -5.18481098e-02 -1.17745057e-01  1.87755704e-01
   1.74591035e-01 -2.23644704e-01 -4.21052426e-01 -4.34000790e-01
   3.03362105e-02 -5.06618507e-02 -7.49739408e-02  1.93429664e-01
   9.33705792e-02  5.39638437e-02 -7.47352317e-02 -1.20258771e-01
   2.23464429e-01 -5.22400796e-01  3.09594255e-02 -5.70600867e-01
  -2.60762453e-01 -5.36826551e-01  5.39434195e-01  6.39666617e-02
  -2.04973638e-01  2.09338567e-03  1.58551857e-01  3.17439586e-01
   9.31912735e-02 -7.35890865e-02 -1.48174807e-01 -1.73597172e-01
  -4.56578165e-01 -1.91492096e-01  1.82073954e-02 -1.45513415e-02
  -2.50394166e-01 -8.25175270e-02  1.52342722e-01 -3.50656033e-01
  -6.49426086e-03 -1.95985124e-01  3.88723493e-01 -3.13747853e-01
  -1.90625191e-01  8.21946654e-03 -2.14755759e-01 -5.84035158e-01
  -5.66595532e-02  4.69713733e-02 -1.18682928e-01 -2.13556617e-01
  -6.17050648e-01 -2.67915249e-01  1.68329418e-01  2.14494616e-02
  -1.00294529e-02 -1.22436374e-01 -5.12818135e-02 -2.22405389e-01
   3.42884332e-01 -1.57840341e-01 -1.17162868e-01 -4.11061764e-01
  -4.38459694e-01 -3.42679441e-01 -5.78748465e-01 -5.77204116e-02
  -8.07976276e-02 -1.18132709e-02 -1.83411086e+00 -1.93195850e-01
   1.45205751e-01  2.59022951e-01 -1.00683942e-01  1.77535236e-01
  -5.59635945e-02 -5.25395751e-01 -1.94919437e-01  2.01267406e-01
   1.01357870e-01 -2.93155611e-01 -2.85535008e-01 -5.36551893e-01
   6.81400597e-02  1.63076416e-01  3.15915912e-01 -1.82773322e-01
  -2.00538307e-01 -7.53850192e-02 -2.15182766e-01  1.75954565e-01
  -7.38686547e-02 -1.02490282e+00  2.37620305e-02 -3.06475669e-01]
 [ 4.96120006e-01  4.83057126e-02 -1.22601375e-01  1.36992475e-02
   4.47022310e-03 -2.21033335e-01  2.00124010e-01  7.01235458e-02
   1.77443102e-01  1.13621213e-01 -5.35561442e-01 -1.22500667e-02
  -1.96734592e-01 -2.23593995e-01  3.12268496e-01  8.14548135e-02
   3.48616093e-01  3.26834172e-01  2.80520588e-01  6.90808356e-01
  -3.68461967e-01 -6.05994985e-02  1.45210609e-01  3.26866150e-01
   2.16420859e-01  5.30402064e-02 -4.04801548e-01 -3.02828499e-03
  -2.57674139e-02 -6.87481910e-02 -8.17176938e-01  1.14027642e-01
  -3.29512000e-01  1.07432129e-02  1.63072482e-01 -4.99342889e-01
  -6.74912632e-01  1.32868350e-01 -3.38309973e-01  2.59003341e-01
  -5.97039014e-02  1.55880243e-01  4.08444926e-02  3.25020343e-01
  -2.56790131e-01  3.22970688e-01  9.04744864e-02 -5.44061363e-01
   1.42280962e-02 -8.43600556e-02 -4.47089434e-01 -9.88919586e-02
  -2.26220623e-01  3.52157801e-01  4.54823613e-01 -2.18626559e-01
  -3.29936177e-01  3.45120698e-01 -5.68659529e-02 -1.91550374e-01
  -5.11814892e-01  2.66488999e-01 -6.06548667e-01  9.91686285e-02
  -6.20954216e-01  7.93188810e-02 -2.93892562e-01 -2.34571844e-02
  -1.86983809e-01 -2.18405768e-01  6.23536170e-01 -9.72298309e-02
   6.30592167e-01 -4.40245718e-01 -5.08098662e-01 -1.76770359e-01
   3.96159738e-01  3.95154297e-01 -8.92058551e-01  1.13334425e-01
  -1.76065803e-01  9.79789421e-02  7.23603308e-01  6.11698218e-02
  -1.97997361e-01 -8.17838430e-01  1.94637716e-01  7.30633810e-02
  -5.67499816e-01  1.09653443e-01  3.73800486e-01  2.15126231e-01
  -6.11210823e-01 -3.74165952e-01  3.89192104e-01 -2.10533097e-01
   2.61567920e-01  9.17901695e-02 -1.27534971e-01 -6.32571936e-01
  -5.62430263e-01  1.20624200e-01  9.83206213e-01 -3.09304744e-01
   1.00958169e-01  1.34830490e-01 -3.04040223e-01  3.85829687e-01
  -2.51717567e-02 -1.38450176e-01  1.55303124e-02 -4.31165665e-01
  -3.10754823e-03  1.27924504e-02  3.24765414e-01 -1.03249788e-01
   6.46586597e-01  2.54049599e-01 -1.68904155e-01  1.65289849e-01]
 [-9.19936001e-01  3.44889998e-01 -3.36020231e-01 -4.51832414e-01
  -4.66903746e-01  8.33628327e-02 -1.19818643e-01  1.83019623e-01
   3.02792098e-02  5.26082456e-01  2.00372711e-01  3.78065169e-01
   3.11367869e-01 -8.41411531e-01 -6.73390701e-02 -3.66450727e-01
  -4.20238860e-02 -3.89811724e-01 -4.99517232e-01  2.89198875e-01
  -3.22386950e-01  4.54091132e-01 -8.40010166e-01 -1.08629322e+00
  -5.63566029e-01 -7.81347826e-02  5.72248101e-01 -2.05214515e-01
  -3.64547879e-01  4.94060665e-01 -1.39475822e-01  1.14567235e-01
  -6.99780509e-03  3.35668251e-02  2.71615777e-02  6.11238062e-01
  -5.62100969e-02  9.25460607e-02  8.53934735e-02  7.31555223e-02
  -8.82070005e-01 -1.45125878e+00 -3.77180688e-02 -2.90284663e-01
   1.53802976e-01 -1.47131002e+00  8.35741520e-01 -5.52269518e-01
  -1.48858890e-01  3.84512991e-01  3.45830560e-01 -3.24274212e-01
   1.76270872e-01 -1.89929798e-01 -5.30698113e-02 -2.69670218e-01
  -7.41085172e-01  7.51578927e-01 -1.86986521e-01  1.09402433e-01
  -6.96546376e-01  3.70601118e-02 -8.32586661e-02 -4.19410974e-01
  -8.64888191e-01 -9.01875459e-03  3.87981325e-01 -7.51582012e-02
  -1.42019585e-01 -3.93602103e-01 -3.69957656e-01 -8.97002742e-02
  -1.94515362e-01 -1.30393296e-01  5.68295196e-02 -2.98716314e-02
  -1.02020228e+00 -5.16419172e-01  7.01832592e-01  5.32076001e-01
  -3.13371539e-01 -1.37624502e-01 -4.34536159e-01 -4.40584958e-01
   2.07762241e-01 -7.11738169e-01 -1.29155681e-01 -3.30038145e-02
   1.03616905e+00  2.37296924e-01 -1.60100117e-01 -5.60914204e-02
   7.02416226e-02 -5.29973269e-01 -5.85437298e-01 -1.21195577e-01
   2.54324228e-01  3.42783839e-01  1.53543651e-01 -7.47556761e-02
   3.71560603e-01 -8.62449348e-01 -6.30340695e-01  2.41599008e-01
   6.68570399e-01 -4.31623101e-01  1.24009348e-01  2.07908571e-01
   2.79211432e-01  4.11386639e-01  6.00963533e-01  1.10962931e-02
  -3.59021813e-01 -8.29921961e-02  5.25983155e-01  3.73947769e-01
   4.38650221e-01 -7.90249646e-01  2.19074592e-01 -4.83178139e-01]
 [-7.66183287e-02 -3.23979586e-01  3.24879657e-03 -1.11514866e+00
  -2.96498448e-01  2.75445998e-01 -2.14930181e-03 -2.68585205e-01
  -1.01875618e-01 -1.43118696e-02 -5.14113784e-01 -2.15291098e-01
   2.02726349e-01 -3.26125294e-01 -4.68161732e-01  1.84225395e-01
  -2.87106782e-02 -9.32574347e-02 -3.42761666e-01  1.67662054e-01
  -2.28076950e-02 -7.16009513e-02  2.50987202e-01  9.79922265e-02
  -2.45827705e-01  8.66133273e-02 -2.38641232e-01 -1.99299514e-01
  -5.85288346e-01  2.99346387e-01  6.73200786e-01  3.32654975e-02
  -1.90564478e-03 -2.53519207e-01  2.54058212e-01  1.74940024e-02
  -1.50793815e+00  3.50468874e-01  2.29011267e-01  1.76111504e-01
  -2.57499188e-01 -1.56918243e-01  4.64880168e-02  1.35890320e-01
  -1.83183059e-01 -7.16188224e-03  2.39646479e-01 -5.99014401e-01
   6.28703758e-02 -3.44862405e-04 -9.83507112e-02 -4.68558371e-01
  -2.86027014e-01 -5.71140368e-03 -1.05875619e-01  3.56565602e-02
   1.79986089e-01  2.85001338e-01 -7.01570809e-02 -2.44290754e-03
   1.92585677e-01 -1.83577523e-01 -4.25115824e-01  4.38736677e-02
  -2.36690700e-01  1.56924441e-01 -1.06080830e-01  2.72370707e-02
  -2.09462211e-01  2.08212882e-01  7.25640297e-01 -4.37712632e-02
   2.00159520e-01 -4.19195801e-01 -9.97206271e-02  1.26380950e-01
  -3.33886147e-02  1.10154927e-01 -2.34944709e-02  2.91828722e-01
   4.88476381e-02 -2.78324097e-01  3.25959146e-01  2.08237499e-01
   1.04999080e-01 -3.61820668e-01  1.33184329e-01  5.55185899e-02
   4.08307761e-01  7.00588226e-02  1.77963957e-01  4.55188185e-01
   1.00788489e-01  4.24351722e-01  6.75303116e-02 -2.74503052e-01
   2.47764047e-02 -1.16743416e-01 -4.60697599e-02  1.54895280e-02
  -2.63380110e-01  1.29996106e-01  9.75625888e-02 -5.95777221e-02
  -1.27914861e-01  9.04670805e-02 -1.98579300e-02  1.72118068e-01
  -1.68438107e-01  1.77449565e-02 -2.30076954e-01 -3.17757040e-01
   1.13028139e-01 -1.35495931e-01  2.81064678e-02 -3.19275916e-01
   3.72573256e-01  1.80068519e-02 -5.33715375e-02  1.17147304e-01]
 [-1.55339286e-01 -3.96541774e-01  9.26665124e-03  1.20319031e-01
   1.56200439e-01 -5.46596982e-02 -6.41980350e-01  4.43983078e-01
   4.27545428e-01 -2.71199524e-01  6.22686386e-01 -4.46040690e-01
  -2.56835878e-01 -4.44426350e-02  2.35178381e-01  3.00789595e-01
  -3.22289735e-01  4.36533988e-01  7.54195824e-03  4.47716862e-01
   1.38845667e-01 -3.11310261e-01 -1.13660431e+00 -8.47812116e-01
   2.55249113e-01 -4.54082191e-01  5.14438629e-01  4.03532594e-01
   2.91723967e-01 -3.93783927e-01  1.08218193e-02 -1.02153838e+00
  -2.18286857e-01  1.00028113e-01  5.90756595e-01 -5.44342220e-01
  -2.53622234e-02  1.55956447e-01  1.07410319e-01 -8.53222370e-01
   6.20753877e-02  7.92356253e-01  1.45341265e+00 -1.30679953e+00
  -5.50695121e-01 -1.26166895e-01 -9.21077058e-02  6.26661479e-01
   3.29371125e-01  3.24158520e-01 -5.21577299e-01 -3.37563276e-01
   2.76873201e-01  1.65104061e-01  4.46885884e-01 -2.82809377e-01
   6.39096320e-01  1.96176350e-01 -1.32028945e-02  3.62377241e-02
  -5.63426852e-01  7.48697221e-02 -2.02751353e-01 -1.27126610e+00
  -2.33437479e-01 -5.47100842e-01 -3.11399251e-01  1.01624407e-01
  -3.20686817e-01  4.25466537e-01  3.35950255e-01 -1.63939208e-01
   5.20644963e-01  2.54092574e-01  3.55099082e-01 -1.11000001e+00
  -4.65049267e-01 -1.37426883e-01 -1.48176044e-01  3.26906443e-01
   7.26841241e-02  4.53935802e-01 -3.45963001e-01 -8.27685773e-01
  -3.62967432e-01  5.75428247e-01  1.73004970e-01 -5.45716397e-02
  -6.59860134e-01 -9.08162743e-02  3.64151031e-01  2.42787022e-02
  -2.12649107e-01  1.83190167e-01 -5.51907301e-01 -3.39262784e-01
  -1.47456884e-01  3.36361498e-01  6.06044173e-01  8.03288400e-01
   1.21688262e-01  8.54153991e-01 -1.28702316e-02 -2.72950262e-01
   3.68714929e-01 -3.63718212e-01  7.13352442e-01 -4.67105001e-01
   1.04671279e-02  2.02707145e-02  2.23547995e-01 -3.66098225e-01
  -9.69888717e-02 -7.98225924e-02 -7.90882647e-01 -7.09316134e-01
  -6.73524499e-01 -1.36851943e+00  8.61295342e-01 -3.30746919e-01]
 [ 2.40430385e-01  1.53556718e-02  3.02335799e-01 -2.78950602e-01
   6.20346963e-01 -4.84586895e-01 -1.23799764e-01  4.14769381e-01
   4.54187870e-01  2.43879348e-01  1.64656177e-01  4.33027864e-01
   9.63229537e-02  3.89681756e-01 -2.91459765e-02 -2.27245882e-01
   4.68023777e-01 -9.26038250e-02  3.79135668e-01 -8.44972767e-03
  -4.94314343e-01 -4.37344104e-01 -1.13470244e+00 -4.02009428e-01
   3.41000229e-01  1.94435552e-01  1.41944334e-01 -3.69591266e-01
   3.28049399e-02  1.25211194e-01 -3.50145757e-01 -3.44305813e-01
   3.80934745e-01  1.82935953e-01 -9.16039944e-01 -4.14738655e-01
   1.37274653e-01  6.83452860e-02 -2.98293471e-01  1.14859611e-01
   3.50022852e-01 -9.29405317e-02  3.52111191e-01 -2.95232326e-01
  -4.53436136e-01 -6.57702386e-01  9.31797996e-02  5.15495896e-01
   3.37816834e-01  1.85123608e-01  9.31385085e-02  3.02338272e-01
   3.25898737e-01  3.44015390e-01 -2.96552330e-02 -4.35318530e-01
  -4.15856808e-01 -6.73438549e-01  1.42132387e-01 -9.49056819e-02
  -5.24488628e-01 -1.82848513e-01  3.90166610e-01 -1.96461231e-01
   4.36000764e-01 -3.21307987e-01 -6.70146942e-01  3.23600739e-01
  -8.56238723e-01 -4.37944159e-02 -4.18478191e-01  1.07196212e-01
  -4.54818845e-01  1.27366602e-01  3.63653272e-01 -1.01813555e-01
  -9.55916643e-01 -4.90946859e-01 -7.08707988e-01 -9.93549228e-02
   4.65263635e-01  4.57930952e-01  2.16197092e-02  4.63890433e-02
  -8.34979787e-02 -3.40168998e-02 -4.09435898e-01 -3.29220295e-01
  -1.77452445e-01 -1.18441835e-01  7.95901846e-03 -1.85015023e-01
   2.52750367e-02 -7.15355933e-01 -6.24525487e-01  2.87395060e-01
  -1.79295078e-01 -5.55249043e-02  1.47978887e-01  5.03942013e-01
   4.94050980e-02  3.28358352e-01  1.04523517e-01  4.85031247e-01
   2.79498845e-01 -6.30944014e-01 -4.44451153e-01 -1.23482808e-01
   2.47809798e-01 -2.14090217e-02  3.16379577e-01 -4.23672020e-01
  -2.68010288e-01 -2.23815024e-01 -2.77491331e-01 -6.83409333e-01
  -5.75754404e-01 -5.07195592e-01 -2.55141735e-01 -6.32266700e-01]
 [ 2.22652033e-01 -2.61154771e-01  4.10432220e-02  3.27480167e-01
  -2.48545781e-01 -5.11051059e-01 -1.30987778e-01 -1.34941414e-01
  -2.04483807e-01  8.12627077e-02  1.74939990e-01 -4.87784594e-01
  -2.32845515e-01 -1.83168054e-01  9.54201743e-02  3.57499421e-01
  -1.17469326e-01  3.45016032e-01  3.08204353e-01 -1.65802896e-01
   4.29193616e-01  2.84117758e-01 -1.45312846e-01 -1.66448563e-01
  -4.15762253e-02 -1.47638917e-01  5.13857663e-01  2.70254016e-01
   7.33591974e-01 -5.24876058e-01 -1.30139232e-01  2.73325354e-01
  -3.51190448e-01  1.44225359e-01 -5.32371961e-02 -3.36699873e-01
   1.98201999e-01 -5.52950203e-01 -1.20633140e-01 -9.05096978e-02
   1.97117046e-01  3.73808891e-01  4.36840415e-01 -5.01032174e-01
  -4.04466718e-01  9.00303721e-02 -8.31428170e-01  3.17768246e-01
  -1.34711340e-01 -1.63810223e-01 -2.14189172e-01  3.09430242e-01
   3.05588514e-01  1.89927176e-01 -4.63883840e-02 -3.39736342e-01
  -4.69946235e-01 -1.96298018e-01  2.60741204e-01  4.34746174e-03
   1.39972782e-02 -1.60081074e-01  4.05519828e-02 -1.74272135e-01
  -2.44109154e-01 -1.10468246e-01 -1.02849841e-01 -2.00015351e-01
   3.44065487e-01  8.42534125e-01  1.93308711e-01  9.37817842e-02
   2.04629406e-01  6.43942833e-01 -3.15188617e-01 -5.39314508e-01
  -4.46266793e-02  3.50843847e-01 -6.49735808e-01 -5.56745641e-02
  -1.59047898e-02  3.15993905e-01  1.76071808e-01 -2.90597409e-01
   3.65184665e-01 -5.99403232e-02  6.18729413e-01 -2.83319831e-01
  -6.22958362e-01 -8.24476182e-02  2.66825140e-01 -4.10785764e-01
  -2.09144667e-01  2.51404226e-01  2.71225199e-02  8.67449120e-02
   5.27200758e-01 -1.83777764e-01 -7.21003354e-01  7.97415599e-02
   1.03857905e-01  3.08619235e-02 -2.57787611e-02 -5.15067466e-02
  -3.27209949e-01 -1.08084651e-02  1.66261896e-01 -3.75159413e-01
  -1.57401159e-01 -5.55769503e-01  5.05461514e-01 -1.06859222e-01
   1.46904871e-01 -2.82903075e-01 -6.12037003e-01 -1.36489838e-01
  -7.75391310e-02  1.41663194e-01  8.07844922e-02  2.31991962e-01]
 [ 1.62540793e-01 -5.60684443e-01 -4.58589137e-01 -6.09404266e-01
  -7.19686687e-01  5.52318394e-01  1.79078221e-01 -6.94306314e-01
   7.54179209e-02  2.10910261e-01  2.34231383e-01  8.57934132e-02
   2.13595942e-01 -1.53298341e-02 -1.53693095e-01  7.85597637e-02
  -1.24408506e-01 -3.78963292e-01 -3.64583544e-02  4.67470676e-01
   4.53102216e-02 -1.73307434e-02 -1.22938519e-02  3.06261331e-01
   1.78767920e-01 -1.02836855e-01 -1.14292659e-01 -3.48918110e-01
  -1.16247796e-02 -3.34452279e-02  7.47659266e-01  8.61231461e-02
  -4.00842354e-02 -1.93580255e-01 -2.41043698e-02  1.83648616e-02
  -1.15227509e+00  4.92476076e-01 -6.03608899e-02 -1.02231279e-01
   2.66434133e-01  7.93452412e-02 -5.16086817e-01  2.14178443e-01
  -8.50086689e-01 -8.59667137e-02  4.86630410e-01 -3.36180888e-02
   3.29471976e-01 -1.71855539e-01 -5.79090059e-01 -8.99569809e-01
   1.46423101e-01 -9.10625905e-02 -7.37621337e-02  2.15959653e-01
   2.05150455e-01 -1.42104670e-01  1.09465361e-01  2.96738386e-01
   3.20807636e-01 -1.44211635e-01 -1.22098279e+00  2.47353330e-01
   1.02463178e-01  3.10531467e-01 -3.12434379e-02  1.37806013e-01
   3.27011377e-01  1.15095250e-01  5.63087344e-01 -1.01394758e-01
   1.57048985e-01 -1.14015743e-01  2.14914411e-01  2.47416899e-01
   4.79022367e-03 -1.84713051e-01 -8.27832282e-01  6.08589232e-01
  -3.85636650e-02  3.39227498e-01 -5.11359386e-02  1.72618017e-01
  -4.15215909e-01 -1.88858639e-02 -4.29165334e-01 -2.28370771e-01
   4.77654546e-01 -1.72281757e-01  4.73015666e-01  1.49104595e+00
   1.19742729e-01  1.97052360e-01  2.47880757e-01  2.43007436e-01
   5.08957878e-02 -6.95733428e-01  4.58872169e-01 -2.95705199e-01
   2.77212322e-01  7.13815093e-01  5.78162193e-01 -2.06761479e-01
  -2.54001766e-01  2.31128305e-01  2.75421530e-01  1.07793295e+00
  -1.40796006e-01 -2.27448225e-01 -6.93591297e-01  3.68471205e-01
  -1.94516480e-01 -4.38029878e-02  3.89911197e-02 -5.08777738e-01
   5.51580608e-01  2.50994414e-01 -1.89183384e-01 -1.33575276e-01]
 [-9.94544625e-01 -3.54451776e-01  1.07882433e-01 -3.39956611e-01
   3.44547033e-01 -1.30901262e-01  9.24014673e-02 -6.62105441e-01
  -8.52157325e-02 -4.40428495e-01 -5.84860325e-01 -1.68637633e-01
  -1.86500803e-01 -3.12277943e-01  3.00860256e-01 -4.75134440e-02
   4.88061577e-01 -2.49560252e-01 -3.59631002e-01  3.19384694e-01
   3.90562676e-02  6.96515083e-01 -2.47222096e-01 -1.30808838e-02
  -2.40983889e-01 -2.14644503e-02 -3.20535861e-02  9.47110429e-02
   1.40477955e-01 -2.33071640e-01 -9.56739366e-01 -4.06929404e-01
  -2.27856830e-01 -2.33989701e-01  9.09541547e-01 -7.11085275e-02
  -4.78128582e-01  1.43601954e-01  3.22562665e-01  2.90120453e-01
  -9.54878271e-01 -1.49974167e-01 -1.27145872e-01 -3.74612451e-01
  -2.42215246e-01 -6.66805685e-01  3.99132930e-02 -5.89117289e-01
   1.32301683e-02 -9.82335657e-02 -2.43030921e-01 -2.70327032e-01
   4.85520929e-01  3.54739726e-01  8.51328731e-01 -2.81106263e-01
  -9.89255756e-02  1.12329088e-01 -7.80015767e-01 -1.91064224e-01
  -4.53328311e-01 -2.85276890e-01  4.26863760e-01  3.98345232e-01
  -7.46191502e-01  5.76353306e-03  7.09923804e-01 -4.88557160e-01
   9.31891799e-02  5.13371885e-01  8.26356709e-01 -2.76822031e-01
  -2.14160129e-01 -2.02913031e-01 -2.81080127e-01 -4.17799443e-01
   1.89297840e-01 -1.06671013e-01 -1.70486309e-02  5.67238748e-01
   5.69182634e-02 -1.66975826e-01  2.93190747e-01 -2.68055886e-01
  -9.45608020e-02 -6.71180069e-01  4.92836654e-01 -5.75778067e-01
  -6.02040231e-01 -2.18860433e-01 -2.98417687e-01  5.69248140e-01
   7.38421306e-02 -8.26264620e-01  2.75647342e-01 -4.46344584e-01
  -7.07451850e-02  2.51571715e-01 -5.47520638e-01  6.20375834e-02
  -4.12930369e-01 -1.23573646e-01  2.34044462e-01 -7.10432678e-02
  -3.60620558e-01  2.49560803e-01  6.66407272e-02 -5.29590607e-01
   8.88734236e-02  9.01660789e-03  6.34863257e-01 -4.73538458e-01
  -4.78905477e-02  3.20175439e-02  1.50300905e-01 -4.36531147e-03
  -3.09965581e-01  5.75609267e-01  3.72274942e-03 -2.79025972e-01]
 [-1.27149209e-01 -7.76206478e-02 -3.31223458e-01  2.51477450e-01
  -1.13027565e-01  8.60774219e-02 -6.10974617e-03 -5.04570186e-01
  -1.86519384e-01  3.46819945e-02 -4.75753695e-02 -9.25165042e-02
  -4.37878400e-01  2.49097690e-01 -9.37490687e-02  1.55989826e-01
  -2.81376064e-01  6.13878518e-02 -1.80116281e-01 -4.26053911e-01
  -1.70635357e-01  1.15838774e-01  5.40489964e-02  1.96797878e-01
  -3.49887103e-01  1.54387876e-01  2.74501264e-01  1.66028440e-02
   1.70374557e-01 -7.66611770e-02  3.04282069e-01 -1.68081969e-02
  -2.99358070e-01  4.69207913e-02  1.40805691e-01 -1.85830176e-01
  -7.98220783e-02 -8.24319497e-02  1.91704538e-02 -1.96199134e-01
   2.86522150e-01  3.55622560e-01  1.84435710e-01 -1.76334813e-01
  -2.61623859e-01  1.79339528e-01 -5.99397600e-01  8.94560069e-02
   2.84401514e-02  3.38089436e-01 -1.50112391e-01 -2.45470792e-01
   8.81122351e-02  1.30403966e-01  2.80332804e-01 -1.68315813e-01
  -2.41914913e-01  1.76722154e-01  9.70795900e-02  1.15596987e-01
   1.58978656e-01 -4.72713619e-01  1.19028792e-01  2.06487477e-02
  -3.26675832e-01 -9.79321674e-02  4.96512234e-01  1.75521895e-02
   3.90701264e-01  4.12347466e-01 -3.54771386e-03  1.28490981e-02
  -1.79091960e-01  5.45988940e-02 -6.80971593e-02 -5.79868734e-01
   2.41931751e-01  3.34483236e-01 -6.69901446e-02 -1.78036273e-01
  -4.24305558e-01  2.87530273e-01 -1.92827925e-01  3.55096422e-02
   3.35564047e-01  2.34461799e-01 -7.96055868e-02  3.09134185e-01
  -2.13584527e-01 -2.35371813e-02  3.01537335e-01  2.46474653e-01
  -1.18302509e-01 -4.50817198e-01 -4.39213775e-02  1.44132361e-01
   8.15586448e-02  3.04410815e-01 -2.03806758e-01  2.24432498e-01
   2.43012961e-02 -8.00051540e-02 -1.48395777e-01 -1.02165788e-01
  -7.70676434e-02  1.85426071e-01  1.79488257e-01 -5.61094582e-01
   6.23467043e-02 -1.43269822e-01  4.25783008e-01 -2.97626883e-01
   1.77323520e-02 -4.18691546e-01 -2.94721365e-01 -1.16197117e-01
   2.62379140e-01  2.13429734e-01  1.18670195e-01 -9.70299914e-02]
 [ 3.46868873e-01 -2.90064752e-01 -1.50977999e-01  2.65616179e-01
  -6.11581877e-02 -1.02641135e-01 -6.32047979e-03 -3.54856104e-01
   1.51996687e-01 -2.42762551e-01  8.52606520e-02 -1.95815206e-01
  -4.15649377e-02  1.55866832e-01 -5.46694659e-02  5.00582397e-01
  -1.08672932e-01  9.01032239e-02  3.01030893e-02 -2.79121935e-01
  -1.13350041e-01 -2.02059895e-01  1.65193696e-02  2.95775712e-01
   1.59276828e-01  8.88354778e-02  4.03138667e-01  1.77844107e-01
  -1.52694300e-01 -3.07528466e-01 -3.77140790e-01 -1.36859834e-01
  -8.46815035e-02  9.47354585e-02 -8.53765383e-02  2.08099887e-01
   1.37175858e-01  5.31674683e-01 -5.04220307e-01 -1.38780951e-01
  -2.44024128e-01 -3.29270922e-02  7.05489278e-01  1.40871182e-01
   1.29856437e-01  4.55313027e-01 -2.89628834e-01 -1.33314297e-01
  -7.65388906e-02  3.15659456e-02  2.52965719e-01  5.77790253e-02
   8.72843936e-02  5.74504495e-01  2.25062206e-01 -9.48743448e-02
  -1.20552763e-01 -1.20083176e-01  4.35274318e-02  2.95761436e-01
  -2.64281958e-01 -1.96500067e-02  1.48018196e-01 -7.37680867e-02
  -4.26846713e-01 -1.00453362e-01 -1.61715344e-01 -1.15245029e-01
  -2.19163612e-01  7.26843551e-02 -6.42735958e-02 -4.96001216e-03
   3.54545861e-01 -1.62451997e-01 -3.76922823e-02 -6.69417009e-02
   2.65238315e-01  1.69524904e-02 -8.47772479e-01 -8.16749856e-02
  -2.36256167e-01  2.86288977e-01  1.17376655e-01  5.07724762e-01
   3.70953113e-01 -2.02292919e-01 -1.55802593e-01  4.25954014e-02
  -2.94468999e-01  1.92424078e-02  3.22166026e-01 -3.03653091e-01
  -3.61960590e-01  1.44833505e-01  7.07406402e-02 -6.81980029e-02
   9.62230265e-02  3.56347978e-01 -7.41533995e-01 -1.19370997e-01
   1.02264747e-01  3.81197959e-01  4.18998688e-01 -3.53192061e-01
   2.16964498e-01  7.94740990e-02 -2.11502835e-01  5.01790941e-01
  -1.51053146e-01 -4.34609532e-01  6.93775937e-02  2.20319822e-01
  -2.41127282e-01 -1.49303719e-01  5.18307388e-02 -8.77614766e-02
   4.96263266e-01  1.56290069e-01  1.20040342e-01 -1.77823603e-02]
 [ 3.75728488e-01  1.13966204e-01 -8.48609209e-02 -6.71225548e-01
  -6.73910916e-01  6.25344366e-02 -5.68550766e-01  1.70850620e-01
  -3.67522210e-01  1.82697937e-01  8.99439678e-02  6.08027689e-02
   5.53070605e-01  7.64949620e-02  3.83067243e-02  4.44824934e-01
   1.26699448e-01 -2.23690927e-01 -3.09089720e-01  6.08435906e-02
   3.11540440e-02  3.66031043e-02 -4.99174625e-01 -4.20321614e-01
  -2.09166914e-01 -3.99992526e-01 -1.67682394e-01 -3.71329784e-02
  -3.63148302e-01  6.80897832e-01  2.33831778e-01 -1.55793041e-01
  -2.00293526e-01  2.21592218e-01  1.51927739e-01  2.33730435e-01
   2.00655544e-03 -3.32262158e-01  1.37805149e-01  2.04245150e-01
  -1.73152700e-01 -5.20063043e-01  2.05894962e-01  1.68668311e-02
  -8.58011782e-01 -2.11723566e-01  5.46164215e-01 -3.11281830e-01
   2.67982125e-01  3.09519291e-01 -9.58826509e-04 -1.46160945e-01
  -1.00594386e-01  1.05413519e-01  3.25066373e-02  5.85558116e-02
  -2.76468098e-01 -1.87628493e-01 -1.03458859e-01 -2.62077928e-01
  -4.10808831e-01 -5.40530145e-01 -6.96340740e-01  3.92629616e-02
   1.86406299e-02 -8.59457627e-02 -3.21775377e-01 -3.91328216e-01
  -2.01794878e-01 -7.59568950e-03 -7.30155781e-02  2.67885894e-01
   3.86214823e-01 -1.51374623e-01 -3.01266044e-01  7.35789612e-02
  -4.53384131e-01 -4.40959781e-02 -1.64304357e-02  3.81570727e-01
  -7.72924498e-02 -4.18191105e-01  5.62695526e-02 -4.97488588e-01
   1.02035739e-02  1.10483393e-01  1.47359848e-01  3.63497287e-01
   4.77709062e-02 -4.61825967e-01  9.70678702e-02 -5.54489940e-02
   8.89147446e-02 -1.20146777e-02 -2.33515978e-01 -5.36092073e-02
  -2.39597574e-01  2.05120310e-01  1.18679449e-01  5.98204911e-01
   1.83038846e-01  3.44976157e-01  3.36390108e-01 -2.55768985e-01
  -1.42718494e-01 -3.48983437e-01  3.97386909e-01  2.66468138e-01
  -4.18420821e-01 -1.12834156e-01  1.54448882e-01 -5.13365388e-01
   1.24703027e-01  2.98842471e-02 -8.44882056e-02 -7.02103078e-01
   7.93312043e-02 -3.20026636e-01  5.71339345e-03  2.95106232e-01]
 [ 2.19675481e-01  3.51938128e-01  3.79420906e-01 -3.20947200e-01
  -9.80679214e-01 -6.67280033e-02  2.25415647e-01  2.40650982e-01
  -5.97553477e-02  7.20217079e-02 -3.32002640e-01  2.63387650e-01
  -2.97798753e-01  1.85398292e-02 -1.54657304e-01  1.41798884e-01
  -1.97637416e-02 -6.97548548e-03  2.16786161e-01 -5.57857901e-02
  -1.49590388e-01  2.18408942e-01 -1.28935024e-01 -5.27573526e-01
   4.17496830e-01  3.91323715e-02 -3.02929848e-01 -1.78028308e-02
  -6.80026487e-02 -3.39730501e-01  5.42466864e-02  2.70677023e-02
   7.35499859e-02  4.26567495e-02 -3.13634664e-01  2.74915576e-01
   3.36828262e-01 -1.69116244e-01  1.49549916e-01  4.01269227e-01
   1.25495687e-01 -6.22640084e-03 -2.81312793e-01 -2.63111413e-01
  -5.60908735e-01 -2.55626440e-01  1.59347743e-01 -2.74440087e-02
  -3.39022768e-03 -5.01125515e-01 -1.86636969e-01 -1.64996415e-01
   1.28495649e-01  2.46187057e-02 -3.08411688e-01  1.46664351e-01
  -4.79399459e-03 -1.11387834e-01  4.93444428e-02 -3.67124647e-01
  -3.78832072e-01 -1.51670370e-02 -9.73587751e-01 -3.45136411e-02
   3.91242385e-01  1.83604464e-01  4.38058823e-01  1.92031935e-01
   2.89870620e-01  4.97303039e-01 -1.78650349e-01  2.69118637e-01
  -1.89684987e-01  3.08017701e-01  4.99725580e-01  5.08661568e-01
  -2.30671484e-02  2.74385605e-03 -7.52420574e-02 -4.96345237e-02
  -1.15479752e-01 -2.99005099e-02  2.39543229e-01  2.23225236e-01
   1.32395372e-01  4.27272797e-01 -1.48479834e-01 -2.04027459e-01
   4.61694002e-01  2.99035341e-01 -9.77127776e-02  9.64288414e-01
   5.22341669e-01 -2.83378720e-01 -9.13694128e-02  8.63742735e-03
   2.30224624e-01  3.68560478e-02  3.46317798e-01 -7.21781433e-01
   4.71548885e-01  1.50883287e-01  3.63134712e-01  1.94327265e-01
  -4.29595649e-01 -3.94325495e-01  5.83575308e-01  7.45322943e-01
  -3.90055031e-01 -2.99779093e-03 -1.46130815e-01  4.41556536e-02
   2.24543855e-01  6.88364431e-02  4.70810115e-01  6.62236363e-02
   1.60732806e-01  2.17530522e-02 -5.44261001e-02 -4.35066335e-02]
 [-5.05859852e-01 -9.82106999e-02  2.66119651e-02 -1.75088290e-02
   2.95259058e-01 -5.05957082e-02 -1.93036289e-03 -2.21159533e-02
   2.84596365e-02 -3.61256450e-01  4.12086993e-02 -2.25994557e-01
  -1.33219399e-02 -9.08966213e-02  1.48409203e-01  5.80402352e-02
   7.50430487e-03 -7.93587416e-02 -3.49723309e-01  1.63614452e-01
  -1.22745343e-01  3.85706238e-02  2.35727429e-01 -3.43613416e-01
  -1.35145128e-01 -5.60107291e-01 -3.99040490e-01  1.18521720e-01
  -2.30001155e-02 -4.72550720e-01  1.17050894e-01  6.58201054e-04
  -6.71469122e-02 -5.23132160e-02 -3.90971638e-02  7.29108229e-02
   1.19440034e-01  1.92095876e-01  2.15308428e-01 -1.21593110e-01
   7.73517713e-02 -1.96370836e-02 -5.06025925e-03 -8.47594738e-01
  -2.47548282e-01  1.04801744e-01  4.13867563e-01 -7.16435611e-02
  -3.14990282e-01 -2.13739723e-01  5.06343953e-02 -1.60373628e-01
  -3.91528718e-02  2.74643719e-01 -2.65508115e-01 -6.34968579e-02
  -3.36335927e-01 -1.24607243e-01 -1.11895852e-01  1.83003485e-01
  -7.87252281e-03 -1.23994134e-01  1.40045513e-03 -2.93319315e-01
   2.49764845e-02 -1.09502524e-02  3.25196475e-01  4.47570570e-02
   2.96975911e-01 -9.10147354e-02  6.44764528e-02 -1.94845144e-02
  -2.05711260e-01  3.08733910e-01 -3.66357207e-01 -3.89416128e-01
   1.24849319e-01  2.24169139e-02 -1.70412362e-01  1.47561207e-01
   2.28880867e-01  1.11285448e-01 -4.96190749e-02 -4.63227630e-01
   2.02844173e-01 -1.90933824e-01  8.51032585e-02 -5.16466379e-01
  -7.29538798e-01 -2.36243933e-01 -2.01873988e-01 -1.27271032e-02
  -4.32520770e-02 -2.40098283e-01 -4.88589376e-01 -2.33616158e-01
  -1.09546579e-01  3.10110986e-01 -1.37626380e-01  2.12800801e-01
   8.01838040e-02 -1.58467799e-01  9.37520433e-03 -2.12264117e-02
   1.21940717e-01 -3.10503840e-01  1.53129682e-01 -7.65847683e-01
  -1.19661152e-01  2.43007630e-01 -1.41318440e-02 -7.01594576e-02
   2.09493384e-01 -2.41522625e-01  6.55080825e-02 -1.11017175e-01
  -9.69384387e-02 -1.40539721e-01  1.53346509e-01 -1.18239718e-02]
 [-3.53283808e-03  1.64076939e-01  3.17317575e-01 -6.94732368e-01
   1.63897499e-01 -2.75887340e-01 -9.99584869e-02 -1.18823022e-01
  -3.76604381e-03 -3.05246204e-01 -3.03910226e-01 -4.10544664e-01
  -6.07996583e-01 -4.19946373e-01 -6.19240046e-01 -1.57632113e-01
   2.88075984e-01  5.29646166e-02  2.55607426e-01  7.21982896e-01
  -7.27778792e-01 -2.72321403e-01 -4.73738015e-02 -9.77994680e-01
  -3.56188357e-01 -6.44271910e-01 -1.50686443e-01  2.86973983e-01
   1.78088322e-01 -7.21770704e-01 -2.28886560e-01 -6.62905574e-02
  -6.01046801e-01  1.49455041e-01  3.11553985e-01  1.30840585e-01
  -1.03314377e-01 -2.79802471e-01  3.49867910e-01 -8.86076838e-02
   5.32365322e-01  4.38299812e-02 -1.35858104e-01 -3.17762911e-01
  -2.37495720e-01 -6.56170070e-01  8.72824669e-01 -3.57097387e-01
   1.96056262e-01  3.05697061e-02 -2.58070737e-01  1.47809044e-01
  -9.97121036e-02  2.88166273e-02  4.76112552e-02 -3.63427103e-01
   3.86235207e-01  2.24863604e-01 -1.35547996e-01  2.13740766e-01
  -4.34837282e-01 -3.02134976e-02 -4.67838556e-01 -4.27334696e-01
  -7.27876574e-02  2.97562592e-02  1.14577025e-01 -1.88551530e-01
  -3.40937853e-01  8.19024220e-02  2.95507282e-01 -1.92607582e-01
   4.03995514e-02  5.26074767e-02 -1.64399192e-01 -4.37081158e-01
   6.14285171e-01 -8.56979936e-02 -3.13330531e-01  4.04857665e-01
   4.19574752e-02  6.15447313e-02  2.12395549e-01 -8.01065981e-01
  -4.07735944e-01 -1.07444204e-01  3.72876406e-01 -8.59917402e-02
  -2.86101669e-01  1.53080806e-01  3.36447090e-01  1.46668144e-02
   3.40385318e-01  2.44033039e-01 -6.30526423e-01 -3.39839086e-02
   2.90916860e-01  3.24656159e-01  4.52407748e-01  2.68792689e-01
  -6.54591322e-02 -3.99162322e-01 -1.04390882e-01 -1.22642100e-01
   3.50837618e-01 -5.42712100e-02 -1.40681326e-01 -4.46786195e-01
   3.23962927e-01  6.80021226e-01 -1.03415191e-01 -6.10887051e-01
   2.78750956e-01 -1.59375351e-02  2.97958016e-01 -2.03474164e-01
  -1.22041576e-01 -9.64494705e-01  1.07388124e-01  1.66096926e-01]
 [ 1.79286346e-01 -1.68742523e-01 -3.00060332e-01 -1.59763321e-01
   5.76932766e-02  2.31845766e-01 -3.53993952e-01 -3.17460187e-02
  -8.18765461e-02 -4.07246649e-01 -8.18195869e-04 -2.05308497e-01
  -2.76429087e-01 -1.17359005e-01 -5.36071062e-01 -2.20578566e-01
  -1.96524963e-01  2.30352998e-01 -8.90555382e-02  2.21265610e-02
  -5.81189930e-01 -2.73113638e-01  2.76308566e-01 -2.42453367e-01
   1.78094804e-01  1.12225860e-01  4.01800901e-01  1.94948182e-01
  -5.09092689e-01  1.01255789e-01  1.44924462e-01 -7.37819821e-02
   5.27474225e-01  1.22930128e-02  2.25142255e-01 -7.57946968e-01
  -3.43372017e-01 -3.80758911e-01  5.72335161e-02  2.47009695e-01
   4.72730964e-01  6.04296327e-01 -2.42845863e-01  6.03723750e-02
   8.53943080e-02  3.08865815e-01  1.78910837e-01  1.41412169e-01
   5.99946938e-02 -2.70237457e-02 -4.43172127e-01 -3.84575844e-01
   1.71807662e-01 -4.11534548e-01  7.33551085e-01 -2.61209011e-02
   1.94461923e-02  1.06821910e-01 -3.68946582e-01  3.53607275e-02
   7.49133155e-03  1.12064090e-02 -1.65082961e-01  1.63925633e-01
  -4.27250974e-02  2.43170366e-01 -1.66459695e-01 -7.70661533e-02
  -3.19079489e-01  2.79069334e-01 -1.93650067e-01  6.52506500e-02
  -4.99360487e-02 -2.94161916e-01  7.58372247e-01  2.27529526e-01
   1.39428318e-01  2.63484716e-01 -3.00037026e-01  1.79163262e-01
  -2.21203983e-01 -8.25196281e-02 -1.45094946e-01 -1.23665072e-01
   1.87074114e-02  3.58404726e-01 -8.64221752e-02  3.51707160e-01
  -3.66001725e-01  3.35965976e-02  1.23322159e-01  6.74783289e-01
  -2.54713774e-01 -2.93788880e-01  3.13584328e-01  1.74858451e-01
   2.53554016e-01  4.04844210e-02 -1.68833017e-01  6.71362132e-02
  -5.41295588e-01  3.28924090e-01 -6.85096905e-02 -4.54818875e-01
  -1.15360081e-01 -1.57022979e-02  2.45197162e-01  3.98059189e-01
   3.06129992e-01  6.70599937e-01 -9.76475105e-02 -1.56260088e-01
   5.09747505e-01  1.57544285e-01  4.01629806e-01 -3.17562640e-01
   7.87528306e-02  2.84350932e-01  1.13710538e-02 -1.69971898e-01]
 [-1.85949743e-01 -9.38026085e-02  3.95703837e-02 -2.03113183e-01
   1.04966156e-01 -1.52520165e-01  9.99757648e-02 -3.97001067e-03
   1.15043502e-02 -8.58868659e-02  8.96711349e-02 -1.68014005e-01
  -1.50479570e-01 -2.75637925e-01  1.98237032e-01 -2.70075500e-01
   9.58705172e-02 -2.62708932e-01 -8.15604180e-02  1.10357843e-01
  -1.59097537e-01  7.77874514e-02 -2.27776393e-01 -7.23965317e-02
  -3.85428607e-01 -3.92738990e-02 -2.17570439e-01  1.25756264e-01
   8.59270841e-02 -5.34678064e-02 -1.16467766e-01 -4.08002347e-01
   1.40849590e-01 -4.91725421e-03 -1.89540416e-01 -8.95585306e-03
   4.89225537e-02  8.44361782e-02  1.58107132e-01 -2.05142513e-01
   1.60947576e-01 -3.33391756e-01 -6.33562878e-02 -3.19776654e-01
  -1.25577420e-01 -4.34655786e-01  3.54278773e-01 -1.81096062e-01
  -1.81409732e-01 -7.86027778e-03  1.08948298e-01  3.32153887e-02
   3.99789996e-02 -2.07867231e-02 -1.26859680e-01 -7.51830861e-02
  -1.01210006e-01 -1.76241118e-02 -1.40528614e-02  8.44039917e-02
  -4.17889562e-03 -1.51043832e-01  1.88236341e-01 -2.58873880e-01
  -1.40323848e-01 -2.74338722e-01  2.68913716e-01 -7.13892058e-02
  -9.99735575e-03  1.82893187e-01  1.35773569e-01 -5.18614590e-01
   6.25478774e-02  3.72170955e-02 -1.80228457e-01 -2.08610237e-01
  -6.99216574e-02 -2.96132505e-01  1.04817450e-01  1.83320016e-01
  -9.51389596e-02 -1.72488783e-02  1.11268699e-01 -3.76704961e-01
   3.57589275e-01 -3.07386279e-01 -3.88176069e-02 -2.32445300e-01
  -7.39901438e-02 -2.64297187e-01 -2.62088269e-01 -5.29613867e-02
  -5.85863404e-02 -6.69506937e-02 -1.38756418e+00 -1.20839871e-01
   1.64333746e-01  1.03337362e-01 -3.90951522e-03  2.43698824e-02
  -1.14774453e-02 -1.69981420e-01 -1.94426939e-01 -6.93979189e-02
   8.87841210e-02 -1.42050879e-02 -2.20029145e-01 -2.08267987e-01
  -6.61678836e-02  2.81939358e-01  6.58597052e-02 -8.22937414e-02
  -1.36492878e-01  3.90424952e-02 -3.53837721e-02 -3.41547560e-03
  -1.66686133e-01 -8.15620124e-01  1.04772389e-01 -2.76223987e-01]
 [ 3.26579124e-01  2.12732360e-01 -2.69545913e-01  3.78123999e-01
   1.27750650e-01 -3.47359866e-01  9.57531780e-02 -2.18466356e-01
  -1.46402881e-01 -2.18978807e-01  7.88175613e-02 -2.70873100e-01
  -1.10526815e-01 -6.12251200e-02 -2.70902645e-02  8.79824013e-02
   1.86672583e-01  3.34683269e-01  1.23958541e-02  2.75139689e-01
   1.61149234e-01 -1.52636066e-01  5.73550835e-02  1.84652776e-01
  -2.04281792e-01 -1.59721449e-01  2.34713346e-01  1.93343833e-01
   6.67525306e-02  1.77636027e-01 -6.92685008e-01  2.93411702e-01
  -9.18365456e-03  3.24788600e-01  2.44778961e-01 -2.46414855e-01
  -3.46387893e-01  5.30969538e-02 -3.27889621e-01  4.96270061e-01
  -4.53734584e-02  6.42521024e-01  2.91003406e-01  9.71838385e-02
  -2.32862219e-01  3.36520940e-01  7.46770725e-02 -2.61277139e-01
  -1.95215046e-01  2.37636134e-01 -3.46923679e-01 -2.87056267e-01
  -2.38405317e-01  2.23392248e-01  5.80446661e-01 -1.77916527e-01
   4.01420921e-01  2.72203267e-01  1.82548538e-01  1.38838947e-01
  -5.42458773e-01 -2.82898426e-01 -1.52543336e-01  2.15267926e-01
  -2.27718413e-01  1.64245412e-01  1.72749758e-01 -1.60319414e-02
   1.78205948e-02  1.02421030e-01  1.04247771e-01 -1.45247430e-01
  -1.73925132e-01 -8.76014009e-02 -2.97682397e-02  2.63040483e-01
   3.03641737e-01  4.01660413e-01 -1.48101337e-02  2.33755559e-01
  -3.21563035e-01  1.39137015e-01  4.89699155e-01 -1.01664923e-01
  -5.34780800e-01 -4.69444543e-02 -1.36786401e-01 -4.96705532e-01
  -1.94811359e-01 -2.39372194e-01  9.20815095e-02  8.58043879e-02
  -1.43298075e-01 -3.76785994e-01  2.77555972e-01  1.93436399e-01
  -5.44854045e-01 -2.57220954e-01 -4.03216004e-01 -5.11983633e-01
  -1.43659547e-01  3.11071187e-01  5.96733809e-01 -2.15469196e-01
  -2.48224828e-02  9.04775411e-02 -1.15725718e-01  8.54295373e-01
   1.84929341e-01  2.13899344e-01 -3.72317225e-01 -4.97159243e-01
   1.40684813e-01  3.09332222e-01  1.92350950e-02 -1.95043385e-01
   5.49989879e-01 -1.75814912e-01  4.49301809e-01 -3.61092478e-01]
 [-7.10190177e-01  7.62712508e-02  1.47148043e-01 -7.65338540e-01
  -1.65405840e-01  2.38297567e-01  3.89000744e-01 -3.14655721e-01
   3.67766947e-01  5.73751211e-01  2.11082339e-01  5.47308803e-01
   2.98739433e-01 -3.63906562e-01 -4.18892205e-01  8.14868659e-02
   1.49591550e-01 -2.07592770e-01  2.06993356e-01  2.37476736e-01
  -5.05630016e-01 -2.02492461e-01 -7.87399590e-01 -5.30356526e-01
  -2.83596486e-01 -1.63562149e-01  3.44292670e-01 -6.44149303e-01
  -9.64604691e-02  1.27524454e-02  2.09805384e-01  9.32570994e-02
  -6.53862953e-02 -2.26794139e-01 -9.19604599e-02  4.77608353e-01
  -2.76941389e-01 -1.71024967e-02  3.38742703e-01 -2.44718622e-02
  -1.43396139e-01 -1.13934052e+00  2.13462844e-01 -2.95959920e-01
  -2.79235989e-01 -1.00915313e+00  5.81937492e-01  4.03490700e-02
   3.62265527e-01  3.06665868e-01  8.32797214e-02  1.13238737e-01
   3.00080925e-01 -1.00280158e-01 -2.45983437e-01  1.94519088e-01
  -2.05284461e-01  1.17462493e-01  2.07141533e-01  1.85938686e-01
  -2.02578887e-01  6.00198358e-02 -2.00553745e-01 -2.52466351e-01
