base_model/conv2d/kernel:0
(5, 5, 3, 6)
[[[[ 0.1440705  -0.18498924 -0.13495046  0.09048518  0.27730173
     0.13923813]
   [ 0.12257484 -0.13642383  0.13414012  0.15179999 -0.18232873
    -0.11544363]
   [-0.06847133  0.0150662   0.01399148 -0.00867047  0.10355394
    -0.27283102]]

  [[-0.07813135 -0.15232834 -0.3163956  -0.23800898  0.00503652
    -0.19662105]
   [-0.12292995 -0.25145882  0.10925298  0.04803715 -0.15180193
     0.00782283]
   [-0.12981048  0.07113252  0.04307112 -0.19270839  0.00290611
    -0.04073085]]

  [[ 0.10583239 -0.05585978  0.11224198 -0.09659414 -0.09175491
    -0.09821673]
   [-0.35794947 -0.13498178 -0.02007075  0.06710503 -0.12161104
    -0.26298076]
   [-0.12169883 -0.09803265 -0.01756937 -0.00904068 -0.20298518
     0.09255807]]

  [[ 0.13925634  0.43967557  0.1551016   0.16753156  0.12286963
    -0.15822755]
   [ 0.08546365  0.18481252 -0.32344255  0.22109938 -0.09109235
     0.07906081]
   [ 0.03994758 -0.0833799  -0.19398643  0.06775019 -0.2363845
     0.35744232]]

  [[-0.00528715  0.4337167   0.33192435 -0.12641905  0.18876706
     0.11149765]
   [-0.03483383 -0.05830997 -0.28806108  0.01453975  0.0646634
    -0.02996788]
   [ 0.08759431 -0.00161488 -0.02573847  0.04659092 -0.3031356
     0.25370768]]]


 [[[ 0.22585177 -0.02635501  0.22603022 -0.15808114  0.05790705
    -0.02679676]
   [ 0.07691413  0.21067953  0.21668506 -0.16170333 -0.20003274
    -0.11009884]
   [ 0.2716344   0.33044377  0.1320985  -0.07673047  0.1480959
    -0.3755006 ]]

  [[-0.13854666  0.01499981  0.32180807 -0.2607537  -0.2448336
    -0.20161328]
   [-0.2797445  -0.04505594  0.32205918  0.10521695 -0.06322447
    -0.08233306]
   [-0.10024503  0.3254178   0.01591347 -0.04445633  0.19504108
     0.07170205]]

  [[-0.15516871 -0.13316333  0.39797077  0.31925958 -0.06174068
    -0.27744722]
   [-0.43791476  0.03249655  0.19529402  0.40594116  0.10057077
     0.06373715]
   [-0.1699636  -0.2070825   0.22241476  0.33284742  0.32268012
     0.3771516 ]]

  [[ 0.33829194 -0.14360334  0.1447274  -0.2789074  -0.27223924
    -0.13180669]
   [ 0.37645206 -0.34483024  0.10398991 -0.05321924  0.02947881
     0.10264414]
   [ 0.17823008 -0.2958098   0.04493548 -0.10689678  0.30521277
     0.44891313]]

  [[-0.14869483  0.18114723  0.394064   -0.05128483 -0.04089399
     0.01273473]
   [ 0.08418665 -0.02033147  0.09764428 -0.23918901  0.20956413
     0.1915945 ]
   [-0.02359651 -0.22950037 -0.17548616 -0.0813058   0.16060908
     0.13316068]]]


 [[[ 0.24969207 -0.09309706 -0.23037346  0.12418585 -0.2447676
     0.04800212]
   [ 0.1869972   0.17740956 -0.32650182 -0.04375089 -0.1567317
    -0.08662019]
   [ 0.28875402  0.35423955 -0.48854506  0.16430722  0.2967813
    -0.25643945]]

  [[-0.17636591  0.10805078 -0.08652507  0.41530263 -0.2688149
     0.04847766]
   [-0.25943482  0.28022796 -0.2090532   0.32808286  0.03011284
    -0.05193608]
   [-0.25501904  0.42349958 -0.20622216  0.22040768  0.35769376
     0.2493372 ]]

  [[-0.2008265   0.16139777  0.03481976 -0.15287471 -0.19368152
    -0.12146969]
   [-0.44470122 -0.00492795 -0.09377632 -0.05291175 -0.12457321
    -0.05400689]
   [-0.29769954 -0.06784464 -0.20617098 -0.13016737  0.25940278
     0.4232125 ]]

  [[ 0.39588416 -0.01943855 -0.14290947 -0.12405094 -0.2682729
    -0.13649099]
   [ 0.30521426 -0.28173655  0.04550793 -0.27438802  0.1734648
     0.05845708]
   [ 0.4004315  -0.16341843  0.08578537 -0.37305626  0.41783187
     0.28017202]]

  [[-0.24377877 -0.11045242  0.09631969  0.0274079  -0.06058129
     0.0953178 ]
   [ 0.17292137 -0.13793355 -0.19489871  0.06736118 -0.0251063
    -0.11114454]
   [-0.103962   -0.7128823  -0.00966021  0.0075915   0.08698606
     0.05525204]]]


 [[[ 0.21185473  0.14282104  0.23947537 -0.09049474 -0.20195526
     0.07333528]
   [ 0.04818046  0.2417629  -0.15418337 -0.16462027  0.08801729
     0.05025262]
   [ 0.16333659  0.27760467 -0.04424742  0.16731256  0.4688182
    -0.05222833]]

  [[-0.22004633  0.0957943  -0.14249407 -0.05947593 -0.15375686
    -0.0077003 ]
   [-0.1935854  -0.00290573 -0.13469855 -0.1364527   0.12110156
     0.04027003]
   [ 0.00442602  0.10025185 -0.16690342 -0.11885053  0.17555143
     0.29213616]]

  [[-0.10311188 -0.23893577 -0.222734   -0.45602912 -0.34991407
     0.00900593]
   [-0.3560298  -0.00564381 -0.12112747 -0.4442173  -0.10841906
    -0.04070178]
   [-0.12908733 -0.07167564 -0.02618429 -0.41215882  0.27548745
     0.13480031]]

  [[ 0.16883567 -0.04608158 -0.19467549  0.06381901 -0.25171155
     0.01793406]
   [ 0.35784838  0.08990557 -0.2787312   0.07097095  0.11027287
    -0.06760662]
   [ 0.16221218  0.06292556  0.02318203  0.10998581  0.07444087
     0.13969967]]

  [[ 0.01018424 -0.06568687 -0.00743694  0.23965684 -0.21698219
     0.25339454]
   [ 0.06818978 -0.05642549 -0.06690347  0.24327679  0.1470796
    -0.288019  ]
   [-0.15620594 -0.40263578  0.13189018  0.07433888  0.02157078
    -0.12575085]]]


 [[[-0.06520568  0.01476674 -0.14820316  0.11207905 -0.22510916
     0.11684403]
   [ 0.10081084 -0.13810685  0.11060845 -0.27332565 -0.04335719
     0.24490087]
   [ 0.02268366  0.1866812   0.4124409   0.02065122 -0.10665868
    -0.04315511]]

  [[-0.05568986 -0.08848274 -0.18636784  0.00196076 -0.34873587
     0.19904284]
   [-0.12003955 -0.21237062  0.00116035 -0.08628122  0.07352702
    -0.09388762]
   [-0.04643125  0.01876028  0.3262595  -0.00440663 -0.01578093
     0.02257345]]

  [[-0.1625019   0.00507134 -0.01179366  0.28860804 -0.28724697
     0.27886653]
   [-0.29013604 -0.02471163  0.05997618  0.26665297  0.129477
    -0.18324406]
   [ 0.10964768  0.02259463  0.24599744  0.16548753 -0.06986233
    -0.19188958]]

  [[ 0.0694337   0.15339553 -0.18406071  0.1583789  -0.21630919
     0.22152723]
   [ 0.04533125 -0.10495269 -0.01795993  0.1196108  -0.02506395
    -0.10468188]
   [ 0.02632181  0.10889999  0.12814309  0.1606951  -0.07440577
    -0.36687982]]

  [[ 0.02299908 -0.02162124 -0.1584742  -0.08229008  0.09027795
     0.39606613]
   [ 0.01869257 -0.03610802 -0.08618664 -0.09258496  0.26074502
    -0.10987247]
   [ 0.08101845 -0.19876279  0.12366385 -0.08507623 -0.00451075
    -0.53067863]]]]
base_model/conv2d/bias:0
(6,)
[-1.24363564e-01 -2.94404682e-02 -1.13099217e-04  2.67958164e-01
  2.87419315e-02  6.48035035e-02]
base_model/batch_normalization/gamma:0
(6,)
[0.83390534 0.6076753  0.7485686  0.59671783 0.28106806 0.56721807]
base_model/batch_normalization/beta:0
(6,)
[-0.40863085 -0.26358128 -0.50591433 -0.3303128   0.01527144 -0.40513515]
base_model/dense/kernel:0
(1536, 128)
[[-1.62219943e-03 -3.20978835e-02 -6.30696164e-03  2.56128609e-01
   4.71589491e-02 -2.37684071e-01 -2.81423926e-01 -2.89887011e-01
  -1.38228452e-02 -3.91439460e-02 -4.16926414e-01 -6.10449314e-02
   5.05867824e-02  3.49949330e-01 -2.94977222e-02 -5.13303140e-03
  -2.14255396e-02  2.47261394e-02  3.16994861e-02 -3.86567824e-02
  -5.19324578e-02 -2.35957354e-02 -1.83496088e-01 -4.48021963e-02
   2.47041974e-02 -2.79218972e-01 -1.22869164e-02 -8.64019394e-02
  -7.17672557e-02  1.23739116e-01 -5.41819632e-02  2.39814892e-01
  -1.87840641e-01 -7.76615217e-02  9.85158384e-02 -1.47015080e-01
   2.06117198e-01 -2.00393498e-01  2.32076868e-01 -1.60169099e-02
   3.80231321e-01 -5.64814061e-02  5.97635694e-02 -3.60420972e-01
   1.77858509e-02 -1.96446747e-01 -4.68580332e-03 -4.76719558e-01
  -7.65174553e-02  1.89721674e-01 -2.57883817e-01 -6.72090769e-01
   2.81666577e-01 -7.87514150e-02 -1.50359897e-02 -2.61106044e-01
   2.72354156e-01  2.69782706e-03  3.70804995e-01  3.39946412e-02
  -1.06882706e-01 -6.81575686e-02  1.85482726e-01  1.80812210e-01
  -2.56882031e-02 -7.93132484e-02 -3.28274406e-02 -2.26697177e-02
   8.74267519e-03 -6.79058507e-02 -1.22063994e-01 -5.40227145e-02
  -3.17203701e-01 -1.93596184e-01  1.02011964e-01  4.87210369e-03
  -5.37320226e-02 -4.49928641e-02  1.53665990e-01 -5.88051789e-02
  -3.89694087e-02  5.01218103e-02 -2.14827023e-02 -1.85007192e-02
   4.76783663e-01 -3.26730646e-02 -4.81643453e-02 -3.56912278e-02
  -5.51738255e-02 -6.70799166e-02 -7.42718577e-02  1.79638080e-02
   2.50209749e-01  7.85263404e-02 -2.68149227e-01  2.62165159e-01
  -1.49605870e-01  8.69336873e-02  7.59993680e-03  2.55459040e-01
   6.68277517e-02 -9.62317511e-02  2.49707803e-01 -2.80091371e-02
   1.02609172e-02  3.95497382e-01  3.71850990e-02 -6.19196407e-02
  -3.25360633e-02  3.04904114e-02  1.70927308e-02  2.20457301e-01
  -7.68604279e-01 -2.25086957e-01 -3.89919616e-02  2.60476112e-01
  -2.47530509e-02  6.00549132e-02 -1.70360450e-02  1.92231387e-01
  -2.93261826e-01  1.88841764e-02 -2.43969306e-01 -1.32671565e-01
  -5.28685153e-02 -3.54841888e-01  3.04930627e-01 -2.47052088e-02]
 [ 4.26200032e-02 -1.56467948e-02 -6.16086647e-02  1.63037851e-01
   1.00553120e-02  3.35423768e-01 -1.85251519e-01 -2.87268966e-01
   4.12758552e-02 -1.75604708e-02  1.00426346e-01 -1.71980988e-02
   5.69239184e-02 -1.45838529e-01 -1.07267813e-03  4.92965840e-02
  -2.18712110e-02 -4.55993898e-02 -5.81505932e-02 -3.92637849e-01
  -4.37888913e-02 -9.10999849e-02 -1.12036610e+00  1.11133102e-02
  -3.66410762e-02  2.03357898e-02 -1.82993356e-02 -3.70533794e-01
  -4.30468768e-02  4.24047336e-02  2.92671084e-01  8.77138600e-02
   1.68233484e-01  3.85423675e-02  4.07517366e-02  2.56892473e-01
  -2.23244265e-01 -6.31120384e-01 -3.52948517e-01  9.34864394e-03
  -6.19689047e-01 -5.37413396e-02 -7.71764219e-02  2.72041261e-01
   5.86684905e-02  2.43763387e-01  1.20334495e-02 -2.54940867e-01
  -2.89185327e-02 -1.15785696e-01  1.66627504e-02 -1.34861743e+00
  -8.35869536e-02 -3.90635550e-01 -2.17246613e-03  5.28678715e-01
  -1.51894204e-02  2.10381933e-02  5.38444281e-01  1.81327213e-03
  -1.58644661e-01 -2.57044613e-01 -1.27096042e-01  2.59945452e-01
   4.81423698e-02 -7.03633726e-02 -7.80371353e-02 -1.25781775e+00
  -1.62971504e-02 -1.20492699e-02  1.52303010e-01  3.71815488e-02
  -2.98904955e-01 -7.19551682e-01 -2.35453501e-01 -5.64124659e-02
   3.96386534e-02  4.67798533e-03 -3.95232111e-01  2.13558376e-02
   4.53593358e-02 -3.79477404e-02  2.20720973e-02 -4.13402691e-02
  -4.47905362e-01  2.74248440e-02  2.35758536e-02  7.32809842e-01
  -4.47086571e-03  5.41073568e-02  3.88860464e-01 -2.85580335e-03
  -1.47076085e-01  4.03117865e-01 -2.02511132e-01  3.05612125e-02
   6.50542617e-01 -2.99132198e-01 -3.39243561e-02 -6.96892962e-02
  -4.30048853e-01 -1.39032409e-01  1.40293643e-01  1.36193827e-01
   8.07495937e-02 -2.32624784e-01  3.22379589e-01 -1.71956234e-02
  -5.06729782e-02  8.20409507e-02 -2.78367959e-02 -2.16326892e-01
   8.51915330e-02 -2.32182547e-01  4.62587401e-02 -1.04402311e-01
   1.09436791e-02  2.19758585e-01 -2.18876936e-02 -1.44709334e-01
  -2.47905418e-01 -2.41943896e-02 -1.10792148e+00 -3.65695432e-02
  -4.61265445e-02 -7.15172291e-01 -6.46527648e-01 -3.68326865e-02]
 [-2.95017883e-02 -4.12432104e-03 -2.78261490e-02 -2.17874169e-01
  -4.91297804e-02  2.52884049e-02  1.59608141e-01  1.53756887e-01
   5.15784211e-02  2.29468141e-02  1.33283257e-01 -1.58047061e-02
  -1.64818931e-02  8.15187022e-02 -9.48908627e-02 -5.55218942e-02
  -1.33771570e-02  2.42301747e-02  1.87901853e-04  2.43121311e-02
  -2.20184289e-02 -4.62839603e-02  1.69704497e-01  1.29282093e-02
  -3.17483842e-02  2.96594113e-01 -1.73999550e-04  1.43532455e-01
   1.88335795e-02 -1.18768774e-01  2.22358741e-02 -6.05827458e-02
  -1.60683274e-01 -9.07464251e-02  2.22609684e-01 -1.52158700e-02
   4.31809155e-03  1.63476378e-01  1.06384121e-01  2.56328396e-02
  -7.88981542e-02  5.23101389e-02 -4.78190556e-02  3.17607313e-01
  -3.37738767e-02 -2.34369338e-01 -1.16680190e-01 -3.65453541e-01
  -5.20191006e-02 -1.42906442e-01 -1.38923347e-01  2.52665460e-01
   6.14443980e-02  1.25288755e-01 -2.47724988e-02 -4.18855511e-02
  -1.14953972e-01  2.23430675e-02  1.52396247e-01  4.94810902e-02
  -9.07382891e-02 -8.99606794e-02  7.15023428e-02  3.08900058e-01
  -6.15613870e-02 -6.48461878e-02 -1.46318093e-01 -2.10976660e-01
   6.27541402e-03 -2.08576713e-02  1.01139508e-01  1.76965576e-02
  -4.19505350e-02  1.24636009e-01  6.19214848e-02  7.11413380e-03
  -7.18962401e-03 -1.42920241e-02  2.49876417e-02  4.61996533e-02
  -3.31887417e-02 -4.64015566e-02  3.81111354e-02 -4.29734848e-02
  -1.63995042e-01 -5.81842922e-02  3.31953615e-02 -1.57197386e-01
   1.57959517e-02 -1.03652887e-02  5.36798052e-02 -5.07018007e-02
  -7.73004815e-02 -4.20843333e-01  9.67727751e-02  8.54354352e-02
  -2.41789475e-01  1.53737560e-01 -1.89049467e-01 -1.91281155e-01
   6.34120330e-02 -1.33342296e-02 -6.28374442e-02  4.84320195e-03
   1.79646704e-02 -1.44265413e-01 -1.63290411e-01 -7.46655762e-02
  -2.00271215e-02 -2.05070451e-01  6.46729693e-02 -4.17309165e-01
  -2.50833035e-02  2.54801102e-02  2.73535252e-02 -3.47884446e-02
  -2.50666700e-02 -2.40477487e-01 -8.20112005e-02 -2.58313179e-01
  -3.35393220e-01 -4.24006656e-02  2.21038926e-02  2.45886892e-02
  -4.04830649e-02  3.90971303e-02  1.92702860e-02  1.84641499e-02]
 [-6.41149879e-02  2.78630834e-02 -5.26195280e-02  7.44953454e-02
  -6.68190643e-02  3.35710496e-01  1.78834006e-01 -1.56015744e-02
   2.57927068e-02 -2.04075431e-03 -2.07498670e-01 -7.66313374e-02
   2.38613617e-02  4.16302830e-02 -5.13368100e-03 -1.24160256e-02
  -6.23343587e-02 -6.37207180e-02 -9.95285902e-03  6.52441829e-02
  -9.74679813e-02  2.07181685e-02 -1.18960425e-01 -2.14957893e-02
   2.80300267e-02 -6.34298027e-02  5.61480410e-03  8.84089470e-02
  -2.51323748e-02  1.19302064e-01  1.36701614e-01 -1.59118041e-01
   7.45545179e-02  1.12962611e-01 -2.50459552e-01  8.76967385e-02
   3.74503694e-02 -1.77671477e-01 -1.02270529e-01 -6.13723658e-02
   6.18960671e-02  1.17148738e-02  1.38521502e-02 -4.29228008e-01
   7.93613866e-03  1.95889205e-01  9.57278162e-03  2.21603319e-01
   1.73135214e-02 -1.64131880e-01 -1.01241671e-01  1.32057920e-01
   1.84411541e-01 -1.50426859e-02 -3.82482447e-02  6.86390102e-02
   1.07755095e-01 -1.72678456e-02 -4.02698107e-03 -3.17116082e-02
   5.89255914e-02  3.40886772e-01 -3.05945128e-01 -9.44945589e-02
  -5.97484633e-02 -1.83702290e-01 -1.51212081e-01 -1.33673936e-01
  -2.28635478e-03 -4.04432639e-02  1.14488862e-01  2.83826254e-02
  -1.05491720e-01  2.02584416e-01  6.21299185e-02 -3.31327915e-02
  -7.23736212e-02  5.13693467e-02  8.51602107e-02 -2.92423368e-02
  -5.63348345e-02  3.67791913e-02  2.08360441e-02  3.17897834e-02
   6.84246281e-03  4.09640186e-02 -1.63915660e-02 -2.72181600e-01
  -6.48031458e-02 -4.80748527e-02  1.17793903e-01  2.57907286e-02
  -2.06934530e-02  1.06386803e-01  3.37122470e-01  2.16023400e-01
   4.18661907e-03 -3.82070780e-01  1.70991749e-01  6.44106120e-02
   1.56690776e-01 -2.18210053e-02  5.36685437e-02 -1.78602990e-03
   2.35025629e-01  7.16958717e-02 -4.35317904e-02  1.57007817e-02
   2.59528067e-02 -4.14859690e-03 -4.43804301e-02  2.61554003e-01
  -1.28944576e-01 -1.34721711e-01 -4.08898778e-02  1.33787870e-01
   3.28276195e-02 -4.75236028e-02 -5.09601347e-02  3.59739661e-01
  -1.15201585e-01 -4.61323112e-02  1.45867005e-01 -1.86748691e-02
   4.08685533e-03 -1.29898161e-01  1.71520725e-01 -2.28810944e-02]
 [ 2.10876763e-03 -2.00524516e-02 -5.01630455e-02 -2.47434437e-01
  -3.47192138e-02  9.20680538e-03  4.20809351e-02 -6.21406082e-03
  -9.36977789e-02  2.77034733e-02 -9.39587802e-02 -1.31659843e-02
  -1.76727362e-02  5.51011153e-02  2.42229626e-02 -9.04686749e-03
  -4.09888243e-03 -7.04653654e-03 -5.69982231e-02 -7.55489944e-03
   6.50615245e-02  3.48296715e-03  1.08079620e-01 -6.29649237e-02
  -2.32267585e-02  4.59933989e-02  1.15572996e-02 -9.72980782e-02
  -2.89373379e-02 -1.95793845e-02  1.21526405e-01  9.82354283e-02
  -1.96572557e-01 -5.61454846e-03 -1.84532627e-01 -6.79595321e-02
  -1.45081893e-01  8.46829787e-02 -9.20470338e-04 -1.35840969e-02
   1.04258969e-01  3.97418402e-02  1.80481493e-01  1.02884002e-01
   4.55423966e-02 -8.79451260e-02 -9.97443274e-02 -1.92561150e-01
  -3.98655946e-04  1.34106143e-03  1.23848736e-01  2.15500165e-02
   2.62349863e-02  7.61527866e-02 -7.52782002e-02 -6.38584644e-02
  -1.61330238e-01  2.30186582e-02  4.16447455e-03  1.65080689e-02
  -1.47060335e-01 -3.17469835e-02  1.65409848e-01  2.45173052e-01
   3.11865751e-02 -4.92707342e-02 -6.89337403e-02  1.12891056e-01
  -3.57581340e-02 -4.87108640e-02  3.24040800e-02  2.12689228e-02
   1.36913776e-01 -2.03288905e-02 -1.16523206e-01 -1.70064513e-02
  -7.19080865e-02 -5.20058488e-03  5.42243160e-02  1.75695568e-05
   6.52689778e-04  1.04388230e-01  1.34679945e-02 -4.81501222e-03
   1.84131220e-01  2.91203707e-02 -7.66061321e-02 -1.25436440e-01
  -6.80425093e-02 -5.02156280e-02 -1.33115470e-01 -2.73683630e-02
   6.54442385e-02 -2.50561386e-01  5.45371585e-02  7.65201524e-02
  -1.36893034e-01 -5.89867420e-02  9.89663601e-03 -2.19070856e-02
   2.53429227e-02 -4.78884764e-02  7.65992925e-02 -9.62834433e-03
  -2.69598477e-02 -2.12036863e-01 -2.82500833e-01 -3.82449254e-02
   5.19747436e-02 -7.41020665e-02  1.55175030e-02 -1.12958001e-02
  -3.96190807e-02  1.85041204e-01 -1.60826035e-02 -1.03601016e-01
  -1.07880449e-02  2.21967593e-01 -6.10915497e-02  8.07581171e-02
  -2.08264068e-01  1.61069464e-02 -8.83435458e-03 -5.70411421e-02
  -7.35784397e-02 -4.41488251e-02 -1.45071283e-01 -8.22479799e-02]
 [ 1.67660415e-03  3.44918035e-02 -3.28750871e-02 -2.43591130e-01
   7.79125723e-04  9.02886987e-02  1.59591690e-01  8.90688673e-02
  -1.30314603e-01  3.14764231e-02  3.67359906e-01  1.25777442e-02
  -4.26792093e-02 -1.19738922e-01 -2.40767486e-02 -3.60141955e-02
  -6.68407306e-02 -1.12482775e-02 -1.90101359e-02  1.67676345e-01
  -3.67475264e-02 -3.60570326e-02 -2.83732712e-02 -1.73711237e-02
  -1.06659625e-02  2.35012714e-02 -2.75985952e-02  1.37832552e-01
   4.82598059e-02 -1.03045061e-01  1.01273460e-02 -1.12185314e-01
   1.23732753e-01 -1.24277085e-01 -1.63681909e-01 -1.00598983e-01
  -2.01701596e-01  3.18099596e-02 -3.36022452e-02 -2.61035841e-02
   8.47436786e-02 -4.02128249e-02 -3.07762288e-02  3.82199258e-01
   8.17129761e-03 -1.59469724e-01 -4.55296524e-02 -1.94311410e-01
  -3.76203842e-02 -1.42908990e-01  5.89451566e-02  1.11898081e-02
  -6.90066963e-02  5.80181554e-02 -8.23907182e-02 -2.31971238e-02
   3.14481393e-03  1.81345809e-02  1.07808046e-01  3.64472754e-02
  -2.28022248e-01 -6.55320361e-02  1.41379893e-01  2.57009447e-01
  -1.48422658e-01 -1.29187122e-01  1.95366181e-02 -1.15581550e-01
  -2.64989361e-02 -2.20006872e-02 -1.98115692e-01 -2.31781695e-02
   1.01386920e-01  1.35060459e-01  4.73201051e-02 -4.29184251e-02
  -6.79800287e-02 -4.80852984e-02  1.85235869e-02  2.78225783e-02
   4.00827825e-02 -1.98700884e-03  9.52770561e-03 -1.61543582e-02
  -1.07647769e-01 -6.56858608e-02 -1.56916550e-03  8.33138451e-02
   3.46431434e-02  1.84241943e-02  4.02734801e-02 -6.10820241e-02
   1.37121305e-02 -1.27101809e-01  4.59156046e-03  1.12267710e-01
  -3.50058377e-01  2.14520842e-01 -1.21512547e-01 -2.22535342e-01
   2.11705025e-02 -3.18481028e-02  5.46511486e-02 -1.81712911e-01
  -8.36903900e-02 -3.13714802e-01 -2.34992340e-01  1.06447935e-02
  -1.72956344e-02 -7.19769625e-03 -5.64093422e-03 -4.06929910e-01
   3.85051817e-02  5.88594340e-02  5.64487949e-02 -2.29336038e-01
   4.10792837e-03 -1.02527611e-01 -2.78217252e-02  3.30093913e-02
  -1.10415801e-01 -3.57176140e-02  8.58451650e-02  6.45501316e-02
  -3.70438844e-02 -9.18236375e-02 -1.94532603e-01 -9.35963690e-02]
 [ 3.70849743e-02 -3.54332700e-02 -3.34484056e-02  1.22286357e-01
  -6.27544299e-02 -3.94088775e-01 -8.58407393e-02  9.53958631e-02
  -1.13761555e-02 -6.35746047e-02 -1.23073243e-01  2.84357695e-03
  -6.62280321e-02  1.63159832e-01 -1.51288067e-03 -2.98412628e-02
  -3.26322131e-02 -2.74095256e-02  4.26767841e-02 -1.41381890e-01
  -7.94058740e-02  3.61195095e-02 -3.26221794e-01 -5.39062396e-02
  -6.45132437e-02 -6.04169779e-02  5.03106881e-03  3.14113200e-01
  -6.70523569e-02  3.15363780e-02 -2.86686569e-02  1.36468366e-01
  -1.95800170e-01  1.98280647e-01 -1.45909321e-02 -2.40047351e-02
  -8.02381057e-03 -9.10913423e-02 -8.28394666e-02 -3.06735169e-02
  -2.04660758e-01 -7.51472730e-03 -5.19473143e-02 -3.74412239e-01
   5.29381707e-02 -1.24621637e-01 -7.72436485e-02 -4.80677009e-01
  -4.05143239e-02  6.24060333e-02 -8.96856785e-02 -4.31545824e-01
   2.12295964e-01  1.06001715e-03  2.94538848e-02  4.21149105e-01
  -1.84874848e-01  2.92965192e-02  2.06047207e-01  3.71936895e-03
  -2.65305400e-01  1.33100122e-01 -1.10321134e-01 -1.60038605e-01
   5.30430395e-03  1.21695966e-01  4.74960953e-02 -2.04224974e-01
   1.82963684e-02 -2.24831346e-02  2.82701731e-01 -5.87194152e-02
   5.72760738e-02 -4.76306260e-01  9.82239842e-04 -7.00356290e-02
   3.32306349e-03 -5.99447228e-02  3.83100621e-02 -2.59123300e-03
   3.78106087e-02 -9.48162079e-02  2.96968617e-03 -3.33129875e-02
   5.84819578e-02 -1.46494166e-03 -7.85065070e-02 -8.34742263e-02
   1.80293024e-02  4.57104146e-02  1.18120216e-01  2.84710992e-02
  -5.49937226e-02  2.94006914e-01 -9.05596931e-03  1.46031111e-01
  -1.51114985e-02 -1.54953480e-01  4.06946242e-02  2.29320884e-01
   2.46988498e-02  9.25869942e-02  2.90595204e-01 -1.11648172e-01
  -1.24456519e-02  1.69425070e-01 -9.81978104e-02 -9.07587353e-03
  -4.31980379e-02  2.11476386e-01 -6.80321157e-02 -3.02755926e-02
   1.58787876e-01  5.54256849e-02 -2.07882822e-02 -2.33817082e-02
  -2.02153828e-02 -1.45618021e-01 -3.95352729e-02  7.12087527e-02
   1.23080246e-01 -3.02328654e-02 -8.39108005e-02  9.24118422e-03
   4.98806611e-02  2.62660161e-02  3.57907824e-02 -1.34409359e-03]
 [-5.98207861e-02 -7.73118585e-02 -6.70895129e-02  7.59110646e-03
   2.40512006e-02 -1.50844559e-01 -1.71111047e-01  1.34739250e-01
   1.54736549e-01 -2.30572168e-02 -3.99752008e-03 -2.01853216e-02
  -6.12664036e-02  9.26630124e-02  3.80395465e-02  1.46277053e-02
  -5.75706959e-02 -4.15143222e-02  3.76883335e-02  1.19306371e-01
  -5.67866862e-02  4.35564369e-02  5.73312305e-02  2.12799571e-02
   4.74286973e-02  1.02740839e-01 -4.98049259e-02  1.42523304e-01
  -3.61190885e-02  7.51026198e-02  1.55060953e-02 -5.66265807e-02
  -4.30063546e-01  6.67599887e-02  9.88178179e-02  1.04308702e-01
   2.98457611e-02 -1.09878413e-01 -3.14450234e-01 -1.82710327e-02
  -1.45227304e-02  5.62666357e-02 -1.99716300e-01  1.13830417e-01
  -2.13501919e-02 -8.79703239e-02 -7.16493577e-02 -9.73014012e-02
   4.65573333e-02  5.64116202e-02 -2.22289413e-02 -3.40334326e-01
   2.59721637e-01  5.02812900e-02 -4.06929851e-03 -1.50943682e-01
  -6.50815144e-02 -4.91434149e-02 -8.74304995e-02 -4.55874391e-02
   8.05721730e-02  1.82248592e-01 -2.53381908e-01  2.94774771e-01
  -4.59432639e-02 -1.16732113e-01  4.71240133e-01  3.11161488e-01
  -2.59831958e-02  1.09732356e-02  2.46558264e-01 -2.97919940e-02
  -2.73277704e-02  5.06429598e-02 -7.56709576e-02 -4.26863767e-02
   1.45962341e-02 -5.83725832e-02 -5.05408198e-02  1.43512320e-02
   4.41707037e-02 -1.43934727e-01 -4.65079732e-02 -9.69825238e-02
  -6.29248098e-02 -3.34615968e-02 -4.25544828e-02  4.79830764e-02
  -5.56278676e-02 -6.89598843e-02 -1.47480844e-02 -5.61321387e-03
  -2.66341358e-01  1.90550104e-01 -9.97600555e-02  2.20409140e-01
  -1.48724690e-02 -2.63560534e-01 -6.31357357e-02  6.08732887e-02
   1.41860932e-01 -1.05387211e-01  2.99847186e-01  2.93218255e-01
   4.14294451e-02  2.44676143e-01  2.91129142e-01 -2.29546465e-02
  -3.73418555e-02  1.42784178e-01 -6.19655438e-02 -4.00963016e-02
  -7.98217505e-02 -6.82300478e-02  2.38198601e-02  4.93774042e-02
  -4.80079800e-02  1.82865362e-03 -3.00487187e-02  1.88945651e-01
  -5.06830364e-02  3.46134044e-02  2.25056008e-01  2.41590831e-02
   6.14994904e-03 -6.14518046e-01 -1.12676106e-01  4.43733484e-02]
 [-5.88959940e-02 -1.92979500e-02 -4.79342490e-02 -2.90321440e-01
  -8.03159103e-02  1.73016652e-01  2.28534132e-01  3.19987759e-02
   1.09622525e-02  1.04377344e-02  5.70493527e-02  4.26307470e-02
  -8.02917928e-02  1.26422599e-01  2.05370244e-02 -3.23597342e-02
  -2.52663344e-02  1.05272476e-02  3.63240205e-02  3.04185506e-02
   6.39684871e-02 -5.04817963e-02 -1.14846826e-01  2.28731148e-02
  -8.06167629e-03  7.68394545e-02  2.81348936e-02  1.11940153e-01
  -6.83803286e-04 -7.73803890e-02 -1.70557544e-01 -3.44630890e-02
  -6.00057095e-02 -1.38751194e-01  2.34768063e-01 -8.92233923e-02
   1.23302177e-01 -1.48418218e-01  1.87089309e-01  4.32117321e-02
  -2.34873369e-01  5.13721928e-02 -1.62849933e-01 -2.04756230e-01
  -6.31674156e-02 -2.11211324e-01 -1.42784208e-01 -1.28438413e-01
   1.34830000e-02  2.71817952e-01 -1.66881949e-01  5.40546365e-02
   1.30931884e-01 -5.63628338e-02 -8.36559944e-03 -1.99741557e-01
  -1.69188723e-01  2.49345619e-02  5.31907380e-02 -5.33344261e-02
  -2.20931262e-01 -5.33110388e-02 -1.34597808e-01 -1.29801840e-01
   7.32738152e-02  6.04615360e-02 -1.19803406e-01  1.58389255e-01
   2.00624093e-02 -5.56853926e-03  2.71696657e-01 -7.46599510e-02
  -7.59335682e-02 -1.54645264e-01 -1.36009771e-02  1.77034251e-02
   3.68762687e-02  1.53459460e-02  1.04316801e-01 -5.35391551e-03
  -2.71617677e-02 -5.99211231e-02 -5.00217900e-02 -1.92769729e-02
   3.13514248e-02  3.83904018e-02 -7.08006471e-02 -1.21681467e-01
   1.05688628e-02 -5.25637306e-02  1.39640808e-01  8.41588830e-04
   1.17433436e-01 -1.07122362e-01 -9.60600227e-02 -3.46028984e-01
   2.79463172e-01 -2.40921639e-02 -1.36100277e-01  7.25322589e-02
  -8.84313732e-02 -1.93628855e-02  1.28687881e-02  1.27297834e-01
  -1.00889288e-01  1.76179677e-01  1.33335501e-01 -4.92289886e-02
   2.29742099e-02  3.07668373e-02  1.88923478e-02  2.24393308e-01
  -5.68994023e-02 -1.43775046e-01  2.48421468e-02  8.31884816e-02
  -4.35792143e-03 -1.68807164e-01 -9.74750817e-02 -2.82088909e-02
  -6.21651970e-02 -2.33964212e-02 -3.52640986e-01 -6.10784106e-02
   2.48047765e-02  2.81146497e-01 -4.74403016e-02  1.16307937e-01]
 [ 6.75602700e-04 -7.06128180e-02 -3.58166620e-02  1.22008376e-01
  -1.76703110e-02 -7.97525942e-02  1.74078882e-01 -6.20825924e-02
   5.56965545e-02 -3.72509435e-02  7.85598084e-02  2.81799491e-02
   7.87267741e-03 -9.62624848e-02 -6.24889508e-02  4.20240723e-02
  -1.91443358e-02 -2.34465972e-02  2.51055397e-02 -2.27011088e-02
  -5.54578267e-02  1.99509207e-02 -7.13165626e-02 -4.95889485e-02
  -9.04201251e-03  9.83991381e-03 -2.43585091e-02 -1.45491406e-01
   4.80362820e-03  2.83905804e-01  1.64231211e-01 -8.79522413e-02
   1.00528881e-01 -9.70448703e-02  1.28830031e-01 -2.87575610e-02
   4.97068092e-02 -2.99389750e-01 -2.09816024e-01 -4.32308130e-02
  -1.23771811e-02  2.11973512e-03 -9.82921571e-02 -3.48522633e-01
   7.31850695e-03  2.29422562e-02 -7.56301507e-02 -6.44461066e-02
  -4.33381908e-02  6.05622157e-02 -1.86395422e-01 -2.95020670e-01
   5.67852296e-02  1.98416963e-01 -6.51030764e-02  1.31393541e-02
   5.53366728e-03 -7.56571814e-02  4.64686453e-02 -2.42643896e-02
   1.24616571e-01  2.82093585e-01 -1.88264415e-01 -4.45887655e-01
  -5.11084795e-02  6.64072558e-02 -2.80664206e-01 -1.75830320e-01
   4.99478988e-02 -8.37804005e-02 -2.96468377e-01 -1.43294102e-02
  -4.78327796e-02 -1.39279231e-01 -9.19570774e-02  2.29042806e-02
  -2.42779031e-02 -3.46289799e-02  1.72832429e-01  4.97168042e-02
  -1.38190333e-02 -9.93169695e-02  4.09943126e-02  4.07717749e-02
   2.37519890e-01 -4.92178323e-03  5.57436459e-02  6.03230782e-02
  -7.48754442e-02  3.11791096e-02  3.26685756e-01 -6.54035285e-02
   1.72457740e-01  2.75305182e-01  2.64490664e-01  3.88578922e-01
   9.59978104e-02 -2.47017473e-01 -3.03162285e-03 -3.41982208e-02
   8.64430144e-02 -3.53021681e-01  2.52919570e-02 -2.09161919e-02
  -1.27188981e-01 -1.19078591e-01 -1.47123396e-01  4.98967841e-02
  -3.10572851e-02  6.74670339e-02 -3.83603275e-02 -1.78715169e-01
   3.64675000e-02  8.78409147e-02 -1.49450535e-02 -1.45451456e-01
   6.27665520e-02  1.40370116e-01  1.03261083e-01  1.41428992e-01
   9.38502774e-02  4.76300642e-02  2.47801974e-01 -4.30147611e-02
  -3.18765193e-02 -4.54594567e-02  2.72049665e-01 -1.06527172e-02]
 [-3.70653942e-02  8.55321810e-03  1.75574142e-02 -1.29859582e-01
   6.02266798e-03  2.01702844e-02  3.89075726e-02  1.00315884e-01
  -1.36250630e-02  1.54784415e-03  1.18914219e-02  2.02447781e-03
   1.19599001e-02 -1.08912081e-01  4.56538387e-02 -5.38741611e-02
  -8.02197978e-02 -4.30799555e-03  4.02050316e-02  2.71449029e-03
   2.73882765e-02  1.52493855e-02  9.91455689e-02  6.42989762e-03
  -1.04924686e-01 -6.18419833e-02 -7.39677101e-02  1.67123124e-01
  -4.40004282e-02 -2.84412384e-01 -6.93347976e-02  1.97651181e-02
  -6.89910427e-02 -1.27780318e-01  8.79461616e-02  4.72441688e-02
  -2.67007679e-01  1.38017058e-01  7.23684654e-02 -4.13096063e-02
  -6.26479536e-02 -2.68006139e-02  7.12271929e-02  2.09790412e-02
   1.76523011e-02 -1.12091631e-01 -5.74140586e-02 -5.95316514e-02
   1.90701671e-02 -3.03172588e-01  9.61511061e-02  8.07482228e-02
  -4.09838632e-02  6.25684101e-04 -4.99021076e-02  9.84424278e-02
  -6.97260723e-02 -7.43242055e-02  1.25218049e-01 -4.53533158e-02
  -1.63826831e-02  1.26968250e-01  4.22101617e-01  9.95735824e-02
   2.96629760e-02  1.23008881e-02 -5.23400120e-03 -2.45175928e-01
  -1.22053605e-02 -3.78691219e-03  2.06237528e-02  1.59459133e-02
   3.32831480e-02 -1.06949791e-01 -6.70889989e-02  6.31852262e-03
  -2.50856392e-02  2.27050111e-02  1.37532815e-01 -2.14009173e-02
   2.89326701e-02  1.28831314e-02 -4.95141484e-02 -2.67504472e-02
  -1.48399040e-01 -4.16602977e-02  4.46537361e-02 -2.31469363e-01
  -2.94110868e-02  3.62285152e-02  6.08006492e-02 -3.45922820e-03
   5.42527996e-02 -2.63268471e-01  8.07213783e-02 -9.85957459e-02
  -2.56054521e-01 -1.48395449e-02 -6.83586299e-02 -1.68540645e-02
   5.34497127e-02 -5.37306070e-02  4.19590302e-04  5.67930751e-02
  -4.68963571e-02 -1.72679096e-01 -1.96700513e-01  3.64364162e-02
  -1.53434435e-02 -6.27487600e-02  1.32570253e-03 -9.80683714e-02
   6.44877553e-02  6.79862276e-02 -5.05651012e-02 -2.40735278e-01
  -7.57115483e-02 -1.20107867e-01 -2.75947303e-02  6.53756782e-02
  -1.22899145e-01  4.66028377e-02 -9.08116400e-02  7.60426372e-02
  -6.25109812e-03 -4.57293959e-03 -7.04865158e-02  4.67823930e-02]
 [ 3.33197862e-02 -2.22359337e-02 -1.77975316e-02 -2.45014913e-02
   5.79166412e-02  1.67125374e-01 -5.45317158e-02 -6.99727163e-02
  -8.20944384e-02  3.86850946e-02  1.65679231e-01  1.75564513e-02
  -7.97949806e-02 -7.15805870e-03  3.68055589e-02  2.74622403e-02
  -5.81454448e-02  1.76315382e-02 -5.83158098e-02  7.53731206e-02
  -4.92915735e-02 -3.94430198e-02 -8.19019005e-02 -2.97174230e-02
  -7.95731544e-02 -5.35763018e-02 -4.87663485e-02 -2.58506034e-02
  -2.19705682e-02 -7.78976455e-02  1.63058117e-01  1.62542805e-01
  -3.27644385e-02 -2.11381629e-01 -1.82634935e-01 -2.27371246e-01
  -6.31313100e-02 -1.01828791e-01 -1.62217662e-01  4.50126268e-02
  -1.53841108e-01 -5.33818454e-02  5.45690488e-03  4.73399311e-02
  -1.24642467e-02 -4.01691496e-02 -1.57224704e-02  1.14042781e-01
   3.32476720e-02 -1.36975408e-01  3.93162668e-02 -9.09032002e-02
   5.11012375e-02 -7.44882785e-03 -4.08685245e-02 -1.19131014e-01
  -1.42062306e-01 -1.37048028e-02  5.25362529e-02 -6.08157879e-03
  -1.05989747e-01 -6.72243312e-02 -6.47281706e-02  1.71831354e-01
  -1.52882829e-01  1.99296579e-01  1.09668747e-02  7.65033662e-02
  -5.51824905e-02 -2.40697935e-02 -1.18429415e-01 -4.98124212e-02
   7.02364147e-02  1.35880366e-01  1.41477108e-01 -2.93949954e-02
  -2.84171035e-03  5.12422882e-02 -2.36232691e-02 -4.05618921e-02
  -1.43152904e-02 -2.43195239e-02  1.57183036e-02 -7.99047016e-03
   1.06486985e-02 -4.02885415e-02 -8.63862485e-02  2.95691043e-02
  -5.42303026e-02  4.14736681e-02 -1.23611689e-02 -1.70709956e-02
  -1.93955898e-01 -1.14788197e-01  3.12935077e-02 -1.02622211e-02
  -2.23713428e-01  9.00528356e-02  3.14182043e-02  1.74877569e-01
  -3.23002338e-02 -1.36763960e-01  4.39626724e-02 -4.15955409e-02
  -1.67517677e-01 -2.71813810e-01 -1.81191817e-01 -7.64462054e-02
   2.48092506e-03  6.99254721e-02 -7.43838400e-02 -2.06730157e-01
   3.92914005e-02  2.16955021e-01 -6.23239093e-02 -7.51896668e-03
  -6.99875578e-02 -1.75917819e-01 -6.17365241e-02  3.60612944e-02
  -1.39508739e-01  1.24419923e-03 -5.02460599e-02 -4.76307934e-03
   2.85518030e-03 -1.45442143e-01 -3.40731621e-01 -3.32877524e-02]
 [ 2.26040296e-02  2.49949843e-02 -6.49006218e-02 -2.85762608e-01
   1.66367665e-02 -3.24344218e-01 -3.80899191e-01  2.21587718e-01
  -1.67739779e-01  2.68422514e-02  1.43590927e-01  1.39585733e-02
  -3.14817168e-02 -3.41611296e-01 -4.92616184e-02 -7.33867809e-02
   1.43293943e-02 -6.98916567e-03  2.85201762e-02  1.39156654e-01
  -4.77071628e-02 -4.16063182e-02 -1.69074520e-01 -7.13884085e-02
   6.97756484e-02 -3.81145589e-02 -6.22651428e-02  4.10692357e-02
  -6.62099421e-02 -3.95022891e-02 -1.51205838e-01  1.73669487e-01
  -7.25630224e-02 -2.38221884e-01  1.31924182e-01  9.14871246e-02
  -1.39378741e-01  1.13356203e-01  1.72676980e-01  3.00567616e-02
   1.20042609e-02 -6.54332489e-02 -8.69681463e-02 -3.08150668e-02
   1.70321446e-02 -3.99481580e-02 -7.52202123e-02 -1.02116458e-01
  -3.06639336e-02  1.84681654e-01 -1.80326805e-01  4.69054244e-02
   2.48642907e-01 -2.57843405e-01 -3.29629481e-02  1.62187010e-01
   1.18969968e-02  2.31088400e-02  2.62952387e-01  3.69407535e-02
  -6.23096004e-02 -5.97640648e-02  3.98229286e-02  1.93051979e-01
   1.22800912e-03 -5.62553573e-03  5.86416610e-02  8.38719904e-02
   1.83147453e-02 -8.92462581e-02 -9.06449482e-02  3.11783119e-03
   3.53401788e-02 -1.13909811e-01 -4.17064875e-01 -2.05571055e-02
   3.73236276e-02 -6.06630817e-02  2.41729319e-01 -2.47268025e-02
   3.70811261e-02 -1.27674267e-01 -5.97829821e-05 -1.02101892e-01
   1.22057192e-01 -3.24329287e-02 -2.70613916e-02  1.87267765e-01
  -1.86331738e-02  1.04147417e-03  4.39862162e-03  2.76712906e-02
  -3.52339506e-01  1.98266342e-01  1.93670511e-01 -9.49948803e-02
  -2.39965264e-02 -8.43015984e-02  1.35707362e-02  1.83564290e-01
  -3.38188075e-02  3.45496275e-02  8.97720307e-02  7.35481605e-02
   4.34995517e-02  1.42992467e-01  2.44683221e-01 -5.54361157e-02
   6.29183324e-03 -1.53505327e-02  4.34821136e-02  1.78580135e-01
   2.06942502e-02 -6.89497367e-02  1.59829302e-04 -4.85563800e-02
  -3.01946998e-02 -4.33492288e-02 -4.25668918e-02  1.21330380e-01
  -3.19811583e-01  3.89956795e-02  1.51450634e-01 -2.16918420e-02
  -1.37020322e-02 -1.03807285e-01 -1.51472334e-02 -1.10315857e-02]
 [ 2.88958140e-02 -2.63033025e-02 -2.56968802e-03  2.30439171e-01
  -2.77396496e-02 -4.21449155e-01 -7.26345181e-02 -1.79303475e-02
   5.44003397e-02 -3.53711993e-02  1.18486106e-01 -6.35042340e-02
  -7.26846084e-02  3.42364043e-01  1.87339466e-02  1.28761716e-02
  -2.64137960e-03 -7.86090177e-03 -9.63845477e-03  4.06782068e-02
  -6.50147395e-03 -3.79630849e-02  1.64877370e-01 -1.83071792e-02
  -1.03407241e-02  4.61904928e-02 -3.42380139e-03  5.58148213e-02
  -3.50622162e-02 -5.10742627e-02 -2.12598443e-01  1.32605016e-01
  -2.13144690e-01  1.70064941e-02  1.18867427e-01  4.25675288e-02
  -6.57099765e-03 -4.31976914e-01  1.27177045e-01  3.63002270e-02
   7.55616426e-02  4.95912656e-02 -4.68369201e-02 -1.98893949e-01
  -7.66577199e-02 -9.86674130e-02 -3.69721390e-02 -1.22458614e-01
  -1.05626285e-02  1.28433555e-01 -1.75725952e-01 -2.00432807e-01
   1.23631895e-01 -3.78319055e-01 -1.54503752e-02 -4.38767582e-01
   9.49096307e-03 -9.18716639e-02 -2.78384741e-02 -5.45508973e-02
  -3.05723786e-01  1.23939952e-02 -2.39714414e-01  1.26963526e-01
   2.80287815e-03  9.78548601e-02  1.97238073e-01  5.12142658e-01
  -5.40695563e-02 -6.97811991e-02 -1.97286204e-01 -6.87576234e-02
  -3.39676261e-01 -7.87686482e-02  5.97096831e-02 -4.46575284e-02
  -4.05507796e-02 -3.66048962e-02  3.25039625e-02  2.43457612e-02
  -1.17264464e-02 -1.43342674e-01 -3.46627831e-02  1.40967285e-02
   1.44329190e-01 -4.12350036e-02 -6.93794265e-02  7.22198486e-02
   1.07835820e-02 -5.89580880e-03 -1.64391294e-01  5.44154039e-03
  -2.61180818e-01  4.35543209e-01 -1.24795221e-01  1.04353786e-01
   1.35503069e-01 -1.74989343e-01  6.44740835e-02 -1.25004515e-01
  -1.23807214e-01  1.01933088e-02 -9.18115675e-02  2.41495505e-01
  -1.09693274e-01  1.31316092e-02 -1.01643294e-01 -9.96343046e-03
  -8.95956904e-03  1.17323734e-01  4.65529412e-02 -6.31850511e-02
   6.74513541e-03  2.21126527e-01 -3.02223936e-02  8.09236243e-02
   2.45250724e-02  1.02258675e-01 -5.14014363e-02  7.34655112e-02
  -1.06481038e-01 -1.59231375e-03  2.92806894e-01 -7.55350068e-02
   4.16382141e-02 -4.16846365e-01 -7.88126886e-02  1.02651432e-01]
 [ 1.67276021e-02 -4.20562737e-02 -8.48487392e-03 -3.51368785e-01
  -4.63785194e-02  1.03706233e-01  2.55692303e-01 -3.25628445e-02
  -7.71104395e-02 -2.26245075e-02 -1.04473844e-01 -6.15902618e-02
   2.06239074e-02  2.36771077e-01  3.49242911e-02 -6.36396259e-02
   1.42368767e-02 -2.02040486e-02 -4.29062992e-02  1.44430682e-01
  -5.52619137e-02 -3.55792581e-04 -9.03948694e-02  2.41134278e-02
  -1.14470003e-02 -5.60645685e-02 -6.22869655e-03 -5.01874983e-02
   5.01937866e-02  7.23301023e-02 -3.97421926e-01  7.68522024e-02
  -2.86360800e-01 -3.24585326e-02  1.44426584e-01  1.06304713e-01
  -4.14002389e-02 -1.18942350e-01  7.72189498e-02  5.43947965e-02
   1.46075457e-01 -2.36119591e-02 -1.38898477e-01 -1.86138693e-02
  -3.90621312e-02 -3.11013907e-01 -1.93734411e-02 -2.22662929e-02
  -4.54143547e-02  6.15136735e-02  2.82408476e-01  1.30315378e-01
   1.84228078e-01 -1.04285397e-01 -5.41706793e-02  1.09924212e-01
  -2.13900730e-01  1.78955197e-02  3.61716636e-02 -4.33152728e-02
  -6.39924183e-02  2.03110714e-04 -2.44648799e-01  1.20940968e-01
  -4.31609228e-02 -3.38509902e-02 -1.70451015e-01  1.17967591e-01
   5.84553182e-02  3.64427455e-02  1.63650781e-01 -4.18508537e-02
   1.22729078e-01 -2.68629998e-01 -2.86059707e-01  1.79133806e-02
  -5.97509742e-02  7.65897380e-03  2.14593679e-01 -4.14034631e-03
  -4.92488919e-03 -1.57231972e-01 -6.62335157e-02 -3.23567912e-02
   1.92433652e-02  5.42230904e-02  1.33218514e-02 -8.09757411e-02
   9.33542196e-03 -3.59264389e-02  5.11304960e-02  4.24046889e-02
   2.54125535e-01 -1.19038695e-03 -3.41109335e-01 -4.74256054e-02
   3.55087399e-01 -1.20810673e-01 -1.46791220e-01  1.24030575e-01
   1.32637722e-02 -1.48594519e-02  2.65631936e-02 -8.76109153e-02
   1.88878506e-01  9.61995497e-03  9.57402065e-02 -2.22499818e-02
  -1.72251917e-03  1.58652872e-01 -8.12054891e-03  3.23274359e-02
   1.05517514e-01  1.78827997e-02 -3.11416239e-02  1.79672420e-01
  -9.87678915e-02 -1.98356330e-01 -2.73216367e-02 -6.02760054e-02
   1.47782937e-01  4.13833559e-02 -1.62809223e-01  3.60423401e-02
  -4.46477383e-02 -9.37939435e-02  9.49453637e-02  4.61161435e-02]
 [ 2.81816639e-04 -7.53351301e-02 -5.24393208e-02  5.23510017e-03
  -5.24498932e-02  1.17065072e-01  1.09438971e-01  8.83008633e-03
  -1.21806329e-02 -3.23677324e-02 -1.61712617e-01 -2.64792908e-02
  -5.67549169e-02 -1.92075595e-01 -6.67627007e-02 -1.48038277e-02
   5.16791232e-02 -5.59239164e-02  4.93336469e-03 -1.51483789e-01
  -1.31757129e-02 -1.40552428e-02  1.70728937e-01 -1.42640471e-02
   5.82018308e-02  1.07967861e-01  1.26509983e-02 -1.27291664e-01
  -6.31560981e-02  4.48622733e-01 -1.92081198e-01  1.63137212e-01
   3.01939458e-01 -9.73001122e-02 -1.78597137e-01  2.72382256e-02
   7.64672607e-02 -1.70350179e-01  9.75403637e-02 -1.95401590e-02
   2.59932667e-01  2.19981465e-02 -2.99015462e-01 -3.22929889e-01
  -2.21490450e-02 -2.41055246e-02 -1.07486241e-01  2.27696776e-01
  -1.43785682e-02  7.61913508e-02 -1.27485856e-01  6.43253326e-02
  -4.59447093e-02 -1.85017996e-02 -1.62982102e-02 -2.83776857e-02
  -8.93776212e-03 -4.41844985e-02  6.39693365e-02  1.85761042e-02
  -2.42643178e-01  4.77713794e-02 -1.28636047e-01 -4.35750455e-01
  -5.95347807e-02  2.19604060e-01  3.38246450e-02  2.17088554e-02
   3.98179926e-02  8.35650414e-02 -1.42812608e-02  3.83341387e-02
  -1.35734051e-01 -3.52023661e-01  5.22195362e-02  1.58423409e-02
   4.93296469e-03 -1.03261270e-01  2.14189649e-01  5.49529865e-02
  -1.48941660e-02  4.67392057e-02 -2.76583694e-02 -6.03681430e-02
   8.42327774e-02 -5.24305142e-02  3.13010439e-02  1.91487715e-01
   2.40952219e-03 -5.41699193e-02  2.83435166e-01  1.56750083e-02
   5.38552552e-02  3.37051421e-01 -2.33669207e-02  5.56634009e-01
   2.58532852e-01  2.46691681e-03 -2.66209035e-03  2.14138497e-02
  -9.55590084e-02 -2.50406563e-01  1.66093186e-01 -1.63664430e-01
  -1.08610839e-01 -9.10959765e-03 -8.92771482e-02 -2.85613425e-02
  -5.46752028e-02 -1.42393395e-01 -7.77475312e-02  4.10550721e-02
  -1.25867277e-01  2.39421606e-01 -6.57756403e-02  1.26843052e-02
   6.50709644e-02 -1.43952847e-01 -2.67703962e-02  4.39187475e-02
   1.82832599e-01  1.91032130e-03  2.20262140e-01 -8.34241956e-02
  -3.60087529e-02  3.94529477e-02 -3.74231376e-02 -9.76261683e-03]
 [-5.16256392e-02 -4.36516702e-02 -2.99508814e-02 -1.96786642e-01
  -1.02627669e-02 -9.83927399e-02  5.58342040e-02  1.72278255e-01
   3.37102823e-02 -3.29775251e-02  7.21587166e-02  3.42454351e-02
  -4.51325737e-02 -1.52550295e-01  2.33606510e-02 -1.06322475e-01
  -7.34092295e-02 -2.87073012e-02 -5.95691055e-02  1.89804897e-01
  -1.05621153e-03 -1.49055785e-02  1.27798945e-01 -4.01138188e-03
  -3.50532345e-02 -7.72843510e-02  3.34193669e-02  1.31655574e-01
  -3.49855050e-02 -3.17837387e-01  1.22715840e-02  8.17606896e-02
   9.36767906e-02 -9.07012522e-02 -4.54740338e-02  8.14457610e-02
  -1.96003824e-01  1.46059051e-01  1.04393199e-01  2.71567106e-02
  -2.20787928e-01 -1.35647608e-02  6.04823455e-02  1.82184637e-01
   5.11576049e-03 -6.19128812e-03 -1.05422936e-01 -2.19630316e-01
  -4.31948788e-02 -5.99773489e-02  7.41433399e-03 -7.49243200e-02
   1.70514643e-01  8.88467953e-03 -1.59453228e-02  7.15660527e-02
  -2.12350845e-01 -4.15285937e-02  1.15922846e-01 -6.60157725e-02
   7.73141235e-02  1.24136798e-01  2.38388345e-01  2.23112792e-01
  -6.48003742e-02 -2.41528619e-02 -2.30462551e-02 -1.60787880e-01
   3.34841385e-02 -3.78781222e-02 -8.01514834e-02  4.30728085e-02
   6.12928644e-02 -1.47566095e-01  5.27320914e-02 -4.08717878e-02
   6.85336720e-03 -9.50451009e-03  1.25348642e-01 -4.22223881e-02
  -1.50353536e-02  4.78931703e-03  3.23210396e-02  4.56512310e-02
   8.20873398e-03 -7.03857467e-03  8.26166943e-02 -5.88633232e-02
  -4.93638171e-03  5.71679175e-02  1.37293071e-01 -1.23063121e-02
   1.29163057e-01 -2.68854648e-01  5.36172502e-02 -1.20543249e-01
  -1.57159433e-01  4.14160639e-02  2.97128726e-02 -4.67999652e-02
  -1.39493272e-01  1.09893665e-01  3.22103687e-02  1.01325810e-01
  -1.01101935e-01 -1.23908192e-01 -1.84424907e-01  6.10477338e-03
   4.87059280e-02 -6.74057826e-02  6.62523136e-02  8.75898525e-02
   5.51640987e-02  2.13546708e-01 -2.15610471e-02 -1.99302047e-01
  -2.98859160e-02 -1.91088215e-01 -8.05538148e-02  1.76895663e-01
  -2.86529005e-01 -6.23377971e-02 -1.37998521e-01 -3.06752883e-02
   3.90023738e-03 -9.13909636e-03 -1.57972038e-01 -1.14751076e-02]
 [-3.19002718e-02 -5.38415872e-02 -5.71391732e-03  1.65345818e-01
  -3.88779980e-03 -2.54432000e-02 -1.62386999e-01 -7.14343563e-02
  -1.48270965e-01 -4.65245806e-02  1.46707326e-01 -9.97025892e-03
   1.76272821e-02 -2.87386537e-01 -1.22612761e-03 -8.50381181e-02
  -9.58117768e-02  9.78127681e-03 -7.07863867e-02  1.61328197e-01
   2.80230250e-02 -5.54203838e-02  9.55599397e-02  4.54142131e-02
  -1.48790494e-01 -4.84242057e-03 -3.68579221e-03 -2.38775536e-02
   4.37199436e-02  4.49771658e-02  2.68730015e-01 -9.19632316e-02
  -9.77601111e-02 -2.42757693e-01 -2.42027923e-01 -8.23132023e-02
  -1.25063792e-01 -5.02549298e-02 -1.58255115e-01  1.43540418e-03
   4.44691814e-02 -3.87496017e-02  3.17414850e-02  9.61082354e-02
   5.83770573e-02 -3.40165757e-02 -3.45211662e-02 -8.81326795e-02
  -6.40070066e-02  5.40547334e-02  4.64307750e-03 -1.53196767e-01
   4.40783910e-02 -9.43852589e-02 -2.92214635e-03 -1.19604722e-01
   2.59442534e-02 -6.26789629e-02  3.39349210e-02  3.59470695e-02
  -7.40214437e-02  7.99946953e-03  1.18267760e-01  2.21832454e-01
  -1.80043578e-01  6.10835850e-02  2.72852182e-02  8.10941905e-02
  -6.40632659e-02  2.79462039e-02  6.10862486e-02  3.10433656e-02
   1.12644583e-01 -9.65253711e-02  3.79256494e-02  1.99788492e-02
  -5.14776520e-02 -1.65025070e-02 -9.86128971e-02 -3.64107974e-02
  -4.39032121e-03  1.38447329e-01 -8.54982436e-03 -3.91360223e-02
  -5.37970737e-02  3.34267952e-02 -8.84741321e-02  6.01938926e-02
  -2.34404244e-02  2.92858128e-02 -4.44518887e-02  1.08470805e-02
  -9.84573215e-02 -6.23053536e-02  3.59160360e-03  1.36190802e-01
  -1.57406405e-01  4.68317121e-02  7.63542578e-02 -1.35147974e-01
  -5.25323600e-02 -7.13229179e-02  1.73777007e-02 -1.31900877e-01
  -1.75035283e-01 -1.92934930e-01 -1.03779294e-01 -2.50067078e-02
   3.67942788e-02 -2.78223539e-04  4.67017712e-03 -2.05339566e-01
  -9.64837521e-02  1.09104097e-01  2.96164248e-02 -8.21261480e-02
   2.32055746e-02 -3.78781371e-02 -3.57010737e-02 -1.21599250e-03
  -2.53946241e-02 -3.44593972e-02 -1.11411065e-02  1.96469342e-03
  -5.35487533e-02 -1.67430580e-01 -2.79307753e-01 -9.58818644e-02]
 [-6.03788234e-02 -6.24948107e-02 -4.36347462e-02  6.29946589e-02
  -6.82551935e-02 -2.87431031e-01  2.91908556e-03  4.05497029e-02
   1.11630514e-01  2.16686316e-02  1.04141206e-01  2.99371164e-02
  -1.06628291e-01 -6.36268631e-02  3.53465229e-02 -8.44566375e-02
  -7.41040856e-02 -5.03566340e-02 -2.52132434e-02 -3.74412797e-02
  -5.46192117e-02  4.23646048e-02 -3.50651979e-01 -2.57540457e-02
  -8.29393491e-02 -2.85955220e-02  2.18840614e-02  1.16730414e-01
  -7.36503899e-02  2.03236222e-01 -1.24052063e-01  1.22200124e-01
  -1.02630273e-01 -2.62118950e-02  2.59243786e-01 -1.87982768e-01
  -5.07490598e-02 -2.16855854e-01  2.75849011e-02 -3.98479663e-02
  -1.61124021e-01 -1.80941038e-02 -2.32902557e-01  1.04514258e-02
  -1.34084802e-02 -1.60681531e-01  5.96086401e-03 -2.01388627e-01
   4.73153256e-02  8.24742690e-02 -1.51216045e-01 -2.44224966e-01
  -1.74290035e-02  8.16430990e-03 -7.77509017e-03 -1.09692015e-01
  -1.80735901e-01  1.61126591e-02  2.24355578e-01 -4.41940017e-02
  -7.46175796e-02  4.24318612e-02 -2.81787813e-02  1.04502633e-01
   5.64879589e-02  6.60993978e-02 -6.05212934e-02  1.89341754e-01
  -6.22487590e-02 -6.26966432e-02 -7.22692534e-02 -3.97207178e-02
  -3.19367260e-01 -1.15044536e-02 -2.03636810e-01 -6.79531023e-02
   3.12057734e-02 -4.71052676e-02 -1.32054444e-02  4.76844832e-02
  -4.24727909e-02 -1.96134169e-02 -4.98078950e-02 -1.42876580e-02
   1.42118409e-01  3.97092029e-02 -3.85941789e-02  1.65783569e-01
  -5.15422635e-02 -7.34942174e-03 -1.42459601e-01 -3.08617800e-02
  -9.73766446e-02  1.22938097e-01 -4.01569605e-02  2.83036917e-01
   3.41431081e-01 -6.31947964e-02 -2.90470347e-02 -3.19063842e-01
  -2.89627239e-02 -8.13248828e-02 -4.49177884e-02 -9.40366164e-02
  -8.51017907e-02 -1.91026762e-01  4.51445617e-02 -1.74664650e-02
  -2.08867155e-02 -2.43761800e-02  2.43426021e-02 -1.02660418e-01
   1.51320994e-01 -4.26228605e-02  3.65683809e-02  9.52176675e-02
  -1.90775599e-02  2.26512805e-01 -6.68492094e-02 -8.41692090e-02
  -2.79306084e-01 -4.55437601e-02 -3.53305377e-02 -5.07432558e-02
  -6.90392777e-02  1.28048927e-01  5.01097813e-02 -1.12677831e-03]
 [ 1.47199100e-02 -3.92754897e-02 -6.33474812e-02  2.69183725e-01
  -1.49092516e-02 -3.24247956e-01 -2.13596925e-01  2.34862179e-01
  -6.33268729e-02 -8.29416290e-02  5.46580404e-02 -1.13610632e-03
  -6.27058521e-02  1.25697896e-01 -1.37183699e-03 -4.47271438e-03
   2.02529645e-03  1.84735544e-02  1.46125183e-02 -1.97423071e-01
  -3.55268759e-03  2.66263727e-02 -4.45788726e-02  9.33256888e-06
   6.21409155e-02 -1.25988349e-01 -9.81991068e-02  2.37107016e-02
  -5.56165911e-02  1.72392949e-01 -6.67982697e-02  6.64053410e-02
  -2.35870555e-02  1.36369780e-01  5.22567444e-02  2.50828773e-01
   1.33523822e-01 -2.90671468e-01  3.92818339e-02  4.16102484e-02
  -3.59514691e-02 -3.49074267e-02  9.62483790e-03 -2.04123184e-01
   6.10202132e-03 -2.24930383e-02 -2.47475170e-02 -2.85477340e-01
  -7.13296980e-02  7.33799711e-02 -1.03061870e-01 -3.59437078e-01
   1.21875830e-01 -1.46646678e-01 -8.46727490e-02 -2.31621359e-02
  -2.43957162e-01  1.47215147e-02  1.02856450e-01 -5.87394163e-02
  -4.06828374e-01  2.83615410e-01  1.85025170e-01  2.98374504e-01
  -3.08263600e-02  2.33830009e-02  9.07493532e-02  4.58736956e-01
  -3.65055054e-02 -1.63631011e-02  9.62107480e-02  3.31228003e-02
  -3.09287190e-01 -8.72584507e-02  8.52272958e-02  3.45743704e-03
  -4.46542129e-02 -4.12646309e-03  1.08942382e-01  2.27752142e-02
   3.20433080e-02 -6.64087832e-02  1.57706887e-02  6.41879207e-03
   5.48227131e-02 -6.23616613e-02 -6.63434565e-02  5.15775941e-02
  -4.32085097e-02 -1.33109614e-02 -4.43423986e-02 -1.96722634e-02
  -3.22337121e-01  4.04315591e-02  2.87069678e-02 -3.21378767e-01
   1.30536559e-03 -1.30118921e-01  1.18462130e-01 -1.61883682e-02
   9.89381783e-03 -1.07335091e-01  5.13532758e-02 -9.30071399e-02
   1.10755272e-01  1.48029745e-01 -2.06151858e-01  3.22565669e-04
  -6.21663742e-02  1.80958971e-01 -5.18962219e-02  3.47190090e-02
   1.45018473e-01  1.10572115e-01 -6.48713261e-02  5.75642139e-02
   2.46070269e-02  1.81150943e-01 -4.67571393e-02  4.13511656e-02
  -4.14867736e-02  4.14712317e-02  1.32983729e-01 -3.31309587e-02
  -7.00657489e-03 -2.17519820e-01  1.50317550e-01  2.39288015e-03]
 [-3.29899713e-02 -3.17667238e-02  3.25901583e-02 -2.07503155e-01
  -3.26193706e-03 -6.51226267e-02  2.80790895e-01 -7.81723124e-04
  -3.01191006e-02 -2.04960592e-02 -3.18445526e-02 -1.33918030e-02
  -6.77436292e-02  1.41803473e-01 -4.83243465e-02 -2.48460025e-02
   4.64994349e-02  9.67523083e-03 -3.71398143e-02  1.69489279e-01
  -2.06361841e-02  1.32189663e-02 -1.13350138e-01 -4.86370064e-02
   3.44101563e-02  2.17464212e-02  1.06258905e-02  4.55226488e-02
   1.50463413e-02  2.39093974e-02 -8.60000551e-02  8.57975241e-03
  -3.08254540e-01 -1.04822360e-01  8.62622932e-02  1.39287770e-01
  -9.70783532e-02 -2.60812730e-01  1.30439192e-01 -5.99537008e-02
   9.65779051e-02 -1.08293984e-02 -1.03475951e-01  3.65885124e-02
  -1.96554512e-03 -2.98679173e-01  1.04483096e-02 -7.21981972e-02
   1.47537785e-02 -1.38250738e-01  1.52961060e-01  1.08163767e-01
  -1.54905155e-01 -2.13992707e-02  1.88386086e-02  1.99366733e-01
  -2.29038164e-01  8.29214752e-02 -1.33093810e-02 -2.45710313e-02
   1.36809773e-03 -5.16860373e-03 -9.60403755e-02  1.03887737e-01
  -1.04463510e-02  4.23667617e-02 -2.33782768e-01  1.98769391e-01
   5.94651587e-02 -1.47090871e-02 -5.18436963e-03 -4.83168252e-02
   1.49659112e-01 -9.20424536e-02 -3.96298692e-02 -3.58060785e-02
   1.75457299e-02 -1.10863475e-03  6.71902597e-02 -5.12661366e-03
   8.04606974e-02  1.85472276e-02  1.41120832e-02 -2.80360170e-02
  -3.02737541e-02  1.82952341e-02  4.55387490e-04 -7.86588490e-02
  -6.79786922e-03 -4.68727909e-02 -6.75673550e-03 -1.58171216e-03
   1.23094857e-01 -1.26272678e-01 -2.76775271e-01 -2.53697727e-02
  -3.41409221e-02 -3.36936070e-03 -2.72755772e-02  1.62876561e-01
  -7.71156922e-02  8.21477696e-02 -2.95270026e-01  2.23308086e-01
   9.69496742e-02 -8.37463289e-02  5.21881916e-02 -9.21982080e-02
  -2.64857411e-02  4.72837267e-03  1.93784460e-02 -1.73642486e-01
  -2.28377394e-02 -1.98339447e-02  3.69418561e-02  1.76778346e-01
  -5.88595010e-02 -2.32568197e-02 -5.59668243e-02 -7.73697197e-02
  -5.52083068e-02 -1.34141427e-02 -1.76202450e-02  8.95301066e-03
   1.76520534e-02 -1.82551086e-01  4.44132909e-02  1.12518063e-02]
 [ 3.67012620e-02 -5.16854376e-02  7.60614127e-03  2.97619998e-01
   3.86652946e-02 -4.17480357e-02  9.88601744e-02 -1.65699378e-01
   4.63040173e-02 -1.08745582e-02  3.26222070e-02  3.85354236e-02
  -3.88081893e-02  1.49708586e-02  2.82361750e-02 -3.76263186e-02
  -5.74443005e-02 -5.66994883e-02 -4.19857353e-02  2.07983300e-01
  -5.11676781e-02 -5.15184440e-02  1.08053610e-01  5.41846901e-02
   5.00943214e-02 -1.29724532e-01 -4.49996814e-02 -1.76360890e-01
  -7.44358003e-02  2.16732591e-01  1.97039887e-01 -1.25301018e-01
   4.45242673e-01  1.00231590e-02 -1.36430971e-02 -5.72207980e-02
   9.53341797e-02 -5.94896972e-01 -1.89080954e-01 -6.33317977e-02
   1.20126404e-01 -6.56782091e-02 -1.43182993e-01 -3.01861018e-01
   3.16969082e-02 -1.69099122e-01  3.98252569e-02  1.46484263e-02
   3.70297162e-03  3.28028090e-02  1.13311514e-01  1.08037338e-01
  -1.16639361e-01 -1.23210341e-01 -6.41047210e-02 -2.29642183e-01
  -5.49075082e-02 -1.11806639e-01 -3.86097096e-02 -3.04565504e-02
   1.37744285e-02 -2.01985344e-01 -7.53800869e-02 -2.36339420e-02
  -1.76854327e-01 -2.85208840e-02 -5.74806780e-02 -4.33929488e-02
  -2.73682829e-02 -1.51895657e-02 -1.14972621e-01 -9.00341012e-03
  -3.29630286e-01  3.76243256e-02 -1.72837138e-01 -5.01968898e-03
   5.07104620e-02 -7.51290470e-02  2.12757528e-01 -5.99449836e-02
   8.26418549e-02 -1.35028243e-01 -6.34509698e-02 -8.20695907e-02
   2.18732253e-01 -1.63310301e-02  8.71578883e-03  6.77876696e-02
  -9.70577821e-02 -5.26858978e-02  1.37004003e-01 -3.19454074e-02
  -7.72204250e-02 -2.79415064e-02  1.74392629e-02  4.01657611e-01
  -5.90689592e-02 -2.21035451e-01 -2.74849832e-01  1.04776606e-01
   1.78316787e-01 -1.22526444e-01  8.95055979e-02 -6.11500163e-03
  -2.62664407e-01  7.12304935e-02 -8.77309144e-02  6.21321029e-04
  -5.67742996e-02  1.11088738e-01  5.93245961e-03  2.13503778e-01
   2.38247514e-01 -5.25993668e-02  4.91416901e-02  3.19414467e-01
  -1.93514787e-02 -7.05914944e-02 -2.29830369e-02  1.22068599e-01
   2.31748037e-02  1.31035643e-02  1.01258442e-01 -4.36963663e-02
  -4.41575795e-02  2.34479159e-01  2.64199018e-01 -7.57740363e-02]
 [-4.90572527e-02  1.13651389e-02 -6.25926852e-02 -1.38062939e-01
   4.13474813e-02 -1.06445789e-01  1.49861267e-02  3.88387218e-02
   1.14064559e-03  2.17285194e-02  1.94865927e-01  2.27577556e-02
   1.43901655e-03 -1.62583709e-01 -2.75049079e-03 -2.95738429e-02
  -4.16063517e-02  1.47824623e-02  5.91079099e-03  1.76078066e-01
  -1.67132467e-02 -3.04753706e-02  7.36007020e-02 -2.65589524e-02
  -4.68611158e-02 -1.04761630e-01  3.36478651e-02  8.58060718e-02
  -2.89493892e-02 -2.05542669e-01 -1.59430727e-02  1.11515015e-01
   7.71754235e-02 -1.04037695e-01 -6.66754842e-02 -2.87481844e-02
  -2.14649722e-01 -1.35561740e-02  1.53646559e-01 -2.46523656e-02
  -1.33455426e-01  5.73242344e-02  2.21144840e-01  1.09547280e-01
   6.58005290e-03 -3.86812910e-02 -3.93913351e-02 -2.43090481e-01
  -4.00290042e-02 -1.04137093e-01 -1.31093627e-02 -7.92946853e-03
   1.63418934e-01  4.29706015e-02 -1.07308524e-02  1.04090646e-01
  -2.89140910e-01 -1.00680418e-01  1.33781359e-01 -2.59103952e-03
  -2.06228122e-02  1.62998393e-01  1.32413981e-02  2.26879925e-01
   2.22828565e-03 -1.09952755e-01 -3.58617790e-02  1.45374537e-02
   5.68348961e-03 -7.91747794e-02  4.40087020e-02 -1.06108952e-02
   8.67488161e-02 -1.35450363e-02 -6.12385059e-03  3.30693573e-02
  -4.94791456e-02  1.55522665e-02  9.60594229e-03 -5.03632911e-02
  -7.06917569e-02  1.33175358e-01 -2.25002021e-02  2.07411312e-02
  -8.14587623e-02 -1.39392670e-02  2.88314987e-02 -1.82312340e-01
   6.61379993e-02 -1.43243978e-02  4.03443165e-02 -5.06919846e-02
   1.18971452e-01 -2.37191334e-01  5.45289256e-02 -5.56917749e-02
  -8.95470530e-02  2.46859808e-02  8.38302448e-02 -7.97624737e-02
  -1.28809214e-01  1.60422862e-01 -5.28457537e-02  1.47456482e-01
   3.38182300e-02  7.20058233e-02 -6.62460253e-02  2.60835271e-02
  -5.67888245e-02 -2.33224764e-01  2.38274503e-02 -1.76175013e-01
   2.13985160e-01  9.08623189e-02  2.25655343e-02 -2.38454491e-01
   3.40366587e-02 -8.34874287e-02 -3.83837856e-02  1.56074733e-01
  -1.88684747e-01  5.34459278e-02 -7.35410452e-02 -3.89750227e-02
   8.49903282e-03  5.14926873e-02 -1.00190416e-01  3.22228111e-02]
 [-3.34205031e-02 -4.09018248e-02 -2.10802350e-02 -1.06671244e-01
  -5.18278889e-02  3.37857045e-02 -1.26684874e-01  8.62507056e-03
  -1.34466946e-01  3.74306366e-02  2.28756547e-01 -2.53252946e-02
   1.66577939e-02 -1.27509177e-01  4.41394886e-03 -3.62590291e-02
  -2.96339337e-02  2.70055700e-02 -3.20747308e-02 -1.26164081e-02
  -3.63573842e-02 -5.96023872e-02  2.21863419e-01 -5.27529754e-02
  -1.67635873e-01 -8.03530142e-02 -2.60390155e-03 -4.79707494e-02
  -8.58477317e-03  8.94854367e-02  4.18653563e-02 -2.19356611e-01
  -4.48454916e-02 -2.39379898e-01 -1.89769313e-01 -8.51173550e-02
   8.09521526e-02 -9.26025808e-02 -1.25800282e-01  3.19480672e-02
   1.55480504e-01 -6.60533085e-02  8.84838924e-02  6.79277256e-03
  -8.31655879e-03  3.69302444e-02 -3.79711241e-02  5.29722050e-02
  -1.89325456e-02  5.80692254e-02 -1.40406281e-01 -1.22192420e-01
  -5.50707197e-03 -2.64723487e-02 -4.27808724e-02 -2.57085085e-01
   5.00185564e-02  3.79176810e-02 -8.20763931e-02 -4.75877747e-02
   8.21233615e-02  1.03707351e-01  1.99105069e-01  2.52894580e-01
  -6.31345063e-02  1.59299582e-01  1.09272234e-01  3.83651815e-02
  -2.85844523e-02  1.37165254e-02  1.92094501e-02 -5.85623085e-02
   6.89727366e-02 -1.36080563e-01  1.93383470e-01 -2.55048129e-04
   2.28661466e-02  5.83471209e-02 -5.70387430e-02 -1.44792153e-02
   3.72544304e-02  1.01593822e-01 -3.44390646e-02 -7.31506646e-02
   4.42469083e-02 -7.61368275e-02  4.02991986e-03 -5.57609275e-02
  -3.32829356e-02  3.51292863e-02 -2.34550826e-04 -3.29838768e-02
  -2.50411987e-01 -6.12785518e-02 -1.39927879e-01 -1.06672617e-02
   3.90840694e-02  9.89910960e-02  3.78971249e-02 -2.06306204e-01
  -1.79861952e-02 -2.09129527e-01  5.83273061e-02 -3.34841721e-02
  -2.33772203e-01 -3.18099141e-01 -2.64088120e-02 -6.66795969e-02
   3.79103497e-02 -1.45515412e-01  1.28595922e-02 -3.26232046e-01
  -2.06471965e-01  5.10224625e-02 -4.46419418e-02 -4.19492036e-01
  -4.14712401e-03 -6.03164807e-02  1.39504587e-02 -1.51953191e-01
  -1.04999378e-01 -6.07994795e-02  6.00754702e-03  5.77959232e-02
  -3.35484110e-02 -1.48234740e-01 -1.54171482e-01 -3.39229107e-02]
 [-1.73271988e-02  4.77640107e-02 -1.24788303e-02  4.21453379e-02
  -2.58336384e-02 -1.53536573e-01  4.39294986e-03 -5.63027300e-02
  -8.26731175e-02 -1.58630889e-02  9.13822129e-02  1.05557898e-02
   1.97738372e-02 -1.91380918e-01  4.98577878e-02 -6.07543625e-02
  -6.43211529e-02 -1.54282404e-02  1.57695860e-02 -1.05204858e-01
  -1.02412246e-01 -5.76266386e-02 -1.31336406e-01 -1.80654880e-02
  -2.34879255e-02  2.53401455e-02 -5.45659252e-02  1.42064109e-01
  -9.71787726e-04  6.97315612e-04 -2.66643465e-01  1.68400988e-01
   1.08858891e-01  8.86030048e-02  5.77399060e-02  5.13490438e-02
  -4.76934537e-02  1.29400417e-01  2.78487682e-01 -3.33286263e-02
  -3.78911979e-02  4.65925969e-02 -1.66917562e-01  1.06613454e-03
   3.21786441e-02  4.90414426e-02 -1.81950070e-02 -4.56903607e-01
   9.28773917e-03 -2.93959733e-02 -3.30128759e-01 -3.62751514e-01
   3.45492177e-02  2.07669616e-01 -9.12387390e-03 -1.82965130e-01
  -5.77589534e-02 -2.80889124e-02  2.72565573e-01  5.12404516e-02
  -1.72680035e-01 -1.28656000e-01  5.87646030e-02 -9.13858190e-02
   9.65698902e-03 -1.77218348e-01 -1.76012024e-01  1.06109202e-01
  -4.71381396e-02 -7.51390308e-02 -1.86668947e-01  4.72409725e-02
   5.52055687e-02 -2.21841142e-01  6.47386909e-03 -4.00363952e-02
   3.20524611e-02 -4.34238352e-02 -7.27527440e-02 -3.56849446e-03
  -3.70702147e-02 -5.35986386e-02  1.78808291e-02 -6.89934418e-02
  -1.50159812e-02  4.27338481e-02 -3.94138619e-02  1.24772325e-01
   6.79045450e-03 -5.55625223e-02  5.00236526e-02 -4.11306210e-02
   1.72334593e-02  1.32541806e-01 -1.05164319e-01 -1.91154525e-01
   9.49496552e-02 -1.99396536e-01  9.49733332e-02 -1.56257376e-01
  -2.83492476e-01  1.92356464e-02 -2.08185524e-01  1.30127907e-01
   3.33852284e-02 -2.73551792e-03 -5.37043847e-02  1.20567847e-02
  -2.69588344e-02  3.45546380e-02 -3.40873972e-02 -1.37484401e-01
   2.36143861e-02 -8.79243109e-03  1.59337781e-02  6.07811697e-02
   1.55232893e-02  3.99958119e-02  1.73499826e-02  2.33972706e-02
  -1.36317968e-01  3.56231183e-02 -1.73519984e-01  3.58753540e-02
  -4.40633595e-02  1.22835264e-01  2.81662464e-01  6.66631982e-02]
 [-4.07209210e-02 -8.27908218e-02 -5.46979643e-02 -3.55966836e-02
  -1.90410130e-02 -1.82869881e-01 -3.16324711e-01  4.25444007e-01
  -5.71969226e-02 -1.33855653e-03 -1.37124538e-01  2.14762259e-02
  -1.56731028e-02  2.36429535e-02 -5.82266860e-02  1.58272758e-02
  -4.68806876e-03 -4.93388809e-02  4.46658991e-02 -3.22747201e-01
  -6.49422174e-03 -8.74701329e-03 -1.42281234e-01 -3.82547155e-02
   1.57805365e-02 -1.80932395e-02 -5.67401536e-02  1.82194084e-01
   3.65057476e-02 -4.64282408e-02 -5.26546091e-02  1.88056752e-01
  -1.07591897e-02  3.85272652e-02  1.84603393e-01  3.90250199e-02
   4.91441041e-02  1.99338906e-02 -3.97817880e-01 -6.07154220e-02
   1.05033211e-01 -7.12847756e-03  4.35436741e-02 -6.71269447e-02
  -2.22472083e-02  6.34752363e-02 -9.82339606e-02 -3.54972303e-01
  -3.99002880e-02 -3.35040353e-02 -6.49584234e-02 -4.73867171e-02
  -8.13433807e-03 -9.50216055e-02  7.79388100e-02  1.86624035e-01
   1.76077895e-02 -4.01422158e-02 -3.44453044e-02  1.84516597e-03
  -3.21270019e-01  3.32561582e-01  4.97927994e-01  2.99209841e-02
   4.40454902e-03  1.38189897e-01  3.46871734e-01  6.74612895e-02
  -4.39830422e-02 -6.22398965e-02 -1.71935800e-02 -4.17810678e-02
  -4.11761284e-01 -9.05661508e-02 -1.49360955e-01  2.02597883e-02
   5.96272526e-03  6.70378562e-03 -1.51024491e-01 -5.90916863e-03
   1.82297751e-02 -8.19770098e-02  9.06552002e-03 -4.89721540e-04
   9.44316089e-02  2.43565310e-02  2.04168223e-02 -2.19302326e-02
  -7.06647485e-02 -6.59551471e-02  1.90468758e-01 -2.95642260e-02
  -3.95964205e-01  1.09858200e-01  8.55474696e-02  4.70362417e-02
  -8.33436195e-03  2.58763492e-01  1.58033758e-01  1.62407324e-01
   1.24839038e-01 -2.25936189e-01 -7.86474571e-02  1.62590053e-02
   2.95142472e-01  1.65752530e-01  9.32937711e-02 -5.53174280e-02
  -3.24490294e-02  6.58165142e-02 -2.69999132e-02  2.49503747e-01
   3.19211572e-01  1.61155537e-01 -5.28522171e-02  1.83076113e-01
  -2.28621252e-02  3.27187106e-02 -4.65010777e-02 -1.51769325e-01
  -7.94693083e-02  4.44660857e-02  1.82323650e-01 -6.40021488e-02
   9.58435517e-03 -6.94059014e-01 -2.61295676e-01  5.92837634e-04]
 [ 2.64349431e-02  4.37277108e-02  2.36110911e-02  4.33262996e-02
   3.08489166e-02 -1.68693081e-01 -8.34848657e-02 -1.84236720e-01
   1.90017354e-02  2.73397323e-02  1.26495898e-01  1.93205336e-03
   7.56767113e-03  3.85748118e-01 -6.30586371e-02 -5.46283983e-02
  -7.55008981e-02  4.97589670e-02 -3.50069590e-02  7.39035010e-02
   5.51613942e-02 -5.39913960e-02 -7.28065819e-02 -1.62030931e-03
  -6.78000599e-02 -1.60278231e-02 -2.21351385e-02 -7.16884853e-04
   1.51474131e-02  1.91240560e-03 -5.04371107e-01  6.05986007e-02
  -2.28428945e-01  3.04580461e-02  6.06546216e-02  1.00270741e-01
   1.54489115e-01 -1.88345924e-01  2.38574520e-01 -5.13917692e-02
  -1.08401656e-01 -3.95944752e-02  1.85973216e-02  6.22778721e-02
   2.19142046e-02 -9.45973694e-02  4.82929987e-04 -2.92018384e-01
   3.95751446e-02 -8.80977213e-02 -1.02815993e-01 -7.17404485e-02
   4.69996445e-02  3.13693099e-02  7.61013245e-03 -4.66871634e-02
  -2.14359313e-01  6.36323467e-02 -1.40409589e-01  2.94566923e-03
  -1.89314753e-01 -8.91011730e-02 -2.37467960e-01  9.55976918e-02
  -7.42452219e-02  1.20220065e-01 -1.44167975e-01  3.32821548e-01
  -3.40205356e-02  1.12930778e-02 -8.61005411e-02  5.99988885e-02
   1.19277649e-01  1.93024576e-01 -5.29859588e-02 -6.49040267e-02
  -2.82821171e-02  3.80342789e-02  3.37807573e-02 -6.38038367e-02
   7.08642378e-02 -7.88360760e-02  2.82843485e-02 -3.64192463e-02
  -8.44149217e-02 -2.34102756e-02 -7.80291529e-03  2.48262403e-03
   1.48050990e-02 -4.20898348e-02 -4.27262336e-02  6.37446120e-02
   4.22857478e-02 -6.00296035e-02 -1.40261263e-01 -1.25313133e-01
  -7.02307969e-02 -9.53087583e-02  3.87113206e-02 -4.40792702e-02
   2.25815564e-01  1.56356692e-02 -1.30125195e-01  3.86248738e-01
   1.16904117e-02 -4.22464162e-02 -5.75040951e-02 -5.46049178e-02
   4.85003106e-02 -3.21156263e-01  6.72854949e-03 -2.36767903e-02
   1.75148979e-01  3.85816209e-02 -4.80197072e-02  8.43472183e-02
   2.72994898e-02 -6.39680550e-02 -6.00284897e-02 -6.18520416e-02
  -3.29910368e-01  3.92357297e-02 -5.35422973e-02  1.87656898e-02
   4.95555019e-03 -3.85648422e-02 -1.51423752e-01 -5.96174896e-02]
 [-5.78680374e-02 -5.06565347e-02 -2.21044617e-03  3.06484371e-01
   4.42306278e-03 -2.57989336e-02 -1.79171413e-02  1.67953945e-03
  -9.43841562e-02 -7.05526676e-03 -1.13660879e-01  1.85816847e-02
  -7.38835931e-02 -1.06834836e-01  3.72663210e-03 -3.08101606e-02
  -6.48361742e-02 -2.14431211e-02  5.94683327e-02  1.13573045e-01
  -1.43073604e-01 -2.00158320e-02  2.69116133e-01  8.39923136e-03
   3.04245185e-02 -1.82107970e-01 -1.37446187e-02 -1.09554706e-02
  -1.89269613e-02 -1.24274418e-01  1.74299061e-01 -7.15410411e-02
   1.80901065e-01  7.71174356e-02  5.34066334e-02  9.28911716e-02
   1.19841889e-01 -4.38920349e-01 -3.59535635e-01  4.40361127e-02
   2.26472884e-01 -2.25859769e-02 -2.96685636e-01 -1.59955844e-01
   7.31217815e-03 -4.55279984e-02 -6.33446276e-02  8.72244015e-02
   4.76357527e-02 -3.77167203e-02  3.35133746e-02  8.07085112e-02
  -2.07537904e-01  1.95847079e-02 -7.98004791e-02 -1.73527166e-01
   2.04413697e-01 -7.23677501e-02 -1.84034891e-02  2.04223134e-02
  -1.17114084e-02  3.66860554e-02 -1.01219773e-01 -4.41342741e-02
  -1.38071567e-01  1.62884608e-01  1.44985393e-01 -1.92528572e-02
  -8.74210075e-02 -2.41309348e-02  5.41200116e-02 -2.56190393e-02
  -1.67886168e-01 -1.40817255e-01 -8.23567361e-02 -3.43026146e-02
  -6.21512830e-02 -9.47201177e-02 -4.72805202e-02 -7.98757449e-02
  -3.12519036e-02 -6.69611394e-02 -1.83089578e-04 -1.45209907e-02
   6.31455481e-02 -5.96468151e-02  3.40134371e-03  3.77022140e-02
  -7.56634474e-02 -4.07123454e-02  1.16334423e-01 -6.68208301e-02
   2.79976577e-02 -8.18294734e-02  4.44201790e-02  2.64567673e-01
  -1.26586221e-02 -9.71835703e-02 -6.43067062e-02  2.29290202e-01
   1.41565174e-01 -2.85437673e-01  2.83998717e-02 -5.26576675e-02
   8.69120844e-03  6.74078427e-03 -1.32098705e-01  2.08788048e-02
   7.86916539e-03  5.83344884e-02 -2.33751778e-02  3.70988250e-01
   4.06555943e-02 -2.37053961e-01  2.87371147e-02  8.61956179e-02
   4.37243842e-02  1.13999546e-01 -2.31200792e-02 -1.98569968e-02
   1.18656792e-01 -1.34559544e-02 -7.70747364e-02 -4.14240621e-02
   2.62876390e-03 -2.96359241e-01  9.21544582e-02  1.62585583e-02]
 [-7.72455782e-02 -9.70656238e-03 -2.50972193e-02 -3.42596248e-02
  -1.56218922e-02  4.46644872e-02  1.68267608e-01 -2.68762391e-02
  -1.75469100e-01  1.33542335e-02  1.96274787e-01  2.08702926e-02
   1.68637913e-02  4.27546958e-03 -4.15773690e-02 -7.38427788e-03
  -5.73632270e-02 -5.93239851e-02  2.95797400e-02  2.18600050e-01
  -2.88041495e-02  2.80245803e-02  9.44547132e-02  8.07884708e-03
   1.21924449e-02 -1.63719654e-01 -3.04470658e-02 -1.07187303e-02
  -5.93144484e-02  3.54578309e-02 -1.54391944e-01  1.06638797e-01
   9.37732980e-02 -2.96587851e-02 -2.43505165e-01  8.48116800e-02
  -8.94548371e-02  1.01323389e-01  1.63347796e-01  5.17573804e-02
  -8.99331346e-02 -3.12900753e-03  1.18093841e-01  1.50054544e-01
  -6.25133812e-02 -4.59054634e-02 -2.51141912e-03 -2.76249260e-01
   3.77731398e-02  7.62559753e-03  1.52035788e-01 -4.05452661e-02
   1.25257745e-01  8.41151364e-03 -5.98314079e-03  1.62930816e-01
  -1.19196407e-01 -5.76900765e-02  1.71995938e-01 -3.58305126e-02
  -5.74342459e-02  1.95316553e-01  1.03404522e-01  2.06820816e-01
  -6.77913502e-02  4.20317613e-02 -1.42901251e-02  3.06161940e-02
   5.35374274e-04 -3.84853035e-02  1.26699321e-02 -1.75496526e-02
   2.98804939e-02  7.46073946e-02  4.66524288e-02  2.02001594e-02
  -3.94168869e-02 -1.68266036e-02  4.59902696e-02 -5.64317703e-02
  -4.78860140e-02 -1.31968213e-02  9.60171781e-03 -5.03454804e-02
  -8.65797773e-02 -5.66904582e-02  3.20396759e-02 -2.49598533e-01
   2.30923649e-02  8.73986818e-03  6.55198693e-02  8.03527597e-04
   9.15988684e-02 -1.87664747e-01  2.43525524e-02 -3.85392620e-03
   1.25677669e-02  3.13514471e-02 -4.92907017e-02  3.49768437e-02
  -1.77820399e-02  5.46299592e-02 -1.72660016e-02  1.21460393e-01
   3.91595401e-02 -2.63446905e-02  5.99290011e-03  4.02460061e-02
  -1.37819545e-02 -1.32893264e-01  7.07881674e-02 -1.37759432e-01
   1.93343192e-01  1.88128382e-01 -1.62178054e-02 -3.50133598e-01
  -2.08305661e-02  5.33342035e-03 -6.33657426e-02  3.58300172e-02
  -1.84794828e-01 -5.91497347e-02 -2.43936162e-02 -3.27648818e-02
  -1.71532258e-02  7.45943934e-02 -9.21198875e-02  2.19850801e-02]
 [-2.43928097e-02 -4.55914140e-02  3.43244001e-02 -6.49809986e-02
  -1.65820271e-02  4.35390994e-02 -9.16537270e-02 -2.08430514e-01
  -6.37103245e-02 -2.68228306e-03  2.24095777e-01 -2.01848894e-02
  -3.48046720e-02 -2.26429626e-01 -2.31569763e-02  3.88454013e-02
  -9.40718800e-02 -2.48377975e-02  2.81289723e-02 -4.74150442e-02
  -4.33631651e-02  8.79647769e-03  1.02578394e-01 -1.22634275e-02
  -4.00384665e-02 -9.91131142e-02 -7.97413290e-02 -1.92332506e-01
  -4.43565138e-02  6.88139126e-02  2.01299086e-01 -1.23184524e-01
   7.52834603e-02 -3.13543886e-01 -7.26889074e-02 -6.91685751e-02
  -1.57252830e-02 -7.33733177e-03 -4.91246805e-02 -5.78190386e-02
  -1.13032181e-02 -4.40129265e-03 -7.97303170e-02  6.92890584e-02
   2.25554798e-02  2.35521514e-02  8.06947704e-03  2.08367016e-02
  -5.32176755e-02  1.39592260e-01 -4.58863117e-02 -5.07070720e-02
   6.48856759e-02 -1.64457038e-01  2.92621423e-02  3.59650294e-04
   5.93926851e-03 -7.81737715e-02  1.00127952e-02 -6.45240024e-02
   1.09457709e-01 -3.68099883e-02  2.95863152e-01  2.81644464e-01
  -1.48574844e-01  2.59137303e-01  1.71257276e-02  1.86978430e-01
  -2.61451397e-02 -6.59392625e-02  1.31807283e-01 -3.36028002e-02
  -9.18770116e-03  6.95364997e-02  3.86769511e-02 -3.21676359e-02
  -5.95205687e-02 -3.39374468e-02  1.60196405e-02 -4.45897551e-03
  -1.89441815e-02 -4.91402410e-02  4.67795022e-02 -7.01178377e-03
  -1.74779966e-01  1.72834415e-02 -4.12409455e-02  2.00565644e-02
  -2.89676506e-02 -3.36758792e-02 -7.22123012e-02 -4.35869955e-02
  -8.55234116e-02  5.78015260e-02 -1.40815824e-01  5.66785000e-02
   1.27373293e-01 -3.08906958e-02 -1.31332695e-01 -9.76776034e-02
   7.79940635e-02 -1.48737073e-01 -1.38044924e-01 -2.87067175e-01
  -2.61823326e-01 -2.81226724e-01 -1.51571527e-01 -2.95244288e-02
   6.61025271e-02 -3.56004611e-02  5.60628530e-03 -2.55266726e-01
   5.20549677e-02 -7.38089308e-02 -1.83943007e-02 -1.42328352e-01
  -1.73759181e-02 -1.33886009e-01 -1.94966719e-02  2.32051630e-02
   6.98645934e-02 -7.21615972e-03  8.48982111e-02 -1.35521609e-02
  -3.25255096e-02 -1.50760382e-01 -1.12960488e-01 -5.14593869e-02]
 [ 1.50712794e-02 -5.78535721e-04 -5.78122586e-02  5.99821024e-02
   1.49686281e-02 -2.36003213e-02 -5.25520034e-02  5.90642467e-02
  -1.58849433e-01 -1.66230462e-02  2.41677031e-01  8.25519860e-03
  -1.69426370e-02  7.49321580e-02 -4.60116938e-02 -3.10710855e-02
   2.31950674e-02  2.57377867e-02 -3.18706781e-02 -8.15979615e-02
  -3.04475371e-02  9.45956260e-03 -3.74339908e-01  2.65753735e-02
   8.06973502e-02  2.01157019e-01  2.28565540e-02  1.96522549e-01
   3.25106233e-02 -2.30626259e-02 -1.26305446e-02 -1.57438386e-02
   2.13469267e-01 -1.51492879e-01 -6.12319708e-02  2.79006779e-01
   1.16352126e-01  3.58492821e-01 -6.01516590e-02 -1.24739036e-02
  -2.91952848e-01 -3.13919783e-02  9.37327892e-02  7.63715580e-02
  -5.28505370e-02 -7.49284849e-02 -1.06931560e-01 -3.23102176e-01
  -6.90687001e-02  1.30104974e-01 -2.93429673e-01  1.49041846e-01
   2.12545216e-01  2.57875472e-01 -9.04266536e-02 -8.17184448e-02
  -3.40030566e-02  4.66235355e-02  8.77195895e-02  1.43785235e-02
   1.40763104e-01  1.23307377e-01  2.30239138e-01  1.11427121e-01
   1.22078871e-02  2.35531583e-01 -1.76700309e-01  4.64194678e-02
   3.86856198e-02  4.51465175e-02 -3.07978000e-02 -3.92589755e-02
  -2.27600574e-01 -3.02009642e-01 -2.37525657e-01  4.49446663e-02
  -5.62948026e-02  7.17315311e-03  1.48487717e-01 -8.26237276e-02
  -3.50041389e-02 -1.69507843e-02 -3.79243307e-03 -8.91505405e-02
  -8.69630352e-02 -8.16573203e-03  1.46190757e-02 -1.90067329e-02
   1.91499330e-02  2.76483763e-02 -2.56291986e-01 -3.61297932e-03
   2.05473185e-01  5.49794696e-02 -2.01399192e-01  1.03120744e-01
  -1.26775131e-01  2.17512861e-01 -9.76091772e-02  1.67438030e-01
  -1.04037106e-01 -3.00828088e-02  2.22438186e-01 -8.39337707e-03
   3.19701016e-01  1.39583424e-01  1.79807991e-01 -1.22910514e-02
   1.07375849e-02  1.44321993e-01 -6.42703474e-02  1.01249263e-01
   1.72817349e-01  2.74070829e-01  1.72412936e-02  1.76342614e-02
   1.03611657e-02  1.09056622e-01  3.78513969e-02  1.75992283e-03
  -2.11118877e-01 -7.20528141e-02 -2.27210999e-01 -5.27609251e-02
  -2.05312241e-02  1.37264848e-01 -1.12324119e-01 -7.04218820e-02]
 [-2.58229319e-02  5.08883176e-03  2.11383533e-02 -4.98017929e-02
   2.21025888e-02 -5.20613492e-02 -4.58980978e-01  2.69280344e-01
   2.29403973e-02  2.78580841e-02  1.25848502e-01  1.51282754e-02
  -6.46783933e-02  4.35354859e-02  1.71692856e-02 -2.47957185e-02
  -5.24806790e-02 -5.21462634e-02 -3.77680883e-02 -1.66651979e-01
  -1.87490694e-02 -4.85107824e-02 -3.17016095e-02 -4.44178842e-03
  -4.68880730e-03  4.50926758e-02 -3.11975144e-02  4.04397517e-01
   6.25338033e-03  1.33709371e-01  4.69171777e-02  9.46098790e-02
   3.13313082e-02 -1.34407042e-03  2.53434390e-01 -1.80300787e-01
   2.36780643e-02 -2.12522313e-01 -3.15812171e-01  4.37047929e-02
   3.26385707e-01  1.28070703e-02  2.90263537e-03 -1.21157005e-01
  -4.43475097e-02 -7.81166255e-02 -1.10903591e-01 -2.04051465e-01
  -1.67267397e-03 -8.18493962e-02 -1.95299298e-01 -3.51271749e-01
  -8.80829394e-02  2.55589992e-01 -4.37768102e-02 -2.12247983e-01
   5.14318235e-02 -4.07723896e-02  4.67589945e-02  3.25416513e-02
  -1.29768759e-01  3.11734110e-01  1.83056206e-01  1.61479577e-01
   2.71800403e-02 -2.59452853e-02  3.34733933e-01 -2.26588696e-02
   4.55759950e-02  1.09887291e-02 -3.10413484e-02  8.95542186e-03
  -3.60588670e-01  3.42514336e-01 -4.40250039e-02 -5.01444787e-02
  -1.34317297e-02  1.95984785e-02 -4.36687283e-02 -3.11411656e-02
  -7.03801885e-02  6.43232688e-02 -3.70123759e-02 -1.16993245e-02
   7.28585497e-02 -2.34991554e-02 -5.16780913e-02  1.52877599e-01
   4.94629703e-03 -5.32366931e-02  1.10471472e-01 -4.12110388e-02
  -2.13120580e-01 -5.71658276e-02 -1.09879851e-01  2.21559718e-01
   1.54326797e-01  9.36905146e-02  1.19256228e-01 -8.05168897e-02
  -2.54548807e-02 -1.66280605e-02 -1.08118504e-01 -1.03145234e-01
   1.66573524e-01 -2.18913779e-01  2.02779070e-01  4.09214869e-02
  -4.86623272e-02  8.12330842e-02 -4.94663753e-02  1.60303101e-01
   7.08619803e-02  5.67235127e-02 -4.21479158e-02  1.76157698e-01
  -6.46378193e-03  9.47208777e-02 -1.46762421e-02 -1.76095203e-01
  -1.00224331e-01  4.13577585e-03  8.82527907e-04 -6.52671084e-02
  -4.81206402e-02 -3.57658297e-01 -2.74589837e-01 -3.98251899e-02]
 [-4.34142277e-02 -3.50315645e-02  5.30554429e-02 -3.01254153e-01
  -2.77034529e-02  4.33353223e-02 -1.66914374e-01 -5.68813719e-02
  -7.87146688e-02 -4.36387546e-02  2.70704012e-02  1.61957312e-02
  -2.99770851e-02  1.83085918e-01  1.90109629e-02 -5.59819154e-02
   9.49119031e-03 -4.13790941e-02 -3.43457125e-02 -5.55686317e-02
  -3.97636555e-02 -7.56368637e-02  5.12269437e-02 -3.18061709e-02
  -1.49144176e-02 -4.38308045e-02 -5.91153465e-02 -2.96470821e-01
  -5.68675213e-02 -9.19563230e-03 -5.47423482e-01 -1.77656949e-01
  -2.69154534e-02  1.10026158e-01  7.12718964e-02 -1.57631963e-01
   5.67879267e-02 -5.26015311e-02  7.75275230e-02  2.83693452e-03
  -3.12744111e-01  3.52768861e-02  9.48742628e-02  3.77900386e-03
  -4.63636890e-02 -1.40285352e-03 -8.75925943e-02 -2.12189734e-01
  -4.01110053e-02 -6.58499449e-02  4.64895964e-02  7.23028369e-03
   9.78147984e-02  1.26011029e-01 -9.13783386e-02 -5.23266010e-02
  -7.65670687e-02  7.32121393e-02 -2.33959749e-01  3.99229825e-02
  -2.68901531e-02 -2.18274146e-01  2.60767769e-02 -5.05061299e-02
  -4.12676185e-02  3.89414206e-02 -5.49963899e-02  2.19621599e-01
   5.71590997e-02 -1.70947611e-02  1.34947583e-01  8.95928126e-03
   3.41208935e-01  1.59449309e-01 -6.63477331e-02 -3.23016904e-02
   7.71795213e-03  5.55712916e-02  1.36971712e-01  9.36787669e-03
  -1.91192696e-04 -1.23534240e-01  4.19048294e-02 -4.95326892e-02
  -1.83157593e-01  3.81823815e-02 -3.98207344e-02 -1.69561747e-02
  -5.49494624e-02 -7.45219812e-02 -1.97230414e-01  4.95468490e-02
  -4.94021028e-02  1.49845062e-02 -4.16935086e-02 -1.14333071e-01
  -7.98644871e-02 -2.48975158e-01  1.20849600e-02 -2.14292884e-01
   8.37702453e-02  4.25681546e-02  2.37956077e-01  1.35409340e-01
   5.38422763e-02  7.77294412e-02 -1.30188912e-01 -3.02388780e-02
  -2.99252733e-03 -1.11453407e-01 -8.52607861e-02  2.46767819e-01
   2.62042254e-01  2.49109030e-01  6.54044822e-02  1.59524325e-02
  -7.86479786e-02 -4.19311486e-02  6.06170576e-03 -8.78215581e-02
   5.40953726e-02  3.44132520e-02 -2.99937697e-03 -5.94863780e-02
   3.29744257e-02  6.90992400e-02 -5.00478558e-02  1.30303940e-02]
 [-5.10017527e-03 -5.99121265e-02 -6.52264804e-03 -1.04729347e-02
  -7.37575069e-02  7.95170888e-02 -1.54170409e-01  1.61639810e-01
   1.16126962e-01  1.52545888e-03 -1.15659963e-02 -3.61631773e-02
  -9.17640999e-02  7.18504936e-02  2.32640598e-02 -3.98135073e-02
  -3.07805520e-02  3.65458103e-03  5.62240519e-02  1.92459583e-01
  -6.28994331e-02  1.67651214e-02 -3.41668017e-02  3.18749957e-02
   9.11595449e-02 -1.10781580e-01 -3.71652166e-03 -6.88364208e-02
  -3.84808704e-02  1.34529695e-01  5.44120558e-02  1.68110654e-01
  -7.96035603e-02  2.11614817e-02  4.04229343e-01  4.97950893e-03
   2.20724056e-03 -4.68227625e-01  5.58055565e-02 -2.55070496e-02
   2.80744255e-01 -2.32227650e-02  1.20220691e-01 -1.92349583e-01
  -3.97014208e-02 -4.78924103e-02 -7.22794747e-03 -1.23630777e-01
   3.10526416e-02 -3.40005547e-01 -1.11702472e-01 -1.05119638e-01
  -1.99805558e-01 -2.66164858e-02  2.48173308e-02 -1.11703411e-01
   5.34363724e-02 -4.60878350e-02 -3.53918850e-01 -4.42335606e-02
  -7.82488957e-02 -8.85824859e-02  2.22634912e-01 -1.72518328e-01
   6.81711780e-03  1.55849651e-01  2.39845827e-01  3.45266387e-02
  -1.65837388e-02 -2.85840947e-02 -1.59221381e-01 -5.29681556e-02
  -4.57225174e-01 -1.74563810e-01 -1.43975347e-01 -1.85667176e-03
  -3.63979265e-02 -1.03470691e-01 -8.04885179e-02 -3.28963734e-02
  -2.84730662e-02 -6.92167357e-02  3.54112461e-02 -6.21268563e-02
   1.41800269e-01  3.00720111e-02 -1.64558049e-02  1.64198890e-01
   2.24361867e-02  1.29927881e-03  5.22589497e-02  2.95966212e-02
  -1.38378115e-02  1.08949058e-01 -6.15032688e-02 -5.68839833e-02
   8.57145041e-02 -2.18625262e-01 -3.47803719e-02 -6.77415207e-02
   1.22524887e-01 -1.85297742e-01 -6.20613284e-02 -1.35150686e-01
   6.04276322e-02  1.27639920e-01  9.40779448e-02 -3.85306850e-02
  -7.58608505e-02  9.59447771e-02  2.85230093e-02 -4.79388684e-02
  -2.24431366e-01 -2.12067053e-01  1.64649282e-02 -2.20955878e-01
  -3.25620435e-02  5.22879586e-02 -5.87104484e-02 -1.06722802e-01
  -3.50754545e-03 -5.29547222e-02 -3.61377835e-01 -5.77741526e-02
  -1.13606090e-02 -1.76826760e-01 -2.50687927e-01 -7.29057044e-02]
 [ 5.57437260e-03 -2.33841012e-03 -1.90589540e-02 -6.90983310e-02
   4.92111221e-02  6.98144361e-02 -1.08107645e-03  2.06629802e-02
  -1.22979619e-02 -5.77115677e-02  2.17326075e-01  3.27779166e-02
   1.64033640e-02  1.77917592e-02 -7.75417984e-02 -3.26527134e-02
  -2.19466053e-02  4.24567834e-02 -4.46467511e-02  2.82282084e-01
  -2.48783398e-02 -9.89646185e-03  4.72499914e-02 -6.66322410e-02
  -4.50375229e-02 -1.19386092e-01 -1.07766315e-02  4.15754206e-02
  -2.35501137e-02 -1.98921431e-02 -2.75818616e-01  2.55057476e-02
  -3.44463401e-02 -1.53573498e-01 -2.08261743e-01 -4.38990295e-02
  -1.26104847e-01  1.92087870e-02  9.15123969e-02  5.01662716e-02
  -1.40057489e-01 -5.84878400e-02  6.64517730e-02  9.36318040e-02
  -2.14934647e-02  2.72741336e-02 -3.51671875e-02 -2.63223469e-01
  -1.27673848e-02  1.18240885e-01  5.17032854e-02  2.24921051e-02
   6.29332885e-02  5.62531874e-02 -6.22671507e-02 -3.60292643e-02
   3.88811007e-02 -7.83911273e-02  1.76905394e-02 -5.67108802e-02
  -7.96405450e-02  6.13372885e-02  1.70666538e-02  1.45582214e-01
   3.81188728e-02  7.98645318e-02 -2.04701290e-01 -9.38489847e-03
   2.51963623e-02  3.82882339e-04 -1.12304322e-01 -3.16340178e-02
  -1.36937806e-02 -7.50162750e-02 -8.85960907e-02  2.83232555e-02
  -5.01157790e-02 -3.59947011e-02  3.27586867e-02 -2.95268334e-02
   9.36125312e-03  3.15374620e-02  9.50470753e-03 -6.75704181e-02
  -5.11587523e-02 -7.49864848e-03 -2.63457112e-02 -1.46595523e-01
   1.03885764e-02 -8.98637157e-03 -4.50089537e-02 -4.70907353e-02
   1.44859433e-01 -2.04298854e-01 -1.40411541e-01 -3.21241803e-02
   2.31889039e-02  2.56822128e-02  8.72583222e-03  4.94388714e-02
  -4.93179336e-02  5.20724654e-02 -1.95622779e-02  1.54389188e-01
   5.63515946e-02 -1.20608211e-01 -7.84664303e-02 -7.23965187e-03
   3.73180173e-02 -1.55548006e-02 -3.16565335e-02 -3.59258801e-02
   1.42439246e-01  1.55762315e-01  8.82793963e-03 -2.73038417e-01
  -4.86922897e-02 -1.09628111e-01 -2.47642826e-02  1.11480489e-01
  -2.38411337e-01  3.41842999e-03 -8.82291123e-02 -1.07495971e-02
  -4.97962832e-02  9.13570821e-02  7.72211254e-02 -2.22331099e-03]
 [-4.17243317e-03 -1.17257088e-02  2.94730403e-02 -1.01415291e-01
  -1.49235753e-02  5.88341840e-02 -3.53591777e-02 -9.41333175e-02
   2.72628199e-02 -6.45487532e-02  4.96079139e-02 -4.27900292e-02
  -4.04742099e-02 -2.99471825e-01 -8.61428306e-03 -3.03795785e-02
  -4.13931534e-02  2.57064719e-02  2.70512532e-02  3.19890492e-02
   1.36907911e-02  3.76330353e-02  6.48300126e-02  3.82363498e-02
  -1.28181413e-01 -3.02770082e-02 -5.23963384e-02 -2.41285302e-02
  -5.77824898e-02 -1.09184593e-01  9.32583287e-02 -2.42182165e-01
  -1.07092205e-02 -2.59010255e-01 -1.83643654e-01 -1.06807679e-01
   7.01692328e-02  1.20271146e-01 -1.44700065e-01 -2.34770663e-02
  -4.90847118e-02 -4.31380495e-02  4.55205031e-02  1.54746905e-01
  -2.07072422e-02 -3.04930359e-02  4.04959731e-02 -2.59659793e-02
   9.73006804e-03  1.13483258e-01 -1.71239302e-02 -1.57434549e-02
  -1.53059408e-01 -1.65248051e-01 -3.80147733e-02 -5.64194983e-03
   8.21271390e-02 -3.01749948e-02 -2.95698661e-02 -1.85217499e-03
   1.06254622e-01 -8.21117535e-02  7.61180148e-02  2.27196440e-01
  -4.03902791e-02 -2.32031234e-02  9.64703113e-02 -1.62745133e-01
   1.42823355e-02 -6.81709349e-02 -7.44089708e-02 -1.40371388e-02
   3.92195508e-02  2.73198597e-02  9.21251997e-03  1.44995693e-02
  -7.16852024e-02 -5.81470281e-02 -5.55003919e-02  1.07533066e-02
  -1.28309792e-02  7.68388957e-02 -5.33736534e-02 -7.03009591e-02
  -1.11835502e-01 -3.75185441e-03 -5.72537817e-02  1.01477467e-01
  -7.63773769e-02 -3.13900001e-02  1.40316442e-01 -6.72099441e-02
  -1.37156934e-01 -1.68239385e-01  1.62303653e-02  2.31537804e-01
   2.63534542e-02  6.63644960e-03 -1.28050804e-01 -2.12620705e-01
   4.07384075e-02 -9.47794616e-02 -3.88315273e-03 -3.19387317e-02
  -2.74362475e-01 -3.79430383e-01 -3.07932854e-01 -1.29442168e-02
  -4.12487723e-02 -1.88163519e-01 -5.43436967e-03 -2.48803392e-01
  -7.82530978e-02  5.74600883e-02 -3.04471236e-03 -1.33871481e-01
   1.24744400e-02  8.88007879e-02  5.67075759e-02  8.87281671e-02
   5.28941862e-02  2.64947247e-02 -8.06792546e-03  1.91323999e-02
  -2.71577016e-03 -1.02053382e-01 -1.29153550e-01 -1.16130739e-01]
 [-5.84740043e-02 -6.49311841e-02  5.52156800e-03 -2.13418096e-01
  -7.00543597e-02  3.04928031e-02  6.73711076e-02  8.51612389e-02
   5.54454289e-02 -1.71003174e-02 -2.70332526e-02  3.20097944e-03
  -6.78800493e-02  1.34369181e-02 -5.60549423e-02 -6.68844655e-02
  -8.72360319e-02 -4.18462465e-03 -1.52427312e-02 -2.86741219e-02
   2.57518757e-02  1.40030039e-02  1.31359641e-02  2.49433611e-02
  -5.73327392e-03 -5.56617137e-03 -1.85647588e-02  8.60872399e-03
   5.53980190e-03 -2.30507348e-02  7.48009458e-02 -1.08560540e-01
  -4.73091528e-02  3.09803486e-02  1.97332904e-01 -1.12067960e-01
   8.24543908e-02  2.69602507e-01  9.93798301e-02  5.09307813e-03
  -1.86963249e-02 -3.74218747e-02 -2.93597072e-01  1.87762424e-01
   5.15527697e-03 -3.43223475e-02 -1.38027510e-02 -3.18351775e-01
   9.55948606e-03 -9.76860598e-02 -1.42505705e-01 -1.50098264e-01
   1.85936853e-01  4.11379814e-01 -2.97611430e-02 -1.80763364e-01
  -8.88672471e-02 -1.57079864e-02 -4.21474911e-02 -6.73114434e-02
  -3.17030400e-01  1.45648271e-01 -4.94077533e-01  2.11057458e-02
   3.45128290e-02 -1.02168739e-01  1.55502617e-01  2.51464583e-02
  -1.24073997e-02 -1.04185678e-02  6.13809787e-02  3.59538570e-02
  -2.96539426e-01 -3.20502400e-01 -6.92007840e-02  7.13720359e-03
  -4.52508926e-02 -4.73545566e-02  1.83395937e-01 -7.56460428e-02
   5.86643629e-03  9.77318510e-02 -1.97704835e-03  1.71955377e-02
   6.53114393e-02 -7.94466771e-03 -8.43394548e-02 -1.07366882e-01
  -5.49323577e-03 -1.34668797e-02  4.08231001e-03 -6.62918836e-02
   8.19376931e-02  1.81037411e-01 -2.36915171e-01  2.39349261e-01
  -5.09730168e-02  2.01809540e-01 -9.48836431e-02 -3.06732088e-01
  -1.42029703e-01  2.93808281e-01 -2.80193724e-02  3.07922691e-01
   1.69804394e-01 -3.79764400e-02  6.62375316e-02 -6.41926378e-02
   2.48119123e-02  1.28636047e-01 -4.15858999e-02  1.15515888e-01
  -4.23770286e-02  4.86948155e-02  2.58437693e-02  9.08465907e-02
  -4.28915918e-02 -3.44854414e-01 -9.77700949e-02  5.84615320e-02
  -2.01436087e-01  4.45479453e-02 -2.63207346e-01 -8.94807093e-03
   2.97627673e-02  3.27878058e-01  7.88506418e-02 -4.94159646e-02]
 [ 4.17544544e-02 -1.55670345e-02 -2.81067914e-04  3.12278837e-01
   4.54531536e-02  9.38232839e-02  1.77885871e-02  6.62420541e-02
  -2.40006335e-02 -1.03485212e-02 -7.43991360e-02 -2.28227880e-02
  -3.12449783e-02 -1.26092389e-01 -9.42824036e-03  1.35183763e-02
   2.59093884e-02  1.06249973e-02  1.24506224e-02 -1.39145911e-01
   8.61905888e-03 -4.02583927e-02  5.44483773e-02  6.57093944e-03
  -3.14170271e-02 -1.21714279e-01 -4.11947481e-02  1.72215194e-01
   2.62990147e-02  1.13413148e-01 -4.83671352e-02 -1.16687007e-01
  -1.10918030e-01 -1.14190597e-02  6.65347055e-02  1.81716569e-02
   3.68322358e-02 -1.55265316e-01 -1.69003502e-01  6.87586470e-03
   2.52600223e-01 -4.13043983e-02 -1.34892836e-01 -3.74886423e-01
   2.02580523e-02  4.77803648e-02 -6.32231161e-02 -4.72633578e-02
  -6.29747882e-02 -1.43797770e-01 -1.01552375e-01 -2.21732825e-01
   4.27101459e-03  1.13012195e-01 -1.80329122e-02  2.38830876e-02
   4.78251949e-02 -1.35151491e-01  1.30416885e-01  1.49377678e-02
  -4.16223258e-01  1.87671501e-02  5.32793589e-02  7.47284442e-02
  -1.01668917e-01 -1.92266807e-01  2.77825236e-01 -1.98589116e-01
   6.78399997e-03 -2.83868182e-02 -1.56551138e-01  2.34026127e-02
   3.45278293e-01  7.93784335e-02 -1.92114934e-01  6.53121062e-03
   1.29979784e-02 -7.92775955e-03  1.22571299e-02  4.30964157e-02
  -3.41321640e-02 -5.72507530e-02 -7.51278028e-02 -4.96417917e-02
   3.22053343e-01  1.25179291e-02 -2.42097639e-02  1.68484330e-01
   2.26521771e-02 -4.70152162e-02  8.54723379e-02  1.34352539e-02
  -1.42217129e-01 -2.78402835e-01 -8.87750611e-02  8.15370157e-02
   3.70488107e-01 -1.57600954e-01  1.24414012e-01 -2.64721692e-01
  -1.16433585e-02 -9.93430242e-02  2.46330351e-01 -3.93280722e-02
  -7.36089349e-02  1.00002296e-01  1.19503982e-01 -5.81755526e-02
  -7.37518668e-02 -1.08277887e-01 -2.07319297e-02 -5.99416308e-02
  -7.15600774e-02  1.48144647e-01 -6.23967722e-02 -1.02390088e-01
  -4.57944162e-02 -3.40250395e-02  3.97784002e-02 -1.05493877e-03
   1.50267914e-01  1.13995243e-02  1.71304718e-01 -8.97986516e-02
  -2.50801053e-02 -3.38362783e-01  7.28529319e-02 -1.21565838e-03]
 [-4.61467952e-02  5.17866062e-03 -9.53502208e-03 -1.95372730e-01
  -2.99406587e-04  1.35566935e-01 -3.35718915e-02  6.38288483e-02
  -1.33414134e-01 -3.09491269e-02  5.74777015e-02 -6.04826026e-02
   8.53116065e-02 -2.98521280e-01 -9.59508121e-02 -2.36710161e-02
  -5.86603321e-02  6.43507689e-02  4.32394184e-02 -1.78953514e-01
  -9.50159654e-02 -1.03410436e-02  4.35469951e-03 -4.98322770e-03
   7.08551779e-02 -2.24616781e-01  5.97994402e-02 -7.16830194e-02
  -3.62400487e-02  1.01028755e-02 -3.95680338e-01 -1.29001111e-01
   6.01176657e-02  2.81427745e-02 -4.94256318e-02 -1.76897809e-01
  -8.19751397e-02 -1.55420676e-01 -1.82719044e-02 -7.28526339e-02
  -8.69126152e-03 -2.07136143e-02  6.50473833e-02  9.36433598e-02
   5.90893701e-02 -8.31693709e-02 -3.03893182e-02 -3.69222939e-01
  -6.55533969e-02 -8.44180807e-02 -6.76121190e-02  4.34469879e-02
   6.95316046e-02  2.25570828e-01 -8.92940238e-02 -1.59338310e-01
   3.91658656e-02  1.73542760e-02 -1.22487091e-01 -1.52111463e-02
  -1.05022877e-01 -1.32005915e-01  2.42916256e-01  1.81839224e-02
   1.35987327e-01 -5.91190644e-02  1.09888881e-01 -1.64359659e-01
  -3.76245305e-02  2.66495198e-02  1.65035427e-01 -1.53554454e-02
  -7.70412236e-02  1.40408680e-01  1.48699448e-01  3.90937738e-02
  -1.66161098e-02 -3.94219346e-02  2.27056757e-01  1.51669970e-02
   9.25731957e-02  2.05483846e-03 -2.66210781e-03  7.07895979e-02
  -4.12052013e-02 -4.47996147e-02 -1.00016400e-01  1.99810952e-01
   3.13429721e-02 -6.94677159e-02 -3.15615125e-02 -3.41712497e-02
   1.07036941e-02  1.16504170e-01 -2.83932611e-02  1.13222800e-01
  -6.43727779e-02 -3.86740826e-02 -2.39067504e-05 -8.96170661e-02
   7.68433809e-02 -1.13371201e-02  1.83392420e-01  3.21593359e-02
  -1.06036387e-01  3.93264033e-02 -3.21907520e-01 -5.68445288e-02
  -6.81483224e-02  9.86447409e-02 -7.03407302e-02  2.10620221e-02
   5.18434122e-02  2.85879355e-02 -2.88392138e-02  2.71634340e-01
  -7.62430876e-02 -2.02633113e-01  3.66375595e-02 -1.55318424e-01
   1.83618978e-01 -2.45569237e-02  3.22689749e-02  1.60696432e-02
  -3.83636579e-02  6.54068915e-03 -3.10982820e-02 -9.02278200e-02]
 [-4.90340730e-03  1.04245944e-02 -2.88132988e-02 -8.02592188e-02
  -5.35789169e-02 -4.53562401e-02  2.31737252e-02  3.84302158e-03
  -8.70982856e-02 -6.52505308e-02 -7.91781470e-02  2.65592057e-02
  -1.39048919e-02 -4.07625921e-02 -1.88803487e-02  1.71678588e-02
  -7.43594579e-03  3.62023003e-02  6.08628429e-02 -1.89533699e-02
  -1.05801336e-01  6.22433908e-02  1.82327941e-01 -6.61639357e-03
   1.28090769e-01 -7.56881237e-02 -5.34286490e-03  5.83111532e-02
  -6.30463883e-02 -7.80608952e-02 -7.29556009e-02 -3.22520249e-02
   1.01315632e-01 -1.34717211e-01  1.76886678e-01  2.76138127e-01
   1.74243256e-01 -6.84918880e-01  5.21272235e-03  3.35513949e-02
   2.96741277e-01  1.83324367e-02  2.41044730e-01 -2.16100976e-01
   2.67850570e-02  3.43871303e-02 -5.08132949e-02  1.56237051e-01
   2.86233239e-02 -3.34528208e-01 -1.68649152e-01 -1.71054453e-01
  -1.38571814e-01  1.53104523e-02  4.02029939e-02  2.88045104e-03
  -2.65005380e-01 -5.29919304e-02  2.48015031e-01  3.38218622e-02
   4.45493534e-02  5.14913611e-02  4.51442413e-02 -6.83411583e-02
  -8.99692029e-02 -1.71544664e-02  4.33786750e-01 -7.08640665e-02
  -1.59586500e-02  9.72677115e-03 -3.26227061e-02  4.60137203e-02
  -1.73576534e-01  4.81511839e-02 -1.45723047e-02  1.80974312e-03
  -3.69421020e-02 -2.32796520e-02  2.14882530e-02 -6.79569617e-02
  -5.49002253e-02  2.82861479e-02  3.00148912e-02 -8.84796754e-02
  -8.80006049e-03 -6.52595423e-03  1.20201912e-02  6.92648813e-02
  -9.94503777e-03 -3.44667248e-02  1.26264468e-01  4.44428585e-02
  -1.92018941e-01  1.92268007e-02 -1.65280074e-01 -1.22523820e-02
   8.36355239e-02 -3.52634303e-02  4.71130311e-02 -1.68010354e-01
   5.41607030e-02 -1.06587268e-01 -7.51780421e-02  4.19677049e-02
  -1.17112666e-01  8.04082155e-02  1.42705306e-01  2.94351373e-02
  -1.82197411e-02 -8.26299116e-02 -3.92780203e-04  1.96684986e-01
   2.36543156e-02 -1.38129473e-01 -1.59726012e-02 -9.76368436e-04
  -9.17460248e-02  3.30610611e-02 -7.34336823e-02  2.93186158e-02
   4.23983037e-02 -5.35998717e-02 -1.90100506e-01 -3.38818841e-02
  -1.97654907e-02 -2.76471525e-02 -9.98144131e-03 -2.06853244e-02]
 [-6.23254143e-02  1.30407680e-02  1.20561011e-02 -1.10120438e-01
  -1.22942412e-02 -1.68695841e-02 -6.11982262e-03 -1.17150404e-01
  -2.70285085e-02 -3.19314301e-02  5.16193323e-02 -5.94848022e-02
   1.41043821e-02  3.11040450e-02  1.79421958e-02 -6.24571275e-03
  -3.42456624e-02 -2.54248679e-02  5.30269230e-03  1.23592287e-01
  -4.48042378e-02 -3.49789783e-02 -3.78829986e-02 -3.57510056e-03
  -7.25065470e-02 -1.28776893e-01 -3.65156569e-02  4.79036346e-02
  -5.76969124e-02  1.68737173e-01 -8.54272619e-02  1.24362662e-01
  -9.19930190e-02  1.04578458e-01 -1.17453180e-01 -8.81557465e-02
  -6.73616827e-02  7.75875673e-02  4.27539200e-02  1.83322020e-02
  -1.55597359e-01 -9.48788505e-03  1.34377509e-01  5.13141155e-02
  -4.95758764e-02 -3.26409750e-02  7.27947149e-03 -2.74241149e-01
  -3.64128835e-02 -2.72547714e-02  1.11870328e-02  3.67187560e-02
   7.51323402e-02  1.69126000e-02  5.07305237e-03 -1.69437043e-02
  -2.91642696e-02 -1.11790234e-02  1.22647569e-01 -5.34728542e-02
   2.02200431e-02 -1.10662811e-01  4.87438440e-02  1.00059614e-01
   3.27000059e-02  1.93372536e-02 -7.74981380e-02  4.08382118e-02
  -8.91900063e-02  1.05304306e-03 -3.77683267e-02 -3.03502381e-02
  -6.12678938e-02 -6.64684474e-02 -8.26949403e-02 -1.93368886e-02
   4.36259201e-03 -7.83915743e-02  8.60417336e-02 -2.74803839e-03
  -2.60506254e-02  4.65871878e-02 -6.84657320e-02 -4.32140492e-02
  -8.30408856e-02  1.21042589e-02  6.01773672e-02 -2.63124317e-01
  -3.88549045e-02  5.23184352e-02 -1.51274100e-01 -7.53647536e-02
  -3.56078930e-02 -1.57842606e-01 -1.40856415e-01  1.18402450e-03
  -9.99637619e-02  1.64849963e-02  3.82207334e-02  1.66184381e-01
  -3.24288458e-02  1.66722611e-01  4.82664742e-02  1.19476959e-01
  -4.92342114e-02 -6.77266940e-02 -4.80228253e-02 -2.64294585e-03
  -2.92940587e-02 -6.03497699e-02  1.81817561e-02  8.05996582e-02
   1.24007240e-01  2.41897091e-01 -3.31863314e-02 -4.40965556e-02
   9.96229053e-03 -7.71874487e-02 -8.00366774e-02  9.93694738e-02
  -3.89775373e-02 -1.59986876e-02 -1.15191694e-02  4.94610965e-02
   3.17431502e-02  3.16469818e-02 -2.16243953e-01 -3.67434435e-02]
 [-3.64296772e-02  1.25002395e-02 -4.29530516e-02 -1.40033945e-01
   2.78761312e-02  8.52095038e-02  9.97490659e-02 -1.23201452e-01
  -9.16529596e-02 -6.65386394e-02  9.31762904e-02 -1.70672406e-02
   2.74372380e-02 -1.63599744e-01 -2.60198507e-02 -5.59797101e-02
   5.10344608e-03 -4.71052006e-02 -3.26086953e-02 -5.63285314e-02
  -5.59391314e-03 -6.47908077e-02  1.79037243e-01 -3.71741317e-02
  -6.60576895e-02  1.52334377e-01  1.05102118e-02 -1.10916933e-02
   2.33449060e-02 -3.98157872e-02  1.32617757e-01 -2.71797627e-01
   8.62782449e-02 -2.68745005e-01  3.74377407e-02 -2.34642718e-02
   3.82494032e-02  1.50463670e-01 -1.91182822e-01 -5.58157787e-02
   1.05479039e-01 -8.19084700e-04  2.22219154e-03  1.77608714e-01
  -6.01172214e-03 -8.29610527e-02  4.64635761e-03 -8.63107219e-02
  -3.22514102e-02 -4.50630262e-02 -2.99939588e-02  1.78925425e-01
  -1.54546663e-01 -2.20332921e-01 -2.36741547e-02 -9.27250460e-02
   1.68186173e-01 -1.10673271e-02  1.74649693e-02 -6.86056465e-02
   1.05385415e-01 -1.98842987e-01  2.92588510e-02  2.00665936e-01
  -9.27741826e-02  1.09389611e-01 -8.15398321e-02 -1.21353358e-01
  -1.10941427e-02  2.19511613e-02 -6.56724572e-02 -6.47263378e-02
   4.64015305e-02  1.64271593e-01 -1.76830679e-01 -3.13266851e-02
   2.48064175e-02  1.22012831e-02 -2.20708270e-02 -1.00945443e-01
   6.24881722e-02  2.50042696e-02 -2.61025806e-03 -7.78071284e-02
   5.96610010e-02 -7.16255680e-02  5.49941175e-02  7.89739266e-02
  -2.85335388e-02 -3.20543349e-02  1.18893504e-01  6.10185508e-03
   1.18514327e-02 -1.14566177e-01 -8.64138976e-02  2.51911044e-01
  -5.54917455e-02 -1.05848439e-01 -1.21341169e-01 -1.52020216e-01
   3.71236838e-02 -6.65308312e-02 -1.49775790e-02 -7.37103075e-02
   1.35814086e-01 -2.77408421e-01 -1.11567058e-01  1.40534854e-02
  -1.24406163e-02 -9.60173234e-02 -2.17596782e-04 -3.50901157e-01
   1.31278429e-02  6.93990290e-02 -2.50551999e-02 -3.07001054e-01
   8.83486867e-03  2.74563150e-04 -2.47642659e-02  1.15035288e-01
   1.33226320e-01 -4.73669991e-02 -1.20160177e-01 -1.38182659e-02
  -1.34690208e-02 -1.09329939e-01 -1.56458482e-01 -5.48959002e-02]
 [ 3.33031677e-02  3.68597806e-02  3.59236225e-02  2.12718129e-01
   5.08754002e-03  2.01244637e-01  8.90971441e-03 -1.66591443e-02
  -1.05993800e-01 -3.55948620e-02  1.34746239e-01  1.62752084e-02
  -1.26471166e-02 -1.93780020e-01  4.92836349e-02 -3.80504020e-02
   1.11727556e-03 -2.27848291e-02  4.40658852e-02 -3.82105321e-01
  -3.56910862e-02 -6.54768869e-02 -1.51481673e-01 -3.45441699e-02
  -3.32851745e-02  1.31002860e-02 -5.65929152e-02  6.58413619e-02
  -1.38976723e-02 -1.57474890e-01 -1.01272678e-02  2.28219733e-01
  -1.01860322e-01 -5.99742047e-02  8.92486330e-03  1.47586778e-01
   4.61037904e-02  7.43320212e-02 -4.38260697e-02 -5.75418621e-02
  -2.00638652e-01  5.35929836e-02  3.15758809e-02  1.24996006e-02
   2.14292537e-02 -1.87941138e-02  5.77920582e-03 -3.32690895e-01
  -1.46496277e-02  1.05656069e-02 -7.91048333e-02  6.35872483e-02
   2.02178076e-01  9.72733498e-02 -8.61742161e-03 -8.24643523e-02
   1.42719314e-01  3.33033502e-02  2.74746418e-01 -5.61468378e-02
  -1.98824018e-01  6.39691874e-02  7.20881596e-02 -2.59222905e-03
  -9.83289704e-02 -1.14590675e-01 -1.20417448e-02 -9.18592438e-02
  -4.44976427e-02  3.19252312e-02  7.54151791e-02 -2.37348536e-03
  -1.79560453e-01 -2.45933071e-01 -2.90310711e-01 -5.73870167e-02
   5.87827119e-04 -1.00306652e-01  2.18411252e-01 -6.51815012e-02
   3.01660155e-03  8.00818950e-02  3.45399380e-02  3.04298960e-02
  -4.75166664e-02 -2.92851012e-02 -8.07656795e-02  4.46253717e-02
   5.38896676e-03 -3.85424159e-02 -9.16172639e-02 -3.21304649e-02
  -7.73891509e-02 -7.33149275e-02 -1.88232884e-01  4.27466072e-02
  -8.16927254e-02  2.07222223e-01 -7.65806884e-02  9.39850658e-02
  -3.16285342e-01  5.11527732e-02  1.28310993e-02  1.38698623e-01
  -3.40573162e-01  3.95503789e-01 -5.21256141e-02 -1.84899960e-02
   9.78069194e-03  5.37263043e-02 -4.59012501e-02  1.04712799e-01
  -1.52462825e-01  1.73094347e-01 -3.90689597e-02 -5.34200557e-02
   3.38573717e-02  7.20381662e-02  1.38224876e-02  1.43424615e-01
  -8.90770461e-03 -6.08810633e-02  4.07202356e-02  3.16508673e-02
  -3.02479286e-02 -3.66785452e-02  1.20019890e-01 -8.15861449e-02]
 [-3.55925150e-02  3.20818136e-03  4.77035902e-02  3.40704679e-01
   1.73810888e-02 -1.84706017e-01 -3.84531826e-01  1.03208311e-01
   3.21200602e-02 -7.60333538e-02 -1.87070847e-01 -6.73864484e-02
   1.37769934e-02 -3.48520093e-02 -2.62374766e-02 -2.87182387e-02
  -7.58163780e-02 -3.70920822e-02 -1.99381746e-02  1.73362613e-01
  -6.83151931e-02 -5.04821725e-02 -1.47706762e-01 -5.55803813e-02
   3.34640965e-02  3.10154073e-02 -6.73980787e-02  2.92790562e-01
  -5.45884408e-02 -1.04326032e-01 -1.19456097e-01 -4.17319275e-02
   1.36879729e-02 -1.18250083e-02 -2.57041659e-02  2.79717714e-01
   4.70928326e-02  1.51995108e-01 -1.85900629e-01  3.72071676e-02
   3.18704396e-02  1.86158400e-02  7.10141808e-02 -6.32000808e-03
  -1.92100629e-02  1.47008792e-01  9.80261248e-03 -2.38771439e-01
  -4.09722254e-02 -6.81295525e-03  1.58911854e-01 -1.78417891e-01
   2.51139104e-01 -1.27008229e-01 -5.32483086e-02  2.46082738e-01
   2.19266340e-01 -1.46988593e-02  1.30537778e-01 -6.20020628e-02
  -2.11187378e-01  3.34456228e-02  2.63417155e-01  3.52597088e-01
  -3.44456844e-02  5.29448465e-02  1.61382496e-01  2.01965258e-01
  -4.10888903e-02  4.47134413e-02 -8.67574736e-02 -3.28548364e-02
   1.11753764e-02 -1.72367707e-01  4.28221449e-02  2.48578358e-02
   3.70693915e-02 -2.63123661e-02 -1.71051055e-01 -1.62550493e-03
  -9.22490954e-02 -6.56602159e-02 -1.85789336e-02 -1.42566329e-02
   1.36597753e-01  2.27386300e-02 -7.04124272e-02  5.46228811e-02
  -8.28165784e-02 -4.41959361e-03  9.36843306e-02 -5.76653890e-02
  -3.52405101e-01  1.13752864e-01  8.83496087e-03  1.73340127e-01
   2.22686946e-01 -2.14596286e-01  4.31332365e-02  1.05945021e-01
   9.00545120e-02 -1.48857310e-01  2.15253532e-01  9.07409266e-02
  -5.66736870e-02  1.76040232e-01  1.34225473e-01 -8.29160679e-03
  -4.16931733e-02  1.06773227e-01  2.53949799e-02  2.81895727e-01
  -1.42918706e-01  3.23676497e-01 -3.93828601e-02 -2.95461696e-02
  -5.51918242e-03  4.42255437e-02 -2.87617855e-02  1.17738374e-01
  -2.75475550e-02 -6.53622746e-02  6.34118170e-02  2.90736929e-03
  -5.13885245e-02 -6.48804545e-01 -6.06390610e-02 -2.27388106e-02]
 [-2.43214909e-02 -7.30803907e-02 -1.76839158e-02 -1.08807981e-01
  -5.66551164e-02 -1.53027460e-01 -1.57616034e-01  1.65849671e-01
  -4.30589914e-02 -6.55950084e-02  2.47643456e-01  2.26291865e-02
   8.88197403e-03 -3.48176181e-01  8.24852362e-02 -5.86787686e-02
   1.80209707e-02  5.51455244e-02 -6.56907558e-02 -6.27705902e-02
  -1.46625107e-02  1.55234504e-02  2.77629912e-01 -9.07112807e-02
  -1.31829837e-02 -2.75043726e-01  2.00441927e-02  4.56229784e-02
