base_model/conv2d/kernel:0
(5, 5, 3, 6)
[[[[ 1.58348382e-01  8.17236230e-02 -1.44913912e-01 -5.32409884e-02
     2.37841412e-01  3.31237733e-01]
   [ 9.45384875e-02 -7.22199231e-02 -2.28193894e-01  2.16614008e-01
    -1.80762872e-01 -6.62597567e-02]
   [-1.27270088e-01 -2.88219243e-01  9.01062489e-02 -1.74717396e-01
     1.25127003e-01 -1.74820289e-01]]

  [[ 3.22650582e-01  2.73375511e-01  1.98308125e-01 -1.77652687e-01
     3.61967683e-01  2.00628452e-02]
   [-2.02489227e-01  5.38063142e-03  2.09726058e-02 -1.02417365e-01
    -1.62403762e-01 -9.06933770e-02]
   [-6.44467399e-02  1.71713397e-01 -9.03348532e-03  5.84699549e-02
    -2.65615880e-01 -1.57048292e-02]]

  [[-5.48929791e-04  1.85917899e-01 -1.09660603e-01 -4.01011407e-01
     3.99819165e-01  2.96968240e-02]
   [-4.15580213e-01 -2.79158264e-01 -1.06070482e-04 -7.69815966e-02
     6.62500933e-02 -4.61869054e-02]
   [-8.37272182e-02  5.80692887e-02  5.90453576e-03 -4.73516583e-02
    -1.95852071e-01  4.33498323e-01]]

  [[-6.13905825e-02  1.26866534e-01 -2.12980174e-02 -1.71284840e-01
    -2.83440370e-02 -9.24509019e-02]
   [-1.09644989e-02  1.43070251e-01  1.17859691e-01 -7.08290935e-02
    -7.59233832e-02 -5.10079339e-02]
   [-9.09152627e-02  1.44598782e-01  4.54656035e-02  4.51787144e-01
    -3.02459359e-01  1.26747936e-01]]

  [[ 2.06160825e-02 -2.29712635e-01  4.56139445e-02 -1.13033369e-01
    -1.58642247e-01 -2.13393420e-02]
   [ 4.23986278e-02 -7.17597641e-03  2.78438441e-02  1.73546523e-01
     4.95471172e-02  1.43195704e-01]
   [ 1.72928721e-01  8.69665816e-02 -1.90423027e-01  3.11097771e-01
     1.06172793e-01  4.35236573e-01]]]


 [[[ 1.99904814e-01 -3.19511354e-01  1.15390003e-01 -4.54882719e-02
    -2.24433675e-01  1.27574746e-02]
   [ 1.42076477e-01 -4.29805875e-01  1.96392089e-02 -1.59247860e-01
    -1.00069501e-01  2.33893454e-01]
   [ 2.01676041e-02 -4.98078763e-01 -2.02385522e-02 -1.33655354e-01
    -8.40863511e-02 -1.80797756e-01]]

  [[ 1.58667848e-01  2.09549561e-01 -1.89173799e-02 -1.43666998e-01
     1.87613405e-02  1.56473830e-01]
   [-9.44959968e-02 -1.28800094e-01 -6.06193207e-02 -2.29547486e-01
    -1.40551835e-01  2.31966019e-01]
   [ 3.74672785e-02  8.38357955e-03 -1.50571898e-01  1.64021738e-02
     4.30164412e-02 -1.19614474e-01]]

  [[-3.40506375e-01  1.95338065e-03 -1.77016601e-01 -9.36483666e-02
     3.86819690e-01 -2.14782357e-01]
   [-5.82333505e-01 -2.23351777e-01  8.42156932e-02 -3.58562730e-02
     7.14038238e-02 -3.43513712e-02]
   [-3.11343074e-01  4.86790165e-02 -3.50165889e-02  1.17623918e-01
     2.22427785e-01  3.84281278e-01]]

  [[ 1.63562030e-01  1.71572447e-01  1.23627566e-01 -1.14950940e-01
     4.77450550e-01 -1.13484517e-01]
   [ 1.67514250e-01  7.42829368e-02  3.61201584e-01  1.89552277e-01
     7.89665356e-02  9.61048529e-02]
   [ 3.12907815e-01  3.37572932e-01  3.01992297e-01  1.87417120e-01
     3.99740398e-01  3.32769215e-01]]

  [[-1.19645201e-01 -9.17560607e-02 -2.11095914e-01 -2.07350124e-02
     1.96580868e-02 -3.51673305e-01]
   [ 1.25367016e-01 -1.69444337e-01 -1.09563239e-01 -6.68606609e-02
     4.45999265e-01 -1.96423754e-01]
   [ 9.52688158e-02  1.99988812e-01 -2.24361584e-01  1.77656680e-01
     3.00246656e-01  1.70871586e-01]]]


 [[[ 2.15364084e-01 -2.60398656e-01  3.44657719e-01 -2.67234057e-01
     1.12221032e-01  3.14482301e-01]
   [ 4.23816562e-01 -4.35935676e-01  4.60749179e-01 -4.33809727e-01
     7.35085085e-02  2.57971078e-01]
   [-8.31160136e-03 -4.74260360e-01  3.14922214e-01 -2.91904420e-01
     2.65128702e-01 -4.32081044e-01]]

  [[-5.89318871e-02  9.11205448e-03  6.40634969e-02 -3.46452296e-01
    -2.94210531e-05  3.03097516e-02]
   [-2.29026556e-01 -1.42021999e-01 -2.04590876e-02 -2.28739828e-01
    -1.89940140e-01 -1.20579973e-01]
   [-7.84829184e-02 -3.22728783e-01 -8.08448046e-02  1.98620811e-01
     1.47963166e-02 -3.13897401e-01]]

  [[-3.69067788e-01  7.35821947e-02 -6.21849835e-01 -2.79655576e-01
     1.24457767e-02 -4.21302706e-01]
   [-4.40743178e-01 -2.39370003e-01 -4.73184854e-01 -1.77560493e-01
    -4.71945196e-01 -1.83518127e-01]
   [-3.73991519e-01  7.13824034e-02 -5.72595060e-01  2.75170416e-01
    -3.23002905e-01 -5.67023717e-02]]

  [[ 2.80431122e-01  1.26963660e-01 -1.01233572e-01 -1.53622195e-01
    -5.25102317e-02 -1.35808915e-01]
   [ 4.61158574e-01  1.58144131e-01  1.11868955e-01  6.32483214e-02
    -3.45143884e-01 -5.36717325e-02]
   [ 5.09683251e-01  4.72061336e-01 -2.48410314e-01  2.74718195e-01
    -1.64001197e-01  2.97271818e-01]]

  [[-1.92476451e-01  5.59629947e-02  3.35810304e-01  7.82350674e-02
    -5.27583838e-01 -2.11676165e-01]
   [ 5.49261495e-02  3.14083904e-01  5.94743073e-01 -3.73056158e-02
    -2.49855518e-01 -2.31992051e-01]
   [-5.03660478e-02  5.56713402e-01  1.05105934e-03 -3.05150095e-02
    -2.64709711e-01  2.66146421e-01]]]


 [[[ 3.27795267e-01  1.31261304e-01 -3.42553295e-02  2.73214906e-01
    -6.59967884e-02  1.10114425e-01]
   [ 2.21973315e-01 -2.26923466e-01 -3.20874065e-01  1.00332282e-01
    -2.42483407e-01  5.23073785e-02]
   [ 1.19700730e-01 -2.51731992e-01 -4.13780101e-02  1.64219141e-01
     2.62435704e-01 -3.34458798e-01]]

  [[-1.29528999e-01 -2.18435407e-01  1.81672517e-02  2.93689609e-01
     5.80783971e-02 -8.88999179e-02]
   [-3.30194592e-01 -4.05365020e-01 -1.33901805e-01  2.33950764e-01
    -2.79536724e-01  7.32420608e-02]
   [-3.44209433e-01 -2.24742472e-01  1.22913994e-01  4.50061053e-01
     1.61070481e-01 -6.30934238e-02]]

  [[-2.85131156e-01 -1.45617306e-01  3.59339535e-01  2.57404774e-01
     3.88365462e-02 -3.35823983e-01]
   [-3.08067977e-01 -3.68244439e-01  4.50648010e-01  2.08477169e-01
    -4.07707334e-01  2.24105269e-01]
   [-2.27757897e-02 -3.07498306e-01  4.61592406e-01  3.04693609e-01
    -4.87435237e-02  4.46059078e-01]]

  [[ 2.17308462e-01  7.22986162e-02 -3.21375459e-01  2.81735986e-01
     7.55745592e-03 -1.40615642e-01]
   [ 4.12567794e-01  9.49271843e-02 -3.04662645e-01 -3.38290399e-03
    -8.42207819e-02  1.31294861e-01]
   [ 4.88993913e-01  8.52816328e-02 -2.95637250e-01  1.05875358e-01
    -1.34958267e-01  2.97145963e-01]]

  [[-9.50625837e-02  2.72070408e-01 -8.78839046e-02  2.60495931e-01
    -2.40266919e-01 -2.65991747e-01]
   [ 1.81573611e-02  2.22687237e-02 -1.87539548e-01 -3.97236615e-01
     7.15865660e-03 -1.26351938e-02]
   [-2.51101315e-01  2.55128890e-01  3.22239175e-02 -3.20201904e-01
    -3.28511357e-01  3.08978289e-01]]]


 [[[ 8.09398741e-02  3.42526436e-01 -9.81587693e-02  2.51879752e-01
    -1.49275601e-01  1.83900326e-01]
   [ 1.48678636e-02  1.98440716e-01 -3.42364103e-01  3.14679056e-01
     4.20722887e-02  2.79355764e-01]
   [ 5.64073445e-03  1.67435646e-01  3.53406109e-02 -1.07636042e-01
     3.85707021e-02 -7.78775513e-02]]

  [[-2.64958650e-01  1.22339822e-01 -1.48890406e-01  9.07999873e-02
    -3.99725288e-02 -3.40227902e-01]
   [-1.63291708e-01  1.93079561e-02 -1.55883301e-02  6.95080012e-02
    -6.55807555e-02 -2.10680425e-01]
   [-2.97051877e-01 -1.02681309e-01 -3.63278016e-02  3.45665254e-02
    -9.86623168e-02 -1.98651627e-01]]

  [[-1.17823936e-01 -3.15635115e-01  3.60407323e-01  2.83376515e-01
    -2.73680016e-02 -3.52385610e-01]
   [-1.22699074e-01 -3.37864637e-01  6.99873567e-02  8.84125382e-02
     1.68100417e-01  1.49470866e-01]
   [ 2.30352074e-01 -3.08892250e-01  2.78566509e-01 -1.72903910e-01
     2.26275310e-01  2.13576525e-01]]

  [[ 1.11009791e-01 -3.47118787e-02  1.23562060e-01  3.45555753e-01
    -1.92560837e-01 -4.00957704e-01]
   [ 1.45271525e-01 -1.75820515e-01 -1.58744876e-03 -1.51249155e-01
     3.19385290e-01  1.40714198e-01]
   [ 2.90808529e-01  2.06673685e-02  8.22675750e-02 -2.92977601e-01
     2.28129655e-01  1.97776884e-01]]

  [[-1.05121933e-01  8.61571655e-02 -1.47784755e-01  3.99488300e-01
    -1.22232661e-01 -3.30567837e-01]
   [-7.22460970e-02  2.12706238e-01 -2.10603736e-02 -3.41605037e-01
     4.55945790e-01 -5.92255443e-02]
   [-5.51880933e-02  3.01736951e-01 -3.14491056e-02 -6.12314582e-01
     1.36039257e-01 -1.05405547e-01]]]]
base_model/conv2d/bias:0
(6,)
[ 0.01694473  0.27228758  0.09434372  0.28318772 -0.03292767  0.01583292]
base_model/batch_normalization/gamma:0
(6,)
[0.69844025 0.5519822  0.4547244  0.6496759  0.7486248  0.3085271 ]
base_model/batch_normalization/beta:0
(6,)
[-0.3753331  -0.2629992  -0.25101066 -0.56730783 -0.564373   -0.04742021]
base_model/dense/kernel:0
(1536, 128)
[[-2.57813036e-01 -8.64088908e-02  1.90395378e-02 -1.72240704e-01
  -1.58732027e-01 -1.23482443e-01  2.45204270e-01 -1.35772735e-01
  -1.18058145e-01 -8.18194449e-02  2.74353530e-02 -2.52604038e-01
  -3.08167189e-01 -4.13897298e-02 -3.64576578e-02 -9.88110714e-03
  -7.89507572e-03 -7.88553953e-02 -5.76907396e-01 -2.44890749e-02
   9.24036577e-02 -2.56678790e-01 -1.14624664e-01 -1.73570365e-01
   1.00715071e-01 -1.77122071e-01 -4.48256768e-02  9.34430435e-02
  -2.32731685e-01  2.15093330e-01  1.17667630e-01  1.60927862e-01
   1.38545424e-01 -4.12241481e-02 -8.40304568e-02  7.42709916e-03
  -3.76002602e-02 -1.20108956e-02  3.15451398e-02  7.84427021e-03
  -5.45712300e-02 -8.31430256e-02  1.84931923e-02 -1.06813714e-01
   1.20116331e-01 -5.70386201e-02 -8.52726921e-02 -4.45715725e-01
  -1.11326478e-01 -2.92501859e-02 -3.01305018e-02 -6.41045347e-02
   2.94546150e-02 -4.09814060e-01 -1.81681651e-03 -3.02161202e-02
  -4.58644748e-01 -8.75980258e-02  1.31578282e-01 -4.02756557e-02
  -1.29288450e-01  2.55970117e-02 -9.14067216e-03 -1.69680357e-01
   2.82243580e-01 -2.03815550e-02  1.33654863e-01 -2.68220380e-02
  -4.80615050e-02 -3.21496949e-02  6.59722909e-02 -4.78817746e-02
  -5.13085313e-02 -2.02262595e-01 -4.11927653e-03 -1.01750083e-01
   8.94762650e-02 -1.60563011e-02 -5.96933775e-02 -4.59467806e-02
  -6.68833330e-02  9.42752734e-02  2.03798756e-01 -1.61252275e-01
  -7.92632848e-02 -6.63159862e-02 -4.62595001e-02  8.17840248e-02
   2.60091811e-01  1.41310722e-01 -2.45991088e-02  2.43485570e-01
   5.81181608e-03 -5.05442992e-02  1.24569602e-01  5.94854960e-03
  -3.26320492e-02  2.84762327e-02 -2.25664154e-02 -3.53922069e-01
  -3.98499407e-02  5.78364404e-03 -4.10529636e-02 -2.86810458e-01
  -4.45095971e-02  1.72183346e-02  2.77852267e-02 -9.37142521e-02
   2.05759928e-02 -5.61988465e-02  4.17873114e-02 -2.81669348e-01
  -2.24139262e-03  2.98152715e-01  2.17997000e-01 -1.20568633e-01
  -5.91800809e-02  1.53434891e-02 -7.88094699e-02  8.87919590e-02
   8.55274051e-02 -4.14590985e-02 -1.21700853e-01 -6.70359144e-03
  -7.46832043e-02 -9.60968435e-02 -3.00238371e-01 -2.60916669e-02]
 [-1.35858446e-01 -1.41127699e-03 -3.79461832e-02 -2.38735881e-03
   6.28845319e-02  1.93255264e-02 -8.13108087e-02  1.27511518e-02
   3.85139771e-02 -3.15379314e-02 -3.10249496e-02 -9.76074040e-02
  -9.37292725e-03  1.21197499e-01 -3.33769843e-02 -7.50627276e-03
   4.96825501e-02 -1.23414807e-01 -2.28817135e-01  6.89348504e-02
  -4.80712578e-02  4.26023826e-03  2.83420589e-02 -8.85729045e-02
   1.13789611e-01  1.33527339e-01 -9.21534374e-02  5.54501917e-03
   4.56317663e-02  1.05571948e-01 -9.96897370e-02  6.03082441e-02
   6.89729070e-03  5.06669702e-03 -7.63067380e-02  7.10083246e-02
   1.32849403e-02  6.52828813e-02 -3.85864563e-02 -4.55335230e-02
  -5.87137267e-02 -2.02636980e-02 -7.93595463e-02  1.08560115e-01
  -3.24812415e-03 -8.79656225e-02  9.27733490e-04  3.67648108e-03
   3.60177197e-02 -5.16486280e-02 -6.96574599e-02  1.50107555e-02
  -2.35887449e-02 -2.05783293e-01  2.12370232e-02 -2.51424406e-02
  -2.08660439e-01  4.84026745e-02  1.31873488e-01  4.60446700e-02
  -1.25433177e-01  5.22240177e-02 -1.98400579e-02  1.14399768e-01
   2.00605273e-01 -2.01582275e-02  5.29771633e-02 -3.78048383e-02
  -2.38070861e-02  2.56705415e-02 -8.02022144e-02 -1.68920159e-02
  -5.23307659e-02 -8.34419727e-02 -9.49416831e-02 -3.15630212e-02
   1.49409756e-01 -2.58278884e-02  1.34412214e-01 -2.00298280e-02
   4.45158370e-02  1.05886213e-01  2.03970950e-02  7.96800703e-02
  -2.72070318e-02 -3.99966277e-02 -4.59825099e-02 -1.87883526e-02
   1.00102648e-03  7.91560858e-02 -8.00634846e-02  3.08742970e-02
  -3.26589122e-02 -1.89695344e-03  9.22938138e-02 -6.85956925e-02
   2.25134324e-02 -1.17498944e-02  1.19439915e-01 -9.42064002e-02
  -3.52634303e-02 -5.93738705e-02 -7.21332580e-02  9.31903496e-02
  -7.32387602e-03 -7.07159042e-02 -4.65254039e-02 -1.73375487e-01
   1.53322332e-02 -3.44554521e-02 -6.49700686e-02 -8.43245387e-02
  -1.17997378e-02  1.00761034e-01  2.85061002e-02 -1.23480624e-02
  -1.27224311e-01  1.16077639e-01  6.90524131e-02  2.01551571e-01
   3.28878798e-02  1.04640983e-03 -1.31134372e-02 -2.87266858e-02
  -3.80057842e-02  1.36382142e-02 -9.66082662e-02 -3.56085561e-02]
 [ 7.27539062e-02 -5.06515102e-03 -3.30896378e-01  2.95496941e-01
   3.39406222e-01  6.37164107e-03  2.18917027e-01 -5.30731529e-02
  -9.02520493e-03 -2.18205780e-01 -2.98548900e-02 -6.69414625e-02
   1.03445947e-01  6.68313801e-01 -7.55744725e-02 -4.03671265e-02
   5.52793965e-02  1.44384336e-03 -5.22203684e-01 -3.71077098e-04
  -4.11709771e-02 -1.46886766e-01  3.54104906e-01  6.84148222e-02
   2.20936134e-01  6.87844679e-02  1.51569426e-01  2.17692763e-01
   2.44244054e-01  2.19024032e-01  1.94174051e-01  2.21803188e-02
   1.21950924e-01 -6.43761307e-02 -4.88839000e-02  2.66850829e-01
  -6.39560223e-02 -8.98637399e-02 -3.93351465e-01  1.04191303e-01
  -8.41895398e-03 -3.57707031e-02 -8.75773728e-02  2.98351701e-02
  -2.35911668e-03 -4.38640565e-02  1.20030418e-01  1.97134137e-01
  -7.66996890e-02 -1.27273118e-02 -5.39818406e-02 -3.52891982e-02
  -8.85457844e-02  1.15914129e-01 -5.21638617e-03  3.36493962e-02
  -1.14191778e-01 -3.19474995e-01 -1.27767488e-01  1.59748718e-01
  -7.64964968e-02  4.80943769e-01 -1.23544643e-02  2.08278727e-02
  -4.71435130e-01 -5.83610795e-02  1.48970217e-01 -6.61007389e-02
  -2.09205046e-01  9.54214334e-02  1.38281733e-01 -3.60189209e-04
   5.16461628e-03  2.16455180e-02  2.29096495e-05 -2.77320713e-01
  -6.07163869e-02 -5.98753057e-02  2.14485392e-01  3.60819958e-02
  -1.98639110e-01 -6.56013414e-02  8.82715359e-02 -2.32337788e-01
   3.43959928e-02  3.48940104e-01 -8.47967193e-02 -4.31743652e-01
   1.07147224e-01  2.49666616e-01 -4.46156487e-02 -3.47086191e-01
  -1.89396143e-02  5.07509589e-01 -4.52254146e-01  6.14830712e-03
   9.78441015e-02 -6.07197843e-02  9.90385190e-03  2.47345775e-01
   1.15449596e-02 -2.02687271e-02  4.25776355e-02  4.97994125e-02
  -8.22012872e-02  4.49544098e-03 -9.92923230e-02 -2.77280271e-01
   3.13928314e-02  5.00783790e-03  2.57934928e-01  5.31642884e-03
  -4.65592667e-02 -1.92454547e-01  3.74631494e-01  1.80679336e-01
  -5.64150065e-02 -2.78176934e-01 -3.05802166e-01 -5.89104056e-01
   4.39988106e-01 -2.61583924e-03  2.82897335e-02 -4.91739698e-02
  -4.40907888e-02  4.79502976e-02 -1.39741570e-01 -2.31016308e-01]
 [-1.54371411e-01  1.52050760e-02 -3.85681570e-01 -1.70770168e-01
  -2.02626377e-01 -3.24815512e-02  3.21035236e-02  1.91977143e-01
  -3.08721393e-01  7.83334021e-03 -5.02037294e-02 -2.04861701e-01
  -1.84748411e-01 -3.43873762e-02  1.68380722e-01 -8.04155841e-02
  -1.26311958e-01 -6.49677729e-03 -3.01453620e-01 -1.36242375e-01
  -9.48639512e-02 -1.52224243e-01 -2.64869452e-01 -9.05190706e-02
   1.12254418e-01  1.59316212e-01 -1.63100153e-01 -1.08279258e-01
   1.54096857e-02  6.41359538e-02  1.64415583e-01  6.37451634e-02
   2.22252812e-02 -4.67518568e-02 -3.47270928e-02 -3.13272268e-01
  -6.02416992e-02 -2.04759073e-02 -6.37021288e-02 -1.05637088e-02
   4.39352542e-02  2.28842385e-02 -1.78832486e-02  1.11191563e-01
  -1.21834846e-02 -2.58485060e-02 -1.41101643e-01 -1.16120659e-01
  -2.98214465e-01  2.71613114e-02 -4.92548086e-02  5.62578859e-03
  -1.26499869e-02  2.80445833e-02 -6.43919781e-02  1.72869731e-02
  -8.97336230e-02 -2.83617347e-01  3.86147618e-01 -1.02276281e-02
   7.33339936e-02  3.11895763e-03  3.84571054e-03 -4.37078550e-02
   9.57173929e-02 -5.45771420e-02  3.43623832e-02  5.51861478e-03
   2.73245983e-02  1.49764633e-02  1.59193948e-01 -4.58775386e-02
   2.40091160e-02 -3.52666602e-02 -5.31766303e-02  1.84619695e-01
  -1.35679886e-01 -1.85582461e-03  2.77552396e-01  1.95890795e-02
  -2.24628281e-02 -1.89620301e-01  1.47310719e-01  1.48984119e-02
  -3.16111706e-02 -3.92757416e-01 -5.23620322e-02 -1.96720183e-01
  -1.41996145e-02 -1.12412073e-01  2.87578925e-02  7.49143809e-02
   3.08528971e-02  8.28377381e-02  3.58994395e-01 -5.32900728e-02
   1.26533717e-01  1.96758509e-02  9.19235521e-04 -2.36125082e-01
  -8.38163495e-02  1.30366127e-03 -1.91481002e-02 -5.22450656e-02
   1.47948777e-02  3.83414216e-02 -4.72147278e-02 -4.01101261e-01
  -3.11805867e-02 -4.98282164e-03 -6.44532815e-02 -8.03693477e-03
  -1.39834717e-01  2.35729262e-01  2.83989478e-02 -1.39282078e-01
  -4.70697246e-02  4.04105008e-01  1.18955206e-02  1.35142103e-01
  -4.54096317e-01  9.49540362e-03 -1.59760609e-01  3.25919315e-02
   5.48340306e-02 -7.84304738e-02 -2.64141168e-02 -1.42722279e-01]
 [ 4.75105569e-02 -9.59264673e-03  2.31416747e-01 -1.12556487e-01
   6.75953086e-03  3.17890495e-02 -4.02980179e-01 -1.62605733e-01
   2.86255195e-03 -9.77377817e-02 -3.47699933e-02 -1.50896618e-02
  -2.69768685e-01 -9.26547572e-02 -3.11261207e-01  2.74303593e-02
   2.53537506e-01  3.18598419e-01  2.87276655e-02  2.85589993e-01
  -6.49862215e-02  6.96782395e-02  6.84229732e-02  1.40816301e-01
   4.88607258e-01  2.82734811e-01 -2.36308634e-01  6.57774433e-02
   5.15049929e-03 -1.44575596e-01  2.69602895e-01 -1.23199724e-01
   1.90940887e-01 -1.13887554e-02 -3.36907879e-02  2.72850215e-01
   8.09123591e-02 -1.61712795e-01 -1.77679524e-01 -3.33099127e-01
   3.22050676e-02 -3.99932079e-02 -8.00719019e-04 -1.41211510e-01
  -1.32012859e-01  4.77744341e-02 -1.82116970e-01 -1.53372914e-01
  -4.95224893e-01  5.14164045e-02  2.68841279e-03 -5.18010184e-02
  -3.54254954e-02 -1.17198788e-01  7.06289662e-03 -6.48991987e-02
   6.70681074e-02  4.89636362e-02 -9.74951163e-02 -8.45490992e-02
  -1.40702352e-01 -2.51721144e-01 -3.73386219e-02  5.46228141e-02
   1.07613280e-01 -3.19126085e-03 -2.76269317e-01 -1.38213392e-02
  -9.89028141e-02  1.70749560e-01 -2.02730875e-02 -4.61667515e-02
  -4.98069860e-02  3.00453067e-01 -5.00840731e-02 -1.15281262e-01
  -3.62840928e-02  3.16792317e-02  1.22893294e-02  3.96681875e-02
  -3.55332583e-01 -3.61218333e-01  1.44415617e-01 -1.27870247e-01
   2.93742977e-02 -1.53908938e-01 -4.77996580e-02 -2.95067914e-02
  -2.20329687e-01  1.96416244e-01 -3.72066647e-02  1.37338862e-01
   1.51371518e-02 -1.33927181e-01 -6.77950308e-02 -5.91319473e-03
  -7.37105161e-02 -4.85786051e-03 -1.36193290e-01  1.98227033e-01
  -5.48532903e-02 -3.88338305e-02 -3.42489081e-03 -1.96197331e-01
   5.69002666e-02 -5.75800939e-03  4.35886439e-03 -6.65001810e-01
   1.41240777e-02 -1.29345721e-02  2.58553028e-01  1.07377738e-01
  -4.94254827e-01  3.09757173e-01 -6.37006238e-02  3.61282021e-01
  -8.17998350e-02  4.48830694e-01  6.36678338e-02 -1.19183473e-01
  -2.80337092e-02 -3.23341936e-02  7.48629421e-02  2.31472850e-02
  -6.92180023e-02  4.00368243e-01  5.24821393e-02 -1.61837533e-01]
 [-6.45010650e-01 -4.11027670e-02 -1.88549504e-01  1.86609387e-01
  -5.00575423e-01 -6.39788955e-02  2.81452406e-02 -1.56047955e-01
   9.90136266e-02 -2.51545489e-01 -6.96544349e-02  1.32867873e-01
   7.38303900e-01  1.30659387e-01 -3.21223974e-01  9.52337310e-03
   2.66012222e-01 -1.12961803e-03 -2.32483715e-01 -1.43616259e-01
  -2.14683786e-01 -1.62875757e-01 -2.38219514e-01 -8.04053694e-02
  -1.56561375e-01 -1.64805502e-01  2.70035297e-01 -1.09349489e-01
  -1.75650105e-01  5.67122586e-02 -1.26611739e-01  1.17573282e-02
   5.87163195e-02 -1.84779502e-02 -4.34902683e-02  2.05856729e-02
  -2.82681026e-02 -3.27787429e-01 -7.43485382e-03  7.45190959e-03
   3.75709087e-02 -2.72984756e-03 -8.95591546e-03 -2.02413768e-01
   3.30952555e-02  2.65680123e-02 -4.22029011e-02 -4.39357698e-01
   1.24404363e-01  1.97709305e-03 -7.06270710e-02 -3.41861062e-02
   9.71170962e-02  2.20602825e-02  8.08320940e-03 -4.15444039e-02
  -3.08435500e-01  7.13808611e-02 -2.99119741e-01  2.82844812e-01
   3.62020731e-01  2.74179697e-01 -6.57993853e-02  2.92577147e-01
  -3.86023700e-01 -2.50229030e-03  1.03410326e-01  5.63398376e-02
   1.40344232e-01  1.71246871e-01 -2.91343123e-01  1.01350397e-01
  -1.79284588e-02 -6.29387796e-02  4.75586131e-02  2.81989574e-01
  -1.85098484e-01 -2.82948297e-02 -2.26661116e-01 -3.29495035e-02
   1.35908425e-01  1.63635775e-01 -5.69779098e-01 -1.86206281e-01
  -4.51811552e-02  2.97360420e-01 -7.84338787e-02  3.38388473e-01
   2.00766638e-01 -4.53880370e-01  4.77918088e-02 -3.27650189e-01
   5.50169908e-02 -5.29584348e-01  3.36618721e-02  3.63497809e-02
   8.27061385e-03 -5.18296026e-02 -3.01608503e-01 -3.38553488e-01
   2.82941982e-02  3.53074893e-02  7.09883776e-03 -2.20693484e-01
   4.51416299e-02 -5.55623658e-02 -5.38193621e-02  1.68078318e-01
  -6.83573261e-03 -4.18300778e-02 -2.61736125e-01  2.20323533e-01
   2.07069293e-01 -2.89780855e-01 -3.65440637e-01 -8.64751488e-02
  -3.40232067e-02  1.58415530e-02  1.53240822e-02  6.57211021e-02
  -1.92326605e-01 -3.00590191e-02 -2.44819019e-02 -6.14259467e-02
  -1.15134507e-01  2.18436137e-01 -2.67500997e-01  1.03438810e-01]
 [-2.95618415e-01 -3.50180618e-03 -3.11592728e-01 -2.25774363e-01
  -4.60173152e-02 -1.85545519e-01 -7.66397715e-02 -8.51915404e-02
  -1.10409446e-01  3.64057608e-02 -2.21350789e-02 -1.48115352e-01
  -4.16565478e-01  2.30929494e-01  1.09804176e-01  2.96563823e-02
  -4.11651969e-01 -5.78746432e-04 -2.62487799e-01 -5.07504344e-01
   4.68166769e-02 -3.60301107e-01  1.80240020e-01  5.51838093e-02
  -8.77804518e-01  9.45227966e-02 -2.36955836e-01 -1.71203837e-01
  -8.44284967e-02  6.46344066e-01 -4.10565257e-01  3.55557092e-02
  -4.18085828e-02  3.15046385e-02 -3.73505540e-02  2.05927581e-01
  -3.27869430e-02  4.51052226e-02 -2.95125842e-01 -1.24335714e-01
   1.55947525e-02  2.81612985e-02  2.23379675e-02 -7.21406937e-02
  -1.22145899e-01  4.80974242e-02 -5.52398026e-01  1.20371565e-01
  -1.35763302e-01  6.10698434e-03 -3.37593406e-02  5.28517924e-02
  -2.32141949e-02  3.89540523e-01 -1.55215915e-02 -6.26818016e-02
   1.50140941e-01 -2.72932857e-01 -2.96099544e-01 -5.33441789e-02
   1.20537698e-01  2.18467087e-01  2.74591036e-02 -1.95601750e-02
  -3.05291593e-01 -1.50163416e-02  7.26731718e-02  2.12122016e-02
   8.36605653e-02 -2.00592265e-01  1.05882458e-01  5.52968122e-02
  -4.09907289e-02  2.96277285e-01 -4.56117839e-02  1.71349198e-01
   1.22434653e-01 -1.40554691e-02  2.41495118e-01 -4.54157330e-02
  -7.00892955e-02 -5.38159944e-02 -3.57647166e-02 -3.24615277e-02
   3.59044038e-02  1.37948126e-01 -4.52990271e-02  2.31211558e-01
   1.82065845e-01  3.38414639e-01 -6.59695566e-02  1.55373607e-02
  -1.06350169e-01 -2.35941440e-01  6.78917021e-02 -3.94812366e-03
   8.81233439e-02 -1.60683170e-02  1.44052073e-01 -2.05431148e-01
  -8.51384029e-02 -5.17986529e-02  1.60195176e-02 -1.93529323e-01
   5.24091832e-02  6.42540231e-02  1.35025242e-03  1.77094620e-02
  -4.49813828e-02 -6.10989444e-02 -2.44656026e-01 -3.17267776e-01
  -5.58613420e-01 -2.69519359e-01  1.17823504e-01  1.08396925e-01
  -4.23657484e-02  2.64127403e-01  1.20854743e-01 -2.47482657e-01
  -7.97686204e-02 -2.58946419e-02 -4.94640954e-02 -1.54922083e-02
   7.75299519e-02  3.36877480e-02  6.82862252e-02  1.31703615e-01]
 [ 1.94123209e-01 -1.79752801e-02  4.82530981e-01 -4.55716578e-03
   2.49935701e-01 -1.06300905e-01  7.33457655e-02  1.90628469e-01
   3.25816184e-01  1.12666652e-01 -1.18365781e-02 -2.42296621e-01
  -1.24086887e-01 -3.71136218e-01  1.87806696e-01  3.93457897e-02
  -1.14452255e+00 -2.35919848e-01 -8.40130437e-04  5.54757416e-02
  -2.06761152e-01  9.60430205e-02  1.42148107e-01 -5.69346212e-02
  -6.74172342e-01 -3.19078445e-01 -1.06355697e-02  5.82185276e-02
  -2.05986872e-01  1.57499865e-01 -3.33164819e-03 -1.39791742e-01
   6.51912093e-01 -5.69935068e-02 -1.41753964e-02 -2.27766596e-02
   6.64170012e-02  8.31081048e-02 -1.18470109e+00 -3.38079602e-01
  -1.56217627e-02 -7.04807639e-02 -6.70370907e-02 -3.34234327e-01
  -9.21056122e-02 -3.60881118e-03 -7.26303101e-01  1.64307982e-01
  -4.33250159e-01  2.81318463e-02 -2.03619767e-02 -4.29491103e-02
   5.00553707e-03 -2.42043495e-01  2.05472764e-03 -1.63235813e-02
   7.05400705e-02  1.25588283e-01 -3.96210343e-01  2.61489213e-01
  -6.43222570e-01  3.33603859e-01  4.01137173e-02 -9.50639397e-02
  -8.33101049e-02 -5.35612740e-02 -1.47960082e-01 -3.33178490e-02
   1.08155631e-01 -3.06038857e-01 -1.63840756e-01 -4.06417958e-02
   2.23769061e-02  3.48676860e-01  4.16382402e-02 -1.93958193e-01
  -3.51779252e-01  8.48505355e-04  2.39189357e-01 -5.76283336e-02
  -3.18534710e-02 -3.65796655e-01  4.45486784e-01 -9.17337537e-02
  -2.62305909e-03  4.29031312e-01 -2.49384623e-02  3.70301306e-01
  -3.04707829e-02  3.21547419e-01  2.57718731e-02  2.27507591e-01
  -4.40184958e-02 -8.60300541e-01 -1.55059367e-01 -2.66437070e-03
   1.98274493e-01 -3.94945890e-02 -1.40801027e-01  3.22744995e-01
  -3.17015424e-02 -4.89808954e-02 -1.76681951e-02 -4.43652093e-01
  -2.80797705e-02  6.18662275e-02 -3.06611974e-03 -5.33849746e-02
  -5.61159104e-02 -6.34873286e-02 -2.43866399e-01  2.07229018e-01
  -2.19134808e-01 -1.59917682e-01 -7.41711855e-02  1.58006430e-01
  -1.02764562e-01  2.25493580e-01  4.00723428e-01 -5.49066246e-01
  -1.84255764e-01 -3.16548385e-02 -8.07184279e-02 -9.64165553e-02
  -9.66361016e-02  7.56561607e-02  3.48962188e-01 -2.72622615e-01]
 [ 1.00805037e-01 -3.61400284e-02  2.09861025e-02  4.43625338e-02
   8.71273205e-02 -6.71387697e-03 -1.93539277e-01  1.39675587e-02
  -3.44389700e-03 -3.03350121e-01 -6.10331830e-04 -4.05031800e-01
   2.03406787e-03  2.56093293e-02 -1.00396059e-01 -1.32152950e-02
  -4.07650396e-02 -1.05907492e-01 -2.02144951e-01  1.48640871e-01
   1.79162130e-01 -2.46796221e-01  7.23630264e-02  3.46350908e-01
   3.38020504e-01 -2.46847868e-01 -1.67909220e-01  8.71920362e-02
  -1.49605423e-01 -9.29567683e-03 -6.28895909e-02  3.12304050e-01
   2.56233841e-01  2.90975869e-02  6.74200570e-03 -2.04063460e-01
  -1.10626519e-01  4.33599353e-01 -6.58346787e-02 -7.44984925e-01
  -5.40648513e-02 -1.64496293e-03 -6.82882667e-02 -4.50123055e-03
  -5.58242537e-02 -6.26300052e-02  2.58936167e-01 -3.18554193e-01
   4.16837364e-01 -5.13019133e-03 -7.53718764e-02  2.86682192e-02
  -4.84147370e-02  4.27909136e-01 -3.30544189e-02  1.79027859e-02
   5.95326647e-02  1.45263180e-01  2.91211188e-01  2.43903607e-01
   9.39356536e-02 -1.38779551e-01 -3.87351774e-02  1.94281816e-01
  -4.41125274e-01  2.25003771e-02  1.19930364e-01  9.92936641e-03
  -9.97777097e-03 -5.93787357e-02  1.63437724e-01 -3.11255660e-02
  -4.14435305e-02  1.33166596e-01 -1.37568777e-02  2.24346906e-01
   2.19668597e-01  7.50561303e-04  1.53298199e-01 -1.84312873e-02
  -1.54354006e-01  4.11439896e-01  1.99310437e-01 -2.94544119e-02
   1.14317900e-02 -1.34409353e-01 -3.32800783e-02  1.72328696e-01
  -9.47085544e-02 -2.05005541e-01 -6.89578950e-02  2.24262197e-02
  -2.74246205e-02  3.34458262e-01 -3.49823609e-02 -3.03551350e-02
  -2.16072515e-01  3.43569592e-02  2.61110485e-01  1.16841413e-01
   2.49209553e-02 -3.28075048e-03  3.20391767e-02 -3.12101722e-01
  -3.01753748e-02 -4.33097407e-02 -5.19635007e-02  2.23499715e-01
   3.09157223e-02  1.96799003e-02  3.71518105e-01 -1.30871996e-01
   1.25796618e-02 -1.74037650e-01 -2.27746256e-02 -1.73602894e-01
  -7.37079456e-02  1.65268078e-01  5.19436970e-02  2.08610483e-02
  -2.54716933e-01  1.88036971e-02  1.99979514e-01 -6.16013482e-02
  -6.40936941e-02 -3.24552841e-02  1.03685088e-01  5.77146970e-02]
 [ 1.28813103e-01 -7.82666653e-02 -7.81166181e-02 -2.82582790e-01
  -5.53821065e-02 -5.85769080e-02  6.16860390e-02  8.12408701e-02
  -4.52115566e-01 -1.65776342e-01 -5.00373356e-02 -2.76613384e-01
  -3.75730768e-02 -2.44204715e-01 -2.08515264e-02 -2.41217297e-02
   1.30037934e-01 -3.31405967e-01 -1.31823793e-01 -2.66316086e-01
   4.15270552e-02 -5.78836277e-02  7.11465105e-02  3.65389213e-02
  -1.37224704e-01  1.83326721e-01 -3.07449549e-01 -1.91047356e-01
  -2.01057896e-01  1.42509088e-01 -1.47646204e-01  1.83641873e-02
   2.50530690e-01 -3.94642055e-02 -3.85598093e-02 -3.26050550e-01
  -9.86512005e-02 -1.33229911e-01 -1.93603694e-01  1.25799086e-02
   1.60873234e-02 -7.67612383e-02  1.26244100e-02  1.31582364e-01
   5.14872447e-02  2.60501076e-02 -9.30771306e-02 -1.17240377e-01
  -2.42088269e-02 -6.84060529e-02  2.41980162e-02 -1.73626952e-02
  -1.50450738e-03 -1.71575174e-01  7.39176944e-03 -3.45979631e-03
   3.59128676e-02 -2.70211607e-01  7.03694671e-02 -4.30008024e-02
  -2.65363902e-02  2.68565178e-01  1.25211561e-02  3.20514828e-01
  -1.87807173e-01 -4.82637174e-02  1.26449391e-02  4.18345593e-02
  -2.03284755e-01  2.56277770e-02  1.27828225e-01  2.89477268e-03
  -7.30155110e-02 -1.08440764e-01 -7.55324215e-02 -7.72641376e-02
  -5.30502386e-02 -3.92403789e-02  1.94116712e-01 -2.61106025e-02
  -2.28100102e-02  3.18087563e-02 -5.56158945e-02 -4.30954725e-01
   7.76206609e-04 -1.68231502e-01 -1.88847575e-02 -2.21618727e-01
  -9.40798149e-02 -1.26301080e-01 -9.53504518e-02 -2.46972680e-01
  -8.42418429e-03 -4.55499887e-01 -6.00447655e-02  4.99331877e-02
   3.53406221e-02 -6.93984032e-02 -3.82793583e-02 -1.18248947e-01
   2.62648147e-02 -7.80605478e-03  2.73673441e-02  2.44758576e-01
  -5.33483587e-02 -6.62305430e-02  2.73505673e-02 -1.77175403e-01
   4.11712890e-03 -5.38931526e-02 -2.72420794e-01 -3.59739214e-02
   1.03154793e-01  2.96242367e-02  5.85904121e-02  1.93252638e-02
  -2.29499340e-02  9.20097530e-02 -4.68257479e-02 -4.24171239e-02
  -3.23011816e-01 -1.74097903e-02 -3.10794055e-01  7.12187588e-02
   5.83865494e-02 -1.31656945e-01  1.31541699e-01 -5.00048287e-02]
 [-2.22435713e-01  3.68589275e-02  1.27481818e-01 -4.23969120e-01
  -1.46632433e-01 -1.42981969e-02 -3.41265112e-01 -2.67070740e-01
   5.09998575e-02 -3.85659903e-01 -6.02674522e-02  5.40316245e-03
   1.32323802e-01  3.70113134e-01  1.12911418e-01  4.68613580e-02
   3.74146134e-01 -1.58939019e-01  1.60328239e-01 -3.10877025e-01
   1.66653603e-01 -7.97358081e-02  3.13228577e-01 -1.33062392e-01
  -1.47133172e-01 -7.01461211e-02  5.01822710e-01  2.82093793e-01
   5.95304705e-02 -2.19844744e-01  2.83879787e-01  1.25336468e-01
  -1.79572448e-01  3.94314155e-02 -5.60879074e-02 -2.28481352e-01
   5.96001707e-02  8.59138072e-02 -5.78680754e-01 -7.33919919e-01
  -3.29357609e-02  2.77248118e-02  3.81601751e-02  3.72387990e-02
   4.64492589e-02 -1.16327358e-02  3.56748372e-01 -3.22528869e-01
  -3.10293227e-01 -3.05479895e-02 -4.25786972e-02 -3.34740407e-03
  -3.38897184e-02 -3.87485802e-01 -5.99617697e-02 -1.03376638e-02
   1.33688956e-01 -1.15287378e-01 -4.59136873e-01 -1.35435853e-02
  -3.21930975e-01 -4.39983517e-01  1.27597256e-02 -1.21068042e-02
  -8.80244013e-04 -3.15372311e-02 -1.42120808e-01  1.92640070e-02
  -2.09647696e-02 -1.09282002e-01  2.92129755e-01  1.68373098e-03
   3.17076184e-02  2.22693831e-02 -5.84213473e-02 -2.61345685e-01
  -2.21773356e-01  1.96842086e-02 -1.96330659e-02 -6.20112345e-02
  -1.55118704e-01 -7.77882710e-02 -2.41122562e-02 -3.15744579e-01
  -2.20127590e-02 -1.66925997e-01  3.65757085e-02 -1.66599154e-01
   1.59970507e-01 -1.57720402e-01  4.13663313e-02  2.90505975e-01
  -5.80518879e-02  5.82925156e-02  3.08422484e-02 -5.19093312e-02
   4.20905441e-01 -4.86221872e-02 -8.61933157e-02 -3.33285588e-03
  -2.69793812e-02  3.63888443e-02  4.41583572e-03 -2.01871395e-01
   4.47976105e-02  4.29657334e-03  2.71461364e-02 -5.82560003e-01
  -6.32097423e-02 -4.99552302e-02 -5.65393090e-01  5.24531826e-02
   3.31696421e-01 -2.07060874e-01  1.55905873e-01 -8.65703449e-03
  -1.84672698e-02 -2.39031345e-01  2.13301286e-01 -1.11452915e-01
  -2.55136520e-01 -2.35574283e-02  8.51814300e-02 -6.25805929e-02
   1.51799843e-02  2.48053521e-01 -1.01236440e-01 -9.13027092e-04]
 [-4.09977973e-01 -2.11486407e-02 -3.27256203e-01 -9.05301869e-02
  -4.90499616e-01 -2.77649108e-02  1.48964390e-01  7.19953060e-01
  -4.07073386e-02 -4.00950581e-01  1.66965686e-02 -4.83501926e-02
   5.91103077e-01 -4.07824993e-01  1.17489882e-01 -8.13473668e-03
   2.50665933e-01 -4.68472868e-01  1.83194131e-01 -2.18846947e-01
  -2.70370156e-01  2.54448876e-02 -2.34577790e-01  2.73882329e-01
  -5.50003946e-01  2.42659748e-01  3.03888917e-01 -2.46064380e-01
   4.21843827e-02  1.18716091e-01 -1.26717418e-01 -2.89845973e-01
  -2.13701695e-01  4.42976952e-02 -2.13358328e-02  3.01943302e-01
   6.92591146e-02 -1.27597541e-01 -3.33496660e-01  5.29430136e-02
  -3.08490749e-02  5.54030351e-02 -5.24015762e-02  1.76864602e-02
  -9.29244608e-02 -4.24692854e-02 -3.66466105e-01 -2.36807495e-01
   1.49466142e-01 -1.68228354e-02 -6.22576289e-02 -2.63572372e-02
   5.62049598e-02 -5.51643148e-02 -5.95616512e-02 -4.63902112e-03
  -2.62576014e-01 -3.66162211e-02 -4.26866353e-01  5.14318869e-02
  -4.62037362e-02  4.17172819e-01 -1.82088390e-02  5.03860474e-01
  -4.47493494e-01 -4.01423015e-02 -7.06460848e-02 -3.76821496e-02
   7.85378441e-02  3.06350365e-02 -7.69431472e-01 -3.27855237e-02
  -2.28123218e-02 -2.16125455e-02  2.58332049e-03  1.83593646e-01
  -8.89084116e-02  6.58514500e-02 -2.34858587e-01 -3.36794518e-02
   1.01567939e-01 -7.28746131e-02 -7.97382474e-01 -1.84944198e-02
   5.92874475e-02  3.71164739e-01  1.01944776e-02  2.20033973e-01
   8.32424387e-02 -5.70038021e-01  3.66613315e-03 -5.09707153e-01
   3.17463689e-02  2.21394196e-01  1.20663017e-01 -3.04665659e-02
  -8.01668987e-02 -4.23630513e-02 -2.48284340e-01  3.00876141e-01
   3.69196609e-02 -4.55198288e-02 -3.02524883e-02  1.04488194e-01
  -3.37097421e-02  2.76807174e-02  1.81508120e-02  6.01617098e-01
   1.99612416e-02  3.32902074e-02 -9.25371200e-02  1.18595064e-01
   2.22518593e-01 -5.63826084e-01 -2.70006567e-01 -9.20033678e-02
   2.03354545e-02 -4.67968166e-01  3.44508946e-01  1.24678097e-03
   3.19705601e-03 -3.52798402e-02 -7.38721862e-02  7.07907230e-02
   3.11489683e-02 -5.18275239e-02 -6.63214028e-01 -9.02720392e-02]
 [ 1.08532116e-01  4.07291166e-02  3.46677899e-01  1.67769834e-01
  -1.49634883e-01  1.36578217e-01  3.33409637e-01  2.46919528e-01
  -2.55713224e-01 -2.95825541e-01 -2.33091391e-03 -7.06035137e-01
   3.08915913e-01 -4.71842196e-03  1.10282049e-01 -3.58361937e-02
   1.71794847e-01  7.42885992e-02 -4.82200652e-01  2.44405679e-02
  -3.80582154e-01 -1.50546685e-01  3.93034741e-02  3.35371077e-01
  -4.71593499e-01 -2.69362152e-01 -9.82429609e-02  3.24780315e-01
   1.95875585e-01  1.39342949e-01 -1.42647892e-01 -8.70089903e-02
  -3.64117414e-01  2.32213791e-02 -2.12606154e-02 -1.84044335e-02
  -3.54608297e-02  6.33554831e-02 -9.11135554e-01  2.29479551e-01
  -6.15438186e-02 -3.42657715e-02  5.87111805e-03 -1.30680367e-01
  -1.30185246e-01 -5.28217182e-02 -5.88761985e-01 -3.42483401e-01
   1.01202585e-01 -6.92933574e-02 -6.59460053e-02 -4.47062030e-02
  -5.39946258e-02  1.40143767e-01 -2.11472046e-02  3.49797532e-02
  -1.39844239e-01 -3.71811479e-01  1.87335908e-02  1.48154706e-01
   2.69910127e-01  1.89686030e-01 -6.15042448e-02  1.45240843e-01
  -1.82661533e-01 -3.99123020e-02  1.18324347e-02 -7.18707666e-02
   3.31364982e-02  1.85963824e-01 -4.84965406e-02  2.56712325e-02
   1.53289735e-03 -4.41804193e-02  3.34523208e-02 -2.65178969e-03
  -1.26377329e-01  2.51414254e-02  5.95682254e-03  2.93438509e-02
  -1.67628631e-01  3.41438279e-02  1.70615733e-01 -3.02063882e-01
   4.79027741e-02  2.98701525e-01  4.37523276e-02  1.29979942e-02
   3.87071222e-01  3.69050413e-01 -8.73815790e-02  9.42555163e-03
  -1.45956635e-01  2.17023030e-01  5.64252324e-02  3.14978398e-02
   4.39693257e-02 -2.20829695e-02  1.26218349e-01 -1.52379856e-01
   3.72049287e-02 -5.69100305e-02 -5.20884432e-02 -3.61056663e-02
   1.83319033e-03 -3.15278508e-02 -1.23236328e-01  2.44392440e-01
   2.55478304e-02  3.41802761e-02 -4.34695005e-01  1.48699760e-01
  -3.40883315e-01  1.18624493e-01  3.25137943e-01 -3.55606861e-02
  -4.22458947e-02 -1.18209980e-01 -2.55378217e-01 -5.49766660e-01
  -4.41527784e-01 -3.42858434e-02 -6.86564371e-02 -8.19564164e-02
   7.58688524e-02 -1.04286723e-01  1.39571607e-01 -1.84845656e-01]
 [ 3.11349072e-02  2.66940948e-02  3.87040824e-01  7.92047232e-02
  -4.37881984e-03 -6.45888001e-02  2.21535116e-01 -1.00317068e-01
  -3.97822075e-02  2.32020706e-01 -4.44708541e-02 -9.41922143e-02
   7.09983334e-02  6.58352152e-02 -6.18403554e-02 -5.48965670e-02
  -6.64589167e-01  1.96423888e-01  6.03770558e-03  2.59355992e-01
  -1.84910476e-01  1.34048983e-01  3.10412864e-03 -2.08795778e-02
  -5.65189838e-01 -1.48284584e-01 -1.65710315e-01  2.78831452e-01
  -9.40800682e-02  1.90666970e-02 -2.39703342e-01 -2.33616307e-02
   5.24665833e-01 -8.42214301e-02 -4.21755873e-02 -4.57031846e-01
   6.17387481e-02  4.10476029e-01 -1.05537283e+00 -4.78436828e-01
   2.71604471e-02  3.46828997e-02  5.10018840e-02 -1.29284799e-01
  -1.54574201e-01  1.19597716e-02 -4.31384802e-01  2.22284123e-02
  -2.87065818e-03 -6.69965222e-02  3.03810704e-02 -2.38738041e-02
   1.58561599e-02  5.64343892e-02  5.17165242e-03 -2.31389273e-02
  -5.55123538e-02 -8.55441764e-02  1.13716826e-01  3.01637441e-01
   1.29680276e-01 -2.36758292e-02  2.15905253e-02  2.83648193e-01
   9.28674340e-02  1.51404403e-02  1.43683478e-01  5.50121441e-03
   1.95900038e-01 -5.59468903e-02 -3.98711890e-01  4.63027060e-02
   4.67795879e-02  4.03299183e-01  3.47529054e-02 -1.03907697e-02
  -4.80811000e-02 -9.69053153e-03 -4.18453366e-02 -1.90124083e-02
   1.41783804e-02  1.46446556e-01  1.50324911e-01 -1.04284823e-01
   3.39323431e-02  6.73977911e-01 -4.17666696e-02  4.56307888e-01
   3.72592919e-02  3.83603841e-01  7.96091482e-02  7.83168338e-03
  -1.78967323e-02 -7.25722492e-01 -1.69641942e-01 -5.92992790e-02
   1.38027623e-01  5.11411838e-02 -2.87054747e-01  1.92622960e-01
  -1.20885056e-02  1.33878849e-02 -6.42128065e-02 -5.94648480e-01
  -4.55070771e-02  5.42352870e-02 -1.43063711e-02 -1.85062438e-01
   1.29366908e-02 -2.48145987e-03 -2.27004111e-01  1.34722039e-01
  -1.44405112e-01 -3.08643252e-01  9.71192420e-02  2.00183049e-01
  -5.93360960e-02  2.16969788e-01  3.31477284e-01 -3.60884339e-01
  -4.66462880e-01 -2.04667542e-02  1.41711533e-01 -5.69128431e-02
  -1.64911091e-01  4.27078545e-01  2.09557667e-01  1.02404691e-01]
 [ 7.12593049e-02 -4.86897901e-02 -6.49652481e-02  2.95179069e-01
  -2.90131032e-01  7.64631927e-02  7.72888809e-02  1.35055616e-01
   1.06572382e-01  2.19212063e-02 -8.55106413e-02 -2.18778640e-01
   1.35001585e-01  1.09175101e-01 -1.27033085e-01 -2.33146194e-02
  -6.53476194e-02  1.24179600e-02  5.40913194e-02  1.16778128e-01
  -7.07314461e-02 -3.73504646e-02  2.11283602e-02  5.46606854e-02
   2.14396387e-01 -2.39267901e-01  1.75206304e-01 -2.44685292e-01
   7.44828060e-02  2.15963826e-01  2.29453117e-01  3.01649600e-01
   6.55271858e-02 -2.19086098e-04 -8.50476772e-02  6.29763445e-03
  -7.98274353e-02 -1.12502992e-01 -5.20788431e-01 -8.72882083e-03
  -5.56126190e-03 -2.53052991e-02  5.98021597e-02  3.42203826e-02
   1.75281670e-02 -9.39959064e-02  4.11052257e-02 -4.96221274e-01
   6.13523386e-02 -4.00307477e-02 -2.52424367e-02  5.16696945e-02
  -5.35169654e-02 -1.44935012e-01 -7.84599856e-02 -5.14598936e-02
   7.32273050e-03 -7.41387829e-02  1.18775509e-01  1.69789538e-01
   1.19306512e-01  2.97135741e-01  2.14839876e-02  1.40486479e-01
   3.26508433e-01  1.25117702e-02  6.83818944e-03 -6.02854826e-02
   1.73901573e-01  2.49847963e-01 -1.43895268e-01  3.17282416e-02
  -2.16359738e-02  5.75893000e-02  4.05016914e-02 -2.41976321e-01
   5.81099451e-01 -4.55439053e-02  1.16614878e-01  1.33317960e-02
   8.21878836e-02 -7.90662766e-02  3.27781253e-02 -5.20590782e-01
   1.53005254e-02  3.27835605e-02 -1.11369723e-02 -1.26607493e-01
  -8.08345601e-02  1.97043389e-01  3.41961347e-02 -2.08030771e-02
  -1.33305877e-01  3.75534207e-01 -6.36605546e-02 -6.68643117e-02
  -1.72032058e-01  1.82946548e-02  2.30385169e-01  7.95137137e-02
  -6.97637647e-02  2.58264411e-02  6.39604917e-03 -8.24252740e-02
  -2.05706656e-02 -2.02449244e-02 -7.82165229e-02 -9.33060870e-02
  -9.67098493e-03 -6.34602755e-02 -5.19711316e-01  1.64557353e-01
  -3.91186833e-01 -4.21038300e-01 -7.55920559e-02  2.37861663e-01
   2.20520198e-02 -4.38341796e-01  2.94114918e-01 -4.46375072e-01
  -8.85568783e-02 -4.00769636e-02  2.74502307e-01 -9.81839374e-02
   5.26552089e-02 -3.55356606e-03 -3.30046676e-02  2.56461591e-01]
 [ 7.67995268e-02 -3.51761915e-02 -3.53697896e-01  1.27401110e-03
  -3.47079456e-01 -2.64733940e-01  1.17020868e-01 -1.41744673e-01
  -6.82338402e-02  1.47025183e-01  7.78236380e-03 -2.94312030e-01
  -2.29128599e-02 -1.90044537e-01 -1.62751675e-01  4.72233854e-02
   2.45898031e-02 -1.99734345e-01 -9.15199071e-02  8.57574642e-02
   1.92558333e-01  1.59289852e-01 -9.23883170e-02 -7.55504668e-02
  -1.03178509e-01  1.96269080e-01 -1.79227367e-01 -2.32137144e-01
  -5.31496778e-02 -7.80809857e-03 -2.83746213e-01  1.19589143e-01
   2.15370908e-01 -3.11787520e-02 -9.55666229e-03  6.96790665e-02
  -3.22685130e-02 -1.00221567e-01 -3.13260667e-02 -1.42035544e-01
  -2.95530632e-03 -5.90536967e-02 -1.14233289e-02  7.23385364e-02
  -2.45449152e-02  5.48231676e-02 -2.44671807e-01 -3.09195608e-01
  -2.71539509e-01 -7.54839778e-02  1.81297667e-03  1.66241415e-02
   8.57067760e-03  5.53750955e-02 -4.29552458e-02  1.80520602e-02
  -1.62860379e-01 -1.02427311e-01 -5.37387468e-03 -1.27790943e-01
  -7.04301372e-02  1.74457058e-01 -7.87752643e-02 -6.58764243e-02
   5.02955653e-02 -6.99273795e-02 -1.28919140e-01 -3.14144902e-02
  -1.22962207e-01 -2.02882811e-01  3.37187089e-02  3.71158421e-02
   1.22919409e-02 -1.07685909e-01 -3.15160900e-02 -1.33469015e-01
   3.73149849e-02 -3.76610011e-02  2.96319544e-01  5.07369777e-03
   1.52395025e-01 -9.64050740e-02 -1.82123035e-01 -3.45050633e-01
  -3.11743971e-02 -1.62413642e-01 -1.70766227e-02 -2.39432275e-01
   1.04087986e-01 -1.54574186e-01 -7.46988356e-02 -2.71376371e-01
   4.40427363e-02 -2.19766647e-01  8.02734122e-02  4.99702524e-03
  -6.48750216e-02 -6.57728389e-02 -1.10549582e-02  6.22288994e-02
   2.24577426e-03 -2.42539868e-02 -5.56918792e-02  1.45149872e-01
  -5.87140806e-02  1.77829750e-02 -3.19418088e-02 -1.15055755e-01
  -5.94066828e-02 -3.77539285e-02 -6.46057069e-01 -1.59967080e-01
  -3.37577350e-02  1.22657325e-02 -4.11452260e-03 -5.34616187e-02
  -3.87160177e-03  1.06772907e-01 -1.41121179e-01  1.88732706e-02
  -1.87529057e-01 -5.87468152e-04 -4.48977649e-01  4.41964008e-02
  -2.31914073e-02 -2.25967318e-01  2.05778033e-02 -2.03331754e-01]
 [-1.57138601e-01  5.26347831e-02  3.63796540e-02 -1.69387430e-01
  -9.66552347e-02  2.79890448e-01 -3.65796775e-01 -2.27133766e-01
   5.59390374e-02 -4.89508770e-02 -5.67633845e-02  1.18246116e-01
   1.41454130e-01  2.26050720e-01 -4.72298302e-02 -2.13137846e-02
  -3.62855494e-02 -2.27457762e-01  2.07048163e-01 -2.38224924e-01
  -1.36709869e-01 -1.83356047e-01  5.13323665e-01 -1.37182713e-01
  -2.85397053e-01 -2.02722102e-01  1.69980749e-01  1.31788269e-01
   1.90797076e-01 -1.61538064e-01  2.32798066e-02  3.26702967e-02
   7.06652133e-03 -5.02943285e-02  5.27394935e-02 -2.92044073e-01
   7.41309896e-02  3.50660056e-01 -4.12788153e-01 -4.98415172e-01
   2.43757125e-02 -1.02135278e-02  1.87938288e-02  1.91993043e-01
   4.77134995e-02 -5.44394888e-02  1.97022840e-01  2.43568465e-01
   4.34209108e-02 -2.40740177e-04  3.40611525e-02 -2.76007503e-02
  -1.13839761e-03 -2.43742153e-01 -2.65818611e-02 -3.00946180e-02
  -1.73351780e-01 -3.39113809e-02  2.41440117e-01 -4.91508506e-02
  -7.78710656e-03  1.76709414e-01 -6.50643110e-02 -3.55313599e-01
   2.58335993e-02  1.42456964e-02 -1.26735047e-01  5.03955968e-02
   9.50642303e-02  5.21887802e-02  9.48710442e-02  4.86826822e-02
  -2.55462881e-02  2.73842365e-01  3.67200077e-02 -1.51614353e-01
  -1.22154646e-01  1.34830177e-02 -8.04939568e-02  1.16127403e-02
   2.88202576e-02 -3.92168522e-01  1.24567255e-01 -3.98648560e-01
   6.35559112e-02 -1.74310222e-01 -5.53563908e-02 -1.81893140e-01
  -5.47929965e-02 -1.89236090e-01  4.28756662e-02  5.71313873e-02
  -1.01087965e-01  3.61845523e-01 -5.15016973e-01  3.80161661e-03
   4.37211335e-01  3.65910791e-02  2.92887121e-01 -1.12286573e-02
  -4.65830676e-02  3.85421403e-02 -1.24188494e-02 -2.03257084e-01
  -4.90043238e-02 -2.50484869e-02  2.48865373e-02 -5.65217555e-01
   4.64519076e-02 -1.82700548e-02 -5.91647506e-01  2.37675756e-01
  -1.68868661e-01  8.00763373e-05  4.02255505e-01  4.25922275e-02
   3.97885852e-02 -2.57523626e-01 -8.64629000e-02 -4.03663754e-01
  -4.50637609e-01 -5.24767190e-02 -1.57798037e-01  1.47480406e-02
  -5.50820492e-02 -1.01675615e-01  2.89473891e-01 -3.49911340e-02]
 [-1.71402723e-01 -3.64208743e-02 -1.55639559e-01 -2.71731079e-01
  -3.81311029e-01 -2.34939635e-01 -1.01659767e-01  7.60742545e-01
  -3.87428291e-02 -3.27857882e-01 -4.87087108e-02 -2.95353591e-01
   7.46853054e-01 -2.92609841e-01  3.94705951e-01 -4.41914573e-02
   6.14139736e-02 -6.93155050e-01  2.96423376e-01  1.80953324e-01
  -1.91412330e-01 -9.04428065e-02 -3.94186762e-04 -9.11833867e-02
  -2.07763419e-01  1.90381765e-01  2.87024170e-01 -8.29562098e-02
  -2.15294249e-02 -2.13293787e-02 -6.99495971e-02 -1.67903557e-01
  -2.55822781e-02  4.93865944e-02  5.87090179e-02  1.85732782e-01
  -1.12370367e-03  5.13669625e-02 -2.15194270e-01  2.34492347e-02
  -4.34334576e-02  5.79023454e-03 -2.45452323e-03  2.88632289e-02
  -6.31102398e-02 -1.51981516e-02 -1.09964974e-01 -1.77735224e-01
   1.76341444e-01  8.48209038e-02  1.31187066e-02 -9.02420282e-03
   5.43596596e-03  1.70960739e-01 -5.96221313e-02  5.52475415e-02
  -1.98287651e-01  6.25913665e-02 -7.22075224e-01 -2.64384504e-02
   1.41076639e-01  4.72659945e-01 -1.20105529e-02  1.10797572e+00
  -2.99338073e-01 -2.87552271e-02 -2.41608024e-02 -5.17989434e-02
   4.69729900e-02  3.76646072e-01 -3.99220079e-01 -8.31853449e-02
  -5.92136271e-02 -1.18191876e-01  5.74026108e-02 -2.71560937e-01
  -5.82781494e-01  5.76888882e-02 -1.27795592e-01 -8.66906792e-02
  -2.87077606e-01  6.99516386e-02 -7.73629129e-01  8.71978700e-02
  -5.11729233e-02 -1.39464904e-02 -1.73984729e-02 -4.35239047e-01
   1.79718480e-01 -1.01953328e+00  2.44797040e-02 -2.96299726e-01
   1.26707470e-02  4.12437558e-01 -5.92011288e-02 -2.60387035e-03
  -1.86084539e-01 -1.46327838e-02 -3.18377137e-01  3.30472559e-01
   3.03869396e-02  4.08522300e-02 -4.47400324e-02  1.67735785e-01
  -3.36222425e-02  6.20134221e-03 -3.64657715e-02  3.23471099e-01
  -2.37991698e-02  3.15499455e-02  7.18453974e-02  1.45922467e-01
   4.44398075e-01 -6.05027974e-01  3.73308092e-01  2.51739249e-02
  -5.15382029e-02 -5.38315594e-01  2.87886679e-01  9.80986431e-02
  -2.75672704e-01 -2.53264830e-02 -8.20459202e-02  8.49315450e-02
  -4.51164991e-02 -3.63320531e-03 -5.23265481e-01  1.62666544e-01]
 [ 3.36398363e-01  2.28562187e-02 -8.57559219e-02  4.53394532e-01
   1.56216994e-01  8.98613688e-03 -1.90369174e-01  1.51406214e-01
   1.76003557e-02 -4.08533067e-01 -4.55927663e-02 -2.24083096e-01
   2.08021104e-01  2.09843069e-01  5.35285890e-01  3.86923389e-03
   1.57436002e-02  2.91178264e-02 -4.83897895e-01 -2.49032915e-01
   2.68425763e-01  1.24733821e-01  1.65203646e-01  5.80838956e-02
  -5.05499840e-01 -1.53351903e-01 -1.90109000e-01  3.47717732e-01
   2.58785874e-01  1.99537233e-01  1.74569562e-01 -5.33794701e-01
   1.00229807e-01 -3.07690334e-02 -5.11261029e-03  8.22382942e-02
  -1.91756971e-02 -9.92882345e-03 -5.77264249e-01 -1.47571743e-01
  -2.33439952e-02  8.07627942e-03 -5.86417094e-02 -1.24451742e-02
   6.25806972e-02 -2.67459918e-02 -3.83217543e-01  1.60509795e-01
  -1.26497209e-01 -1.68786931e-03 -1.34622324e-02 -1.84469335e-02
  -1.59345698e-02 -3.15634795e-02  1.77991372e-02  4.04176898e-02
  -2.01519191e-01 -1.45095080e-01  2.27330133e-01 -1.25219196e-01
   1.18017510e-01  1.09357126e-01 -7.20357820e-02  1.58063322e-01
   8.83257166e-02 -7.79173046e-04  2.58599613e-02  7.41825486e-03
  -2.43262663e-01 -4.76581044e-02  1.41837895e-01  4.27874103e-02
  -5.91683388e-02 -3.92050028e-01 -7.27664493e-03  1.59632936e-01
   5.14384061e-02  3.22258584e-02  1.13776207e-01  5.69027569e-03
  -8.66718143e-02 -1.13071548e-02 -2.11352203e-02 -1.20643251e-01
  -2.77264491e-02 -1.89734492e-02 -4.88916151e-02  1.54955119e-01
  -2.96664447e-01  1.91064328e-01 -3.10141444e-02 -1.37520134e-01
   3.84669309e-03 -7.02133238e-01 -3.29369634e-01  1.66413262e-02
  -6.07084930e-02 -5.18277399e-02 -4.62208003e-01  9.97607931e-02
  -4.75270003e-02  4.49451879e-02 -2.95111928e-02  1.56014925e-02
  -6.95588440e-02 -9.21032056e-02  1.06052393e-02 -2.75635004e-01
  -2.86803730e-02 -7.83447921e-03 -4.28174764e-01  2.36063123e-01
  -9.00635645e-02 -3.78749669e-02  1.31705627e-01 -2.66561836e-01
  -6.43843710e-02  1.83067426e-01 -2.85849303e-01 -2.47360766e-01
  -5.22553399e-02  9.79285873e-03  3.50548886e-02 -6.26775846e-02
  -4.83894069e-03 -4.05260056e-01  2.48975918e-01  1.61789089e-01]
 [ 2.07922459e-01  1.21310893e-02  2.52952844e-01  3.63523774e-02
  -3.52115482e-01 -1.96998805e-01  9.25052688e-02  1.19579732e-01
  -5.55630401e-02 -1.64922595e-01 -5.00527918e-02 -1.43072546e-01
   2.11142316e-01  1.81312963e-01 -6.22646883e-02 -1.06256912e-02
  -5.63435256e-01 -3.68831545e-01  8.42987224e-02 -4.95188423e-02
   2.88247138e-01  2.45060518e-01  1.50818512e-01  8.02925788e-03
  -6.88687488e-02 -5.45971572e-01 -7.26785362e-02 -2.78088659e-01
   8.73287544e-02 -9.42914486e-02  5.76331862e-04 -3.80200833e-01
   1.57255843e-01  6.94275193e-04 -3.82330045e-02 -3.99665684e-01
   1.37731619e-02 -8.88617486e-02 -8.18377733e-01 -2.21269965e-01
   2.62434576e-02 -3.13996896e-02  4.85081784e-02 -7.84528404e-02
  -6.29758462e-02 -4.67045791e-02 -1.83709443e-01  7.02507868e-02
  -2.36528721e-02  3.71905677e-02  2.95393299e-02 -4.00895327e-02
  -2.13903189e-02 -3.96773294e-02 -9.96443722e-03 -3.83800119e-02
  -1.46298409e-01 -1.12184741e-01 -3.49308550e-01 -4.44937833e-02
  -1.11767270e-01  3.87232363e-01 -2.83483621e-02  4.11724210e-01
  -4.05764103e-01  3.85971554e-02  3.42620105e-01 -9.50364117e-03
  -5.04475385e-02 -9.73963201e-01 -4.55285043e-01  2.90304478e-02
   5.00374138e-02  1.08130716e-01 -7.72689730e-02 -1.91412523e-01
   5.60120754e-02  8.14206339e-03  9.79552343e-02 -7.51085803e-02
  -1.11479804e-01  4.12298322e-01 -2.41843692e-04 -1.89589307e-01
  -2.27829795e-02  1.44704998e-01 -9.06714797e-02  1.26208276e-01
   2.32633531e-01  2.79543072e-01  7.88917243e-02 -3.04481924e-01
  -4.84794825e-02 -1.36188364e+00 -3.26678962e-01 -4.03152853e-02
   6.99496567e-01  5.80173265e-03  1.29598588e-01  4.48063433e-01
   2.16818526e-02 -5.95764183e-02  2.15922520e-02 -4.88775879e-01
  -8.67997557e-02 -1.02177873e-01 -7.07787573e-02  3.19300145e-02
   3.25839072e-02 -3.78605700e-03 -2.74107844e-01  5.11177704e-02
  -4.67562854e-01 -4.94946241e-01 -3.27588320e-01  1.30258113e-01
   1.69675797e-02  7.31920451e-02  4.00341392e-01 -2.57909209e-01
  -6.36498630e-01 -1.13069657e-02  1.83572024e-01  8.58974829e-03
   1.27941463e-02 -1.50419725e-02  2.21153367e-02  1.19491048e-01]
 [ 3.41033101e-01  6.24741334e-03  1.58571362e-01  2.62416035e-01
   1.64152265e-01  1.56562597e-01 -1.59388795e-01  5.76777160e-02
   3.89968865e-02 -1.24718718e-01 -5.76410629e-02 -2.61263639e-01
  -3.61051559e-01  3.89582187e-01 -7.36013278e-02 -3.67054716e-02
  -3.03057969e-01 -5.17242774e-02 -5.61520517e-01  2.94231921e-01
  -6.58453777e-02 -2.13455975e-01  3.79878879e-01  6.52794689e-02
  -1.62420809e-01 -2.19773352e-01 -4.05791476e-02  1.04067139e-01
   1.81667626e-01  1.87083289e-01 -3.44428383e-02  2.24866234e-02
   2.68373609e-01 -2.43701190e-02 -7.65253380e-02 -7.24551976e-02
  -2.33191364e-02 -1.32231116e-01 -2.47202471e-01 -6.40127286e-02
   2.85494179e-02 -6.26174137e-02  2.07110159e-02  3.11102152e-01
  -1.01803266e-01 -8.18129480e-02 -1.89492211e-01  3.41561288e-01
   1.19980887e-01 -2.34735338e-03  2.43048705e-02 -2.18125549e-03
  -6.19314723e-02 -1.19199641e-01  4.70835753e-02  6.09346782e-04
   4.10783529e-01 -4.93911691e-02  1.45909026e-01  1.90787628e-01
   3.90066430e-02  3.66671272e-02  1.64263658e-02  3.31084996e-01
   1.00735882e-02 -2.36283839e-02 -2.27967929e-02  3.52462530e-02
  -2.52585802e-02  7.64917657e-02 -2.16239706e-01 -2.57425960e-02
  -3.62108015e-02 -9.10421014e-02 -1.29127968e-02  1.22509338e-01
  -9.46373492e-02  2.38259733e-02  9.06027555e-02  6.59663277e-03
  -3.18937719e-01 -6.66523397e-01 -2.04841606e-02 -2.52921820e-01
   1.30807364e-03 -9.48490649e-02  1.84165742e-02  2.09720716e-01
  -1.24118567e-01  1.18980147e-02  2.18753144e-02  2.33530104e-02
  -9.13112238e-02 -2.92374879e-01 -2.66489089e-01 -3.09226457e-02
  -2.39438251e-01 -2.12920457e-02 -3.94755192e-02 -2.85886079e-02
   6.45870296e-03 -6.71547353e-02 -3.30473743e-02 -9.94178560e-03
  -8.40261206e-02  3.85640399e-03 -7.56231472e-02  7.23588979e-03
  -6.41935244e-02  1.10365897e-02 -1.24931922e-02 -1.07880369e-01
  -5.34885861e-02  7.12116659e-02  2.57090628e-01  8.36685076e-02
  -4.93292660e-02  2.15786144e-01  3.93326223e-01 -1.58822596e-01
   3.01605612e-02  3.26176025e-02  9.83643085e-02 -1.93202235e-02
  -1.28638119e-01 -1.83130145e-01 -1.08652329e-03 -1.36203513e-01]
 [-9.09199473e-03 -4.52634878e-02 -6.98487222e-01  1.54251069e-01
  -5.25446683e-02 -1.96572617e-01 -1.08243391e-01 -2.53605060e-02
  -3.80918473e-01  3.06351125e-01 -4.33189273e-02 -2.77626574e-01
  -1.75539941e-01 -1.80117741e-01 -1.40156254e-01 -1.00184143e-01
  -8.55735689e-02 -2.00484574e-01 -5.09586275e-01  3.05219084e-01
   2.36891359e-01 -5.90059087e-02 -1.10373616e-01  2.74084568e-01
  -1.45650759e-01  3.28221291e-01  3.82993557e-02 -1.36670634e-01
   1.79871470e-01 -1.83035165e-01  7.82734677e-02 -7.07534179e-02
   5.33883199e-02  1.26556149e-02  4.17472571e-02  1.47641644e-01
  -2.01525772e-03  1.53544068e-01 -1.46070689e-01 -4.10321914e-03
   7.78267160e-03 -3.63085680e-02  6.32172525e-02  7.61861950e-02
  -1.64619565e-01  4.02330272e-02 -4.08475786e-01 -5.48442721e-01
  -2.79789388e-01 -7.91984200e-02  1.09868348e-02  3.93469166e-03
   4.83844951e-02 -1.41994476e-01 -4.49866615e-02  1.12692593e-02
   1.17872402e-01 -2.76208401e-01 -1.29251137e-01 -9.77995545e-02
  -7.07088038e-02 -1.35612175e-01 -6.07630834e-02  1.51883721e-01
   6.52605742e-02 -3.79214883e-02  1.53075293e-01 -7.33383596e-02
  -9.10936669e-02 -9.52137560e-02 -2.73124218e-01  8.64056684e-03
   2.53861267e-02  1.43113986e-01 -5.72474077e-02 -4.22524810e-02
  -7.81157007e-03 -1.02050304e-01  9.29925293e-02 -2.19840035e-02
   2.04092383e-01 -2.04808518e-01 -2.94925779e-01 -1.15289919e-01
   8.08879919e-03 -1.60463467e-01 -3.10904998e-02 -8.53484645e-02
  -3.59980799e-02 -1.33481801e-01 -6.86344802e-02 -1.06576405e-01
   6.68924525e-02 -2.13189095e-01  1.58427134e-01 -3.15825380e-02
  -1.85221195e-01 -2.24867407e-02 -2.00707152e-01 -2.22902358e-01
  -3.07094716e-02  1.50923515e-02 -6.59746304e-02 -5.43868169e-02
  -1.49597479e-02 -1.05155567e-02 -4.60739732e-02 -9.45126489e-02
   9.90851037e-03 -6.69304505e-02 -6.11228168e-01 -1.67547658e-01
  -1.53205410e-01  3.42474878e-02 -5.56763485e-02  8.97094514e-03
  -7.71107599e-02  4.75528985e-02 -2.52746314e-01  1.15901222e-02
   1.23222984e-01 -7.11645558e-02 -3.40608239e-01 -5.85971260e-03
   5.62035106e-02 -5.56183122e-02  1.94621384e-01 -1.57767624e-01]
 [-1.24589920e-01  1.06891626e-02 -1.38367757e-01 -1.13619804e-01
  -4.96564597e-01  1.74813494e-01 -3.83884996e-01 -1.19915970e-01
   1.75472781e-01 -1.30090147e-01 -5.26926853e-02  1.84246004e-01
   1.31994680e-01 -2.53764559e-02 -2.18109250e-01 -6.57504704e-03
  -1.18040897e-01  2.06756666e-01  1.12397291e-01 -1.43347025e-01
  -1.51973605e-01 -1.01247974e-01  8.31278637e-02  2.01581448e-01
  -1.64087266e-01  2.79067513e-02  1.99235622e-02  3.90342236e-01
   9.76568833e-02  1.29140586e-01 -2.57842153e-01 -7.04456046e-02
   1.33363158e-01 -3.38739455e-02 -3.35896760e-03 -8.80043358e-02
   1.20353177e-01  1.20243914e-01 -1.06423236e-01 -5.42750537e-01
  -2.49548797e-02  1.88408513e-02 -6.37735352e-02  2.00458407e-01
   5.44601232e-02 -9.63454414e-03  4.99099106e-01  3.04292768e-01
   2.20855668e-01 -4.69408035e-02 -5.46714589e-02 -5.35877869e-02
  -2.43218411e-02  1.21709779e-01 -5.80817945e-02  3.50864828e-02
  -2.71650523e-01  8.98075700e-02  1.73070893e-01  1.27957419e-01
  -2.07452461e-01 -3.29857133e-02 -2.11033821e-02 -4.09194589e-01
   1.98520586e-01  8.26060772e-03  5.49757630e-02 -5.56931132e-03
   2.25969478e-02 -1.08633496e-01  1.48491800e-01 -6.79590255e-02
   2.27637850e-02 -1.31055400e-01  4.02065292e-02  3.66476178e-02
   2.20891446e-01 -6.68392405e-02 -1.31305024e-01 -2.80024260e-02
  -1.34016201e-01 -2.91546404e-01 -3.31918485e-02 -1.64321303e-01
   2.22372655e-02 -3.50393588e-03 -4.92427722e-02 -5.23340255e-02
   1.24466829e-02 -3.44664395e-01  4.37727198e-02 -1.88908786e-01
  -5.03555648e-02  2.43356898e-01 -3.76008153e-01 -1.15704387e-02
  -1.12996504e-01  4.12399732e-02  3.97969812e-01 -2.04272017e-01
  -3.36765684e-02  5.46256155e-02  2.77779326e-02  4.66557173e-03
   8.36252607e-03  4.46350910e-02 -2.47879047e-02 -1.99882105e-01
  -1.84222888e-02  2.64265034e-02 -4.23875690e-01  3.21560949e-02
   4.66331579e-02 -4.18686420e-02  2.45173201e-01 -6.89012408e-02
   9.06193722e-03 -2.50588357e-01 -2.80799091e-01 -3.16099316e-01
  -3.43973845e-01  3.89364697e-02 -1.63191408e-01  4.71197031e-02
  -3.54832560e-02 -2.63119400e-01  1.10894315e-01  2.21981570e-01]
 [-1.71690196e-01 -5.95930628e-02  1.69177234e-01 -4.05637890e-01
  -4.95172679e-01 -1.96459591e-02 -1.20601200e-01  3.98887277e-01
   1.17018461e-01 -1.61490828e-01  5.41866794e-02 -9.05211940e-02
   4.67291504e-01 -2.34601468e-01  2.61106759e-01  1.79466438e-02
   3.04754674e-01 -4.01572019e-01  2.77404070e-01  2.48001650e-01
  -1.27369732e-01  9.98459160e-02  4.52054471e-01 -2.69746155e-01
  -1.41595364e-01  3.35915864e-01 -2.32573703e-01 -1.50253102e-01
   4.10160236e-02 -3.95309739e-02  1.10102385e-01 -1.89065784e-01
  -3.32271680e-02 -1.77337751e-02 -3.31927463e-02  2.69121528e-01
  -3.75105999e-02  3.48946393e-01 -2.43806243e-01 -3.23869810e-02
  -1.54268472e-02 -9.08807386e-03 -5.73788583e-02  2.29902178e-01
  -1.23786874e-01  4.52112518e-02 -4.64279801e-02 -1.03827260e-01
  -1.73308849e-02  5.63670881e-03 -3.38640250e-02 -5.46009913e-02
   7.41340965e-02 -2.18461961e-01 -7.64995720e-03 -5.38086034e-02
  -1.81308880e-01  4.41953689e-01 -5.07617652e-01 -1.15170486e-01
   3.20423990e-01  2.71533817e-01  1.23881530e-02  8.74360442e-01
  -4.34780836e-01 -7.80535340e-02  2.35279351e-01  1.01151466e-02
   6.47264868e-02  2.23487720e-01 -4.18482721e-01 -4.07790858e-03
  -1.17893293e-02 -1.64502889e-01 -1.94734540e-02 -1.40423089e-01
  -2.58434355e-01  6.65041879e-02 -4.14252654e-02 -3.59395966e-02
   1.80372074e-01 -1.32537976e-01 -1.14402473e+00 -1.45194575e-01
  -7.29790255e-02 -1.42596692e-01  2.04005614e-02  8.84288475e-02
   5.41079760e-01 -1.28577518e+00  4.43390347e-02 -8.04716796e-02
   3.55661474e-02 -1.31305233e-01  5.98377921e-02 -5.70829958e-02
  -2.22623765e-01 -3.23331207e-02 -1.67039055e-02  1.68010458e-01
  -8.97375494e-03 -5.05960993e-02  2.00317316e-02  2.34260455e-01
   4.04067673e-02 -5.03628701e-02 -6.24772869e-02  3.01954657e-01
  -5.05011380e-02  1.50636304e-02 -8.31932202e-02  1.43185839e-01
   4.36005831e-01 -5.75872779e-01  9.20659378e-02  1.73282430e-01
   5.55714443e-02 -4.91745293e-01  4.42241460e-01  9.19584557e-02
   7.79066235e-02 -4.97325659e-02  4.19101119e-02  6.28120154e-02
  -1.14556871e-01 -2.25956142e-02 -4.38390076e-01  1.04593813e-01]
 [-9.40560326e-02 -1.04754989e-03 -1.80418462e-01  2.22432494e-01
  -2.31623501e-01 -7.28074536e-02  7.68818706e-02  1.12846293e-01
  -6.07204959e-02 -1.73389480e-01  5.22944629e-02 -2.03718692e-01
   1.96998850e-01  2.16468409e-01  2.33223438e-01  1.69757679e-02
  -3.93479854e-01 -1.54356852e-01 -2.03188226e-01 -2.27947697e-01
   2.63417244e-01 -1.98566347e-01  9.47261527e-02  1.78565040e-01
  -5.32689333e-01 -1.83692336e-01 -4.04650569e-01 -1.15842549e-02
  -5.28193712e-01 -5.59084713e-02  3.94164994e-02  9.31800529e-02
  -2.22016856e-01 -2.56797590e-04  2.34563574e-02 -2.06580818e-01
  -1.20986789e-01  9.71334279e-02  1.49021000e-01 -4.51000214e-01
   2.34389920e-02 -7.13411206e-03 -2.67929323e-02 -2.31289595e-01
   5.58474660e-02  1.52891725e-02 -2.77636319e-01  2.58771062e-01
   1.40801305e-02 -7.18326680e-03  5.21415360e-02  2.60626432e-02
  -4.77486290e-02  1.62859321e-01 -2.00271271e-02  4.82221320e-02
  -2.66529113e-01  1.23621769e-01  5.12315705e-02 -9.90421139e-03
  -1.85603559e-01  6.43808171e-02 -6.71397299e-02 -2.81636208e-01
  -3.49096268e-01  1.20127406e-02  2.47547612e-01  2.18063015e-02
  -8.16024095e-02  4.94787283e-02 -2.98726827e-01  4.77814712e-02
  -4.13940102e-02 -2.45782547e-02 -2.80455817e-02  1.71189066e-02
  -4.47383493e-01 -6.25688769e-03  1.04578391e-01  2.62785256e-02
  -7.62807131e-02  4.13732111e-01 -2.65803277e-01 -1.21223964e-01
   3.23654478e-03 -1.36514768e-01  1.00285243e-02  6.64917409e-01
  -6.84739091e-03  2.78028905e-01 -1.29617658e-02  2.63273027e-02
  -2.96789445e-02 -8.58521536e-02  4.09422964e-02 -6.18902035e-02
   2.84352005e-01 -2.06247065e-02 -1.48734897e-02 -4.24982384e-02
  -6.08019880e-04 -3.45360376e-02  4.63915709e-03 -8.34480599e-02
   2.45597847e-02  1.96887664e-02 -8.60052034e-02 -1.64002515e-02
   9.17543564e-03 -3.45681002e-03 -8.46216455e-02  1.77015617e-01
   1.89090446e-02  1.66245773e-01  1.50116952e-02 -2.45258793e-01
  -2.76610982e-02 -6.78525632e-03  1.26170114e-01 -2.30831265e-01
  -3.36693004e-02  4.00110818e-02  1.11171566e-01 -2.06681453e-02
   2.31458880e-02 -1.21466108e-01 -2.94919223e-01 -5.66523552e-01]
 [ 3.24195206e-01 -3.56475227e-02  1.76453263e-01 -2.69859135e-01
  -8.47539455e-02 -1.76940367e-01  2.94037722e-02  1.79005355e-01
  -1.16256669e-01 -4.09553140e-01 -5.90581670e-02  3.04012280e-02
  -1.88996077e-01 -2.15578556e-01  1.97932526e-01  3.35002020e-02
  -4.29103523e-01  2.82520466e-02  4.22788076e-02 -1.09297991e-01
  -1.49860159e-01  1.46391019e-01  2.93707233e-02 -1.35285789e-02
  -2.97160089e-01 -3.04427087e-01 -3.07500362e-01 -3.50764632e-01
  -1.58629671e-01 -2.41008162e-01 -2.25501042e-02 -2.28680879e-01
   1.18579548e-02  1.93527788e-02 -5.48339784e-02 -2.11256802e-01
   1.81106459e-02  2.19884485e-01 -1.33115649e+00 -2.96602935e-01
  -4.14483510e-02  2.32839044e-02 -4.98546213e-02  6.55769780e-02
  -1.07168823e-01  5.39584458e-02 -5.47740579e-01  3.28883052e-01
  -1.53652960e-02  3.22423736e-03 -5.29660359e-02 -9.03991535e-02
  -1.71244459e-03 -4.84276190e-02 -2.51770951e-02  6.05270118e-02
   6.05087802e-02 -2.28283748e-01 -5.03929973e-01 -1.00595698e-01
  -6.34112805e-02  4.81500208e-01  1.97753543e-03  1.98485151e-01
   5.33521660e-02  3.70454080e-02 -1.32859126e-01 -6.43461198e-02
   2.06944793e-01 -1.63774773e-01 -4.28325236e-01  3.66664827e-02
  -4.99797501e-02 -4.95816395e-02  3.28328721e-02 -2.98328809e-02
   1.20535605e-01  1.77439954e-03  1.73110306e-01 -2.70236973e-02
  -1.66787431e-01 -9.97422338e-02  8.86228518e-05 -2.31870756e-01
  -2.82445364e-02 -3.62982303e-02  3.27439383e-02  1.46987811e-01
  -4.64248247e-02  3.22980464e-01  5.35740294e-02 -3.52123976e-01
  -1.94769725e-02 -7.00099230e-01 -1.61369339e-01  1.21758664e-02
   3.77920866e-01 -2.69306637e-02  1.16125792e-01  1.39281675e-01
  -3.11378893e-02 -3.06332074e-02 -6.79309368e-02  4.14118990e-02
   2.42705420e-02 -9.59421918e-02 -4.38299626e-02 -2.36975685e-01
  -3.55877876e-02  4.09754999e-02  1.00734197e-01 -3.49670881e-05
   3.02149683e-01  4.63908277e-02 -1.29413735e-02 -2.60205418e-01
  -4.43763845e-03  2.42575467e-01  2.55392283e-01 -2.95889258e-01
  -5.17773390e-01 -1.37452446e-02  1.84099093e-01 -6.69959486e-02
  -5.47885373e-02 -4.53152239e-01 -7.09124729e-02 -2.23916024e-01]
 [-9.06888768e-02 -2.26680730e-02  2.09792405e-01  2.44133919e-03
  -1.10518269e-01 -1.19357713e-01  4.87744585e-02 -1.05211906e-01
   7.69231915e-02  1.64012685e-01 -2.13145465e-02 -2.48511404e-01
   1.46546528e-01 -9.06334072e-02  1.64316595e-02 -5.47864214e-02
  -5.29794753e-01  2.76239455e-01 -1.87647846e-02 -2.57575125e-01
   3.47449630e-01 -2.38267675e-01 -2.55731672e-01 -1.19726963e-01
  -9.84193236e-02 -4.98581827e-01  2.64937878e-02  1.54527605e-01
   1.21901624e-01 -5.17584562e-01  3.39214325e-01  1.72269139e-02
   1.53117225e-01 -5.15380763e-02 -7.99385756e-02  9.67852548e-02
  -1.30414590e-01  1.53159440e-01 -1.05062686e-01 -2.23220617e-01
  -1.92000773e-02 -2.33212672e-02 -7.95619190e-02 -2.41049025e-02
  -4.96562831e-02  1.67910326e-02 -1.51660010e-01 -6.23717643e-02
   2.42533937e-01  5.46672195e-03  2.61451583e-02 -9.56168100e-02
  -1.15474477e-01 -5.68458289e-02 -2.84219906e-02  3.53357084e-02
   2.26639122e-01  2.16638774e-01 -1.11994743e-01  1.09622307e-01
   9.25108492e-02 -2.99188554e-01  3.39542069e-02  1.86039001e-01
  -4.27408554e-02  2.34491192e-02 -1.02067314e-01  1.88743435e-02
  -5.11076525e-02 -1.46402895e-01  1.04978092e-01 -8.50876719e-02
  -4.22516502e-02  2.01615661e-01 -9.19860788e-03  2.40680650e-01
  -1.99113876e-01 -4.41614874e-02 -1.64731517e-01  1.94159523e-02
   2.45809749e-01  5.43661304e-02  8.83974284e-02 -4.99243021e-01
   5.85409924e-02 -1.33133993e-01 -1.80401951e-02  3.26201856e-01
  -2.51689345e-01 -2.53591120e-01  2.51408294e-02  1.11432515e-01
  -2.43820250e-02 -2.36079525e-02  1.73155978e-01  7.61599978e-03
  -8.83863866e-02  1.88061446e-02  4.81728837e-02  9.53936130e-02
   2.03712024e-02 -1.69179565e-03  2.90196687e-02  6.84754625e-02
   1.93012822e-02 -3.97233292e-02 -2.37848386e-02 -9.45020840e-02
  -2.20946874e-02 -2.08091754e-02 -2.57067829e-01 -1.53280228e-01
   2.74575740e-01  1.49498984e-01  2.38365129e-01  1.53965399e-01
  -4.97338437e-02 -1.10251956e-01  1.70540109e-01 -6.33000731e-02
   9.40237939e-02 -8.32895935e-02  5.61213158e-02  3.14292200e-02
  -6.77106455e-02 -5.92713773e-01  6.31523877e-02 -3.29650044e-01]
 [ 2.66678147e-02 -6.40522018e-02 -6.80227041e-01  1.96888819e-02
  -6.87080920e-02 -7.25491494e-02 -6.46807021e-03  7.88399056e-02
  -3.03221941e-01  2.91187942e-01 -3.12569253e-02 -1.73371673e-01
  -9.27268639e-02 -1.41551524e-01  2.29938012e-02  2.76015587e-02
  -4.33363616e-02 -1.78342193e-01 -5.44641078e-01  2.35876277e-01
  -3.38220671e-02 -9.58572179e-02  2.27519870e-03  7.00870454e-02
   7.73278549e-02  1.18756339e-01  8.63060281e-02 -1.34358421e-01
   1.00597121e-01  6.60478994e-02  1.77967817e-01 -6.52428195e-02
  -7.88141713e-02 -7.13289157e-02 -7.24551380e-02 -2.33886480e-01
  -9.24829990e-02 -6.55595660e-02 -6.32315502e-02  1.44550249e-01
  -7.85557181e-02 -3.87664908e-03 -1.69309564e-02 -1.08848415e-01
  -1.55658066e-01 -3.42320949e-02 -2.37972006e-01 -4.74258512e-01
  -1.64697051e-01 -7.36359134e-02 -1.19945742e-02 -5.64238355e-02
   3.14954296e-02 -3.22963647e-03  4.27255221e-03  1.57577861e-02
   1.89679101e-01  6.22020289e-02  1.02835596e-01 -2.62846172e-01
  -9.77237448e-02  1.42459935e-02  1.88553426e-02  1.46469921e-01
   2.25643516e-01  1.50974840e-02  1.67619616e-01 -4.20811996e-02
  -1.81761682e-01  3.32231750e-03 -1.55372500e-01 -4.22715582e-02
  -2.24298593e-02  7.14691356e-02 -6.15050085e-02  2.54446119e-02
   3.18076670e-01 -3.25316191e-02  3.05559665e-01 -1.02055995e-02
   1.37137011e-01 -1.96408555e-01 -1.20065168e-01 -1.23634212e-01
  -2.22203298e-03 -6.33558482e-02 -3.91771086e-02  8.55766609e-02
  -1.32530749e-01 -1.60688415e-01 -7.58795142e-02 -7.13334456e-02
   7.65497684e-02  7.54483864e-02  6.64018616e-02 -1.09662779e-03
  -1.29220232e-01  2.37300564e-02 -2.75776207e-01 -3.56757455e-02
  -4.66896147e-02 -1.62155386e-02 -7.16071129e-02 -2.19349399e-01
   8.94832052e-03 -3.00255213e-02 -4.27475348e-02  7.27378279e-02
  -9.99988616e-03  4.63779718e-02 -4.55513299e-01 -5.45392446e-02
  -1.20973699e-01 -4.21976037e-02 -5.85819222e-02 -1.89245999e-01
  -4.97233905e-02 -4.62473668e-02 -4.49821167e-02 -9.81586650e-02
   1.49495810e-01  1.88925248e-02 -2.21093312e-01  1.16015505e-02
  -2.74365265e-02 -2.20928013e-01  1.22872032e-01  4.71942797e-02]
 [ 3.71935487e-01  4.73469794e-02 -1.19309001e-01  1.08649999e-01
  -2.39281416e-01  2.39088712e-03 -1.67765781e-01 -2.81331725e-02
   1.71758175e-01 -1.69421420e-01 -2.06928309e-02 -1.30863458e-01
  -1.28262848e-01 -2.49734819e-01 -2.74448097e-03 -4.01579812e-02
   5.28593734e-02  1.09792523e-01 -1.85685735e-02 -3.74939665e-02
   2.57164836e-01  1.82160512e-01  6.36091977e-02  3.03631723e-01
   1.16802558e-01  2.23240003e-01 -9.77662280e-02  2.75263369e-01
  -5.29856980e-02 -3.11957419e-01 -1.31172791e-01 -1.92834213e-01
  -1.82268292e-01  4.33279425e-02 -5.39730266e-02  1.38034914e-02
   6.79538622e-02  4.06785131e-01  1.85548767e-01 -6.13421321e-01
  -4.50778119e-02 -2.11288631e-02 -6.34513199e-02 -7.43303746e-02
   7.65039306e-03 -4.91224043e-03  3.69946212e-01  1.58803850e-01
   2.46865287e-01  7.55342469e-02  3.54969222e-03  2.06515621e-02
  -1.91545840e-02  1.68368652e-01  9.51024611e-03  5.71254939e-02
   1.39420152e-01  3.26429456e-01 -4.73149344e-02  1.87252641e-01
   5.07828519e-02  1.41240239e-01  4.49059792e-02 -1.02914914e-01
  -1.56067848e-01  3.40814032e-02 -4.63445224e-02 -1.53776901e-02
   7.93433562e-02 -2.07127556e-01 -4.23600823e-01 -3.03843413e-02
  -3.10209617e-02 -1.61338851e-01  1.41020641e-02 -2.45783597e-01
   4.76307809e-01  7.99657591e-03  5.83225600e-02  4.20758165e-02
   2.95844991e-02 -1.34787604e-01 -3.35848749e-01 -3.16576958e-01
  -3.53331156e-02  2.43950472e-03  2.19193324e-02  1.50784841e-02
  -1.21845692e-01 -9.86772403e-02 -1.90138072e-02 -4.71001118e-02
  -3.50032896e-02  3.74455154e-01 -1.13192007e-01  1.18024787e-02
  -1.17319122e-01  4.26237360e-02  6.63692579e-02 -1.14939503e-01
   2.94878404e-03 -5.59381954e-03 -1.29624289e-02  3.18586528e-01
  -5.86094409e-02 -3.79085243e-02 -8.85945410e-02  1.69603512e-01
   4.92133610e-02  4.69244495e-02 -2.63204724e-01  6.52380213e-02
   1.72942981e-01  1.02441095e-01  3.03998202e-01 -5.38079143e-01
   3.98079604e-02 -1.08438917e-01 -1.38070241e-01 -1.23400897e-01
   6.19928390e-02  1.16239570e-03 -1.36831373e-01 -3.97991724e-02
   7.58784683e-03  9.14211944e-02  1.03676409e-01  2.10546851e-01]
 [-3.34714264e-01 -1.76617540e-02  4.02290449e-02 -7.14513958e-02
  -5.29599428e-01  1.17433749e-01 -1.06812883e-02  3.22116286e-01
   2.35952577e-03  1.61693115e-02  8.20091926e-03 -1.69449955e-01
   4.34989512e-01 -3.09869289e-01  4.35607165e-01 -4.23931442e-02
   9.72641781e-02 -8.13978314e-01  4.03693736e-01  1.33603394e-01
  -1.44880518e-01  1.93421796e-01 -1.55061349e-01 -3.52605402e-01
  -3.03383261e-01  3.89772922e-01  7.36039951e-02 -2.83131480e-01
   1.13513470e-01 -3.46835822e-01  2.93221056e-01 -3.31923604e-01
   3.28936964e-01 -3.04690450e-02 -2.43260693e-02  2.54433334e-01
  -2.02709865e-02  1.79740191e-01 -3.40131760e-01 -3.04398686e-01
  -5.95871620e-02  3.13016959e-02 -9.55129191e-02 -1.28054738e-01
  -4.69303094e-02 -1.65329054e-02 -4.44962114e-01 -1.93459496e-01
  -6.13898002e-02 -1.79467443e-02  5.06965742e-02  4.35408279e-02
  -6.33146912e-02 -2.18907118e-01 -3.11406516e-03  4.79813293e-02
  -1.13514639e-01  4.89468485e-01 -2.14258611e-01 -1.62465662e-01
   6.51786327e-02  1.20521575e-01  3.41693349e-02  1.36691213e-01
  -3.11497748e-01 -7.24194944e-02 -2.29948267e-01 -2.81094369e-02
   7.67228454e-02  8.86048190e-03 -5.84310234e-01 -1.65781900e-02
  -3.32607180e-02 -2.68295467e-01 -7.28763733e-03 -7.93530419e-03
   5.61397746e-02 -4.58884239e-03 -8.66348222e-02 -7.58871585e-02
  -1.17580928e-02  3.48337963e-02 -5.70861518e-01 -2.72506066e-02
  -2.18275748e-02  3.93932760e-02  4.78707552e-02 -3.33618015e-01
   3.32568347e-01 -6.97512150e-01  4.27211262e-02 -1.50694802e-01
   4.81782295e-03 -5.62916696e-02  1.77786246e-01  3.37304920e-02
  -3.84974927e-01 -4.83314395e-02 -7.52264401e-03  4.00279731e-01
  -1.47300065e-02 -2.89908610e-02  1.98404007e-02  1.13980711e-01
   2.99280491e-02  1.98920593e-02 -1.87531970e-02  9.78803411e-02
  -2.52486132e-02  4.27997708e-02 -2.36932054e-01  4.64665443e-02
   1.54628173e-01 -4.27862197e-01 -8.44249874e-02  6.28975034e-02
  -5.31631336e-02 -4.94362295e-01  5.01528084e-02  4.33224104e-02
   9.11078453e-02  3.11558377e-02 -7.41151348e-02  1.47661893e-02
  -6.28547743e-02 -7.88960457e-02 -1.04667926e+00  4.97739799e-02]
 [ 3.09710026e-01 -5.76126277e-02  1.93998322e-01 -7.44848698e-02
  -8.60296488e-02 -2.13947636e-03 -2.94125695e-02 -2.33602628e-01
  -5.94781078e-02 -4.57596809e-01  1.11317914e-02 -4.42489117e-01
  -4.43387125e-03  1.73926026e-01  2.76634693e-01 -2.42037093e-03
  -2.34760061e-01  2.64841229e-01  2.80345589e-01 -1.22064754e-01
   1.02146305e-01 -1.90658629e-01  2.20701501e-01  1.10972166e-01
   1.52157515e-01  3.53330314e-01 -6.17422044e-01  3.84661108e-02
  -1.74302131e-01 -7.43018836e-02 -2.91805062e-02 -1.50072083e-01
   2.34241057e-02  1.12685431e-02  7.78098404e-03  5.77833503e-03
  -4.23272923e-02  3.21639359e-01  8.98161381e-02 -2.93798953e-01
   5.26315570e-02 -8.85316432e-02 -5.33259027e-02  2.71470338e-01
  -1.62084475e-01  1.71636026e-02  1.59256741e-01 -1.62570253e-01
  -1.79518849e-01 -6.20236360e-02 -4.24550809e-02  1.61015801e-02
  -1.03630736e-01 -2.53499717e-01 -4.13114540e-02 -6.37243986e-02
   2.09256604e-01  4.82901447e-02  3.05288941e-01  1.84788838e-01
  -7.77038559e-02 -1.24252006e-01 -5.14783710e-02 -1.07847387e-02
   1.17944822e-01 -2.01275703e-02  2.08584964e-01  3.34682725e-02
  -1.17298067e-02  1.55482486e-01 -2.46392280e-01  5.44223934e-02
   2.42637470e-02  2.47765660e-01  1.10200411e-02  1.56745434e-01
  -7.58667663e-02  4.76655588e-02  1.51676670e-01 -6.99395984e-02
  -8.29120073e-03  1.86086670e-01 -9.81495976e-02 -3.32300335e-01
   4.91628870e-02  7.52435848e-02  6.47881106e-02  2.60586083e-01
   1.74990252e-01  1.00515202e-01  7.57426303e-03  2.74762847e-02
  -6.63863868e-02 -1.26387989e-02 -1.55965716e-01  2.89324801e-02
  -5.60871363e-02  8.05886369e-03 -8.66423994e-02  1.65039405e-01
  -6.08877130e-02 -4.45294194e-02 -6.39327839e-02 -3.59861143e-02
  -4.15323675e-02 -1.76259154e-03  1.58622917e-02 -1.69458419e-01
   6.34480733e-03 -2.11253036e-02  2.05874015e-02 -6.25045318e-03
   2.02401623e-01 -5.75273558e-02 -4.09990430e-01 -3.50540787e-01
   3.63109447e-02  1.35278590e-02  1.18620686e-01  1.93083003e-01
   3.74296717e-02 -9.27644670e-02  1.03227921e-01 -1.19195051e-01
   4.56180470e-03 -7.77287856e-02 -1.06238499e-01 -1.10458687e-01]
 [ 3.65043133e-01 -2.42470987e-02  8.37968141e-02  6.08889684e-02
  -5.05151637e-02 -6.89780489e-02  4.76051793e-02 -9.92276520e-02
   9.63514671e-03  2.40916964e-02 -3.09902113e-02 -1.23639211e-01
   2.46041998e-01 -1.82216778e-01  3.67579877e-01 -1.36693669e-02
  -8.57372805e-02 -1.80476651e-01 -8.48310068e-02 -1.23962446e-03
  -1.93581000e-01 -4.71410379e-02  3.69379789e-01 -2.51672357e-01
   1.98255017e-01 -5.45738041e-02 -8.47727358e-02 -6.85814768e-02
   9.05879140e-02 -3.74696329e-02  6.61670789e-02 -1.22912996e-01
   2.68657237e-01 -3.74090858e-02 -4.01878841e-02 -1.68082818e-01
  -1.03242427e-01  2.59320438e-01 -1.86210364e-01 -3.67106237e-02
  -5.32404631e-02 -8.57987851e-02 -5.00302911e-02 -1.06510194e-02
  -7.92390108e-02 -4.51712683e-02 -2.81320870e-01  2.89972275e-01
  -1.88122764e-01 -3.96485589e-02 -8.47839564e-02 -8.43111649e-02
   1.82896499e-02  6.32450804e-02  5.71558587e-02 -4.72182930e-02
   2.87147343e-01 -2.45826334e-01 -3.03334266e-01  2.11414397e-01
   1.57558203e-01  1.50280759e-01  1.33619532e-02  4.70743477e-01
  -1.58325911e-01 -2.51954235e-02  1.79207698e-02 -1.24927731e-02
  -7.41863810e-03  2.63523936e-01 -1.50752753e-01  5.87354414e-02
   8.61348864e-03  2.50817299e-01  3.23168822e-02  1.38712808e-01
  -2.51171380e-01 -5.35242520e-02 -1.46860868e-01 -6.90891519e-02
   2.76699156e-01  4.51944359e-02  2.57730067e-01 -1.66282758e-01
  -2.94104442e-02  3.42392594e-01 -8.07088166e-02  2.28728190e-01
   2.68070966e-01  1.47490785e-01  5.87473400e-02  4.75668758e-01
  -9.59122553e-02 -4.53912586e-01  7.77618438e-02 -1.66709200e-02
   2.28747666e-01 -4.62188311e-02 -4.88264151e-02  7.58368894e-02
  -1.84193030e-02  4.29050699e-02  1.70235336e-02 -1.88197121e-01
  -7.28001073e-02  6.11126190e-03 -5.18771783e-02 -9.87063721e-02
  -3.09736840e-03 -5.88296019e-02  3.63092810e-01 -2.64900774e-01
   2.30537727e-01 -6.57836571e-02 -1.72378197e-02  1.79268681e-02
  -4.29503024e-02  3.63876551e-01  1.71060950e-01 -2.33479813e-01
   2.45207310e-01 -1.57108381e-02  2.25123465e-01  5.56066409e-02
  -1.17509507e-01  2.25567579e-01 -1.31670222e-01 -4.83571105e-02]
 [ 2.29158387e-01  5.23521043e-02  6.20799810e-02  2.06614122e-01
  -1.15452923e-01  8.81018117e-02  2.52504051e-01 -2.52199441e-01
   1.13266572e-01  1.48999050e-01 -3.24913636e-02 -4.84019309e-01
  -1.37670869e-02 -3.24707896e-01  1.68902025e-01 -2.16712244e-02
  -1.99935138e-01  1.05078198e-01 -1.33944497e-01  1.73087165e-01
  -4.42136824e-02 -9.74875391e-02 -8.28944594e-02 -5.98000102e-02
   3.57946575e-01 -3.63095611e-01  1.07408559e-03 -6.59805238e-02
   2.60761715e-02  2.04939991e-02  2.43232086e-01  1.82868525e-01
  -1.65995851e-01  2.11557914e-02 -6.81988895e-02  6.24320023e-02
  -1.07152238e-01  6.94628581e-02 -1.46047205e-01 -2.86743939e-01
  -4.95658740e-02 -1.97459944e-02 -8.22005700e-03  2.85395741e-01
  -5.79566211e-02 -8.78606737e-03 -1.17765442e-01 -4.47124690e-01
   2.23848626e-01 -1.62153933e-02  1.38662588e-02  2.11252812e-02
  -4.96454313e-02 -1.26226351e-01 -2.44734753e-02 -4.65251505e-02
   1.17380410e-01  4.37037274e-02 -3.81162763e-02 -5.90424836e-01
  -4.42419261e-01  3.27022485e-02 -2.69692838e-02 -2.36658789e-02
  -2.87655406e-02  1.11860083e-02 -4.39796776e-01 -6.98465332e-02
  -2.16073036e-01 -1.18619479e-01 -4.82981354e-01 -1.99828874e-02
  -3.40874046e-02  2.88837105e-02 -4.70134988e-02  3.22828144e-01
   3.19379389e-01  2.49607470e-02  3.86505388e-02  1.49338720e-02
  -8.12007785e-02  2.54336715e-01  1.27523944e-01 -1.44907936e-01
   3.66060063e-03 -6.00265078e-02  4.13228646e-02 -3.24361861e-01
  -8.36436301e-02  8.95008519e-02  2.45277211e-02 -1.06562078e-01
   1.03833608e-01 -1.44148424e-01  1.86836854e-01  1.68584455e-02
  -2.97955930e-01  4.09052148e-02 -2.75162965e-01 -6.29303604e-02
  -3.43596889e-03  4.78283357e-04 -9.30735841e-03 -4.93104421e-02
  -1.82571576e-03 -2.63333134e-02 -1.05119394e-02 -3.53315592e-01
  -3.76646295e-02 -5.11969216e-02  7.49648139e-02  8.09826627e-02
  -2.16033533e-01 -1.02634646e-01  2.65498519e-01 -2.86215186e-01
   3.56387123e-02  2.07838826e-02 -1.95246954e-02 -6.10891692e-02
   2.49431450e-02 -4.38793475e-04  2.18721643e-01 -7.57005662e-02
  -3.96728981e-03 -2.14947551e-01  9.84315649e-02 -2.45579615e-01]
 [-2.71931980e-02  2.26497403e-04 -7.55641282e-01 -1.76136941e-01
  -4.86702994e-02 -1.21423423e-01  2.58681998e-02 -7.45863318e-02
  -1.84177473e-01  2.21333027e-01  3.61346491e-02 -2.52167910e-01
   1.80214614e-01 -7.70134926e-02 -1.76788822e-01  5.97983636e-02
  -2.21433014e-01  3.88406329e-02 -4.80946451e-02  9.43994075e-02
  -2.35945329e-01  9.21886042e-02  2.70113260e-01  1.56279132e-01
   1.21174507e-01 -1.27428621e-01 -1.00790992e-01 -1.32242247e-01
   1.44208465e-02  3.43704760e-01  2.73998708e-01 -3.89897861e-02
  -2.03381106e-01 -6.53487146e-02 -8.71650875e-02 -3.11708421e-01
   1.72067452e-02  1.99911892e-02  1.59273427e-02  3.32479849e-02
  -8.91922340e-02 -5.20575419e-02  2.00867727e-02 -3.04350048e-01
  -7.76500702e-02 -8.81535839e-03 -1.03494182e-01 -2.17609227e-01
   7.24729383e-04 -8.38280767e-02  3.29825096e-02  1.74205878e-03
  -5.52834049e-02 -1.94068655e-01 -1.24756042e-02 -4.67285607e-03
  -2.36557707e-01  7.44700581e-02  8.38247463e-02 -1.41212702e-01
   3.94929055e-04 -1.35859936e-01  2.44959220e-02  3.00126731e-01
  -5.09449728e-02 -9.43866894e-02  1.30851954e-01  3.13217528e-02
  -1.65340051e-01 -8.38693902e-02 -1.27234489e-01 -6.81927055e-02
  -1.89218931e-02 -1.38692439e-01  2.44378969e-02  5.73664121e-02
   8.91645253e-02 -1.65894243e-03 -6.87669218e-02 -6.17973655e-02
   8.97095799e-02 -3.08335628e-02  8.02372918e-02 -1.24781445e-01
  -5.53998426e-02 -5.67387789e-02  2.03528833e-02  1.09404713e-01
  -1.64677083e-01 -3.22890803e-02 -7.15639144e-02  2.95324307e-02
   9.42707732e-02 -7.70334527e-02 -1.28240690e-01  8.45766277e-04
  -9.40772966e-02 -7.61150941e-02 -2.57646769e-01 -1.15579858e-01
  -1.98144857e-02 -1.35143837e-02 -8.68904591e-03 -5.83188795e-02
  -4.23169769e-02 -3.29137705e-02 -3.40147093e-02  9.74403247e-02
   3.67752053e-02 -3.07767245e-04 -8.93694237e-02  1.50030226e-01
  -1.35338038e-01 -6.31318092e-02  5.55117726e-02 -8.81532505e-02
  -5.47620319e-02  2.04704449e-01 -7.07348734e-02 -2.31801167e-01
   1.73144817e-01 -9.80743915e-02 -3.76559585e-01  3.99113260e-02
   5.15695708e-03 -2.17123568e-01  2.04076231e-01  1.17234915e-01]
 [ 2.38713831e-01  5.31474501e-03  1.40499659e-02 -1.42317951e-01
  -1.03724655e-02 -1.47315189e-01  8.34858045e-02  4.65656109e-02
   1.85607806e-01 -1.68637618e-01 -4.96553928e-02  1.08240850e-01
  -4.32288498e-02 -2.78109103e-01 -3.14271867e-01 -7.19870254e-02
   1.27054736e-01  4.35562491e-01 -4.62174043e-02  1.04014121e-03
   5.16013503e-01  2.21141279e-01 -4.52242821e-01  3.90951216e-01
   4.51372057e-01  3.01653296e-01 -1.21254332e-01  4.24593091e-01
   5.12794890e-02 -2.97147840e-01 -8.12022239e-02 -4.71647829e-02
  -4.36344594e-01  5.80150587e-03 -5.83378896e-02  4.98695672e-02
   2.76976768e-02  4.63174105e-01 -4.37197328e-01 -7.44909286e-01
  -2.77643111e-02 -1.37686757e-02  1.74895748e-02  1.90880626e-01
   9.68567841e-03 -4.89461534e-02  2.29756474e-01  7.69172460e-02
   1.42973706e-01 -4.88612987e-02  7.77042378e-03 -3.80401080e-03
   4.16249745e-02  1.06518485e-01 -5.00124209e-02 -5.43358363e-02
  -9.51083824e-02  1.24640189e-01 -5.38068675e-02 -2.10884452e-01
   2.68513232e-01 -1.72042802e-01 -1.32067427e-02 -1.58747301e-01
   2.78634340e-01  3.11324615e-02  4.64295708e-02 -1.01537481e-02
  -8.00915658e-02 -2.88334638e-01 -4.12312031e-01  4.07327749e-02
  -7.43444078e-03 -9.57037583e-02  3.07419822e-02  1.00053154e-01
  -1.31879181e-01  3.05319298e-02  2.09484115e-01 -4.14118804e-02
   6.31946251e-02 -1.06946878e-01 -2.69261301e-01 -9.53085870e-02
   3.08409967e-02 -1.14537470e-01 -2.17319801e-02 -1.68601424e-01
  -3.03633481e-01 -1.77974060e-01  1.41053060e-02 -1.75066769e-01
   1.28776506e-02  7.97047094e-02  3.52316238e-02 -1.28043490e-02
  -1.00246929e-01  1.88421551e-02  4.15817089e-02  1.98497146e-01
  -5.53222420e-03 -5.01194447e-02  1.98570150e-03  1.83279663e-01
  -2.38115732e-02  1.90768894e-02 -3.32022761e-03 -1.11684069e-01
  -1.08926669e-02 -3.34165655e-02 -2.13718429e-01 -9.82898176e-02
   2.99944337e-02  1.65745735e-01  1.50169656e-01 -3.82677794e-01
   6.54096231e-02  3.85667443e-01  2.68501610e-01  3.39754745e-02
  -3.22544307e-01 -5.67796230e-02  1.88732311e-01 -5.95150888e-03
  -1.63308531e-02  2.67095398e-02  1.38147280e-01  3.39907818e-02]
 [-3.92455071e-01 -4.98932265e-02  3.37344468e-01 -4.19565849e-03
  -5.16891420e-01 -1.79801747e-01 -4.49785888e-01  2.39378631e-01
  -3.16795915e-01 -1.54778242e-01  2.54940651e-02 -4.10954654e-01
   7.24891424e-01 -5.08498132e-01  7.26708114e-01 -1.05533414e-01
  -6.94974288e-02 -2.94057935e-01  2.07834587e-01 -9.88410115e-02
  -4.64036502e-02  1.57397524e-01 -2.26084590e-01  2.52323747e-01
  -2.87044615e-01  3.48530151e-02  1.38285697e-01 -2.15492949e-01
   2.22564951e-01 -1.85317338e-01 -4.27566797e-01 -7.36569345e-01
   1.83330923e-01 -2.92612258e-02  4.39542830e-02  8.95449668e-02
  -4.79567051e-02 -3.00954759e-01 -4.21413362e-01 -5.79728521e-02
  -3.07766553e-02  3.25704888e-02  1.51549401e-02  8.68405029e-02
  -1.30117163e-01 -4.67342213e-02 -4.29368168e-01 -6.22629762e-01
  -6.71751723e-02  4.18947600e-02 -4.32691500e-02 -2.79643554e-02
   4.63214368e-02  2.62911439e-01  4.72800843e-02 -2.53940336e-02
  -2.52954304e-01  4.17278171e-01  8.30673277e-02 -1.01732515e-01
   2.58540809e-01  1.77875236e-01  1.53901835e-03  8.17535639e-01
  -3.06935817e-01  5.45907440e-03 -2.23209709e-01  2.84468383e-02
  -2.94212997e-02 -1.49933040e-01 -7.77028739e-01 -1.17070274e-02
  -2.12312564e-02 -7.41326869e-01  2.72962116e-02  1.79420486e-01
   2.74582028e-01  1.43503267e-02 -2.50610828e-01 -4.18968946e-02
  -1.48642778e-01 -1.48071632e-01 -4.71679956e-01 -4.07317653e-02
  -1.81372762e-02  2.77964115e-01  5.85644767e-02 -1.31417856e-01
   2.44036034e-01 -8.39555204e-01  2.90550496e-02 -5.85275412e-01
   2.38483511e-02 -4.84203920e-02 -2.46653348e-01  2.15080343e-02
  -1.83998853e-01  3.93643565e-02 -1.22375123e-01  4.09789950e-01
   2.51368359e-02  2.76849084e-02 -1.41100562e-03 -2.68937230e-01
   3.33444551e-02 -5.14543653e-02 -3.72683518e-02  6.41912073e-02
  -4.75728251e-02  7.69843487e-03 -2.50271320e-01  3.91848862e-01
   2.30891615e-01 -1.68684006e-01 -9.58965719e-02 -1.82717398e-01
   3.20167542e-02 -4.72254068e-01  8.06865320e-02 -9.61293653e-02
   9.29764360e-02 -2.40201894e-02 -1.03030819e-04 -4.92767897e-03
  -2.32903194e-02 -1.58722535e-01 -5.31729221e-01  3.40236612e-02]
 [ 1.32269841e-02  4.78482284e-02  1.33552060e-01  3.85043532e-01
   3.76282353e-03 -1.71864815e-02 -1.23490989e-01 -2.64638923e-02
   7.38206431e-02 -5.87944649e-02 -6.12964563e-04 -4.34747040e-01
  -3.89891684e-01 -1.17173120e-01 -1.18323592e-02 -1.66255031e-02
  -6.44908696e-02  1.31098824e-02 -2.16237992e-01  1.33085167e-02
   1.61786214e-01 -5.13717644e-02  1.99690200e-02 -3.31660211e-02
   1.61220983e-01  1.89420924e-01  1.21426910e-01 -2.81798746e-02
  -7.52423657e-03  1.83044642e-01  2.87634451e-02 -1.03485271e-01
  -5.44023097e-01  1.34723959e-02  5.09641226e-03  3.43977928e-01
  -9.13874730e-02  1.32587537e-01  1.40689358e-01 -1.54303163e-01
   3.97769809e-02  1.39816096e-02  2.69266851e-02  3.68305922e-01
  -5.44010326e-02 -3.19861583e-02 -3.74162018e-01  1.32955804e-01
   4.66650426e-01  1.50784766e-02 -3.32263834e-03 -2.77389325e-02
  -5.63213937e-02 -3.06600966e-02 -6.12644181e-02  3.64276916e-02
  -1.36696562e-01  1.45277232e-01 -1.24621958e-01 -9.02521610e-02
   2.51977682e-01  1.10453710e-01  3.97020206e-02 -2.42617115e-01
   3.54011834e-01 -5.88254333e-02  3.44597809e-02  8.12140666e-03
  -9.03136563e-03 -6.16330504e-02 -9.70905274e-02  6.29183576e-02
  -6.68366328e-02 -1.18319832e-01 -6.81631863e-02  2.17037901e-01
  -3.36779028e-01 -6.09723991e-03 -1.01363599e-01 -3.96875329e-02
   7.25453049e-02 -1.26408236e-02 -1.50460556e-01 -3.08828652e-01
   2.71476172e-02  3.20259124e-01 -2.17287280e-02 -4.45882827e-01
   3.59238535e-01  2.02906102e-01 -3.08584273e-02 -4.72234504e-04
  -4.03821282e-02 -2.59869322e-02  6.83985800e-02 -2.43586823e-02
  -1.23891486e-02 -6.68191761e-02  3.94647092e-01  3.03255439e-01
   1.04513271e-02  3.61093320e-02  1.20251216e-02 -9.93698370e-03
  -5.92432432e-02 -3.30387801e-02  1.04352631e-01  2.29532883e-01
  -2.93888766e-02 -2.70020030e-02  1.57123864e-01  2.85192698e-01
  -3.20488155e-01  2.52713710e-01 -4.04487222e-01 -1.58364385e-01
  -2.17182208e-02  3.18386883e-01 -5.38086534e-01  1.37913838e-01
   8.41761902e-02 -5.81922047e-02  3.22848529e-01 -3.14627960e-02
   2.69741081e-02 -1.73050568e-01 -6.39729574e-02  1.08424798e-01]
 [ 4.13251817e-01  4.31241356e-02  1.16363019e-01  7.01315105e-02
  -2.66192798e-02 -1.95412070e-01 -7.98574612e-02 -3.13041508e-01
   7.84219578e-02 -4.29314762e-01 -4.13658619e-02 -2.94581026e-01
   2.19358012e-01 -3.64147156e-01  2.74502952e-02 -7.99012557e-02
   2.59758055e-01  6.60746470e-02  1.00665368e-01  3.97651911e-01
   1.22660547e-01  1.86117571e-02 -5.50741442e-02  9.36557800e-02
   1.02472335e-01  1.70419559e-01 -1.96992122e-02 -5.52099422e-02
   2.36081675e-01 -4.19699669e-01  2.56693419e-02  1.42658159e-01
  -7.80026168e-02 -5.94465025e-02 -2.94957310e-02  8.98426473e-02
  -3.53894308e-02  1.95633277e-01 -4.22757536e-01  2.65266299e-01
  -3.02546471e-02 -9.28452685e-02 -8.21939930e-02  3.96084905e-01
  -7.05568418e-02  7.41102025e-02  9.49466750e-02  1.77912250e-01
   1.73487559e-01 -3.78062427e-02  3.56546529e-02  1.28773609e-02
  -5.82585074e-02 -1.49012849e-01  7.22778670e-04  4.28670319e-03
   1.18464127e-01 -1.58364937e-01 -3.38371366e-01 -1.13755845e-01
  -3.60655129e-01  1.38728544e-01 -4.44882214e-02  1.16136566e-01
  -2.13160098e-01 -3.43811251e-02 -1.56753555e-01  2.86795571e-02
   1.22291014e-01 -1.56004921e-01 -9.10732150e-02  1.88818462e-02
  -4.79890080e-03  1.86222196e-01 -7.39199668e-02  2.61200011e-01
  -2.03005359e-01 -5.63524626e-02 -2.94613868e-01 -5.87029904e-02
  -2.13446349e-01  1.63079485e-01  6.66533709e-02  4.03632410e-02
  -3.44564207e-03  1.11075059e-01 -2.63406876e-02 -1.83530033e-01
   4.43945348e-01  2.40239963e-01  6.02622665e-02  4.09372002e-01
  -3.83461900e-02 -6.30797207e-01 -7.00226203e-02  5.04042320e-02
   3.69941264e-01 -2.48412229e-02 -1.93468466e-01  3.91821563e-01
   4.87159826e-02 -1.70933474e-02 -7.10674152e-02 -5.26899807e-02
  -6.11775145e-02  1.69042461e-02  4.53683846e-02  9.51611437e-03
  -4.52201776e-02 -2.18753004e-03  3.18626881e-01  7.42109045e-02
  -2.75792569e-01 -1.76963583e-01  1.92535669e-02 -1.88889310e-01
  -4.89563271e-02  1.93533182e-01 -5.89122158e-03 -2.86839485e-01
  -2.07268909e-01  3.12617458e-02  3.82430822e-01 -5.03733605e-02
  -4.02326435e-02  6.18312247e-02  6.98582903e-02 -1.53180342e-02]
 [ 3.44508827e-01 -4.94812205e-02  2.19453976e-01 -5.26983067e-02
   7.54680485e-02 -2.47626960e-01 -2.56889742e-02  1.35302439e-01
   1.64262682e-01  8.68660957e-02 -4.80521470e-02  1.56914577e-01
  -2.58335441e-01 -6.11023307e-02 -2.13659525e-01 -3.00896186e-02
  -3.07044417e-01  1.18143283e-01  1.48391016e-02  2.62858272e-01
   2.76157856e-01  1.00813657e-01  3.02143216e-01 -1.46445364e-01
  -3.91127825e-01  1.98031366e-02 -2.38084316e-01  2.95837790e-01
  -1.71317190e-01  2.14562669e-01  7.66013097e-03 -2.14868173e-01
   1.10539772e-01 -6.29461110e-02 -6.76685348e-02  1.62816390e-01
  -2.69104075e-02 -2.08217930e-02 -3.11831117e-01 -1.51945114e-01
  -4.50378060e-02 -4.80455570e-02 -6.37134770e-04 -2.35560477e-01
  -3.10502976e-01 -7.94304442e-03  8.86438116e-02 -3.99616100e-02
   1.81136429e-02 -7.11752921e-02 -2.75777443e-03  1.03450771e-02
  -6.00179285e-02 -3.35990116e-02 -2.81795859e-02 -6.18190430e-02
   7.02698827e-02 -6.38337210e-02  7.23756477e-02 -3.50627638e-02
  -1.70474574e-02  1.87332183e-01  6.69226237e-03 -9.83182341e-02
   3.50500681e-02 -4.39029373e-02 -1.90878838e-01 -3.47746201e-02
   1.73035432e-02 -2.33421415e-01 -7.40200579e-02  1.37932161e-02
   2.80384533e-03  1.99275509e-01  2.18316857e-02 -5.36522679e-02
   1.78402692e-01 -4.93351743e-03  1.66964561e-01  3.62625753e-04
  -3.77778225e-02  1.27289919e-02  9.52897742e-02 -4.79778886e-01
   1.66507869e-03  1.71485886e-01 -5.55144288e-02 -3.69374812e-01
  -8.27491283e-02  1.13581195e-01 -6.43397048e-02 -2.04596713e-01
   9.41668078e-03 -2.69374192e-01 -8.22043940e-02  2.62161400e-02
   5.48388995e-02 -8.28335620e-03  1.74074531e-01  2.27351233e-01
  -4.44999337e-02 -6.56165704e-02  1.83499064e-02 -1.97241586e-02
  -1.30878082e-02 -3.82638280e-03 -1.14292391e-02 -4.16844562e-02
  -3.81839052e-02 -2.28261650e-02 -2.20509723e-01  6.76623881e-02
  -1.02940924e-01 -9.72340256e-02  4.34893817e-02 -2.41170786e-02
  -5.85457981e-02  1.14111379e-01 -3.81005794e-01 -3.10748309e-01
  -3.34623605e-02 -7.54547268e-02  4.62538637e-02 -2.74330936e-02
  -7.97398686e-02 -6.62430227e-02 -5.36005236e-02 -2.73957789e-01]
 [-9.38585401e-02  1.67128034e-02 -3.38665307e-01 -6.69068545e-02
  -2.03374997e-01  1.28796026e-01 -3.19339074e-02  1.45156607e-01
  -1.40722290e-01  1.27300352e-01 -3.61067355e-02 -2.75641792e-02
  -1.20547831e-01 -2.96463400e-01 -9.51518342e-02  6.24518059e-02
  -1.81015730e-01 -3.70583460e-02  8.35674629e-02  1.50547465e-02
  -2.39951853e-02  1.43556908e-01  1.86992422e-01  1.05486013e-01
   1.12939253e-01  7.86724836e-02  2.48134658e-02 -1.48711115e-01
  -1.00558020e-01  2.30611563e-02 -8.72732699e-02 -5.30294143e-02
  -2.90591478e-01  1.85910985e-02 -4.92582321e-02 -2.81373188e-02
  -1.26933262e-01  7.21308077e-03  5.47224544e-02 -1.28598258e-01
  -6.03612186e-03 -6.95866719e-02 -5.35579510e-02 -1.27382040e-01
  -1.12262271e-01  1.84824392e-02 -6.29690215e-02 -1.03418998e-01
   1.34651251e-02  1.49321405e-03 -2.54023299e-02 -1.22170094e-02
   3.52539606e-02 -1.64787062e-02 -7.86814839e-03 -1.21296486e-02
   1.21431477e-01  7.87067562e-02  2.20274955e-01  1.70164376e-01
  -8.71906430e-02 -1.65431172e-01  7.85454642e-03  1.43560916e-01
  -7.73663744e-02  1.66146411e-03  1.28035679e-01 -1.41947540e-02
  -8.22047070e-02  1.29549211e-04 -3.71197820e-01  1.75035745e-03
  -5.83769567e-02  2.64640808e-01 -9.73453000e-02  2.39968881e-01
  -2.77988072e-02  3.23926425e-03  1.14731072e-02 -1.61321685e-02
   1.63969677e-02 -1.60017148e-01  2.68148147e-02 -3.72497171e-01
  -5.54225547e-03 -3.98751684e-02 -3.63840498e-02 -1.54186820e-03
  -4.34931815e-01  1.37468338e-01 -4.14125957e-02 -2.14323163e-01
   7.36849830e-02 -3.07065070e-01 -1.69488966e-01 -1.56060671e-02
  -2.51730740e-01  2.49173213e-02 -1.30348310e-01  8.22776407e-02
  -9.29353312e-02  3.60722728e-02 -1.55098280e-02  1.11635484e-01
   1.44869536e-02  2.92047746e-02  6.25390187e-02 -4.25446540e-01
  -5.81979156e-02 -7.42454305e-02  1.42474077e-03  1.70457214e-01
   1.84729267e-02 -4.74558473e-02 -2.36192077e-01 -2.28237137e-02
  -8.21185857e-02  1.72176838e-01  2.11053148e-01  7.27297962e-02
   3.13397616e-01 -3.99699360e-02 -5.29866040e-01  9.48703885e-02
  -1.42361075e-02 -5.26758507e-02  5.83115183e-02  6.51165396e-02]
 [ 2.86941435e-02 -1.51019655e-02  1.04565188e-01 -4.28230345e-01
  -2.41591781e-02 -6.28160909e-02 -3.54989469e-02 -1.87324844e-02
   3.37963402e-01  1.07246779e-01 -5.53137287e-02  3.03957313e-01
  -5.62584549e-02 -3.07065547e-01 -2.95912296e-01 -4.11382876e-02
  -2.99290627e-01  2.78610140e-01 -1.40184343e-01 -1.33274764e-01
   1.10324174e-01  2.54002810e-02 -4.97463852e-01  2.26137996e-01
   1.34003073e-01  1.23994313e-01  2.50021890e-02  1.11804605e-01
  -2.28267536e-03 -7.57822990e-02 -5.13703737e-04 -1.02835052e-01
  -2.29232401e-01 -2.28868946e-02 -2.36357730e-02 -8.09932873e-03
   8.13392624e-02  9.24640819e-02 -3.57497364e-01 -4.88598943e-01
   3.36748958e-02  6.93601440e-04  2.56323796e-02 -1.83278754e-01
  -9.57613364e-02  5.09761944e-02  9.16276798e-02 -2.70481497e-01
  -2.37267673e-01 -2.41261050e-02  4.35279049e-02  1.80917960e-02
  -4.07360867e-02 -3.12542468e-01 -2.45793127e-02  2.86183320e-02
   8.91568046e-03 -1.35058671e-01  2.18881726e-01 -2.49278799e-01
   4.23869751e-02 -3.14257234e-01  4.25322389e-04 -1.08718880e-01
   3.17638330e-02 -4.39791307e-02 -1.23181313e-01 -1.99792720e-02
  -4.65000570e-02 -1.81092098e-01  5.72617240e-02 -6.45383149e-02
   5.28962314e-02 -2.09543034e-02 -1.70317777e-02 -1.19740427e-01
   1.45293579e-01 -3.47556621e-02  2.43702188e-01  2.45933905e-02
   2.14447200e-01  7.86712244e-02 -2.53193706e-01 -3.67745548e-01
   8.42969585e-03 -1.38755128e-01 -5.18351421e-02 -2.50889033e-01
  -2.86242887e-02 -1.83187097e-01 -1.50019946e-02 -8.11297372e-02
   5.64154284e-03 -2.03032374e-01 -2.83257753e-01 -8.55325069e-03
   1.26566604e-01  4.65452485e-02 -1.90767050e-01 -6.36067416e-04
  -4.29639127e-03  3.47572789e-02  2.91116890e-02  8.51896852e-02
   3.81996930e-02 -4.83971983e-02  4.68133539e-02  3.44263315e-02
   2.61828955e-02  2.83504985e-02  2.23241016e-01 -3.19928020e-01
   4.83584255e-02 -7.87172392e-02 -1.59620523e-01 -3.37801725e-01
   3.66570726e-02 -1.58851519e-01  6.34199232e-02 -1.03667460e-01
   5.08874878e-02  2.59381272e-02 -9.74015817e-02  6.43956959e-02
  -4.39892635e-02 -5.00993393e-02  1.89602599e-01 -1.20112509e-01]
 [-5.92296481e-01 -3.74255329e-03  2.91163504e-01 -3.58850390e-01
  -7.48458028e-01  1.50929242e-01 -2.32768103e-01  4.01268393e-01
  -2.86679298e-01 -4.34630401e-02  1.13546737e-02 -3.44975799e-01
   1.02229130e+00 -5.85228145e-01  1.08035433e+00 -7.49110952e-02
  -3.29132713e-02 -6.83746278e-01  3.98675382e-01 -3.30981389e-02
   2.35531898e-03  7.15530217e-02  2.52825230e-01  4.73245904e-02
  -2.35454559e-01  2.77075246e-02  1.74583584e-01 -1.41823366e-01
   1.97077468e-01 -1.27799064e-02 -4.45047885e-01 -7.79034495e-01
  -3.43251348e-01 -2.27039866e-02 -1.96588151e-02  1.59300700e-01
  -2.42531095e-02 -7.99893141e-01 -3.74777466e-01 -1.48131009e-02
   5.34229539e-02 -1.89677421e-02 -2.92651299e-02  3.72538239e-01
  -1.47206914e-02 -1.51473181e-02 -2.96364367e-01 -7.26712942e-01
   9.36328322e-02  2.55276822e-02 -5.60242012e-02  2.75349058e-02
  -6.29258603e-02  1.29138425e-01  4.51539569e-02 -2.71724612e-02
  -4.53624845e-01  8.66267905e-02 -2.10984126e-01 -3.08657438e-01
   2.87532687e-01  4.15485531e-01  2.48269215e-02  9.51078892e-01
  -6.06325604e-02 -3.46743055e-02 -1.42787576e-01  2.56650075e-02
   1.32772550e-01 -3.52258533e-02 -7.80360281e-01 -9.70722467e-04
  -4.43930849e-02 -4.59061235e-01 -7.16348514e-02  2.66711749e-02
   1.64664298e-01  7.16318935e-02 -1.98121220e-02 -6.37296066e-02
  -6.48346007e-01  2.05529090e-02 -5.36204636e-01 -1.08124524e-01
   6.32020459e-03  2.13613629e-01 -7.74239004e-03 -4.96824533e-01
   1.80854827e-01 -5.41041315e-01 -8.40241164e-02 -9.42921579e-01
   4.82556224e-03  7.06052557e-02 -1.22255594e-01 -7.65675604e-02
  -2.20108882e-01  5.51233850e-02 -2.31379718e-01  6.46859556e-02
   5.05085289e-02 -6.08871914e-02 -5.40552586e-02 -9.35629085e-02
   4.79477942e-02 -3.40868942e-02 -2.21307892e-02  2.55472422e-01
  -5.49473092e-02 -1.86764691e-02 -3.31787199e-01  2.02052742e-01
   2.23481268e-01 -5.55467546e-01  2.42357329e-01 -2.32055381e-01
  -6.32513836e-02 -5.11339486e-01  1.55120969e-01 -2.59856526e-02
   5.60412817e-02 -1.77240372e-02  3.72568308e-03  1.11769047e-02
  -7.23420382e-02 -1.72856256e-01 -8.23978484e-01  2.85373002e-01]
 [ 3.88439268e-01 -1.11460825e-03  4.03572023e-01 -1.70215636e-01
   1.03090838e-01 -3.43878984e-01  2.80546367e-01  1.03411332e-01
   1.40051588e-01 -2.46705130e-01 -3.64131257e-02 -9.34892669e-02
   8.56707767e-02 -2.73438364e-01  1.82363167e-01  9.60832555e-03
  -6.31085038e-01 -9.23864767e-02 -4.67170596e-01 -8.35221112e-02
   5.53076804e-01  1.36944139e-02 -2.09336385e-01 -1.35067016e-01
   3.44795510e-02 -3.44461024e-01 -2.49491811e-01  4.12567519e-02
   1.07396908e-01  1.99097231e-01  4.68767613e-01 -2.99970899e-02
   3.36218327e-01  3.98231745e-02 -4.20503467e-02 -1.59747466e-01
  -2.48734821e-02  6.75088540e-02  3.95201176e-01 -1.24670431e-01
  -8.72239878e-04 -5.52855097e-02  3.06205489e-02 -3.48380566e-01
  -1.55479193e-01  5.22440225e-02 -3.15474033e-01  2.32427523e-01
  -9.20479000e-02 -2.39594784e-02  5.93563868e-03 -2.23453213e-02
   2.72337273e-02  4.87908088e-02  3.72272683e-03 -1.59463417e-02
  -1.44759476e-01  9.24894959e-02  1.13577440e-01  1.43906265e-01
  -2.00520426e-01  1.37271166e-01 -3.55367409e-03 -1.17031194e-01
   1.38378024e-01 -2.22158851e-03  2.06262708e-01 -2.21198183e-02
  -1.60229892e-01 -1.19207539e-01 -2.88190573e-01  1.69429462e-02
  -6.23516366e-02 -2.28602976e-01 -9.48644057e-03  1.13925030e-02
  -6.39133826e-02 -2.49721128e-02 -1.20426990e-01 -3.10054235e-02
  -3.54427487e-01 -6.52486831e-02  1.26194030e-01  1.00471698e-01
  -3.62622216e-02  3.21065843e-01 -1.03510566e-01  1.94229521e-02
  -1.72207445e-01  4.41444106e-02 -7.10882843e-02 -2.22533718e-02
  -6.89502805e-02  1.40735716e-01  5.25100157e-02 -3.94603163e-02
  -1.11846283e-01  1.82439052e-02  1.68800354e-01 -1.24329239e-01
   7.77543522e-03  4.16207202e-02  4.59853560e-02 -1.29174694e-01
   1.70789231e-02  5.68539575e-02 -6.40534759e-02  1.17941402e-01
   3.75107229e-02 -1.33455796e-02  2.45153159e-02  5.09869345e-02
  -4.28378791e-01 -7.08393827e-02 -1.59674078e-01 -4.93556023e-01
   2.68966574e-02  1.02544509e-01 -1.22124083e-01 -6.91077262e-02
  -2.04198614e-01 -4.29947041e-02 -1.21512217e-02 -6.63908646e-02
   4.29721624e-02  1.50930136e-01  2.27415055e-01  7.74864629e-02]
 [ 9.14061163e-03  4.44306657e-02  2.25609854e-01 -1.33940756e-01
  -2.61131465e-01 -4.07790691e-01  3.12007964e-01  3.49876471e-02
   7.31894448e-02 -1.91533446e-01 -9.59384963e-02 -1.56913385e-01
   4.31105822e-01 -2.46864676e-01 -4.23967056e-02  1.52534824e-02
  -4.52649713e-01  3.72061014e-01  1.04136996e-01  1.36843413e-01
  -4.98471677e-01 -1.12093143e-01  5.12698554e-02 -5.69804236e-02
  -1.92602172e-01 -1.19782165e-01  2.09421784e-01 -1.42584279e-01
  -3.56466416e-03 -1.23091310e-01 -1.84206180e-02 -1.55348796e-02
  -1.95025697e-01 -6.18711337e-02  3.14708650e-02 -6.09594807e-02
  -1.99461076e-02  2.35583857e-01 -1.09155262e+00  3.69175673e-02
  -6.41148314e-02 -3.63003053e-02 -3.96055914e-02  5.68834543e-01
   2.27488251e-03  5.06853759e-02 -1.87449366e-01  2.41372079e-01
