base_model/conv2d/kernel:0
(5, 5, 3, 6)
[[[[ 1.45010278e-01 -1.98458284e-01 -1.70014098e-01  1.03740431e-01
     3.17596257e-01  1.35695472e-01]
   [ 1.39822930e-01 -1.47931442e-01  1.39812291e-01  1.71152771e-01
    -1.71434641e-01 -1.32884473e-01]
   [-7.02172443e-02  3.34833302e-02  1.45749133e-02 -3.23049654e-03
     1.07470579e-01 -3.02840471e-01]]

  [[-6.06443398e-02 -1.74783200e-01 -3.34779292e-01 -2.37288907e-01
     2.34801415e-02 -2.07793295e-01]
   [-1.17148280e-01 -2.65283525e-01  1.34318888e-01  3.92525904e-02
    -1.58621266e-01 -1.24324784e-02]
   [-1.29580796e-01  8.47582445e-02  5.35780676e-02 -2.03476071e-01
    -1.24971848e-02 -4.30629887e-02]]

  [[ 1.22443482e-01 -7.24998713e-02  1.20876625e-01 -1.00805111e-01
    -7.46290758e-02 -1.24241941e-01]
   [-3.74684989e-01 -1.45268619e-01 -2.02753376e-02  5.10162637e-02
    -1.28557429e-01 -2.88845330e-01]
   [-1.22760035e-01 -9.32068676e-02 -2.20176671e-02 -2.44275387e-02
    -2.35968560e-01  8.97975713e-02]]

  [[ 1.44382775e-01  4.70168293e-01  1.71403348e-01  1.71900436e-01
     1.37961268e-01 -1.73707604e-01]
   [ 8.17185566e-02  2.06389278e-01 -3.42223614e-01  2.10307539e-01
    -8.74218047e-02  7.57504925e-02]
   [ 4.29804064e-02 -6.79395795e-02 -1.90271124e-01  7.54861161e-02
    -2.67987341e-01  3.62294585e-01]]

  [[-4.20831423e-03  4.77975577e-01  3.51571441e-01 -1.36640966e-01
     2.28170961e-01  1.13641009e-01]
   [-2.01690961e-02 -3.54898833e-02 -3.06889951e-01 -1.48008009e-02
     9.12142098e-02 -2.15505473e-02]
   [ 7.99316838e-02  9.28112213e-03 -2.88630705e-02  4.45063673e-02
    -3.30765307e-01  2.46919662e-01]]]


 [[[ 2.10798219e-01 -4.19801213e-02  2.12686494e-01 -1.69438913e-01
     7.04065114e-02 -2.23486256e-02]
   [ 9.74883214e-02  1.97325692e-01  2.24806264e-01 -1.66828156e-01
    -2.07033560e-01 -1.21844992e-01]
   [ 2.81297117e-01  3.49351436e-01  1.45668447e-01 -9.75410938e-02
     1.56196922e-01 -3.95780891e-01]]

  [[-1.38933718e-01 -8.04179069e-03  3.28532219e-01 -2.71770269e-01
    -2.53591895e-01 -2.13702813e-01]
   [-2.68630564e-01 -5.78657761e-02  3.48668456e-01  9.04194042e-02
    -8.11996683e-02 -1.03024177e-01]
   [-8.23799819e-02  3.46362352e-01  3.02697085e-02 -6.41751140e-02
     1.96136355e-01  6.45870790e-02]]

  [[-1.76627621e-01 -1.71117812e-01  4.36889589e-01  3.48569572e-01
    -6.41800761e-02 -2.93292135e-01]
   [-4.69888687e-01  5.99147240e-03  2.11255178e-01  4.33799654e-01
     9.90694687e-02  6.13530204e-02]
   [-1.78545102e-01 -2.13678166e-01  2.34168410e-01  3.59825671e-01
     3.27683419e-01  3.89324695e-01]]

  [[ 3.59546065e-01 -1.53680772e-01  1.67335212e-01 -2.95072585e-01
    -2.81405985e-01 -1.36371017e-01]
   [ 4.02483284e-01 -3.59372973e-01  9.27543715e-02 -7.92452022e-02
     3.60347815e-02  1.25207558e-01]
   [ 2.15248883e-01 -3.13352913e-01  5.02519459e-02 -1.07798524e-01
     3.10104281e-01  4.74860430e-01]]

  [[-1.62927523e-01  2.07469836e-01  4.07081395e-01 -5.29789142e-02
    -1.75711475e-02  9.61868744e-03]
   [ 9.10707340e-02 -4.19116393e-03  7.24041387e-02 -2.52887011e-01
     2.37353086e-01  1.95389003e-01]
   [-4.18261662e-02 -2.31674388e-01 -1.92601562e-01 -7.06278905e-02
     1.57150269e-01  1.23353302e-01]]]


 [[[ 2.46178895e-01 -8.62896517e-02 -2.50562012e-01  1.27492756e-01
    -2.54352063e-01  5.83856255e-02]
   [ 2.09107697e-01  1.73609659e-01 -3.56163681e-01 -4.53402214e-02
    -1.76348776e-01 -8.37429091e-02]
   [ 2.90404677e-01  3.69433790e-01 -5.02030194e-01  1.47457615e-01
     3.10928196e-01 -2.60827243e-01]]

  [[-1.74120694e-01  1.26526475e-01 -1.15388878e-01  4.53662515e-01
    -2.77735770e-01  4.92193773e-02]
   [-2.51058936e-01  2.91157484e-01 -2.45148897e-01  3.56155276e-01
     2.15084851e-02 -4.72294763e-02]
   [-2.46919096e-01  4.44832236e-01 -2.40342751e-01  2.39635646e-01
     3.86247665e-01  2.64654875e-01]]

  [[-2.34186277e-01  1.59892365e-01  2.11574286e-02 -1.55820251e-01
    -2.10249469e-01 -1.26931682e-01]
   [-4.80290473e-01 -3.92655376e-03 -1.27450749e-01 -5.49843311e-02
    -1.28264964e-01 -4.04352397e-02]
   [-3.23244274e-01 -7.21246451e-02 -2.30408385e-01 -1.35933697e-01
     2.81418890e-01  4.49968308e-01]]

  [[ 4.26331073e-01 -1.27596417e-02 -1.38400480e-01 -1.47924721e-01
    -2.81267673e-01 -1.41911566e-01]
   [ 3.39122176e-01 -2.70788401e-01  3.34690847e-02 -3.05463970e-01
     1.86196715e-01  8.04591030e-02]
   [ 4.30702358e-01 -1.87284306e-01  1.03788078e-01 -3.94747496e-01
     4.45853114e-01  3.12024951e-01]]

  [[-2.52549857e-01 -1.13231599e-01  1.05997428e-01  4.19863686e-02
    -5.88541031e-02  8.84078965e-02]
   [ 1.75759390e-01 -1.40812621e-01 -2.09747955e-01  6.50670528e-02
    -1.65036451e-02 -1.17978506e-01]
   [-1.37180209e-01 -7.74457395e-01 -7.98621681e-03  1.14140827e-02
     7.55575001e-02  4.70455177e-02]]]


 [[[ 2.03452796e-01  1.39595285e-01  2.45888293e-01 -8.65675062e-02
    -2.05547065e-01  8.19437355e-02]
   [ 4.86532338e-02  2.27674201e-01 -1.62271142e-01 -1.63257957e-01
     8.76903832e-02  5.31078912e-02]
   [ 1.51331902e-01  2.86803126e-01 -4.29672450e-02  1.72884971e-01
     4.78401989e-01 -5.77221923e-02]]

  [[-2.21866682e-01  1.09286375e-01 -1.53828830e-01 -5.67082353e-02
    -1.61548391e-01 -1.19817760e-02]
   [-2.03183234e-01 -1.94527546e-03 -1.53721154e-01 -1.41696990e-01
     1.23677589e-01  4.11561504e-02]
   [ 7.45944970e-04  1.15231588e-01 -1.83338761e-01 -1.11222863e-01
     1.89726248e-01  2.97580183e-01]]

  [[-1.28924459e-01 -2.41291270e-01 -2.24892080e-01 -4.81671184e-01
    -3.64727646e-01  1.13922320e-02]
   [-3.92730355e-01 -2.90279509e-03 -1.45384371e-01 -4.73345250e-01
    -1.08332425e-01 -3.52018178e-02]
   [-1.49882898e-01 -6.26118854e-02 -4.21772264e-02 -4.34311271e-01
     2.76683867e-01  1.44963294e-01]]

  [[ 1.89104334e-01 -3.63643318e-02 -1.89966619e-01  8.27400759e-02
    -2.56150007e-01  2.51793917e-02]
   [ 3.75475943e-01  1.17985278e-01 -2.87873596e-01  9.05209482e-02
     1.27939403e-01 -6.50300384e-02]
   [ 1.81030601e-01  7.27661699e-02  4.53069545e-02  1.29060537e-01
     8.08501914e-02  1.46722674e-01]]

  [[ 2.07364839e-02 -8.00526366e-02  6.42796047e-03  2.49162629e-01
    -2.02951461e-01  2.68122554e-01]
   [ 7.82401338e-02 -4.84623276e-02 -6.59125745e-02  2.47950628e-01
     1.62369132e-01 -3.02538395e-01]
   [-1.67719409e-01 -4.31057781e-01  1.52722687e-01  7.61658996e-02
    -8.58037453e-03 -1.43057004e-01]]]


 [[[-7.48272017e-02  1.21233966e-02 -1.48625389e-01  1.11127302e-01
    -2.33808979e-01  1.24446616e-01]
   [ 1.00700423e-01 -1.50612608e-01  1.27529770e-01 -2.79182404e-01
    -5.02284281e-02  2.51756459e-01]
   [ 2.08388530e-02  1.85382992e-01  4.18459803e-01  1.95749272e-02
    -1.31307214e-01 -5.94725311e-02]]

  [[-5.99774122e-02 -7.09237754e-02 -1.97599217e-01  4.79818834e-03
    -3.58866572e-01  2.03956038e-01]
   [-1.27962515e-01 -2.10596398e-01  1.56400483e-02 -9.11236703e-02
     6.96060956e-02 -7.88063705e-02]
   [-4.38356884e-02  2.69927327e-02  3.26613039e-01 -2.10131588e-03
    -3.84545811e-02  2.43033227e-02]]

  [[-1.77832291e-01  5.08928765e-03  2.90018879e-03  3.06798577e-01
    -2.94236243e-01  2.87938565e-01]
   [-3.12434047e-01 -2.72020474e-02  7.61973113e-02  2.80964434e-01
     1.32834002e-01 -1.77761942e-01]
   [ 1.00685425e-01  2.65047960e-02  2.48050645e-01  1.77893057e-01
    -9.86968800e-02 -2.01712191e-01]]

  [[ 6.84280619e-02  1.54557765e-01 -1.85944572e-01  1.68706387e-01
    -1.99611306e-01  2.29769006e-01]
   [ 4.46962528e-02 -8.97218883e-02 -1.53770410e-02  1.25270069e-01
     2.82248948e-03 -1.11917175e-01]
   [ 3.41998301e-02  1.22612819e-01  1.42637685e-01  1.58887193e-01
    -8.98215994e-02 -3.91805679e-01]]

  [[ 2.68303640e-02 -3.54148187e-02 -1.66862577e-01 -9.57118645e-02
     1.32120088e-01  4.29455459e-01]
   [ 2.55325995e-02 -2.97342315e-02 -9.41308513e-02 -1.07150972e-01
     2.93273807e-01 -1.05138555e-01]
   [ 8.36886764e-02 -2.04537764e-01  1.20393150e-01 -1.06424987e-01
    -3.57389264e-02 -5.52732944e-01]]]]
base_model/conv2d/bias:0
(6,)
[-0.14897515  0.02535616  0.00137662  0.23730141  0.02152957  0.0579057 ]
base_model/batch_normalization/gamma:0
(6,)
[0.8059731  0.5982729  0.7436067  0.5622837  0.27271387 0.55502814]
base_model/batch_normalization/beta:0
(6,)
[-0.3994471  -0.2841878  -0.50116116 -0.32850906  0.02593917 -0.4184579 ]
base_model/dense/kernel:0
(1536, 128)
[[-1.62219943e-03 -3.20978835e-02 -6.30696164e-03  3.31427515e-01
   4.71589491e-02 -3.39917839e-01 -1.96652427e-01 -1.91700518e-01
  -4.20676321e-02 -3.91439460e-02 -3.44624162e-01 -6.10449314e-02
   5.05867824e-02  4.40353960e-01 -2.94977222e-02  2.40466539e-02
  -2.14255396e-02  2.47261394e-02  3.16994861e-02  3.24972272e-02
  -9.34236422e-02 -1.14190064e-01 -3.53254199e-01 -4.48021963e-02
   2.47041974e-02 -1.94103360e-01 -1.22869164e-02  5.50698005e-02
  -7.17672557e-02  8.45372081e-02  3.46908234e-02  2.54500121e-01
  -2.67041802e-01 -1.12550490e-01  1.32184759e-01 -8.74139667e-02
   2.57561952e-01 -2.46121049e-01  1.31019145e-01 -1.60169099e-02
   3.62637401e-01 -5.64814061e-02 -2.75608823e-02 -3.25390041e-01
   1.77858509e-02 -3.36030394e-01 -4.68580332e-03 -4.89491343e-01
  -7.65174553e-02  1.87977359e-01 -3.29687774e-01 -7.35561669e-01
   3.96628171e-01 -1.52731448e-01 -1.50359897e-02 -1.56299114e-01
   3.04018706e-01  2.69782706e-03  4.67037350e-01 -5.39909378e-02
  -1.38414040e-01  1.22020254e-02  1.90537468e-01  2.62548417e-01
  -8.73040855e-02 -1.41939446e-01  1.24173621e-02 -9.55344364e-02
   8.74267519e-03 -6.79058507e-02 -1.63635805e-01 -5.40227145e-02
  -3.92632633e-01 -3.14508975e-01  1.22710600e-01  4.87210369e-03
  -5.37320226e-02 -4.49928641e-02  2.44475588e-01 -5.88051789e-02
  -3.89694087e-02  5.69023788e-02 -2.14827023e-02 -1.85007192e-02
   5.45540094e-01 -5.09401485e-02 -4.81643453e-02  3.59190255e-02
  -5.51738255e-02 -6.70799166e-02 -1.06948704e-01  1.79638080e-02
   2.71065712e-01  1.39435127e-01 -2.35055432e-01  2.76668757e-01
  -1.66546509e-01  1.87997222e-01  9.90328565e-02  2.24205807e-01
   1.58920705e-01 -8.73049572e-02  1.93096414e-01 -2.22094934e-02
   2.31531281e-02  5.08648217e-01 -5.57564534e-02 -6.19196407e-02
  -3.25360633e-02 -7.21746460e-02 -1.76967867e-02  3.15418720e-01
  -9.97003555e-01 -2.68033773e-01 -3.89919616e-02  3.50292236e-01
  -2.47530509e-02  5.00735715e-02 -1.70360450e-02  1.70055509e-01
  -4.19228941e-01 -1.25411479e-02 -2.30699897e-01 -1.32671565e-01
  -5.28685153e-02 -3.97843689e-01  3.71181905e-01 -1.13422379e-01]
 [ 4.26200032e-02 -1.56467948e-02 -6.16086647e-02  1.00526623e-01
   1.00553120e-02  3.50999117e-01 -2.86243379e-01 -3.12948883e-01
   4.63699503e-03 -1.75604708e-02  6.09197728e-02 -1.71980988e-02
   5.69239184e-02 -3.00672233e-01 -1.07267813e-03  4.92965840e-02
  -2.18712110e-02 -4.55993898e-02 -5.81505932e-02 -2.89257795e-01
  -7.54370093e-02 -1.50736541e-01 -1.15314925e+00  1.11133102e-02
  -3.66410762e-02 -1.77034989e-01 -1.82993356e-02 -5.50246596e-01
  -4.30468768e-02 -4.49625142e-02  3.33461523e-01  1.79211557e-01
   3.71237934e-01  2.59160727e-01  6.53497735e-03  2.96005428e-01
  -1.67928785e-01 -6.89112127e-01 -4.24562901e-01  9.34864394e-03
  -5.98881423e-01 -5.37413396e-02 -1.95647851e-01  2.92763084e-01
   5.86684905e-02  3.21371078e-01  1.20334495e-02 -3.32622796e-01
  -2.89185327e-02 -8.33737105e-02  1.40406322e-02 -1.47681761e+00
  -6.31720573e-02 -4.55954432e-01 -2.17246613e-03  6.40366137e-01
   1.12529837e-01  2.10381933e-02  5.31559646e-01 -7.66990632e-02
  -1.72962964e-01 -3.96619618e-01 -2.24647745e-01  2.51718938e-01
  -3.41696404e-02 -2.33732477e-01 -1.11300111e-01 -1.39663994e+00
  -1.62971504e-02 -1.20492699e-02  2.33689800e-01  3.71815488e-02
  -2.07268909e-01 -8.38625729e-01 -2.06953049e-01 -5.64124659e-02
   3.96386534e-02  4.67798533e-03 -4.50571567e-01  2.13558376e-02
   4.53593358e-02 -1.77052379e-01  2.20720973e-02 -4.13402691e-02
  -6.26869619e-01  2.74248440e-02  2.35758536e-02  7.40174890e-01
  -4.47086571e-03  5.41073568e-02  4.23237413e-01 -2.85580335e-03
  -7.23584220e-02  3.77954692e-01 -2.96417385e-01  1.07467718e-01
   8.33777845e-01 -2.70682454e-01  2.72489935e-02 -9.54077765e-02
  -5.19614577e-01 -7.34812692e-02  1.57242700e-01  1.82006180e-01
   1.19868740e-01 -2.97790319e-01  3.93323988e-01 -1.71956234e-02
  -5.06729782e-02 -9.24153551e-02 -2.78367959e-02 -2.65455693e-01
   3.15806061e-01 -1.31030843e-01  4.62587401e-02 -1.42194241e-01
   1.09436791e-02  1.36455998e-01 -2.18876936e-02 -1.18628681e-01
  -2.33995855e-01 -2.41943896e-02 -1.10288084e+00 -3.65695432e-02
  -4.61265445e-02 -6.96285903e-01 -7.46046782e-01 -8.84227008e-02]
 [-2.95017883e-02 -4.12432104e-03 -2.78261490e-02 -3.08194458e-01
  -4.91297804e-02  8.26980621e-02  1.23383395e-01  1.22398049e-01
  -7.89154228e-03  2.29468141e-02  1.99607253e-01 -1.58047061e-02
  -1.64818931e-02  8.53226930e-02 -9.48908627e-02 -5.55218942e-02
  -1.34127839e-02  2.42301747e-02  1.87901853e-04  9.96713713e-02
  -4.58023809e-02  2.08879709e-02  1.95873976e-01  1.29282093e-02
  -3.17483842e-02  2.17010811e-01 -1.73999550e-04  1.94175676e-01
   1.88335795e-02 -1.10240400e-01 -9.96391475e-02 -1.15025707e-01
  -1.92070708e-01 -2.92006526e-02  2.11266875e-01 -9.56119820e-02
  -7.38259107e-02  2.11264148e-01  1.48516580e-01  2.56328396e-02
   3.88610736e-03  5.23101389e-02 -9.57429036e-02  3.88479441e-01
  -3.37738767e-02 -2.25015834e-01 -1.16680190e-01 -5.03586829e-01
  -5.20191006e-02 -1.30591333e-01 -1.26448303e-01  2.82661736e-01
   7.40254596e-02  1.50606319e-01 -2.47724988e-02 -3.51093635e-02
  -1.18368499e-01  2.23430675e-02  2.08017856e-01  9.16196853e-02
  -4.74581607e-02 -1.29010603e-01  5.17359516e-03  2.85956353e-01
   2.99489051e-02 -4.44336981e-02 -9.40764472e-02 -1.51330665e-01
   6.27541402e-03 -2.08576713e-02  1.80703133e-01  1.76965576e-02
  -2.70099007e-02  1.79379880e-01 -1.30700767e-02  7.11413380e-03
  -7.18962401e-03 -1.42920241e-02 -6.62495270e-02  4.61996533e-02
  -3.31887417e-02 -2.16520563e-01  3.81111354e-02 -4.29734848e-02
  -1.42925143e-01 -5.81842922e-02  3.31953615e-02 -1.03814289e-01
   1.57959517e-02 -1.03652887e-02  5.22530787e-02 -5.07018007e-02
  -2.77551152e-02 -3.27716976e-01  1.03348307e-01  1.03067204e-01
  -2.02389896e-01  1.78656608e-01 -1.96516752e-01 -1.66954175e-01
  -3.73421535e-02 -7.44479895e-02 -1.15021691e-01  3.02401129e-02
  -4.30429913e-02 -1.67293876e-01 -1.36539325e-01 -7.46655762e-02
  -2.00271215e-02 -1.19366951e-01  2.89064422e-02 -4.00950193e-01
  -2.66670925e-03  1.59094974e-01  2.73535252e-02 -2.45686825e-02
  -2.50666700e-02 -3.26451182e-01 -8.20112005e-02 -2.31944129e-01
  -3.73205721e-01 -7.40849748e-02  1.56950802e-02  2.45886892e-02
  -4.04830649e-02  1.13525704e-01  1.26980767e-02 -6.64702654e-02]
 [-6.41149879e-02  2.78630834e-02 -5.26195280e-02  1.49233952e-01
  -6.68190643e-02  3.11777174e-01  1.69905901e-01 -2.81849001e-02
  -7.03058466e-02 -2.04075431e-03 -2.55644262e-01 -7.66313374e-02
   2.38613617e-02  4.62771102e-04 -5.13368100e-03 -3.49878892e-02
  -3.08418069e-02 -6.37207180e-02 -9.95285902e-03  4.94394824e-02
  -1.46400586e-01 -6.74238056e-02 -2.08242029e-01 -2.14957893e-02
   2.80300267e-02 -1.14588505e-02  5.61480410e-03  1.21054173e-01
  -2.51323748e-02  1.64655685e-01  8.43072459e-02  1.84134766e-02
   1.51420429e-01  1.92397848e-01 -3.44463229e-01  2.14794949e-02
  -1.70913152e-02 -9.58271548e-02  6.77095680e-03 -6.13723658e-02
   1.21400297e-01  1.17148738e-02 -5.27627803e-02 -4.75330234e-01
   7.93613866e-03  8.18345696e-02  9.57278162e-03  2.52428502e-01
   1.73135214e-02 -8.37936699e-02 -1.87091485e-01 -9.33506936e-02
   1.69767231e-01  1.29582137e-01 -3.82482447e-02  1.55583713e-02
   1.51195228e-02 -1.72678456e-02 -4.35817204e-02 -7.18468940e-03
  -2.62239808e-03  3.54006529e-01 -3.72563392e-01 -2.15366751e-01
  -1.04110643e-01 -1.54720336e-01 -9.41821560e-02 -1.61369830e-01
  -2.28635478e-03 -4.04432639e-02  9.90962330e-03  2.83826254e-02
  -1.35368675e-01  1.81216940e-01  8.05193260e-02 -3.31327915e-02
  -7.23736212e-02  5.13693467e-02  3.88401672e-02 -2.92423368e-02
  -5.63348345e-02 -8.73964652e-02  2.08360441e-02  3.17897834e-02
   4.09247242e-02  4.09640186e-02 -1.63915660e-02 -3.15272540e-01
  -6.48031458e-02 -4.80748527e-02  1.80263653e-01  2.57907286e-02
  -1.12487398e-01  2.86653265e-02  3.34659666e-01  3.23325992e-01
   6.38950914e-02 -4.43593770e-01  1.65769637e-01  6.13052770e-02
   1.92017823e-01 -1.42969742e-01 -2.86052618e-02  3.40722650e-02
   3.62676889e-01  1.42982963e-03 -6.32530972e-02  1.57007817e-02
   2.59528067e-02  4.62424904e-02 -1.30486846e-01  2.28608549e-01
  -1.39129639e-01 -2.48644263e-01 -4.08898778e-02  6.22617006e-02
   3.28276195e-02 -8.24589208e-02 -5.09601347e-02  2.15951189e-01
  -1.20251156e-01 -4.61323112e-02  1.01410605e-01 -1.86748691e-02
   4.08685533e-03 -1.18713580e-01  1.73285499e-01 -2.28825510e-02]
 [ 2.10876763e-03 -2.00524516e-02 -5.01630455e-02 -2.79924691e-01
  -3.47192138e-02 -3.54833715e-02 -3.09490040e-02  1.23471785e-02
  -5.12461103e-02  2.77034733e-02 -1.70356333e-02 -1.31659843e-02
  -1.76727362e-02  8.27367380e-02  2.42229626e-02 -2.99609397e-02
   2.74418667e-02 -7.04653654e-03 -5.69982231e-02 -4.31863032e-02
   6.46441728e-02 -2.01456305e-02  1.41565055e-01 -6.29649237e-02
  -2.32267585e-02  4.72209454e-02  1.15572996e-02  7.59101566e-03
  -2.89373379e-02 -1.86920781e-02  2.93119270e-02  6.20616004e-02
  -2.00178340e-01  6.89343503e-03 -1.13880962e-01 -3.05300318e-02
  -2.16584325e-01  1.37892038e-01  4.85517643e-03 -3.13800871e-02
   4.89895120e-02  3.97418402e-02  1.62131414e-01  1.56863824e-01
   4.55423966e-02 -1.31661862e-01 -9.97443274e-02 -1.22000799e-01
  -3.98655946e-04  1.92826204e-02  6.86749294e-02 -3.08337491e-02
   9.75544155e-02  2.44227741e-02 -7.52782002e-02 -5.35968132e-02
  -2.16616929e-01  2.30186582e-02 -3.85183878e-02 -1.74520407e-02
  -1.55828908e-01 -7.70371854e-02  9.16483253e-02  2.47220501e-01
   5.66348396e-02 -3.98076735e-02 -7.99081251e-02  1.28093809e-01
  -3.57581340e-02 -4.87108640e-02  5.84839955e-02  2.12689228e-02
   8.10632706e-02 -5.88565730e-02 -1.30387962e-01 -1.70064513e-02
  -7.19080865e-02 -5.20058488e-03  1.74514651e-01  1.75695568e-05
   6.52689778e-04  1.23178162e-01  1.34679945e-02 -4.81501222e-03
   2.23295644e-01  2.30611884e-03 -7.66061321e-02 -2.00561345e-01
  -6.80425093e-02 -5.02156280e-02 -1.46267908e-02 -2.73683630e-02
   1.13820799e-01 -2.63745040e-01  7.86910430e-02  4.08620462e-02
  -1.97227806e-01 -5.85013255e-02 -4.60486896e-02 -5.34887351e-02
   4.72860634e-02  3.61924767e-02  8.82956311e-02 -8.06577355e-02
   1.34656830e-02 -1.85499296e-01 -2.63692439e-01 -3.82449254e-02
   5.19747436e-02 -4.22984511e-02 -3.24362926e-02  5.03483824e-02
  -2.16168165e-02  2.76429892e-01 -1.60826035e-02 -1.37872666e-01
  -1.07880449e-02  2.16661423e-01 -6.10915497e-02  1.26224384e-01
  -3.65783900e-01 -1.54377799e-02  5.21173375e-03 -5.70411421e-02
  -7.35784397e-02  1.03038596e-02 -8.40989426e-02 -1.08637474e-01]
 [ 1.67660415e-03  3.44918035e-02 -3.28750871e-02 -3.08115035e-01
   7.79125723e-04  1.30463421e-01  1.41685933e-01  8.76848251e-02
  -8.62725526e-02  3.14764231e-02  4.21189666e-01  1.25777442e-02
  -4.26792093e-02 -1.20613933e-01 -2.40767486e-02 -3.60141955e-02
  -3.51442099e-02 -1.12482775e-02 -1.90101359e-02  1.37529731e-01
  -1.29364610e-01 -2.59415787e-02  1.84543841e-02 -1.73711237e-02
  -1.06659625e-02 -8.01310223e-03 -2.75985952e-02  1.36127979e-01
   4.82598059e-02 -6.28987849e-02 -2.59581916e-02 -1.11728229e-01
   2.10922398e-02 -4.35957350e-02 -2.42921725e-01 -7.01245144e-02
  -2.89028674e-01  7.36049041e-02 -7.27851689e-02 -2.61035841e-02
   4.84201387e-02 -4.02128249e-02  7.68636391e-02  3.94933522e-01
   8.17129761e-03 -1.53345898e-01 -4.55296524e-02 -1.81024805e-01
  -3.76203842e-02 -1.86370134e-01  9.05079991e-02  1.34728327e-02
  -7.19662383e-02  6.71607852e-02 -8.23907182e-02 -1.81192495e-02
  -3.24855670e-02  1.81345809e-02  1.04067110e-01  4.87233438e-02
  -1.86102137e-01 -1.68155953e-01  2.77004559e-02  3.14523339e-01
  -1.37774572e-01 -1.65925056e-01  1.46895088e-02 -1.60335138e-01
  -2.64989361e-02 -2.20006872e-02 -3.22365105e-01 -2.31781695e-02
   1.17472298e-01  1.55245513e-01 -9.33539942e-02 -4.29184251e-02
  -6.79800287e-02 -4.80852984e-02 -1.35656139e-02  2.78225783e-02
   4.00827825e-02 -8.27678293e-03  9.52770561e-03 -1.61543582e-02
  -1.05010189e-01 -6.56858608e-02 -1.56916550e-03  5.63168563e-02
   3.46431434e-02  1.84241943e-02  1.67837683e-02 -6.10820241e-02
  -1.05537819e-02 -1.70671150e-01  6.49855807e-02 -1.38691003e-02
  -3.49355549e-01  1.96342409e-01 -4.90769669e-02 -1.83406562e-01
  -1.83395632e-02 -9.17240884e-03  1.01371482e-01 -3.32738072e-01
  -1.05085731e-01 -3.62052172e-01 -2.17613697e-01  1.06447935e-02
  -1.72956344e-02  1.05697341e-01  4.00914289e-02 -3.75047863e-01
   1.19520500e-01  2.21328903e-02  5.64487949e-02 -2.36470938e-01
   4.10792837e-03 -3.98753397e-02 -2.78217252e-02  6.65826276e-02
  -8.74244496e-02 -6.70479536e-02  6.04222827e-02  6.45501316e-02
  -3.70438844e-02 -9.65531021e-02 -2.35625371e-01 -1.18851706e-01]
 [ 3.70849743e-02 -3.54332700e-02 -3.34484056e-02  2.10999623e-01
  -6.27544299e-02 -5.22082925e-01 -6.43573329e-02  4.60597239e-02
   2.10438222e-02 -6.35746047e-02 -2.09929332e-01  2.84357695e-03
  -6.62280321e-02  2.48300567e-01 -1.51288067e-03 -2.98412628e-02
  -3.26996446e-02 -2.74095256e-02  4.26767841e-02 -7.78672099e-02
  -1.47603840e-01 -1.16627002e-02 -3.02250624e-01 -5.39062396e-02
  -6.45132437e-02 -1.15434676e-01  5.03106881e-03  2.47075662e-01
  -6.70523569e-02  7.95838758e-02 -2.76458245e-02  2.05424741e-01
  -1.06449716e-01  1.26519665e-01 -4.29403335e-02 -1.08482532e-01
   7.54704028e-02 -1.19716801e-01  1.70336999e-02 -3.06735169e-02
  -1.50871560e-01 -7.51472730e-03 -9.14529562e-02 -4.92042661e-01
   5.29381707e-02 -4.05596763e-01 -7.72436485e-02 -4.29803282e-01
  -4.05143239e-02  1.11101314e-01  7.55260524e-04 -5.51037490e-01
   2.01483443e-01  2.47593913e-02  2.94538848e-02  4.22588021e-01
  -2.72840619e-01  2.92965192e-02  2.95812607e-01  4.22776900e-02
  -2.87076056e-01  7.19001591e-02 -1.16359375e-01 -2.99287409e-01
   1.43867554e-02  6.60768747e-02  2.03481019e-02 -2.84473568e-01
   1.82963684e-02 -2.24831346e-02  2.57246286e-01 -5.87194152e-02
   7.05530569e-02 -5.52986383e-01 -1.23371601e-01 -7.00356290e-02
   3.32306349e-03 -5.99447228e-02  8.43354538e-02 -2.59123300e-03
   3.78106087e-02 -1.03503309e-01  2.96968617e-03 -3.33129875e-02
   6.56379610e-02 -1.46494166e-03 -7.85065070e-02 -2.52312403e-02
   1.80293024e-02  4.57104146e-02  2.66322762e-01  2.84710992e-02
  -6.64459467e-02  2.52312452e-01 -8.57492313e-02  3.14960301e-01
  -6.84657916e-02 -1.66071013e-01  1.77352857e-02  2.72009820e-01
   8.94388556e-02  1.50664762e-01  2.99683154e-01 -1.40100896e-01
   5.14817946e-02  1.61272094e-01 -1.30334929e-01 -9.07587353e-03
  -4.31980379e-02  2.56619871e-01 -1.23070195e-01  4.15352285e-02
   1.29906595e-01  3.08160186e-02 -2.07882822e-02  7.06634372e-02
  -2.02153828e-02 -7.53442794e-02 -3.95352729e-02 -1.18850591e-02
   7.83180222e-02 -3.02328654e-02 -7.58426785e-02  9.24118422e-03
   4.98806611e-02  4.64240834e-02  5.81647940e-02 -3.53873372e-02]
 [-5.98207861e-02 -7.73118585e-02 -6.70895129e-02 -6.30412474e-02
   2.40512006e-02 -1.01378642e-01 -1.56146675e-01  1.99490473e-01
   6.43352643e-02 -2.30572168e-02  8.96524359e-03 -2.01853216e-02
  -6.12664036e-02  1.56229660e-01  3.80395465e-02  1.46277053e-02
  -2.60183327e-02 -4.15143222e-02  3.76883335e-02  1.18643455e-01
  -4.94435094e-02 -3.88021655e-02 -4.07887213e-02  2.12799571e-02
   4.74286973e-02  1.25097379e-01 -4.98049259e-02  2.84566671e-01
  -3.61190885e-02  4.00634222e-02 -8.88854116e-02  7.84271806e-02
  -3.95162642e-01  2.24189624e-01  5.20946011e-02  2.28574961e-01
   1.72617361e-02 -8.91401768e-02 -3.06024611e-01 -1.82710327e-02
  -1.58524420e-02  5.62666357e-02 -1.67113230e-01  9.73077789e-02
  -2.13501919e-02 -1.31143451e-01 -7.16493577e-02 -2.24367529e-02
   4.65573333e-02  1.09058656e-01 -5.97367361e-02 -2.92308241e-01
   3.34730238e-01  9.15234908e-02 -4.06929851e-03 -1.29999965e-01
  -5.18265404e-02 -4.91434149e-02 -9.80341956e-02 -7.88563341e-02
   1.53749540e-01  1.79834694e-01 -2.17196912e-01  3.10243368e-01
  -1.29945934e-01 -1.60581455e-01  5.31435907e-01  2.02384189e-01
  -2.59831958e-02  1.09732356e-02  3.31430376e-01 -2.97919940e-02
   1.02681004e-01 -4.62424447e-04 -3.59302275e-02 -4.26863767e-02
   1.45962341e-02 -5.83725832e-02 -8.13712999e-02  1.43512320e-02
   4.41707037e-02 -8.52903351e-02 -4.65079732e-02 -9.69825238e-02
  -7.80721530e-02 -3.34615968e-02 -4.25544828e-02  1.35172665e-01
  -5.56278676e-02 -6.89598843e-02 -8.87176543e-02 -5.61321387e-03
  -2.43745580e-01  2.40012497e-01 -1.61758795e-01  1.97413906e-01
   4.29702848e-02 -2.10795343e-01 -1.43564716e-01  1.51288912e-01
  -1.02825686e-02 -6.74897656e-02  2.77622759e-01  2.78340727e-01
  -8.53397772e-02  3.43586326e-01  2.40801230e-01 -2.29546465e-02
  -3.73418555e-02  1.78925171e-01 -9.89538953e-02  2.71647964e-02
  -2.33970508e-02  1.53582068e-02  2.38198601e-02 -5.87171763e-02
  -4.80079800e-02  8.13581049e-03 -3.00487187e-02  2.04256833e-01
  -5.12444377e-02  3.46134044e-02  2.79513150e-01  2.41590831e-02
   6.14994904e-03 -6.10304773e-01 -9.62007940e-02 -9.95775610e-02]
 [-5.88959940e-02 -1.92979500e-02 -4.79342490e-02 -2.94113576e-01
  -8.03159103e-02  1.08594343e-01  1.78049713e-01 -9.92531609e-03
  -9.75745544e-02  1.04377344e-02  6.45928755e-02  4.26307470e-02
  -8.02917928e-02  1.02004521e-01  2.05370244e-02 -3.23597342e-02
  -2.52910368e-02  1.05272476e-02  3.63240205e-02  3.87464128e-02
   1.35450020e-01 -7.22551346e-02 -7.67614916e-02  2.28731148e-02
  -8.06167629e-03 -1.33332331e-02  2.81348936e-02  9.17511284e-02
  -6.83803286e-04 -1.24164492e-01 -1.72597647e-01 -1.59206335e-02
  -8.83152932e-02 -6.24292828e-02  1.30750984e-01 -1.39414847e-01
   3.40836942e-02 -1.58026278e-01  2.42065191e-01  5.70090860e-02
  -2.75146395e-01  5.13721928e-02 -2.45844409e-01 -1.02113672e-01
  -6.31674156e-02 -9.53035727e-02 -1.42784208e-01 -1.60111114e-01
   1.34830000e-02  3.50311458e-01 -2.04077691e-01  1.08481191e-01
   1.66428730e-01 -3.71562503e-02 -8.36559944e-03 -2.71592677e-01
  -2.15661496e-01  2.49345619e-02  1.30906999e-01 -2.63308398e-02
  -2.08913401e-01 -7.62832686e-02 -1.45185217e-01 -9.61534008e-02
   1.04027823e-01 -1.05414819e-02 -1.34665579e-01  1.98098928e-01
   2.00624093e-02 -5.56853926e-03  3.63549620e-01 -7.46599510e-02
  -1.46811590e-01 -1.94486544e-01 -1.45313248e-01  1.77034251e-02
   3.68762687e-02  1.53459460e-02  4.02170196e-02 -5.35391551e-03
  -2.71617677e-02 -1.60577849e-01 -5.00217900e-02 -1.92769729e-02
   6.63974807e-02  3.83904018e-02 -7.08006471e-02 -1.79209352e-01
   1.05688628e-02 -5.25637306e-02  2.08238527e-01  8.41588830e-04
   7.25643486e-02  9.80417803e-03 -1.88202634e-01 -2.21208096e-01
   3.61532748e-01 -2.04205904e-02 -8.17131326e-02  1.17349513e-01
  -1.74246386e-01  4.56864424e-02 -7.42510483e-02  1.37108147e-01
  -1.14577822e-01  1.79848254e-01  9.87780988e-02 -4.92289886e-02
   2.29742099e-02  4.51802500e-02 -3.69064733e-02  3.67385328e-01
   5.69408480e-03 -8.94929916e-02  2.48421468e-02  1.83788732e-01
  -4.35792143e-03 -1.68942377e-01 -9.74750817e-02 -9.61688831e-02
  -1.14689112e-01 -5.49030565e-02 -4.26625043e-01 -6.10784106e-02
   2.48047765e-02  2.22149551e-01 -6.15813211e-02  1.11024879e-01]
 [ 6.75602700e-04 -7.06128180e-02 -3.58166620e-02  1.24145672e-01
  -1.76703110e-02 -1.36161357e-01  2.85654187e-01 -1.37387365e-01
  -6.38338178e-02 -3.72509435e-02  1.71900421e-01  2.81799491e-02
   7.87267741e-03 -8.34545866e-02 -6.24889508e-02  2.90170498e-02
  -1.91443358e-02 -2.34465972e-02  2.51055397e-02 -4.73492369e-02
  -9.35669914e-02  9.29495320e-03 -1.36083171e-01 -4.95889485e-02
  -9.04201251e-03  2.44926810e-02 -2.43585091e-02 -7.82891512e-02
   4.80362820e-03  2.42383853e-01  1.32665008e-01 -1.73224911e-01
   1.20194547e-01 -1.75546750e-01  1.86903045e-01  3.86081263e-02
  -7.71691203e-02 -4.00107503e-01 -8.12622160e-02 -4.32308130e-02
   2.01190840e-02  2.11973512e-03 -2.90739946e-02 -4.14642781e-01
   7.31850695e-03 -1.88349575e-01 -7.56301507e-02 -7.51499161e-02
  -4.33381908e-02  1.02781482e-01 -2.46624306e-01 -3.28974575e-01
   7.58471712e-02  2.53800362e-01 -6.51030764e-02  4.90807034e-02
  -5.11862338e-02 -7.56571814e-02 -3.33763622e-02 -1.71248037e-02
   1.32466301e-01  3.81785393e-01 -2.49429420e-01 -4.67615038e-01
  -8.81382748e-02  2.89041083e-02 -2.78168142e-01 -2.95039624e-01
   4.99478988e-02 -8.37804005e-02 -2.56449193e-01 -1.43294102e-02
  -3.11907288e-02 -2.30595276e-01 -1.34594217e-01  2.29042806e-02
  -2.42779031e-02 -3.46289799e-02  1.91888466e-01  4.97168042e-02
  -1.38190333e-02 -3.75505276e-02  4.09943126e-02  4.07717749e-02
   2.24078029e-01 -3.48115489e-02  5.57436459e-02  2.96307337e-02
  -7.48754442e-02  3.11791096e-02  2.90210932e-01 -6.54035285e-02
   1.40754476e-01  2.82880187e-01  2.80629039e-01  4.13417429e-01
   1.28858864e-01 -2.18250602e-01  6.29900694e-02 -1.86778251e-02
   1.22117788e-01 -4.21622783e-01 -5.55838831e-03 -3.11118029e-02
  -1.16879418e-02 -1.40867591e-01 -1.17832460e-01  4.98967841e-02
  -3.10572851e-02  5.28343767e-02 -1.03063464e-01 -1.46533102e-01
   5.20696193e-02  1.72711033e-02 -1.49450535e-02 -2.22143918e-01
   6.27665520e-02  5.98172806e-02  1.03261083e-01  5.57918362e-02
   1.03592172e-01  1.60471927e-02  2.39109889e-01 -4.30147611e-02
  -3.18765193e-02 -1.30832568e-01  2.20445693e-01  1.29201552e-02]
 [-3.70653942e-02  8.55321810e-03  1.75574142e-02 -2.75307558e-02
   6.02266798e-03 -9.53108072e-03  5.50908782e-02  8.53100121e-02
  -7.04185814e-02  1.54784415e-03  8.73706117e-02  2.02447781e-03
   1.19599001e-02 -8.67666528e-02  4.56538387e-02 -6.44617826e-02
  -1.11942358e-01 -4.30799555e-03  4.02050316e-02  1.90776624e-02
   3.20685022e-02  3.54870334e-02  4.42913398e-02  6.42989762e-03
  -1.04924686e-01 -1.22826532e-01 -7.39677101e-02  2.29859561e-01
  -4.40004282e-02 -3.28514844e-01 -1.80376709e-01  1.09313764e-01
  -3.32760923e-02 -1.09588191e-01  3.96404453e-02 -1.41867548e-02
  -3.27752709e-01  1.28908783e-01  8.25106204e-02 -5.86249307e-02
  -6.34836778e-02 -2.68006139e-02  1.24144197e-01  8.18060935e-02
   1.76523011e-02 -3.83800156e-02 -5.74140586e-02 -9.84370857e-02
   1.90701671e-02 -2.54485786e-01  1.24290019e-01  5.16147427e-02
   4.11102064e-02 -6.69411896e-03 -4.99021076e-02  8.74210265e-04
  -1.94556072e-01 -7.43242055e-02  5.80927581e-02 -3.92573178e-02
  -6.37622029e-02  7.47108236e-02  3.72082859e-01  8.93462449e-02
   9.07359459e-03  1.71434265e-02 -3.88591960e-02 -3.30401182e-01
  -1.22053605e-02 -3.78691219e-03  2.30030492e-02  1.59459133e-02
   4.57144529e-02 -1.14929825e-01 -7.72193894e-02  6.31852262e-03
  -2.50856392e-02  2.27050111e-02  1.64685994e-01 -2.14009173e-02
   2.89326701e-02  4.42807712e-02 -4.95141484e-02 -2.67504472e-02
  -1.19683176e-01 -4.16602977e-02  4.46537361e-02 -1.65946290e-01
  -2.94110868e-02  3.62285152e-02  2.26073470e-02 -3.45922820e-03
   1.19893484e-01 -1.61011457e-01  2.04726234e-01 -5.54798543e-02
  -2.61692017e-01 -1.65537801e-02 -1.43197194e-01 -5.99312484e-02
   2.62975972e-02 -6.24523219e-03  5.65815903e-02  1.63798861e-03
  -2.72107627e-02 -1.86611548e-01 -1.40783638e-01  3.64364162e-02
  -1.53434435e-02 -2.45717224e-02  7.07429321e-03 -9.37348977e-02
   1.49528487e-02  1.22869954e-01 -5.05651012e-02 -2.03651667e-01
  -7.57115483e-02 -1.09177008e-01 -2.75947303e-02  7.32728392e-02
  -2.26994500e-01  2.81934533e-02 -1.59894362e-01  7.60426372e-02
  -6.25109812e-03 -2.57765744e-02 -3.11568449e-03  9.29656848e-02]
 [ 3.33197862e-02 -2.22359337e-02 -1.77975316e-02  1.07077926e-01
   5.79166412e-02  1.97745234e-01 -7.81456381e-02 -4.21316549e-02
  -1.63044542e-01  3.86850946e-02  2.33359799e-01  1.75564513e-02
  -7.97949806e-02  2.11290270e-03  3.68055589e-02  2.74622403e-02
  -2.65944209e-02  1.76315382e-02 -5.83158098e-02  2.18085777e-02
  -5.20164818e-02 -9.34861079e-02 -7.42598996e-02 -2.97174230e-02
  -7.95731544e-02 -8.96410570e-02 -4.87663485e-02 -2.95269899e-02
  -2.19705682e-02 -2.81684771e-02  1.32439494e-01  9.01986361e-02
  -9.21324790e-02 -2.10946470e-01 -2.48821631e-01 -1.77949995e-01
  -1.23658411e-01 -1.20882727e-01 -2.78190225e-01  1.35404486e-02
  -1.71527475e-01 -5.33818454e-02  4.71207350e-02  5.85111231e-02
  -1.24642467e-02 -9.76495072e-02 -1.57224704e-02  1.64603725e-01
   3.32476720e-02 -2.72312254e-01  2.88422145e-02 -1.89173907e-01
   1.67289972e-02 -4.20639291e-02 -4.08685245e-02 -1.44650176e-01
  -1.31538749e-01 -1.37048028e-02  2.59528439e-02 -4.13121283e-03
  -1.00420147e-01 -4.28899303e-02 -1.05370194e-01  1.55686602e-01
  -2.19305933e-01  1.65616035e-01  8.07674825e-02  1.19129449e-01
  -5.51824905e-02 -2.40697935e-02 -2.21304730e-01 -4.98124212e-02
   4.12654504e-02  4.04826663e-02  2.16492206e-01 -2.93949954e-02
  -2.84171035e-03  5.12422882e-02  2.32123351e-03 -4.05618921e-02
  -1.43152904e-02 -6.16810918e-02  1.57183036e-02 -7.99047016e-03
   2.27134749e-02 -4.02885415e-02 -8.63862485e-02  2.69014342e-03
  -5.42303026e-02  4.14736681e-02 -6.69588670e-02 -1.70709956e-02
  -2.02283219e-01 -1.65044591e-01  4.53151613e-02 -8.04030448e-02
  -2.48547003e-01 -3.45163047e-02 -3.84033695e-02  1.65862575e-01
  -5.75098321e-02 -4.61312421e-02 -7.64075816e-02 -1.34627104e-01
  -1.34386331e-01 -2.65083730e-01 -7.35710785e-02 -7.64462054e-02
   2.48092506e-03  1.06388420e-01 -6.94019124e-02 -1.76028609e-01
   7.22247288e-02  1.52988061e-01 -6.23239093e-02  1.02853060e-01
  -6.99875578e-02 -1.14150174e-01 -6.17365241e-02  2.05194931e-02
  -1.29783377e-01  1.24419923e-03 -6.38821572e-02 -4.76307934e-03
   2.85518030e-03 -1.71103686e-01 -2.96304792e-01 -5.48816361e-02]
 [ 2.26040296e-02  2.49949843e-02 -6.49006218e-02 -3.27722609e-01
   1.66367665e-02 -5.06932259e-01 -3.79256487e-01  2.87337512e-01
  -5.10707311e-02  2.68422514e-02  1.82081714e-01  1.39585733e-02
  -3.14817168e-02 -5.30385792e-01 -4.92616184e-02 -7.33867809e-02
   1.33240419e-02 -6.98916567e-03  2.85201762e-02  1.86923400e-01
  -8.78027752e-02 -1.02939144e-01 -2.12748587e-01 -7.13884085e-02
   6.97756484e-02 -2.30526943e-02 -6.22651428e-02  1.60378247e-01
  -6.62099421e-02 -2.17644274e-02 -9.14505944e-02  1.69716209e-01
  -4.42543859e-03 -1.86931521e-01  6.90804720e-02  1.47413000e-01
  -2.54809976e-01  1.50865838e-02  2.46452302e-01  3.00567616e-02
  -6.08325191e-03 -6.54332489e-02 -1.45851687e-01  1.30527010e-02
   1.70321446e-02 -3.97244059e-02 -7.52202123e-02 -2.03934759e-01
  -3.06639336e-02  2.69308090e-01 -2.30521306e-01  6.88029081e-02
   2.16030002e-01 -2.13471457e-01 -3.29629481e-02  2.30754584e-01
  -1.39076519e-03  2.31088400e-02  2.50192791e-01  2.79600024e-02
   5.88746518e-02 -1.24091338e-02  3.72471251e-02  1.38601527e-01
  -2.35415287e-02 -1.06698215e-01  1.65261049e-02  9.38694701e-02
   1.83147453e-02 -8.92462581e-02 -3.09154987e-02  3.11783119e-03
   1.04325198e-01 -2.41012812e-01 -4.18034434e-01 -2.05571055e-02
   3.73236276e-02 -6.06630817e-02  1.89755827e-01 -2.47268025e-02
   3.70811261e-02 -7.21153840e-02 -5.97829821e-05 -1.02101892e-01
   6.95403814e-02 -3.24329287e-02 -2.70613916e-02  2.50852883e-01
  -1.86331738e-02  1.04147417e-03  1.38232689e-02  2.76712906e-02
  -3.63473624e-01  3.24361920e-01  1.44246086e-01 -6.33722395e-02
  -2.02891156e-02 -4.10272740e-02 -1.67308263e-02  2.13256195e-01
   1.71798952e-02 -7.91190416e-02  9.62751135e-02  3.02409451e-03
   3.72391343e-02  1.54768303e-01  3.16455036e-01 -5.54361157e-02
   6.29183324e-03 -2.68725175e-02 -3.36412936e-02  1.44049227e-01
  -4.62341867e-02 -5.08144312e-02  1.59829302e-04 -2.13140193e-02
  -3.01946998e-02  3.78970802e-02 -4.25668918e-02  5.87270148e-02
  -2.92307913e-01  3.89956795e-02  1.88798249e-01 -2.16918420e-02
  -1.37020322e-02 -1.28281087e-01 -8.28723982e-03  1.71167050e-02]
 [ 2.88958140e-02 -2.63033025e-02 -2.56968802e-03  2.10100710e-01
  -2.77396496e-02 -3.40266526e-01 -6.47206381e-02  8.00966695e-02
   1.39427528e-01 -3.53711993e-02  1.63227588e-01 -6.35042340e-02
  -7.26846084e-02  3.21248561e-01  1.87339466e-02  4.12071161e-02
  -3.39999497e-02 -7.86090177e-03 -9.63845477e-03  3.78156523e-03
  -5.21502011e-02 -1.48404703e-01  2.03548163e-01 -1.83071792e-02
  -1.03407241e-02  5.18215485e-02 -3.42380139e-03  1.64943580e-02
  -3.50622162e-02 -7.21948221e-02 -2.77963698e-01  8.66863355e-02
  -2.70891279e-01  1.01898231e-01  5.93220517e-02 -5.15565798e-02
  -6.03486225e-02 -5.73554456e-01  1.27251267e-01  3.63002270e-02
   1.18079230e-01  4.95912656e-02  1.98800743e-01 -1.19801283e-01
  -7.66577199e-02 -2.56779976e-02 -3.69721390e-02 -1.23390602e-02
  -1.05626285e-02  5.09296842e-02 -3.04532409e-01 -1.41028330e-01
   1.53116032e-01 -2.77995408e-01 -1.54503752e-02 -4.57775682e-01
   6.10341020e-02 -9.18716639e-02 -2.28947904e-02 -1.43836468e-01
  -2.14392647e-01 -8.01426079e-03 -3.00508142e-01  1.20107748e-01
  -1.53011441e-01  1.83701202e-01  2.98109680e-01  5.42160153e-01
  -5.40695563e-02 -6.97811991e-02 -2.59318680e-01 -6.87576234e-02
  -2.91169167e-01 -4.52927500e-03  1.44520566e-01 -4.46575284e-02
  -4.05507796e-02 -3.66048962e-02 -5.75083913e-03  2.43457612e-02
  -1.17264464e-02 -1.81230769e-01 -3.46627831e-02  1.40967285e-02
   1.14612713e-01 -6.89199045e-02 -6.93794265e-02  2.02003881e-01
   1.07835820e-02 -5.89580880e-03 -1.93573922e-01  5.44154039e-03
  -2.13871107e-01  5.21632135e-01 -1.61867455e-01  6.62472174e-02
   1.55572504e-01 -2.61943579e-01 -6.63928911e-02 -1.36166543e-01
  -2.18868211e-01 -5.99599630e-02  1.95441451e-02  2.95770735e-01
  -1.28537953e-01  7.59472772e-02 -7.64741525e-02 -9.96343046e-03
  -8.95956904e-03  1.55327842e-01  6.62201783e-03 -1.32682230e-02
  -3.90155017e-02  2.27017537e-01 -3.02223936e-02  4.56691422e-02
   2.45250724e-02  2.23308168e-02 -5.14014363e-02  1.46086633e-01
  -6.39168397e-02 -1.59231375e-03  2.38185883e-01 -7.55350068e-02
   4.16382141e-02 -4.49703455e-01 -3.70752178e-02  1.27612561e-01]
 [ 1.67276021e-02 -4.20562737e-02 -8.48487392e-03 -4.31602448e-01
  -4.63785194e-02  6.60431385e-02  2.83612996e-01 -7.69932494e-02
  -2.09630191e-01 -2.26245075e-02 -1.47837162e-01 -6.15902618e-02
   2.06239074e-02  2.30122164e-01  3.49242911e-02 -6.36396259e-02
   1.42111825e-02 -2.02040486e-02 -4.29062992e-02  3.12046409e-02
  -2.85806265e-02 -3.83751467e-02 -1.47949867e-02  2.41134278e-02
  -1.14470003e-02 -2.95910854e-02 -6.22869655e-03 -6.08687922e-02
   5.01937866e-02  1.05916373e-01 -3.35431695e-01  1.16383672e-01
  -3.17833960e-01  1.12320937e-01  1.75790682e-01  6.47523347e-03
  -1.24183804e-01 -9.58330631e-02  1.59155205e-01  7.07653910e-02
   1.23718791e-01 -2.36119591e-02 -2.96593279e-01 -6.54284582e-02
  -3.90621312e-02 -2.06171110e-01 -1.93734411e-02 -1.17381206e-02
  -4.54143547e-02  2.30179895e-02  3.22689503e-01  1.11647174e-01
   2.10159168e-01 -7.38484412e-02 -5.41706793e-02  1.57057032e-01
  -3.25472265e-01  1.78955197e-02  7.26291984e-02 -2.71998271e-02
  -5.54836020e-02 -4.77039926e-02 -1.55355096e-01  1.74477585e-02
   6.86626807e-02 -1.90321580e-01 -1.96485728e-01  1.77036434e-01
   5.84553182e-02  3.64427455e-02  1.07774824e-01 -4.18508537e-02
   1.04940474e-01 -2.70019054e-01 -4.57712024e-01  1.79133806e-02
  -5.97509742e-02  7.65897380e-03  1.73702478e-01 -4.14034631e-03
  -4.92488919e-03 -1.93358317e-01 -6.62335157e-02 -3.23567912e-02
  -5.58153205e-02  5.42230904e-02  1.33218514e-02 -1.68402210e-01
   9.33542196e-03 -3.59264389e-02  1.20278798e-01  4.24046889e-02
   1.18767351e-01  3.84598188e-02 -3.14536005e-01 -4.14577909e-02
   3.77590448e-01 -8.90100598e-02 -1.21174343e-01  3.21884677e-02
   5.80473989e-03  3.24292155e-03 -5.27983494e-02 -7.04012513e-02
   1.83933184e-01  5.97317442e-02  2.86905356e-02 -2.22499818e-02
  -1.72251917e-03  2.18260154e-01 -3.41427140e-02  9.76538137e-02
   1.30607784e-01  3.09946351e-02 -3.11416239e-02  1.98058054e-01
  -9.87678915e-02 -1.57031253e-01 -2.73216367e-02 -5.99949583e-02
   9.10282582e-02  4.13833559e-02 -1.55438945e-01  3.60423401e-02
  -4.46477383e-02 -8.02489296e-02  1.06052399e-01 -3.92876012e-04]
 [ 2.81816639e-04 -7.53351301e-02 -5.24393208e-02 -4.59374785e-02
  -5.24498932e-02  6.97714537e-02  1.66108981e-01  1.01450115e-01
  -5.15493676e-02 -3.23677324e-02 -1.28584892e-01 -2.64792908e-02
  -5.67549169e-02 -1.68575212e-01 -6.67627007e-02 -2.36432590e-02
   2.00238489e-02 -5.59239164e-02  4.93336469e-03  2.31074635e-02
  -1.42561728e-02 -3.89754027e-02  1.80743262e-01 -1.42640471e-02
   5.82018308e-02  1.54865235e-01  1.26509983e-02 -1.54525325e-01
  -6.31560981e-02  5.03713310e-01 -2.44975403e-01  1.83699876e-01
   3.31428677e-01 -2.44320184e-01 -2.36900195e-01 -1.43090174e-01
   5.15134372e-02 -2.20455930e-01  1.57587260e-01 -1.95401590e-02
   3.63301694e-01  2.19981465e-02 -2.74053901e-01 -3.15800101e-01
  -2.21490450e-02 -1.83628853e-02 -1.07486241e-01  2.69535661e-01
  -1.43785682e-02  1.43102244e-01 -2.20751036e-02  1.27283484e-01
  -4.82830852e-02 -3.14755924e-02 -1.62982102e-02 -3.54418568e-02
  -1.14797808e-01 -4.41844985e-02 -4.67849188e-02  3.02071217e-02
  -1.10524535e-01  9.70596969e-02 -2.42506146e-01 -5.06984353e-01
  -1.60291597e-01  1.96154147e-01 -7.29483515e-02  3.98000665e-02
   3.98179926e-02  8.35650414e-02  1.00833125e-01  3.83341387e-02
  -2.05734059e-01 -2.89265275e-01 -7.65825482e-03  1.58423409e-02
   4.93296469e-03 -1.03261270e-01  2.71988422e-01  5.49529865e-02
  -1.48941660e-02 -2.36163270e-02 -2.76583694e-02 -6.03681430e-02
   1.38566419e-01 -8.06914568e-02  3.13010439e-02  2.43227080e-01
   2.40952219e-03 -5.41699193e-02  3.20844978e-01  1.56750083e-02
  -1.42646870e-02  3.27839285e-01 -1.04506062e-02  6.36279225e-01
   2.15010703e-01 -9.38646719e-02  6.71880916e-02  8.73552710e-02
  -1.04420796e-01 -2.17148766e-01  3.94962691e-02 -1.00494877e-01
  -6.21403530e-02  4.73233201e-02 -1.16092280e-01 -2.85613425e-02
  -5.46752028e-02 -1.36534348e-01 -1.45725176e-01  1.08318821e-01
  -2.90564388e-01  2.09140688e-01 -6.57756403e-02  1.57077182e-02
   6.50709644e-02 -1.84171841e-01 -2.67703962e-02 -6.65962026e-02
   2.26161778e-01  1.91032130e-03  2.82984644e-01 -8.34241956e-02
  -3.60087529e-02 -9.46299136e-02  4.00313847e-02 -1.01890313e-02]
 [-5.16256392e-02 -4.36516702e-02 -2.99508814e-02 -2.15416312e-01
  -1.02627669e-02 -1.16908729e-01  8.79486501e-02  1.15799785e-01
   2.23864950e-02 -3.29775251e-02  4.57807556e-02  3.42454351e-02
  -4.51325737e-02 -1.38562068e-01  2.33606510e-02 -8.76586139e-02
  -7.36094788e-02 -2.87073012e-02 -5.95691055e-02  1.96959168e-01
  -8.80680326e-03 -2.62664873e-02  9.44186598e-02 -4.01138188e-03
  -3.50532345e-02 -6.48336634e-02  3.34193669e-02  8.58106688e-02
  -3.49855050e-02 -3.58056575e-01 -9.36299786e-02  7.00219423e-02
   1.45401984e-01 -6.35335147e-02 -5.24800047e-02  9.88049060e-02
  -2.72699833e-01  1.82067946e-01  1.13042019e-01 -4.45952825e-03
  -2.32250422e-01 -1.35647608e-02  1.30396396e-01  1.96111321e-01
   5.11576049e-03  3.68704237e-02 -1.05422936e-01 -2.72850990e-01
  -4.31948788e-02 -4.63291481e-02 -7.35100582e-02  1.80143807e-02
   1.39522329e-01 -1.73559878e-02 -1.59453228e-02  9.46034864e-02
  -3.03651512e-01 -4.15285937e-02  9.52277035e-02 -7.13598356e-02
   6.68820739e-03  1.21958638e-02  1.63513765e-01  2.17105508e-01
   1.45281490e-03 -1.58620030e-02 -3.90603356e-02 -2.59516239e-01
   3.34841385e-02 -3.78781222e-02 -1.55841574e-01  4.30728085e-02
   2.53052283e-02 -1.09059013e-01  1.11853018e-01 -4.08717878e-02
   6.85336720e-03 -9.50451009e-03  1.75667062e-01 -4.22223881e-02
  -1.50353536e-02  1.01837538e-01  3.23210396e-02  4.56512310e-02
  -7.81285167e-02 -7.03857467e-03  8.26166943e-02 -3.89079116e-02
  -4.93638171e-03  5.71679175e-02  9.82373953e-02 -1.23063121e-02
   2.10264325e-01 -3.14040154e-01  8.01738426e-02 -9.46501642e-02
  -1.90854818e-01 -3.42097543e-02 -5.00222482e-03 -1.48074299e-01
  -6.92476183e-02  7.23868087e-02  7.61142224e-02  1.16181031e-01
  -1.38676330e-01 -1.28147840e-01 -1.66048616e-01  6.10477338e-03
   4.87059280e-02 -9.36883166e-02  7.52045140e-02  1.42958552e-01
  -4.52942662e-02  2.07766294e-01 -2.15610471e-02 -2.20302731e-01
  -2.98859160e-02 -1.30116925e-01 -8.05538148e-02  1.74606428e-01
  -3.32892597e-01 -6.23377971e-02 -1.30871892e-01 -3.06752883e-02
   3.90023738e-03  1.08725354e-02 -4.86110002e-02  3.52917053e-02]
 [-3.19002718e-02 -5.38415872e-02 -5.71391732e-03  2.00686321e-01
  -3.88779980e-03 -4.26993966e-02 -1.01780623e-01 -1.04990274e-01
  -1.26308367e-01 -4.65245806e-02  2.27429211e-01 -9.97025892e-03
   1.76272821e-02 -3.43269438e-01 -1.22612761e-03 -8.50381181e-02
  -6.48700446e-02  9.78127681e-03 -7.07863867e-02  1.23870090e-01
  -1.67749096e-02 -1.26624659e-01  7.16429353e-02  4.54142131e-02
  -1.48790494e-01 -1.61464643e-02 -3.68579221e-03 -1.20626613e-01
   4.37199436e-02  1.12763114e-01  1.49154738e-01 -1.32033348e-01
  -2.04586163e-02 -2.42837936e-01 -3.34470868e-01 -1.39507800e-01
  -1.90614223e-01 -4.34356965e-02 -1.68741673e-01 -2.97953282e-02
  -1.80384256e-02 -3.87496017e-02 -3.69418822e-02  9.38019007e-02
   5.83770573e-02 -1.94036111e-01 -3.45211662e-02 -1.15877710e-01
  -6.40070066e-02  9.80681181e-02  2.53038872e-02 -2.09572881e-01
   6.41900897e-02 -1.71183839e-01 -2.92214635e-03 -1.85659409e-01
   5.80911264e-02 -6.26789629e-02 -6.18208200e-04  1.22858677e-02
  -8.25733989e-02  1.10646896e-01  1.18231893e-01  1.83193594e-01
  -2.58213699e-01  7.06491917e-02  6.91021383e-02  1.71835229e-01
  -6.40632659e-02  2.79462039e-02  6.02293108e-03  3.10433656e-02
   1.10497937e-01 -1.51926145e-01  2.28349324e-02  1.99788492e-02
  -5.14776520e-02 -1.65025070e-02 -5.08059599e-02 -3.64107974e-02
  -4.39032121e-03  1.32937387e-01 -8.54982436e-03 -3.91360223e-02
  -3.60489674e-02  3.34267952e-02 -8.84741321e-02  6.41064644e-02
  -2.34404244e-02  2.92858128e-02  7.31673837e-03  1.08470805e-02
  -1.77324831e-01 -7.90030137e-02 -2.19259560e-02 -4.64927405e-03
  -2.97337443e-01 -8.23870078e-02  5.37405610e-02 -1.05879389e-01
  -4.14442718e-02  1.00329526e-01 -1.05986446e-02 -1.55965254e-01
  -1.63326591e-01 -1.68761045e-01 -5.22935875e-02 -2.50067078e-02
   3.67942788e-02  5.00125997e-02  2.87307948e-02 -2.93206483e-01
  -1.19162515e-01  8.74516666e-02  2.96164248e-02 -1.75097838e-01
   2.32055746e-02 -2.13562530e-02 -3.57010737e-02 -4.58933599e-03
  -7.23488182e-02 -3.44593972e-02 -4.30429615e-02  1.96469342e-03
  -5.35487533e-02 -1.84052140e-01 -2.73625433e-01 -9.44767892e-02]
 [-6.03788234e-02 -6.24948107e-02 -4.36347462e-02  2.35992864e-01
  -6.82551935e-02 -3.82184178e-01 -1.11109294e-01  4.01344076e-02
   1.65623173e-01  2.16686316e-02  3.53495702e-02  2.99371164e-02
  -1.06628291e-01 -5.89061268e-02  3.53465229e-02 -8.44566375e-02
  -6.16495162e-02 -5.03566340e-02 -2.52132434e-02  3.74318287e-03
  -1.13777250e-01  3.96361388e-02 -3.56303960e-01 -2.57540457e-02
  -8.29393491e-02 -2.40728967e-02  2.18840614e-02  1.17976308e-01
  -7.36503899e-02  3.67879681e-02 -2.22468913e-01  2.38431051e-01
  -3.17547731e-02 -9.60975513e-02  3.29540581e-01 -1.78809524e-01
  -4.21319157e-02 -2.02734753e-01 -1.04970023e-01 -3.98479663e-02
  -1.57794923e-01 -1.80941038e-02 -1.79233223e-01 -2.57797092e-02
  -1.34084802e-02 -2.48531446e-01  5.96086401e-03 -1.18828110e-01
   4.73153256e-02  8.89601782e-02 -1.93571970e-01 -3.32623422e-01
   8.29327628e-02  7.30239972e-02 -7.77509017e-03 -1.11042850e-01
  -9.74410027e-02  1.61126591e-02  2.34222710e-01 -1.00517921e-01
  -1.67208999e-01 -5.99517003e-02  9.76487696e-02  9.75847617e-02
   2.86136828e-02  8.00401643e-02 -7.50710368e-02  1.66630089e-01
  -6.22487590e-02 -6.26966432e-02 -2.02577755e-01 -3.97207178e-02
  -2.64191955e-01 -4.07219259e-03 -2.61212409e-01 -6.79531023e-02
   3.12057734e-02 -4.71052676e-02 -3.98860238e-02  4.76844832e-02
  -4.24727909e-02  4.45649773e-02 -4.98078950e-02 -1.42876580e-02
   1.49975672e-01  1.29504772e-02 -3.85941789e-02  1.48768619e-01
  -5.15422635e-02 -7.34942174e-03  1.43421376e-02 -3.08617800e-02
  -1.51012242e-01  1.22185342e-01 -1.27085984e-01  2.82140046e-01
   3.48060250e-01 -1.36199653e-01  1.17424233e-02 -4.23382580e-01
  -8.76388550e-02 -5.79874180e-02 -1.32726952e-01 -1.00576103e-01
  -1.84879005e-01 -9.69935060e-02  5.29093966e-02 -1.74664650e-02
  -2.08867155e-02  1.00287400e-01 -7.41202608e-02 -1.12780295e-01
   2.11413503e-01 -8.29185173e-02  3.65683809e-02  1.41484290e-01
  -1.90775599e-02  1.60808742e-01 -6.68492094e-02 -3.16083767e-02
  -3.96532655e-01 -4.55437601e-02 -6.86904937e-02 -5.07432558e-02
  -6.90392777e-02  1.64570790e-02  3.71525213e-02 -7.45893717e-02]
 [ 1.47199100e-02 -3.92754897e-02 -6.33474812e-02  3.56384933e-01
  -1.49092516e-02 -1.99761063e-01 -2.00594261e-01  2.10022852e-01
  -5.26191592e-02 -8.29416290e-02  1.18364953e-01 -1.13610632e-03
  -6.27058521e-02  1.08036645e-01 -1.37183699e-03  2.57553700e-02
   2.02529645e-03  1.84735544e-02  1.46125183e-02 -1.28752977e-01
  -2.55597457e-02 -5.82083175e-03 -1.18913487e-01  9.33256888e-06
   6.21409155e-02  1.07440315e-01 -9.81991068e-02  1.00775450e-01
  -5.56165911e-02  1.97538316e-01 -1.22565612e-01  5.73243573e-03
  -7.20903948e-02  2.20993698e-01  1.31486235e-02  2.47636348e-01
   1.33124635e-01 -2.42430627e-01  5.48546426e-02  4.16102484e-02
  -2.91672237e-02 -3.49074267e-02  1.24834433e-01 -2.34313935e-01
   6.10202132e-03  7.44159520e-02 -2.47475170e-02 -3.17522228e-01
  -7.13296980e-02 -1.68513283e-02 -8.21319669e-02 -3.93109113e-01
   8.24375078e-02 -9.57949907e-02 -8.46727490e-02  6.40098900e-02
  -1.34457320e-01  1.47215147e-02  2.15958193e-01 -1.04271449e-01
  -2.12600872e-01  2.70463198e-01  1.92643553e-01  2.42354393e-01
  -2.01426253e-01  6.83446229e-02  1.57012716e-01  4.06092227e-01
  -3.65055054e-02 -1.63631011e-02  7.90418237e-02  3.31228003e-02
  -3.04428458e-01 -7.98905268e-02  3.70759964e-02  3.45743704e-03
  -4.46542129e-02 -4.12646309e-03  8.34785178e-02  2.27752142e-02
   3.20433080e-02 -8.60874504e-02  1.57706887e-02  6.41879207e-03
   3.62318009e-02 -8.16896856e-02 -6.63434565e-02  3.11598908e-02
  -4.32085097e-02 -1.33109614e-02 -1.20355003e-01 -1.96722634e-02
  -3.40507239e-01  7.08477758e-03  1.02207679e-02 -1.80917859e-01
   4.21314575e-02 -1.89211190e-01  1.30830929e-01  2.19912156e-02
  -8.74058716e-03  1.07251275e-02  1.56068891e-01  8.27015564e-03
   2.46675760e-01  1.37815580e-01 -2.88355887e-01  3.22565669e-04
  -6.21663742e-02  1.70327947e-01 -8.89372751e-02 -8.79341289e-02
   7.45747164e-02  1.43212855e-01 -6.48713261e-02  3.95596698e-02
   2.46070269e-02  1.13854632e-01 -4.67571393e-02  4.67855074e-02
  -1.79585703e-02  1.06585333e-02  2.23123506e-01 -3.31309587e-02
  -7.00657489e-03 -1.64077938e-01  3.33552748e-01  2.21948605e-02]
 [-3.29899713e-02 -3.17667238e-02  3.25901583e-02 -1.26867369e-01
  -3.26193706e-03 -1.24661960e-01  3.04790497e-01 -3.98529693e-02
  -1.59263685e-01 -2.04960592e-02 -2.76127383e-02 -1.33918030e-02
  -6.77436292e-02  1.02728359e-01 -4.83243465e-02 -2.48460025e-02
   4.64729257e-02  9.67523083e-03 -3.71398143e-02  2.26828054e-01
  -3.69415917e-02  3.76288854e-02 -1.33031467e-02 -4.86370064e-02
   3.44101563e-02  2.61702500e-02  1.06258905e-02  1.11256644e-01
   1.50463413e-02  1.68861344e-01 -5.17084748e-02  7.42155313e-02
  -2.71222144e-01  5.75122163e-02  6.43716753e-02  1.02074869e-01
  -2.05843791e-01 -2.56527185e-01  1.67583257e-01 -4.21771668e-02
   1.39045238e-01 -1.08293984e-02 -1.03418328e-01  2.81297360e-02
  -1.96554512e-03 -2.25880831e-01  1.04483096e-02 -2.68443599e-02
   1.47537785e-02 -1.60830319e-01  6.33986667e-02  1.93610311e-01
  -3.89271118e-02 -3.51920649e-02  1.88386086e-02  2.17805937e-01
  -2.49185160e-01  8.29214752e-02  7.65222460e-02  1.85083728e-02
   3.37896496e-02  5.55332638e-02 -3.76117527e-02  8.30406174e-02
   8.26129094e-02 -1.23203203e-01 -3.16554666e-01  2.06701651e-01
   5.94651587e-02 -1.47090871e-02 -8.07060394e-03 -4.83168252e-02
   1.23445041e-01 -1.36512235e-01 -1.83661267e-01 -3.58060785e-02
   1.75457299e-02 -1.10863475e-03 -7.86004297e-04 -5.12661366e-03
   8.04606974e-02 -7.88006559e-02  1.41120832e-02 -2.80360170e-02
   6.85725082e-03  1.82952341e-02  4.55387490e-04 -7.33991787e-02
  -6.79786922e-03 -4.68727909e-02  8.89988057e-03 -1.58171216e-03
   6.44222796e-02 -1.01948962e-01 -2.80098557e-01  3.44861262e-02
   4.91934791e-02 -8.74726698e-02  1.65943448e-02  2.02809751e-01
  -3.37698758e-02 -6.26816973e-03 -3.27128500e-01  2.56122082e-01
   4.21244465e-02 -3.80123849e-03  4.92069088e-02 -9.21982080e-02
  -2.64857411e-02  6.66403249e-02 -2.95158867e-02 -1.04169451e-01
   1.29222758e-02 -6.74418658e-02  3.69418561e-02  1.80552587e-01
  -5.88595010e-02 -3.40784900e-02 -5.59668243e-02 -4.61525209e-02
   5.95064252e-04 -1.34141427e-02  5.31158186e-02  8.95301066e-03
   1.76520534e-02 -2.05565274e-01 -6.31587161e-03  1.81861296e-02]
 [ 3.67012620e-02 -5.16854376e-02  7.60614127e-03  2.75560856e-01
   3.86652946e-02 -2.61089038e-02  1.20141111e-01 -1.31950766e-01
   4.24435660e-02 -1.08745582e-02  1.06457226e-01  3.85354236e-02
  -3.88081893e-02 -2.95745842e-02  2.82361750e-02 -9.13474336e-03
  -8.91151279e-02 -5.66994883e-02 -4.19857353e-02  2.31300339e-01
  -7.73890093e-02 -7.38746151e-02  1.20317295e-01  5.41846901e-02
   5.00943214e-02 -1.31832212e-01 -4.49996814e-02 -1.17720544e-01
  -7.44358003e-02  3.01008373e-01  1.76011354e-01 -1.84183493e-01
   4.01375771e-01 -2.18623094e-02 -3.02205458e-02 -1.30016327e-01
  -4.40250617e-03 -7.26767898e-01 -1.72456563e-01 -6.33317977e-02
   3.28291506e-02 -6.56782091e-02 -1.78428188e-01 -2.33204216e-01
   3.16969082e-02 -2.51254797e-01  3.98252569e-02  7.12019727e-02
   3.70297162e-03  4.60288003e-02  2.94301696e-02  9.24205929e-02
  -1.23024866e-01 -1.45424873e-01 -6.41047210e-02 -2.12960169e-01
  -1.29179537e-01 -1.11806639e-01 -2.71376297e-02  1.19563928e-02
   6.13541044e-02 -2.57401884e-01 -4.77936827e-02 -1.28994212e-01
  -2.65597194e-01  5.25799841e-02 -1.43591225e-01 -4.84252535e-02
  -2.73682829e-02 -1.51895657e-02 -1.68120533e-01 -9.00341012e-03
  -4.63854522e-01  1.06198691e-01 -2.56038625e-02 -5.01968898e-03
   5.07104620e-02 -7.51290470e-02  5.57393432e-02 -5.99449836e-02
   8.26418549e-02 -1.48692340e-01 -6.34509698e-02 -8.20695907e-02
   1.53093025e-01 -1.63310301e-02  8.71578883e-03  5.96272051e-02
  -9.70577821e-02 -5.26858978e-02  3.04051936e-01 -3.19454074e-02
  -9.35620740e-02 -2.10226744e-01  6.58678636e-02  3.36894691e-01
  -1.11576609e-01 -3.75890851e-01 -1.73292264e-01  2.66512875e-02
   1.03810810e-01  4.40419884e-03  4.20017205e-02 -1.48419395e-01
  -3.29137832e-01  6.59294054e-02 -3.66496742e-02  6.21321029e-04
  -5.67742996e-02  1.82857767e-01  1.94123257e-02  2.29780257e-01
   1.88322142e-01 -9.90892649e-02  4.91416901e-02  3.05564612e-01
  -1.93514787e-02 -1.62136510e-01 -2.29830369e-02  8.26009139e-02
   1.33997609e-03 -1.85560621e-02  1.41866401e-01 -4.36963663e-02
  -4.41575795e-02  1.53289154e-01  2.80322820e-01 -7.05139115e-02]
 [-4.90572527e-02  1.13651389e-02 -6.25926852e-02 -7.63529167e-02
   4.13474813e-02 -6.05508424e-02  7.56903812e-02 -1.24653578e-02
   1.13012940e-02  2.17285194e-02  2.48700425e-01  2.27577556e-02
   1.43901655e-03 -1.69202760e-01 -2.75049079e-03 -1.35807674e-02
  -1.00794416e-02  1.47824623e-02  5.91079099e-03  1.85365900e-01
  -3.91946547e-02 -7.98621699e-02  5.83906807e-02 -2.65589524e-02
  -4.68611158e-02 -1.07004724e-01  3.36478651e-02  5.04668988e-02
  -2.89493892e-02 -2.98711956e-01 -8.30648243e-02  1.11405455e-01
  -7.78848492e-03 -1.90664798e-01 -5.11537902e-02 -3.66286226e-02
  -3.06017995e-01 -7.80965318e-04  1.37366891e-01 -4.18651626e-02
  -2.15250552e-01  5.73242344e-02  1.95591554e-01  1.21846713e-01
   6.58005290e-03 -9.58804041e-02 -3.93913351e-02 -2.78648138e-01
  -4.00290042e-02 -1.27784640e-01  7.45708402e-03 -3.57116060e-03
   9.79920104e-02  4.21512648e-02 -1.07308524e-02  1.33962363e-01
  -3.51989806e-01 -1.00680418e-01  1.16868325e-01 -2.49757920e-03
   4.87138191e-03  1.20318219e-01  5.14683835e-02  2.87663460e-01
   1.70881897e-02 -1.49399057e-01  5.88206761e-03 -2.45638564e-02
   5.68348961e-03 -7.91747794e-02  4.51672822e-02 -1.06108952e-02
   6.67729080e-02  2.08962169e-02 -3.67177911e-02  3.30693573e-02
  -4.94791456e-02  1.55522665e-02  1.05892234e-01 -5.03632911e-02
  -7.06917569e-02  1.18042536e-01 -2.25002021e-02  2.07411312e-02
  -1.27561718e-01 -2.13135779e-02  2.88314987e-02 -1.35423064e-01
   6.61379993e-02 -1.43243978e-02  6.75376579e-02 -5.06919846e-02
   1.13926470e-01 -1.57493219e-01  3.09348982e-02 -1.93485767e-02
  -3.95168960e-02  3.80030908e-02  1.06054649e-01 -1.29043639e-01
  -1.46938950e-01  2.29461789e-01 -5.19191474e-02  6.13951050e-02
   1.29612051e-02  3.80296749e-03  1.09460624e-02  2.60835271e-02
  -5.67888245e-02 -1.83420032e-01 -2.32357457e-02 -5.85698187e-02
   1.21948771e-01  5.98271564e-02  2.25655343e-02 -2.72146672e-01
   3.40366587e-02 -6.88393041e-02 -3.83837856e-02  1.09576978e-01
  -2.67043263e-01  5.34459278e-02 -1.19054966e-01 -3.89750227e-02
   8.49903282e-03  8.73422474e-02 -9.97711048e-02  8.22161213e-02]
 [-3.34205031e-02 -4.09018248e-02 -2.10802350e-02  5.00095859e-02
  -5.18278889e-02 -2.83079948e-02 -9.40602645e-02  1.22179296e-02
  -1.42084241e-01  3.74306366e-02  2.45749727e-01 -2.53252946e-02
   1.66577939e-02 -1.67624846e-01  4.41394886e-03 -3.62590291e-02
   1.43205945e-03  2.70055700e-02 -3.20747308e-02 -6.33885562e-02
  -9.72933248e-02  2.72873743e-03  2.27739975e-01 -5.27529754e-02
  -1.67635873e-01 -1.08329177e-01 -2.60390155e-03 -9.70686674e-02
  -8.58477317e-03  1.14984974e-01 -1.29736373e-02 -2.49796808e-01
  -5.65678347e-03 -2.91596711e-01 -3.30910414e-01 -4.12288718e-02
   5.93872815e-02 -8.55179206e-02 -1.91243231e-01  3.19480672e-02
   2.45135039e-01 -6.60533085e-02 -4.70624082e-02  4.21336256e-02
  -8.31655879e-03 -4.10203636e-02 -3.79711241e-02  7.71641508e-02
  -1.89325456e-02  9.01014656e-02 -5.19003905e-02 -1.78327233e-01
  -3.61261778e-02 -3.20419334e-02 -4.27808724e-02 -2.12834343e-01
  -3.94508466e-02  3.79176810e-02 -1.21578470e-01  4.05693939e-03
   8.60846788e-02  1.76901966e-01  2.45982736e-01  2.39598423e-01
  -5.35941646e-02  1.00464940e-01  2.15082631e-01  1.39722884e-01
  -2.85844523e-02  1.37165254e-02 -1.84354801e-02 -5.85623085e-02
   1.00332260e-01 -1.47971481e-01  2.24184766e-01 -2.55048129e-04
   2.28661466e-02  5.83471209e-02 -2.78486386e-02 -1.44792153e-02
   3.72544304e-02  3.43376398e-02 -3.44390646e-02 -7.31506646e-02
   8.45699161e-02 -7.61368275e-02  4.02991986e-03 -2.49376483e-02
  -3.32829356e-02  3.51292863e-02 -5.25439940e-02 -3.29838768e-02
  -2.94499189e-01 -1.84653103e-01 -1.67049438e-01 -1.27245262e-01
  -1.24677224e-02  2.10843552e-02  5.42288236e-02 -1.32994100e-01
  -3.85059342e-02 -9.15165469e-02  9.82852429e-02 -8.84760469e-02
  -2.73895085e-01 -3.64985019e-01  7.95379747e-04 -6.66795969e-02
   3.79103497e-02 -1.88931853e-01  4.30398732e-02 -3.00536096e-01
  -1.70747504e-01 -3.50489765e-02 -4.46419418e-02 -4.72516656e-01
  -4.14712401e-03 -6.44982532e-02  1.39504587e-02 -2.58407801e-01
  -5.35963885e-02 -6.07994795e-02  3.80150899e-02  5.77959232e-02
  -3.35484110e-02 -2.54770637e-01 -1.14511721e-01 -3.44269746e-03]
 [-1.73271988e-02  4.77640107e-02 -1.24788303e-02  1.55382127e-01
  -2.58336384e-02 -2.16378290e-02 -9.82247386e-03  4.28304635e-02
  -4.71607856e-02 -1.58630889e-02  1.59145340e-01  1.05557898e-02
   1.97738372e-02 -1.97069466e-01  4.98577878e-02 -6.07543625e-02
  -9.57695693e-02 -1.54282404e-02  1.57695860e-02 -3.09509076e-02
  -1.39340624e-01 -1.81270540e-01 -2.15229005e-01 -1.80654880e-02
  -2.34879255e-02  1.96514711e-01 -5.45659252e-02  1.42143041e-01
  -9.71787726e-04 -3.24239163e-03 -2.73549765e-01  1.58493355e-01
   9.54766124e-02  8.06933194e-02  7.04891533e-02 -3.39475237e-02
  -1.43462479e-01  1.78138956e-01  3.19673598e-01 -3.33286263e-02
  -1.19060151e-01  4.65925969e-02 -1.96183458e-01 -9.58131850e-02
   3.21786441e-02  7.54016563e-02 -1.81950070e-02 -4.59258407e-01
   9.28773917e-03  1.20670898e-02 -3.24805915e-01 -4.28981662e-01
   3.95668857e-02  2.34280840e-01 -9.12387390e-03 -1.45752147e-01
  -8.89289677e-02 -2.80889124e-02  3.60339016e-01  6.49922574e-03
  -1.22557627e-02 -1.00413203e-01  1.40569448e-01 -1.68227911e-01
  -2.21120343e-02 -2.02769279e-01 -2.35709175e-01 -4.38236818e-02
  -4.71381396e-02 -7.51390308e-02 -1.79888949e-01  4.72409725e-02
   1.14149593e-01 -1.81090385e-01 -1.94539025e-01 -4.00363952e-02
   3.20524611e-02 -4.34238352e-02 -1.17507301e-01 -3.56849446e-03
  -3.70702147e-02 -1.01160891e-01  1.78808291e-02 -6.89934418e-02
   7.25168958e-02  1.24011599e-02 -3.94138619e-02  1.16986141e-01
   6.79045450e-03 -5.55625223e-02  1.45711824e-01 -4.11306210e-02
   4.32166085e-02  9.74153429e-02 -1.27296880e-01 -1.50148436e-01
   6.42148331e-02 -2.29447022e-01  1.78545028e-01 -1.19143508e-01
  -1.76231593e-01  1.26983926e-01 -2.17185691e-01  9.75948200e-02
   6.65855482e-02 -6.49153665e-02 -1.06488444e-01  1.20567847e-02
  -2.69588344e-02 -6.00428768e-02 -1.22639067e-01 -1.65583834e-01
  -2.43530013e-02  6.11570925e-02  1.59337781e-02 -1.04353037e-02
   1.55232893e-02  3.67783681e-02  1.73499826e-02  1.36088938e-01
  -1.79481715e-01  3.56231183e-02 -1.89405113e-01  3.58753540e-02
  -4.40633595e-02  2.06854030e-01  3.85633379e-01  6.63936734e-02]
 [-4.07209210e-02 -8.27908218e-02 -5.46979643e-02  1.05773360e-01
  -1.90410130e-02 -1.97163329e-01 -2.96981514e-01  4.41329747e-01
  -9.04033855e-02 -1.33855653e-03 -8.46174136e-02  2.14762259e-02
  -1.56731028e-02  8.56442675e-02 -5.82266860e-02  1.58272758e-02
  -4.68806876e-03 -4.93388809e-02  4.46658991e-02 -3.46784979e-01
  -1.51375597e-02 -1.49387512e-02 -9.51339304e-02 -3.82547155e-02
   1.57805365e-02  1.64202377e-01 -5.67401536e-02  2.57797450e-01
   3.65057476e-02 -6.19058385e-02 -3.16077727e-03  1.35652065e-01
  -1.51090370e-02  1.26611739e-01  1.33743733e-01  9.54592824e-02
   5.88138774e-02  1.95734009e-01 -3.36340219e-01 -6.07154220e-02
   1.85901552e-01 -7.12847756e-03 -2.67694239e-02 -1.66506052e-01
  -2.22472083e-02  7.46969357e-02 -9.82339606e-02 -2.80816078e-01
  -3.99002880e-02 -1.06143579e-01 -2.35498007e-02 -9.08490941e-02
   9.80633572e-02 -2.92905830e-02  7.79388100e-02  1.87891677e-01
   1.89267173e-01 -4.01422158e-02  5.78681100e-03  7.21900985e-02
  -2.30675042e-01  4.28954959e-01  4.98775750e-01  5.15901558e-02
  -7.33900145e-02  1.68237776e-01  4.60144907e-01 -5.40919509e-03
  -4.39830422e-02 -6.22398965e-02  3.83428559e-02 -4.17810678e-02
  -3.24201435e-01 -1.00026362e-01 -2.71619380e-01  2.02597883e-02
   5.96272526e-03  6.70378562e-03 -9.24207270e-02 -5.90916863e-03
   1.82297751e-02 -7.20994174e-02  9.06552002e-03 -4.89721540e-04
  -4.47881930e-02  2.43565310e-02  2.04168223e-02 -7.39321485e-02
  -7.06647485e-02 -6.59551471e-02  1.18800350e-01 -2.95642260e-02
  -3.93767923e-01  1.20441116e-01  1.67852119e-01 -2.75341570e-02
   8.16230997e-02  2.89670527e-01  1.97438315e-01  1.88475028e-01
   4.98166941e-02 -1.83499813e-01  8.82281829e-03  3.73028554e-02
   3.53711843e-01  1.43137425e-01  7.82257915e-02 -5.53174280e-02
  -3.24490294e-02 -4.27217514e-04 -8.06663483e-02  5.64221777e-02
   3.15416843e-01  1.08161397e-01 -5.28522171e-02  1.91916019e-01
  -2.28621252e-02  9.65992641e-03 -4.65010777e-02 -2.31628731e-01
  -8.71687308e-02  1.43031701e-02  2.27790266e-01 -6.40021488e-02
   9.58435517e-03 -5.99900782e-01 -1.57388002e-01 -8.39720014e-04]
 [ 2.64349431e-02  4.37277108e-02  2.36110911e-02  1.80646032e-01
   3.08489166e-02 -1.93148360e-01 -1.38564855e-01 -2.21050963e-01
  -5.92560917e-02  2.73397323e-02  1.13338046e-01  1.93205336e-03
   7.56767113e-03  3.26903462e-01 -6.30586371e-02 -5.46283983e-02
  -4.37676571e-02  4.97589670e-02 -3.50069590e-02  1.42497584e-01
   1.43828407e-01 -1.03413939e-01 -3.35305333e-02 -1.62030931e-03
  -6.78000599e-02 -1.28726915e-01 -2.21351385e-02 -1.15359902e-01
   1.51474131e-02  1.23453252e-01 -2.53297806e-01 -7.12924153e-02
  -1.71693385e-01  1.42211959e-01  1.45829648e-01  7.16386065e-02
   2.34399542e-01 -1.68259248e-01  2.22307578e-01 -3.08359321e-02
  -6.83629736e-02 -3.95944752e-02  2.49529686e-02  7.86134750e-02
   2.19142046e-02 -6.20299503e-02  4.82929987e-04 -1.97801068e-01
   3.95751446e-02 -8.63696039e-02 -1.57509357e-01 -1.35913536e-01
   9.17686224e-02  4.24863100e-02  7.61013245e-03  1.54821193e-02
  -1.22989520e-01  6.36323467e-02 -1.25822961e-01  4.83342819e-02
  -7.71689788e-02 -7.82033056e-02 -1.71647623e-01  6.58382252e-02
   5.15970737e-02 -1.52871430e-01 -1.66027412e-01  3.68427575e-01
  -3.40205356e-02  1.12930778e-02 -1.72216743e-01  5.99988885e-02
   2.10831940e-01  2.16772005e-01 -5.81507990e-03 -6.49040267e-02
  -2.82821171e-02  3.80342789e-02  1.68095250e-02 -6.38038367e-02
   7.08642378e-02 -4.80558351e-02  2.82843485e-02 -3.64192463e-02
  -2.70534884e-02 -2.34102756e-02 -7.80291529e-03 -5.86331403e-03
   1.48050990e-02 -4.20898348e-02 -5.10664545e-02  6.37446120e-02
   5.19383661e-02 -1.69380471e-01 -2.85913348e-01 -7.07815960e-02
  -5.07915057e-02 -1.12326883e-01  7.37657920e-02 -1.13013787e-02
   2.00308561e-01  1.63158346e-02 -1.45270064e-01  4.27258819e-01
  -9.62464809e-02 -5.47144562e-03  4.26787250e-02 -5.46049178e-02
   4.85003106e-02 -3.32804978e-01 -3.18224356e-02  4.49502468e-03
   3.48921493e-02 -4.33778550e-05 -4.80197072e-02  8.02225694e-02
   2.72994898e-02 -7.50485659e-02 -6.00284897e-02  6.60935342e-02
  -4.30886567e-01  9.53688473e-03 -6.16368167e-02  1.87656898e-02
   4.95555019e-03 -5.96170388e-02 -1.96538180e-01 -1.09897576e-01]
 [-5.78680374e-02 -5.06565347e-02 -2.21044617e-03  3.13590407e-01
   4.42306278e-03 -8.10078159e-02 -1.20544492e-03  6.44578189e-02
  -6.84708357e-02 -7.05526676e-03 -9.30105615e-03  1.85816847e-02
  -7.38835931e-02 -1.45090334e-02  3.72663210e-03 -4.35660407e-02
  -9.64977518e-02 -2.14431211e-02  5.94683327e-02  1.39599994e-01
  -1.86223090e-01  9.36901756e-03  2.93149471e-01  8.39923136e-03
   3.04245185e-02 -1.15508996e-01 -1.37446187e-02 -1.31881669e-01
  -1.89269613e-02 -1.65373102e-01  2.01658815e-01  8.72706771e-02
   9.09982622e-02  2.36971304e-01 -3.57188880e-02  6.43349886e-02
   2.40187496e-02 -4.21450615e-01 -3.49568009e-01  4.40361127e-02
   7.78025016e-02 -2.25859769e-02 -2.90138811e-01 -5.63004315e-02
   7.31217815e-03 -2.46344544e-02 -6.33446276e-02  1.11163363e-01
   4.76357527e-02 -1.63913220e-01 -4.00459506e-02 -1.83751881e-02
  -2.35856667e-01  1.17027352e-03 -7.98004791e-02 -2.58544177e-01
   2.05495119e-01 -7.23677501e-02 -2.40591671e-02  4.67952937e-02
   5.09798247e-03  2.04412211e-02 -7.18808919e-02 -9.19302776e-02
  -1.44563958e-01  7.41582289e-02  2.44197160e-01  3.03074121e-02
  -8.74210075e-02 -2.41309348e-02  4.26058210e-02 -2.56190393e-02
  -2.50093937e-01 -2.33277515e-01 -3.15536303e-03 -3.43026146e-02
  -6.21512830e-02 -9.47201177e-02  1.04123801e-02 -7.98757449e-02
  -3.12519036e-02  3.49176712e-02 -1.83089578e-04 -1.45209907e-02
  -1.90417795e-03 -9.06187147e-02  3.40134371e-03 -3.51491123e-02
  -7.56634474e-02 -4.07123454e-02  1.83739692e-01 -6.68208301e-02
   1.30037777e-02 -2.55842745e-01  1.09121427e-01  1.55219689e-01
  -1.78860560e-01 -1.18135452e-01  2.64221206e-02  2.00402707e-01
   1.59853831e-01 -1.76659226e-01  1.22333842e-03 -1.00263156e-01
  -1.80917326e-02 -8.82410333e-02 -1.45953476e-01  2.08788048e-02
   7.86916539e-03 -4.55861241e-02 -8.35896730e-02  4.01874632e-01
  -6.63701296e-02 -2.69030392e-01  2.87371147e-02  1.56420350e-01
   4.37243842e-02  1.45811751e-01 -2.31200792e-02 -6.43444955e-02
   4.24954183e-02 -1.34559544e-02 -1.97401233e-02 -4.14240621e-02
   2.62876390e-03 -2.41071433e-01  1.28083184e-01 -3.43721695e-02]
 [-7.72455782e-02 -9.70656238e-03 -2.50972193e-02  7.48402774e-02
  -1.56218922e-02 -2.77757049e-02  1.71694949e-01 -8.16057473e-02
  -1.74158081e-01  1.33542335e-02  2.62699097e-01  2.08702926e-02
   1.68637913e-02 -5.42424284e-02 -4.15773690e-02  5.55896014e-03
  -2.58467607e-02 -5.93239851e-02  2.95797400e-02  2.29397744e-01
  -4.64827679e-02 -2.93033780e-03  9.28299800e-02  8.07884708e-03
   1.21924449e-02 -1.74965709e-01 -3.04470658e-02  2.82305316e-03
  -5.93144484e-02 -9.94804315e-03 -2.50162810e-01  3.85808498e-02
   1.79701209e-01  3.33948731e-02 -2.56761163e-01  1.03141807e-01
  -2.04516336e-01  1.61296546e-01  2.06728593e-01  3.46157253e-02
  -1.70088500e-01 -3.12900753e-03  1.66521803e-01  2.29336858e-01
  -6.25133812e-02 -1.05797440e-01 -2.51141912e-03 -3.12286347e-01
   3.77731398e-02  9.86139569e-03  1.11807838e-01 -6.45458400e-02
   1.54497862e-01  4.98245135e-02 -5.98314079e-03  1.73471868e-01
  -1.10648438e-01 -5.76900765e-02  1.76150098e-01 -8.59021321e-02
  -6.98624849e-02  1.79935858e-01  1.10561363e-01  2.41162881e-01
  -6.04468733e-02  8.00270662e-02 -2.88746674e-02 -5.16557284e-02
   5.35374274e-04 -3.84853035e-02 -1.12695349e-02 -1.75496526e-02
   7.67544806e-02  8.15264359e-02 -4.56907414e-02  2.02001594e-02
  -3.94168869e-02 -1.68266036e-02  6.96479063e-03 -5.64317703e-02
  -4.78860140e-02 -8.28549042e-02  9.60171781e-03 -5.03454804e-02
  -5.40779419e-02 -8.44292194e-02  3.20396759e-02 -2.43953273e-01
   2.30923649e-02  8.73986818e-03  3.19916708e-03  8.03527597e-04
   2.02331673e-02 -1.84747070e-01 -2.21824348e-02 -4.54152413e-02
  -5.15261032e-02  2.11102273e-02  1.36868854e-03  2.14812644e-02
   3.37465340e-03  9.89379361e-02 -3.40080038e-02  1.52989849e-01
  -1.87668968e-02 -2.12475862e-02  7.62455314e-02  4.02460061e-02
  -1.37819545e-02 -9.76029485e-02  7.19966590e-02 -5.25813028e-02
   1.74523383e-01  1.75201386e-01 -1.62178054e-02 -4.16416287e-01
  -2.08305661e-02 -4.22512554e-02 -6.33657426e-02  1.23086020e-01
  -2.88588643e-01 -5.91497347e-02 -1.29196972e-01 -3.27648818e-02
  -1.71532258e-02  7.09965453e-02 -1.04427084e-01  1.35046512e-01]
 [-2.43928097e-02 -4.55914140e-02  3.43244001e-02  2.51946389e-03
  -1.65820271e-02  3.61485556e-02 -1.29790872e-01 -1.77350566e-01
  -1.59462199e-01 -2.68228306e-03  2.28630990e-01 -2.01848894e-02
  -3.48046720e-02 -2.04157948e-01 -2.31569763e-02  3.88454013e-02
  -6.29367158e-02 -2.48377975e-02  2.81289723e-02  4.29846114e-06
  -4.31816541e-02  7.97520280e-02 -2.32234504e-02 -1.22634275e-02
  -4.00384665e-02 -6.02785200e-02 -7.97413290e-02 -1.98034316e-01
  -4.43565138e-02 -2.35328693e-02  3.39173257e-01 -1.05251960e-01
   5.24839275e-02 -3.15257072e-01 -1.50120184e-01 -9.10951570e-02
   1.95094384e-02  1.17629217e-02 -7.87626877e-02 -5.78190386e-02
   4.59592266e-04 -4.40129265e-03 -1.20220222e-01  5.47221936e-02
   2.25554798e-02 -9.53528285e-02  8.06947704e-03  6.51573688e-02
  -5.32176755e-02  2.18338326e-01 -4.54478748e-02 -1.03552587e-01
   5.69663532e-02 -1.87523097e-01  2.92621423e-02  8.84326175e-03
   1.46946907e-02 -7.81737715e-02  4.79844511e-02 -4.57016155e-02
   1.92405991e-02  4.37441878e-02  2.08741441e-01  3.03997517e-01
  -2.79707581e-01  2.89438695e-01  8.83869976e-02  2.78754383e-01
  -2.61451397e-02 -6.59392625e-02  1.87178791e-01 -3.36028002e-02
  -7.38013834e-02  1.10935874e-01 -7.03007504e-02 -3.21676359e-02
  -5.95205687e-02 -3.39374468e-02  8.93064141e-02 -4.45897551e-03
  -1.89441815e-02 -2.24502131e-01  4.67795022e-02 -7.01178377e-03
  -1.51027843e-01  1.72834415e-02 -4.12409455e-02  2.33427472e-02
  -2.89676506e-02 -3.36758792e-02 -8.36003348e-02 -4.35869955e-02
  -7.77296796e-02 -4.03553322e-02 -1.11562930e-01 -3.25177144e-03
   1.46789581e-01 -8.07524845e-02 -9.85190123e-02 -2.07782373e-01
   2.09138077e-02 -5.91802411e-02 -2.43753031e-01 -2.95246750e-01
  -3.57979596e-01 -2.50943154e-01 -1.37902379e-01 -2.95244288e-02
   6.61025271e-02 -3.93812470e-02  3.97011749e-02 -2.44801134e-01
   1.02818973e-01 -4.90452386e-02 -1.83943007e-02 -1.48899198e-01
  -1.73759181e-02 -1.02013089e-01 -1.94966719e-02 -7.85276815e-02
   4.65945117e-02 -7.21615972e-03  1.26635119e-01 -1.35521609e-02
  -3.25255096e-02 -1.67368934e-01 -1.41695514e-01 -9.67427529e-03]
 [ 1.50712794e-02 -5.78535721e-04 -5.78122586e-02  2.00056970e-01
   1.49686281e-02  3.13596986e-02  2.89213099e-03  5.91565296e-03
  -1.53336033e-01 -1.66230462e-02  2.83814102e-01  8.25519860e-03
  -1.69426370e-02  6.45175129e-02 -4.60116938e-02 -3.10710855e-02
  -5.61440550e-03  2.57377867e-02 -3.18706781e-02 -1.64338380e-01
  -8.80187973e-02  5.80705255e-02 -3.22231054e-01  2.65753735e-02
   8.06973502e-02  1.44625515e-01  2.28565540e-02  1.40524223e-01
   3.25106233e-02  1.53073017e-02 -2.25649178e-02  1.08513767e-02
   1.99695051e-01 -1.35344043e-01 -8.25410932e-02  2.81526387e-01
   1.73070848e-01  4.48985487e-01 -1.40905604e-01 -1.24739036e-02
  -2.75453269e-01 -3.13919783e-02  4.62823622e-02  5.51181920e-02
  -5.28505370e-02 -7.44275153e-02 -1.06931560e-01 -2.08000615e-01
  -6.90687001e-02  1.18203036e-01 -2.36594304e-01  1.09488532e-01
   3.24619263e-01  3.42822611e-01 -9.04266536e-02 -4.76657823e-02
   4.43549380e-02  4.66235355e-02  3.75381373e-02 -5.38233370e-02
   2.96668142e-01  9.62307602e-02  3.20326388e-01  1.30444825e-01
   2.06063408e-02  2.50396222e-01 -1.04383625e-01  7.21820891e-02
   3.86856198e-02  4.51465175e-02  1.18368238e-01 -3.92589755e-02
  -2.52476275e-01 -2.42677525e-01 -3.61277163e-01  4.49446663e-02
  -5.62948026e-02  7.17315311e-03  1.47793218e-01 -8.26237276e-02
  -3.50041389e-02 -8.34195875e-03 -3.79243307e-03 -8.91505405e-02
  -8.12468901e-02 -8.16573203e-03  1.46190757e-02 -3.61246290e-03
   1.91499330e-02  2.76483763e-02 -2.47514501e-01 -3.61297932e-03
   1.97569340e-01  2.37237941e-02 -3.33889812e-01  6.43285066e-02
  -1.01300687e-01  1.79555520e-01 -6.71125203e-02  1.22599326e-01
  -1.94938719e-01 -8.42688456e-02  1.31059855e-01 -8.46596882e-02
   2.52035409e-01  1.85749158e-01  1.24060459e-01 -1.22910514e-02
   1.07375849e-02  3.97559032e-02 -1.53065100e-01 -4.56401967e-02
   1.54901683e-01  1.03463724e-01  1.72412936e-02  9.25736949e-02
   1.03611657e-02  6.39026910e-02  3.78513969e-02  2.34746002e-02
  -1.72670051e-01 -7.91189969e-02 -2.06705198e-01 -5.27609251e-02
  -2.05312241e-02  1.23881258e-01 -1.89272761e-01 -9.17476118e-02]
 [-2.58229319e-02  5.08883176e-03  2.11383533e-02 -1.06112972e-01
   2.21025888e-02 -7.20603764e-02 -4.25081819e-01  2.16435283e-01
   3.51025462e-02  2.78580841e-02  1.94728330e-01  1.51282754e-02
  -6.46783933e-02 -5.44224307e-02  1.71692856e-02 -6.58102427e-03
  -5.24806790e-02 -5.21462634e-02 -3.77680883e-02 -8.63451734e-02
   2.30231695e-02 -9.11897421e-02 -9.73241869e-03 -4.44178842e-03
  -4.68880730e-03  5.83237782e-02 -3.11975144e-02  3.89993042e-01
   6.25338033e-03  3.92619558e-02 -8.06655549e-03  2.94337887e-02
  -2.67047621e-02  5.10043092e-02  2.06262425e-01 -1.24309972e-01
   2.35500634e-02 -2.48561531e-01 -3.24251026e-01  1.24136191e-02
   4.86265540e-01  1.28070703e-02  3.72815579e-02 -2.24791974e-01
  -4.43475097e-02 -2.77730554e-01 -1.10903591e-01 -1.51246592e-01
  -1.67267397e-03 -1.94553077e-01 -3.21544856e-01 -3.49454880e-01
  -4.49941074e-03  2.52240777e-01 -4.37768102e-02 -2.17472702e-01
  -2.22792048e-02 -4.07723896e-02  7.54887015e-02  1.34187862e-02
  -2.11176813e-01  3.32299262e-01 -8.26916751e-03  1.24533027e-01
  -3.50707769e-02 -5.38492613e-02  3.05293590e-01  6.33438677e-02
   4.55759950e-02  1.09887291e-02 -4.26135063e-02  8.95542186e-03
  -3.48987877e-01  3.66179317e-01 -1.43766463e-01 -5.01444787e-02
  -1.34317297e-02  1.95984785e-02 -8.60175714e-02 -3.11411656e-02
  -7.03801885e-02  5.04554398e-02 -3.70123759e-02 -1.16993245e-02
   6.25829250e-02 -2.34991554e-02 -5.16780913e-02  9.14490223e-02
   4.94629703e-03 -5.32366931e-02  9.07394215e-02 -4.12110388e-02
  -2.11511567e-01 -1.32485718e-01  8.40955880e-03  1.51088506e-01
   2.39123195e-01  1.95888653e-01  7.98720941e-02 -2.57532373e-02
  -2.71871295e-02 -3.98876658e-03 -6.27612844e-02 -4.24607694e-02
   1.39006317e-01 -3.26112926e-01  2.79235601e-01  4.09214869e-02
  -4.86623272e-02  6.42455295e-02 -1.29503518e-01  1.13641225e-01
   2.42361784e-01  7.46706352e-02 -4.21479158e-02  1.41154543e-01
  -6.46378193e-03  9.11599025e-02 -1.46762421e-02 -1.58779234e-01
  -1.33706465e-01  4.13577585e-03 -2.44489376e-04 -6.52671084e-02
  -4.81206402e-02 -3.23511064e-01 -2.47971430e-01 -1.04938887e-01]
 [-4.34142277e-02 -3.50315645e-02  5.30554429e-02 -2.95205444e-01
  -2.77034529e-02  5.05858846e-02 -1.89186350e-01  9.52102244e-02
  -1.17800340e-01 -4.36387546e-02  7.50863133e-03  1.61957312e-02
  -2.99770851e-02  1.38941959e-01  1.90109629e-02 -5.59819154e-02
   9.46286973e-03 -4.13790941e-02 -3.43457125e-02 -5.36268577e-02
   2.33090595e-05 -9.05426666e-02  1.58609990e-02 -3.18061709e-02
  -1.49144176e-02  9.39890742e-02 -5.91153465e-02 -3.25895071e-01
  -5.68675213e-02  1.13599867e-01 -5.55429399e-01 -1.37026757e-01
   7.89497197e-02  1.21039212e-01  1.31838873e-01 -3.15895170e-01
  -2.40911618e-02 -1.67057514e-02  1.37679726e-01  2.33057793e-02
  -4.41270024e-01  3.52768861e-02  3.73720154e-02  4.39259633e-02
  -4.63636890e-02 -3.60631421e-02 -8.75925943e-02 -2.12950364e-01
  -4.01110053e-02 -8.45991820e-02 -6.29947633e-02 -1.02430582e-01
   1.11410163e-01  4.88220081e-02 -9.13783386e-02 -6.76370040e-02
  -3.58822122e-02  7.32121393e-02 -1.35301039e-01  7.68139064e-02
   1.80521220e-01 -2.79139668e-01  1.12634607e-01 -8.52499902e-02
  -4.49941568e-02  3.65362167e-02  3.53907011e-02  2.24954724e-01
   5.71590997e-02 -1.70947611e-02  1.81153402e-01  8.95928126e-03
   2.88495719e-01  2.05109611e-01 -1.66939735e-01 -3.23016904e-02
   7.71795213e-03  5.55712916e-02  1.16490997e-01  9.36787669e-03
  -1.91192696e-04 -1.58336565e-01  4.19048294e-02 -4.95326892e-02
  -2.40347892e-01  3.81823815e-02 -3.98207344e-02 -1.34609761e-02
  -5.49494624e-02 -7.45219812e-02 -1.94179028e-01  4.95468490e-02
  -6.96218163e-02  8.83999541e-02 -1.40205607e-01 -7.16933189e-03
  -1.57794490e-01 -2.27678329e-01  7.61263594e-02 -3.41774076e-01
   5.64938523e-02 -9.02780071e-02  2.07937196e-01  2.01410264e-01
  -7.93758314e-03  5.06578982e-02 -5.15314452e-02 -3.02388780e-02
  -2.99252733e-03 -2.14074217e-02 -8.53070989e-02  2.90722907e-01
   2.42831096e-01  1.95923597e-01  6.54044822e-02  1.86039116e-02
  -7.86479786e-02 -8.09930712e-02  6.06170576e-03 -7.89526943e-03
   8.56040493e-02  3.10051325e-03 -2.28878241e-02 -5.94863780e-02
   3.29744257e-02  1.23027645e-01 -5.03795259e-02 -3.82242836e-02]
 [-5.10017527e-03 -5.99121265e-02 -6.52264804e-03  5.04572876e-02
  -7.37575069e-02  9.59489569e-02 -2.74950475e-01  1.55273199e-01
   1.07798465e-01  1.52545888e-03 -7.48105198e-02 -3.61631773e-02
  -9.17640999e-02  1.98718786e-01  2.32640598e-02 -3.98135073e-02
  -3.07805520e-02  3.65458103e-03  5.62240519e-02  2.58184820e-01
  -1.08602248e-01 -6.54586554e-02 -2.01932229e-02  3.18749957e-02
   9.11595449e-02 -1.21845789e-01 -3.71652166e-03  8.52902606e-03
  -3.84808704e-02  1.36623800e-01 -3.97526547e-02  2.00636223e-01
  -7.08848089e-02  1.00345768e-01  3.36088687e-01  3.40727977e-02
   1.01166196e-01 -4.83933985e-01  1.86963249e-02 -2.55070496e-02
   3.31725508e-01 -2.32227650e-02  9.70177818e-03 -2.16101676e-01
  -3.97014208e-02 -1.52143657e-01 -7.22794747e-03 -2.41143748e-01
   3.10526416e-02 -3.36024493e-01 -2.11283267e-01 -1.74038410e-01
  -2.22077504e-01 -7.62882084e-02  2.48173308e-02 -1.48626745e-01
   7.99474418e-02 -4.60878350e-02 -5.47222435e-01 -2.01617088e-02
  -2.10490525e-02  3.46297286e-02  2.57896125e-01 -2.46703327e-01
  -1.02067538e-01  1.05128184e-01  2.67762393e-01  2.69557405e-02
  -1.65837388e-02 -2.85840947e-02 -7.29850456e-02 -5.29681556e-02
  -6.09917462e-01 -2.75317341e-01 -1.24606162e-01 -1.85667176e-03
  -3.63979265e-02 -1.03470691e-01 -8.82903337e-02 -3.28963734e-02
  -2.84730662e-02  4.30772873e-03  3.54112461e-02 -6.21268563e-02
   1.89691737e-01  1.68478303e-02 -1.64558049e-02  1.52188405e-01
   2.24361867e-02  1.29927881e-03  1.45714730e-01  2.95966212e-02
  -3.18681374e-02  5.17402999e-02 -9.25329477e-02 -6.32401556e-02
   1.58110224e-02 -1.68560296e-01 -5.10899983e-02  3.32743935e-02
   2.35722195e-02 -2.19577879e-01 -1.54515341e-01 -1.80395156e-01
   1.43687204e-01  1.17362715e-01  1.30179003e-01 -3.85306850e-02
  -7.58608505e-02  3.99997048e-02 -2.76758764e-02 -7.62571767e-02
  -1.64153829e-01 -1.61253154e-01  1.64649282e-02 -1.67909980e-01
  -3.25620435e-02  5.01390025e-02 -5.87104484e-02 -2.09305793e-01
   5.06347232e-02 -8.45791698e-02 -4.73643571e-01 -5.77741526e-02
  -1.13606090e-02 -3.78397144e-02 -2.24317953e-01 -7.77716637e-02]
 [ 5.57437260e-03 -2.33841012e-03 -1.90589540e-02  2.05770992e-02
   4.92111221e-02  5.36609776e-02  8.30409899e-02 -4.04771045e-02
   1.51727004e-02 -5.77115677e-02  2.21767768e-01  3.27779166e-02
   1.64033640e-02 -1.23281509e-03 -7.75417984e-02 -2.17110850e-03
  -5.36782518e-02  4.24567834e-02 -4.46467511e-02  3.08111519e-01
  -3.05882487e-02  7.77042145e-03  4.49838154e-02 -6.66322410e-02
  -4.50375229e-02 -5.27443066e-02 -1.07766315e-02 -6.87793419e-02
  -2.35501137e-02  1.30891148e-02 -4.10970956e-01 -6.75397515e-02
   2.72964537e-02 -1.79406628e-01 -1.79110572e-01  6.63113175e-03
  -2.20268339e-01  1.25279456e-01  1.05364561e-01  3.30030099e-02
  -1.75964400e-01 -5.84878400e-02  1.77217759e-02  7.86894038e-02
  -2.14934647e-02 -1.76287871e-02 -3.51671875e-02 -3.23050290e-01
  -1.27673848e-02  5.59742413e-02  8.64547640e-02  8.24412704e-02
   4.84360568e-02  1.00753434e-01 -6.22671507e-02 -5.79653820e-03
   5.84294908e-02 -7.83911273e-02  2.11829729e-02 -8.45628679e-02
  -1.19826190e-01  4.75562131e-03  1.15824290e-01  2.18098074e-01
   9.94448215e-02  7.55205425e-03 -2.34052926e-01 -2.42294557e-02
   2.51963623e-02  3.82882339e-04 -1.21111162e-01 -3.16340178e-02
   1.21449027e-02 -1.09369494e-01 -1.12204105e-01  2.83232555e-02
  -5.01157790e-02 -3.59947011e-02  1.08382091e-01 -2.95268334e-02
   9.36125312e-03  2.56756693e-02  9.50470753e-03 -6.75704181e-02
  -3.25668603e-02 -3.55345793e-02 -2.63457112e-02 -9.49913412e-02
   1.03885764e-02 -8.98637157e-03  1.71657093e-02 -4.70907353e-02
   1.19871579e-01 -2.12359294e-01 -5.11111692e-02 -5.39290160e-02
  -1.88913755e-02  3.82589251e-02 -8.25650841e-02  9.31783672e-03
  -1.36706278e-01  9.76806954e-02  1.60286073e-02  3.86872776e-02
  -2.62016952e-02 -1.06363840e-01 -1.02826416e-01 -7.23965187e-03
   3.73180173e-02 -5.52513339e-02 -5.53225651e-02  3.02365180e-02
   1.32304728e-01  1.79274544e-01  8.82793963e-03 -3.11890334e-01
  -4.86922897e-02 -9.57188196e-03 -2.47642826e-02  9.65243205e-02
  -2.82113552e-01  3.41842999e-03 -1.03842326e-01 -1.07495971e-02
  -4.97962832e-02  1.05905227e-01  9.86520499e-02  2.48433575e-02]
 [-4.17243317e-03 -1.17257088e-02  2.94730403e-02 -1.76202599e-02
  -1.49235753e-02  6.66786656e-02 -9.22295749e-02 -7.39227757e-02
   1.54412743e-02 -6.45487532e-02  3.44389193e-02 -4.27900292e-02
  -4.04742099e-02 -3.81222278e-01 -8.61428306e-03 -3.03795785e-02
  -1.04035540e-02  2.57064719e-02  2.70512532e-02  2.07923874e-02
   2.67072283e-02  1.22431159e-01  4.17124629e-02  3.82363498e-02
  -1.28181413e-01 -1.51524946e-01 -5.23963384e-02  1.04812179e-02
  -5.77824898e-02 -7.47712478e-02  1.19787470e-01 -2.54660755e-01
  -8.52431580e-02 -3.24693501e-01 -2.51308769e-01 -8.73840749e-02
   1.06536709e-01  1.22001223e-01 -1.69485629e-01 -2.34770663e-02
  -3.60896513e-02 -4.31380495e-02  2.07417719e-02  1.67621687e-01
  -2.07072422e-02 -7.45397657e-02  4.04959731e-02 -2.76415097e-03
   9.73006804e-03  2.24658534e-01 -1.33344508e-03 -6.79240301e-02
  -1.25107393e-01 -1.45307899e-01 -3.80147733e-02 -2.83551104e-02
   3.07940468e-02 -3.01749948e-02 -1.02080626e-03 -5.17657846e-02
   2.02374943e-02 -1.18908994e-01  6.83111399e-02  2.47394413e-01
  -7.54954666e-02  1.16995849e-01  1.51986673e-01 -1.24236345e-01
   1.42823355e-02 -6.81709349e-02 -5.40413596e-02 -1.40371388e-02
   9.74880066e-03 -3.25260945e-02  1.32046435e-02  1.44995693e-02
  -7.16852024e-02 -5.81470281e-02 -3.61412540e-02  1.07533066e-02
  -1.28309792e-02  4.99773249e-02 -5.33736534e-02 -7.03009591e-02
  -6.50396422e-02 -3.75185441e-03 -5.72537817e-02  1.06091551e-01
  -7.63773769e-02 -3.13900001e-02  1.29433140e-01 -6.72099441e-02
  -1.18956529e-01 -1.82025582e-01  2.73465998e-02  2.36055374e-01
  -5.66519909e-02 -1.24722324e-01 -2.02494100e-01 -2.11289600e-01
   7.66090304e-02 -1.33429170e-02 -9.85682085e-02  7.99669698e-03
  -3.77160102e-01 -3.74600619e-01 -1.85937181e-01 -1.29442168e-02
  -4.12487723e-02 -1.50783733e-01 -8.23393185e-03 -2.28179067e-01
  -8.94721448e-02  7.04291165e-02 -3.04471236e-03 -3.10824603e-01
   1.24744400e-02  5.68309911e-02  5.67075759e-02  1.08976811e-01
   1.41665086e-01  2.64947247e-02  5.72250858e-02  1.91323999e-02
  -2.71577016e-03 -1.20453313e-01 -7.73657635e-02 -1.88954055e-01]
 [-5.84740043e-02 -6.49311841e-02  5.52156800e-03 -2.54990518e-01
  -7.00543597e-02 -6.45232499e-02  1.67653412e-02  5.63304462e-02
   1.18266985e-01 -1.71003174e-02  6.75769672e-02  3.20097944e-03
  -6.78800493e-02 -8.93330351e-02 -5.60549423e-02 -6.68844655e-02
  -5.71306348e-02 -4.18462465e-03 -1.52427312e-02 -6.68525696e-02
   2.28519328e-02 -4.91852984e-02  1.85683332e-02  2.49433611e-02
  -5.73327392e-03  3.27334702e-02 -1.85647588e-02 -2.69410550e-04
   5.53980190e-03 -9.31126550e-02  7.24814236e-02 -2.51596302e-01
   2.08656173e-02 -7.44711459e-02  1.84741974e-01 -9.42661986e-02
   7.48817399e-02  2.86168873e-01  1.55965924e-01  5.09307813e-03
  -4.89188954e-02 -3.74218747e-02 -4.03329700e-01  2.27989212e-01
   5.15527697e-03 -1.68474168e-01 -1.38027510e-02 -4.15110260e-01
   9.55948606e-03 -9.52931494e-02 -1.99981734e-01 -1.55206367e-01
   2.34863877e-01  3.78393859e-01 -2.97611430e-02 -2.11727977e-01
  -1.08226918e-01 -1.57079864e-02 -1.42067879e-01 -2.41113752e-02
  -3.21745098e-01  1.26900941e-01 -5.22516608e-01  4.48785610e-02
  -1.43366093e-02 -1.02195494e-01 -3.06726433e-02  6.31085709e-02
  -1.24073997e-02 -1.04185678e-02  9.69105065e-02  3.59538570e-02
  -2.53096312e-01 -2.91279614e-01 -5.03457598e-02  7.13720359e-03
  -4.52508926e-02 -4.73545566e-02  1.53460085e-01 -7.56460428e-02
   5.86643629e-03  1.95005834e-01 -1.97704835e-03  1.71955377e-02
   1.22442178e-01 -7.94466771e-03 -8.43394548e-02 -1.01660818e-01
  -5.49323577e-03 -1.34668797e-02 -5.85472956e-02 -6.62918836e-02
   1.76372603e-02  1.43659607e-01 -1.03694871e-01  1.42060071e-01
  -4.71096151e-02  1.48887053e-01 -1.41461626e-01 -2.22659484e-01
  -7.87175000e-02  3.93910021e-01  2.27261763e-02  2.29062974e-01
   2.78790772e-01 -4.62712571e-02  1.09282039e-01 -6.41926378e-02
   2.48119123e-02  5.33385612e-02 -1.61122844e-01  1.13507591e-01
  -4.12222482e-02  1.40621826e-01  2.58437693e-02  8.68057832e-02
  -4.28915918e-02 -3.40697855e-01 -9.77700949e-02 -9.80047882e-03
  -1.73641577e-01  4.45479453e-02 -2.36066908e-01 -8.94807093e-03
   2.97627673e-02  3.23908299e-01  1.27269268e-01 -1.18758887e-01]
 [ 4.17544544e-02 -1.55670345e-02 -2.81067914e-04  4.02313709e-01
   4.54531536e-02  1.22364327e-01 -1.09307833e-01  1.66058377e-03
  -4.17722538e-02 -1.03485212e-02 -1.21351071e-01 -2.28227880e-02
  -3.12449783e-02 -2.00461239e-01 -9.42824036e-03 -8.61788075e-03
   2.59093884e-02  1.06249973e-02  1.24506224e-02 -9.01851431e-02
   5.97525313e-02 -6.82987198e-02 -7.03865476e-03  6.57093944e-03
  -3.14170271e-02 -3.82525139e-02 -4.11947481e-02  2.18352467e-01
   2.62990147e-02 -5.50636090e-03 -1.27165854e-01 -1.56088635e-01
  -1.46469727e-01 -1.46628290e-01  8.64823610e-02  2.32550800e-02
   7.49838799e-02 -1.16579704e-01 -1.38721630e-01 -1.34686362e-02
   2.54085243e-01 -4.13043983e-02 -1.48110548e-02 -2.77043045e-01
   2.02580523e-02  3.89255472e-02 -6.32231161e-02  4.68280092e-02
  -6.29747882e-02 -1.33651704e-01 -9.08698589e-02 -1.87669396e-01
  -7.30060390e-04  1.46455809e-01 -1.80329122e-02  1.10302076e-01
  -7.79920584e-03 -1.35151491e-01  3.27714056e-01 -5.03753908e-02
  -3.69053394e-01  8.76331795e-03  4.86040451e-02  9.09761414e-02
  -2.52674609e-01 -1.79287240e-01  3.73704374e-01 -1.31503522e-01
   6.78399997e-03 -2.83868182e-02 -1.36328474e-01  2.34026127e-02
   3.09235066e-01  8.79836679e-02 -2.14709312e-01  6.53121062e-03
   1.29979784e-02 -7.92775955e-03  3.00605465e-02  4.30964157e-02
  -3.41321640e-02 -1.00578882e-01 -7.51278028e-02 -4.96417917e-02
   4.12610382e-01 -1.78280510e-02 -2.42097639e-02  1.87427089e-01
   2.26521771e-02 -4.70152162e-02 -4.26343456e-02  1.34352539e-02
  -1.18117310e-01 -3.70436013e-01 -4.92421910e-02  5.89263774e-02
   3.52396458e-01 -1.81023031e-01  6.72816262e-02 -2.39039838e-01
  -1.04107238e-01 -3.78977433e-02  3.19768131e-01 -6.81142956e-02
  -9.05179381e-02  8.56764987e-02  1.33748323e-01 -5.81755526e-02
  -7.37518668e-02 -1.28083155e-01 -8.98935199e-02 -9.55055580e-02
  -1.04650678e-02  2.58871645e-01 -6.23967722e-02 -1.10099524e-01
  -4.57944162e-02 -7.40952492e-02  3.97784002e-02 -2.61311922e-02
   7.31622279e-02  1.13995243e-02  1.46492600e-01 -8.97986516e-02
  -2.50801053e-02 -2.80366331e-01  1.41651649e-02 -7.25184530e-02]
 [-4.61467952e-02  5.17866062e-03 -9.53502208e-03 -1.71029150e-01
  -2.99406587e-04  9.43278521e-02 -8.29549357e-02  1.90500841e-01
  -3.00103780e-02 -3.09491269e-02  8.63040909e-02 -6.04826026e-02
   8.53116065e-02 -1.88658193e-01 -9.59508121e-02 -2.36710161e-02
  -5.86885586e-02  6.43507689e-02  4.32394184e-02 -1.03530385e-01
  -6.15803860e-02 -4.19396684e-02  1.26192808e-01 -4.98322770e-03
   7.08551779e-02 -5.18533885e-02  5.97994402e-02 -8.43137205e-02
  -3.62400487e-02  7.58220777e-02 -6.37124896e-01 -1.21277943e-01
   1.29985347e-01  6.56301528e-02 -1.25198644e-02 -2.75335759e-01
  -1.89262480e-01 -1.89540029e-01 -4.04563844e-02 -5.66138066e-02
  -4.65384908e-02 -2.07136143e-02 -8.35007150e-03  1.03291027e-01
   5.90893701e-02 -1.01577200e-01 -3.03893182e-02 -2.82468677e-01
  -6.55533969e-02 -1.04043379e-01 -3.56916152e-03 -4.56348769e-02
   1.12062179e-01  1.61089271e-01 -8.92940238e-02 -2.23958135e-01
   2.38264259e-02  1.73542760e-02 -1.23726517e-01  2.00969577e-02
  -9.07259360e-02 -2.19636142e-01  2.40428984e-01 -3.11873816e-02
   2.13345200e-01 -8.51375833e-02  1.44757748e-01 -9.24650207e-02
  -3.76245305e-02  2.66495198e-02  1.29224420e-01 -1.53554454e-02
  -5.11565991e-02  1.04113728e-01  5.23332646e-03  3.90937738e-02
  -1.66161098e-02 -3.94219346e-02  1.86863035e-01  1.51669970e-02
   9.25731957e-02 -1.43717304e-01 -2.66210781e-03  7.07895979e-02
  -1.09150358e-01 -4.47996147e-02 -1.00016400e-01  2.51276106e-01
   3.13429721e-02 -6.94677159e-02 -4.22500446e-02 -3.41712497e-02
   1.08520743e-02  1.04473658e-01 -1.79972071e-02  1.27094641e-01
  -1.25429973e-01 -3.96796502e-02  3.20440978e-02 -1.69659629e-01
   8.91206861e-02 -5.57618476e-02  1.46960244e-01  3.18912119e-02
  -1.67377546e-01 -8.49597622e-03 -3.37383449e-01 -5.68445288e-02
  -6.81483224e-02  9.95351300e-02 -6.85836449e-02  2.27967817e-02
   4.85988334e-02  9.31804180e-02 -2.88392138e-02  2.56903589e-01
  -7.62430876e-02 -1.64688721e-01  3.66375595e-02 -1.37990564e-01
   2.72590965e-01 -5.60170598e-02  2.29401544e-01  1.60696432e-02
  -3.83636579e-02  5.68098947e-02 -1.67550817e-02 -3.70755345e-02]
 [-4.90340730e-03  1.04245944e-02 -2.88132988e-02 -1.45413175e-01
  -5.35789169e-02  8.10262840e-03  8.49172026e-02 -1.81310996e-02
  -1.03620060e-01 -6.52505308e-02 -5.38803414e-02  2.65592057e-02
  -1.39048919e-02 -1.13219976e-01 -1.88803487e-02  1.71678588e-02
  -3.90917063e-02  3.62023003e-02  6.08628429e-02  8.60549212e-02
  -1.41014546e-01  3.56587507e-02  1.89117685e-01 -6.61639357e-03
   1.28090769e-01 -3.90300341e-02 -5.34286490e-03  7.79507030e-03
  -6.30463883e-02 -9.71456096e-02 -9.36713517e-02 -3.02796867e-02
   2.11833999e-01 -1.61374226e-01  2.62018055e-01  2.43638411e-01
   2.37489551e-01 -7.76755869e-01  6.69471323e-02  3.35513949e-02
   2.71114022e-01  1.83324367e-02  1.98933482e-01 -1.83266714e-01
   2.67850570e-02 -2.45889686e-02 -5.08132949e-02  1.93988994e-01
   2.86233239e-02 -3.49491984e-01 -2.49498561e-01 -1.80727527e-01
  -1.80140153e-01  7.37263113e-02  4.02029939e-02  3.85069400e-02
  -3.43943745e-01 -5.29919304e-02  2.66643405e-01  8.46623778e-02
   4.30312119e-02  1.09050712e-02 -4.86427955e-02 -2.18440369e-01
  -9.90913361e-02 -1.07296690e-01  3.78931224e-01 -6.84922636e-02
  -1.59586500e-02  9.72677115e-03  5.50230257e-02  4.60137203e-02
  -2.90909290e-01  6.96430355e-02  7.47858509e-02  1.80974312e-03
  -3.69421020e-02 -2.32796520e-02  3.89015712e-02 -6.79569617e-02
  -5.49002253e-02  3.96863408e-02  3.00148912e-02 -8.84796754e-02
  -5.78399822e-02 -6.52595423e-03  1.20201912e-02 -6.73939055e-03
  -9.94503777e-03 -3.44667248e-02  1.85624078e-01  4.44428585e-02
  -1.39745012e-01 -9.28787366e-02 -1.26806378e-01 -8.95477161e-02
   1.55041069e-02  3.23498771e-02  1.07945383e-01 -1.10177852e-01
   1.14219546e-01 -5.36419712e-02 -9.94737297e-02 -1.31439511e-02
  -1.22946061e-01 -4.93301719e-04  1.08585536e-01  2.94351373e-02
  -1.82197411e-02 -1.54743344e-01 -9.72949266e-02  2.18888491e-01
  -4.10083979e-02 -1.85204878e-01 -1.59726012e-02  3.15135308e-02
  -9.17460248e-02 -5.29856794e-03 -7.34336823e-02  3.43208201e-02
   3.86276282e-02 -5.35998717e-02 -2.39350230e-01 -3.38818841e-02
  -1.97654907e-02 -7.46663138e-02 -3.59034799e-02  1.08037982e-02]
 [-6.23254143e-02  1.30407680e-02  1.20561011e-02 -5.25958315e-02
  -1.22942412e-02 -3.67993005e-02  1.76047683e-02 -1.03582703e-01
  -6.06315657e-02 -3.19314301e-02  1.22440554e-01 -5.94848022e-02
   1.41043821e-02 -4.72177844e-03  1.79421958e-02  5.71068935e-03
  -6.59775138e-02 -2.54248679e-02  5.30269230e-03  1.16527177e-01
  -5.81071600e-02 -5.29951341e-02 -3.72132920e-02 -3.57510056e-03
  -7.25065470e-02 -7.62024522e-02 -3.65156569e-02 -2.69075669e-02
  -5.76969124e-02  2.36856043e-01 -1.97897717e-01  1.29442647e-01
  -1.24841377e-01  7.07351193e-02 -1.49953872e-01 -5.20207621e-02
  -1.02482915e-01  1.17397882e-01  5.23569211e-02  1.29407749e-03
  -1.03098914e-01 -9.48788505e-03  1.82721034e-01  7.81291276e-02
  -4.95758764e-02 -1.00945771e-01  7.27947149e-03 -2.88041651e-01
  -3.64128835e-02 -8.27124342e-02  4.28330675e-02  1.49384513e-02
   4.74025868e-02  1.14322178e-01  5.07305237e-03 -7.16699138e-02
  -3.36710848e-02 -1.11790234e-02  1.48057580e-01 -5.79681322e-02
   2.85576168e-03 -1.65699542e-01  9.54763740e-02  5.34422658e-02
   7.20002055e-02  8.34621489e-02 -1.43806890e-01 -9.35439393e-03
  -8.91900063e-02  1.05304306e-03 -1.08982325e-01 -3.03502381e-02
  -3.58629227e-02 -9.85653251e-02 -1.09148726e-01 -1.93368886e-02
   4.36259201e-03 -7.83915743e-02  1.16468459e-01 -2.74803839e-03
  -2.60506254e-02  2.36337613e-02 -6.84657320e-02 -4.32140492e-02
  -7.80716389e-02  4.87488508e-03  6.01773672e-02 -2.48187900e-01
  -3.88549045e-02  5.23184352e-02  8.25825240e-03 -7.53647536e-02
   2.61120256e-02 -1.53025284e-01 -1.50683582e-01  2.23074853e-02
  -7.56551772e-02  6.42970800e-02  4.44601662e-02  7.03760237e-02
  -5.36657237e-02  2.42345974e-01  2.46258043e-02  8.79852176e-02
  -3.06313410e-02 -6.52401000e-02 -6.71401322e-02 -2.64294585e-03
  -2.92940587e-02 -9.61701050e-02  3.79989967e-02  2.13509530e-01
   7.92984217e-02  2.45119497e-01 -3.31863314e-02 -1.07239179e-01
   9.96229053e-03 -7.58277848e-02 -8.00366774e-02  9.67739895e-02
  -6.87503591e-02 -1.59986876e-02 -4.85607274e-02  4.94610965e-02
   3.17431502e-02  1.52027030e-02 -1.78838998e-01 -2.25473028e-02]
 [-3.64296772e-02  1.25002395e-02 -4.29530516e-02 -1.89237803e-01
   2.78761312e-02  7.05578104e-02  5.00139073e-02 -1.10139072e-01
  -9.23371036e-03 -6.65386394e-02  1.55426636e-01 -1.70672406e-02
   2.74372380e-02 -9.75911766e-02 -2.60198507e-02 -5.59797101e-02
   3.61265279e-02 -4.71052006e-02 -3.26086953e-02 -7.90646300e-02
  -5.91443898e-03 -4.53384854e-02  1.97735891e-01 -3.71741317e-02
  -6.60576895e-02  3.03033832e-02  1.05102118e-02  4.45098989e-03
   2.33449060e-02 -5.15379459e-02  1.91411063e-01 -2.81906307e-01
   9.73927975e-02 -2.91791767e-01  1.19471349e-01  2.97191367e-02
   8.42468441e-02  1.01487748e-01 -2.95532376e-01 -5.58157787e-02
   2.69045699e-02 -8.19084700e-04  1.67796016e-02  1.60700411e-01
  -6.01172214e-03 -1.34828389e-01  4.64635761e-03 -7.37677813e-02
  -3.22514102e-02  5.27842976e-02  5.69119304e-02  1.42824873e-01
  -1.03568546e-02 -2.38364071e-01 -2.36741547e-02 -1.65007189e-01
   1.55848607e-01 -1.10673271e-02 -4.64464836e-02 -1.11842677e-01
   1.33641183e-01 -1.94904715e-01  6.88014627e-02  1.90990254e-01
  -1.05628043e-01  1.14002384e-01  6.21724278e-02 -1.00960344e-01
  -1.10941427e-02  2.19511613e-02 -9.33615416e-02 -6.47263378e-02
   9.57374498e-02  9.07371566e-02 -6.87825531e-02 -3.13266851e-02
   2.48064175e-02  1.22012831e-02  1.67620052e-02 -1.00945443e-01
   6.24881722e-02  1.33662140e-02 -2.61025806e-03 -7.78071284e-02
   1.43881306e-01 -7.16255680e-02  5.49941175e-02  6.08044080e-02
  -2.85335388e-02 -3.20543349e-02  1.73076212e-01  6.10185508e-03
   1.36619046e-01 -1.37159824e-01  7.77884573e-03  2.69566059e-01
  -1.97187647e-01 -1.01271182e-01 -1.51091114e-01 -9.65815336e-02
   3.81040983e-02  5.52735105e-02 -3.88541259e-02 -1.01273373e-01
   1.45764217e-01 -2.58776605e-01 -9.62775871e-02  1.40534854e-02
  -1.24406163e-02 -8.68249834e-02  7.73299346e-03 -3.62540632e-01
   1.81061104e-02  2.64700092e-02 -2.50551999e-02 -3.15620750e-01
   8.83486867e-03  5.93574196e-02 -2.47642659e-02  1.05992742e-01
   1.37703925e-01 -4.73669991e-02 -2.21773207e-01 -1.38182659e-02
  -1.34690208e-02 -9.93678942e-02 -9.76103693e-02 -1.23925917e-01]
 [ 3.33031677e-02  3.68597806e-02  3.59236225e-02  3.36335599e-01
   5.08754002e-03  1.37454987e-01  1.42919132e-02  5.11156023e-02
  -1.05020680e-01 -3.55948620e-02  1.49781987e-01  1.62752084e-02
  -1.26471166e-02 -8.93037692e-02  4.92836349e-02 -3.80504020e-02
  -2.38812156e-03 -2.27848291e-02  4.40658852e-02 -3.20022434e-01
  -6.64097816e-02 -1.55084372e-01 -1.04747981e-01 -3.45441699e-02
  -3.32851745e-02  8.16801488e-02 -5.65929152e-02  5.60068190e-02
  -1.38976723e-02 -1.06767341e-01  5.24179004e-02  2.81324178e-01
  -1.00322559e-01 -2.33128130e-01  7.04002604e-02  2.27417946e-01
   1.30454198e-01 -1.66247860e-02 -1.93103105e-01 -5.75418621e-02
  -2.47475460e-01  5.35929836e-02  1.66569814e-01 -3.49401087e-02
   2.14292537e-02  3.24640423e-02  5.77920582e-03 -3.75433564e-01
  -1.46496277e-02  1.03448689e-01 -1.66864451e-02  9.40467343e-02
   1.69089809e-01  1.91725850e-01 -8.61742161e-03  8.65335111e-03
   4.30938601e-02  3.33033502e-02  3.51748914e-01 -9.16465893e-02
  -1.21238835e-01  4.07845564e-02  3.32583971e-02  1.83808841e-02
  -8.51187706e-02 -1.88583523e-01 -4.96945232e-02 -9.14846808e-02
  -4.44976427e-02  3.19252312e-02  9.59457383e-02 -2.37348536e-03
  -1.41604319e-01 -2.34932810e-01 -2.26032227e-01 -5.73870167e-02
   5.87827119e-04 -1.00306652e-01  2.69130200e-01 -6.51815012e-02
   3.01660155e-03 -2.78522186e-02  3.45399380e-02  3.04298960e-02
   8.74091685e-02 -5.78972585e-02 -8.07656795e-02  1.60496369e-01
   5.38896676e-03 -3.85424159e-02 -3.00006300e-01 -3.21304649e-02
   4.84220758e-02 -1.28009051e-01 -3.48003000e-01  9.66348872e-02
  -4.16641571e-02  2.16809005e-01 -5.59379160e-02  1.28113210e-01
  -2.56219268e-01  5.56050986e-02  4.90998151e-03  1.19229011e-01
  -2.47832194e-01  4.62998539e-01  6.88142627e-02 -1.84899960e-02
   9.78069194e-03  8.31409469e-02 -6.74756914e-02  9.32593569e-02
  -1.83128774e-01  1.75815716e-01 -3.90689597e-02 -2.34546021e-01
   3.38573717e-02  5.64792473e-03  1.38224876e-02  3.80722955e-02
   3.95040102e-02 -6.08810633e-02  3.89907211e-02  3.16508673e-02
  -3.02479286e-02  1.38397021e-02  1.13980927e-01 -3.07834651e-02]
 [-3.55925150e-02  3.20818136e-03  4.77035902e-02  3.10149521e-01
   1.73810888e-02 -9.75160226e-02 -2.78848380e-01  7.16048628e-02
   7.01903477e-02 -7.60333538e-02 -2.07975283e-01 -6.73864484e-02
   1.37769934e-02 -1.35848850e-01 -2.62374766e-02 -5.16395830e-02
  -7.58163780e-02 -3.70920822e-02 -1.99381746e-02  1.51929379e-01
  -2.76110191e-02 -1.46649852e-01 -1.35950178e-01 -5.55803813e-02
   3.34640965e-02  4.77642193e-02 -6.73980787e-02  2.58250594e-01
  -5.45884408e-02 -1.23464197e-01 -1.83774933e-01 -2.09163055e-01
  -1.15510374e-01  8.45880061e-02  1.29702702e-01  2.96907037e-01
   7.66802058e-02  1.96971700e-01 -1.66213781e-01  1.82803273e-02
   1.60034690e-02  1.86158400e-02  3.88139784e-02 -4.13961820e-02
  -1.92100629e-02  8.84784684e-02  9.80261248e-03 -2.11868212e-01
