base_model/conv2d/kernel:0
(5, 5, 3, 6)
[[[[ 1.65167451e-01  6.90987930e-02 -1.42477632e-01 -7.33661652e-02
     2.18670905e-01  3.48020107e-01]
   [ 9.56842378e-02 -6.78028613e-02 -2.14895785e-01  1.83282748e-01
    -1.85812265e-01 -5.02465330e-02]
   [-1.19824246e-01 -2.89582849e-01  9.14635658e-02 -1.78409979e-01
     1.33679822e-01 -1.51887372e-01]]

  [[ 3.00338626e-01  2.45846778e-01  2.01301441e-01 -1.74067065e-01
     3.46772999e-01  2.94151139e-02]
   [-1.95721015e-01  1.01437112e-02  2.42450349e-02 -1.06071636e-01
    -1.51454821e-01 -8.81747380e-02]
   [-7.05612674e-02  1.72146201e-01  1.16697804e-03  5.39235473e-02
    -2.40307361e-01 -4.26590769e-03]]

  [[-8.58129747e-03  1.73744664e-01 -1.10896349e-01 -3.62649173e-01
     3.70944053e-01  2.78574936e-02]
   [-3.84810269e-01 -2.63920873e-01 -1.13708358e-02 -3.20269130e-02
     7.50280991e-02 -5.64128123e-02]
   [-7.35127032e-02  6.84409142e-02  3.21499567e-04 -2.12384835e-02
    -1.86681852e-01  4.08749491e-01]]

  [[-4.92665097e-02  1.06209338e-01 -8.35292134e-03 -1.42623648e-01
    -3.12400032e-02 -8.62398669e-02]
   [ 3.17146219e-02  1.32373288e-01  1.25847280e-01 -6.05998971e-02
    -4.92364280e-02 -4.88596335e-02]
   [-5.03290519e-02  1.36662930e-01  4.37617972e-02  4.33550209e-01
    -2.68969148e-01  1.25067100e-01]]

  [[ 1.74343586e-02 -2.15396017e-01  4.38652746e-02 -1.13087267e-01
    -1.45776317e-01 -3.38560641e-02]
   [ 3.83709408e-02 -1.52397929e-02  2.07070224e-02  1.68066040e-01
     6.93973750e-02  1.53331235e-01]
   [ 1.59824923e-01  1.02153547e-01 -1.91043109e-01  2.86922991e-01
     1.23596929e-01  4.22326267e-01]]]


 [[[ 1.98083892e-01 -3.02784652e-01  1.09142818e-01 -3.65214534e-02
    -2.08614320e-01  9.12662363e-04]
   [ 1.22347623e-01 -4.18509215e-01  1.61360558e-02 -1.61789164e-01
    -6.91846982e-02  2.09173143e-01]
   [ 8.07633065e-03 -4.74390417e-01 -3.86113673e-02 -1.02462173e-01
    -5.40357530e-02 -1.76251650e-01]]

  [[ 1.44009680e-01  1.98143229e-01 -1.38581106e-02 -1.18387736e-01
     1.10210925e-02  1.56526551e-01]
   [-9.86590236e-02 -1.24847963e-01 -5.96810803e-02 -2.17115685e-01
    -1.19336776e-01  2.14920446e-01]
   [ 2.28788126e-02  2.18423326e-02 -1.49673611e-01  3.43386345e-02
     5.78823462e-02 -1.11903451e-01]]

  [[-3.02093625e-01 -1.16313407e-02 -1.71566129e-01 -7.44930059e-02
     3.61906976e-01 -1.99508965e-01]
   [-5.31264007e-01 -2.11223722e-01  7.86521137e-02 -2.11151373e-02
     9.23787653e-02 -4.53878567e-02]
   [-2.87237734e-01  5.62691167e-02 -3.77480276e-02  1.28263921e-01
     2.24368110e-01  3.62269133e-01]]

  [[ 1.63558885e-01  1.44085839e-01  1.11634105e-01 -8.50412175e-02
     4.40772682e-01 -1.03856690e-01]
   [ 1.71953470e-01  5.19184284e-02  3.38436514e-01  1.97191089e-01
     6.89085200e-02  8.11692998e-02]
   [ 3.08809459e-01  3.02435786e-01  2.84630656e-01  1.79763347e-01
     3.86043280e-01  3.17900836e-01]]

  [[-1.20002203e-01 -7.09028915e-02 -1.99483454e-01 -4.31403145e-03
     1.08593991e-02 -3.41491908e-01]
   [ 1.10816605e-01 -1.78501546e-01 -1.20867506e-01 -4.24208343e-02
     4.22591567e-01 -1.72285110e-01]
   [ 7.13329166e-02  1.86144531e-01 -1.96015269e-01  1.89593181e-01
     2.70878017e-01  1.67548135e-01]]]


 [[[ 2.05639467e-01 -2.32033819e-01  3.41831893e-01 -2.30909601e-01
     9.95097458e-02  2.89914191e-01]
   [ 4.04324800e-01 -4.09964561e-01  4.56216872e-01 -4.12700683e-01
     6.39148355e-02  2.25140586e-01]
   [-1.51170483e-02 -4.02223051e-01  3.02265465e-01 -2.40604550e-01
     2.54072756e-01 -4.22123253e-01]]

  [[-7.12951943e-02  1.24250175e-02  6.26245737e-02 -3.29522461e-01
    -2.62539443e-02  3.36327553e-02]
   [-2.27094814e-01 -1.29330337e-01 -3.30136120e-02 -2.35014230e-01
    -1.97924331e-01 -1.24641784e-01]
   [-7.33058751e-02 -2.83932954e-01 -8.75832513e-02  2.01531768e-01
    -6.20356528e-03 -2.85261363e-01]]

  [[-3.33286226e-01  7.30763152e-02 -5.68074048e-01 -2.62847096e-01
     1.13384118e-02 -3.94306839e-01]
   [-3.96395206e-01 -2.12450072e-01 -4.33236748e-01 -1.79205552e-01
    -4.27375227e-01 -1.78144515e-01]
   [-3.46048057e-01  9.73864272e-02 -5.16516745e-01  2.68753469e-01
    -3.05139691e-01 -5.38950749e-02]]

  [[ 2.52294183e-01  1.29545584e-01 -9.21615660e-02 -1.48486808e-01
    -6.48131967e-02 -1.28156468e-01]
   [ 4.35721397e-01  1.63959131e-01  1.05225645e-01  5.13615347e-02
    -3.35315764e-01 -6.72389641e-02]
   [ 4.79642421e-01  4.67972070e-01 -2.34274775e-01  2.54322261e-01
    -1.46647617e-01  2.88505048e-01]]

  [[-1.79724440e-01  6.69733137e-02  3.30091953e-01  5.93864992e-02
    -4.82884824e-01 -2.18871251e-01]
   [ 6.47060722e-02  2.94057667e-01  5.53307772e-01 -4.03432474e-02
    -2.23591015e-01 -2.21916690e-01]
   [-4.18063253e-02  5.29453576e-01  1.34696830e-02 -3.22129093e-02
    -2.39791706e-01  2.51204818e-01]]]


 [[[ 3.08441371e-01  1.22405954e-01 -3.22082937e-02  2.75071800e-01
    -4.89559546e-02  1.20215192e-01]
   [ 2.01464117e-01 -2.22582966e-01 -3.04454505e-01  9.15662050e-02
    -2.37906039e-01  5.27354628e-02]
   [ 1.12756461e-01 -2.39038140e-01 -2.19788868e-02  1.73758522e-01
     2.64807254e-01 -3.00899744e-01]]

  [[-1.25364006e-01 -2.04923630e-01 -4.91432752e-03  2.73733139e-01
     6.34031147e-02 -5.85288219e-02]
   [-3.06852758e-01 -3.74669373e-01 -1.52455330e-01  2.12107569e-01
    -2.81795204e-01  8.61844122e-02]
   [-3.13215137e-01 -1.98727787e-01  1.11883186e-01  4.19482738e-01
     1.42977268e-01 -3.31141427e-02]]

  [[-2.86463350e-01 -1.41706631e-01  3.18060130e-01  2.50522375e-01
     5.63786440e-02 -3.16989839e-01]
   [-2.97492146e-01 -3.42405528e-01  4.08169806e-01  2.15392411e-01
    -3.76241833e-01  2.03590289e-01]
   [-2.27860454e-02 -2.90435761e-01  4.33150679e-01  2.89267778e-01
    -4.24127020e-02  4.13933009e-01]]

  [[ 1.89054832e-01  8.09138119e-02 -3.10054094e-01  2.79733121e-01
    -1.62408520e-02 -1.16292335e-01]
   [ 4.03974622e-01  1.09144613e-01 -2.86167979e-01  8.99847317e-03
    -9.87449512e-02  1.18158706e-01]
   [ 4.80574101e-01  8.69952813e-02 -2.80555069e-01  1.06246524e-01
    -1.27474248e-01  2.84747601e-01]]

  [[-8.78740922e-02  2.85534918e-01 -8.48316252e-02  2.61976302e-01
    -2.44968265e-01 -2.69568086e-01]
   [ 4.28157337e-02  3.00190896e-02 -1.91132948e-01 -3.70921284e-01
    -1.09024607e-02 -9.27928835e-03]
   [-2.33131722e-01  2.49329522e-01  4.71798927e-02 -2.93064535e-01
    -3.25828195e-01  2.88338572e-01]]]


 [[[ 8.10198113e-02  3.29483837e-01 -9.69793499e-02  2.19386995e-01
    -1.35523051e-01  1.41911447e-01]
   [ 8.04644078e-03  1.80810168e-01 -3.44088614e-01  2.77761042e-01
     3.77155542e-02  2.35990793e-01]
   [ 1.68770291e-02  1.54205680e-01  3.18887457e-02 -1.22221179e-01
     4.39014696e-02 -1.03243336e-01]]

  [[-2.53937572e-01  1.17662489e-01 -1.27015486e-01  9.72017050e-02
     3.11146444e-03 -3.14854622e-01]
   [-1.43556759e-01  4.80462890e-03 -2.58738990e-03  7.13864341e-02
    -5.53796254e-02 -1.88603267e-01]
   [-2.72358805e-01 -1.11328326e-01 -1.64077915e-02  4.05051820e-02
    -7.78871402e-02 -1.66434422e-01]]

  [[-1.22707769e-01 -2.82620341e-01  3.59116673e-01  2.75452763e-01
    -7.34626688e-03 -3.44554156e-01]
   [-1.18785113e-01 -3.16921026e-01  6.01465926e-02  9.25304443e-02
     1.46399677e-01  1.41058236e-01]
   [ 2.21646443e-01 -2.80429870e-01  2.73625731e-01 -1.48531571e-01
     2.08017722e-01  2.03323036e-01]]

  [[ 1.01067327e-01 -1.84057970e-02  1.14714049e-01  3.50928038e-01
    -1.92840472e-01 -3.96026373e-01]
   [ 1.52733788e-01 -1.82290122e-01 -9.32297483e-03 -1.32428810e-01
     2.85254121e-01  1.32685959e-01]
   [ 3.00120562e-01  1.20666856e-02  6.11816049e-02 -2.40390092e-01
     2.14831769e-01  2.01958969e-01]]

  [[-1.06304966e-01  8.45798552e-02 -1.35817170e-01  3.92891377e-01
    -1.03306435e-01 -3.35227549e-01]
   [-6.39223382e-02  1.84756950e-01 -1.94061641e-02 -3.23135525e-01
     4.41723734e-01 -3.65670025e-02]
   [-4.76853549e-02  2.64621198e-01 -3.25862393e-02 -5.69961905e-01
     1.44647688e-01 -8.96060392e-02]]]]
base_model/conv2d/bias:0
(6,)
[0.15243979 0.20122473 0.11301094 0.31464526 0.00451439 0.12880786]
base_model/batch_normalization/gamma:0
(6,)
[0.73785794 0.5742396  0.4804217  0.6754019  0.77437884 0.3126844 ]
base_model/batch_normalization/beta:0
(6,)
[-0.39561594 -0.27751476 -0.26963517 -0.54852194 -0.5706335  -0.03407603]
base_model/dense/kernel:0
(1536, 128)
[[-2.99801767e-01 -8.64088908e-02 -1.06900848e-01 -1.05291001e-01
  -9.00342464e-02 -7.96689317e-02  1.52424514e-01 -2.11171433e-01
  -3.92418280e-02 -1.48003146e-01  2.74353530e-02 -1.24230258e-01
  -2.74273843e-01  3.28242667e-02 -7.49988258e-02 -9.88110714e-03
   1.41907195e-02 -7.57635236e-02 -6.58490062e-01 -3.42596099e-02
   8.64101127e-02 -1.53793365e-01 -2.34458238e-01 -1.07308567e-01
   5.06537855e-02 -2.90358245e-01 -7.34074414e-02  1.47870928e-02
  -2.92559694e-02  2.60197401e-01  1.52205318e-01  1.38069540e-01
   8.74058902e-02 -4.12241481e-02 -8.40304568e-02  1.27872258e-01
  -8.30145627e-02  4.76778336e-02 -1.20645585e-02  4.48274650e-02
  -5.45712300e-02 -8.31430256e-02  1.84931923e-02 -1.36365443e-01
  -6.48506284e-02 -5.70386201e-02 -8.96600783e-02 -5.28982818e-01
  -8.89040306e-02 -2.92501859e-02 -3.01305018e-02 -6.41045347e-02
   2.94546150e-02 -3.38254124e-01 -1.81681651e-03 -3.02161202e-02
  -5.03557205e-01 -1.26970991e-01  1.26426578e-01  9.58138332e-02
  -1.45350426e-01 -4.01785225e-02 -9.14067216e-03 -1.66643560e-01
   1.94952339e-01 -2.03815550e-02  5.76813370e-02 -2.68220380e-02
  -3.52081507e-02 -3.97695005e-02  1.84753686e-01 -4.78817746e-02
  -5.13085313e-02 -1.73170999e-01 -4.11927653e-03 -9.57361087e-02
   7.61586940e-03 -1.60563011e-02 -8.46023560e-02 -4.59467806e-02
  -7.86006302e-02  3.23234200e-02  2.42155790e-01 -1.44558221e-01
  -7.92632848e-02 -1.23529702e-01 -4.62595001e-02  1.39073074e-01
   3.06491494e-01  7.97205791e-02 -2.45991088e-02  1.63235337e-01
   1.45943358e-03 -6.00268468e-02  1.23229578e-01  5.94854960e-03
  -2.63676560e-03  2.84762327e-02  1.54468687e-02 -3.68856937e-01
  -3.98499407e-02  5.78364404e-03 -4.10529636e-02 -2.15694353e-01
  -4.45095971e-02  1.72183346e-02  2.77852267e-02  1.84583757e-02
   2.05759928e-02 -5.61988465e-02 -5.04851826e-02 -3.09452355e-01
   2.10800320e-02  2.88153768e-01  2.12334156e-01 -1.28597654e-02
  -5.91800809e-02  2.04208046e-02 -6.13838695e-02  9.21245143e-02
   1.33644134e-01 -4.14590985e-02 -1.25990082e-02  6.92833448e-04
  -7.46832043e-02 -1.03552185e-01 -1.57263041e-01 -4.22817841e-02]
 [-8.99998099e-02 -1.41127699e-03 -7.60181025e-02  3.10787447e-02
   1.83077939e-02  6.06952384e-02 -7.05676004e-02 -3.34138423e-02
   7.50172958e-02 -8.58160108e-02 -3.10249496e-02  1.01537732e-02
   2.27970537e-02 -2.97711864e-02 -2.37353961e-03 -7.50627276e-03
   3.00917146e-03 -2.46105306e-02 -8.92291814e-02 -3.11629195e-02
  -5.22470996e-02 -6.07209541e-02  3.20654921e-02  7.40556512e-03
   8.49961936e-02  1.34826392e-01 -9.85429157e-03 -4.07306477e-03
  -2.55421945e-03  1.13793373e-01 -1.32179305e-01  6.05716482e-02
   1.32557526e-01  5.06669702e-03 -7.63067380e-02  4.83853184e-02
   3.02040223e-02  6.89208582e-02 -2.39754021e-02 -3.71445320e-03
  -5.87137267e-02  1.14749158e-02 -7.93595463e-02  9.49018896e-02
  -5.21134213e-02 -8.79656225e-02  1.33727463e-02  3.33887674e-02
   2.74509750e-03 -5.16486280e-02 -6.96574599e-02  1.50107555e-02
  -2.35887449e-02 -1.69342533e-01  2.12370232e-02 -2.51424406e-02
  -1.05279796e-01  1.00199178e-01  1.11225612e-01  1.23960115e-02
  -4.49509658e-02 -2.37107538e-02 -1.98400579e-02  5.52030057e-02
   2.02846318e-01 -2.01582275e-02  2.71090567e-02 -3.78048383e-02
  -1.00319507e-02  5.89642860e-02 -4.71077338e-02 -1.68920159e-02
  -5.23307659e-02 -5.13568632e-02 -9.49416831e-02 -3.78908031e-02
   1.13227494e-01 -2.58278884e-02  1.06012039e-01 -2.00298280e-02
   9.92298219e-03  1.20438412e-01  1.65960547e-02  5.66238128e-02
  -2.72070318e-02 -4.51625586e-02 -4.59825099e-02 -5.93081191e-02
  -2.27694903e-02  3.91820520e-02 -8.00634846e-02  7.92160444e-03
   1.76040677e-03  6.11711778e-02 -2.29617860e-02 -6.85956925e-02
  -1.63150467e-02 -1.17498944e-02  1.15280718e-01 -5.56220002e-02
  -3.52634303e-02 -5.93738705e-02 -7.21332580e-02  1.20023638e-01
  -7.32387602e-03 -7.07159042e-02 -4.65254039e-02 -8.93635675e-02
   1.53322332e-02 -3.44554521e-02 -4.09920774e-02 -6.85827062e-02
  -6.79740161e-02  1.30234957e-01  1.94402151e-02  3.60115990e-02
  -1.27224311e-01  1.44193754e-01  6.42564967e-02  1.34966135e-01
   2.30108146e-02  1.04640983e-03 -4.22972962e-02 -2.55601238e-02
  -3.80057842e-02 -7.19244480e-02 -1.12041175e-01  8.01117718e-02]
 [ 1.39068082e-01 -5.06515102e-03 -1.13848805e-01  2.75180429e-01
   2.79391855e-01 -2.10620955e-01  1.84021264e-01 -1.69872642e-01
   5.46636246e-02 -1.92314550e-01 -2.98548900e-02 -1.07813254e-01
   1.54660851e-01  5.51322103e-01 -6.27558492e-03 -4.03671265e-02
   1.50997013e-01  1.40742317e-01 -3.79358709e-01 -5.08881658e-02
  -6.68798909e-02 -6.40831664e-02  3.39816868e-01 -2.91285273e-02
   1.53592259e-01 -1.20252050e-01  2.06442311e-01  3.76649462e-02
   4.58948798e-02  2.47886628e-01  1.76613823e-01 -1.61936954e-02
   2.58306321e-02 -6.43761307e-02 -4.88839000e-02  2.28713289e-01
  -8.33952520e-03 -1.65195018e-02 -2.50703305e-01 -2.53106505e-02
  -8.41895398e-03 -3.57707031e-02 -8.75773728e-02  3.54334805e-03
   1.38812780e-03 -4.38640565e-02  5.28390557e-02  4.48061638e-02
  -5.00249490e-02 -1.27273118e-02 -5.39818406e-02 -3.52891982e-02
  -8.85457844e-02 -2.06316989e-02 -5.21638617e-03  3.36493962e-02
  -1.94480106e-01 -1.50866926e-01 -1.99393854e-01  1.92643419e-01
  -4.00615782e-02  4.28831756e-01 -1.23544643e-02 -9.03281048e-02
  -4.13815677e-01 -5.83610795e-02  4.34556305e-02 -6.61007389e-02
  -7.21128210e-02  3.58235165e-02  5.53086437e-02 -3.60189209e-04
   5.16461628e-03  3.68448161e-02  2.29096495e-05 -1.36711836e-01
  -9.71043333e-02 -5.98753057e-02  1.20607331e-01  3.60819958e-02
  -2.58842677e-01 -4.97784950e-02  1.23960391e-01 -2.07718924e-01
   3.43959928e-02  2.76576191e-01 -8.47967193e-02 -4.48723406e-01
   9.72961634e-02  2.37588674e-01 -4.46156487e-02 -2.54034847e-01
  -2.61097532e-02  4.59241688e-01 -3.86994869e-01  6.14830712e-03
   9.17608067e-02 -6.07197843e-02  8.56524184e-02  1.04508452e-01
   1.15449596e-02 -2.02687271e-02  4.25776355e-02  9.62042585e-02
  -8.22012872e-02  4.49544098e-03 -9.92923230e-02 -1.66039065e-01
   3.13928314e-02  5.00783790e-03  2.02551991e-01 -6.40778989e-03
   4.03965786e-02 -1.03435911e-01  2.99442112e-01  2.10750818e-01
  -5.64150065e-02 -3.14568788e-01 -2.03730911e-01 -3.93843561e-01
   2.65446454e-01 -2.61583924e-03  7.78977349e-02 -3.73892933e-02
  -4.40907888e-02 -1.42776524e-03 -1.40721183e-02 -2.83857405e-01]
 [-1.30178556e-01  1.52050760e-02 -4.75456804e-01 -2.21430674e-01
  -1.13515384e-01 -2.97031105e-02  5.77735193e-02  1.57362029e-01
  -9.30854902e-02  4.11687791e-02 -5.02037294e-02 -1.95828691e-01
  -1.12500735e-01 -6.20576739e-02  1.95487395e-01 -8.04155841e-02
  -7.18989298e-02  1.36499718e-01 -3.78000617e-01 -2.07781211e-01
  -1.49352206e-02 -7.30024874e-02 -3.49997252e-01 -2.59007066e-02
   4.37634140e-02  5.73251210e-02 -3.09507400e-02 -1.55837074e-01
   1.43488450e-03  1.26668643e-02  2.23627433e-01  1.86793040e-02
  -1.59299687e-01 -4.67518568e-02 -3.47270928e-02 -2.25212201e-01
  -4.74444516e-02 -2.20017266e-02 -1.36114299e-01  8.99150819e-02
   4.39352542e-02  2.28842385e-02 -1.78832486e-02  5.28595708e-02
  -1.02132887e-01 -2.58485060e-02 -5.46866469e-02 -1.27446517e-01
  -2.15726912e-01  2.71613114e-02 -4.92548086e-02  5.62578859e-03
  -1.26499869e-02 -9.12638679e-02 -6.43919781e-02  1.72869731e-02
   2.03616805e-02 -2.93130219e-01  4.68814343e-01  7.29419887e-02
  -4.70561981e-02 -5.92532307e-02  3.84571054e-03  5.92792518e-02
   1.59914732e-01 -5.45771420e-02  3.06200199e-02  5.51861478e-03
   3.37768309e-02  6.25257045e-02  1.31538883e-01 -4.58775386e-02
   2.40091160e-02 -1.40977904e-01 -5.31766303e-02 -1.62987097e-03
  -2.55562812e-01 -1.85582461e-03  2.56815344e-01  1.95890795e-02
   3.03165312e-03 -2.23936036e-01  1.77754208e-01 -4.86857444e-03
  -3.16111706e-02 -4.10383999e-01 -5.23620322e-02 -9.36502218e-02
   2.91206893e-02 -9.94540080e-02  2.87578925e-02  6.40377626e-02
  -2.35375157e-03  1.46518454e-01  2.79681414e-01 -5.32900728e-02
   2.74834167e-02  1.96758509e-02 -2.06373364e-01 -1.56612098e-01
  -8.38163495e-02  1.30366127e-03 -1.91481002e-02 -5.78310490e-02
   1.47948777e-02  3.83414216e-02 -4.72147278e-02 -2.35307902e-01
  -3.11805867e-02 -4.98282164e-03 -2.75371596e-02  1.12059750e-01
  -7.95975924e-02  2.85264373e-01  3.10033746e-03 -1.84521049e-01
  -4.70697246e-02  3.84120852e-01 -5.87837808e-02  1.22217223e-01
  -5.57916343e-01  9.49540362e-03 -1.21343948e-01  3.25919315e-02
   5.48340306e-02 -6.75795227e-02  9.49945375e-02 -1.35231927e-01]
 [-3.25952731e-02 -9.59264673e-03  2.19947577e-01 -8.13883021e-02
   9.06416506e-04  1.71485674e-02 -3.60253185e-01 -5.05337417e-02
  -4.10680100e-02 -9.90242139e-02 -3.47699933e-02 -6.52100146e-02
  -3.63031060e-01 -4.45955582e-02 -3.01726222e-01  2.74303593e-02
   2.94164747e-01  3.49052131e-01  4.24627140e-02  2.43968487e-01
   6.94571286e-02 -1.39060810e-01  3.04400697e-02  1.95912972e-01
   3.93328577e-01  3.08344036e-01 -2.07633793e-01  1.85155809e-01
   3.24692838e-02 -8.94661397e-02  1.41475037e-01 -6.14312738e-02
   1.84168354e-01 -1.13887554e-02 -3.36907879e-02  1.82834923e-01
   9.43148360e-02 -1.34797379e-01 -5.90065606e-02 -4.09768432e-01
   3.22050676e-02 -3.99932079e-02 -8.00719019e-04  3.57890353e-02
   3.89126539e-02  4.77744341e-02 -2.67826408e-01 -1.49223268e-01
  -5.32860696e-01  5.14164045e-02  2.68841279e-03 -5.18010184e-02
  -3.54254954e-02 -3.02383363e-01  7.06289662e-03 -6.48991987e-02
  -1.37686759e-01  1.10326618e-01 -1.67707697e-01 -2.73000393e-02
  -1.37771182e-02 -1.08942874e-01 -3.73386219e-02  9.00532026e-03
  -2.06114668e-02 -3.19126085e-03 -2.59298801e-01 -1.38213392e-02
  -1.86572462e-01  1.75198108e-01 -4.91742939e-02 -4.61667515e-02
  -4.98069860e-02  3.37897748e-01 -5.00840731e-02 -1.40337974e-01
   4.22915407e-02  3.16792317e-02  2.41989251e-02  3.96681875e-02
  -4.61924702e-01 -2.98940361e-01  5.95457368e-02 -1.13331057e-01
   2.93742977e-02 -3.46383604e-04 -4.77996580e-02 -2.42013745e-02
  -1.51281044e-01  1.71719924e-01 -3.72066647e-02  1.10029671e-02
   2.02560034e-02 -1.58294007e-01 -6.43647313e-02 -5.91319473e-03
   6.67928755e-02 -4.85786051e-03  4.15516198e-02  1.63219988e-01
  -5.48532903e-02 -3.88338305e-02 -3.42489081e-03 -2.82682508e-01
   5.69002666e-02 -5.75800939e-03  4.35886439e-03 -3.67604256e-01
   1.41240777e-02 -1.29345721e-02  8.07023346e-02  3.78576443e-02
  -3.96666199e-01  3.60975027e-01 -3.18033360e-02  3.71256649e-01
  -8.17998350e-02  3.82891923e-01 -3.18681411e-02 -7.47821778e-02
  -3.41503397e-02 -3.23341936e-02  6.33898824e-02  1.28659168e-02
  -6.92180023e-02  4.75893676e-01 -4.29632999e-02 -1.83375046e-01]
 [-5.45001090e-01 -4.11027670e-02 -1.34586051e-01  1.85911745e-01
  -3.79957527e-01 -2.21281807e-04 -2.31188964e-02 -1.80639461e-01
   5.38076013e-02 -2.14937061e-01 -6.96544349e-02 -1.58776585e-02
   5.44883907e-01  7.46439472e-02 -2.85133928e-01  9.52337310e-03
   2.97491163e-01  1.07981801e-01 -2.19473287e-01 -5.15966788e-02
  -1.58744276e-01 -2.01376807e-02 -3.41429830e-01 -1.74361598e-02
  -1.18333802e-01 -3.75275731e-01  7.17791766e-02  1.63064189e-02
  -9.75594819e-02  1.25114009e-01 -3.00387815e-02  5.18912710e-02
   6.52485266e-02 -1.84779502e-02 -4.34902683e-02  1.68785844e-02
  -5.45501038e-02 -4.39420164e-01 -2.53649186e-02 -5.84429018e-02
   3.75709087e-02 -2.72984756e-03 -8.95591546e-03 -1.94895178e-01
   3.37020531e-02  2.65680123e-02 -4.21927385e-02 -4.17378902e-01
   7.59395212e-02  1.97709305e-03 -7.06270710e-02 -3.41861062e-02
   9.71170962e-02  5.77737466e-02  8.08320940e-03 -4.15444039e-02
  -1.85748458e-01  5.87696992e-02 -2.77473539e-01  2.18916595e-01
   3.53133857e-01  2.32982263e-01 -6.57993853e-02  9.86762047e-02
  -4.19048816e-01 -2.50229030e-03  1.80190373e-02  5.63398376e-02
  -9.20478255e-02  1.94572657e-01 -2.27228358e-01  1.01350397e-01
  -1.79284588e-02  4.61421460e-02  4.75586131e-02  2.33768106e-01
  -1.49929032e-01 -2.82948297e-02 -5.90429008e-02 -3.29495035e-02
  -5.91821261e-02  6.45861551e-02 -5.18701851e-01 -4.69429344e-02
  -4.51811552e-02  1.49190009e-01 -7.84338787e-02  1.87139109e-01
   9.34590250e-02 -4.49663818e-01  4.77918088e-02 -3.17166299e-01
   4.97924946e-02 -4.41121846e-01  9.36794207e-02  3.63497809e-02
   1.21494941e-01 -5.18296026e-02 -2.71698058e-01 -3.02414447e-01
   2.82941982e-02  3.53074893e-02  7.09883776e-03 -6.09171726e-02
   4.51416299e-02 -5.55623658e-02 -5.38193621e-02  1.04329586e-01
  -6.83573261e-03 -4.18300778e-02 -2.79826045e-01  1.90064564e-01
   1.90180495e-01 -3.15046728e-01 -2.92900980e-01 -6.40391111e-02
  -3.40232067e-02 -1.25466004e-01  1.36898622e-01 -3.07345786e-03
  -1.10888898e-01 -3.00590191e-02  3.08421534e-02 -6.14259467e-02
  -1.15134507e-01  1.78312600e-01 -2.50055403e-01  1.37875214e-01]
 [-1.91565916e-01 -3.50180618e-03 -1.58656850e-01 -1.63876593e-01
  -9.65669081e-02 -1.85194179e-01 -9.31084342e-03 -8.83893520e-02
  -7.51820952e-02  8.85769650e-02 -2.21350789e-02 -2.78466433e-01
  -3.93202007e-01  3.01955819e-01  5.35917133e-02  2.96563823e-02
  -4.41133082e-01 -1.63827874e-02 -2.79871196e-01 -4.03266102e-01
   1.79758146e-02 -2.14429513e-01  2.04123214e-01  3.92888337e-02
  -7.43896723e-01  1.05300978e-01 -2.49054208e-01 -1.73774377e-01
  -1.28472805e-01  5.80435038e-01 -2.12971807e-01 -9.28151906e-02
   3.62758376e-02  3.15046385e-02 -3.73505540e-02  3.11245739e-01
  -3.29991020e-02  1.69551056e-02 -2.41828457e-01 -9.47412476e-02
   1.55947525e-02  2.81612985e-02  2.23379675e-02 -1.24851853e-01
  -4.46181297e-02  4.80974242e-02 -6.25813365e-01 -1.33390920e-02
  -7.07045794e-02  6.10698434e-03 -3.37593406e-02  5.28517924e-02
  -2.32141949e-02  2.95356542e-01 -1.55215915e-02 -6.26818016e-02
   1.30401820e-01 -3.07463318e-01 -2.35408440e-01  6.85212091e-02
   6.45745248e-02  8.55543613e-02  2.74591036e-02  7.39783570e-02
  -3.09799284e-01 -1.50163416e-02  2.31697336e-02  2.12122016e-02
  -3.41848880e-02 -2.52416700e-01  1.32202059e-01  5.52968122e-02
  -4.09907289e-02  3.23999703e-01 -4.56117839e-02  1.80405244e-01
   1.19082741e-01 -1.40554691e-02  1.72063351e-01 -4.54157330e-02
  -1.02103740e-01 -1.19462878e-01  1.53950140e-01 -9.58849094e-04
   3.59044038e-02  2.25346297e-01 -4.52990271e-02  2.70790726e-01
   1.35456607e-01  1.75749779e-01 -6.59695566e-02  1.34660512e-01
  -2.01440640e-02 -3.20379078e-01  1.05667062e-01 -3.94812366e-03
   5.87677620e-02 -1.60683170e-02  1.59529224e-01 -2.66114891e-01
  -8.51384029e-02 -5.17986529e-02  1.60195176e-02 -1.17656432e-01
   5.24091832e-02  6.42540231e-02  1.35025242e-03  7.55048394e-02
  -4.49813828e-02 -6.10989444e-02 -2.32907578e-01 -2.55009502e-01
  -4.81685013e-01 -2.49545068e-01 -2.75402833e-02  5.80064394e-02
  -4.23657484e-02  1.97693825e-01  1.70217916e-01 -2.50744224e-01
  -9.15770233e-03 -2.58946419e-02 -8.30661878e-02 -1.54922083e-02
   7.75299519e-02  3.24496105e-02  8.27482343e-02  1.32912859e-01]
 [ 2.24288538e-01 -1.79752801e-02  4.25894290e-01  2.36152615e-02
   7.02000558e-02 -1.12210944e-01  3.42160463e-02  4.48145680e-02
   2.02032939e-01  2.61392951e-01 -1.18365781e-02 -2.98766971e-01
  -5.82074560e-02 -2.82158583e-01  2.27112278e-01  3.93457897e-02
  -9.41971898e-01 -2.48288721e-01  3.55680920e-02 -4.62952740e-02
  -2.14169547e-01  1.09891277e-02  1.45876288e-01 -1.77479610e-01
  -5.62076032e-01 -2.36115485e-01 -5.20524606e-02  8.30592681e-03
  -1.16500050e-01  2.61060417e-01  5.32128029e-02 -1.84284419e-01
   6.34491682e-01 -5.69935068e-02 -1.41753964e-02  1.56332061e-01
  -3.00332084e-02  2.52155308e-02 -9.23808992e-01 -1.68466747e-01
  -1.56217627e-02 -7.04807639e-02 -6.70370907e-02 -2.88270414e-01
  -6.35879161e-03 -3.60881118e-03 -6.39830232e-01  1.84342086e-01
  -3.20039630e-01  2.81318463e-02 -2.03619767e-02 -4.29491103e-02
   5.00553707e-03 -2.84410506e-01  2.05472764e-03 -1.63235813e-02
  -7.64132515e-02  1.65405154e-01 -4.04769719e-01  2.36377001e-01
  -5.21431625e-01  2.84802526e-01  4.01137173e-02 -1.50317457e-02
  -1.80816635e-01 -5.35612740e-02 -5.09602204e-02 -3.33178490e-02
  -9.12209302e-02 -5.85493505e-01 -2.03000456e-01 -4.06417958e-02
   2.23769061e-02  2.35580161e-01  4.16382402e-02 -1.59101188e-01
  -3.13668728e-01  8.48505355e-04  2.28473961e-01 -5.76283336e-02
   1.41576910e-03 -2.64490306e-01  4.11993146e-01 -3.97966318e-02
  -2.62305909e-03  4.51022178e-01 -2.49384623e-02  4.40992951e-01
  -1.21799624e-02  3.14899564e-01  2.57718731e-02  2.08182022e-01
  -4.52047773e-02 -9.26121831e-01 -8.74328762e-02 -2.66437070e-03
   2.31618598e-01 -3.94945890e-02 -1.08599909e-01  1.35011062e-01
  -3.17015424e-02 -4.89808954e-02 -1.76681951e-02 -4.58935350e-01
  -2.80797705e-02  6.18662275e-02 -3.06611974e-03  8.55082124e-02
  -5.61159104e-02 -6.34873286e-02 -3.07478487e-01  1.93658173e-01
  -2.23280862e-01 -4.88131046e-02 -6.49064854e-02  3.68633382e-02
  -1.02764562e-01  2.44850442e-01  2.78441191e-01 -4.84000623e-01
  -2.43790254e-01 -3.16548385e-02  1.52939379e-01 -9.64165553e-02
  -9.66361016e-02 -1.45105775e-02  3.54322582e-01 -1.30966753e-01]
 [ 6.74720928e-02 -3.61400284e-02  4.19089720e-02  1.38824269e-01
   9.27987844e-02 -4.53977510e-02 -1.49974495e-01 -2.34869923e-02
   2.40294710e-02 -3.06049883e-01 -6.10331830e-04 -4.28943068e-01
   7.58447722e-02 -6.40053526e-02 -1.63963601e-01 -1.32152950e-02
  -8.72490630e-02 -2.16756389e-02 -2.02937201e-01  1.21464089e-01
   2.12153181e-01 -1.06911920e-01  2.25490764e-01  3.58951330e-01
   2.13534981e-01 -1.76844701e-01 -3.83907586e-01  1.13890566e-01
  -2.66852360e-02 -2.10237205e-02 -1.23084644e-02  2.82438815e-01
   3.33878368e-01  2.90975869e-02  6.74200570e-03 -2.85832882e-01
  -1.16319552e-01  4.13304001e-01 -1.65253460e-01 -5.94298542e-01
  -5.40648513e-02 -1.64496293e-03 -6.82882667e-02 -2.03533247e-01
  -2.35330444e-02 -6.26300052e-02  4.05229092e-01 -3.22676659e-01
   4.36220199e-01 -5.13019133e-03 -7.53718764e-02  2.86682192e-02
  -4.84147370e-02  2.93143809e-01 -3.30544189e-02  1.79027859e-02
   4.29172814e-02  1.68876186e-01  3.13921273e-01  1.85656741e-01
  -4.55274573e-03 -2.16489837e-01 -3.87351774e-02  2.35792682e-01
  -3.20318073e-01  2.25003771e-02 -1.16640178e-04  9.92936641e-03
  -4.53123730e-03 -1.19344242e-01  1.38335362e-01 -3.11255660e-02
  -4.14435305e-02  3.35233733e-02 -1.37568777e-02  4.84936908e-02
   1.54085010e-01  7.50561303e-04  3.57523598e-02 -1.84312873e-02
  -8.49835649e-02  2.08965093e-01  1.51771113e-01 -3.92914005e-02
   1.14317900e-02  4.10501286e-02 -3.32800783e-02  2.65747696e-01
  -1.94439050e-02 -1.15429603e-01 -6.89578950e-02  7.27246106e-02
   1.51982659e-03  2.09344193e-01 -2.74403207e-02 -3.03551350e-02
  -1.48953348e-01  3.43569592e-02  1.15063280e-01  2.29915932e-01
   2.49209553e-02 -3.28075048e-03  3.20391767e-02 -3.33400041e-01
  -3.01753748e-02 -4.33097407e-02 -5.19635007e-02  1.33663610e-01
   3.09157223e-02  1.96799003e-02  3.84867609e-01 -2.13506892e-01
   3.44788767e-02 -1.32190855e-02 -2.59977765e-02 -1.96987644e-01
  -7.37079456e-02  1.72143683e-01  8.35994631e-02 -2.49781599e-03
  -2.25034729e-01  1.88036971e-02  1.04281893e-02 -6.55101910e-02
  -6.40936941e-02 -6.32729828e-02 -4.81273606e-02  4.40240502e-02]
 [ 5.52867427e-02 -7.82666653e-02 -1.17953919e-01 -2.63372511e-01
  -1.64272621e-01 -8.65232646e-02 -3.87786813e-02  6.88465983e-02
  -2.74398059e-01 -1.79716915e-01 -5.00373356e-02 -1.84467465e-01
  -3.73850130e-02 -2.22666189e-01 -5.11238351e-02 -2.41217297e-02
   1.37576357e-01 -2.58151114e-01 -2.84232438e-01 -1.88861564e-01
  -5.10492399e-02  7.52684893e-03 -1.31508093e-02 -7.44731515e-04
  -2.14295343e-01  1.32606119e-01 -1.83683410e-01 -1.05608925e-01
  -1.50297135e-01  1.10517144e-01 -1.65715411e-01 -9.29646865e-02
   2.58390725e-01 -3.94642055e-02 -3.85598093e-02 -2.94049680e-01
  -6.15265667e-02 -1.82198554e-01 -1.21215098e-01  6.24365062e-02
   1.60873234e-02 -4.51195203e-02  1.26244100e-02 -1.86922643e-02
  -7.02756420e-02  2.60501076e-02 -1.26173258e-01 -1.44036338e-01
   2.04944108e-02 -6.84060529e-02  2.41980162e-02 -1.73626952e-02
  -1.50450738e-03 -2.32650846e-01  7.39176944e-03 -3.45979631e-03
  -4.04829234e-02 -3.03107530e-01  9.86110866e-02  4.52614091e-02
   3.08418628e-02  1.94355235e-01  1.25211561e-02  2.82651901e-01
  -1.37804210e-01 -4.82637174e-02  1.11938538e-02  4.18345593e-02
  -1.36247307e-01 -5.95530123e-02  7.94865340e-02  2.89477268e-03
  -7.30155110e-02 -1.94585800e-01 -7.55324215e-02 -4.68030721e-02
  -1.72548577e-01 -3.92403789e-02  1.27115443e-01 -2.61106025e-02
   1.11613134e-02 -1.33742038e-02  1.09109478e-02 -2.51924723e-01
   7.76206609e-04 -2.23071262e-01 -1.88847575e-02 -9.40003842e-02
  -1.16722994e-01  3.39940153e-02 -9.53504518e-02 -2.20978364e-01
  -1.43583436e-02 -3.54736924e-01  3.66966426e-02  4.99331877e-02
   5.61450347e-02 -6.93984032e-02 -7.26691931e-02 -1.23700038e-01
   2.62648147e-02 -7.80605478e-03  2.73673441e-02  1.04163744e-01
  -5.33483587e-02 -6.62305430e-02  2.73505673e-02 -1.36981323e-01
   4.11712890e-03 -5.38931526e-02 -3.10513675e-01  2.27521565e-02
   5.80967292e-02  9.39150155e-02  9.69839618e-02  1.10367052e-02
  -2.29499340e-02  1.97507709e-01 -2.34239046e-02 -4.02529798e-02
  -4.40446287e-01 -1.74097903e-02 -1.77021354e-01  7.12187588e-02
   5.83865494e-02 -1.31647646e-01  5.75405285e-02  3.21734771e-02]
 [-3.38927329e-01  3.68589275e-02  1.30869344e-01 -4.32697058e-01
  -2.22805470e-01 -1.11502353e-02 -4.15342420e-01 -1.22820914e-01
   4.32986505e-02 -3.65781993e-01 -6.02674522e-02 -7.91667178e-02
   7.78744817e-02  2.79011726e-01  2.39429429e-01  4.68613580e-02
   3.63237321e-01 -1.50475308e-01  2.34133393e-01 -1.11691192e-01
   2.88953036e-01  1.11597227e-02  3.77738684e-01 -1.69936083e-02
  -1.77505180e-01 -1.46939596e-02  3.65381509e-01  1.90980017e-01
   4.75118719e-02 -1.56424224e-01  2.55691588e-01  2.64447719e-01
  -2.00796679e-01  3.94314155e-02 -5.60879074e-02 -1.23674572e-01
   7.28707984e-02  3.50240953e-02 -4.62915212e-01 -4.46203232e-01
  -3.29357609e-02  2.77248118e-02  3.81601751e-02 -3.74357887e-02
   3.26697566e-02 -1.16327358e-02  2.53669977e-01 -2.26209968e-01
  -2.52623290e-01 -3.05479895e-02 -4.25786972e-02 -3.34740407e-03
  -3.38897184e-02 -3.84128839e-01 -5.99617697e-02 -1.03376638e-02
   6.72218353e-02 -2.52946671e-02 -3.03149194e-01 -1.03777215e-01
  -4.01367426e-01 -3.56819093e-01  1.27597256e-02  6.81196302e-02
  -1.99287664e-02 -3.15372311e-02 -1.65275231e-01  1.92640070e-02
  -1.01946332e-01  1.46359457e-02  2.51818806e-01  1.68373098e-03
   3.17076184e-02 -7.48848589e-03 -5.84213473e-02 -2.50131369e-01
  -1.29803410e-02  1.96842086e-02 -1.70285180e-01 -6.20112345e-02
  -9.62651074e-02 -6.73185140e-02 -2.05231637e-01 -3.20032537e-01
  -2.20127590e-02 -2.48233363e-01  3.65757085e-02 -7.37703815e-02
   5.46316840e-02 -1.58207759e-01  4.13663313e-02  3.08079273e-01
  -4.06112336e-02  1.26830697e-01 -6.40529990e-02 -5.19093312e-02
   3.03816170e-01 -4.86221872e-02 -1.42582223e-01  4.05738503e-02
  -2.69793812e-02  3.63888443e-02  4.41583572e-03 -2.15287149e-01
   4.47976105e-02  4.29657334e-03  2.71461364e-02 -4.51967627e-01
  -6.32097423e-02 -4.99552302e-02 -4.96875882e-01  4.72857095e-02
   2.93205231e-01 -4.32704315e-02  8.71512368e-02 -8.71398766e-03
  -1.84672698e-02 -2.56152958e-01  7.69587383e-02 -1.35687873e-01
  -2.44306818e-01 -2.35574283e-02  7.66490474e-02 -6.25805929e-02
   1.51799843e-02  3.35874438e-01 -1.36611581e-01  9.68943387e-02]
 [-3.74177426e-01 -2.11486407e-02 -2.27046698e-01  1.11267949e-02
  -4.81503278e-01 -3.77449617e-02  1.37991598e-02  5.89880526e-01
  -2.86270957e-02 -4.30433393e-01  1.66965686e-02  4.51680496e-02
   3.83757442e-01 -6.09258533e-01  3.46547157e-01 -8.13473668e-03
   2.91730344e-01 -4.32213962e-01  2.56723553e-01 -1.63526133e-01
  -2.68727273e-01  1.46694726e-03 -1.47289664e-01  2.13895276e-01
  -3.79194111e-01 -1.70104876e-02  2.66929388e-01 -1.93828836e-01
   3.41235884e-02  1.19060174e-01 -1.92764819e-01 -3.69026691e-01
  -1.23094618e-01  4.42976952e-02 -2.13358328e-02  2.28108808e-01
   8.04963708e-02 -1.02590427e-01 -3.99669915e-01  2.57155150e-02
  -3.08490749e-02  5.54030351e-02 -5.24015762e-02 -1.99031718e-02
  -1.69253664e-03 -4.24692854e-02 -4.77588862e-01 -1.63010716e-01
   8.82587358e-02 -1.68228354e-02 -6.22576289e-02 -2.63572372e-02
   5.62049598e-02 -1.49189066e-02 -5.95616512e-02 -4.63902112e-03
  -5.61719015e-02 -1.54298216e-01 -3.57415110e-01 -1.39268756e-01
  -4.73703779e-02  4.85735446e-01 -1.82088390e-02  4.99738306e-01
  -4.67782885e-01 -4.01423015e-02 -2.65061706e-01 -3.76821496e-02
   7.18370313e-03 -5.51123684e-03 -5.96805036e-01 -3.27855237e-02
  -2.28123218e-02  9.57527198e-03  2.58332049e-03  1.09203331e-01
  -1.07051715e-01  6.58514500e-02 -2.27798134e-01 -3.36794518e-02
  -2.30304711e-02 -6.88507333e-02 -8.13630700e-01 -6.03930764e-02
   5.92874475e-02  2.87839562e-01  1.01944776e-02  2.82772303e-01
  -5.68603352e-02 -5.23050487e-01  3.66613315e-03 -5.19165099e-01
   7.07834810e-02  2.95719981e-01  3.09923917e-01 -3.04665659e-02
  -1.29177436e-01 -4.23630513e-02 -2.17587531e-01  3.93487036e-01
   3.69196609e-02 -4.55198288e-02 -3.02524883e-02  1.60393000e-01
  -3.37097421e-02  2.76807174e-02  1.81508120e-02  5.10614574e-01
   1.99612416e-02  3.32902074e-02 -5.02040982e-02  9.23699066e-02
   1.11688986e-01 -4.80552346e-01 -9.79227498e-02 -7.72638172e-02
   2.03354545e-02 -5.62507391e-01  3.91782433e-01 -2.65593939e-02
   5.48942462e-02 -3.52798402e-02  1.93666983e-02  7.07907230e-02
   3.11489683e-02 -1.25673667e-01 -6.01313233e-01 -2.40284074e-02]
 [ 1.07239513e-02  4.07291166e-02  3.91469389e-01  1.36933342e-01
  -1.70367256e-01  1.65869534e-01  3.18925709e-01  2.89454937e-01
  -1.23735160e-01 -3.81682426e-01 -2.33091391e-03 -5.19206464e-01
   2.51787394e-01 -6.61162436e-02  1.88572615e-01 -3.58361937e-02
   2.40869328e-01  7.60171041e-02 -5.06867290e-01 -1.48232073e-01
  -4.01672691e-01  1.00877676e-02  5.87809123e-02  4.18366313e-01
  -5.42371511e-01 -2.45632738e-01 -9.91443247e-02  3.24750513e-01
   1.33875981e-01  1.09909780e-01 -1.81838796e-01 -2.09953919e-01
  -2.63242662e-01  2.32213791e-02 -2.12606154e-02 -2.83073559e-02
  -8.27028826e-02  7.01161027e-02 -9.48320210e-01  2.56870687e-01
  -6.15438186e-02 -3.42657715e-02  5.87111805e-03 -8.97281468e-02
  -7.52694234e-02 -5.28217182e-02 -5.40006220e-01 -4.73345071e-01
   1.06978148e-01 -6.92933574e-02 -6.59460053e-02 -4.47062030e-02
  -5.39946258e-02  1.12552851e-01 -2.11472046e-02  3.49797532e-02
  -1.04525663e-01 -3.86231810e-01  6.29935637e-02  1.47955686e-01
   2.37929210e-01  6.21905625e-02 -6.15042448e-02  1.31037951e-01
  -2.54500896e-01 -3.99123020e-02 -6.44696951e-02 -7.18707666e-02
   1.67898182e-02  1.27455071e-01 -1.50646374e-01  2.56712325e-02
   1.53289735e-03 -9.02058929e-02  3.34523208e-02 -1.11422755e-01
  -7.80174509e-02  2.51414254e-02  1.17350854e-01  2.93438509e-02
  -1.50319383e-01 -2.78400742e-02  5.42648658e-02 -8.85096192e-02
   4.79027741e-02  2.75805205e-01  4.37523276e-02 -9.94447153e-03
   2.77600914e-01  3.07423085e-01 -8.73815790e-02  1.16932215e-02
  -4.74896766e-02  4.21413779e-02  2.70376988e-02  3.14978398e-02
   3.09544504e-02 -2.20829695e-02  6.98323501e-03  3.23705450e-02
   3.72049287e-02 -5.69100305e-02 -5.20884432e-02 -3.17656398e-01
   1.83319033e-03 -3.15278508e-02 -1.23236328e-01  2.35878095e-01
   2.55478304e-02  3.41802761e-02 -3.66366357e-01  2.22810715e-01
  -4.44831461e-01  4.15610373e-02  2.03280956e-01 -1.27155976e-02
  -4.22458947e-02 -1.96518421e-01 -1.57844499e-01 -4.46629763e-01
  -2.78994292e-01 -3.42858434e-02 -3.96919847e-02 -8.19564164e-02
   7.58688524e-02 -1.72626168e-01  3.06240786e-02 -1.22343719e-01]
 [-1.26867861e-01  2.66940948e-02  2.16341510e-01  7.99338520e-02
  -8.62154812e-02  5.05127665e-03  1.42598286e-01  4.05467376e-02
   1.94338132e-02  3.22422802e-01 -4.44708541e-02 -1.63348746e-02
   1.54760107e-02  7.33667985e-02  2.52224393e-02 -5.48965670e-02
  -6.38090491e-01  2.23859191e-01  1.79172028e-02  2.16453195e-01
  -1.20687328e-01  9.37424824e-02 -8.34319964e-02 -7.17649311e-02
  -6.72144115e-01 -2.53534883e-01 -5.12292869e-02  9.70108956e-02
   3.68266366e-02  6.13402873e-02 -9.09267813e-02  4.95869741e-02
   4.01268870e-01 -8.42214301e-02 -4.21755873e-02 -4.66958523e-01
   7.16213956e-02  4.01155949e-01 -9.04109895e-01 -3.15928936e-01
   2.71604471e-02  3.46828997e-02  5.10018840e-02 -1.63704708e-01
  -8.26211125e-02  1.19597716e-02 -4.02810961e-01 -5.20140752e-02
   2.83427704e-02 -6.69965222e-02  3.03810704e-02 -2.38738041e-02
   1.58561599e-02 -7.01079741e-02  5.17165242e-03 -2.31389273e-02
  -5.54897189e-02 -1.78813323e-01  8.93002898e-02  3.39364618e-01
   8.84164646e-02 -1.19829781e-01  2.15905253e-02  2.18793571e-01
  -3.60338800e-02  1.51404403e-02  1.17625184e-01  5.50121441e-03
   8.51215199e-02 -2.35310271e-01 -4.25898850e-01  4.63027060e-02
   4.67795879e-02  3.73210818e-01  3.47529054e-02  1.34817794e-01
  -1.82077754e-02 -9.69053153e-03 -4.42799218e-02 -1.90124083e-02
  -9.39631537e-02  1.76835120e-01  1.70438811e-01  4.88494635e-02
   3.39323431e-02  5.23481488e-01 -4.17666696e-02  3.19265395e-01
   2.06370085e-01  2.89345086e-01  7.96091482e-02  9.02947709e-02
   4.48846854e-02 -7.12777913e-01 -1.10377781e-01 -5.92992790e-02
   1.59330800e-01  5.11411838e-02 -2.45309487e-01  7.97611997e-02
  -1.20885056e-02  1.33878849e-02 -6.42128065e-02 -4.20970470e-01
  -4.55070771e-02  5.42352870e-02 -1.43063711e-02 -2.23292559e-01
   1.29366908e-02 -2.48145987e-03 -1.41274229e-01  1.15743168e-01
  -1.00903034e-01 -2.48523027e-01 -2.00033328e-03  1.25335217e-01
  -5.93360960e-02  2.09255472e-01  2.96202958e-01 -2.54579008e-01
  -2.93152541e-01 -2.04667542e-02  3.22752804e-01 -5.69128431e-02
  -1.64911091e-01  3.18753958e-01  1.44577041e-01 -7.38775060e-02]
 [ 4.31829430e-02 -4.86897901e-02 -1.83618531e-01  2.76858687e-01
  -2.71951586e-01  7.87192956e-02  3.69707271e-02  8.97853449e-02
   7.10090175e-02  4.48358841e-02 -8.55106413e-02 -2.86932796e-01
   1.41518220e-01  3.94224860e-02 -1.24973886e-01 -2.33146194e-02
  -1.04460269e-02 -1.71945710e-02  2.09217951e-01  1.30622759e-01
  -1.84481218e-01  1.37418568e-01  1.36607662e-01 -2.10936386e-02
   1.52863443e-01 -1.94890380e-01 -1.86415501e-02 -1.35406703e-01
   1.47589128e-02  8.30281600e-02  3.22773486e-01  2.21517816e-01
  -2.27255207e-02 -2.19086098e-04 -8.50476772e-02 -8.06657411e-03
  -1.24433033e-01 -7.02524111e-02 -4.73786265e-01  6.63319454e-02
  -5.56126190e-03 -2.53052991e-02  5.98021597e-02  1.44407956e-03
  -1.08740544e-02 -9.39959064e-02  1.30441673e-02 -4.37543422e-01
   6.12060800e-02 -4.00307477e-02 -2.52424367e-02  5.16696945e-02
  -5.35169654e-02 -1.15322851e-01 -7.84599856e-02 -5.14598936e-02
   5.54006621e-02  1.91080887e-02  2.34940946e-02  1.70374900e-01
   1.36302963e-01  1.63895473e-01  2.14839876e-02  1.21238530e-01
   3.14815044e-01  1.25117702e-02 -1.88050687e-01 -6.02854826e-02
  -2.35691238e-02  1.98554009e-01 -1.00029461e-01  3.17282416e-02
  -2.16359738e-02  1.41696250e-02  4.05016914e-02 -1.52222931e-01
   4.78296429e-01 -4.55439053e-02  1.53799757e-01  1.33317960e-02
   3.58590372e-02 -1.17807932e-01  3.79301496e-02 -5.46343684e-01
   1.53005254e-02 -1.13958478e-01 -1.11369723e-02 -1.50500864e-01
  -4.09463532e-02  2.30412126e-01  3.41961347e-02 -1.04747703e-02
  -5.67478500e-02  3.92731905e-01 -1.44067630e-01 -6.68643117e-02
  -2.69940197e-01  1.82946548e-02  3.22525322e-01  1.00319527e-01
  -6.97637647e-02  2.58264411e-02  6.39604917e-03 -1.30764902e-01
  -2.05706656e-02 -2.02449244e-02 -7.82165229e-02 -6.47841543e-02
  -9.67098493e-03 -6.34602755e-02 -3.99078757e-01  1.92235783e-01
  -3.60004306e-01 -3.07923436e-01 -1.80102128e-04  2.65659690e-01
   2.20520198e-02 -3.01404566e-01  2.54384011e-01 -5.20842791e-01
   2.87165325e-02 -4.00769636e-02  7.72582963e-02 -9.81839374e-02
   5.26552089e-02 -7.54447728e-02 -1.73965488e-02  2.70124406e-01]
 [-1.81423724e-02 -3.51761915e-02 -3.61685127e-01  4.09440584e-02
  -3.08344722e-01 -2.82089651e-01  3.81176881e-02 -1.28144413e-01
  -9.81658697e-02  7.72373080e-02  7.78236380e-03 -2.62796015e-01
  -1.24331685e-02 -2.30229229e-01 -3.14605162e-02  4.72233854e-02
   9.58449915e-02 -1.76106915e-01 -2.24205375e-01 -4.80105542e-02
   1.22922987e-01  1.15594074e-01 -5.05552441e-02 -7.74824470e-02
  -1.65628240e-01  1.17418446e-01 -1.04675718e-01 -1.67062834e-01
  -4.41229567e-02 -3.51680107e-02 -2.60436386e-01  9.71040353e-02
   2.18833074e-01 -3.11787520e-02 -9.55666229e-03  5.69610633e-02
   2.66543906e-02 -1.75252602e-01  6.41055331e-02 -8.77686441e-02
  -2.95530632e-03 -5.90536967e-02 -1.14233289e-02 -7.34139001e-03
  -7.28692934e-02  5.48231676e-02 -1.52509600e-01 -4.15070742e-01
  -1.84785098e-01 -7.54839778e-02  1.81297667e-03  1.66241415e-02
   8.57067760e-03  3.93116660e-02 -4.29552458e-02  1.80520602e-02
   9.60579421e-03 -1.45142585e-01 -1.33809090e-01 -1.23760276e-01
  -7.95311108e-02  8.55400935e-02 -7.87752643e-02  1.69150885e-02
   1.28963009e-01 -6.99273795e-02 -1.21140942e-01 -3.14144902e-02
  -1.78846233e-02 -1.76170900e-01  3.32854153e-03  3.71158421e-02
   1.22919409e-02 -2.20276527e-02 -3.15160900e-02 -9.17696580e-02
   8.05765670e-03 -3.76610011e-02  1.65325239e-01  5.07369777e-03
   1.73727915e-01 -6.48099780e-02 -1.69794068e-01 -2.25878030e-01
  -3.11743971e-02 -1.19827338e-01 -1.70766227e-02 -1.67567998e-01
   1.24280728e-01 -1.30460799e-01 -7.46988356e-02 -3.23176771e-01
   4.34668772e-02 -2.79179275e-01  1.14922523e-01  4.99702524e-03
  -4.19692993e-02 -6.57728389e-02 -1.23135082e-01 -8.13344046e-02
   2.24577426e-03 -2.42539868e-02 -5.56918792e-02  1.55200556e-01
  -5.87140806e-02  1.77829750e-02 -3.19418088e-02 -1.75422445e-01
  -5.94066828e-02 -3.77539285e-02 -6.14399910e-01 -1.38941422e-01
   1.03245281e-01 -1.92474551e-03 -2.97033060e-02 -6.88671321e-02
  -3.87160177e-03  1.25744939e-01 -1.35455340e-01 -6.34875149e-02
  -2.15932265e-01 -5.87468152e-04 -3.61964941e-01  4.41964008e-02
  -2.31914073e-02 -6.57220259e-02  4.89315279e-02 -1.23111308e-01]
 [-1.88403741e-01  5.26347831e-02 -8.05021171e-03 -6.90584481e-02
  -2.09960014e-01  1.89302772e-01 -3.19871217e-01 -1.97104841e-01
   3.49375382e-02 -9.28090140e-02 -5.67633845e-02  2.14224448e-04
   1.14476129e-01  1.97127894e-01 -2.45698150e-02 -2.13137846e-02
  -7.86395520e-02 -1.71343356e-01  3.74490798e-01  6.48272410e-03
  -1.19212799e-01  4.43314128e-02  4.03268814e-01 -2.43439585e-01
  -1.22953907e-01 -1.11810744e-01 -9.94333718e-03  7.31167793e-02
   1.75087556e-01 -7.36442879e-02  6.04448542e-02  8.58598948e-02
  -2.07311325e-02 -5.02943285e-02  5.27394935e-02 -1.72247931e-01
   5.52081689e-02  1.99729770e-01 -4.39096808e-01 -2.96421289e-01
   2.43757125e-02 -1.02135278e-02  1.87938288e-02  7.29157776e-02
   6.91872686e-02 -5.44394888e-02  1.67711869e-01  1.64144486e-01
   6.35831133e-02 -2.40740177e-04  3.40611525e-02 -2.76007503e-02
  -1.13839761e-03 -2.10560471e-01 -2.65818611e-02 -3.00946180e-02
  -2.69797087e-01  9.02267694e-02  2.24521875e-01  4.62107733e-03
  -1.14311375e-01  3.29042256e-01 -6.50643110e-02 -2.84316748e-01
  -5.39720152e-03  1.42456964e-02 -1.63157672e-01  5.03955968e-02
   1.34863565e-02  1.32635266e-01  2.87066624e-02  4.86826822e-02
  -2.55462881e-02  2.82171130e-01  3.67200077e-02 -9.30052251e-02
  -4.66221049e-02  1.34830177e-02 -5.54817691e-02  1.16127403e-02
   3.90270054e-02 -2.86421120e-01  1.21075325e-01 -3.62269998e-01
   6.35559112e-02 -1.71036512e-01 -5.53563908e-02 -1.51139259e-01
  -1.05352581e-01 -3.03335667e-01  4.28756662e-02  1.87907219e-01
  -1.96880028e-02  3.62530202e-01 -4.38426435e-01  3.80161661e-03
   4.37431842e-01  3.65910791e-02  2.37142548e-01 -6.33672392e-03
  -4.65830676e-02  3.85421403e-02 -1.24188494e-02 -1.49726644e-01
  -4.90043238e-02 -2.50484869e-02  2.48865373e-02 -4.42834437e-01
   4.64519076e-02 -1.82700548e-02 -5.35463929e-01  5.25930338e-02
  -1.75358355e-01  9.84885022e-02  4.27066058e-01  4.57958020e-02
   3.97885852e-02 -2.14510322e-01 -1.45008102e-01 -4.39784080e-01
  -2.91893542e-01 -5.24767190e-02  1.35558188e-01  1.47480406e-02
  -5.50820492e-02 -8.75379741e-02  1.88605204e-01  7.35563040e-02]
 [-1.25918284e-01 -3.64208743e-02 -2.48444661e-01 -3.08831573e-01
  -2.93641597e-01 -1.79414466e-01 -7.94838071e-02  6.33685768e-01
  -7.67236874e-02 -4.48172301e-01 -4.87087108e-02 -1.78874135e-01
   5.94829977e-01 -3.25071841e-01  4.85391319e-01 -4.41914573e-02
   1.14041075e-01 -5.65978169e-01  3.49987805e-01  1.91813692e-01
  -1.89781502e-01 -6.85369447e-02 -2.42452603e-02 -1.90376565e-01
  -2.29123354e-01 -4.32751291e-02  2.28192627e-01 -8.01353678e-02
  -2.58223474e-01 -9.11292154e-03 -1.38819903e-01 -1.06220558e-01
  -5.40635809e-02  4.93865944e-02  5.87090179e-02  1.49271324e-01
  -1.50231933e-02  7.06275478e-02 -1.66156650e-01 -2.59381179e-02
  -4.34334576e-02  5.79023454e-03 -2.45452323e-03  5.50648272e-02
   3.91148366e-02 -1.51981516e-02 -7.16567263e-02 -1.27664462e-01
   4.89831679e-02  8.48209038e-02  1.31187066e-02 -9.02420282e-03
   5.43596596e-03  2.45682806e-01 -5.96221313e-02  5.52475415e-02
  -5.98655380e-02 -3.36308889e-02 -5.43693781e-01 -1.13358743e-01
   1.41436189e-01  4.49717790e-01 -1.20105529e-02  1.02603662e+00
  -3.03102881e-01 -2.87552271e-02 -1.61734000e-01 -5.17989434e-02
   5.35386465e-02  1.23018205e-01 -4.51052755e-01 -8.31853449e-02
  -5.92136271e-02 -2.05741934e-02  5.74026108e-02 -2.54074216e-01
  -5.96850574e-01  5.76888882e-02 -3.12754251e-02 -8.66906792e-02
  -3.11170965e-01  1.79018348e-01 -7.59838164e-01  1.20775856e-01
  -5.11729233e-02 -5.18955477e-02 -1.73984729e-02 -4.58993584e-01
   1.37149379e-01 -8.64300609e-01  2.44797040e-02 -2.55814433e-01
   3.09044756e-02  4.13218021e-01  1.77586362e-01 -2.60387035e-03
  -1.19886354e-01 -1.46327838e-02 -3.47088814e-01  3.12428981e-01
   3.03869396e-02  4.08522300e-02 -4.47400324e-02  1.65681869e-01
  -3.36222425e-02  6.20134221e-03 -3.64657715e-02  1.92466319e-01
  -2.37991698e-02  3.15499455e-02 -3.42640793e-03  2.13229269e-01
   3.63829643e-01 -5.27227044e-01  5.24014831e-01 -9.07735676e-02
  -5.15382029e-02 -5.16745806e-01  3.18643838e-01  2.04053864e-01
  -2.65689969e-01 -2.53264830e-02 -1.56007528e-01  8.49315450e-02
  -4.51164991e-02  3.71855758e-02 -5.44832468e-01  1.63925067e-01]
 [ 2.86746383e-01  2.28562187e-02  4.50547226e-03  2.84465998e-01
   1.39883563e-01 -5.23783118e-02 -9.70195234e-02  3.78736891e-02
  -4.84710932e-02 -3.89507234e-01 -4.55927663e-02 -1.64051384e-01
   2.38777831e-01  2.99112052e-01  5.23496866e-01  3.86923389e-03
   2.40116641e-02  6.52065650e-02 -5.10806918e-01 -8.29477683e-02
   2.81622887e-01 -1.05774604e-01  2.15787917e-01  8.52159187e-02
  -3.25292408e-01 -2.00939432e-01 -1.03939682e-01  3.53966177e-01
   1.54094204e-01  2.42002517e-01  1.52533129e-01 -3.65285546e-01
   4.84175459e-02 -3.07690334e-02 -5.11261029e-03  1.48125872e-01
   1.22093726e-02 -7.83447996e-02 -3.90625328e-01 -1.04149751e-01
  -2.33439952e-02  8.07627942e-03 -5.86417094e-02  1.55938426e-02
  -5.89195341e-02 -2.67459918e-02 -4.18386459e-01  2.76887743e-03
  -3.82870482e-03 -1.68786931e-03 -1.34622324e-02 -1.84469335e-02
  -1.59345698e-02  1.00375228e-01  1.77991372e-02  4.04176898e-02
  -8.08383524e-02 -5.17752133e-02  2.56381989e-01 -1.26990899e-01
   1.51054367e-01  7.23766237e-02 -7.20357820e-02  1.66111231e-01
   1.51855303e-02 -7.79173046e-04 -2.32831195e-01  7.41825486e-03
  -9.86845568e-02 -1.49860710e-01  3.21765482e-01  4.27874103e-02
  -5.91683388e-02 -3.64660025e-01 -7.27664493e-03  7.07975924e-02
   9.14321393e-02  3.22258584e-02  3.45570058e-01  5.69027569e-03
  -2.30542690e-01 -1.14854395e-01 -1.22921273e-01 -2.02809304e-01
  -2.77264491e-02 -1.57075107e-01 -4.88916151e-02  5.86213879e-02
  -1.01411723e-01  1.82093084e-01 -3.10141444e-02 -2.13608220e-01
  -3.30513865e-02 -7.21497595e-01 -1.16706729e-01  1.66413262e-02
   3.12341619e-02 -5.18277399e-02 -2.77756751e-01 -4.51885164e-03
  -4.75270003e-02  4.49451879e-02 -2.95111928e-02 -4.56696749e-03
  -6.95588440e-02 -9.21032056e-02  1.06052393e-02 -2.50284374e-01
  -2.86803730e-02 -7.83447921e-03 -3.73890966e-01  7.82467797e-02
  -1.31612748e-01 -3.78249064e-02  1.34935901e-01 -2.56474733e-01
  -6.43843710e-02  1.76787615e-01 -2.68439144e-01 -2.70053864e-01
   4.93486896e-02  9.79285873e-03  6.75002187e-02 -6.26775846e-02
  -4.83894069e-03 -3.82396191e-01  1.59861371e-01  4.47390825e-02]
 [ 1.44539326e-01  1.21310893e-02  1.99413255e-01  9.13764685e-02
  -1.49475843e-01 -2.87498295e-01  1.23980187e-01  9.90664288e-02
  -1.15633465e-01 -6.28622770e-02 -5.00527918e-02  1.76844411e-02
   4.33985852e-02  1.29322708e-01 -1.41848950e-02 -1.06256912e-02
  -4.74971950e-01 -2.06514776e-01  9.78565887e-02  6.68767840e-02
   2.24130228e-01  1.92266896e-01  1.53140888e-01 -5.12309633e-02
  -6.34524375e-02 -5.04461229e-01  4.58401591e-02 -3.64227265e-01
   1.18952624e-01 -2.41820198e-02  7.63062686e-02 -3.62855822e-01
   1.15333572e-01  6.94275193e-04 -3.82330045e-02 -3.63417238e-01
   5.67454956e-02 -1.19846448e-01 -6.45945489e-01 -2.85138134e-02
   2.62434576e-02 -3.13996896e-02  4.85081784e-02 -7.71500319e-02
  -5.22661321e-02 -4.67045791e-02 -2.01405853e-01  3.31961326e-02
  -3.27367708e-02  3.71905677e-02  2.95393299e-02 -4.00895327e-02
  -2.13903189e-02 -6.77050874e-02 -9.96443722e-03 -3.83800119e-02
  -9.46720019e-02 -4.70382720e-02 -3.03271353e-01  1.45978674e-01
  -1.34738907e-01  4.16711390e-01 -2.83483621e-02  1.82563439e-01
  -3.29378724e-01  3.85971554e-02  1.31248981e-01 -9.50364117e-03
  -5.85588627e-02 -1.00628090e+00 -3.48628014e-01  2.90304478e-02
   5.00374138e-02  2.19912961e-01 -7.72689730e-02 -4.14917134e-02
   8.75457078e-02  8.14206339e-03  1.95166200e-01 -7.51085803e-02
  -1.88003287e-01  3.59414160e-01  8.28756467e-02 -1.04407072e-01
  -2.27829795e-02  5.94915003e-02 -9.06714797e-02  1.24843411e-01
   1.91615924e-01  2.94067830e-01  7.88917243e-02 -2.75893450e-01
  -2.79881321e-02 -1.22151446e+00 -2.07794368e-01 -4.03152853e-02
   5.71161807e-01  5.80173265e-03  1.98279604e-01  2.54151672e-01
   2.16818526e-02 -5.95764183e-02  2.15922520e-02 -3.22122723e-01
  -8.67997557e-02 -1.02177873e-01 -7.07787573e-02 -7.35680806e-03
   3.25839072e-02 -3.78605700e-03 -1.82085380e-01 -6.53610798e-04
  -5.04612923e-01 -3.74268413e-01 -1.94690704e-01  1.84633583e-01
   1.69675797e-02  1.18312083e-01  3.35710108e-01 -2.16120213e-01
  -4.44070667e-01 -1.13069657e-02  3.19058537e-01  8.58974829e-03
   1.27941463e-02 -1.11804575e-01  5.28438799e-02  8.43711719e-02]
 [ 1.92712426e-01  6.24741334e-03  1.23979785e-01  2.26773083e-01
  -2.34890985e-03  3.65489908e-02 -1.58631414e-01  1.51735321e-01
   6.79145977e-02 -4.35037799e-02 -5.76410629e-02 -1.99560206e-02
  -1.47974521e-01  3.19503635e-01 -6.63889572e-02 -3.67054716e-02
  -2.32509747e-01 -7.59518370e-02 -5.07415354e-01  2.95412093e-01
  -7.94131607e-02 -1.33318946e-01  4.24522281e-01  1.04532009e-02
  -3.18752915e-01 -2.87540972e-01  5.91758750e-02  2.22423300e-01
   1.61049962e-01  1.80266976e-01 -8.56124684e-02  7.63149140e-03
   1.97911292e-01 -2.43701190e-02 -7.65253380e-02 -1.52083226e-02
  -6.22331724e-02 -1.72640771e-01 -1.80803120e-01 -1.11524485e-01
   2.85494179e-02 -6.26174137e-02  2.07110159e-02  2.90042937e-01
  -7.22095743e-02 -8.18129480e-02 -1.45136356e-01  1.07198894e-01
   8.68843198e-02 -2.34735338e-03  2.43048705e-02 -2.18125549e-03
  -6.19314723e-02 -2.08354765e-03  4.70835753e-02  6.09346782e-04
   3.21390152e-01 -5.15578799e-02  1.24253511e-01  2.19238698e-01
   1.43605536e-02 -1.18236309e-02  1.64263658e-02  2.56516814e-01
  -8.82955939e-02 -2.36283839e-02 -7.14085773e-02  3.52462530e-02
  -1.20271355e-01  1.05963759e-01 -9.73940641e-02 -2.57425960e-02
  -3.62108015e-02 -1.14387453e-01 -1.29127968e-02 -9.31296032e-03
  -3.10379621e-02  2.38259733e-02  2.18291655e-01  6.59663277e-03
  -1.61493465e-01 -6.66114450e-01  5.51226847e-02 -2.24344268e-01
   1.30807364e-03 -1.92572810e-02  1.84165742e-02  2.36493438e-01
  -1.47494286e-01  6.84481487e-02  2.18753144e-02  9.65907201e-02
  -4.89448011e-02 -4.16435808e-01 -1.91497467e-02 -3.09226457e-02
  -2.20390260e-01 -2.12920457e-02  7.02263182e-03 -2.34800223e-02
   6.45870296e-03 -6.71547353e-02 -3.30473743e-02 -5.26860803e-02
  -8.40261206e-02  3.85640399e-03 -7.56231472e-02  1.29916325e-01
  -6.41935244e-02  1.10365897e-02  5.49317375e-02 -6.18031658e-02
  -6.04122737e-03  5.08833490e-02  1.53329432e-01  7.55721852e-02
  -4.93292660e-02  1.96261555e-01  5.04784644e-01 -2.26849973e-01
   1.43983901e-01  3.26176025e-02 -2.45333184e-02 -1.93202235e-02
  -1.28638119e-01 -2.14661434e-01  7.25349858e-02 -9.93643254e-02]
 [-1.36914896e-02 -4.52634878e-02 -5.53002834e-01  2.19359204e-01
  -1.99813060e-02 -6.03755042e-02 -6.21930584e-02  5.38739609e-03
  -2.93628246e-01  3.15657109e-01 -4.33189273e-02 -2.94615477e-01
  -1.04286671e-01 -2.06862018e-01 -8.50506052e-02 -1.00184143e-01
  -5.95689379e-02 -2.66436398e-01 -4.17274386e-01  1.68443963e-01
   1.73944384e-01 -8.45584720e-02 -1.03016458e-01  2.74956763e-01
  -1.11172162e-01  2.88525134e-01  3.49414684e-02 -2.40539953e-01
   5.81382848e-02 -1.26865298e-01  1.05932623e-01 -1.40894473e-01
   1.25521734e-01  1.26556149e-02  4.17472571e-02  1.54714525e-01
   1.06984442e-02  6.54523373e-02 -8.94957110e-02 -4.38227458e-03
   7.78267160e-03 -4.58609080e-03  6.32172525e-02  1.45899430e-02
  -6.49305731e-02  4.02330272e-02 -3.77672583e-01 -5.69077432e-01
  -1.45270005e-01 -7.91984200e-02  1.09868348e-02  3.93469166e-03
   4.83844951e-02 -3.18065912e-01 -4.49866615e-02  1.12692593e-02
   1.86555028e-01 -2.30555549e-01 -1.68360606e-01 -4.05347981e-02
  -7.73755461e-02 -1.78836569e-01 -6.07630834e-02  1.32145941e-01
   2.47386750e-02 -3.79214883e-02  1.54747739e-01 -7.33383596e-02
  -4.62124757e-02  3.94242629e-02 -1.46353364e-01  8.64056684e-03
   2.53861267e-02  1.54474437e-01 -5.72474077e-02 -5.40153049e-02
   3.01239341e-02 -1.02050304e-01  1.70840621e-01 -2.19840035e-02
   7.73435757e-02 -9.92910042e-02 -1.78511977e-01 -1.36408091e-01
   8.08879919e-03 -6.12147339e-02 -3.10904998e-02 -8.49335119e-02
  -5.36794923e-02 -1.69328064e-01 -6.86344802e-02 -9.26100984e-02
   3.38769704e-02 -2.43950054e-01  1.70232669e-01 -3.15825380e-02
  -1.77501932e-01 -2.24867407e-02 -2.44893670e-01 -1.10982977e-01
  -3.07094716e-02  1.50923515e-02 -6.59746304e-02  8.16900581e-02
  -1.49597479e-02 -1.05155567e-02 -4.60739732e-02 -7.84952790e-02
   9.90851037e-03 -6.69304505e-02 -5.80231190e-01  2.06658267e-03
  -2.03685597e-01  8.68495852e-02 -4.59175967e-02 -1.93222146e-02
  -7.71107599e-02  1.85861647e-01 -2.49915183e-01 -2.39486750e-02
   1.83115806e-02 -7.11645558e-02 -3.13570470e-01 -5.85971260e-03
   5.62035106e-02 -2.47032996e-02  2.47575223e-01 -5.98535240e-02]
 [-1.54795945e-01  1.06891626e-02 -7.01055601e-02 -1.69165865e-01
  -5.20948410e-01  1.04946032e-01 -3.17407936e-01 -9.61687565e-02
   1.88888401e-01 -2.68129230e-01 -5.26926853e-02  1.91498339e-01
   1.19683996e-01  1.08188912e-02 -1.49889290e-01 -6.57504704e-03
  -1.67688802e-01  1.82213187e-01  1.97109446e-01  1.79954004e-02
  -4.63461131e-02 -1.48666605e-01  5.97696826e-02  1.91290945e-01
  -4.49288525e-02 -9.74136740e-02 -1.02605335e-01  3.23565573e-01
   4.32687476e-02 -7.49639049e-02 -1.82823837e-01 -1.40354544e-01
   1.13606706e-01 -3.38739455e-02 -3.35896760e-03  1.96145289e-02
   1.09167621e-01  1.01919793e-01 -1.51920289e-01 -4.33546722e-01
  -2.49548797e-02  1.88408513e-02 -6.37735352e-02  2.74399847e-01
   1.66328661e-02 -9.63454414e-03  3.20953250e-01  2.95015186e-01
   2.51124531e-01 -4.69408035e-02 -5.46714589e-02 -5.35877869e-02
  -2.43218411e-02  8.36759731e-02 -5.80817945e-02  3.50864828e-02
  -1.19859211e-01  1.45797908e-01  2.82338977e-01  1.83739275e-01
  -2.49332756e-01 -9.93839428e-02 -2.11033821e-02 -3.04151624e-01
   1.58305094e-01  8.26060772e-03  7.33849257e-02 -5.56931132e-03
  -1.04983255e-01  4.47572730e-02  9.74997059e-02 -6.79590255e-02
   2.27637850e-02 -1.06251933e-01  4.02065292e-02  1.49781361e-01
   2.54452527e-01 -6.68392405e-02 -1.58435538e-01 -2.80024260e-02
  -1.84779629e-01 -2.88289428e-01 -5.50451055e-02 -6.46077916e-02
   2.22372655e-02 -2.57291943e-02 -4.92427722e-02  8.72469135e-03
   3.68788056e-02 -3.56757730e-01  4.37727198e-02 -2.07257703e-01
   9.56948940e-03  2.01840907e-01 -2.65804887e-01 -1.15704387e-02
   4.42816578e-02  4.12399732e-02  3.08863699e-01 -1.48373351e-01
  -3.36765684e-02  5.46256155e-02  2.77779326e-02  7.64483362e-02
   8.36252607e-03  4.46350910e-02 -2.47879047e-02 -1.79480389e-01
  -1.84222888e-02  2.64265034e-02 -4.14888620e-01  4.92252596e-03
   2.11183038e-02 -7.82955959e-02  1.84581816e-01 -1.24663793e-01
   9.06193722e-03 -2.22364783e-01 -2.05414176e-01 -3.24145675e-01
  -2.05458581e-01  3.89364697e-02  1.55424818e-01  4.71197031e-02
  -3.54832560e-02 -1.93372190e-01  1.03836387e-01  2.07057938e-01]
 [-1.33033708e-01 -5.95930628e-02  4.50822376e-02 -2.37339273e-01
  -2.70098537e-01 -5.22475094e-02 -1.18720122e-01  4.09116358e-01
   2.44148478e-01 -2.94737220e-01  5.41866794e-02 -8.15207735e-02
   3.92545074e-01 -1.89097688e-01  2.40327403e-01  1.79466438e-02
   3.24318796e-01 -3.18104714e-01  3.94024193e-01  1.44098073e-01
  -2.24439055e-01 -7.83893541e-02  3.41010034e-01 -2.46781617e-01
  -2.06433624e-01  7.28326291e-02 -1.69642612e-01 -1.82372063e-01
  -1.06078722e-01 -6.63165003e-02  4.10791785e-02 -1.13128871e-01
  -9.56220832e-03 -1.77337751e-02 -3.31927463e-02  1.87807277e-01
  -2.68610641e-02  3.30492973e-01 -2.02031940e-01  2.23496240e-02
  -1.54268472e-02 -9.08807386e-03 -5.73788583e-02  2.36107603e-01
  -3.75252701e-02  4.52112518e-02 -3.10433712e-02 -1.76999763e-01
  -6.24161959e-02  5.63670881e-03 -3.38640250e-02 -5.46009913e-02
   7.41340965e-02 -6.13731667e-02 -7.64995720e-03 -5.38086034e-02
  -1.38649479e-01  2.78421372e-01 -3.84548485e-01 -1.60592318e-01
   1.00166738e-01  2.57017523e-01  1.23881530e-02  7.90495574e-01
  -3.98373097e-01 -7.80535340e-02  8.41312408e-02  1.01151466e-02
  -8.70462786e-03  2.19142318e-01 -4.72117931e-01 -4.07790858e-03
  -1.17893293e-02  1.12183049e-01 -1.94734540e-02 -9.47665423e-02
  -2.59859055e-01  6.65041879e-02  9.14107189e-02 -3.59395966e-02
  -1.32782198e-02 -3.30871157e-02 -9.47277904e-01 -6.76644146e-02
  -7.29790255e-02 -5.57609871e-02  2.04005614e-02 -2.27948092e-02
   3.77899557e-01 -1.05437267e+00  4.43390347e-02  6.31134063e-02
  -1.04430411e-03 -1.46693632e-01  1.91402674e-01 -5.70829958e-02
  -1.13152549e-01 -3.23331207e-02 -3.45034264e-02  1.75797939e-01
  -8.97375494e-03 -5.05960993e-02  2.00317316e-02  2.12490469e-01
   4.04067673e-02 -5.03628701e-02 -6.24772869e-02  1.25430495e-01
  -5.05011380e-02  1.50636304e-02 -1.13125155e-02  1.53244883e-01
   4.19086069e-01 -5.99554360e-01  2.39035532e-01  1.54155456e-02
   5.55714443e-02 -4.18925196e-01  4.22995329e-01  2.51772285e-01
  -9.57442634e-03 -4.97325659e-02  3.81036960e-02  6.28120154e-02
  -1.14556871e-01 -2.76272204e-02 -4.48635578e-01  1.70046054e-02]
 [-1.18139036e-01 -1.04754989e-03 -6.07556254e-02  2.92963684e-01
  -8.23189691e-02 -6.47029057e-02  4.18176092e-02  9.14654881e-02
  -2.33536318e-01 -1.63530752e-01  5.22944629e-02 -2.22269326e-01
   1.56279519e-01  1.70650259e-01  2.89808929e-01  1.69757679e-02
  -2.70916998e-01 -9.72383544e-02 -1.32063150e-01 -3.31018984e-01
   2.50490487e-01 -1.10184208e-01  9.79453027e-02  1.30727008e-01
  -4.46371377e-01 -2.52707601e-01 -3.33243966e-01  5.35179069e-03
  -3.89748186e-01 -1.49897605e-01  3.90476435e-02 -4.82036211e-02
  -2.64457643e-01 -2.56797590e-04  2.34563574e-02 -4.01836596e-02
  -8.55791494e-02 -3.51332850e-03 -7.59534836e-02 -4.20279384e-01
   2.34389920e-02 -7.13411206e-03 -2.67929323e-02 -1.88560963e-01
  -7.60959014e-02  1.52891725e-02 -2.74890780e-01  2.14535877e-01
  -5.23093343e-02 -7.18326680e-03  5.21415360e-02  2.60626432e-02
  -4.77486290e-02  9.56384540e-02 -2.00271271e-02  4.82221320e-02
  -3.15217584e-01  9.89616439e-02  4.65028025e-02 -1.63103819e-01
  -8.93200487e-02  5.53373992e-02 -6.71397299e-02 -1.90007821e-01
  -2.57065982e-01  1.20127406e-02  2.22659752e-01  2.18063015e-02
  -1.95905585e-02 -7.29384646e-02 -4.25826669e-01  4.77814712e-02
  -4.13940102e-02 -3.74116078e-02 -2.80455817e-02 -3.20024043e-02
  -3.08131725e-01 -6.25688769e-03  1.68112069e-01  2.62785256e-02
  -1.61323085e-01  4.25613910e-01 -2.00786158e-01 -4.52875905e-02
   3.23654478e-03 -1.19539529e-01  1.00285243e-02  5.20898700e-01
  -6.26668781e-02  2.73104370e-01 -1.29617658e-02  7.07351938e-02
   5.03457384e-03 -9.09543335e-02  1.70819953e-01 -6.18902035e-02
   1.13817148e-01 -2.06247065e-02 -4.75750118e-02 -8.10596161e-03
  -6.08019880e-04 -3.45360376e-02  4.63915709e-03 -1.52121127e-01
   2.45597847e-02  1.96887664e-02 -8.60052034e-02 -9.42969173e-02
   9.17543564e-03 -3.45681002e-03 -1.74793392e-01  1.26568258e-01
   3.56732532e-02  1.46659881e-01 -9.05625895e-02 -2.93088883e-01
  -2.76610982e-02 -6.53993338e-02  7.57281110e-02 -1.41922981e-01
  -8.00361857e-02  4.00110818e-02 -7.19061047e-02 -2.06681453e-02
   2.31458880e-02 -7.52025247e-02 -2.22321957e-01 -3.67699862e-01]
 [ 2.95468241e-01 -3.56475227e-02  1.85811803e-01 -2.45325983e-01
  -1.58700496e-01 -1.60361797e-01 -1.24069583e-02  2.42412493e-01
  -9.41161066e-02 -3.21511745e-01 -5.90581670e-02  1.40579477e-01
  -2.11935237e-01 -2.11859703e-01  1.55801758e-01  3.35002020e-02
  -2.94140279e-01  7.71398097e-02  5.73516786e-02 -1.39887724e-02
  -1.44354776e-01 -1.39167815e-01  1.45184636e-01 -5.28028817e-04
  -1.42238572e-01 -4.86846864e-02 -1.66008890e-01 -4.36008513e-01
  -1.00157559e-01 -1.00915670e-01 -7.66780153e-02 -1.31252244e-01
   9.55074728e-02  1.93527788e-02 -5.48339784e-02 -1.32388964e-01
  -3.37022841e-02  1.37326539e-01 -1.21954024e+00 -1.41572908e-01
  -4.14483510e-02  2.32839044e-02 -4.98546213e-02 -6.52575865e-02
  -7.18553066e-02  5.39584458e-02 -4.24933732e-01  2.63747811e-01
  -3.35930996e-02  3.22423736e-03 -5.29660359e-02 -9.03991535e-02
  -1.71244459e-03  1.07000656e-02 -2.51770951e-02  6.05270118e-02
   3.12750190e-02 -2.69160956e-01 -4.10226107e-01 -1.60251826e-01
  -2.25942768e-03  3.41843694e-01  1.97753543e-03  1.99572161e-01
  -3.46641615e-02  3.70454080e-02 -3.35048467e-01 -6.43461198e-02
   4.54514921e-02 -2.48772472e-01 -4.65921551e-01  3.66664827e-02
  -4.99797501e-02  4.67404835e-02  3.28328721e-02 -7.54470844e-03
   1.73563197e-01  1.77439954e-03  9.07903537e-02 -2.70236973e-02
  -3.19195390e-01  2.33102441e-02  6.03932589e-02 -8.52308050e-02
  -2.82445364e-02  2.73531023e-02  3.27439383e-02  8.77251998e-02
  -1.96577571e-02  3.10549468e-01  5.35740294e-02 -3.31654280e-01
  -2.47993246e-02 -4.64176953e-01  1.39181558e-02  1.21758664e-02
   2.71596164e-01 -2.69306637e-02  1.87479675e-01  1.19703151e-01
  -3.11378893e-02 -3.06332074e-02 -6.79309368e-02  3.42158526e-02
   2.42705420e-02 -9.59421918e-02 -4.38299626e-02 -2.74483621e-01
  -3.55877876e-02  4.09754999e-02  4.24917862e-02 -4.85670529e-02
   1.58344194e-01  8.07650387e-02 -3.01710106e-02 -2.62611091e-01
  -4.43763845e-03  1.96285918e-01  3.65155578e-01 -3.03002506e-01
  -3.72718900e-01 -1.37452446e-02  1.58637851e-01 -6.69959486e-02
  -5.47885373e-02 -3.93649548e-01 -2.23203510e-01 -1.83220759e-01]
 [ 4.94137295e-02 -2.26680730e-02  1.20276086e-01  2.33339462e-02
   1.07745854e-02 -7.22172186e-02  1.02406189e-01 -1.57619715e-01
   2.01686136e-02  1.31111830e-01 -2.13145465e-02 -5.21444008e-02
   2.93197781e-01 -1.69689566e-01  1.36387527e-01 -5.47864214e-02
  -4.45963979e-01  2.19609499e-01 -9.05819796e-03 -1.79642186e-01
   3.23267817e-01 -1.91462100e-01 -1.49737582e-01 -2.77384631e-02
  -7.32984319e-02 -4.64927495e-01 -4.20895070e-02  1.86865613e-01
  -5.50388312e-03 -5.31848013e-01  2.47511670e-01  1.62456170e-01
   9.18598399e-02 -5.15380763e-02 -7.99385756e-02 -3.10375169e-02
  -2.04369694e-01  6.21450096e-02 -1.80230230e-01 -1.63737267e-01
  -1.92000773e-02 -2.33212672e-02 -7.95619190e-02 -9.58132893e-02
  -9.22541916e-02  1.67910326e-02 -1.77040905e-01 -1.74610287e-01
   3.53355348e-01  5.46672195e-03  2.61451583e-02 -9.56168100e-02
  -1.15474477e-01 -1.12385534e-01 -2.84219906e-02  3.53357084e-02
   1.95836440e-01  1.36824667e-01 -6.01688921e-02  3.26092616e-02
   3.44949774e-02 -1.82779238e-01  3.39542069e-02  1.93535864e-01
  -1.39234215e-01  2.34491192e-02 -2.14552641e-01  1.88743435e-02
  -7.44160488e-02 -1.13702953e-01  5.72279952e-02 -8.50876719e-02
  -4.22516502e-02  1.24054164e-01 -9.19860788e-03  1.62516832e-01
  -2.27824450e-01 -4.41614874e-02  1.03326077e-02  1.94159523e-02
   1.79059967e-01  4.96739857e-02  1.36797786e-01 -3.80591929e-01
   5.85409924e-02 -5.61421663e-02 -1.80401951e-02  2.08821103e-01
  -1.74203902e-01 -2.62882799e-01  2.51408294e-02  7.21277446e-02
  -6.41525351e-03  6.03276528e-02  2.97910795e-02  7.61599978e-03
  -1.40238360e-01  1.88061446e-02  8.87861773e-02  8.05433169e-02
   2.03712024e-02 -1.69179565e-03  2.90196687e-02  2.07701460e-01
   1.93012822e-02 -3.97233292e-02 -2.37848386e-02 -1.01306304e-01
  -2.20946874e-02 -2.08091754e-02 -2.17306376e-01 -1.74972504e-01
   3.27107877e-01  1.77980736e-01  2.57470638e-01  1.73708543e-01
  -4.97338437e-02 -1.85580730e-01  6.66223615e-02 -9.24579203e-02
   2.66562123e-02 -8.32895935e-02  1.16471484e-01  3.07754595e-02
  -6.77106455e-02 -6.14669263e-01  1.20664798e-01 -2.56878525e-01]
 [ 4.78057703e-03 -6.40522018e-02 -8.06974292e-01 -9.03108865e-02
  -7.52046928e-02 -1.46836475e-01 -1.37215992e-02  6.54120371e-02
  -1.00749202e-01  2.77754813e-01 -3.12569253e-02 -1.74218908e-01
   6.91820234e-02 -1.02656044e-01  9.59488004e-02  2.76015587e-02
  -9.59824100e-02 -1.18416697e-01 -5.44044673e-01  1.06165849e-01
   8.61819386e-02 -3.23290676e-02 -2.07752392e-01  1.35243312e-01
   4.24618647e-02  7.11778849e-02  9.83357355e-02 -1.89196005e-01
   8.59234855e-02  4.61556427e-02  1.19317293e-01 -9.78355035e-02
  -7.00543448e-02 -7.13289157e-02 -7.24551380e-02 -1.91382542e-01
  -4.34513986e-02 -7.14516491e-02 -1.85853299e-02  7.66136199e-02
  -7.85557181e-02  2.78606322e-02 -1.69309564e-02 -5.22303693e-02
  -1.07993707e-01 -3.42320949e-02 -3.17157865e-01 -4.24560457e-01
  -4.72761914e-02 -7.36359134e-02 -1.19945742e-02 -5.64238355e-02
   3.14954296e-02 -1.34582072e-01  4.27255221e-03  1.57577861e-02
   1.39647275e-01 -3.90133597e-02 -1.46514336e-02 -1.29941925e-01
  -9.49757621e-02 -3.21480706e-02  1.88553426e-02  6.07942007e-02
   1.94749042e-01  1.50974840e-02  2.37951934e-01 -4.20811996e-02
   5.64927759e-04  2.57118419e-02  8.88044834e-02 -4.22715582e-02
  -2.24298593e-02  1.03229418e-01 -6.15050085e-02 -2.37387232e-02
   3.97843689e-01 -3.25316191e-02  3.06761026e-01 -1.02055995e-02
   8.60139579e-02 -2.88543165e-01 -4.66659740e-02 -4.85145906e-03
  -2.22203298e-03 -1.86345971e-03 -3.91771086e-02  3.21711786e-02
  -1.45477682e-01 -1.84745952e-01 -7.58795142e-02 -7.49152228e-02
   2.71261577e-02 -2.63114292e-02 -4.67635244e-02 -1.09662779e-03
  -8.61023068e-02  2.37300564e-02 -2.55699694e-01 -6.93081543e-02
  -4.66896147e-02 -1.62155386e-02 -7.16071129e-02 -1.76241010e-01
   8.94832052e-03 -3.00255213e-02 -4.27475348e-02  1.73166506e-02
  -9.99988616e-03  4.63779718e-02 -3.91160101e-01 -8.61888602e-02
  -2.13174313e-01 -9.09201205e-02 -6.49899319e-02 -3.77642252e-02
  -4.97233905e-02  7.50182793e-02  7.45530054e-02 -1.19009115e-01
   4.21886928e-02  1.88925248e-02 -3.27060580e-01  1.16015505e-02
  -2.74365265e-02 -1.65931359e-01  1.07847996e-01  1.24817006e-01]
 [ 3.46534818e-01  4.73469794e-02 -6.74468577e-02 -1.10003740e-01
  -3.50379020e-01  3.76630500e-02 -1.31399795e-01 -3.36912647e-02
   2.40392864e-01 -2.63718247e-01 -2.06928309e-02 -3.51637825e-02
  -1.07230045e-01 -2.14066803e-01 -5.29017299e-02 -4.01579812e-02
   1.50166154e-01  2.07521394e-02  3.64016891e-02  9.30029973e-02
   1.36584163e-01 -6.82122633e-02  7.91255608e-02  3.09114844e-01
   1.52348459e-01  1.74740687e-01 -9.90644395e-02  1.02385864e-01
   1.62704866e-02 -2.76574403e-01 -7.76004195e-02 -1.38886467e-01
  -2.15412125e-01  4.33279425e-02 -5.39730266e-02  4.96929046e-03
   7.06094503e-02  3.70735168e-01  1.51420787e-01 -3.77293289e-01
  -4.50778119e-02 -2.11288631e-02 -6.34513199e-02 -1.61729276e-01
   8.04335810e-03 -4.91224043e-03  3.84292543e-01  2.59003062e-02
   1.10234156e-01  7.55342469e-02  3.54969222e-03  2.06515621e-02
  -1.91545840e-02  1.32450089e-01  9.51024611e-03  5.71254939e-02
   1.65236384e-01  2.43054971e-01  5.38313836e-02  5.36314808e-02
   1.32731497e-01  2.91682899e-01  4.49059792e-02 -1.89786121e-01
  -1.51426062e-01  3.40814032e-02 -5.94839975e-02 -1.53776901e-02
  -6.94597214e-02 -1.53034627e-01 -3.58866543e-01 -3.03843413e-02
  -3.10209617e-02 -1.13885611e-01  1.41020641e-02 -2.32723340e-01
   3.50118995e-01  7.99657591e-03 -3.52963880e-02  4.20758165e-02
  -5.77180507e-03 -2.29895562e-01 -3.57829303e-01 -2.09791362e-01
  -3.53331156e-02  1.28430843e-01  2.19193324e-02  2.67598070e-02
  -2.11350042e-02 -1.93871468e-01 -1.90138072e-02  5.94468461e-03
  -1.02732992e-02  1.91852912e-01 -9.22514573e-02  1.18024787e-02
  -6.57310560e-02  4.26237360e-02  1.09442197e-01 -6.37929216e-02
   2.94878404e-03 -5.59381954e-03 -1.29624289e-02  2.23162651e-01
  -5.86094409e-02 -3.79085243e-02 -8.85945410e-02  1.92029953e-01
   4.92133610e-02  4.69244495e-02 -2.11542264e-01  7.44903088e-02
   9.71707180e-02  1.38211116e-01  3.66018146e-01 -4.04543132e-01
   3.98079604e-02 -4.65277024e-03 -2.22460330e-01  1.98534019e-02
  -4.74198908e-02  1.16239570e-03  8.19294453e-02 -3.97991724e-02
   7.58784683e-03  2.02334732e-01  1.03792123e-01  1.92066893e-01]
 [-2.79820591e-01 -1.76617540e-02  1.12361871e-02 -7.18401894e-02
  -4.17980462e-01 -5.84010109e-02  4.62666415e-02  4.43553925e-01
  -4.87634987e-02 -1.24573596e-01  8.20091926e-03 -1.89279288e-01
   2.63212264e-01 -4.17622119e-01  3.47333699e-01 -4.23931442e-02
   3.18816751e-02 -7.24202335e-01  5.21627188e-01  3.52305658e-02
  -2.29123577e-01 -1.33047830e-02  3.44557781e-03 -3.29253912e-01
  -2.86981165e-01  1.34819135e-01  3.86751629e-02 -2.87075073e-01
  -8.96070525e-03 -2.81270057e-01  2.07122028e-01 -3.96276593e-01
   3.23245555e-01 -3.04690450e-02 -2.43260693e-02  1.99871227e-01
  -4.47103474e-03  1.70072019e-01 -2.98888713e-01 -2.54062027e-01
  -5.95871620e-02  3.13016959e-02 -9.55129191e-02 -1.31113306e-01
   3.60094123e-02 -1.65329054e-02 -4.33280051e-01 -2.57916123e-01
  -1.06791899e-01 -1.79467443e-02  5.06965742e-02  4.35408279e-02
  -6.33146912e-02 -2.69700680e-02 -3.11406516e-03  4.79813293e-02
  -1.54631734e-01  3.57494146e-01 -1.56224921e-01 -2.33496651e-01
   3.99959423e-02  1.04202852e-01  3.41693349e-02  1.66174382e-01
  -2.75914401e-01 -7.24194944e-02 -3.60954285e-01 -2.81094369e-02
   6.76773712e-02 -8.09382927e-03 -5.68132997e-01 -1.65781900e-02
  -3.32607180e-02  1.69974715e-02 -7.28763733e-03 -1.18804760e-02
   6.22677729e-02 -4.58884239e-03  5.74670844e-02 -7.58871585e-02
  -1.40291765e-01  9.39221382e-02 -5.43549120e-01  4.69360836e-02
  -2.18275748e-02  1.01978883e-01  4.78707552e-02 -2.14042902e-01
   1.53884545e-01 -6.05990231e-01  4.27211262e-02 -1.16481736e-01
   3.00047528e-02 -1.26189709e-01  1.00963086e-01  3.37304920e-02
  -3.42619032e-01 -4.83314395e-02  5.56345272e-04  3.70487362e-01
  -1.47300065e-02 -2.89908610e-02  1.98404007e-02  1.27731621e-01
   2.99280491e-02  1.98920593e-02 -1.87531970e-02  4.47723223e-03
  -2.52486132e-02  4.27997708e-02 -2.59839714e-01  9.97805521e-02
   2.19454542e-01 -4.44440693e-01  2.42598560e-02 -2.26007309e-02
  -5.31631336e-02 -5.17169654e-01  1.80806056e-01 -3.06738783e-02
  -3.52646746e-02  3.11558377e-02 -4.02505547e-02  1.47661893e-02
  -6.28547743e-02 -1.71117142e-01 -9.30858493e-01  1.36927962e-01]
 [ 3.04993451e-01 -5.76126277e-02  2.09276274e-01  3.56587186e-03
  -9.97028798e-02  3.38733643e-02  1.30817443e-02 -1.52849272e-01
  -1.22352533e-01 -4.40457791e-01  1.11317914e-02 -4.44874227e-01
  -5.72574651e-03 -1.22081051e-02  2.44788826e-01 -2.42037093e-03
  -2.08548412e-01  1.51694864e-01  2.79850006e-01 -1.59522772e-01
   1.34255990e-01 -5.26706874e-02  3.09787571e-01  2.06152171e-01
   1.69111729e-01  2.20674723e-01 -3.57657939e-01  2.17251703e-02
  -7.11366534e-02 -1.80571377e-01 -6.80406690e-02 -1.80794299e-01
  -3.49009931e-02  1.12685431e-02  7.78098404e-03  1.06201671e-01
  -2.44603306e-02  2.22598895e-01  1.45128444e-01 -3.04098040e-01
   5.26315570e-02 -5.68170436e-02 -5.33259027e-02  2.01736555e-01
  -6.65757507e-02  1.71636026e-02  7.45401233e-02 -2.31843591e-01
   3.60421799e-02 -6.20236360e-02 -4.24550809e-02  1.61015801e-02
  -1.03630736e-01 -7.53292963e-02 -4.13114540e-02 -6.37243986e-02
   2.70400316e-01  2.05601141e-01  2.66367584e-01  2.10831255e-01
  -3.33913006e-02 -5.69444057e-03 -5.14783710e-02  6.30563051e-02
   1.45742878e-01 -2.01275703e-02  2.53212720e-01  3.34682725e-02
   4.26774174e-02  1.51021719e-01 -2.54015088e-01  5.44223934e-02
   2.42637470e-02  2.91844308e-01  1.10200411e-02  1.56003416e-01
  -1.12773545e-01  4.76655588e-02  2.14387387e-01 -6.99395984e-02
   6.02394007e-02  2.22214594e-01 -9.17515755e-02 -1.69251218e-01
   4.91628870e-02  1.94662400e-02  6.47881106e-02  1.49247482e-01
   1.51318550e-01  4.60228771e-02  7.57426303e-03 -6.96255937e-02
  -2.15330534e-02 -1.15703205e-02  2.40548551e-02  2.89324801e-02
  -1.79048404e-01  8.05886369e-03 -9.32508260e-02  2.28134558e-01
  -6.08877130e-02 -4.45294194e-02 -6.39327839e-02 -3.35445479e-02
  -4.15323675e-02 -1.76259154e-03  1.58622917e-02 -1.30237281e-01
   6.34480733e-03 -2.11253036e-02  9.20665711e-02  4.62934300e-02
   2.47596465e-02  3.59770916e-02 -4.13730830e-01 -1.84203729e-01
   3.63109447e-02 -1.37848735e-01  2.99136285e-02  1.49235502e-01
   7.91013986e-02 -9.27644670e-02 -4.74609099e-02 -1.19195051e-01
   4.56180470e-03 -9.30661242e-03 -1.84198856e-01 -2.69124240e-01]
 [ 4.05094773e-01 -2.42470987e-02  1.65273517e-01 -1.21405702e-02
   6.22398406e-03 -6.54355586e-02  8.64791647e-02  1.95887145e-02
  -6.89975470e-02 -8.90774950e-02 -3.09902113e-02 -1.49875298e-01
   3.28198999e-01 -1.79182231e-01  2.49131560e-01 -1.36693669e-02
   2.50786133e-02 -3.79041769e-02 -2.73967851e-02 -5.46645671e-02
  -2.22594753e-01 -1.31444499e-01  4.26398933e-01 -3.05361509e-01
   1.59543872e-01 -2.56104823e-02 -1.47102058e-01 -2.02560246e-01
  -2.53223069e-02 -8.08331668e-02 -8.09832290e-02 -2.15604767e-01
   2.86130071e-01 -3.74090858e-02 -4.01878841e-02 -3.50749567e-02
  -9.97309834e-02  1.53395876e-01 -9.35402066e-02  3.53730507e-02
  -5.32404631e-02 -5.40930517e-02 -5.00302911e-02 -1.68102801e-01
  -1.03979789e-01 -4.51712683e-02 -2.76972800e-01  1.02920704e-01
  -1.70802549e-01 -3.96485589e-02 -8.47839564e-02 -8.43111649e-02
   1.82896499e-02  9.04949531e-02  5.71558587e-02 -4.72182930e-02
   3.46755415e-01 -1.43096894e-01 -1.33285850e-01  1.89756095e-01
   2.91119903e-01  2.57341087e-01  1.33619532e-02  3.66105437e-01
  -2.45725527e-01 -2.51954235e-02 -1.93586364e-01 -1.24927731e-02
  -1.02240391e-01  8.95508751e-02 -2.93928176e-01  5.87354414e-02
   8.61348864e-03  3.13647300e-01  3.23168822e-02  1.48682564e-01
  -3.29040200e-01 -5.35242520e-02  4.61135171e-02 -6.90891519e-02
   6.30356446e-02  1.88768342e-01  2.42677256e-01 -4.66372781e-02
  -2.94104442e-02  3.01415384e-01 -8.07088166e-02  1.41427591e-01
   3.42870325e-01  1.85586646e-01  5.87473400e-02  3.91812176e-01
  -5.08720092e-02 -2.46743515e-01  1.99867651e-01 -1.66709200e-02
   2.78216034e-01 -4.62188311e-02 -5.02682012e-03  7.11829215e-02
  -1.84193030e-02  4.29050699e-02  1.70235336e-02 -1.30910978e-01
  -7.28001073e-02  6.11126190e-03 -5.18771783e-02 -2.47440368e-01
  -3.09736840e-03 -5.88296019e-02  2.85150558e-01 -3.63753498e-01
   2.02375591e-01  8.29735398e-03 -1.65980011e-02  3.99361625e-02
  -4.29503024e-02  2.57336766e-01  1.93982825e-01 -1.40244901e-01
   1.61916628e-01 -1.57108381e-02  2.28135377e-01  5.56066409e-02
  -1.17509507e-01  1.15809903e-01 -2.02664346e-01  1.95922330e-02]
 [ 1.72205582e-01  5.23521043e-02  1.54612347e-01  1.10489197e-01
  -4.77972254e-03  9.56708267e-02  1.84715211e-01 -2.31397688e-01
   1.42839953e-01  1.23179816e-01 -3.24913636e-02 -2.88010359e-01
  -2.83125918e-02 -3.43110472e-01  1.10152923e-01 -2.16712244e-02
  -1.98369801e-01  5.70142530e-02 -1.77033156e-01  1.67891726e-01
  -1.56245343e-02  1.18798517e-01 -5.20960353e-02 -1.75276130e-01
   2.52893418e-01 -2.78547406e-01 -9.42814201e-02  1.41307423e-02
   8.43937472e-02 -1.35291088e-02  6.16010055e-02  1.50913119e-01
  -1.33019701e-01  2.11557914e-02 -6.81988895e-02  2.70208288e-02
  -1.01402745e-01  3.06167994e-02 -1.33187979e-01 -4.67028439e-01
  -4.95658740e-02  1.19031994e-02 -8.22005700e-03  2.49809831e-01
  -1.43806502e-01 -8.78606737e-03 -2.00626820e-01 -2.90843278e-01
   2.68653363e-01 -1.62153933e-02  1.38662588e-02  2.11252812e-02
  -4.96454313e-02 -4.44041714e-02 -2.44734753e-02 -4.65251505e-02
   9.54071209e-02  8.64571258e-02 -9.54103842e-02 -5.10139346e-01
  -2.87308961e-01  1.87533144e-02 -2.69692838e-02 -1.71169005e-02
  -9.07026008e-02  1.11860083e-02 -4.84525174e-01 -6.98465332e-02
  -1.58462867e-01 -1.18522257e-01 -3.51399451e-01 -1.99828874e-02
  -3.40874046e-02 -1.95203032e-02 -4.70134988e-02  2.69599080e-01
   1.98367551e-01  2.49607470e-02  3.17335725e-02  1.49338720e-02
   1.34421149e-02  8.91139433e-02 -5.18614538e-02 -1.25555590e-01
   3.66060063e-03 -1.35941133e-01  4.13228646e-02 -3.53270501e-01
  -1.86246306e-01  5.14672585e-02  2.45277211e-02 -1.21755637e-01
   4.45528254e-02 -2.50082165e-01  1.14348374e-01  1.68584455e-02
  -2.05819130e-01  4.09052148e-02 -3.30977216e-02 -2.87505286e-03
  -3.43596889e-03  4.78283357e-04 -9.30735841e-03 -6.23701327e-02
  -1.82571576e-03 -2.63333134e-02 -1.05119394e-02 -3.72094095e-01
  -3.76646295e-02 -5.11969216e-02  5.23524992e-02  1.21114040e-02
  -3.69576126e-01 -1.82232499e-01  2.10009128e-01 -2.50841260e-01
   3.56387123e-02  1.87150761e-03  1.27415285e-02 -1.40287057e-01
   7.51731396e-02 -4.38793475e-04  1.36509389e-01 -7.84329101e-02
  -3.96728981e-03 -3.37473214e-01  1.07041433e-01 -1.77856103e-01]
 [-5.87545075e-02  2.26497403e-04 -7.36333370e-01 -1.43039808e-01
  -7.00206235e-02 -8.47407207e-02  5.41811287e-02 -9.78255346e-02
  -7.35331550e-02  2.62569219e-01  3.61346491e-02 -1.54487982e-01
   1.05234720e-01 -1.80681035e-01 -2.26039499e-01  5.97983636e-02
  -2.49855578e-01  9.24537182e-02 -3.12160049e-02  6.01071632e-03
  -2.56939948e-01  1.30191082e-02  2.47764662e-01  1.86439067e-01
   9.87360626e-02 -4.52444516e-02 -7.30659859e-03 -2.14148864e-01
  -1.08550817e-01  1.79032966e-01  1.63269311e-01 -4.47102301e-02
  -8.73463154e-02 -6.53487146e-02 -8.71650875e-02 -2.22712740e-01
   5.19047305e-02  5.21626547e-02  1.10985495e-01  9.34944004e-02
  -8.91922340e-02 -2.06310712e-02  2.00867727e-02 -3.09346855e-01
  -1.73326001e-01 -8.81535839e-03 -1.42148718e-01 -1.39676049e-01
   6.15647174e-02 -8.38280767e-02  3.29825096e-02  1.74205878e-03
  -5.52834049e-02 -1.56221896e-01 -1.24756042e-02 -4.67285607e-03
  -1.34997472e-01  5.59563451e-02  8.22268352e-02  6.92868456e-02
   3.65236141e-02 -2.27061376e-01  2.44959220e-02  1.62075728e-01
  -6.43729046e-02 -9.43866894e-02  1.67914495e-01  3.13217528e-02
  -6.16515130e-02  2.93973535e-02 -1.33508325e-01 -6.81927055e-02
  -1.89218931e-02 -4.96667847e-02  2.44378969e-02 -7.67833553e-03
   1.92179561e-01 -1.65894243e-03 -7.83199519e-02 -6.17973655e-02
   9.48423927e-04 -3.17723975e-02  5.71550764e-02  7.83971697e-02
  -5.53998426e-02 -9.97304916e-02  2.03528833e-02  1.01088420e-01
  -3.02842371e-02 -1.23817906e-01 -7.15639144e-02 -1.80341378e-02
   3.05619817e-02 -9.33663696e-02  1.01747578e-02  8.45766277e-04
  -2.53711306e-02 -7.61150941e-02 -1.80182070e-01 -1.65625900e-01
  -1.98144857e-02 -1.35143837e-02 -8.68904591e-03  5.82002290e-02
  -4.23169769e-02 -3.29137705e-02 -3.40147093e-02  3.23392004e-02
   3.67752053e-02 -3.07767245e-04 -6.80112913e-02  1.33727849e-01
  -8.05866495e-02  3.94073431e-04  1.46486908e-01 -6.44021109e-02
  -5.47620319e-02  2.87271589e-01 -4.90873493e-02 -1.13536581e-01
   2.16477945e-01 -9.80743915e-02 -2.75559038e-01  3.99113260e-02
   5.15695708e-03 -1.93076432e-01  2.30605140e-01  1.54424787e-01]
 [ 9.26161185e-02  5.31474501e-03  9.16242748e-02 -2.25060016e-01
  -6.62926510e-02 -1.69209599e-01  1.37013286e-01  9.81312022e-02
   2.32803091e-01 -1.28029153e-01 -4.96553928e-02  9.29442868e-02
   6.50137216e-02 -3.18881631e-01 -2.82979697e-01 -7.19870254e-02
   2.71645822e-02  3.95947933e-01 -9.32263285e-02  1.73967600e-01
   5.16445994e-01  6.96984380e-02 -4.43135977e-01  4.06122625e-01
   4.31408763e-01  3.42820466e-01 -1.17035642e-01  4.13477391e-01
   1.10538490e-01 -2.72280514e-01 -1.68195218e-01 -4.64567058e-02
  -3.52520466e-01  5.80150587e-03 -5.83378896e-02  8.35386440e-02
   7.69078359e-03  5.10257185e-01 -3.76766771e-01 -4.37289149e-01
  -2.77643111e-02 -1.37686757e-02  1.74895748e-02  1.84973061e-01
  -1.93099733e-02 -4.89461534e-02  1.93817735e-01  6.08391352e-02
   9.64197069e-02 -4.88612987e-02  7.77042378e-03 -3.80401080e-03
   4.16249745e-02  8.13281462e-02 -5.00124209e-02 -5.43358363e-02
  -3.12279053e-02  8.35842192e-02  5.48032708e-02 -2.25184098e-01
   3.04890811e-01 -1.46810533e-02 -1.32067427e-02 -1.12689622e-01
   2.24329233e-01  3.11324615e-02 -1.27219819e-02 -1.01537481e-02
  -9.21710953e-02 -2.30534360e-01 -3.70352328e-01  4.07327749e-02
  -7.43444078e-03 -8.48369114e-03  3.07419822e-02  9.34511870e-02
   1.50846853e-03  3.05319298e-02 -3.04510482e-02 -4.14118804e-02
  -1.03427982e-02 -1.43741161e-01 -3.47401440e-01 -1.39237404e-01
   3.08409967e-02 -1.14428632e-01 -2.17319801e-02 -1.10983551e-01
  -3.92149687e-01 -1.34920239e-01  1.41053060e-02 -6.10792413e-02
   3.93143632e-02  5.16452007e-02  2.98873521e-02 -1.28043490e-02
  -6.87104836e-02  1.88421551e-02  1.75704107e-01  1.93276688e-01
  -5.53222420e-03 -5.01194447e-02  1.98570150e-03  6.22154176e-02
  -2.38115732e-02  1.90768894e-02 -3.32022761e-03 -1.32637203e-01
  -1.08926669e-02 -3.34165655e-02 -7.42623582e-02 -1.97318867e-01
  -3.36128585e-02  3.68724987e-02  1.34320498e-01 -2.68067211e-01
   6.54096231e-02  3.47799152e-01  2.33824894e-01  3.54341492e-02
  -2.18963966e-01 -5.67796230e-02  7.51019418e-02 -5.95150888e-03
  -1.63308531e-02  8.05539414e-02  2.50417590e-01  5.66505715e-02]
 [-2.99189478e-01 -4.98932265e-02  2.14217767e-01 -2.69537768e-03
  -5.15973568e-01 -1.37660861e-01 -3.68230879e-01  2.26451650e-01
  -2.77816445e-01 -4.00931507e-01  2.54940651e-02 -2.87101090e-01
   7.23171651e-01 -5.09028018e-01  5.54763556e-01 -1.05533414e-01
  -5.70255108e-02 -3.16904038e-01  3.95252943e-01 -1.12180486e-01
  -1.79201961e-01  1.25638070e-02 -2.69494265e-01  1.44278854e-01
  -2.26498172e-01 -1.24124810e-01  1.34293795e-01 -1.82382941e-01
   9.00131166e-02 -4.10901085e-02 -3.93176615e-01 -5.77626824e-01
   1.31408855e-01 -2.92612258e-02  4.39542830e-02  4.67587449e-02
  -4.61012349e-02 -2.29198605e-01 -4.21954781e-01 -1.11153990e-01
  -3.07766553e-02  3.25704888e-02  1.51549401e-02  1.31649658e-01
  -1.33266635e-02 -4.67342213e-02 -3.08141768e-01 -4.86940145e-01
  -7.96001125e-03  4.18947600e-02 -4.32691500e-02 -2.79643554e-02
   4.63214368e-02  2.29269922e-01  4.72800843e-02 -2.53940336e-02
  -1.79205403e-01  4.20263916e-01  1.00810835e-02 -3.42625417e-02
   1.05756223e-01  1.61732957e-01  1.53901835e-03  6.46840751e-01
  -2.47416392e-01  5.45907440e-03 -1.29642680e-01  2.84468383e-02
  -2.61845496e-02 -4.15977985e-02 -6.39650226e-01 -1.17070274e-02
  -2.12312564e-02 -4.86605555e-01  2.72962116e-02  1.00942113e-01
   2.29236379e-01  1.43503267e-02 -2.24969797e-02 -4.18968946e-02
  -2.31908053e-01 -9.34383050e-02 -5.37734330e-01  2.29640342e-02
  -1.81372762e-02  3.28853011e-01  5.85644767e-02 -1.84198782e-01
   1.78551912e-01 -6.67634308e-01  2.90550496e-02 -3.66990536e-01
   3.23150046e-02 -1.85821906e-01 -2.06587717e-01  2.15080343e-02
  -4.16581966e-02  3.93643565e-02 -1.21840268e-01  2.34635681e-01
   2.51368359e-02  2.76849084e-02 -1.41100562e-03 -7.34928101e-02
   3.33444551e-02 -5.14543653e-02 -3.72683518e-02 -1.55872758e-02
  -4.75728251e-02  7.69843487e-03 -3.21020007e-01  2.80929506e-01
   3.23153377e-01 -2.56442368e-01  5.49927354e-02 -9.39610153e-02
   3.20167542e-02 -4.57077086e-01  2.74801165e-01 -6.90031201e-02
  -1.42084718e-01 -2.40201894e-02  3.37100625e-02 -4.92767897e-03
  -2.32903194e-02 -2.06735700e-01 -4.47057277e-01  1.25956669e-01]
 [ 9.25481096e-02  4.78482284e-02  1.67404890e-01  2.89016187e-01
   7.08670244e-02  9.75684151e-02  3.88581678e-02  6.85129091e-02
   3.15455310e-02 -1.62059218e-01 -6.12964563e-04 -5.03679395e-01
  -2.98585087e-01 -2.10107900e-02  8.83059725e-02 -1.66255031e-02
  -8.20536390e-02 -1.00490600e-02 -1.26149416e-01 -6.65176660e-02
   1.40581980e-01 -1.63317043e-02  1.24608919e-01  5.11128902e-02
   1.36861101e-01  1.48465276e-01  2.24026948e-01 -1.23875387e-01
   3.09409127e-02  1.45393014e-01 -5.79091422e-02 -1.64702713e-01
  -3.24426502e-01  1.34723959e-02  5.09641226e-03  4.14244086e-01
  -2.55833212e-02  4.04925570e-02  1.07148357e-01 -1.18744574e-01
   3.97769809e-02  1.39816096e-02  2.69266851e-02  4.27634627e-01
   5.20025752e-03 -3.19861583e-02 -2.25230336e-01 -1.25453975e-02
   4.61998165e-01  1.50784766e-02 -3.32263834e-03 -2.77389325e-02
  -5.63213937e-02 -4.38496880e-02 -6.12644181e-02  3.64276916e-02
  -1.37945339e-01  1.44278988e-01 -1.42624319e-01 -1.51998922e-01
   1.14683039e-01  1.24752045e-01  3.97020206e-02 -1.78256333e-01
   4.05734241e-01 -5.88254333e-02  1.11452676e-02  8.12140666e-03
  -2.10332572e-02 -1.30952030e-01  7.09935948e-02  6.29183576e-02
  -6.68366328e-02 -1.32717311e-01 -6.81631863e-02  1.13269806e-01
  -4.73595619e-01 -6.09723991e-03  6.87666014e-02 -3.96875329e-02
   7.09587187e-02 -7.20176799e-03 -3.84896323e-02 -3.04523945e-01
   2.71476172e-02  1.51263461e-01 -2.17287280e-02 -4.25904036e-01
   4.12482649e-01  2.02105805e-01 -3.08584273e-02 -7.33577013e-02
   4.13722061e-02 -3.51635627e-02  5.20332530e-03 -2.43586823e-02
  -4.03999425e-02 -6.68191761e-02  2.66657382e-01  1.40690461e-01
   1.04513271e-02  3.61093320e-02  1.20251216e-02  3.76407430e-02
  -5.92432432e-02 -3.30387801e-02  1.04352631e-01  2.61180222e-01
  -2.93888766e-02 -2.70020030e-02  2.33926296e-01  2.11293384e-01
  -3.19392711e-01  1.83977187e-01 -3.95174980e-01 -1.90128580e-01
  -2.17182208e-02  3.30509543e-01 -5.38235784e-01  1.23843327e-01
   6.70833886e-02 -5.81922047e-02  6.72062114e-02 -3.14627960e-02
   2.69741081e-02 -1.75138742e-01 -1.16526693e-01  2.54328132e-01]
 [ 4.84713763e-01  4.31241356e-02  1.74096853e-01 -2.16981824e-02
   5.95056801e-04 -1.98774725e-01 -3.02088484e-02 -2.24403977e-01
   5.59176989e-02 -2.62300074e-01 -4.13658619e-02 -2.15292841e-01
   2.37058312e-01 -3.22215855e-01 -3.07513457e-02 -7.99012557e-02
   3.10653359e-01  1.06943930e-02 -4.46059220e-02  2.55728573e-01
   1.06816843e-01  1.68687999e-01  4.68764501e-03  7.08775595e-02
   2.82549143e-01  1.31918624e-01 -1.02275778e-02 -2.20943391e-01
   1.34906158e-01 -3.96671683e-01 -2.18356811e-02  1.47407249e-01
  -1.60833463e-01 -5.94465025e-02 -2.94957310e-02  1.95855930e-01
  -9.83588994e-02  1.95610791e-01 -5.41174948e-01  2.78461039e-01
  -3.02546471e-02 -6.11807778e-02 -8.21939930e-02  2.67966568e-01
  -3.74893099e-02  7.41102025e-02  6.66231364e-02  7.99181685e-02
   1.51933074e-01 -3.78062427e-02  3.56546529e-02  1.28773609e-02
  -5.82585074e-02 -7.91124851e-02  7.22778670e-04  4.28670319e-03
   1.48614392e-01 -1.14572249e-01 -3.90107751e-01 -4.09646779e-02
  -2.89244831e-01  2.54137009e-01 -4.44882214e-02  1.16339713e-01
  -1.46666661e-01 -3.43811251e-02 -3.23137462e-01  2.86795571e-02
  -5.07736988e-02 -2.10419163e-01 -1.95186615e-01  1.88818462e-02
  -4.79890080e-03  5.40855266e-02 -7.39199668e-02  2.27972627e-01
  -1.57561779e-01 -5.63524626e-02  6.28134748e-03 -5.87029904e-02
  -2.01681986e-01  1.37303814e-01  2.81919092e-02 -5.16389795e-02
  -3.44564207e-03 -5.71167283e-02 -2.63406876e-02 -1.42684028e-01
   4.84451056e-01  1.50848255e-01  6.02622665e-02  3.47645998e-01
   2.54931599e-02 -5.02929986e-01 -3.50765064e-02  5.04042320e-02
   3.45423251e-01 -2.48412229e-02 -2.48503596e-01  4.14439440e-01
   4.87159826e-02 -1.70933474e-02 -7.10674152e-02 -1.17747396e-01
  -6.11775145e-02  1.69042461e-02  4.53683846e-02  1.80154108e-02
  -4.52201776e-02 -2.18753004e-03  2.72038877e-01  9.01194289e-02
  -3.12667519e-01 -3.73463742e-02 -3.34627293e-02 -1.82389691e-01
  -4.89563271e-02  1.19290069e-01 -6.24929219e-02 -4.52635646e-01
  -3.86563949e-02  3.12617458e-02  1.25124469e-01 -5.03733605e-02
  -4.02326435e-02  3.41151580e-02  7.95402273e-04 -9.40807760e-02]
 [ 1.63913235e-01 -4.94812205e-02  8.77750590e-02  9.45027173e-03
   1.80094205e-02 -1.48209274e-01  7.16278851e-02  1.41341642e-01
   1.34882167e-01  6.35943785e-02 -4.80521470e-02  1.46124259e-01
  -2.23089918e-01 -1.08741462e-01 -1.63082257e-01 -3.00896186e-02
  -2.06517696e-01  7.00974166e-02  2.69982815e-02  2.00351626e-01
   1.13541260e-01 -6.10260591e-02  1.84626982e-01 -1.17992140e-01
  -4.36244011e-01 -6.79787323e-02 -2.09932521e-01  2.76903152e-01
  -1.81043837e-02  1.97234005e-01 -1.20316381e-02 -1.82761490e-01
   1.21856116e-01 -6.29461110e-02 -6.76685348e-02  1.36509880e-01
  -2.47990638e-02 -1.83252655e-02 -2.42363840e-01 -2.09976330e-01
  -4.50378060e-02 -4.80455570e-02 -6.37134770e-04 -1.50345072e-01
  -6.09136596e-02 -7.94304442e-03  9.13594477e-03 -4.33276817e-02
   1.65110499e-01 -7.11752921e-02 -2.75777443e-03  1.03450771e-02
  -6.00179285e-02  2.16003899e-02 -2.81795859e-02 -6.18190430e-02
   1.30857229e-01  5.27261235e-02  2.15991996e-02 -9.41366628e-02
  -1.10681340e-01  1.39689431e-01  6.69226237e-03  2.68899631e-02
   2.95335613e-02 -4.39029373e-02 -1.64273545e-01 -3.47746201e-02
  -6.01573326e-02 -1.67167664e-01 -7.29049966e-02  1.37932161e-02
   2.80384533e-03  1.04462922e-01  2.18316857e-02 -1.11847736e-01
   2.97880620e-01 -4.93351743e-03  1.31111518e-01  3.62625753e-04
   1.25946384e-02 -1.04097351e-02  5.14096841e-02 -5.17068982e-01
   1.66507869e-03  6.72017783e-02 -5.55144288e-02 -3.13808858e-01
  -5.16055785e-02 -8.83142203e-02 -6.43397048e-02 -1.84508488e-01
  -3.30453664e-02 -2.59415239e-01 -8.08496997e-02  2.62161400e-02
   3.46597284e-02 -8.28335620e-03  2.02437237e-01  1.14079408e-01
  -4.44999337e-02 -6.56165704e-02  1.83499064e-02  1.35684889e-02
  -1.30878082e-02 -3.82638280e-03 -1.14292391e-02 -2.79193539e-02
  -3.81839052e-02 -2.28261650e-02 -1.43880278e-01  5.14423922e-02
  -8.00614730e-02 -1.33650467e-01  6.78999396e-03  5.21898344e-02
  -5.85457981e-02  1.35401204e-01 -3.59747946e-01 -4.28933412e-01
  -1.54200956e-01 -7.54547268e-02 -5.29826991e-02 -3.15326899e-02
  -7.97398686e-02  2.13129390e-02 -9.68461335e-02 -2.33718485e-01]
 [-3.34461927e-02  1.67128034e-02 -1.62534431e-01 -1.40879676e-01
  -1.42727971e-01  1.56001538e-01 -5.78415208e-02  8.49301517e-02
  -1.05116367e-01  1.77261874e-01 -3.61067355e-02  5.67983724e-02
  -1.68811277e-01 -2.10627705e-01 -8.15370977e-02  6.24518059e-02
  -1.51623264e-01  2.74091531e-02  4.10269797e-02  3.98337170e-02
  -4.04584259e-02  4.39070575e-02  2.22473174e-01  1.90183252e-01
   4.19083145e-03  1.09004453e-01  1.01950124e-01 -1.94475383e-01
  -5.12347780e-02  1.32884353e-01 -1.37317239e-03 -8.44580755e-02
  -2.76913702e-01  1.85910985e-02 -4.92582321e-02 -1.09556830e-02
  -6.50496706e-02 -3.57337967e-02  8.46845433e-02 -1.01973228e-01
  -6.03612186e-03 -3.78989913e-02 -5.35579510e-02 -1.38244912e-01
  -1.64724350e-01  1.84824392e-02 -3.28096226e-02 -7.39918351e-02
   6.61978647e-02  1.49321405e-03 -2.54023299e-02 -1.22170094e-02
   3.52539606e-02 -8.24359059e-02 -7.86814839e-03 -1.21296486e-02
   2.74124723e-02  1.58025309e-01  2.06807509e-01  7.07941577e-02
  -1.53447002e-01 -2.19037309e-01  7.85454642e-03  1.15471140e-01
  -8.18958059e-02  1.66146411e-03  1.06224105e-01 -1.41947540e-02
  -1.14950515e-01  2.94806920e-02 -3.75564367e-01  1.75035745e-03
  -5.83769567e-02  2.07724914e-01 -9.73453000e-02  1.54825360e-01
   7.42617920e-02  3.23926425e-03  1.67165492e-02 -1.61321685e-02
  -2.86905076e-02 -1.19410269e-01  6.72874749e-02 -2.25038856e-01
  -5.54225547e-03 -8.50176215e-02 -3.63840498e-02  3.12136617e-02
  -3.77367705e-01 -4.18733805e-02 -4.14125957e-02 -1.82565644e-01
   1.47563387e-02 -2.38430262e-01 -1.25540152e-01 -1.56060671e-02
  -2.39516541e-01  2.49173213e-02 -1.51190698e-01  2.66874433e-02
  -9.29353312e-02  3.60722728e-02 -1.55098280e-02  6.17047772e-02
   1.44869536e-02  2.92047746e-02  6.25390187e-02 -4.89577204e-01
  -5.81979156e-02 -7.42454305e-02  5.39562404e-02  1.42962202e-01
   7.03276396e-02 -5.32541722e-02 -2.43651271e-01 -2.61420161e-02
  -8.21185857e-02  1.75918356e-01  2.14687943e-01  5.26929088e-02
   2.99331486e-01 -3.99699360e-02 -4.19966549e-01  9.48703885e-02
  -1.42361075e-02 -9.44428816e-02  1.82480216e-02 -1.18069649e-01]
 [ 1.51811121e-02 -1.51019655e-02  1.61364660e-01 -4.49614376e-01
  -2.09963664e-01  5.78142479e-02 -6.33953065e-02 -2.29873843e-02
   2.74688154e-01  6.53202087e-02 -5.53137287e-02  2.79159486e-01
   2.08913852e-02 -3.18871528e-01 -2.85821110e-01 -4.11382876e-02
  -3.19846720e-01  2.07921341e-01 -2.57706493e-01 -6.38261214e-02
   2.25526512e-01 -4.28262800e-02 -5.40138364e-01  1.91605717e-01
   1.54411614e-01  1.32091880e-01  4.40100841e-02  1.08620554e-01
   3.19282487e-02 -9.99376997e-02 -4.69593778e-02 -1.46237493e-01
  -2.89941013e-01 -2.28868946e-02 -2.36357730e-02 -1.43179312e-01
   9.02812332e-02  9.83898193e-02 -4.79689926e-01 -1.94615379e-01
   3.36748958e-02  6.93601440e-04  2.56323796e-02 -1.51199132e-01
   3.60762365e-02  5.09761944e-02 -4.99012880e-03 -1.56805649e-01
  -2.42931142e-01 -2.41261050e-02  4.35279049e-02  1.80917960e-02
  -4.07360867e-02 -2.99818546e-01 -2.45793127e-02  2.86183320e-02
   4.14487459e-02 -1.08229719e-01  2.58240908e-01 -2.64919490e-01
   1.82909966e-02 -8.99478048e-02  4.25322389e-04  1.21135585e-01
   8.38543400e-02 -4.39791307e-02 -1.59641862e-01 -1.99792720e-02
  -1.17608830e-01 -1.03591286e-01  6.72875270e-02 -6.45383149e-02
   5.28962314e-02 -3.70022021e-02 -1.70317777e-02 -1.37644336e-01
   2.41755292e-01 -3.47556621e-02  1.07490554e-01  2.45933905e-02
   1.73992306e-01 -4.42568623e-02 -3.97386879e-01 -1.25586510e-01
   8.42969585e-03  4.48020659e-02 -5.18351421e-02 -2.98991352e-01
  -1.33875325e-01 -1.16544634e-01 -1.50019946e-02  4.43168394e-02
  -1.78469217e-03 -1.73240110e-01 -2.26095214e-01 -8.55325069e-03
   2.28207514e-01  4.65452485e-02 -1.52448162e-01 -6.21605106e-02
  -4.29639127e-03  3.47572789e-02  2.91116890e-02  9.77225006e-02
   3.81996930e-02 -4.83971983e-02  4.68133539e-02  5.34594096e-02
   2.61828955e-02  2.83504985e-02  1.67502031e-01 -2.39260271e-01
   3.29155363e-02 -1.02930725e-01 -7.37902299e-02 -3.23672444e-01
   3.66570726e-02 -1.12104185e-01  1.20918728e-01 -9.54286531e-02
  -1.00855738e-01  2.59381272e-02  3.36843468e-02  6.43956959e-02
  -4.39892635e-02 -6.50067553e-02  2.04570487e-01 -6.71815798e-02]
 [-4.34410155e-01 -3.74255329e-03  2.02663556e-01 -2.98856795e-01
  -7.06491768e-01  6.92002028e-02 -3.00772667e-01  3.70854944e-01
  -1.82461694e-01 -2.09113151e-01  1.13546737e-02 -3.30217689e-01
   8.18735182e-01 -5.91464579e-01  8.67668331e-01 -7.49110952e-02
   9.11590979e-02 -5.34930766e-01  3.40533167e-01 -6.78756088e-02
  -2.19131242e-02  1.06065543e-02  1.50398195e-01  7.28368014e-02
  -3.31197828e-01 -8.23015571e-02  9.11676735e-02 -1.10570051e-01
   1.44040346e-01 -2.06962018e-03 -4.65306193e-01 -5.47985613e-01
  -2.58371800e-01 -2.27039866e-02 -1.96588151e-02  1.95260540e-01
  -4.51735174e-03 -4.50648308e-01 -4.12289441e-01  5.93043640e-02
   5.34229539e-02 -1.89677421e-02 -2.92651299e-02  2.37804785e-01
   6.35259375e-02 -1.51473181e-02 -1.67384133e-01 -5.96352160e-01
  -3.99564654e-02  2.55276822e-02 -5.60242012e-02  2.75349058e-02
  -6.29258603e-02  8.27000514e-02  4.51539569e-02 -2.71724612e-02
  -3.01930577e-01  1.09978803e-01 -1.93518758e-01 -2.48363629e-01
   2.27503747e-01  4.74761605e-01  2.48269215e-02  8.12611222e-01
  -1.47960961e-01 -3.46743055e-02 -1.81688488e-01  2.56650075e-02
   7.22862631e-02  3.47820274e-03 -5.54261506e-01 -9.70722467e-04
  -4.43930849e-02 -1.63143679e-01 -7.16348514e-02 -2.51757875e-02
   1.35880515e-01  7.16318935e-02  1.14823319e-01 -6.37296066e-02
  -5.99084616e-01  3.68626006e-02 -5.84468305e-01  3.24830227e-02
   6.32020459e-03  2.23483860e-01 -7.74239004e-03 -3.38097632e-01
   3.29647772e-02 -3.98560286e-01 -8.40241164e-02 -8.74518931e-01
   6.34410158e-02 -1.85220584e-01 -6.55999184e-02 -7.65675604e-02
  -2.40134209e-01  5.51233850e-02 -2.21812263e-01  3.93701382e-02
   5.05085289e-02 -6.08871914e-02 -5.40552586e-02 -1.57944430e-02
   4.79477942e-02 -3.40868942e-02 -2.21307892e-02  2.07102567e-01
  -5.49473092e-02 -1.86764691e-02 -3.07849705e-01  1.61987469e-01
   2.28762299e-01 -5.14227450e-01  2.81707585e-01 -1.17271729e-01
  -6.32513836e-02 -3.65942657e-01  1.56012371e-01  2.77737342e-02
  -4.63924557e-02 -1.77240372e-02  9.31579396e-02  1.11769047e-02
  -7.23420382e-02 -2.58518994e-01 -7.21438408e-01  3.05579871e-01]
 [ 4.02338147e-01 -1.11460825e-03  3.00604284e-01 -6.47654757e-02
   1.51470825e-01 -3.01592916e-01  3.98233742e-01  9.76751670e-02
   1.33383542e-01 -1.92971885e-01 -3.64131257e-02 -3.45708817e-01
   9.43537578e-02 -2.26241127e-01  1.78170785e-01  9.60832555e-03
  -5.25700629e-01  9.77202225e-03 -4.60565656e-01 -1.78275973e-01
   3.77012163e-01  1.02826171e-01 -1.57273278e-01 -9.76666510e-02
   1.88436568e-01 -3.65568429e-01 -2.43749455e-01  2.16615815e-02
   1.43447995e-01  2.02957287e-01  4.45699066e-01 -1.20406650e-01
   2.58903027e-01  3.98231745e-02 -4.20503467e-02 -1.67873502e-01
   3.87702649e-03 -5.38718626e-02  2.82221705e-01 -8.03481787e-02
  -8.72239878e-04 -5.52855097e-02  3.06205489e-02 -3.26193810e-01
  -1.65770546e-01  5.22440225e-02 -4.22687560e-01  4.20111001e-01
  -3.10329162e-02 -2.39594784e-02  5.93563868e-03 -2.23453213e-02
   2.72337273e-02  5.09667173e-02  3.72272683e-03 -1.59463417e-02
  -8.09195191e-02  1.80883363e-01  1.49537241e-02  1.56313047e-01
  -6.15173094e-02  1.68598518e-01 -3.55367409e-03 -9.38178673e-02
   1.18543684e-01 -2.22158851e-03  2.77305037e-01 -2.21198183e-02
  -8.34230706e-02 -1.43512860e-01 -2.78244436e-01  1.69429462e-02
  -6.23516366e-02 -2.83594251e-01 -9.48644057e-03  3.57164373e-03
  -2.55848169e-01 -2.49721128e-02  4.78548631e-02 -3.10054235e-02
  -2.54608691e-01 -9.85948741e-02 -9.46756750e-02  1.08334288e-01
  -3.62622216e-02  1.11851707e-01 -1.03510566e-01  3.99472155e-02
  -1.54955328e-01  1.76534839e-02 -7.10882843e-02  4.34570387e-02
  -5.05247377e-02  1.43365785e-01  1.65549919e-01 -3.94603163e-02
  -4.17902023e-02  1.82439052e-02  2.65570432e-01 -2.03883559e-01
   7.77543522e-03  4.16207202e-02  4.59853560e-02 -2.27530092e-01
   1.70789231e-02  5.68539575e-02 -6.40534759e-02  5.35534695e-02
   3.75107229e-02 -1.33455796e-02 -6.84038475e-02  9.46675837e-02
  -3.99759531e-01  4.21440462e-03 -1.03800043e-01 -4.50845331e-01
   2.68966574e-02  2.49120407e-02 -1.10971183e-01 -8.37210193e-02
  -2.79291272e-01 -4.29947041e-02 -1.09290622e-01 -6.63908646e-02
   4.29721624e-02  1.31742179e-01  1.51689544e-01 -3.50393690e-02]
 [ 4.88184812e-03  4.44306657e-02  1.78281307e-01 -1.97135247e-02
  -1.91907495e-01 -2.87961215e-01  3.22452903e-01  1.20390818e-01
   1.76004637e-02 -7.86445513e-02 -9.59384963e-02 -1.24140210e-01
   3.72936130e-01 -2.18728095e-01 -5.12298197e-02  1.52534824e-02
  -3.39798778e-01  3.22350055e-01  2.41990052e-02 -5.80990613e-02
  -5.52285016e-01  2.79174428e-02 -3.68225016e-02 -7.19425827e-02
  -2.14216962e-01 -1.56166047e-01  3.13647352e-02 -1.11237295e-01
   6.53703734e-02 -9.89898443e-02 -3.88835557e-02  4.38045450e-02
  -2.36107424e-01 -6.18711337e-02  3.14708650e-02 -2.86162272e-03
   5.76616339e-02  1.87555760e-01 -9.76794124e-01  1.97204277e-01
  -6.41148314e-02 -3.63003053e-02 -3.96055914e-02  3.97810251e-01
   5.07353283e-02  5.06853759e-02 -2.84030318e-01  2.42003366e-01
