base_model/conv2d/kernel:0
(5, 5, 3, 6)
[[[[ 1.71779975e-01 -2.76600242e-01 -2.16467395e-01  9.78028327e-02
     4.82413024e-01  1.55820385e-01]
   [ 1.49324134e-01 -2.11270884e-01  2.07524940e-01  2.36536652e-01
    -1.73611075e-01 -1.41731143e-01]
   [-1.20783523e-01  1.66116729e-02  3.69258076e-02 -2.57267877e-02
     9.40528288e-02 -3.78082722e-01]]

  [[-2.66677719e-02 -2.58314013e-01 -4.42448884e-01 -2.50519156e-01
     1.13783151e-01 -2.34210610e-01]
   [-2.10584551e-01 -3.56795728e-01  1.95038781e-01  5.92083372e-02
    -2.13184685e-01 -3.88117470e-02]
   [-1.66216582e-01  5.79826906e-02  7.56043419e-02 -2.55424082e-01
    -7.48761147e-02 -2.17584204e-02]]

  [[ 2.24565059e-01 -9.77606997e-02  1.33210704e-01 -9.53706801e-02
    -2.06020959e-02 -2.05390602e-01]
   [-4.31369156e-01 -1.98968485e-01 -4.70145792e-02  6.94982409e-02
    -2.20064461e-01 -3.55039448e-01]
   [-8.64182860e-02 -1.04378052e-01 -1.15588851e-01 -5.50984964e-02
    -3.48208368e-01  1.24344617e-01]]

  [[ 1.23374708e-01  5.77395082e-01  1.82434350e-01  2.42341146e-01
     2.06726342e-01 -1.87259555e-01]
   [ 2.22684946e-02  2.60752529e-01 -4.39692885e-01  2.37888247e-01
    -1.17691547e-01  9.49686319e-02]
   [ 5.16668074e-02 -4.45421003e-02 -2.37368375e-01  1.03961669e-01
    -3.43213767e-01  4.76030350e-01]]

  [[-3.32304090e-02  6.02088749e-01  4.33686525e-01 -1.33233026e-01
     3.42349380e-01  1.65961280e-01]
   [ 6.28749579e-02  1.58453044e-02 -3.15771729e-01 -7.90267885e-02
     5.94562627e-02  2.83866208e-02]
   [ 1.19572580e-01  3.31742689e-02  1.25982473e-02  6.04406781e-02
    -4.79993433e-01  3.04164946e-01]]]


 [[[ 2.09398210e-01 -5.63313030e-02  2.03909457e-01 -2.14728758e-01
     1.19798943e-01 -7.59743480e-03]
   [ 1.62230343e-01  2.18850449e-01  2.49384910e-01 -8.79999548e-02
    -2.80890107e-01 -1.49174497e-01]
   [ 2.92747229e-01  4.57720101e-01  1.31753147e-01 -1.12285830e-01
     1.63717881e-01 -4.73815084e-01]]

  [[-1.50936976e-01 -3.34771685e-02  3.63628536e-01 -3.70664299e-01
    -2.72445440e-01 -2.78567821e-01]
   [-3.23886216e-01 -6.75214231e-02  4.90415543e-01  6.48674145e-02
    -1.57609105e-01 -1.24850713e-01]
   [-6.86322823e-02  4.40550089e-01  1.08590573e-01 -1.54640004e-01
     2.15460360e-01  9.81084630e-02]]

  [[-2.19817698e-01 -2.29589164e-01  6.37811244e-01  4.36719000e-01
    -3.13536674e-02 -3.84396672e-01]
   [-5.98364592e-01 -4.82802838e-02  3.43616486e-01  5.73706150e-01
     1.17434688e-01  6.43139035e-02]
   [-2.13773608e-01 -2.25517347e-01  2.75762796e-01  4.77856040e-01
     4.12753582e-01  4.95957553e-01]]

  [[ 4.17613685e-01 -2.01051950e-01  2.16718897e-01 -3.47057521e-01
    -3.15105051e-01 -1.95841089e-01]
   [ 4.62616086e-01 -4.41972673e-01  6.07418045e-02 -1.39034539e-01
     2.84357965e-02  1.71222791e-01]
   [ 3.30504328e-01 -4.53972697e-01  3.70953791e-02 -1.30318657e-01
     3.33568335e-01  6.24534905e-01]]

  [[-2.72640079e-01  2.99876392e-01  4.66954470e-01 -8.10224488e-02
     5.28673194e-02  1.70934256e-02]
   [ 1.13899656e-01  2.87886672e-02  4.60090935e-02 -2.88734317e-01
     2.45478272e-01  1.74281731e-01]
   [-9.69850644e-02 -3.08375031e-01 -2.31155232e-01 -4.12816331e-02
     9.04529914e-02  1.12978108e-01]]]


 [[[ 2.59273320e-01 -1.26551539e-01 -2.78489590e-01  1.18461572e-01
    -2.96582609e-01  7.14359879e-02]
   [ 3.08536947e-01  1.63921848e-01 -4.72711623e-01 -1.68053701e-03
    -2.53955901e-01 -1.20654829e-01]
   [ 3.09931070e-01  4.56612289e-01 -6.05524719e-01  1.18922777e-01
     3.57542366e-01 -3.24890077e-01]]

  [[-1.83081701e-01  1.93749174e-01 -1.99803129e-01  5.65573633e-01
    -3.37963134e-01  2.92094294e-02]
   [-2.81610936e-01  3.34129274e-01 -3.34831655e-01  4.83560055e-01
    -3.39477300e-03 -2.54972652e-02]
   [-2.45717362e-01  5.70346177e-01 -3.42281371e-01  3.13749969e-01
     4.97020334e-01  3.33551347e-01]]

  [[-3.05936813e-01  1.86287865e-01  5.06049208e-02 -1.74192235e-01
    -2.89812028e-01 -2.09264740e-01]
   [-5.98837435e-01 -2.66913194e-02 -1.79238945e-01 -6.72389865e-02
    -1.15524277e-01 -5.61624281e-02]
   [-4.00482893e-01 -7.75378719e-02 -3.35231304e-01 -1.51926860e-01
     3.87566656e-01  5.16693473e-01]]

  [[ 5.66421628e-01 -9.50859021e-03 -1.20421261e-01 -2.35497758e-01
    -3.45746368e-01 -1.77151248e-01]
   [ 4.85142946e-01 -3.01775664e-01  4.61143488e-03 -3.96681637e-01
     2.28615791e-01  1.05656840e-01]
   [ 5.92153728e-01 -3.01557332e-01  1.21416628e-01 -5.26108503e-01
     5.20612478e-01  4.07796800e-01]]

  [[-3.23104560e-01 -8.05440620e-02  1.14470139e-01  1.16285354e-01
    -7.43310060e-03  1.33936837e-01]
   [ 2.09411129e-01 -1.63792387e-01 -2.51609594e-01  1.41779408e-01
     1.52444383e-02 -1.46803573e-01]
   [-2.20329791e-01 -9.85839427e-01 -3.55381593e-02  7.25359796e-03
     9.00452957e-03  1.81280822e-02]]]


 [[[ 2.08749980e-01  1.58262521e-01  2.91599184e-01 -6.93916306e-02
    -2.35654846e-01  1.26800030e-01]
   [ 1.14717826e-01  2.56115496e-01 -1.77432492e-01 -2.00864241e-01
     1.03412472e-01  5.78339957e-02]
   [ 1.80727884e-01  3.80524427e-01  1.98118854e-02  1.91284165e-01
     5.50960064e-01 -6.26561269e-02]]

  [[-2.33759850e-01  1.41086906e-01 -1.83076948e-01 -7.31645301e-02
    -2.35753149e-01 -4.65326849e-03]
   [-2.41329685e-01  6.31045271e-03 -1.88091695e-01 -2.09100068e-01
     1.54363364e-01  5.29786646e-02]
   [-4.25375253e-03  1.81684777e-01 -1.72259703e-01 -1.02038771e-01
     2.68420517e-01  3.47831905e-01]]

  [[-1.68273658e-01 -2.77881354e-01 -1.98791295e-01 -5.98724842e-01
    -4.71733391e-01  4.81386036e-02]
   [-4.77884531e-01 -6.88364506e-02 -2.13473946e-01 -6.23849988e-01
    -7.79640749e-02 -2.53953170e-02]
   [-1.94718271e-01 -7.17674270e-02 -1.03460327e-01 -5.00682831e-01
     3.19551438e-01  1.88705385e-01]]

  [[ 2.77852386e-01 -3.88531052e-02 -2.53474087e-01  1.61191478e-01
    -3.32903653e-01  7.81557336e-02]
   [ 4.52923149e-01  1.41381204e-01 -3.72227311e-01  1.57835081e-01
     1.78020075e-01 -1.06118381e-01]
   [ 2.90813744e-01  8.74889344e-02  6.56695664e-02  2.04299435e-01
     8.83574635e-02  1.49672836e-01]]

  [[-6.76092878e-03 -1.28960595e-01 -1.21521177e-02  2.83904046e-01
    -1.50140986e-01  3.59802991e-01]
   [ 8.76749754e-02 -6.65752292e-02 -8.50830451e-02  2.80626386e-01
     1.99265584e-01 -3.88387859e-01]
   [-2.38727361e-01 -5.31667590e-01  1.87028989e-01  9.48181003e-02
    -1.56716391e-01 -2.26727828e-01]]]


 [[[-8.80389139e-02 -1.36992177e-02 -1.63618609e-01  1.31548822e-01
    -2.48910621e-01  1.92527413e-01]
   [ 1.04618505e-01 -1.61085397e-01  1.74824342e-01 -3.12409103e-01
    -5.88951632e-02  3.13873231e-01]
   [ 4.60708179e-02  1.52317867e-01  4.83160853e-01  3.89804430e-02
    -1.58501923e-01 -4.22515646e-02]]

  [[-3.40021998e-02 -7.98780471e-02 -2.64865756e-01  1.19161401e-02
    -3.91043663e-01  1.87172472e-01]
   [-1.69729233e-01 -2.34527498e-01  7.44308233e-02 -1.09094970e-01
     8.10722411e-02 -1.00600578e-01]
   [-1.52727440e-02 -1.69673581e-02  3.89486849e-01  1.86597370e-02
    -6.39101863e-02 -1.88118480e-02]]

  [[-1.78805605e-01 -1.19522214e-03  3.33962962e-02  3.30366164e-01
    -3.17447752e-01  3.29894602e-01]
   [-3.94712329e-01 -5.36123700e-02  1.20796442e-01  3.15974981e-01
     1.59418911e-01 -2.04770103e-01]
   [ 7.66086280e-02 -1.90295558e-03  2.40170807e-01  2.21977070e-01
    -1.47374243e-01 -2.60356337e-01]]

  [[ 8.15297589e-02  1.82230905e-01 -2.37303942e-01  2.09821776e-01
    -2.12251589e-01  2.82385647e-01]
   [ 2.25388008e-04 -3.03711947e-02 -9.84046608e-03  1.79358542e-01
     2.87848804e-02 -1.90209866e-01]
   [ 6.75123408e-02  1.53226048e-01  2.13025659e-01  1.67640835e-01
    -1.81827471e-01 -4.87115204e-01]]

  [[ 6.03155345e-02 -4.79029305e-02 -1.66841581e-01 -1.52515396e-01
     2.61346817e-01  5.42666852e-01]
   [ 2.07145382e-02  6.49346132e-03 -6.83982968e-02 -1.22357816e-01
     3.56311053e-01 -1.72041833e-01]
   [ 9.44399685e-02 -2.13298872e-01  1.61871001e-01 -1.38791099e-01
    -1.81224957e-01 -6.76518917e-01]]]]
base_model/conv2d/bias:0
(6,)
[-0.15190567 -0.05078935  0.05036462  0.16035154  0.02537617 -0.0855602 ]
base_model/batch_normalization/gamma:0
(6,)
[0.6543421  0.5241581  0.63060725 0.4436632  0.23406598 0.49038017]
base_model/batch_normalization/beta:0
(6,)
[-0.35024583 -0.27909443 -0.43925735 -0.27656835 -0.00951368 -0.419591  ]
base_model/dense/kernel:0
(1536, 128)
[[-1.62219943e-03 -3.20978835e-02 -6.30696164e-03  3.34280968e-01
   2.52360165e-01 -4.87632543e-01 -2.42334083e-01 -1.25927493e-01
  -3.61034930e-01 -3.91439460e-02 -5.23944557e-01 -6.10449314e-02
  -4.43347394e-02  7.12283671e-01 -2.94977222e-02  2.40466539e-02
  -2.14255396e-02  2.47261394e-02  3.16994861e-02  1.41945854e-01
  -3.19166750e-01 -3.01499575e-01 -5.33444941e-01 -4.48021963e-02
   2.47041974e-02 -2.10558660e-02 -1.22869164e-02  2.09221989e-02
  -7.17672557e-02  1.58732504e-01  1.47028312e-01  1.80514157e-01
  -3.17324400e-01  1.76444333e-02  2.03211874e-01 -3.23149115e-02
   4.20064390e-01 -2.26948187e-01  3.66882443e-01  4.38941903e-02
   4.10290688e-01 -5.64814061e-02 -2.74744272e-01 -3.47585917e-01
   1.77858509e-02 -3.69078755e-01 -4.68580332e-03 -3.83767158e-01
  -7.65174553e-02  2.42818985e-02 -3.53976637e-01 -1.13970518e+00
   5.49923241e-01 -5.13520390e-02 -1.50359897e-02 -7.09165633e-02
   5.91196179e-01  2.69782706e-03  4.97634500e-01  1.85005203e-01
  -5.28518021e-01 -9.45086554e-02  3.65760893e-01  3.30217540e-01
  -3.15087080e-01 -8.40462297e-02  4.13002223e-02 -1.73788145e-01
   8.74267519e-03 -6.79058507e-02 -2.01469317e-01 -6.04999885e-02
  -4.69400704e-01  4.11095545e-02 -2.36613918e-02  4.87210369e-03
  -5.37320226e-02 -4.49928641e-02  1.76638499e-01 -5.88051789e-02
  -3.89694087e-02  1.25159919e-01 -2.14827023e-02 -1.85007192e-02
   8.27676594e-01 -3.26730646e-02 -4.81643453e-02  2.54422933e-01
  -5.51738255e-02 -6.70799166e-02 -1.13411494e-01  1.79638080e-02
   4.66365486e-01  3.75269055e-01 -3.45405303e-02  3.14713508e-01
  -2.26352051e-01  1.81472808e-01  1.02792211e-01  3.33472103e-01
   3.37934524e-01 -2.26973504e-01 -1.36010200e-02 -6.76971227e-02
  -1.47333920e-01  4.24039662e-01  1.02460064e-01 -6.19196407e-02
  -3.25360633e-02 -1.00774758e-01  4.50437874e-01  5.83918393e-02
  -8.09478700e-01 -3.53293270e-01 -3.89919616e-02  5.75673699e-01
  -2.47530509e-02  8.72840211e-02 -1.70360450e-02  4.98903424e-01
  -4.17827636e-01 -1.25411479e-02 -6.57348707e-02 -2.03867629e-01
  -4.27469909e-02 -6.79288864e-01  3.80294949e-01 -1.83410302e-01]
 [ 4.26200032e-02 -1.56467948e-02 -6.16086647e-02 -2.97242463e-01
  -2.88013518e-01  3.79642367e-01 -7.35463440e-01 -6.51881933e-01
  -2.34822214e-01 -1.75604708e-02  4.15916055e-01 -1.71980988e-02
   2.20620915e-01 -3.75824422e-01 -1.07267813e-03  4.92965840e-02
  -2.18712110e-02 -4.55993898e-02 -5.81505932e-02  4.13436256e-02
  -4.50408489e-01  1.02858981e-02 -1.40167224e+00  1.11133102e-02
  -3.66410762e-02  1.23301949e-02 -1.82993356e-02 -6.03210926e-01
  -4.30468768e-02 -3.70812744e-01 -5.90683287e-03  1.84287071e-01
   6.17341280e-01  7.37421811e-02 -3.20515871e-01  4.68228519e-01
  -4.53978658e-01 -4.52751756e-01 -5.72326601e-01 -7.01250434e-02
  -1.16355515e+00 -5.37413396e-02  1.75938290e-02  1.88337862e-01
   5.86684905e-02  7.94443905e-01  1.20334495e-02 -5.95604360e-01
  -2.89185327e-02 -3.56998473e-01 -3.59271944e-01 -2.02566290e+00
  -3.78851324e-01 -2.51192659e-01 -2.17246613e-03  1.22132838e+00
   8.36274624e-02  2.10381933e-02  2.46850297e-01 -1.14190750e-01
  -3.30853313e-01 -5.05246595e-02 -7.04720914e-01 -1.39335439e-01
  -2.90930599e-01 -9.92474332e-02 -1.08044714e-01 -2.19677520e+00
  -1.62971504e-02 -1.20492699e-02  3.48080516e-01  2.38746945e-02
  -2.83484817e-01 -1.13238645e+00 -3.71503770e-01 -5.64124659e-02
   3.96386534e-02  4.67798533e-03 -5.52434504e-01  2.13558376e-02
   4.53593358e-02 -5.58547854e-01  2.20720973e-02 -4.13402691e-02
  -6.28030062e-01  2.74248440e-02  2.35758536e-02  1.28655374e+00
  -4.47086571e-03  5.41073568e-02  1.11384392e+00 -2.85580335e-03
  -4.23594922e-01  2.95540988e-01 -8.90330493e-01  9.77803767e-02
   1.05756557e+00 -4.33734357e-01 -1.25858724e-01 -5.28951585e-01
  -3.97000313e-01 -3.79366904e-01  2.21351773e-01  2.08371803e-01
   1.49045929e-01 -5.80232620e-01  4.69208002e-01 -1.71956234e-02
  -5.06729782e-02 -2.91518420e-01 -2.29046553e-01 -2.77075648e-01
   5.13872385e-01 -1.23829968e-01  4.62587401e-02 -5.24967730e-01
   1.09436791e-02  4.55306232e-01 -2.18876936e-02 -3.64535153e-01
  -7.25599766e-01 -2.41943896e-02 -1.18622422e+00 -9.14704576e-02
   7.77852349e-03 -7.21000433e-01 -1.08430672e+00 -1.39228716e-01]
 [-2.95017883e-02 -4.12432104e-03 -2.78261490e-02 -3.37190241e-01
  -1.28001701e-02  9.97490957e-02  2.53767474e-03  5.30420467e-02
  -1.28360596e-02  2.29468141e-02  2.78908789e-01 -1.58047061e-02
   1.05741564e-02 -7.27987941e-03 -9.48908627e-02 -5.55218942e-02
  -1.34053845e-02 -3.98548273e-03  1.87901853e-04  1.84646815e-01
  -5.95272221e-02 -1.60317346e-02  1.00212172e-01  1.29282093e-02
  -3.17483842e-02  1.99678183e-01 -1.73999550e-04  1.32353023e-01
   1.88335795e-02 -8.83562374e-04 -2.94173896e-01 -2.15058044e-01
  -2.25362554e-01 -4.84781303e-02  1.00575060e-01 -5.27587160e-02
   2.70313607e-03  6.57696277e-02  1.72915012e-01 -5.94904460e-02
  -6.80333152e-02  5.23101389e-02 -1.28429681e-01  3.16483676e-01
  -3.37738767e-02  3.56508270e-02 -1.16680190e-01 -3.85981888e-01
  -5.20191006e-02 -4.87190001e-02 -1.36105224e-01  2.25067347e-01
  -7.72028118e-02  1.58835813e-01 -2.47724988e-02 -3.16840447e-02
  -2.57280648e-01  2.23430675e-02  2.64040947e-01  1.50080100e-01
   2.62331422e-02 -4.37479466e-03 -9.87566113e-02  4.70024407e-01
   2.43215144e-01  1.19688556e-01 -7.69296512e-02 -3.26645933e-02
   6.27541402e-03 -6.77428395e-02 -1.25515223e-01 -6.37237541e-03
   1.04462422e-01  2.98148274e-01 -6.93262964e-02  7.11413380e-03
  -7.18962401e-03 -1.42920241e-02 -5.44700250e-02  4.61996533e-02
  -3.31887417e-02  1.66839510e-02  3.81111354e-02 -4.29734848e-02
  -2.01605901e-01 -8.86291713e-02  3.31953615e-02 -1.54180959e-01
   1.57959517e-02 -1.03652887e-02  3.83749120e-02 -5.07018007e-02
   2.76706591e-02 -2.77325362e-01  2.02043444e-01  2.84796119e-01
  -1.97022125e-01  2.95368433e-01 -1.49041519e-01 -2.30950549e-01
   7.05289692e-02 -1.43386334e-01 -1.56722352e-01 -8.33590925e-02
  -1.61827371e-01 -9.44240913e-02 -1.71770975e-01 -7.46655762e-02
  -2.00271215e-02 -1.93300188e-01  5.03959842e-02 -4.91271913e-01
   1.25595212e-01  2.60410279e-01 -3.00201890e-03  6.20778166e-02
  -2.50666700e-02 -2.52239585e-01 -8.20112005e-02 -7.11712763e-02
  -2.66918063e-01 -7.40849748e-02  3.93957943e-02  3.85990106e-02
  -4.35088053e-02 -3.36795091e-03 -9.27838087e-02  4.79569426e-04]
 [-6.41149879e-02  2.78630834e-02 -5.26195280e-02  1.95807312e-02
   3.10444720e-02  4.42681700e-01  4.66388501e-02 -1.31306201e-01
  -2.73649514e-01 -2.04075431e-03 -4.76018131e-01 -7.66313374e-02
   2.22267121e-01 -1.41474798e-01 -5.13368100e-03 -4.18863855e-02
  -3.08418069e-02 -6.37207180e-02 -9.95285902e-03 -8.83363262e-02
  -8.37742090e-02 -5.25131933e-02 -4.08203155e-01 -2.14957893e-02
   2.80300267e-02  1.58672575e-02  5.61480410e-03  2.57924974e-01
  -2.51323748e-02  2.34480649e-01  1.16991110e-01 -8.84752870e-02
  -2.42927242e-02  2.76633561e-01 -5.77578366e-01 -9.72631127e-02
   1.38108611e-01 -1.24504939e-02 -2.13611305e-01  3.18019688e-02
   1.27301082e-01  1.17148738e-02 -3.25926929e-03 -5.81774831e-01
  -2.37600598e-02  5.03611378e-02  9.57278162e-03  2.59566605e-01
   1.73135214e-02 -2.50415832e-01 -2.96530053e-02 -2.38971978e-01
   2.90058702e-01  1.53457493e-01 -3.82482447e-02  2.80632786e-02
   3.81122194e-02 -1.72678456e-02 -5.99731039e-03 -1.23722650e-01
   2.35720247e-01  3.10291946e-01 -3.95250738e-01 -2.14413568e-01
  -1.51983917e-01 -1.79000571e-01 -1.18298724e-01 -1.82691574e-01
  -2.28635478e-03 -4.52298857e-02  3.77522670e-02 -2.84393271e-03
   9.26116705e-02  2.47601107e-01  8.64868015e-02 -3.31327915e-02
  -7.23736212e-02  5.13693467e-02  3.52758579e-02 -2.92423368e-02
  -5.63348345e-02 -3.11795697e-02  2.08360441e-02  1.81255694e-02
   7.56021515e-02  3.30904424e-02 -1.63915660e-02 -4.36998308e-01
  -6.48031458e-02 -4.80748527e-02 -6.83956221e-02  2.57907286e-02
  -1.21711604e-01  5.85248694e-02  3.95125031e-01  3.68130922e-01
  -1.10422380e-01 -5.78202605e-01  5.49919158e-03 -4.65223938e-02
   1.99189574e-01 -7.84398615e-02 -4.36126953e-04 -7.44642317e-03
   6.34438932e-01 -1.17805123e-01 -1.43062368e-01  1.57007817e-02
   2.59528067e-02  7.08899796e-02 -2.71521717e-01  1.58850938e-01
   2.74367947e-02 -2.02493235e-01 -7.09135979e-02  1.63594913e-02
   3.28276195e-02 -2.53514975e-01 -5.09601347e-02  2.73242772e-01
  -1.13593243e-01 -4.61323112e-02  8.31920654e-02  3.20536718e-02
  -2.95710769e-02  1.63440615e-01  1.50054127e-01 -1.90339208e-01]
 [ 2.10876763e-03 -2.00524516e-02 -5.01630455e-02 -2.62000054e-01
  -1.01052428e-04 -2.23423708e-02 -4.87448880e-03  1.82370096e-02
  -4.66396511e-02  2.77034733e-02  2.91320235e-02 -1.31659843e-02
  -6.87487870e-02 -1.02302641e-01  2.42229626e-02 -3.87326479e-02
  -4.26288601e-03 -7.04653654e-03 -5.69982231e-02 -7.49709606e-02
   6.99947253e-02  1.31086588e-01  1.38633817e-01 -6.29649237e-02
  -2.32267585e-02  2.34771091e-02  1.15572996e-02  7.04369396e-02
  -2.89373379e-02  1.46550164e-02  1.37905106e-01  8.89502838e-02
  -1.68351039e-01  1.21195205e-01 -2.43964776e-01 -6.99267760e-02
  -3.82599294e-01  1.84006184e-01 -2.82774959e-02 -1.32651161e-02
   1.38266563e-01  3.97418402e-02  2.29590937e-01  2.33026013e-01
   1.40729016e-02 -1.59581482e-01 -9.97443274e-02  6.22791164e-02
  -3.98655946e-04 -3.03240912e-03  2.15724990e-01 -8.68074317e-03
   1.73413269e-02  1.37710273e-01 -7.52782002e-02 -1.55252397e-01
  -4.66299623e-01  2.30186582e-02 -7.36256167e-02  1.25734091e-01
  -1.35864645e-01 -1.15398347e-01  2.53563434e-01  1.65301219e-01
   1.10064454e-01  3.65454666e-02  5.61755821e-02  1.65032431e-01
  -3.57581340e-02 -1.23229332e-01  1.20180517e-01 -3.96424197e-02
   1.20860726e-01  2.62746923e-02 -6.37200698e-02 -1.70064513e-02
  -7.19080865e-02 -5.20058488e-03  1.46889403e-01  1.75695568e-05
   6.52689778e-04  1.93066999e-01  1.34679945e-02 -8.22309218e-03
   1.68777853e-01  2.21074130e-02 -7.66061321e-02 -1.50878474e-01
  -6.80425093e-02 -5.02156280e-02 -2.02537894e-01 -2.73683630e-02
   1.83201030e-01 -2.91011870e-01  9.49401930e-02  1.34226292e-01
  -3.14349115e-01 -9.45518091e-02 -6.87644109e-02 -1.99365646e-01
   4.03173547e-03  1.02493636e-01  5.60915156e-04 -1.52609497e-01
  -4.64614518e-02 -1.74300388e-01 -2.58018315e-01 -3.82449254e-02
   5.19747436e-02 -1.69911198e-02  3.85654010e-02 -6.64148033e-02
   3.32537815e-02  3.02597702e-01 -4.75915857e-02 -2.97233552e-01
  -1.07880449e-02  1.87135369e-01 -6.10915497e-02 -3.86786386e-02
  -3.29480946e-01 -1.54377799e-02  7.41255209e-02 -2.52214819e-02
  -1.27542928e-01 -4.91607375e-02 -2.76051998e-01 -4.96622408e-03]
 [ 1.67660415e-03  3.44918035e-02 -3.28750871e-02 -3.19839448e-01
   1.06682271e-01  1.53563112e-01  1.80969030e-01 -1.31959654e-03
  -2.03975782e-01  3.14764231e-02  4.12659347e-01  1.25777442e-02
  -6.83622584e-02 -1.07883029e-01 -2.40767486e-02 -3.60141955e-02
  -3.51442099e-02 -4.02114391e-02 -1.90101359e-02  2.40481719e-02
  -2.60175299e-02 -1.37887985e-01  1.17075182e-02 -1.73711237e-02
  -1.06659625e-02  6.57156110e-02 -2.75985952e-02  2.11343974e-01
   4.82598059e-02 -1.89001888e-01 -4.10408489e-02 -6.58251643e-02
  -2.34870650e-02  2.67470311e-02 -1.85079843e-01 -1.13541074e-01
  -3.38113457e-01  1.75536647e-02 -1.16740897e-01 -8.80841240e-02
  -1.98360398e-01 -4.02128249e-02  3.29978913e-02  3.17289948e-01
   8.17129761e-03 -2.08169799e-02 -4.55296524e-02 -1.30611971e-01
  -3.76203842e-02 -2.38426253e-01  2.73306161e-01  8.73138011e-02
  -3.30155492e-02  2.46543307e-02 -8.23907182e-02 -6.11099228e-02
   4.58303764e-02  1.81345809e-02  1.17883481e-01  1.95636809e-01
  -1.88048244e-01 -3.44098955e-02  1.49348661e-01  3.96326244e-01
   1.14539554e-02 -1.55791938e-01 -4.56749238e-02 -3.43096286e-01
  -2.64989361e-02 -2.20006872e-02 -3.53216290e-01 -8.25484544e-02
   1.31485015e-01  1.83809936e-01  2.53244229e-02 -4.29184251e-02
  -6.79800287e-02 -4.80852984e-02  1.90323144e-02  2.78225783e-02
   4.00827825e-02 -1.24745823e-01  9.52770561e-03 -1.61543582e-02
  -2.35316142e-01 -6.56858608e-02 -1.56916550e-03  3.01977899e-02
   3.46431434e-02  1.84241943e-02 -2.25072484e-02 -6.10820241e-02
   2.33743526e-02 -1.28817916e-01  2.65534483e-02 -5.03363498e-02
  -3.60588461e-01  1.30896881e-01 -3.08502346e-01 -1.82647735e-01
  -1.38458848e-01  5.64148054e-02  1.86722189e-01 -1.99846283e-01
  -2.84191400e-01 -4.92601722e-01 -2.28056312e-01  1.06447935e-02
  -1.72956344e-02  9.79733989e-02 -4.57601883e-02 -2.52909929e-01
   1.95445612e-01  6.65467083e-02  5.64487949e-02 -3.93743217e-01
   4.10792837e-03 -1.16452932e-01 -2.78217252e-02  4.40201424e-02
  -1.74570337e-01 -6.70479536e-02  1.79397110e-02  9.09182653e-02
  -7.76337758e-02 -4.76728491e-02 -1.54660046e-01 -3.78238648e-01]
 [ 3.70849743e-02 -3.54332700e-02 -3.34484056e-02  1.99297786e-01
  -5.74596189e-02 -8.07491183e-01 -3.39170475e-03  1.14489809e-01
  -9.00588632e-02 -6.35746047e-02  9.89260990e-03  2.84357695e-03
  -1.02203429e-01  4.70536530e-01 -1.51288067e-03 -2.98412628e-02
  -9.50589718e-04 -2.74095256e-02  4.26767841e-02 -2.09946647e-01
  -3.08508903e-01 -1.88139990e-01 -4.48712528e-01 -5.39062396e-02
  -6.45132437e-02 -1.93424121e-01  5.03106881e-03  2.45898709e-01
  -6.70523569e-02  7.92845264e-02  7.94522837e-02  5.45329034e-01
  -2.29164381e-02  2.45278969e-01 -1.81335378e-02 -2.33483210e-01
  -5.08868396e-02  8.08479860e-02 -2.76883364e-01  3.95963639e-02
  -7.69471601e-02 -7.51472730e-03  2.85758674e-01 -4.65358287e-01
   5.29381707e-02 -1.79020628e-01 -7.72436485e-02 -4.85793978e-01
  -4.05143239e-02  1.23795539e-01  9.69924852e-02 -5.52595258e-01
   2.07038522e-01 -1.13277227e-01  2.94538848e-02  3.75946850e-01
  -2.62965620e-01  2.92965192e-02  3.49409610e-01 -2.63213158e-01
  -1.85075894e-01 -8.16523004e-03 -2.09455639e-01 -3.31839740e-01
   1.24784365e-01  3.31235453e-02  9.49205458e-02 -2.21073478e-01
   1.82963684e-02 -2.24831346e-02  2.69043624e-01 -1.02808312e-01
   1.33794462e-02 -5.88229239e-01 -5.08951731e-02 -7.00356290e-02
   3.32306349e-03 -5.99447228e-02 -2.36335061e-02 -2.59123300e-03
   3.78106087e-02 -2.95328408e-01  2.96968617e-03 -3.33129875e-02
  -1.49830356e-02 -1.46494166e-03 -7.85065070e-02 -1.70067977e-02
   1.80293024e-02  4.57104146e-02  1.22361258e-01  2.84710992e-02
  -2.41172522e-01  2.98905104e-01 -9.19317231e-02  1.65985957e-01
  -1.40644565e-01  6.63647130e-02 -1.30481645e-01  4.23483580e-01
   1.05973721e-01  1.43954828e-01  5.25344789e-01  1.50217772e-01
   2.14635924e-01  2.17590526e-01 -1.26670852e-01 -9.07587353e-03
  -4.31980379e-02  9.72692072e-02  2.49916147e-02  1.65358782e-01
   1.35487065e-01  2.61593282e-01 -2.07882822e-02  2.23200321e-01
  -2.02153828e-02 -4.20629643e-02 -3.95352729e-02  1.51732147e-01
   9.58815962e-02 -3.02328654e-02 -4.08723392e-02 -3.48658785e-02
   4.43421714e-02  2.14547217e-01  1.92233518e-01 -2.93078184e-01]
 [-5.98207861e-02 -7.73118585e-02 -6.70895129e-02 -7.30128512e-02
  -3.23407769e-01 -1.70878917e-01 -3.89178663e-01  3.75294060e-01
  -1.79922841e-02 -2.30572168e-02  1.00968443e-01 -2.01853216e-02
  -1.08642384e-01  8.38550851e-02  3.80395465e-02 -1.53372367e-03
  -5.76358661e-02 -4.15143222e-02  3.76883335e-02  3.78199428e-01
  -2.68846452e-01  1.27935726e-02  1.17403260e-02  2.12799571e-02
   4.74286973e-02  1.01995192e-01 -4.98049259e-02  1.82272628e-01
  -3.61190885e-02  1.61359459e-01 -1.27653286e-01  1.26153350e-01
  -3.14550877e-01  4.04376149e-01  1.12015568e-01 -2.55638212e-02
   6.06926158e-03  1.28802452e-02 -3.80355686e-01 -1.07845388e-01
  -2.18587279e-01  5.62666357e-02 -9.86750647e-02  1.19990885e-01
  -2.13501919e-02  2.61545600e-03 -7.16493577e-02 -4.96412404e-02
   4.65573333e-02  1.41472414e-01 -3.48946989e-01 -5.24823964e-01
   3.81108075e-01 -5.77114299e-02 -4.06929851e-03  1.73168898e-01
   4.47840430e-03 -4.91434149e-02 -4.57175851e-01 -3.98585975e-01
   1.45170331e-01  3.49603176e-01 -4.96898562e-01  4.32944924e-01
  -7.77771883e-03 -1.25757009e-01  9.34202611e-01  4.27893132e-01
  -2.59831958e-02  1.09732356e-02  3.70783806e-01 -8.23605284e-02
   1.47834465e-01 -3.51571478e-02 -6.54064715e-02 -4.26863767e-02
   1.45962341e-02 -5.83725832e-02 -2.35770866e-01  1.43512320e-02
   4.41707037e-02 -4.04343218e-01 -4.65079732e-02 -9.69825238e-02
   1.10787833e-02 -6.46643713e-02 -4.25544828e-02  1.50199652e-01
  -5.56278676e-02 -6.89598843e-02  1.24729916e-01 -5.61321387e-03
  -8.62075947e-03  3.50110084e-01 -1.58740178e-01  2.27160871e-01
   7.37297311e-02 -4.94880021e-01 -2.16131359e-01  3.35485190e-02
  -5.63881397e-02 -3.08632851e-01  3.00914198e-01  4.08023387e-01
   2.67585739e-02  1.77038670e-01  3.42784464e-01 -2.29546465e-02
  -3.73418555e-02  1.60872728e-01  3.75789583e-01  5.14116213e-02
   7.55812600e-02 -6.57913834e-02  2.38198601e-02 -6.32508546e-02
  -4.80079800e-02 -2.91585103e-02 -3.00487187e-02  2.10618302e-01
  -9.54547804e-03  3.46134044e-02  2.23143741e-01  4.86412942e-02
   4.64206375e-02 -9.15414929e-01 -1.00854196e-01 -7.37492666e-02]
 [-5.88959940e-02 -1.92979500e-02 -4.79342490e-02 -1.77541912e-01
  -1.68571919e-02  1.20123737e-01  2.37455547e-01 -4.80158664e-02
   1.24381587e-01  1.04377344e-02  8.19768012e-02  4.26307470e-02
   1.35427285e-02  1.18817709e-01  2.05370244e-02 -3.23597342e-02
  -2.52780579e-02  1.05272476e-02  3.63240205e-02  1.16220750e-01
   2.17951521e-01 -5.38823754e-02 -2.17393279e-01  2.28731148e-02
  -8.06167629e-03  3.70075852e-02  2.81348936e-02  1.16646886e-01
  -6.83803286e-04  4.97551784e-02  8.94626901e-02  7.01259971e-02
  -3.68281990e-01 -5.20796001e-01  9.84480456e-02 -2.68343538e-01
   2.62288712e-02 -2.72073478e-01  3.09639007e-01 -2.31339280e-02
  -2.74656653e-01  5.13721928e-02 -1.69544876e-01 -1.02929436e-01
  -6.31674156e-02  4.45347540e-02 -1.42784208e-01 -1.25104576e-01
  -1.77818481e-02  3.42216730e-01 -2.02157259e-01  1.20815255e-01
   1.67802081e-01 -6.55536279e-02 -8.36559944e-03 -3.96194011e-01
  -2.09486797e-01  2.49345619e-02  1.42135590e-01 -1.50835440e-02
  -2.31142133e-01 -2.83164293e-01 -5.01409546e-02 -7.17957914e-02
   2.05129638e-01 -1.72189996e-01 -1.21500127e-01  1.15638882e-01
   2.00624093e-02 -5.56853926e-03  4.08750087e-01 -1.22449420e-01
  -1.49291471e-01 -3.56462449e-01 -7.91341141e-02  1.77034251e-02
   3.68762687e-02  1.53459460e-02  3.28139625e-02 -5.35391551e-03
  -2.71617677e-02 -2.19443977e-01 -5.00217900e-02 -1.92769729e-02
   1.49585947e-01  9.23338067e-03 -7.08006471e-02 -2.43724078e-01
   1.05688628e-02 -5.25637306e-02  6.80334345e-02  8.41588830e-04
  -4.41672355e-02  1.33116111e-01  2.79667787e-02 -1.31464079e-01
   3.80851984e-01  7.43820965e-02  4.30626683e-02  2.26495013e-01
  -1.48553506e-01 -1.13852983e-02  7.72717297e-02  1.43733472e-01
  -1.15534611e-01  1.08718403e-01 -2.18954459e-02 -4.92289886e-02
   2.29742099e-02 -7.84090385e-02 -1.86469138e-01  2.94594586e-01
  -2.51204837e-02  9.30434465e-03  2.48421468e-02  2.36942813e-01
  -4.35792143e-03 -1.88470960e-01 -9.74750817e-02  1.69057101e-02
  -1.06382117e-01 -5.49030565e-02 -5.45786560e-01 -5.74026741e-02
   3.45868729e-02  2.00627923e-01 -1.82940662e-02  2.28514597e-01]
 [ 6.75602700e-04 -7.06128180e-02 -3.58166620e-02  1.86656229e-03
   9.30963382e-02 -1.69466078e-01  2.41144449e-01 -1.53304234e-01
  -1.41218722e-01 -3.72509435e-02  4.49794680e-01  2.81799491e-02
   1.04751386e-01 -1.02804519e-01 -6.24889508e-02  2.64106672e-02
  -1.91443358e-02 -3.61984558e-02  2.51055397e-02 -1.67413577e-01
   9.01578069e-02  6.05992004e-02 -1.99034557e-01 -4.95889485e-02
  -9.04201251e-03  7.60539547e-02 -2.43585091e-02  1.19013088e-02
   4.80362820e-03  3.91489595e-01  9.73472893e-02 -1.29193932e-01
  -8.21403936e-02  2.69526802e-02  5.25744865e-03 -8.42304677e-02
  -1.40146032e-01 -3.84925038e-01  4.75267135e-02  7.26605207e-02
   5.41492626e-02  2.11973512e-03 -2.87574500e-01 -5.84118843e-01
   7.31850695e-03 -5.21092057e-01 -7.56301507e-02 -2.18174651e-01
  -4.33381908e-02 -5.81543446e-02 -3.90509218e-01 -2.12346181e-01
   1.33345649e-01  3.25171173e-01 -6.51030764e-02  2.48846292e-01
   7.38401562e-02 -7.56571814e-02 -2.71573812e-02 -4.20764893e-01
   2.15430617e-01  3.09783936e-01 -3.79876077e-01 -3.25688809e-01
   6.19824938e-02  8.07318091e-02 -3.10579211e-01 -2.43317872e-01
   4.99478988e-02 -1.15419537e-01 -5.95927358e-01  4.14128089e-03
  -2.80633233e-02 -3.50937635e-01 -3.07357252e-01  2.29042806e-02
  -2.42779031e-02 -3.46289799e-02  1.72693059e-01  4.97168042e-02
  -1.38190333e-02  2.28225701e-02  4.09943126e-02  2.79031210e-02
   2.93227613e-01 -3.10510937e-02  5.57436459e-02  8.54640976e-02
  -7.48754442e-02  3.11791096e-02  1.27484098e-01 -6.54035285e-02
   3.09164912e-01  4.91794229e-01  5.57951033e-01  3.32319528e-01
   2.70240426e-01 -2.87261426e-01  1.12786375e-01 -7.90230855e-02
   1.96535096e-01 -6.05850458e-01 -1.46255344e-01  1.13397852e-01
   1.38990432e-01 -2.27141678e-01 -1.51363611e-01  4.98967841e-02
  -3.10572851e-02  2.77420819e-01  6.35472164e-02 -8.79437774e-02
   1.58946157e-01  1.16143391e-01 -1.49450535e-02 -9.41813514e-02
   6.27665520e-02  5.36942296e-02  1.03261083e-01  9.05875936e-02
   2.54301250e-01  1.60471927e-02  2.87780702e-01 -5.25767840e-02
  -9.06941146e-02 -2.33072221e-01  9.04100910e-02 -1.85541272e-01]
 [-3.70653942e-02  8.55321810e-03  1.75574142e-02 -1.03823043e-01
   4.73101251e-02 -2.60470808e-02  7.07960874e-02  5.86433485e-02
   1.36382198e-02  1.54784415e-03  1.05703995e-01  2.02447781e-03
  -3.76176112e-03 -7.71732777e-02  4.56538387e-02 -5.38741611e-02
  -1.11924753e-01 -3.01140230e-02  4.02050316e-02 -1.73830509e-01
   7.35545531e-02  7.00129569e-03  1.80255458e-01  6.42989762e-03
  -1.04924686e-01 -2.16739714e-01 -7.39677101e-02  2.99137980e-01
  -4.40004282e-02 -3.91510785e-01 -1.85809523e-01  7.62636811e-02
   3.16317156e-02 -1.74393028e-01 -5.46610840e-02 -1.10476568e-01
  -3.57268035e-01  2.49062374e-01  6.83030905e-03 -4.25756499e-02
  -7.60185048e-02 -2.68006139e-02  2.36736029e-01  1.14066280e-01
   1.76523011e-02 -2.18356699e-01 -5.74140586e-02  1.53455615e-01
  -1.25917932e-02 -3.03033471e-01  5.84662259e-02  7.95040503e-02
  -5.05438857e-02  3.94448712e-02 -4.99021076e-02  1.18103229e-01
  -4.26837146e-01 -7.43242055e-02  1.00393377e-01  2.03779638e-02
  -4.21892554e-02  8.20420310e-02  3.42759162e-01  1.82431221e-01
   2.66391207e-02 -5.15158772e-02 -1.16637707e-01 -2.74494708e-01
  -1.22053605e-02 -1.99613417e-03  8.54097158e-02 -2.52948776e-02
   1.02711119e-01  2.91699152e-02 -2.70914853e-01  6.31852262e-03
  -2.50856392e-02  2.27050111e-02  2.85479963e-01 -2.14009173e-02
   2.89326701e-02 -4.88852896e-02 -4.95141484e-02 -2.67504472e-02
  -2.21979588e-01 -7.27213696e-02  4.46537361e-02 -3.04597348e-01
  -2.94110868e-02  3.62285152e-02  1.19681105e-01 -3.45922820e-03
   9.03668776e-02 -2.58166850e-01  5.52549064e-02  1.37717173e-01
  -4.05129045e-01  4.91377749e-02 -3.12251717e-01 -3.00964713e-02
   5.25167063e-02  2.93658022e-02  7.53081962e-02  1.32016554e-01
  -1.52061701e-01 -3.00538689e-01 -3.87336224e-01  3.64364162e-02
  -1.53434435e-02 -1.26663700e-01  7.67785162e-02 -1.08085826e-01
   4.55857515e-02  1.54437855e-01 -8.20058584e-02 -1.89837053e-01
  -7.57115483e-02 -9.78803188e-02 -2.75947303e-02 -2.48165638e-03
  -2.88083106e-01  2.81934533e-02 -1.65723592e-01  1.23365261e-01
  -4.79126833e-02  1.06813777e-02 -1.77726418e-01  5.94306849e-02]
 [ 3.33197862e-02 -2.22359337e-02 -1.77975316e-02  1.75821915e-01
   9.72582772e-02  1.29101396e-01 -2.78206971e-02 -3.99114415e-02
  -3.72077167e-01  3.86850946e-02  2.91252255e-01  1.75564513e-02
  -1.00587577e-01  1.61576469e-03  3.68055589e-02  2.74622403e-02
  -5.79131432e-02 -3.94160580e-03 -5.83158098e-02  2.49963462e-01
  -1.71511486e-01 -2.31452763e-01 -9.58884209e-02 -2.97174230e-02
  -7.95731544e-02 -6.05105236e-02 -4.87663485e-02  6.97668642e-02
  -2.19705682e-02 -5.35146967e-02  1.77693963e-01  2.24441931e-01
  -2.39290684e-01 -3.12890559e-01 -4.06744450e-01 -2.87649781e-01
  -1.51611775e-01 -3.62136029e-02 -2.82631367e-01 -1.82641558e-02
  -2.64763199e-02 -5.33818454e-02 -1.60166193e-02  1.86799164e-03
  -1.24642467e-02  5.37572019e-02 -1.57224704e-02  1.30667984e-02
   3.32476720e-02 -2.76570052e-01  5.03810868e-02 -1.12935349e-01
   2.78054122e-02 -1.06262788e-01 -4.08685245e-02 -2.08803371e-01
  -1.79255649e-01 -1.37048028e-02  5.38901612e-02 -2.31195927e-01
   1.15162790e-01 -2.90699340e-02 -1.09702060e-02  2.31587365e-01
  -3.44409615e-01  5.25240600e-02  3.69094908e-02  1.21085986e-01
  -5.51824905e-02 -2.40697935e-02 -3.44212115e-01 -1.18472323e-01
   9.83563662e-02 -5.56448381e-03  6.48636341e-01 -2.93949954e-02
  -2.84171035e-03  5.12422882e-02 -1.64071292e-01 -4.05618921e-02
  -1.43152904e-02 -1.96743503e-01  1.57183036e-02 -1.19790882e-02
   7.40443543e-02 -6.85708150e-02 -8.63862485e-02  6.46983832e-02
  -5.42303026e-02  4.14736681e-02 -1.93145216e-01 -1.70709956e-02
  -1.71104580e-01  1.97375454e-02 -1.80310775e-02 -1.42932445e-01
  -9.95060354e-02 -7.10820109e-02 -3.17991734e-01  1.93418175e-01
   6.03353418e-02 -5.86504042e-02 -2.36412078e-01 -4.07682061e-01
  -2.94038206e-01 -5.07802069e-01 -8.00322667e-02 -7.64462054e-02
   2.48092506e-03  2.36664727e-01 -2.68375576e-01 -2.59761095e-01
   1.68201327e-02  2.42811561e-01 -6.23239093e-02 -2.51769796e-02
  -6.99875578e-02 -2.58583933e-01 -6.17365241e-02  6.75412342e-02
  -3.25129867e-01  1.24419923e-03 -1.37767181e-01  5.47502935e-02
   9.37311165e-03 -2.37659380e-01 -2.79163480e-01 -5.87137938e-01]
 [ 2.26040296e-02  2.49949843e-02 -6.49006218e-02 -9.43927020e-02
  -1.34565845e-01 -6.42840505e-01 -4.77280676e-01  3.07202846e-01
  -9.09074545e-02  2.68422514e-02  1.88577175e-01  1.39585733e-02
  -5.89220040e-02 -6.32364452e-01 -4.92616184e-02 -7.33867809e-02
   4.49912697e-02 -6.98916567e-03  2.85201762e-02  2.82989293e-01
  -2.67114490e-01 -2.95488805e-01 -1.74870864e-02 -7.13884085e-02
   6.97756484e-02 -5.37276976e-02 -6.22651428e-02  5.38488897e-03
  -6.62099421e-02 -7.91542698e-03 -1.64544210e-01  2.17705086e-01
   1.87264591e-01 -6.53928041e-01  1.83045551e-01  1.56658411e-01
  -2.18334123e-01  2.31207520e-01  2.30199695e-01 -8.55491906e-02
  -9.54784602e-02 -6.54332489e-02 -4.48660761e-01  1.15708798e-01
   1.70321446e-02 -1.88512325e-01 -7.52202123e-02 -1.38197914e-01
  -3.06639336e-02  1.52493313e-01 -1.34841233e-01 -3.65457870e-02
   2.64098942e-01 -1.73005044e-01 -3.29629481e-02  1.82293817e-01
   1.21966206e-01  2.31088400e-02  3.41967046e-01 -3.39331478e-01
   2.07552239e-01  8.24070070e-03 -2.19922476e-02  3.19447577e-01
   1.94194335e-02 -8.24284330e-02 -7.85203576e-02  2.45913509e-02
   1.83147453e-02 -8.92462581e-02  4.94393520e-02 -3.90537013e-03
   1.33006439e-01 -4.45102304e-01 -5.38402319e-01 -2.05571055e-02
   3.73236276e-02 -6.06630817e-02  2.48824447e-01 -2.47268025e-02
   3.70811261e-02  1.23412106e-02 -5.97829821e-05 -1.02101892e-01
   1.17249385e-01 -6.00906052e-02 -2.70613916e-02  2.24244237e-01
  -1.86331738e-02  1.04147417e-03  1.47667723e-02  2.76712906e-02
  -3.00184637e-01  5.13152599e-01  5.07061124e-01 -2.23184779e-01
  -7.78358877e-02  8.20784643e-02  1.11451194e-01  2.12064356e-01
  -3.09445783e-02 -2.84390878e-02  1.50587291e-01 -1.08729444e-01
   3.05008203e-01 -1.68343969e-02  4.43174541e-01 -5.54361157e-02
   6.29183324e-03 -6.81713894e-02  2.29476586e-01  1.36365339e-01
   1.83628947e-01 -7.85070062e-02  1.59829302e-04  1.72817156e-01
  -3.01946998e-02  1.85352772e-01 -4.25668918e-02  3.76073159e-02
  -5.57674646e-01  3.89956795e-02  2.25835949e-01 -7.02121779e-02
   3.23441140e-02 -4.15297031e-01 -1.58378050e-01 -2.16860011e-01]
 [ 2.88958140e-02 -2.63033025e-02 -2.56968802e-03  2.69182235e-01
  -1.68573797e-01 -4.57269937e-01 -2.28101820e-01  9.06726867e-02
   5.81801496e-02 -3.53711993e-02  1.14900768e-01 -6.35042340e-02
  -2.55443513e-01  5.36083162e-01  1.87339466e-02  3.33650745e-02
  -2.64137960e-03 -7.86090177e-03 -9.63845477e-03 -2.32837960e-01
  -7.68117905e-02 -6.47029132e-02  3.38798970e-01 -1.83071792e-02
  -1.03407241e-02  2.98990756e-01 -3.42380139e-03  3.76104787e-02
  -3.50622162e-02 -1.25191528e-02 -6.04811795e-02  2.92557806e-01
  -3.15667152e-01  1.37474820e-01  8.52111802e-02  8.11224505e-02
  -1.37930617e-01 -6.67567730e-01  2.04554558e-01  2.31914707e-02
   2.80153841e-01  4.95912656e-02  6.44447505e-02 -2.39641313e-02
  -7.66577199e-02 -3.02541479e-02 -3.69721390e-02 -9.78764221e-02
  -1.05626285e-02  1.82893127e-01 -2.92535812e-01 -4.97828461e-02
   2.65826941e-01 -3.54801863e-01 -1.54503752e-02 -3.42503011e-01
  -1.33563578e-01 -9.18716639e-02 -6.90604523e-02 -5.27727231e-02
  -6.35440350e-01 -1.07386626e-01 -3.33606243e-01  2.76168108e-01
  -1.18626408e-01 -3.33656520e-02  3.09700161e-01  6.37836039e-01
  -5.40695563e-02 -9.49123651e-02 -1.95345327e-01 -5.94031624e-02
  -5.87524652e-01 -1.24739669e-01  4.27838355e-01 -4.46575284e-02
  -4.05507796e-02 -3.66048962e-02 -4.09077913e-01  2.43457612e-02
  -1.17264464e-02 -3.52494240e-01 -3.46627831e-02  1.40967285e-02
   1.97063312e-01 -7.24667683e-02 -6.93794265e-02  3.28799367e-01
   1.07835820e-02 -5.89580880e-03 -1.86501473e-01  5.44154039e-03
  -1.71679109e-01  7.53994405e-01 -1.15823159e-02  1.08363740e-01
   2.32900530e-01 -4.09768701e-01 -7.16660917e-02 -3.38086486e-01
  -2.93188214e-01 -1.20786831e-01 -7.15273097e-02  4.23831671e-01
  -4.99335945e-01  3.16210538e-02 -1.96262728e-02 -9.96343046e-03
  -8.95956904e-03  3.01950157e-01  2.76293486e-01 -2.22993698e-02
   2.23908231e-01  1.42279238e-01 -3.02223936e-02  1.44501701e-01
   2.45250724e-02 -6.38600513e-02 -5.14014363e-02  1.46309480e-01
   5.94737567e-02 -1.59231375e-03  2.50071138e-01 -1.17862150e-02
   1.20310120e-01 -4.05727476e-01 -6.78580552e-02  5.07569313e-02]
 [ 1.67276021e-02 -4.20562737e-02 -8.48487392e-03 -2.02540100e-01
   1.17681317e-01 -6.45874888e-02  3.93767536e-01 -3.05019431e-02
  -7.25758374e-02 -2.26245075e-02 -1.41651675e-01 -6.15902618e-02
   8.71204510e-02  2.88346171e-01  3.49242911e-02 -6.36396259e-02
   1.42248338e-02 -2.02040486e-02 -4.29062992e-02  7.38577591e-03
   4.69931103e-02 -5.46877868e-02  7.30479285e-02  2.41134278e-02
  -1.14470003e-02 -7.93655813e-02 -6.22869655e-03 -7.82760978e-02
   5.01937866e-02  2.42324173e-02  1.57554686e-01  2.45746911e-01
  -2.02985376e-01 -2.08857924e-01  2.32680142e-01  8.65692273e-02
  -1.33251682e-01 -2.20051408e-03  2.55230069e-01  5.94282374e-02
   3.12767476e-01 -2.36119591e-02 -1.15781158e-01 -1.01803988e-01
  -3.90621312e-02  2.53415704e-01 -1.93734411e-02 -1.83230206e-01
  -7.67009854e-02  3.83104794e-02  1.99502066e-01  1.82966083e-01
   1.87720269e-01 -1.72056518e-02 -5.41706793e-02 -5.62474225e-03
  -2.67345428e-01  1.78955197e-02  1.75162405e-01  1.43541237e-02
   1.02301285e-01 -4.99297678e-02 -2.56537169e-01  2.70764977e-01
   7.29918405e-02 -2.20396549e-01 -2.29931250e-01 -2.93947607e-02
   5.84553182e-02  6.76806346e-02  3.88629921e-02 -1.04069501e-01
   1.56061471e-01 -3.43033522e-01 -2.20038980e-01  1.79133806e-02
  -5.97509742e-02  7.65897380e-03  1.66101158e-01 -4.14034631e-03
  -4.92488919e-03 -1.75012708e-01 -6.62335157e-02 -3.23567912e-02
  -2.25126627e-04  5.42230904e-02  1.33218514e-02 -3.47318858e-01
   9.33542196e-03 -3.59264389e-02  6.57908991e-02  4.24046889e-02
   1.29065111e-01  9.12254378e-02 -2.72334427e-01  1.47722840e-01
   2.10074514e-01  6.04438223e-02 -1.56166971e-01  1.29060030e-01
  -2.31079236e-02 -1.04896545e-01 -1.20083928e-01 -4.32192674e-03
   8.25517401e-02 -1.38864173e-02 -7.77884349e-02 -2.22499818e-02
  -1.72251917e-03  2.35630661e-01 -9.94824544e-02  1.94497526e-01
   1.41066806e-02 -1.89084820e-02 -3.11416239e-02  3.79035085e-01
  -9.87678915e-02 -1.19247586e-01 -2.73216367e-02 -1.20007940e-01
   2.26107873e-02  4.13833559e-02 -1.06169239e-01  9.41845849e-02
  -4.63755354e-02 -2.65403874e-02  2.34301016e-01  1.80084035e-01]
 [ 2.81816639e-04 -7.53351301e-02 -5.24393208e-02 -2.33559450e-03
  -2.75456272e-02  2.18644649e-01  2.39847407e-01  1.59854159e-01
   2.87012081e-04 -3.23677324e-02 -9.99520570e-02 -2.64792908e-02
  -1.98422775e-01 -1.60616860e-01 -6.67627007e-02 -2.53121089e-02
   5.16791232e-02 -6.06671162e-02  4.93336469e-03 -5.96848177e-03
   4.95837117e-03 -3.69501561e-02  1.97133273e-01 -1.42640471e-02
   5.82018308e-02  9.28071886e-02  1.26509983e-02 -1.82999834e-01
  -6.31560981e-02  6.52301848e-01 -2.34897971e-01  2.51367450e-01
   1.30399421e-01 -1.65133372e-01 -1.83875561e-01 -1.01670928e-01
  -1.23219736e-01 -3.99584115e-01  3.61368090e-01 -7.47420490e-02
   4.74448621e-01  2.19981465e-02 -3.68512809e-01 -3.43320251e-01
  -2.21490450e-02  5.25193708e-03 -1.07486241e-01  3.24746132e-01
  -4.57113087e-02  1.79739982e-01 -3.61090153e-02  1.06001571e-01
  -1.05550196e-02  8.13499987e-02 -1.62982102e-02  3.22603388e-03
  -1.81975231e-01 -4.41844985e-02 -1.75046008e-02 -1.87184215e-01
  -2.33070701e-01  2.10105583e-01 -1.82645276e-01 -5.61592400e-01
  -2.32213512e-02  8.28303546e-02 -1.20371222e-01  2.53154129e-01
   3.98179926e-02  4.81944159e-02  1.71522766e-01  2.37636436e-02
  -3.83041613e-02 -4.11375612e-01 -1.79784913e-02  1.58423409e-02
   4.93296469e-03 -1.03261270e-01  3.60349059e-01  5.49529865e-02
  -1.48941660e-02 -6.79379469e-03 -2.76583694e-02 -6.03681430e-02
   2.36380130e-01 -8.14355016e-02  3.13010439e-02  3.30847383e-01
   2.40952219e-03 -5.41699193e-02  1.46631241e-01  1.56750083e-02
   1.31635154e-02  3.70584905e-01  2.30901241e-01  5.83472848e-01
   4.77958322e-02 -2.13257402e-01  6.98307678e-02 -1.39211547e-02
  -1.36985362e-01 -1.92726612e-01  1.96450781e-02 -2.85966575e-01
  -1.75947413e-01 -2.43239209e-01 -1.74169958e-01 -2.85613425e-02
  -5.46752028e-02 -1.60083726e-01  2.49770239e-01  1.00015894e-01
  -2.24308982e-01  3.98157090e-02 -6.57756403e-02  6.33254834e-03
   6.50709644e-02 -2.09305897e-01 -2.67703962e-02 -7.95855001e-02
   3.59002352e-01  1.91032130e-03  2.64171541e-01 -3.41909006e-02
  -1.00782394e-01  7.46722966e-02 -3.73458974e-02 -1.32020209e-02]
 [-5.16256392e-02 -4.36516702e-02 -2.99508814e-02 -2.50217706e-01
   3.25162522e-02 -6.10255487e-02  1.88115835e-01  7.24322870e-02
  -1.22751623e-01 -3.29775251e-02  5.63265681e-02  3.42454351e-02
  -3.21503766e-02 -1.00905143e-01  2.33606510e-02 -7.60860518e-02
  -7.35866353e-02 -2.87073012e-02 -5.95691055e-02  1.87427923e-01
   1.64655354e-02 -8.40331763e-02  1.07175447e-01 -4.01138188e-03
  -3.50532345e-02 -1.26778722e-01  3.34193669e-02  1.21080980e-01
  -3.49855050e-02 -4.60816413e-01 -1.59671292e-01  5.91839701e-02
   6.01880848e-02 -3.21420431e-01 -8.60823765e-02  6.05024360e-02
  -4.40116107e-01  1.45627573e-01  8.25835392e-02 -5.29781878e-02
  -2.75868565e-01 -1.35647608e-02  2.38577962e-01  8.52671489e-02
   5.11576049e-03 -4.46849279e-02 -1.05422936e-01 -1.56818062e-01
  -7.48533681e-02 -1.29741311e-01  6.43640831e-02 -2.76129153e-02
   1.24562427e-01  3.37680504e-02 -1.59453228e-02  5.17829172e-02
  -2.94891924e-01 -4.15285937e-02  1.52249753e-01 -2.94296816e-02
   1.34718835e-01 -6.21825978e-02  1.83758870e-01  4.08861548e-01
   5.57924286e-02  1.63326710e-02 -9.90791246e-02 -1.48332924e-01
   3.34841385e-02 -6.28605038e-02  9.95588675e-02  5.72587959e-02
  -1.18258046e-02 -5.50096333e-02  1.43468797e-01 -4.08717878e-02
   6.85336720e-03 -9.50451009e-03  1.43378049e-01 -4.22223881e-02
  -1.50353536e-02  8.98589641e-02  3.23210396e-02  4.56512310e-02
  -9.75260213e-02 -7.03857467e-03  8.26166943e-02 -8.01861435e-02
  -4.93638171e-03  5.71679175e-02  1.84360862e-01 -1.23063121e-02
   1.22786060e-01 -2.18050823e-01  6.04538172e-02 -1.01967432e-01
  -2.52690673e-01  8.43400136e-02  1.18568949e-01 -3.73109169e-02
  -1.29460007e-01  1.83780983e-01  7.93109760e-02  1.69219583e-01
  -1.58746466e-01 -1.95928842e-01 -1.62011683e-01  6.10477338e-03
   4.87059280e-02 -9.35785249e-02  8.24634284e-02 -7.05517977e-02
   7.15415319e-03  1.77883595e-01 -5.30006066e-02 -1.41740412e-01
  -2.98859160e-02 -2.27540120e-01 -8.05538148e-02  2.32057050e-01
  -3.99444282e-01 -6.23377971e-02 -2.16578171e-01 -6.69144392e-02
  -3.21938805e-02 -2.95065530e-02 -1.58274636e-01  8.01612251e-03]
 [-3.19002718e-02 -5.38415872e-02 -5.71391732e-03  2.46166199e-01
   8.24142322e-02 -2.16983274e-01 -1.70276985e-01 -2.09987819e-01
  -3.21305305e-01 -4.65245806e-02  1.18981466e-01 -9.97025892e-03
  -1.72485858e-02 -5.76596260e-01 -1.22612761e-03 -8.50381181e-02
  -6.48700446e-02 -1.32611282e-02 -7.07863867e-02  1.38718784e-01
   7.56213889e-02 -6.25620335e-02  1.92796320e-01  4.54142131e-02
  -1.48790494e-01  6.24062400e-03 -3.68579221e-03 -1.22128785e-01
   4.37199436e-02  1.74407601e-01 -4.96370792e-02 -2.12182745e-01
  -4.65535326e-03 -2.38142267e-01 -3.42265129e-01 -1.80902973e-01
  -4.53504063e-02 -1.71880245e-01 -3.58853251e-01 -6.17585257e-02
   1.20224230e-01 -3.87496017e-02  4.45697196e-02 -4.49935859e-03
   5.83770573e-02 -8.33316892e-02 -3.45211662e-02 -1.73856571e-01
  -6.40070066e-02  1.09967262e-01 -4.58722748e-02 -2.11981580e-01
   8.14838707e-02 -7.83234835e-02 -2.92214635e-03 -3.42173278e-01
   1.23594917e-01 -6.26789629e-02  3.01936436e-02 -6.71649277e-02
   2.89160945e-02  1.89007577e-02  1.83369383e-01  1.78487808e-01
  -6.52830899e-02  6.17870167e-02  2.19378218e-01  1.92305613e-02
  -6.40632659e-02  2.79462039e-02 -4.62087803e-02 -5.08635864e-02
   6.92117885e-02 -9.32666510e-02  2.61141717e-01  1.99788492e-02
  -5.14776520e-02 -1.65025070e-02 -2.33812079e-01 -3.64107974e-02
  -4.39032121e-03  2.36280620e-01 -8.54982436e-03 -3.91360223e-02
  -3.25496830e-02  5.26732719e-03 -8.84741321e-02  1.74178258e-02
  -2.34404244e-02  2.92858128e-02 -1.61144868e-01  1.08470805e-02
  -1.53368264e-01 -2.23840207e-01 -1.58268690e-01  5.07011786e-02
  -3.73862773e-01 -4.35377359e-02 -1.24385357e-01 -2.10460991e-01
   2.97118761e-02  1.03183657e-01  9.46725346e-03 -5.36336541e-01
  -1.36351332e-01 -2.78997689e-01 -1.47401869e-01 -2.50067078e-02
   3.67942788e-02 -2.72017326e-02 -1.66438550e-01 -5.55842519e-01
  -2.16080695e-01  5.50218374e-02  2.96164248e-02 -2.25725546e-01
   2.32055746e-02 -2.00271159e-01 -3.57010737e-02  9.59428549e-02
  -2.04170272e-01 -3.44593972e-02  1.89632893e-01  4.96235378e-02
  -1.01576105e-01 -1.71671987e-01 -2.92273313e-01 -5.40195704e-01]
 [-6.03788234e-02 -6.24948107e-02 -4.36347462e-02  3.97148460e-01
  -4.21843588e-01 -6.22532368e-01 -1.76224127e-01 -2.22363751e-02
   1.44474626e-01  2.16686316e-02  2.13261738e-01  2.99371164e-02
  -1.23821922e-01 -2.60819048e-02  3.53465229e-02 -8.44566375e-02
  -4.34310287e-02 -5.03566340e-02 -2.52132434e-02  2.73484574e-03
  -2.29289994e-01  1.12890951e-01 -5.04464507e-01 -2.57540457e-02
  -8.29393491e-02  2.69001233e-04  2.18840614e-02  1.03983097e-01
  -7.36503899e-02  3.20377380e-01 -1.66482583e-01  2.27185741e-01
  -1.35449484e-01  9.91049930e-02  3.09222400e-01 -2.13399351e-01
  -4.74195369e-02 -6.46835566e-02 -2.80070901e-01  1.54434098e-02
  -1.75685018e-01 -1.80941038e-02 -2.01999635e-01 -7.61297122e-02
  -1.34084802e-02  2.18501389e-01  5.96086401e-03 -1.64808989e-01
   4.73153256e-02  2.09656715e-01 -2.55563706e-02 -2.89387852e-01
   3.38488370e-02  3.46405841e-02 -7.77509017e-03 -1.69068098e-01
  -3.83127183e-01  1.61126591e-02  4.24644232e-01 -8.03400949e-02
   2.23169643e-02 -8.28852952e-02  2.97276020e-01  1.65430710e-01
   2.87344068e-01  1.70769393e-01  4.50767130e-02  2.54091501e-01
  -6.22487590e-02 -6.26966432e-02 -2.88348347e-01 -5.44314198e-02
  -2.18849137e-01 -8.49625766e-02 -4.03259069e-01 -6.79531023e-02
   3.12057734e-02 -4.71052676e-02 -1.37985319e-01  4.76844832e-02
  -4.24727909e-02 -6.88845888e-02 -4.98078950e-02 -1.42876580e-02
   2.80777305e-01  3.97092029e-02 -3.85941789e-02  2.14754045e-01
  -5.15422635e-02 -7.34942174e-03  5.21946475e-02 -3.08617800e-02
   8.83594062e-03 -6.04036413e-02  1.77309066e-01  1.80447698e-01
   5.35789967e-01 -2.35380158e-01  1.81625754e-01 -3.08128595e-01
  -4.63594534e-02 -2.25493655e-01  3.08355913e-02 -5.58943078e-02
  -2.10548863e-02 -1.15995072e-01  6.07885346e-02 -1.74664650e-02
  -2.08867155e-02  1.34794429e-01 -1.32666767e-01 -2.99511313e-01
  -1.83263291e-02 -2.62557834e-01  3.65683809e-02 -1.52774140e-01
  -1.90775599e-02  2.96227366e-01 -6.68492094e-02 -9.60663483e-02
  -6.95086062e-01 -4.55437601e-02 -5.43383770e-02 -7.87012428e-02
  -1.04755647e-01 -2.51572300e-02  7.38210930e-03  1.79756265e-02]
 [ 1.47199100e-02 -3.92754897e-02 -6.33474812e-02  1.50161803e-01
   1.01759590e-01 -4.74485517e-01 -2.30763748e-01  3.83113295e-01
  -3.96601826e-01 -8.29416290e-02  4.90764529e-02 -1.13610632e-03
  -5.89152575e-02  4.80703115e-02 -1.37183699e-03 -2.37963442e-03
   2.02529645e-03  1.84735544e-02  1.46125183e-02 -1.89360112e-01
  -1.53156400e-01 -1.46174937e-01 -1.64737463e-01  9.33256888e-06
   6.21409155e-02  2.40756169e-01 -9.81991068e-02 -7.27835717e-03
  -5.56165911e-02  2.40220413e-01 -3.41843404e-02  7.19849989e-02
  -9.57377851e-02  1.13936961e-02  9.35340952e-03 -3.03646140e-02
   2.59910315e-01 -2.67291009e-01  1.51014537e-01  5.72443977e-02
  -2.44223606e-02 -3.49074267e-02  1.65915146e-01 -4.55670536e-01
   6.10202132e-03  1.80464640e-01 -2.47475170e-02 -4.29704577e-01
  -7.13296980e-02  5.73986694e-02 -1.12152956e-01 -2.62498289e-01
   2.81998068e-01 -1.01478510e-02 -8.46727490e-02  2.76712120e-01
   4.77167554e-02  1.47215147e-02  1.64386049e-01 -3.54769942e-03
  -8.05173099e-01  2.84833074e-01  2.63177156e-01  4.84405607e-01
  -2.47489944e-01 -5.90070821e-02  5.40254340e-02  4.74219769e-01
  -3.65055054e-02  1.06527945e-02  4.30036150e-02  2.84363385e-02
  -5.86784482e-01 -2.63778120e-01  4.53447580e-01  3.45743704e-03
  -4.46542129e-02 -4.12646309e-03 -3.63237672e-02  2.27752142e-02
   3.20433080e-02 -2.95758946e-03  1.57706887e-02  6.41879207e-03
   4.40274440e-02 -9.30109173e-02 -6.63434565e-02  1.82590336e-01
  -4.32085097e-02 -1.33109614e-02 -1.41912594e-01 -1.96722634e-02
  -4.15633053e-01  9.60212648e-02  2.00779811e-01 -3.87046605e-01
   3.60218808e-02 -8.92519057e-02 -8.94946009e-02 -2.44016424e-02
   8.87819454e-02 -2.62132198e-01  1.40707731e-01  1.17789075e-01
   2.00340196e-01  4.07297105e-01 -3.67256373e-01  3.22565669e-04
  -6.21663742e-02  1.26607239e-01 -1.70995779e-02  1.45530403e-01
   9.49956328e-02  2.42100760e-01 -6.48713261e-02  1.01724006e-01
   2.46070269e-02 -1.27199637e-02 -4.67571393e-02  3.54184909e-03
  -7.39006475e-02  1.06585333e-02  1.54002637e-01  1.17938863e-02
  -9.91974957e-03 -2.59984523e-01  4.07701939e-01 -9.70951319e-02]
 [-3.29899713e-02 -3.17667238e-02  3.25901583e-02 -1.80508181e-01
   3.69259651e-04 -1.98287725e-01  4.05263126e-01 -1.16290569e-01
  -3.16359580e-01 -2.04960592e-02  2.61380486e-02 -1.33918030e-02
   1.22580305e-01  1.66010976e-01 -4.83243465e-02 -2.48460025e-02
   4.64864671e-02  9.67523083e-03 -3.71398143e-02  2.17145622e-01
   5.21776080e-03 -7.96739459e-02 -2.73601674e-02 -4.86370064e-02
   3.44101563e-02 -1.63941324e-01  1.06258905e-02  1.93538859e-01
   1.50463413e-02  8.91542062e-02  2.14882433e-01 -1.15453459e-01
  -1.43341333e-01  1.09175500e-02  2.71241695e-01  1.50656581e-01
  -2.24722564e-01 -2.71849602e-01  1.77028313e-01 -5.04091196e-02
   2.27728281e-02 -1.08293984e-02 -2.14812964e-01 -1.49109200e-01
  -1.96554512e-03  1.20704755e-01  1.04483096e-02 -1.49041757e-01
  -1.65155120e-02 -7.28853345e-02  5.59880137e-02 -2.09276751e-02
  -1.25581577e-01 -8.96368101e-02  1.88386086e-02  1.55482545e-01
  -3.04597706e-01  8.29214752e-02  6.36071861e-02  8.86631012e-02
   1.89473793e-01  8.08096081e-02 -1.61141455e-01  2.06371725e-01
   1.56961560e-01 -3.17494310e-02 -3.17234039e-01  1.60004050e-01
   5.94651587e-02 -1.47090871e-02 -1.56030878e-01 -1.13357589e-01
   1.04963928e-01 -2.25619495e-01  2.35517211e-02 -3.58060785e-02
   1.75457299e-02 -1.10863475e-03 -8.37223828e-02 -5.12661366e-03
   8.04606974e-02  1.07188910e-01  1.41120832e-02 -2.80360170e-02
  -7.51610249e-02  1.82952341e-02  4.55387490e-04 -2.65992552e-01
  -6.79786922e-03 -4.68727909e-02 -2.09554136e-02 -1.58171216e-03
   1.40687421e-01 -9.58778411e-02 -3.88642162e-01 -1.03310235e-02
  -1.21960364e-01 -1.28958613e-01 -1.16169706e-01  3.68217498e-01
  -7.91129544e-02  2.25962009e-02 -3.11304122e-01  4.39460814e-01
   6.87445477e-02 -2.24710166e-01 -1.09260872e-01 -9.21982080e-02
  -2.64857411e-02 -3.87042947e-02 -1.50717935e-02 -1.31681189e-01
  -1.13248378e-01 -7.04447702e-02  3.69418561e-02  1.24118194e-01
  -5.88595010e-02  3.82970111e-03 -5.59668243e-02  1.44259214e-01
  -1.93338320e-01 -1.34141427e-02  6.47469610e-03  2.78283469e-02
   6.18865015e-03 -3.37978303e-01  1.15426198e-01  1.08028084e-01]
 [ 3.67012620e-02 -5.16854376e-02  7.60614127e-03  2.85774618e-01
   4.47403193e-01 -1.34809703e-01  1.70671239e-01 -1.05364770e-01
  -3.78481388e-01 -1.08745582e-02  2.09365919e-01  3.85354236e-02
  -9.64848232e-03  7.66390190e-02  2.82361750e-02 -9.13474336e-03
  -5.74443005e-02 -5.66994883e-02 -4.19857353e-02  2.33078659e-01
  -8.76615793e-02 -1.50913134e-01 -6.38638344e-03  5.41846901e-02
   5.00943214e-02  1.57193199e-01 -4.49996814e-02 -1.29046768e-01
  -7.44358003e-02  3.05112332e-01  3.03561777e-01 -1.63806289e-01
   3.74662519e-01  7.23644868e-02  3.64445448e-02 -2.63527483e-01
   2.04496577e-01 -9.57624853e-01 -8.87729451e-02  1.93639807e-02
   2.39182070e-01 -6.56782091e-02 -4.38295186e-01 -4.42639709e-01
   5.19659778e-04 -1.83242366e-01  3.98252569e-02 -9.51600522e-02
  -2.75591705e-02  6.65592030e-02 -7.81983584e-02  2.19371513e-01
  -3.54538530e-01 -1.32192671e-01 -6.41047210e-02 -1.87113494e-01
  -4.09640297e-02 -1.11806639e-01 -1.87749807e-02 -3.46242003e-02
  -6.45390106e-03  1.02655748e-02 -1.21368058e-01  3.38600725e-02
  -5.40294573e-02 -4.94097546e-03  6.53452147e-03 -1.11011237e-01
  -2.73682829e-02 -4.67788056e-02 -2.08687291e-01 -8.53362773e-03
  -4.97196645e-01  2.56455988e-01 -2.17607915e-02 -5.01968898e-03
   5.07104620e-02 -7.51290470e-02  1.67342499e-01 -5.99449836e-02
   8.26418549e-02 -2.87660390e-01 -6.34509698e-02 -9.06544849e-02
   3.92855257e-01 -4.75132801e-02  8.71578883e-03  2.34143257e-01
  -9.70577821e-02 -5.26858978e-02  3.15767229e-01 -3.19454074e-02
  -2.50208884e-01 -2.50144780e-01  1.58687770e-01  4.77009058e-01
  -1.82326108e-01 -3.56761843e-01 -1.19317494e-01  4.18524891e-02
   2.49557924e-02 -1.04945591e-02  9.45233926e-02 -2.61586040e-01
  -3.83212209e-01  1.10907704e-01 -1.32274285e-01  6.21321029e-04
  -5.67742996e-02  1.90862402e-01  9.02877823e-02  1.99952409e-01
   3.36933583e-01 -3.65258269e-02  4.91416901e-02  3.83313715e-01
  -1.93514787e-02 -5.73375486e-02 -2.29830369e-02  1.23154119e-01
  -4.19422984e-02 -1.85560621e-02  2.82771468e-01 -5.10559343e-02
  -4.44544740e-02  2.56481230e-01  3.26668024e-01 -4.69659045e-02]
 [-4.90572527e-02  1.13651389e-02 -6.25926852e-02 -2.17336908e-01
   9.57920700e-02 -5.09606190e-02  1.43660873e-01  3.31120156e-02
   8.51154774e-02  2.17285194e-02  2.48057127e-01  2.27577556e-02
  -3.98828089e-02 -1.24854408e-01 -2.75049079e-03  6.55128621e-04
  -4.17855196e-02  1.47824623e-02  5.91079099e-03  1.35899216e-01
  -1.60998821e-01  1.89622752e-02  1.18998490e-01 -2.65589524e-02
  -4.68611158e-02 -2.89665073e-01  3.36478651e-02  6.62543252e-02
  -2.89493892e-02 -3.25767726e-01 -1.66221157e-01  3.98001373e-02
   4.42365147e-02 -2.74178565e-01 -8.82369503e-02  1.79500915e-02
  -3.48706454e-01  1.40529066e-01  7.52171800e-02 -1.20330982e-01
  -2.11882174e-01  5.73242344e-02  1.38347745e-01  2.03871071e-01
   6.58005290e-03 -7.15632504e-03 -3.93913351e-02 -2.54568517e-01
  -4.00290042e-02 -1.08883537e-01  4.20259349e-02  1.32599822e-03
   1.28064737e-01  2.48632226e-02 -1.07308524e-02  7.87344724e-02
  -4.32189047e-01 -1.00680418e-01  1.06407285e-01  1.85184911e-01
   4.60296683e-02  7.44003337e-03  2.09568371e-03  2.77875185e-01
   7.91087896e-02  1.78547483e-02 -9.26042646e-02  8.05296563e-03
   5.68348961e-03 -7.55424649e-02  1.51793897e-01 -5.50902374e-02
   6.01606816e-02  6.91630915e-02 -6.33614361e-02  3.30693573e-02
  -4.94791456e-02  1.55522665e-02 -2.40848046e-02 -5.03632911e-02
  -7.06917569e-02  2.01422244e-01 -2.25002021e-02  2.07411312e-02
  -1.40889272e-01 -4.49560992e-02  2.88314987e-02 -2.72063345e-01
   6.61379993e-02 -1.43243978e-02  4.57866117e-02 -5.06919846e-02
   2.10381374e-01 -2.83646256e-01  4.16209176e-02  2.55049784e-02
  -3.85414809e-02  5.04935794e-02  9.72084701e-02 -1.61178514e-01
  -1.26503542e-01  1.69651031e-01 -2.85745971e-02 -1.41279012e-01
  -5.76015413e-02 -7.00782239e-02 -8.66270363e-02  2.60835271e-02
  -5.67888245e-02 -2.78968751e-01  6.70954539e-03 -1.73366487e-01
   1.75170645e-01  9.41169634e-02  2.25655343e-02 -3.12237024e-01
   3.40366587e-02 -1.16807677e-01 -3.83837856e-02  2.30783314e-01
  -2.10220471e-01  5.34459278e-02 -2.16570616e-01 -3.83138992e-02
  -2.34545730e-02  7.66404271e-02 -1.06690280e-01  1.53019458e-01]
 [-3.34205031e-02 -4.09018248e-02 -2.10802350e-02  2.10432574e-01
  -3.39585869e-03 -1.03347585e-01 -2.16348991e-01 -1.57233134e-01
   2.93062907e-02  3.74306366e-02  1.57172844e-01 -2.53252946e-02
  -1.26210721e-02 -1.97344318e-01  4.41394886e-03 -3.62590291e-02
   1.43205945e-03  2.70055700e-02 -3.20747308e-02 -1.99701004e-02
   1.18707448e-01 -4.83845323e-02  2.46474132e-01 -5.27529754e-02
  -1.67635873e-01 -8.44793692e-02 -2.60390155e-03 -4.78664935e-02
  -8.58477317e-03  1.44384712e-01 -5.17829088e-03 -2.76017308e-01
   1.06294908e-01 -2.13525340e-01 -5.67002594e-01 -1.27516702e-01
   1.16138989e-02 -9.97369140e-02 -1.58747971e-01 -4.43731882e-02
   2.14576870e-01 -6.60533085e-02  1.95974767e-01  1.19896308e-01
  -8.31655879e-03 -2.56694287e-01 -3.79711241e-02  7.30734989e-02
  -5.06013222e-02  1.28305763e-01 -1.57021224e-01 -2.56080240e-01
   5.86073734e-02  1.34237945e-01 -4.27808724e-02 -2.87631392e-01
   3.05551421e-02  3.79176810e-02 -2.62290495e-03  1.09427840e-01
   5.41639403e-02  5.46057299e-02  3.53076249e-01  1.52907148e-01
  -2.51064807e-01  3.23899239e-01  3.49299133e-01  5.58051169e-02
  -2.85844523e-02  1.37165254e-02  3.56573984e-02 -1.37746662e-01
   1.40399523e-02  5.72447851e-02  2.97585905e-01 -2.55048129e-04
   2.28661466e-02  5.83471209e-02 -6.45512119e-02 -1.44792153e-02
   3.72544304e-02  2.57289588e-01 -3.44390646e-02 -8.29797611e-02
   1.56095564e-01 -7.61368275e-02  4.02991986e-03 -1.10983051e-01
  -3.32829356e-02  3.51292863e-02 -6.29435256e-02 -3.29838768e-02
  -4.43527728e-01 -2.37913907e-01 -2.21428145e-02 -1.22553796e-01
  -1.63885608e-01 -8.88781473e-02  9.66931581e-02 -2.21190289e-01
  -1.42444998e-01  6.39063418e-02  1.48031384e-01 -1.03949115e-01
  -1.77529708e-01 -2.57065505e-01 -3.21224108e-02 -6.66795969e-02
   3.79103497e-02 -2.79860914e-01  1.00567162e-01 -3.90494138e-01
  -2.23905906e-01  1.92459002e-02 -4.46419418e-02 -6.10221088e-01
  -4.14712401e-03  4.37437277e-03  1.39504587e-02 -1.14792503e-01
  -6.59105033e-02 -6.07994795e-02  1.34968638e-01  1.10179581e-01
  -7.55495578e-02 -1.84569985e-01  5.16003370e-03 -1.51970938e-01]
 [-1.73271988e-02  4.77640107e-02 -1.24788303e-02 -7.74963945e-02
   7.81907886e-02 -1.68627143e-01  4.99257222e-02 -8.75868499e-02
  -1.93107530e-01 -1.58630889e-02  6.52396753e-02  1.05557898e-02
  -2.50529796e-02 -5.37201643e-01  4.98577878e-02 -6.07543625e-02
  -6.43211529e-02 -1.54282404e-02  1.57695860e-02  2.92278156e-02
  -3.14404786e-01 -3.14184576e-02 -1.78973973e-01 -1.80654880e-02
  -2.34879255e-02  9.67136770e-02 -5.45659252e-02  1.79295465e-01
  -9.71787726e-04 -9.24096331e-02 -4.48746711e-01  1.22644939e-01
   4.22482193e-02  1.15600238e-02  3.04500669e-01 -1.55007932e-02
  -2.40082726e-01  1.40395716e-01  4.64817584e-01  4.87525016e-03
   1.05358548e-01  4.65925969e-02 -2.48955995e-01 -6.01502955e-02
   3.21786441e-02 -2.37851031e-02 -1.81950070e-02 -5.41475415e-01
   9.28773917e-03 -1.42154485e-01 -6.13981485e-01 -2.88919926e-01
   6.53851852e-02  4.14473087e-01 -9.12387390e-03  5.18536335e-03
   4.58923317e-02 -2.80889124e-02  6.18065536e-01 -8.11040774e-02
   8.10830519e-02 -2.75826156e-01 -2.04938687e-02 -1.98274076e-01
   3.02207768e-01 -2.44958103e-01 -1.94540903e-01  9.33904201e-02
  -4.71381396e-02 -7.51390308e-02 -2.86325544e-01  6.76864013e-02
   8.42816383e-02 -3.35374802e-01 -1.37123346e-01 -4.00363952e-02
   3.20524611e-02 -4.34238352e-02 -5.30137941e-02 -3.56849446e-03
  -3.70702147e-02 -1.39856935e-01  1.78808291e-02 -6.89934418e-02
   1.18492350e-01  1.18276738e-02 -3.94138619e-02  8.41339976e-02
   6.79045450e-03 -5.55625223e-02  3.23738575e-01 -4.11306210e-02
   2.01486036e-01  6.38412908e-02 -3.65295082e-01 -3.09183598e-01
   1.02376871e-01 -1.95823386e-01 -2.05039866e-02 -1.43601775e-01
  -3.76492023e-01  5.23102432e-02 -2.50884026e-01 -2.69040138e-01
   1.62443206e-01 -7.41607323e-02  6.73436821e-02  1.20567847e-02
  -2.69588344e-02  8.80804509e-02 -3.66223693e-01 -2.63971716e-01
  -1.18286312e-02  1.11252740e-01  1.59337781e-02 -1.13182450e-02
   1.55232893e-02  5.84648624e-02  1.73499826e-02  1.74917981e-01
  -4.39150095e-01  3.56231183e-02 -1.10908814e-01  4.62353230e-02
  -1.04573540e-01  6.17863201e-02  3.97653490e-01  2.92821139e-01]
 [-4.07209210e-02 -8.27908218e-02 -5.46979643e-02  8.05981681e-02
  -1.35800481e-01 -3.83061528e-01 -2.64457226e-01  3.71903658e-01
  -2.08992258e-01 -1.33855653e-03 -2.34363496e-01  2.14762259e-02
   4.94788922e-02  1.67669177e-01 -5.82266860e-02 -1.39338672e-02
  -4.68806876e-03 -4.93388809e-02  4.46658991e-02 -3.33813488e-01
  -5.98517731e-02 -9.74485055e-02 -2.48655945e-01 -3.82547155e-02
   1.57805365e-02  1.05293408e-01 -5.67401536e-02  2.54712015e-01
   3.65057476e-02 -8.31473619e-03 -1.84575111e-01  3.06116313e-01
   1.06881835e-01  6.75255358e-02  2.02311471e-01 -9.97530818e-02
   3.84004451e-02  3.08156181e-02 -4.42903042e-01  7.72938831e-03
   2.38544792e-01 -7.12847756e-03  1.73054338e-02 -2.64332235e-01
  -2.22472083e-02  3.54840141e-03 -9.82339606e-02 -4.97387588e-01
  -3.99002880e-02 -1.09797813e-01 -9.78840739e-02 -2.46641219e-01
   3.22686844e-02  8.63193348e-02  7.79388100e-02  1.01874158e-01
   2.21208453e-01 -4.01422158e-02 -6.48107976e-02 -4.03505504e-01
  -4.54305738e-01  4.26782995e-01  6.16039991e-01 -1.73822567e-02
  -3.00620258e-01  1.99458808e-01  4.37467009e-01 -2.22415999e-01
  -4.39830422e-02 -3.66925746e-02  5.98333851e-02 -9.14700851e-02
  -4.02673662e-01 -1.30901113e-01 -2.84740955e-01  2.02597883e-02
   5.96272526e-03  6.70378562e-03 -2.08311081e-01 -5.90916863e-03
   1.82297751e-02  6.67352825e-02  9.06552002e-03 -4.89721540e-04
  -2.99219252e-03  8.58737272e-04  2.04168223e-02 -2.15896033e-02
  -7.06647485e-02 -6.59551471e-02  9.41019133e-02 -2.95642260e-02
  -4.62254584e-01  8.66062492e-02  2.68465996e-01 -1.19647644e-01
   2.03322798e-01  5.02269864e-01  2.07149848e-01  1.72193199e-01
   3.66761424e-02 -4.46143389e-01 -3.26194316e-02 -7.18414485e-02
   6.00438416e-01  2.63227999e-01  1.60156503e-01 -5.53174280e-02
  -3.24490294e-02 -9.84789282e-02  1.41913250e-01  1.84185594e-01
   2.62238532e-01  3.85334998e-01 -5.28522171e-02 -3.57453451e-02
  -2.28621252e-02  6.05234168e-02 -4.65010777e-02 -4.07255650e-01
  -3.32549773e-02  1.43031701e-02  1.34454414e-01 -5.87756559e-02
  -6.53634546e-03 -1.05809641e+00 -2.57573724e-01  1.14131287e-01]
 [ 2.64349431e-02  4.37277108e-02  2.36110911e-02  2.35512346e-01
   6.09072596e-02 -4.02837485e-01 -3.42941821e-01 -1.77133419e-02
  -1.99911773e-01  2.73397323e-02  1.77409679e-01  1.93205336e-03
   1.64174542e-01  4.57042336e-01 -6.30586371e-02 -5.46283983e-02
  -4.37676571e-02  4.97589670e-02 -3.50069590e-02  6.46956488e-02
  -4.95230705e-02  6.66859299e-02 -2.91558206e-01 -1.62030931e-03
  -6.78000599e-02 -1.95997819e-01 -2.21351385e-02  9.07873288e-02
   1.51474131e-02  9.35558751e-02 -2.89385736e-01 -1.28953233e-01
  -2.45681871e-02  1.72664091e-01  1.99527785e-01  1.20016463e-01
   7.46114552e-02 -2.41965368e-01  3.32517087e-01 -3.95273380e-02
  -2.59409815e-01 -3.95944752e-02 -3.45544815e-02  8.15401692e-03
   2.19142046e-02  7.98091814e-02  4.82929987e-04 -1.06949955e-01
   8.22066236e-03  9.07080472e-02 -1.63959101e-01 -2.56320149e-01
   5.64827248e-02  1.11255646e-01  7.61013245e-03  3.18763480e-02
  -4.34522778e-01  6.36323467e-02 -2.25914702e-01  2.73651630e-02
  -1.66542664e-01 -1.54284209e-01 -2.77480751e-01  3.26505266e-02
   3.31004784e-02 -7.76105821e-02 -1.82278827e-01  4.25750464e-01
  -3.40205356e-02  1.12930778e-02 -1.42517045e-01 -2.10588686e-02
   2.09529892e-01  2.32778817e-01  1.10775389e-01 -6.49040267e-02
  -2.82821171e-02  3.80342789e-02  9.84452665e-03 -6.38038367e-02
   7.08642378e-02  1.36678427e-01  2.82843485e-02 -3.64192463e-02
  -1.06182337e-01 -2.34102756e-02 -7.80291529e-03 -2.21940130e-02
   1.48050990e-02 -4.20898348e-02 -1.42669424e-01  6.37446120e-02
   6.89317510e-02 -1.65941101e-02 -3.45197111e-01 -1.60400346e-01
  -5.92411160e-02 -3.28446738e-02 -2.63477743e-01  1.63466507e-03
   6.68535531e-02 -4.08350416e-02 -2.94034243e-01  5.09103179e-01
  -7.38709271e-02 -1.36151403e-01 -6.49281517e-02 -5.46049178e-02
   4.85003106e-02 -4.04829830e-01  9.66772884e-02 -2.34411508e-02
   1.50071844e-01  8.30969736e-02 -4.80197072e-02  9.41772014e-02
   2.72994898e-02  6.90091625e-02 -6.00284897e-02  3.55563802e-03
  -5.63614547e-01  9.53688473e-03 -9.21822861e-02  3.51848789e-02
   9.89328139e-04 -2.44623929e-01 -1.06761999e-01 -3.36515218e-01]
 [-5.78680374e-02 -5.06565347e-02 -2.21044617e-03  4.05896485e-01
   2.81050175e-01 -1.18756056e-01 -8.65283236e-02  1.05677567e-01
  -3.37457329e-01 -7.05526676e-03 -3.57255936e-02  1.85816847e-02
  -4.34186272e-02 -1.12652965e-01  3.72663210e-03 -3.08101606e-02
  -6.48361742e-02 -3.73171382e-02  5.94683327e-02  1.67438239e-01
  -2.15638295e-01 -3.21171612e-01  3.89769644e-01  8.39923136e-03
   3.04245185e-02 -1.08165771e-03 -1.37446187e-02  4.05861996e-02
  -1.89269613e-02 -1.99883491e-01  4.89398465e-02 -4.10923362e-03
   7.99437165e-02  1.22708768e-01  2.11407244e-01  1.10946625e-01
  -3.84508334e-02 -5.21451056e-01 -4.65781599e-01  1.06735386e-01
   1.23990975e-01 -2.25859769e-02 -3.06612104e-01 -1.26860350e-01
  -2.29068547e-02 -1.08470917e-01 -6.33446276e-02  1.95918709e-01
   4.76357527e-02 -1.18200853e-01 -7.94095770e-02  1.10355213e-01
  -3.51928204e-01 -1.47509985e-02 -7.98004791e-02 -3.86511743e-01
   2.25627348e-01 -7.23677501e-02 -4.97792661e-02 -2.01272100e-01
  -1.00123502e-01  1.38777897e-01 -9.45587158e-02  1.02497905e-01
  -4.74479616e-01 -1.57901719e-02  3.55993122e-01  2.25169100e-02
  -8.74210075e-02 -6.22317009e-02 -9.87826958e-02 -2.80277487e-02
  -2.87687838e-01 -2.50929475e-01 -2.40197271e-01 -3.43026146e-02
  -6.21512830e-02 -9.47201177e-02 -6.04238696e-02 -7.98757449e-02
  -3.12519036e-02  1.23411156e-02 -1.83089578e-04 -2.10240390e-02
  -1.65216997e-01 -9.04744938e-02  3.40134371e-03  4.76667322e-02
  -7.56634474e-02 -4.07123454e-02  1.31743357e-01 -6.68208301e-02
  -8.44573751e-02 -1.61242932e-01  1.74115255e-01  2.42212161e-01
  -2.13784739e-01 -1.35335892e-01  9.65682864e-02  2.55769193e-01
   2.01049447e-01 -2.05831360e-02  2.38272268e-02 -2.84708232e-01
  -1.33222118e-01 -1.14871368e-01 -6.20488562e-02  2.08788048e-02
   7.86916539e-03 -2.24331561e-02 -6.02160059e-02  3.86460274e-01
  -4.61914726e-02 -3.32450837e-01  2.87371147e-02  1.76267833e-01
   4.37243842e-02  1.02398351e-01 -2.31200792e-02  1.16529308e-01
  -5.89547306e-02 -1.34559544e-02 -4.34380695e-02 -5.71213081e-04
  -1.06527284e-01 -3.01814258e-01  2.32641831e-01  2.83338249e-01]
 [-7.72455782e-02 -9.70656238e-03 -2.50972193e-02 -7.32421130e-02
  -2.13623582e-03  1.63216125e-02  1.20669656e-01 -8.30002781e-03
  -1.10979185e-01  1.33542335e-02  2.92752147e-01  2.08702926e-02
   4.62734662e-02 -8.75663981e-02 -4.15773690e-02  2.31845547e-02
  -2.58467607e-02 -8.43485743e-02  2.95797400e-02  2.79609025e-01
  -7.66741782e-02  1.30892202e-01  1.57091841e-01  8.07884708e-03
   1.21924449e-02 -2.41070598e-01 -3.04470658e-02 -4.71535884e-02
  -5.93144484e-02 -1.97016612e-01 -3.46141011e-01 -1.03915721e-01
   2.58525968e-01  2.03730892e-02 -1.08876295e-01  1.87442228e-02
  -2.50293612e-01  7.63546675e-02  1.11735620e-01  7.28698540e-03
  -5.74886985e-02 -3.12900753e-03  1.07830130e-01  1.75425604e-01
  -6.25133812e-02 -9.49866250e-02 -2.51141912e-03 -3.33220512e-01
   6.10728236e-03 -3.86858024e-02  1.23192579e-01  1.92061588e-02
   8.22510794e-02  9.81068164e-02 -5.98314079e-03  7.63993040e-02
  -1.57395437e-01 -5.76900765e-02  5.85184917e-02  5.82198128e-02
  -3.04748397e-02 -7.51447678e-03  1.34828672e-01  2.84946799e-01
  -2.48997994e-02  2.32619867e-02 -6.03573322e-02  6.30614161e-02
   5.35374274e-04 -3.46570872e-02 -1.51805142e-02 -8.86382011e-04
   2.69553605e-02  1.70863599e-01  3.52553576e-02  2.02001594e-02
  -3.94168869e-02 -1.68266036e-02  1.02202483e-02 -5.64317703e-02
  -4.78860140e-02 -5.28426142e-03  9.60171781e-03 -5.03454804e-02
  -1.74341589e-01 -8.79068002e-02  3.20396759e-02 -2.14977667e-01
   2.30923649e-02  8.73986818e-03  7.86896143e-03  8.03527597e-04
   1.09999880e-01 -1.96358204e-01 -4.88380268e-02  4.24014553e-02
  -5.08468114e-02  8.58718306e-02 -7.84491077e-02 -1.10475771e-01
  -1.17348984e-01  1.48479238e-01 -9.07928720e-02  6.16283230e-02
  -1.84572418e-05 -1.39950573e-01  1.84772074e-01  4.02460061e-02
  -1.37819545e-02 -1.18930541e-01  2.25831904e-02 -1.28654152e-01
   1.78368226e-01  8.63873214e-02 -4.76797037e-02 -2.60449052e-01
  -2.08305661e-02  1.83411837e-02 -6.33657426e-02  1.49556488e-01
  -2.23793119e-01 -5.91497347e-02 -1.82732776e-01 -7.90022500e-03
  -3.93099226e-02  6.10098243e-02 -8.79175887e-02 -1.84889454e-02]
 [-2.43928097e-02 -4.55914140e-02  3.43244001e-02  1.53868154e-01
   1.12256497e-01 -4.17750888e-02 -1.78576812e-01 -6.42784983e-02
   6.15317561e-02 -2.68228306e-03  2.27017239e-01 -2.01848894e-02
  -1.02575399e-01 -2.71125346e-01 -2.31569763e-02  3.88454013e-02
  -6.29367158e-02 -4.88906540e-02  2.81289723e-02  2.83360668e-03
   5.58838360e-02  6.67260960e-02  5.60521409e-02 -1.22634275e-02
  -4.00384665e-02 -8.66585895e-02 -7.97413290e-02 -2.17332706e-01
  -4.43565138e-02  1.49300188e-01  3.47825348e-01  1.39999613e-01
   3.29323918e-01 -6.37408376e-01 -2.02755496e-01 -7.90481195e-02
  -1.73519090e-01  1.06561251e-01 -8.55424553e-02 -1.23497292e-01
   2.17443064e-01 -4.40129265e-03  1.05835788e-01  8.28302130e-02
  -8.22535623e-03 -3.20665300e-01  8.06947704e-03  1.90819334e-02
  -8.49081278e-02  3.74384195e-01 -2.29592070e-01 -2.87306774e-02
   1.09975673e-01 -1.41638115e-01  2.92621423e-02 -2.46327408e-02
  -1.73861071e-01 -7.81737715e-02  4.32603061e-02 -6.13777861e-02
   1.32466584e-01  1.30753532e-01  4.28515017e-01  3.93747509e-01
  -1.50115773e-01  3.82381469e-01  2.07678482e-01  4.37460274e-01
  -2.61451397e-02 -6.59392625e-02  1.07071400e-01 -1.02247000e-01
  -2.19366148e-01  3.80293965e-01  1.04368374e-01 -3.21676359e-02
  -5.95205687e-02 -3.39374468e-02 -1.36183007e-02 -4.45897551e-03
  -1.89441815e-02  7.05876648e-02  4.67795022e-02 -1.72109623e-02
  -1.45310044e-01 -1.27123874e-02 -4.12409455e-02  9.20521691e-02
  -2.89676506e-02 -3.36758792e-02  1.81635424e-01 -4.35869955e-02
  -2.06537575e-01 -2.24130489e-02 -1.88698620e-01  5.64810298e-02
   1.22296222e-01 -2.36176491e-01  9.97233950e-03 -3.91001433e-01
   2.57884245e-02 -7.87335187e-02 -2.28748634e-01 -3.90619397e-01
  -3.44878435e-01 -4.15904671e-01 -1.45646349e-01 -2.95244288e-02
   6.61025271e-02 -8.60232636e-02  2.77390540e-01 -4.15562272e-01
   1.08999744e-01  1.49784451e-02 -4.39504981e-02 -3.31545949e-01
  -1.73759181e-02 -5.11062273e-04 -1.94966719e-02 -1.40426651e-01
   9.82703343e-02 -7.21615972e-03 -2.39603966e-02  7.32745836e-03
  -7.06480891e-02 -2.28813678e-01 -1.57797381e-01 -3.04227650e-01]
 [ 1.50712794e-02 -5.78535721e-04 -5.78122586e-02  2.22217560e-01
  -1.24282077e-01 -1.03602797e-01 -1.64623316e-02 -3.93134169e-02
  -4.11098570e-01 -1.66230462e-02  2.65218943e-01  8.25519860e-03
  -1.16896741e-02  2.85667684e-02 -4.60116938e-02 -3.10710855e-02
   2.31950674e-02  2.57377867e-02 -3.18706781e-02 -1.08464330e-01
  -2.60787785e-01 -1.25855342e-01 -5.63328743e-01  2.65753735e-02
   8.06973502e-02  1.32126197e-01  2.28565540e-02  9.05578062e-02
   3.25106233e-02  4.28876691e-02 -1.63252890e-01  4.34890240e-02
  -7.22185671e-02 -1.22028291e-01 -1.56329140e-01  3.76521468e-01
   3.33973885e-01  7.26329327e-01 -2.68554598e-01  3.77056748e-02
  -4.77553189e-01 -3.13919783e-02  2.68246084e-01  5.75169735e-03
  -5.28505370e-02  1.41476169e-01 -1.06931560e-01 -5.88805079e-01
  -6.90687001e-02 -8.51742923e-02 -4.07486886e-01  1.16233878e-01
   3.61332178e-01  2.59207070e-01 -9.04266536e-02  3.61685641e-02
  -2.04849303e-01  4.66235355e-02  1.72793016e-01  5.31438664e-02
   1.72953263e-01  1.51204184e-01  4.30739522e-01  2.21740767e-01
   2.96209306e-01  9.27630961e-02 -2.50557095e-01  1.39819711e-01
   3.86856198e-02  4.51465175e-02 -6.12825342e-02 -9.67380106e-02
  -1.14113636e-01 -3.24322790e-01 -3.46420437e-01  4.49446663e-02
  -5.62948026e-02  7.17315311e-03  1.12510100e-01 -8.26237276e-02
  -3.50041389e-02 -3.27168703e-02 -3.79243307e-03 -8.91505405e-02
  -3.46306622e-01 -3.98266502e-02  1.46190757e-02  1.88484415e-01
   1.91499330e-02  2.76483763e-02 -5.28502949e-02 -3.61297932e-03
   2.77745754e-01  8.65123495e-02 -2.39814758e-01  1.69654608e-01
  -2.86452800e-01  2.51274735e-01  3.41422856e-02  6.34619147e-02
  -2.21777931e-01  1.25377923e-01  3.53131294e-01 -2.63542473e-01
   3.37676823e-01  2.90466547e-01  3.72603089e-01 -1.22910514e-02
   1.07375849e-02  1.60147250e-01 -5.94681241e-02  2.41933973e-03
   1.13487773e-01  3.85902166e-01  1.72412936e-02 -2.24619970e-01
   1.03611657e-02  2.27025062e-01  3.78513969e-02 -1.37194037e-01
  -4.22247559e-01 -7.91189969e-02 -3.69249225e-01 -4.45761606e-02
  -3.81098315e-02  2.31709257e-01 -1.86017066e-01 -2.97507737e-02]
 [-2.58229319e-02  5.08883176e-03  2.11383533e-02  1.06789634e-01
  -6.02043755e-02  7.76055828e-02 -4.59336936e-01  2.49062911e-01
  -2.36494258e-01  2.78580841e-02  9.59699526e-02  1.51282754e-02
  -1.45590425e-01 -4.43841480e-02  1.71692856e-02 -2.64013987e-02
  -5.24806790e-02 -5.21462634e-02 -3.77680883e-02 -1.17042691e-01
  -4.53303382e-02 -1.03470916e-02 -2.28885952e-02 -4.44178842e-03
  -4.68880730e-03  4.42388982e-01 -3.11975144e-02  6.23954058e-01
   6.25338033e-03  1.13225117e-01  4.74500507e-02 -1.98094994e-01
   7.89416209e-02  1.49489835e-01  4.33525950e-01 -2.90953487e-01
  -4.51738723e-02 -3.24964285e-01 -3.49601686e-01 -3.34490053e-02
   4.95257407e-01  1.28070703e-02 -8.76280516e-02 -2.68723369e-01
  -4.43475097e-02 -1.50706917e-01 -1.10903591e-01 -9.39046443e-02
  -1.67267397e-03 -1.90793321e-01 -2.47973204e-01 -6.86986387e-01
  -4.25116085e-02  1.97375029e-01 -4.37768102e-02 -4.45634693e-01
  -4.92767729e-02 -4.07723896e-02  1.30020261e-01 -4.12215948e-01
   3.57518531e-02  4.75511312e-01  2.90409505e-01  2.06477359e-01
  -4.64526936e-02 -1.92530140e-01  4.45592195e-01  1.25583827e-01
   4.55759950e-02 -1.83960218e-02 -1.61439925e-01 -2.76879761e-02
  -3.42940450e-01  5.42994022e-01 -5.88450246e-02 -5.01444787e-02
  -1.34317297e-02  1.95984785e-02 -7.25182444e-02 -3.11411656e-02
  -7.03801885e-02 -1.46933675e-01 -3.70123759e-02 -1.16993245e-02
   3.71680111e-01 -2.34991554e-02 -5.16780913e-02  1.96296722e-02
   4.94629703e-03 -5.32366931e-02  7.99152628e-02 -4.12110388e-02
  -1.28865883e-01 -2.97804847e-02  9.67289135e-02  4.58075553e-02
   3.24391603e-01  3.46651107e-01  4.06913131e-01 -5.50889336e-02
   1.03389785e-01 -2.58703262e-01 -5.03420159e-02  9.46670994e-02
   2.70993173e-01 -3.75675082e-01  3.45408827e-01  4.09214869e-02
  -4.86623272e-02  1.53918222e-01  1.00742221e-01  2.00491801e-01
   2.05088511e-01 -3.55416699e-03 -4.21479158e-02  1.43707052e-01
  -6.46378193e-03 -5.14369905e-02 -1.46762421e-02 -9.27275717e-02
  -2.88699538e-01  4.13577585e-03 -1.06803164e-01 -4.73784953e-02
  -7.18168840e-02 -6.00648940e-01 -3.33392650e-01 -6.01995215e-02]
 [-4.34142277e-02 -3.50315645e-02  5.30554429e-02 -5.12850463e-01
   3.55726741e-02 -9.44220871e-02 -2.15294659e-01 -4.70839627e-02
  -1.30456582e-01 -4.36387546e-02  8.57642964e-02  1.61957312e-02
   1.26867339e-01  1.52782306e-01  1.90109629e-02 -5.59819154e-02
   9.47737414e-03 -4.13790941e-02 -3.43457125e-02 -2.13259369e-01
  -1.11784622e-01  6.37770668e-02  1.59761280e-01 -3.18061709e-02
  -1.49144176e-02 -1.67451397e-01 -5.91153465e-02 -3.23703498e-01
  -5.68675213e-02  1.28239363e-01 -8.42769206e-01 -2.99672961e-01
  -2.99295150e-02  2.28899419e-01  2.59982556e-01 -3.19676369e-01
  -4.54396792e-02 -5.64134344e-02  8.75474587e-02 -9.15123746e-02
  -5.40310204e-01  3.52768861e-02 -1.21534221e-01  2.15997286e-02
  -4.63636890e-02 -9.99532118e-02 -8.75925943e-02 -2.77596921e-01
  -4.01110053e-02 -1.46892831e-01 -1.41214326e-01 -2.08221525e-01
   1.77536711e-01  2.04575285e-01 -9.13783386e-02  3.98151800e-02
  -1.50675133e-01  7.32121393e-02 -2.38476887e-01  2.97621369e-01
   8.25004876e-02 -3.57532471e-01  1.18985184e-01 -1.09150559e-01
   2.54524928e-02 -3.99667956e-02 -1.10488534e-01  2.51807779e-01
   5.71590997e-02 -1.70947611e-02  3.66327018e-01 -2.19624061e-02
   2.21019372e-01  2.60035127e-01 -7.24467449e-03 -3.23016904e-02
   7.71795213e-03  5.55712916e-02  1.34996891e-01  9.36787669e-03
  -1.91192696e-04  2.50733495e-02  4.19048294e-02 -4.95326892e-02
  -4.07089204e-01  3.81823815e-02 -3.98207344e-02 -1.20232329e-01
  -5.49494624e-02 -7.45219812e-02 -9.90397111e-02  4.95468490e-02
  -3.80245969e-02  1.58707097e-01 -1.21109247e-01  7.94469789e-02
  -2.37913013e-01 -1.53243532e-02  5.66793829e-02 -1.11916952e-01
  -3.13346125e-02 -1.79870561e-01  9.77937356e-02  9.23889577e-02
   3.01608145e-02  6.77616298e-02 -2.15707093e-01 -3.02388780e-02
  -2.99252733e-03  3.39243077e-02 -7.24776015e-02  2.05764085e-01
   3.76584291e-01  2.29131624e-01  6.54044822e-02 -3.94766890e-02
  -7.86479786e-02 -2.12993532e-01  6.06170576e-03 -1.80604234e-02
   1.29109889e-01  3.10051325e-03 -1.06602117e-01 -3.50144663e-04
  -3.34710465e-03  1.20196640e-01  4.75246161e-02 -2.03083709e-01]
 [-5.10017527e-03 -5.99121265e-02 -6.52264804e-03  8.37857649e-02
   9.97130200e-02  4.01393145e-01 -1.71586409e-01  1.21116377e-01
   2.11792260e-01  1.52545888e-03 -1.55857027e-01 -3.61631773e-02
  -4.90777306e-02  5.57289645e-02  2.32640598e-02 -3.98135073e-02
  -3.07805520e-02 -9.61312279e-03  5.62240519e-02  1.68965653e-01
   4.12567705e-02 -1.50372401e-01  2.21319556e-01  3.18749957e-02
   9.11595449e-02  7.93147366e-03 -3.71652166e-03  2.65899803e-02
  -3.84808704e-02  1.14390053e-01  8.52612779e-02  2.60009706e-01
   3.08915079e-01  3.06351602e-01  2.91882724e-01  1.10158406e-01
   2.26333976e-01 -3.66715997e-01  1.71491690e-02  2.78130826e-02
   4.74005491e-01 -2.32227650e-02  1.20400591e-02 -2.67296165e-01
  -3.97014208e-02  4.68451753e-02 -7.22794747e-03 -2.32194602e-01
   3.10526416e-02 -3.60388696e-01 -1.51482970e-01 -2.55922377e-01
  -3.37617874e-01 -2.02553481e-01  2.48173308e-02 -2.29396686e-01
  -2.48682335e-01 -4.60878350e-02 -7.23229229e-01  6.55632615e-02
   1.08065158e-01 -2.95441840e-02  1.62619501e-01 -1.01532452e-01
  -2.67451078e-01  6.27104566e-02  4.48210597e-01  2.59951130e-02
  -1.65837388e-02 -4.72047254e-02 -2.19802171e-01 -7.55095705e-02
  -9.79600668e-01 -1.45155387e-02  2.27650739e-02 -1.85667176e-03
  -3.63979265e-02 -1.03470691e-01  8.37259218e-02 -3.28963734e-02
  -2.84730662e-02 -2.15027239e-02  3.54112461e-02 -7.07721412e-02
   1.16937079e-01 -1.12991221e-03 -1.64558049e-02  2.84537017e-01
   2.24361867e-02  1.29927881e-03  1.78786330e-02  2.95966212e-02
   7.15974271e-02  3.00060697e-02 -9.33380611e-03  1.00607388e-01
  -3.04778153e-03 -1.33472785e-01  2.04585209e-01  4.17540967e-02
   1.75574906e-02 -1.23676606e-01 -6.94018826e-02 -3.24154615e-01
   8.18653703e-02 -1.06668562e-01  3.62153761e-02 -3.85306850e-02
  -7.58608505e-02  1.96527556e-01  2.12102309e-02 -9.68506038e-02
  -4.31293279e-01 -2.98036605e-01  1.64649282e-02 -2.53144205e-01
  -3.25620435e-02  1.25194818e-01 -5.87104484e-02 -3.84470612e-01
   2.59678718e-02 -8.45791698e-02 -4.93998140e-01 -8.98417979e-02
  -9.82131064e-02 -2.10600831e-02 -2.08308607e-01  2.24132612e-01]
 [ 5.57437260e-03 -2.33841012e-03 -1.90589540e-02 -1.03984281e-01
   1.39434170e-02 -1.25764608e-01  6.48841783e-02 -4.89023328e-02
  -1.56045526e-01 -5.77115677e-02  2.05816478e-01  3.27779166e-02
   3.10218101e-03  6.33654147e-02 -7.75417984e-02 -2.17110850e-03
  -2.19466053e-02  4.24567834e-02 -4.46467511e-02  2.70197541e-01
  -1.06245369e-01 -5.30284978e-02  5.18603288e-02 -6.66322410e-02
  -4.50375229e-02 -2.48815678e-02 -1.07766315e-02 -4.56923433e-02
  -2.35501137e-02  1.55161573e-02 -2.07753807e-01 -6.70338646e-02
  -9.61107109e-03 -1.49931729e-01 -1.03972897e-01 -4.53515276e-02
  -3.22177261e-01 -1.03321206e-02  1.38609394e-01  6.60489267e-03
  -2.02739358e-01 -5.84878400e-02  1.53429255e-01  1.51242018e-01
  -5.10953143e-02  1.38444202e-02 -3.51671875e-02 -3.11770737e-01
  -4.44365963e-02  5.28974682e-02  1.54321849e-01  1.01331614e-01
   7.22369030e-02  1.94814205e-01 -6.22671507e-02  4.78380322e-02
   5.10183237e-02 -7.83911273e-02  8.18644837e-02 -5.80298863e-02
  -5.75339608e-02 -3.97055736e-03  8.17335024e-02  3.05110335e-01
   1.71314120e-01 -6.66036755e-02 -2.16957867e-01 -1.24712838e-02
   2.51963623e-02  5.96927805e-03 -2.55457222e-01 -5.33448160e-02
   9.67554301e-02 -7.45182410e-02 -1.70937955e-01  2.83232555e-02
  -5.01157790e-02 -3.59947011e-02  1.28070071e-01 -2.95268334e-02
   9.36125312e-03  1.81124687e-01  9.50470753e-03 -6.75704181e-02
  -9.31743458e-02 -3.88679728e-02 -2.63457112e-02 -2.16317281e-01
   1.03885764e-02 -8.98637157e-03 -1.43131211e-01 -4.70907353e-02
   1.67814761e-01 -2.00412795e-01 -1.74991027e-01 -1.17682964e-01
  -5.95565438e-02  1.43020064e-01 -1.05682924e-01  1.17019594e-01
  -8.81269500e-02  2.18022078e-01 -6.98473975e-02 -5.45990355e-02
  -6.35311678e-02 -3.28691453e-02 -1.29067451e-01 -7.23965187e-03
   3.73180173e-02 -1.12523966e-01  6.23101965e-02 -1.07819155e-01
   1.34622827e-01  1.98114365e-01 -2.25774329e-02 -1.84388354e-01
  -4.86922897e-02 -1.64393801e-02 -2.47642826e-02  3.21935356e-01
  -1.46913379e-01  3.41842999e-03 -2.67477751e-01  5.75111294e-03
  -6.30783141e-02  8.18783138e-03 -4.96250801e-02  1.08285442e-01]
 [-4.17243317e-03 -1.17257088e-02  2.94730403e-02  2.41327677e-02
   6.33957162e-02  6.24864511e-02 -1.15181401e-01 -2.04888210e-01
   5.21096727e-03 -6.45487532e-02 -2.10414082e-02 -4.27900292e-02
  -1.84982985e-01 -3.07355970e-01 -8.61428306e-03 -3.03795785e-02
  -1.04035540e-02  1.42673193e-03  2.70512532e-02  1.01774439e-01
   9.50512588e-02 -4.60396186e-02 -1.34902913e-02  3.82363498e-02
  -1.28181413e-01 -1.90509945e-01 -5.23963384e-02  4.47534733e-02
  -5.77824898e-02 -5.66057600e-02  1.00510605e-01 -1.93329826e-01
  -8.27035531e-02 -2.37275869e-01 -2.32320964e-01  1.58740357e-02
  -1.18226893e-02  1.10797793e-01 -2.40430847e-01 -8.71308371e-02
   1.63629949e-01 -4.31380495e-02  1.17847487e-01  1.52214736e-01
  -5.17435335e-02 -4.08568606e-02  4.04959731e-02  3.42675596e-02
  -2.19568573e-02  3.29902731e-02 -1.10867932e-01  8.82424116e-02
  -2.09596887e-01 -2.10856840e-01 -3.80147733e-02 -1.41980276e-01
  -2.78005991e-02 -3.01749948e-02  3.14007862e-03 -2.26830076e-02
   1.42479792e-01 -3.24329436e-02  2.17075735e-01  3.68296683e-01
  -3.17155689e-01 -5.28019145e-02  1.44258246e-01 -1.92347959e-01
   1.42823355e-02 -6.81709349e-02  1.08966492e-01 -8.91748369e-02
   1.86854064e-01 -8.90913084e-02 -5.13197528e-03  1.44995693e-02
  -7.16852024e-02 -5.81470281e-02 -9.71688703e-02  1.07533066e-02
  -1.28309792e-02  1.20861128e-01 -5.33736534e-02 -8.03449228e-02
  -1.59883723e-01 -3.35559435e-02 -5.72537817e-02  1.61125258e-01
  -7.63773769e-02 -3.13900001e-02  1.25340387e-01 -6.72099441e-02
  -1.45498663e-01 -4.60784018e-01  1.27614111e-01  2.49925107e-01
   1.40716974e-02 -1.23696879e-01 -2.43558571e-01 -4.65604305e-01
   1.71031579e-01 -1.05334103e-01  3.07341130e-03  7.65904486e-02
  -4.57837075e-01 -2.84812242e-01 -3.73652637e-01 -1.29442168e-02
  -4.12487723e-02 -2.90192693e-01  2.13854745e-01 -3.80985111e-01
  -2.01792624e-02  1.89566702e-01 -3.33870389e-02 -1.70831516e-01
   1.24744400e-02  2.66343415e-01  5.67075759e-02  2.57336229e-01
   1.45925418e-01  2.64947247e-02 -3.11477687e-02  5.72330803e-02
  -6.11135960e-02 -1.60957873e-01 -1.38898045e-01 -2.07776263e-01]
 [-5.84740043e-02 -6.49311841e-02  5.52156800e-03  1.05898995e-02
  -9.84986126e-02  1.04529582e-01  6.78378120e-02  2.81372070e-02
   1.82830825e-01 -1.71003174e-02 -1.83441028e-01  3.20097944e-03
  -1.12136312e-01 -3.19480039e-02 -5.60549423e-02 -6.68844655e-02
  -5.71306348e-02 -4.18462465e-03 -1.52427312e-02 -5.77359535e-02
  -4.56470735e-02 -2.06004143e-01  1.04757592e-01  2.49433611e-02
  -5.73327392e-03 -8.77913740e-03 -1.85647588e-02 -9.45799500e-02
   5.53980190e-03 -3.93444896e-02 -1.07787736e-02 -3.10407162e-01
  -2.12808941e-02 -7.08035659e-03  3.37485194e-01  7.28840893e-03
   5.08593842e-02  2.55684376e-01  2.44237676e-01  3.55118862e-03
  -9.73357111e-02 -3.74218747e-02 -6.78774774e-01  3.32183152e-01
   5.15527697e-03 -1.65838730e-02 -1.38027510e-02 -3.26365292e-01
   9.55948606e-03 -1.51776388e-01 -2.33983874e-01  4.72123288e-02
   3.23648840e-01  3.98183197e-01 -2.97611430e-02 -2.35646933e-01
  -2.86791474e-01 -1.57079864e-02 -1.82891294e-01  1.49829030e-01
  -3.73638809e-01  2.31397301e-01 -6.60072982e-01  2.83738989e-02
   2.03693986e-01 -9.35431048e-02 -2.19762683e-01  2.05141917e-01
  -1.24073997e-02 -1.04185678e-02  2.30469510e-01 -1.06466189e-02
  -4.08937424e-01 -4.90500659e-01 -7.63759669e-03  7.13720359e-03
  -4.52508926e-02 -4.73545566e-02  1.86012328e-01 -7.56460428e-02
   5.86643629e-03  9.29989368e-02 -1.97704835e-03  1.71955377e-02
   1.35494784e-01 -7.94466771e-03 -8.43394548e-02 -3.23104076e-02
  -5.49323577e-03 -1.34668797e-02 -3.23962808e-01 -6.62918836e-02
   3.67135108e-01  2.44923607e-01 -2.39632189e-01  6.48969114e-02
  -1.78687617e-01  6.73889741e-02 -2.72011101e-01 -2.21947446e-01
  -2.52982825e-01  3.37146580e-01  7.85754621e-02  4.00653929e-01
   3.13962430e-01  1.86207443e-01  1.28491238e-01 -6.41926378e-02
   2.48119123e-02  1.57284975e-01 -2.43658304e-01  1.57038689e-01
  -1.63336232e-01  1.95319787e-01  2.58437693e-02 -5.40416054e-02
  -4.28915918e-02 -3.91132206e-01 -9.77700949e-02  5.42477854e-02
  -2.65537620e-01  4.45479453e-02 -2.93949813e-01 -5.37320338e-02
  -3.66267450e-02  4.52425361e-01  1.53867558e-01  2.62471139e-01]
 [ 4.17544544e-02 -1.55670345e-02 -2.81067914e-04  4.22480315e-01
  -4.20780480e-02  2.27347523e-01 -1.23664074e-01  1.34047061e-01
   1.99670214e-02 -1.03485212e-02 -2.27582052e-01 -2.28227880e-02
  -2.16946095e-01 -1.02094397e-01 -9.42824036e-03 -1.59214865e-02
   2.59093884e-02  1.06249973e-02  1.24506224e-02  1.61675230e-01
  -3.98357175e-02  9.14531574e-02  4.70365621e-02  6.57093944e-03
  -3.14170271e-02 -8.65659397e-03 -4.11947481e-02  3.42729568e-01
   2.62990147e-02 -4.35994081e-02 -2.00688347e-01 -3.33832949e-01
  -1.19780064e-01 -2.48990446e-01  2.54213899e-01  4.22146060e-02
   6.71169236e-02 -8.13374966e-02 -1.75161988e-01 -8.66538584e-02
   3.43410730e-01 -4.13043983e-02  1.54975951e-01 -4.41427827e-01
   2.02580523e-02 -1.28537029e-01 -6.32231161e-02  7.93429017e-02
  -6.29747882e-02 -2.15558305e-01 -1.16919614e-01 -2.19163746e-01
   1.11235037e-01 -5.64524904e-02 -1.80329122e-02  1.69587597e-01
  -1.80153288e-02 -1.35151491e-01  6.23141766e-01  1.25948926e-02
  -4.58386689e-01  9.31595489e-02  8.53732750e-02  1.25722632e-01
  -5.13035357e-01 -1.05202124e-02  5.74440777e-01 -3.38310450e-01
   6.78399997e-03 -5.91869541e-02 -3.10334623e-01 -5.11479713e-02
   4.55702007e-01  1.81287467e-01 -3.11599612e-01  6.53121062e-03
   1.29979784e-02 -7.92775955e-03 -1.00242707e-03  4.30964157e-02
  -3.41321640e-02  5.11863194e-02 -7.51278028e-02 -4.96417917e-02
   7.19930708e-01 -1.37008009e-02 -2.42097639e-02  1.44883052e-01
   2.26521771e-02 -4.70152162e-02  1.25603408e-01  1.34352539e-02
  -1.78843722e-01 -4.89429981e-01 -1.30130321e-01  9.17689875e-02
   6.33112967e-01 -1.41055092e-01  1.40861407e-01 -3.82770598e-01
   2.75858300e-04 -1.38688788e-01  4.11730468e-01  6.09080046e-02
   6.08139997e-03 -9.15689021e-02 -1.66421197e-02 -5.81755526e-02
  -7.37518668e-02 -8.21510255e-02 -1.36264071e-01  3.66222747e-02
  -3.50118987e-02  1.03321098e-01 -6.23967722e-02 -4.44873013e-02
  -4.57944162e-02 -5.43808751e-02  3.97784002e-02  5.55411205e-02
  -2.26507597e-02  1.13995243e-02 -3.49381082e-02 -1.36401251e-01
  -6.53516827e-03 -6.81928396e-01  4.27020527e-02  4.99103129e-01]
 [-4.61467952e-02  5.17866062e-03 -9.53502208e-03 -4.44701642e-01
  -1.28543124e-01  2.54259631e-02  2.98703108e-02  1.61714077e-01
   4.30227742e-02 -3.09491269e-02  4.89725024e-02 -6.04826026e-02
   3.36769164e-01 -3.17598045e-01 -9.59508121e-02 -2.36710161e-02
  -2.69272048e-02  6.43507689e-02  4.32394184e-02 -1.38515696e-01
  -1.50788426e-01  9.59823057e-02  2.07693025e-01 -4.98322770e-03
   7.08551779e-02 -3.05218637e-01  5.97994402e-02 -2.01447830e-01
  -3.62400487e-02  7.74057209e-02 -8.26454997e-01 -1.64549127e-01
   1.37702703e-01  1.01778321e-01 -1.16185904e-01 -2.92603314e-01
  -3.71688366e-01 -1.58656120e-01 -9.53831077e-02 -1.28829226e-01
  -1.93048164e-01 -2.07136143e-02 -2.93751359e-01  1.83747150e-02
   5.90893701e-02 -1.25192836e-01 -3.03893182e-02 -4.33264792e-01
  -6.55533969e-02  1.00623116e-01  4.22877073e-02 -8.82641971e-02
   2.03131825e-01  3.35740328e-01 -8.92940238e-02 -2.34169587e-01
   8.91896635e-02  1.73542760e-02 -1.73864424e-01 -4.85013202e-02
   7.39760976e-03 -3.05833638e-01  3.60098362e-01  7.21895173e-02
  -7.65450113e-03 -3.03323139e-02  1.19669452e-01  2.17095930e-02
  -3.76245305e-02  2.66495198e-02  2.74243653e-01 -7.02246651e-02
   3.93852405e-02  2.72673488e-01 -3.81703787e-02  3.90937738e-02
  -1.66161098e-02 -3.94219346e-02  2.68195897e-01  1.51669970e-02
   9.25731957e-02  6.95151165e-02 -2.66210781e-03  7.07895979e-02
  -7.19360411e-02 -7.60233924e-02 -1.00016400e-01  2.72199035e-01
   3.13429721e-02 -6.94677159e-02 -3.21692199e-01 -3.41712497e-02
  -1.12002611e-01 -4.89487462e-02  4.64080572e-02  1.55667886e-01
  -2.89166063e-01  1.75093357e-02  1.44952061e-02 -1.04245394e-01
   1.03380352e-01 -1.94340542e-01  2.18233675e-01 -9.70334038e-02
   5.32657206e-02 -2.09711134e-01 -3.69558752e-01 -5.68445288e-02
  -6.81483224e-02  3.47266287e-01  2.64016055e-02  2.06934791e-02
   6.74776658e-02  1.26112938e-01 -2.88392138e-02  1.13542795e-01
  -7.62430876e-02 -1.48082405e-01  3.66375595e-02 -9.08761322e-02
   1.67576805e-01 -5.60170598e-02 -1.98397748e-02  2.05238257e-02
  -8.01665112e-02  9.44520384e-02 -1.61505222e-01 -2.78216451e-02]
 [-4.90340730e-03  1.04245944e-02 -2.88132988e-02  5.66929132e-02
  -1.79897100e-01  6.58220947e-02  1.78509578e-02 -1.49824899e-02
  -2.97362328e-01 -6.52505308e-02  1.35502174e-01  2.65592057e-02
   1.46259904e-01 -2.89952666e-01 -1.88803487e-02  2.24289182e-03
  -7.43594579e-03  2.00346261e-02  6.08628429e-02  1.31941363e-01
  -2.36137897e-01  7.63835385e-02  1.27665237e-01 -6.61639357e-03
   1.28090769e-01 -2.55774856e-01 -5.34286490e-03  2.52423584e-01
  -6.30463883e-02 -1.67017952e-01 -3.33818227e-01 -4.63605151e-02
   2.15323474e-02 -4.07741696e-01  1.56448111e-01  2.97853380e-01
   2.95517266e-01 -1.12431800e+00  1.07693009e-01 -5.40931076e-02
   2.78060645e-01  1.83324367e-02  4.93972749e-01 -3.65863979e-01
   2.67850570e-02 -4.07890826e-02 -5.08132949e-02  3.09789121e-01
  -2.43355171e-03 -2.03062788e-01 -2.95200109e-01 -5.14997184e-01
  -2.63563484e-01  1.16554871e-01  4.02029939e-02 -5.47649805e-03
  -3.87618005e-01 -5.29919304e-02  2.78169930e-01 -7.36996979e-02
   2.21735053e-02  2.46816501e-03 -3.78884404e-04 -2.23296341e-02
   1.94162279e-02 -1.99640408e-01  4.37176973e-01 -2.47068051e-02
  -1.59586500e-02 -2.28682626e-02  1.11428313e-01  8.66249576e-03
  -3.13439310e-01  3.38070840e-02  3.75751764e-01  1.80974312e-03
  -3.69421020e-02 -2.32796520e-02  9.54912007e-02 -6.79569617e-02
  -5.49002253e-02  9.96633098e-02  3.00148912e-02 -9.62645933e-02
  -4.38606106e-02 -5.06557673e-02  1.20201912e-02 -2.43052654e-03
  -9.94503777e-03 -3.44667248e-02  2.64041960e-01  4.44428585e-02
  -2.78078705e-01 -1.00192845e-01  2.03022018e-01  2.88078338e-02
  -1.11210875e-01 -5.41215688e-02  1.38477474e-01 -3.73894006e-01
   1.62574857e-01  4.05986384e-02  1.20354781e-03  1.21820845e-01
  -1.03339881e-01 -5.12407571e-02  1.20142691e-01  2.94351373e-02
  -1.82197411e-02 -2.05708250e-01 -3.91996279e-02  2.66819566e-01
  -2.58294605e-02 -2.22683802e-01 -1.59726012e-02  7.05260262e-02
  -9.17460248e-02  2.31092758e-02 -7.34336823e-02  7.94284344e-02
   2.03016058e-01 -5.35998717e-02 -3.87668461e-01 -8.98211077e-02
  -5.99559136e-02 -2.81512141e-01 -6.05766778e-04  7.22840354e-02]
 [-6.23254143e-02  1.30407680e-02  1.20561011e-02 -1.56761229e-01
  -2.91528692e-03 -8.47983360e-03  7.21112937e-02 -4.93714847e-02
  -2.63054222e-02 -3.19314301e-02 -4.57140319e-02 -5.94848022e-02
  -1.18214332e-01  1.10814981e-01  1.79421958e-02  2.41839997e-02
  -6.59534261e-02 -5.01311980e-02  5.30269230e-03 -7.52679631e-02
  -3.35070528e-02  7.53496662e-02  2.18958762e-02 -3.57510056e-03
  -7.25065470e-02 -1.28491253e-01 -3.65156569e-02  2.37708651e-02
  -5.76969124e-02  2.70714760e-01 -1.14953674e-01  1.81876883e-01
  -1.53917581e-01  1.32738754e-01 -1.21560119e-01 -5.02877943e-02
  -2.99984068e-01  1.50549740e-01  1.57984331e-01 -8.94285925e-03
  -4.21670586e-01 -9.48788505e-03  1.05767243e-01  2.28365660e-01
  -7.91252255e-02 -9.12919790e-02  7.27947149e-03 -2.12725133e-01
  -6.80828691e-02 -3.35783185e-03  7.10156485e-02 -3.11721135e-02
   4.83404845e-02  1.02057263e-01  5.07305237e-03  3.64491828e-02
  -4.18855436e-02 -1.11790234e-02  1.00281008e-01 -6.43658862e-02
  -1.68249141e-02 -1.41916171e-01  2.09434748e-01  1.90835357e-01
   8.13741684e-02  8.36506188e-02 -1.84411600e-01  9.75956768e-02
  -8.91900063e-02  7.66035588e-03  3.33471894e-02 -5.77892661e-02
   5.43201789e-02 -7.64609501e-02 -2.66506195e-01 -1.93368886e-02
   4.36259201e-03 -7.83915743e-02  1.33235782e-01 -2.74803839e-03
  -2.60506254e-02  1.51941087e-02 -6.84657320e-02 -4.32140492e-02
  -1.08012937e-01 -1.89903490e-02  6.01773672e-02 -2.97241509e-01
  -3.88549045e-02  5.23184352e-02 -1.88299999e-01 -7.53647536e-02
   1.03456169e-01 -2.22669721e-01 -3.10669113e-02 -3.88283357e-02
  -1.65594578e-01  4.75764275e-02 -7.47946426e-02  2.61585191e-02
  -1.37931004e-01  2.50017345e-01  4.35552262e-02  8.20404142e-02
  -4.33093794e-02 -1.08990721e-01 -1.16052397e-01 -2.64294585e-03
  -2.92940587e-02 -3.68436091e-02  6.67004809e-02  1.44054860e-01
   2.44070828e-01  3.98918390e-01 -6.45409599e-02 -2.18130872e-01
   9.96229053e-03 -1.63592681e-01 -8.00366774e-02  1.63641453e-01
  -1.01202242e-01 -1.59986876e-02 -1.04776688e-01  7.63526484e-02
  -1.12852175e-02  8.58124122e-02 -1.28238602e-02 -2.94481851e-02]
 [-3.64296772e-02  1.25002395e-02 -4.29530516e-02 -1.82442144e-01
   8.13551899e-03  5.70779704e-02 -3.18571068e-02 -1.31563291e-01
   4.82195280e-02 -6.65386394e-02 -1.75809324e-01 -1.70672406e-02
  -1.42854610e-02 -1.51610181e-01 -2.60198507e-02 -5.59797101e-02
   3.61265279e-02 -4.71052006e-02 -3.26086953e-02 -2.45296046e-01
  -5.74165434e-02 -1.46946713e-01  2.22415984e-01 -3.71741317e-02
  -6.60576895e-02 -5.38549945e-02  1.05102118e-02  1.71396099e-02
   2.33449060e-02 -1.33199394e-01  1.26582682e-01 -1.98721349e-01
  -6.17336072e-02 -7.96136186e-02 -1.07731536e-01 -1.06016010e-01
   3.72203737e-01  8.64130855e-02 -2.73756474e-01 -3.79622206e-02
   1.26823232e-01 -8.19084700e-04  8.37638378e-02  1.96347728e-01
  -6.01172214e-03 -4.96748425e-02  4.64635761e-03 -1.37003824e-01
  -6.39389977e-02 -1.47587329e-01 -1.41271099e-01  2.28208974e-01
  -1.03258863e-01 -2.32379735e-01 -2.36741547e-02 -5.36603153e-01
  -3.40401828e-02 -1.10673271e-02 -2.45016236e-02  4.27237563e-02
   1.77186802e-01 -7.30489790e-02  4.27487269e-02  3.18975598e-01
  -5.85332420e-03  8.20249990e-02  9.15848613e-02 -1.12135969e-01
  -1.10941427e-02  2.19511613e-02 -5.17645627e-02 -1.12901188e-01
   3.39904265e-03 -8.78722444e-02 -1.66387960e-01 -3.13266851e-02
   2.48064175e-02  1.22012831e-02 -4.89436090e-02 -1.00945443e-01
   6.24881722e-02 -1.54788151e-01 -2.61025806e-03 -7.78071284e-02
   8.45839828e-02 -7.16255680e-02  5.49941175e-02  1.38253374e-02
  -2.85335388e-02 -3.20543349e-02  1.93369597e-01  6.10185508e-03
   6.45137578e-02 -3.66988182e-02 -9.12748650e-02  3.59724313e-01
  -9.93586704e-02 -1.54861689e-01 -1.78643599e-01 -2.74887800e-01
  -1.27415333e-04 -3.10453065e-02 -3.11041653e-01 -1.63988546e-01
   1.27712741e-01 -2.40011126e-01 -1.44332722e-01  1.40534854e-02
  -1.24406163e-02  5.18212132e-02  9.92844105e-02 -4.76387620e-01
  -1.97026879e-02  1.80741623e-01 -2.50551999e-02 -2.32365102e-01
   8.83486867e-03  1.17015533e-01 -2.47642659e-02  2.10858256e-01
  -7.48317167e-02 -4.73669991e-02 -1.91008031e-01  1.84722268e-03
  -9.05389786e-02 -1.64227393e-02 -1.42411113e-01 -5.79996593e-02]
 [ 3.33031677e-02  3.68597806e-02  3.59236225e-02  5.27716398e-01
  -7.50107244e-02  3.66352946e-01  1.88560769e-01  1.06497817e-01
   8.97565484e-02 -3.55948620e-02  2.59180754e-01  1.62752084e-02
   8.00111506e-04 -8.47450197e-02  4.92836349e-02 -3.80504020e-02
   2.82212067e-02 -2.27848291e-02  4.40658852e-02 -1.89894885e-01
  -1.91022709e-01  8.43039621e-03 -7.34313726e-02 -3.45441699e-02
  -3.32851745e-02 -2.33846456e-01 -5.65929152e-02 -7.75892958e-02
  -1.38976723e-02 -1.87517982e-02  1.80967703e-01  3.79957259e-01
  -1.24266803e-01 -2.37059146e-01  2.32950643e-01  2.85678566e-01
   1.70599043e-01 -4.93465476e-02 -1.20161831e-01 -9.77032855e-02
  -2.88332164e-01  5.35929836e-02  6.35397315e-01  1.13516502e-01
   2.14292537e-02 -1.54837862e-01  5.77920582e-03 -7.57444859e-01
  -1.46496277e-02  1.84217207e-02 -3.49001706e-01  5.23198619e-02
   2.68714931e-02  5.38205922e-01 -8.61742161e-03  8.73175636e-02
   1.06301636e-01  3.33033502e-02  2.59625256e-01 -2.71251407e-02
   7.63469748e-03 -4.84641753e-02  1.02625266e-01  4.21376079e-02
   1.76842645e-01 -3.57568771e-01 -2.07600892e-02 -2.15349227e-01
  -4.44976427e-02  3.19252312e-02 -2.88227890e-02 -2.91703902e-02
  -1.18227370e-01 -2.70874470e-01 -3.27791482e-01 -5.73870167e-02
   5.87827119e-04 -1.00306652e-01  2.69094646e-01 -6.51815012e-02
   3.01660155e-03  1.88460629e-02  3.45399380e-02  3.04298960e-02
   5.94632812e-02 -6.08037375e-02 -8.07656795e-02  1.97661474e-01
   5.38896676e-03 -3.85424159e-02 -2.22755790e-01 -3.21304649e-02
   8.82015452e-02 -6.73292354e-02 -3.63173366e-01 -3.17110345e-02
   1.70696020e-01  1.95600554e-01 -6.01530299e-02  1.70658424e-01
  -2.96384841e-01  6.92841113e-02 -9.53815430e-02  1.74522743e-01
  -4.37226355e-01  5.66959262e-01 -2.88165733e-02 -1.84899960e-02
   9.78069194e-03 -3.17478273e-03 -4.10548002e-01  1.19633906e-01
  -1.35467261e-01  1.82612091e-01 -3.90689597e-02 -1.75131366e-01
   3.38573717e-02  9.78061557e-03  1.38224876e-02  3.82637858e-01
   2.07395591e-02 -6.08810633e-02 -5.80294840e-02 -5.45591908e-03
   5.51286824e-02 -2.32805535e-01  1.09834276e-01  1.69983968e-01]
 [-3.55925150e-02  3.20818136e-03  4.77035902e-02  4.61275250e-01
  -2.15410665e-01 -1.85338914e-01 -4.74552572e-01  8.01462531e-02
   1.97410256e-01 -7.60333538e-02 -3.38884830e-01 -6.73864484e-02
  -8.84421356e-03  1.05568230e-01 -2.62374766e-02 -5.69693595e-02
  -7.58163780e-02 -3.70920822e-02 -1.99381746e-02  2.00502902e-01
  -4.17947829e-01  3.68683524e-02 -1.95433751e-01 -5.55803813e-02
   3.34640965e-02 -1.56699747e-01 -6.73980787e-02  4.04695541e-01
  -5.45884408e-02 -2.15675175e-01 -1.52261198e-01 -1.09010667e-01
  -2.06079289e-01  3.15934569e-01  1.36869729e-01  3.10601354e-01
   1.77608803e-01  3.00694942e-01 -2.16881156e-01 -5.06381132e-03
  -2.11147547e-01  1.86158400e-02  3.47165227e-01  2.78305523e-02
  -1.92100629e-02  1.55347079e-01  9.80261248e-03 -3.66774440e-01
