base_model/conv2d/kernel:0
(5, 5, 3, 6)
[[[[ 1.62477806e-01  3.87845822e-02 -1.50328830e-01 -7.19880238e-02
     2.10822567e-01  3.31688493e-01]
   [ 9.38969627e-02 -6.36727661e-02 -2.16764688e-01  1.76103428e-01
    -2.00680152e-01 -5.28035052e-02]
   [-1.00326926e-01 -2.93792307e-01  8.29379559e-02 -1.75459787e-01
     1.03432506e-01 -1.45457193e-01]]

  [[ 2.91657686e-01  2.25794762e-01  1.98036641e-01 -1.62152961e-01
     3.33501637e-01  1.25085684e-02]
   [-1.73523396e-01  1.32742366e-02  2.40317192e-02 -9.84216258e-02
    -1.60249487e-01 -9.47654024e-02]
   [-4.53749262e-02  1.61827758e-01  8.82122386e-03  6.18583523e-02
    -2.41718143e-01 -7.75129534e-03]]

  [[-1.44777624e-02  1.69730783e-01 -1.16469719e-01 -3.51228952e-01
     3.60227227e-01  8.45040195e-03]
   [-3.65421742e-01 -2.43081436e-01 -1.33562610e-02 -2.45354027e-02
     6.64256141e-02 -5.96103743e-02]
   [-7.06213489e-02  6.55586347e-02 -1.51939073e-03 -1.62094906e-02
    -1.84500739e-01  3.68782401e-01]]

  [[-4.97868918e-02  1.03803210e-01 -4.97049280e-03 -1.27616942e-01
    -2.82640792e-02 -9.59129706e-02]
   [ 4.26143743e-02  1.49685636e-01  1.23228535e-01 -6.20185509e-02
    -4.65472750e-02 -3.27524953e-02]
   [-4.71512303e-02  1.37595013e-01  3.93951572e-02  4.21528459e-01
    -2.56655276e-01  1.06606133e-01]]

  [[ 1.06773283e-02 -2.15280086e-01  5.07396311e-02 -1.05015963e-01
    -1.43686965e-01 -3.75635922e-02]
   [ 4.02826294e-02 -4.44241846e-03  2.55147610e-02  1.63424954e-01
     5.15226834e-02  1.71195254e-01]
   [ 1.59889579e-01  1.14366233e-01 -1.79784909e-01  2.80394197e-01
     1.22238092e-01  4.10876989e-01]]]


 [[[ 1.96206033e-01 -3.02101791e-01  1.16944022e-01 -3.26954536e-02
    -1.98960125e-01 -9.01922025e-03]
   [ 1.12152047e-01 -3.86745036e-01  3.15004773e-02 -1.60847723e-01
    -6.12730421e-02  1.94150746e-01]
   [ 1.26464935e-02 -4.55986530e-01 -3.35714146e-02 -9.78357345e-02
    -5.82616851e-02 -1.60949230e-01]]

  [[ 1.43724650e-01  1.91032067e-01 -2.36879773e-02 -9.58450139e-02
     1.01491213e-02  1.51059240e-01]
   [-9.08429623e-02 -1.11219354e-01 -5.71688376e-02 -2.03049824e-01
    -1.09972164e-01  1.99651927e-01]
   [ 2.80090384e-02  2.05517523e-02 -1.40939459e-01  3.41659896e-02
     6.88423738e-02 -1.09018199e-01]]

  [[-2.80008882e-01 -1.61511861e-02 -1.78431049e-01 -6.00815378e-02
     3.29115301e-01 -1.92307264e-01]
   [-5.16255379e-01 -1.98096022e-01  8.25178772e-02 -2.01387927e-02
     6.94955066e-02 -4.78241444e-02]
   [-2.89442480e-01  4.87551317e-02 -3.39353941e-02  1.16200343e-01
     1.91415906e-01  3.32846373e-01]]

  [[ 1.53416365e-01  1.46703005e-01  9.81223956e-02 -6.95939884e-02
     4.12002236e-01 -9.65584293e-02]
   [ 1.50112867e-01  6.66363314e-02  3.20984364e-01  1.88636228e-01
     4.92689423e-02  8.72476995e-02]
   [ 2.85065472e-01  2.95240551e-01  2.69615233e-01  1.59223452e-01
     3.59766901e-01  2.96668649e-01]]

  [[-1.19738378e-01 -5.67743480e-02 -1.86756507e-01 -2.99999211e-03
     1.09789288e-03 -3.28052819e-01]
   [ 1.08382322e-01 -1.65064573e-01 -1.09885201e-01 -5.55915348e-02
     3.98914099e-01 -1.57822326e-01]
   [ 7.55841807e-02  1.89031571e-01 -1.79059416e-01  1.76284015e-01
     2.61162370e-01  1.57229960e-01]]]


 [[[ 2.04439238e-01 -2.33056575e-01  3.26834321e-01 -2.03104809e-01
     9.59561244e-02  2.73228794e-01]
   [ 3.85963023e-01 -3.98990929e-01  4.36537653e-01 -3.91729265e-01
     5.84279671e-02  2.07692310e-01]
   [-1.80143695e-02 -3.84978950e-01  2.74419487e-01 -2.25203574e-01
     2.33149946e-01 -4.06186014e-01]]

  [[-6.99156672e-02 -1.07923325e-03  4.94323261e-02 -3.00548583e-01
    -2.55941283e-02  4.03892249e-02]
   [-2.24409163e-01 -1.33938000e-01 -4.75296639e-02 -2.22651109e-01
    -1.75875381e-01 -1.26333147e-01]
   [-7.09581599e-02 -2.91993469e-01 -9.46194530e-02  1.90761566e-01
     4.54652635e-03 -2.65855044e-01]]

  [[-2.94483066e-01  5.63104078e-02 -5.40060639e-01 -2.49365687e-01
     8.49603768e-03 -3.63766640e-01]
   [-3.77274334e-01 -2.19559640e-01 -4.11917657e-01 -1.79533944e-01
    -4.07166332e-01 -1.59545511e-01]
   [-3.38643134e-01  7.90044367e-02 -4.89955664e-01  2.50609696e-01
    -3.09215873e-01 -6.18770272e-02]]

  [[ 2.39040390e-01  1.03961259e-01 -1.01790637e-01 -1.31459728e-01
    -5.86323217e-02 -1.10288255e-01]
   [ 4.04356837e-01  1.47519499e-01  8.24624449e-02  4.42444012e-02
    -3.14032763e-01 -5.46613298e-02]
   [ 4.54661131e-01  4.34554785e-01 -2.38896191e-01  2.34971553e-01
    -1.41185567e-01  2.72304207e-01]]

  [[-1.79581910e-01  5.28189801e-02  3.04493994e-01  5.45607656e-02
    -4.43658590e-01 -2.05071896e-01]
   [ 6.03122674e-02  2.75117040e-01  5.12280524e-01 -4.65566926e-02
    -1.98990494e-01 -2.12951824e-01]
   [-3.23847085e-02  4.98158127e-01 -3.95949231e-03 -3.54881026e-02
    -2.07639173e-01  2.34700307e-01]]]


 [[[ 3.05931926e-01  1.01802252e-01 -3.38375121e-02  2.71036327e-01
    -4.13868986e-02  1.21029437e-01]
   [ 1.91247538e-01 -2.43383750e-01 -2.97649920e-01  8.65796432e-02
    -2.36144617e-01  4.84913997e-02]
   [ 1.05233103e-01 -2.55513847e-01 -3.04951854e-02  1.61810279e-01
     2.56807745e-01 -2.77069211e-01]]

  [[-1.14944942e-01 -2.02928931e-01 -9.62092355e-03  2.85317004e-01
     6.39302209e-02 -5.56129627e-02]
   [-2.92411417e-01 -3.64351064e-01 -1.46239445e-01  2.13681415e-01
    -2.69098252e-01  7.44099468e-02]
   [-3.03495824e-01 -1.90490022e-01  1.14372410e-01  3.99669915e-01
     1.50035009e-01 -2.87180841e-02]]

  [[-2.71969318e-01 -1.31594300e-01  2.95080453e-01  2.48784408e-01
     5.53678311e-02 -2.99451858e-01]
   [-2.96202123e-01 -3.15206409e-01  3.93614918e-01  2.16737404e-01
    -3.61219615e-01  2.06595808e-01]
   [-2.80925725e-02 -2.72624403e-01  4.15003628e-01  2.77538687e-01
    -3.99980247e-02  3.88732880e-01]]

  [[ 1.74247503e-01  7.03613088e-02 -2.98893183e-01  2.79168785e-01
    -7.70856440e-03 -1.00874193e-01]
   [ 3.72937173e-01  1.13552876e-01 -2.62664825e-01  8.11941922e-03
    -9.52205509e-02  1.17836893e-01]
   [ 4.56208915e-01  7.39606842e-02 -2.60276794e-01  9.78044420e-02
    -1.22412704e-01  2.60388702e-01]]

  [[-8.35571587e-02  2.75853962e-01 -8.04581866e-02  2.76496917e-01
    -2.29936510e-01 -2.48517379e-01]
   [ 3.49896401e-02  2.19902676e-02 -1.81430072e-01 -3.43329787e-01
    -2.48508491e-02 -4.03134804e-03]
   [-2.25699961e-01  2.26556808e-01  6.34751692e-02 -2.67022699e-01
    -3.19980115e-01  2.71418571e-01]]]


 [[[ 8.17158446e-02  2.92179137e-01 -1.04356542e-01  2.05167279e-01
    -1.26426771e-01  1.17255792e-01]
   [-3.32722347e-03  1.33104920e-01 -3.39617789e-01  2.68303812e-01
     2.87691150e-02  2.01903358e-01]
   [ 1.15222624e-02  1.13567553e-01  2.38112584e-02 -1.30707398e-01
     3.96385789e-02 -9.43176523e-02]]

  [[-2.38017127e-01  9.80530828e-02 -1.27087042e-01  9.49070901e-02
    -6.58483058e-03 -3.03358108e-01]
   [-1.32714659e-01 -1.67576969e-02  1.37237599e-02  7.32319951e-02
    -7.66708329e-02 -1.92383409e-01]
   [-2.62147248e-01 -1.25277832e-01  4.99442103e-04  4.21151929e-02
    -8.96193907e-02 -1.38532534e-01]]

  [[-1.13421820e-01 -2.71391302e-01  3.50205541e-01  2.52346873e-01
    -1.59411272e-03 -3.20734739e-01]
   [-1.23314150e-01 -2.98877537e-01  6.45250604e-02  9.02017057e-02
     1.36253610e-01  1.53748974e-01]
   [ 2.13941008e-01 -2.66369820e-01  2.68564999e-01 -1.42390251e-01
     2.00982854e-01  2.18721300e-01]]

  [[ 1.08553164e-01  6.70148944e-03  1.17166191e-01  3.43177080e-01
    -1.70776367e-01 -3.91766012e-01]
   [ 1.45970732e-01 -1.52120143e-01  3.75899114e-03 -1.22896917e-01
     2.69847155e-01  1.23007230e-01]
   [ 3.01861703e-01  2.24300865e-02  6.20941594e-02 -2.22996727e-01
     2.11352006e-01  2.08001837e-01]]

  [[-9.96411815e-02  1.04144536e-01 -1.47673368e-01  3.86012405e-01
    -9.49739739e-02 -3.21935833e-01]
   [-7.18046799e-02  1.97864816e-01 -2.27182675e-02 -3.07258070e-01
     4.08001870e-01 -3.34021151e-02]
   [-3.82564478e-02  2.58072495e-01 -4.11511585e-02 -5.51151335e-01
     1.37977898e-01 -7.03709871e-02]]]]
base_model/conv2d/bias:0
(6,)
[ 0.05860693  0.17438978  0.08905495  0.30103177 -0.02322316  0.20672278]
base_model/batch_normalization/gamma:0
(6,)
[0.7586802  0.58081865 0.49688384 0.6749186  0.7963777  0.33741274]
base_model/batch_normalization/beta:0
(6,)
[-0.4123748  -0.27525803 -0.27767217 -0.55430347 -0.58243227 -0.04479573]
base_model/dense/kernel:0
(1536, 128)
[[-2.36302435e-01 -8.64088908e-02 -1.35868430e-01 -2.10417390e-01
  -1.16186231e-01 -1.28804566e-03  1.72171250e-01 -1.98275700e-01
  -8.98184478e-02 -8.86433423e-02  2.74353530e-02 -1.39960125e-01
  -2.76956052e-01  2.88605802e-02 -1.78540181e-02 -9.88110714e-03
   7.33461529e-02 -4.01435122e-02 -5.28428316e-01  8.03934112e-02
   5.14420420e-02 -4.19098437e-02 -2.25106895e-01 -1.20647684e-01
   3.12930159e-02 -1.96138218e-01 -9.60284993e-02  9.17026028e-02
  -1.05218872e-01  3.34792733e-01  1.79939762e-01  1.23588122e-01
   1.17926218e-01 -4.12241481e-02 -8.40304568e-02  1.25617191e-01
  -3.76002602e-02  7.32114464e-02  1.34272641e-02  8.07353333e-02
  -5.45712300e-02 -8.31430256e-02  1.84931923e-02 -7.67117217e-02
  -9.89187276e-04 -5.70386201e-02 -7.37439096e-02 -4.84483182e-01
  -2.39872877e-02 -2.92501859e-02 -3.01305018e-02 -6.41045347e-02
   2.94546150e-02 -3.69636267e-01 -1.81681651e-03 -3.02161202e-02
  -3.63678455e-01 -1.90887287e-01  1.71612486e-01  9.52490047e-02
  -1.67735592e-01 -5.33597395e-02 -9.14067216e-03 -2.07667783e-01
   2.51740664e-01 -2.03815550e-02  1.19731344e-01 -2.68220380e-02
  -3.15727317e-03 -3.24311145e-02  1.52860135e-01 -4.78817746e-02
  -5.13085313e-02 -1.37978509e-01 -4.11927653e-03 -3.81441712e-02
  -4.51968750e-03 -1.60563011e-02 -1.06117286e-01 -4.59467806e-02
  -2.97750495e-02  4.24016751e-02  1.58627808e-01 -1.59976512e-01
  -7.92632848e-02 -1.52168661e-01 -4.62595001e-02  1.33456752e-01
   2.65026748e-01  1.38481274e-01 -2.45991088e-02  9.26177353e-02
   1.45943358e-03  1.39357783e-02  1.22289717e-01  5.94854960e-03
  -4.43584025e-02  2.84762327e-02 -5.09305447e-02 -3.48431200e-01
  -3.98499407e-02  5.78364404e-03 -4.10529636e-02 -1.62885591e-01
  -4.45095971e-02  1.72183346e-02  2.77852267e-02 -5.24448156e-02
   2.05759928e-02 -5.61988465e-02  8.99273530e-02 -3.98953080e-01
   3.13245393e-02  2.50521123e-01  1.54159486e-01 -1.15409940e-01
  -5.91800809e-02 -4.68635745e-02 -9.37772393e-02  1.15438715e-01
   6.55354038e-02 -4.14590985e-02 -1.28190532e-01  2.12927535e-02
  -7.46832043e-02 -6.21830001e-02 -1.66784048e-01 -9.81812626e-02]
 [-1.10279232e-01 -1.41127699e-03 -1.56407095e-02  2.77417563e-02
   2.43128766e-03  8.29714835e-02 -5.32446615e-02 -5.37428185e-02
   7.37515390e-02 -5.40388003e-02 -3.10249496e-02  4.63401573e-03
   1.43358856e-02  4.03048173e-02 -3.61073166e-02 -7.50627276e-03
   2.77049653e-02 -6.99419677e-02 -1.81176096e-01  3.33293080e-02
   8.77822749e-04 -3.72847132e-02  3.78666166e-03 -2.13087052e-02
   7.50436932e-02  9.38203782e-02  1.72973855e-03 -3.32358219e-02
  -1.18985876e-01  8.23438391e-02 -5.80792390e-02 -1.68609584e-03
   8.50111693e-02  5.06669702e-03 -7.63067380e-02 -1.64627796e-03
   8.26804247e-03  7.43023604e-02  5.94457388e-02 -1.15101021e-02
  -5.87137267e-02  1.14749158e-02 -7.93595463e-02  6.55231476e-02
  -2.88532283e-02 -8.79656225e-02  4.70463708e-02  8.34437273e-03
   7.80644268e-03 -5.16486280e-02 -6.96574599e-02  1.50107555e-02
  -2.35887449e-02 -1.34668320e-01  2.12370232e-02 -2.51424406e-02
  -2.16834079e-02  7.58330524e-02  6.98675215e-02  6.61468953e-02
  -3.68535481e-02 -6.64302558e-02 -1.98400579e-02 -4.87026386e-02
   1.41093180e-01 -2.01582275e-02  1.36869758e-01 -3.78048383e-02
  -2.02522483e-02  2.50482988e-02 -5.95481694e-02 -1.68920159e-02
  -5.23307659e-02 -5.57169355e-02 -9.49416831e-02 -6.21753791e-03
   1.30076677e-01 -2.58278884e-02  8.17142650e-02 -2.00298280e-02
   5.74329644e-02  1.28888860e-01 -5.75112067e-02  5.44715635e-02
  -2.72070318e-02 -4.41780165e-02 -4.59825099e-02  2.52886601e-02
  -9.59079489e-02  4.16711047e-02 -8.00634846e-02  1.77779440e-02
   1.76040677e-03  8.11263025e-02 -7.41537660e-02 -6.85956925e-02
  -4.99743186e-02 -1.17498944e-02  1.44039139e-01 -1.61178559e-02
  -3.52634303e-02 -5.93738705e-02 -7.21332580e-02  4.68346775e-02
  -7.32387602e-03 -7.07159042e-02 -4.65254039e-02 -1.26669198e-01
   1.53322332e-02 -3.44554521e-02 -4.40864004e-02 -9.54962894e-02
  -2.52499692e-02  7.26378858e-02  3.20558846e-02 -1.08792232e-02
  -1.27224311e-01  1.15786970e-01  1.48064584e-01  1.63457319e-01
   5.48460074e-02  1.04640983e-03 -8.53169486e-02  1.61100074e-03
  -3.80057842e-02 -3.52745876e-02 -9.82452109e-02  1.13222837e-01]
 [ 1.32521585e-01 -5.06515102e-03 -1.96223676e-01  2.49011159e-01
   2.87076116e-01 -7.26124048e-02  1.49165377e-01 -1.81109697e-01
  -2.69591492e-02 -1.65081874e-01 -2.98548900e-02  6.10042736e-02
   7.58424401e-02  5.04771829e-01 -5.24783954e-02 -4.03671265e-02
   1.91835523e-01  4.14352380e-02 -4.50361997e-01  3.99162285e-02
  -9.65898708e-02 -6.92019239e-02  3.29296827e-01 -6.40929639e-02
   1.01893790e-01 -8.91943052e-02  7.50254169e-02 -6.72066808e-02
   1.29469067e-01  2.78914005e-01  2.64066011e-01 -7.36822039e-02
   1.35697708e-01 -6.43761307e-02 -4.88839000e-02  1.82816014e-01
  -6.89860880e-02 -6.90211430e-02 -2.32447967e-01 -9.08045694e-02
  -8.41895398e-03 -3.57707031e-02 -8.75773728e-02 -3.05646025e-02
  -3.50360796e-02 -4.38640565e-02  4.64002937e-02  1.96684331e-01
   9.87384748e-03 -1.27273118e-02 -5.39818406e-02 -3.52891982e-02
  -8.85457844e-02 -4.70442250e-02 -5.21638617e-03  3.36493962e-02
  -9.12113935e-02 -1.99548960e-01 -1.30571812e-01  1.61989793e-01
  -1.43809933e-02  3.90009671e-01 -1.23544643e-02 -7.07123727e-02
  -2.50247866e-01 -5.83610795e-02  8.73788223e-02 -6.61007389e-02
  -1.65817365e-02  5.60529670e-03  1.34007305e-01 -3.60189209e-04
   5.16461628e-03 -3.08079477e-02  2.29096495e-05 -1.54312015e-01
  -5.57699986e-03 -5.98753057e-02  2.83918530e-01  3.60819958e-02
  -2.52913862e-01 -7.33785518e-03  1.29866451e-01 -5.40962107e-02
   3.43959928e-02  1.24091737e-01 -8.47967193e-02 -3.13659459e-01
   9.74192992e-02  1.69037804e-01 -4.46156487e-02 -1.82343364e-01
  -2.61097532e-02  4.88596112e-01 -3.39670748e-01  6.14830712e-03
   4.26293835e-02 -6.07197843e-02  4.86755557e-02  1.13536514e-01
   1.15449596e-02 -2.02687271e-02  4.25776355e-02  1.59099028e-01
  -8.22012872e-02  4.49544098e-03 -9.92923230e-02 -2.46655270e-01
   3.13928314e-02  5.00783790e-03  2.68563271e-01  2.46830117e-02
   4.56683822e-02 -1.82119697e-01  3.32992643e-01  2.34374613e-01
  -5.64150065e-02 -2.08256945e-01 -2.57240862e-01 -4.17414159e-01
   3.05901676e-01 -2.61583924e-03  8.96067265e-03 -3.73892933e-02
  -4.40907888e-02 -3.48866626e-04 -8.22735801e-02 -2.30618984e-01]
 [-1.43006682e-01  1.52050760e-02 -4.04148251e-01 -1.80773854e-01
  -9.58219394e-02  8.51935521e-02  7.02314749e-02  1.37468457e-01
  -1.80331290e-01  9.98861715e-02 -5.02037294e-02 -2.26559460e-01
  -1.98929951e-01 -3.09082735e-02  1.89578876e-01 -8.04155841e-02
  -5.13041168e-02  1.28476515e-01 -1.93780541e-01 -1.92171216e-01
  -1.41263559e-01 -9.76517349e-02 -3.84755522e-01  2.41076965e-02
   6.84977844e-02  9.02204141e-02 -5.16180731e-02 -1.74655467e-01
   1.87908541e-02 -7.56786615e-02  1.87257424e-01  8.22046101e-02
  -1.18857220e-01 -4.67518568e-02 -3.47270928e-02 -3.34500313e-01
  -6.63567707e-02 -1.47683891e-02 -1.57598689e-01  8.09023753e-02
   4.39352542e-02  2.28842385e-02 -1.78832486e-02  9.68917832e-02
  -2.25632004e-02 -2.58485060e-02 -3.32274176e-02 -9.12580490e-02
  -2.20573992e-01  2.71613114e-02 -4.92548086e-02  5.62578859e-03
  -1.26499869e-02 -7.38447234e-02 -6.43919781e-02  1.72869731e-02
   8.23584795e-02 -2.57492453e-01  3.84873003e-01  1.69348493e-02
   5.76660112e-02 -9.81579870e-02  3.84571054e-03  4.10807021e-02
   1.46282360e-01 -5.45771420e-02  2.39218865e-02  5.51861478e-03
   9.62086022e-03  4.97584231e-02  2.13094294e-01 -4.58775386e-02
   2.40091160e-02 -1.03877364e-02 -5.31766303e-02  1.16570573e-02
  -1.48089066e-01 -1.85582461e-03  1.61845773e-01  1.95890795e-02
  -4.18698601e-02 -1.28101483e-01  1.38163880e-01 -1.46125972e-01
  -3.16111706e-02 -3.43261719e-01 -5.23620322e-02 -1.67925134e-01
  -7.88002908e-02  7.43187498e-03  2.87578925e-02  1.19338512e-01
  -2.35375157e-03  1.95394203e-01  2.77730763e-01 -5.38988821e-02
   1.06691636e-01  1.96758509e-02 -1.85960695e-01 -1.55938238e-01
  -8.38163495e-02  1.30366127e-03 -1.91481002e-02 -2.91289669e-02
   1.47948777e-02  3.83414216e-02 -4.72147278e-02 -2.50169039e-01
  -3.11805867e-02 -4.98282164e-03  5.38130775e-02  8.01031142e-02
  -7.95586929e-02  2.29880750e-01 -8.67004097e-02 -1.83648378e-01
  -4.70697246e-02  3.08812678e-01 -6.87962994e-02  4.20367457e-02
  -5.24923086e-01  9.49540362e-03 -9.30916145e-02  3.25919315e-02
   5.48340306e-02 -1.43851697e-01  5.02301715e-02 -1.47473887e-01]
 [-3.82056646e-02 -9.59264673e-03  2.74416387e-01 -6.89419955e-02
   1.95344444e-02  3.70974792e-03 -3.97557259e-01 -8.91944766e-02
  -3.38031314e-02 -1.31448343e-01 -3.47699933e-02 -8.93392041e-02
  -2.69910216e-01 -7.01679885e-02 -1.72383621e-01  2.74303593e-02
   2.92542428e-01  3.49328339e-01  1.03465073e-01  2.34797522e-01
  -4.14265431e-02 -4.01654802e-02  9.14570764e-02  2.21125111e-01
   4.77041364e-01  2.52791673e-01 -1.59675628e-01  2.95689493e-01
  -8.41549262e-02 -6.89037591e-02  1.08761705e-01 -4.77362685e-02
   1.03724085e-01 -1.13887554e-02 -3.36907879e-02  1.52978301e-01
   4.91602272e-02 -1.83325708e-01 -5.00533134e-02 -3.12005073e-01
   3.22050676e-02 -3.99932079e-02 -8.00719019e-04  8.27549607e-04
  -7.22634792e-02  4.77744341e-02 -1.86428934e-01 -1.69416443e-01
  -5.20560980e-01  5.14164045e-02  2.68841279e-03 -5.18010184e-02
  -3.54254954e-02 -3.32226396e-01  7.06289662e-03 -6.48991987e-02
  -4.88918610e-02  7.72627443e-02 -1.11495517e-01 -6.90722838e-03
  -7.75391534e-02 -1.80260584e-01 -3.73386219e-02 -1.64201055e-02
  -9.48184822e-03 -3.19126085e-03 -2.33520076e-01 -1.38213392e-02
  -1.70462593e-01  2.06545576e-01 -4.48372290e-02 -4.61667515e-02
  -4.98069860e-02  1.01047218e-01 -5.00840731e-02 -5.95569536e-02
  -3.72989662e-02  3.16792317e-02  4.18790542e-02  3.96681875e-02
  -4.88287061e-01 -3.68577182e-01  4.59453464e-02 -2.29478702e-01
   2.93742977e-02 -8.30208585e-02 -4.77996580e-02 -1.68493018e-02
  -7.80093446e-02  2.58248806e-01 -3.72066647e-02  9.21791121e-02
   2.02560034e-02 -2.39634171e-01 -1.99170008e-01 -5.91319473e-03
   1.06640972e-01 -4.85786051e-03 -4.36086953e-02 -1.30856978e-02
  -5.48532903e-02 -3.88338305e-02 -3.42489081e-03 -1.17723517e-01
   5.69002666e-02 -5.75800939e-03  4.35886439e-03 -3.49220037e-01
   1.41240777e-02 -1.29345721e-02  4.08296809e-02  7.44251010e-05
  -4.10175979e-01  3.43530685e-01  9.98800900e-03  3.70591640e-01
  -8.17998350e-02  3.34928870e-01  6.03497736e-02 -9.59021449e-02
   4.74603921e-02 -3.23341936e-02  1.25198057e-02  2.31472850e-02
  -6.92180023e-02  5.09153903e-01 -4.24872264e-02 -1.01728991e-01]
 [-4.71667379e-01 -4.11027670e-02 -1.18526176e-01  1.87929258e-01
  -3.65769565e-01  3.19951028e-02  6.03743754e-02 -1.67943373e-01
   8.92321393e-02 -1.72951147e-01 -6.96544349e-02  8.03078525e-03
   6.19897187e-01 -1.37417028e-02 -2.12480173e-01  9.52337310e-03
   2.24637553e-01  1.08559042e-01 -2.56846577e-01  2.27890052e-02
  -1.50629774e-01 -4.87181246e-02 -3.79073977e-01 -3.60688940e-02
  -1.82243302e-01 -2.94954598e-01  1.52135596e-01 -4.97618467e-02
  -8.46961215e-02  7.07234666e-02 -5.30914739e-02  3.02737821e-02
   6.18334971e-02 -1.84779502e-02 -4.34902683e-02  5.90407178e-02
  -2.82681026e-02 -2.73414791e-01  1.58697199e-02 -1.06131442e-01
   3.75709087e-02 -2.72984756e-03 -8.95591546e-03 -1.52577728e-01
   1.33118778e-02  2.65680123e-02 -1.08785704e-01 -2.98370928e-01
   8.07604417e-02  1.97709305e-03 -7.06270710e-02 -3.41861062e-02
   9.71170962e-02  1.48948267e-01  8.08320940e-03 -4.15444039e-02
  -2.41396621e-01  1.08083889e-01 -1.65901527e-01  2.38846555e-01
   3.39558244e-01  1.31274998e-01 -6.57993853e-02  9.01633054e-02
  -3.63461643e-01 -2.50229030e-03  7.27581456e-02  5.63398376e-02
  -5.19388542e-02  1.09971665e-01 -2.55153269e-01  1.01350397e-01
  -1.79284588e-02  6.87061846e-02  4.75586131e-02  2.55673736e-01
  -1.55847952e-01 -2.82948297e-02 -4.94049042e-02 -3.29495035e-02
  -5.89074334e-03  5.97849749e-02 -5.02943218e-01 -7.76852965e-02
  -4.51811552e-02  1.27870709e-01 -7.84338787e-02  6.22299127e-02
   1.16631299e-01 -4.98264760e-01  4.77918088e-02 -2.49190375e-01
   4.97924946e-02 -3.53303373e-01  7.04929531e-02  3.63497809e-02
   1.24425655e-02 -5.18296026e-02 -1.91879198e-01 -3.47801030e-01
   2.82941982e-02  3.53074893e-02  7.09883776e-03 -4.17356677e-02
   4.51416299e-02 -5.55623658e-02 -5.38193621e-02  1.41381323e-01
  -6.83573261e-03 -4.18300778e-02 -3.17472100e-01  1.67307869e-01
   1.68641150e-01 -2.12557822e-01 -2.36871094e-01 -1.47646755e-01
  -3.40232067e-02  1.41725438e-02  1.35943130e-01  8.30799639e-02
  -2.25685254e-01 -3.00590191e-02  5.44105247e-02 -6.14259467e-02
  -1.15134507e-01  1.23470604e-01 -2.42226735e-01  8.29833671e-02]
 [-1.35165662e-01 -3.50180618e-03 -1.05533503e-01 -2.02239960e-01
  -1.80664938e-02 -1.73600659e-01 -5.22581078e-02 -8.15396011e-02
  -5.10908198e-03  8.15751329e-02 -2.21350789e-02 -2.39963129e-01
  -3.90715122e-01  1.95355698e-01  9.76117253e-02  2.96563823e-02
  -3.94185692e-01 -4.87236567e-02 -1.61191314e-01 -2.88328320e-01
   5.77069148e-02 -5.02253883e-02  1.18359514e-01 -4.89955023e-03
  -6.02642119e-01  1.18529364e-01 -2.13570088e-01 -2.03154206e-01
  -4.15008813e-02  5.36891878e-01 -2.35936910e-01 -6.50916398e-02
  -5.43865040e-02  3.15046385e-02 -3.73505540e-02  2.28659198e-01
  -1.95204075e-02  5.97204529e-02 -1.54155269e-01 -1.57183424e-01
   1.55947525e-02  2.81612985e-02  2.23379675e-02 -1.46375924e-01
  -6.73637465e-02  4.80974242e-02 -4.20163721e-01 -3.13649178e-02
  -9.27000791e-02  6.10698434e-03 -3.37593406e-02  5.28517924e-02
  -2.32141949e-02  1.61331102e-01 -1.55215915e-02 -6.26818016e-02
  -8.92095454e-03 -2.04271972e-01 -2.81047761e-01 -5.03052063e-02
   9.07391161e-02  1.56057253e-01  2.74591036e-02  9.14121419e-03
  -2.60653645e-01 -1.50163416e-02  3.81922349e-02  2.12122016e-02
  -4.78871576e-02 -2.45404914e-01  7.57672191e-02  5.52968122e-02
  -4.09907289e-02  2.30054229e-01 -4.56117839e-02  2.12245852e-01
   1.08888350e-01 -1.40554691e-02  1.70228437e-01 -4.54157330e-02
  -5.95524386e-02 -1.45391867e-01  1.02412358e-01  2.99610272e-02
   3.59044038e-02  2.33258888e-01 -4.52990271e-02  1.48423538e-01
   6.11282140e-02  1.60638034e-01 -6.59695566e-02  2.90703923e-02
  -2.01440640e-02 -2.85449773e-01  9.31715444e-02 -3.94812366e-03
   1.44201472e-01 -1.60683170e-02  1.38690397e-01 -1.56511575e-01
  -8.51384029e-02 -5.17986529e-02  1.60195176e-02 -4.46223058e-02
   5.24091832e-02  6.42540231e-02  1.35025242e-03 -1.14208452e-01
  -4.49813828e-02 -6.10989444e-02 -4.35892016e-01 -1.86016440e-01
  -3.83132786e-01 -2.49412566e-01  1.65704302e-02  4.49036099e-02
  -4.23657484e-02  2.43703142e-01  1.09635115e-01 -2.63304681e-01
   9.88613442e-03 -2.58946419e-02  5.27503602e-02 -1.54922083e-02
   7.75299519e-02  8.80606771e-02  9.68163535e-02  5.89833483e-02]
 [ 1.17400080e-01 -1.79752801e-02  4.88445342e-01  9.28829014e-02
   7.09816292e-02 -1.04100272e-01  6.78367391e-02  1.06180675e-01
   1.92874938e-01  3.11331987e-01 -1.18365781e-02 -1.90064475e-01
  -2.37667747e-02 -3.45958501e-01  2.37704724e-01  3.93457897e-02
  -9.66792524e-01 -3.18956792e-01  4.02038880e-02  9.20280407e-04
  -2.32206523e-01  1.16869710e-01  6.71842098e-02 -1.99729845e-01
  -3.93746793e-01 -1.33195132e-01 -4.23549414e-02  4.29611243e-02
  -1.57392263e-01  1.46708548e-01  4.40087467e-02 -1.40275761e-01
   5.22088528e-01 -5.69935068e-02 -1.41753964e-02  1.28179327e-01
   6.16825521e-02  1.39833596e-02 -8.21725786e-01 -1.55090854e-01
  -1.56217627e-02 -7.04807639e-02 -6.70370907e-02 -2.63783336e-01
  -2.46882588e-02 -3.60881118e-03 -5.92021704e-01  2.34908551e-01
  -3.00071001e-01  2.81318463e-02 -2.03619767e-02 -4.29491103e-02
   5.00553707e-03 -2.45292231e-01  2.05472764e-03 -1.63235813e-02
  -3.16446796e-02  1.19503073e-01 -2.55306691e-01  1.52136177e-01
  -4.95358199e-01  3.13526809e-01  4.01137173e-02 -9.15264152e-03
  -2.22018182e-01 -5.35612740e-02 -6.68019652e-02 -3.33178490e-02
  -4.51504216e-02 -4.85991299e-01 -2.35439971e-01 -4.06417958e-02
   2.23769061e-02  2.13891536e-01  4.16382402e-02 -5.57883419e-02
  -1.67904243e-01  8.48505355e-04  1.53570846e-01 -5.76283336e-02
  -1.34126768e-01 -3.18661928e-01  5.04868925e-01 -2.07165666e-02
  -2.62305909e-03  4.42740917e-01 -2.49384623e-02  3.69658530e-01
  -3.97403389e-02  3.38628501e-01  2.57718731e-02  2.05295399e-01
  -4.52047773e-02 -7.98805118e-01  4.28857561e-03 -2.66437070e-03
   2.47244880e-01 -3.94945890e-02 -2.58233875e-01  4.51317057e-02
  -3.17015424e-02 -4.89808954e-02 -1.76681951e-02 -3.68327439e-01
  -2.80797705e-02  6.18662275e-02 -3.06611974e-03  7.02513009e-02
  -5.61159104e-02 -6.34873286e-02 -2.47223541e-01  1.45959079e-01
  -2.68497884e-01 -1.74967244e-01 -3.12236678e-02  1.61871210e-01
  -1.02764562e-01  2.52079219e-01  2.91419595e-01 -5.47258973e-01
  -7.08387047e-02 -3.16548385e-02  1.33231029e-01 -9.64165553e-02
  -9.66361016e-02 -1.50350099e-02  2.98330963e-01 -1.36649862e-01]
 [ 1.20805383e-01 -3.61400284e-02 -8.37493315e-02  4.84050624e-02
   9.20764282e-02 -2.23309658e-02 -1.89881697e-01 -1.45835686e-03
   9.61039960e-02 -3.07277650e-01 -6.10331830e-04 -2.04875872e-01
   1.20948561e-01 -3.64273712e-02 -1.52520254e-01 -1.32152950e-02
   4.55389880e-02  2.44419221e-02 -2.60322183e-01  1.29658028e-01
   2.03868285e-01 -4.62872908e-02  6.82963282e-02  3.24547023e-01
   2.01053709e-01 -6.08917251e-02 -2.62917280e-01  4.99849319e-02
  -2.28741467e-02  1.94818415e-02 -1.19956322e-01  2.62369454e-01
   3.86185557e-01  2.90975869e-02  6.74200570e-03 -3.06211919e-01
  -7.89042711e-02  3.54392797e-01 -7.38669038e-02 -6.03366613e-01
  -5.40648513e-02 -1.64496293e-03 -6.82882667e-02 -9.09393355e-02
  -4.15664539e-02 -6.26300052e-02  3.67772549e-01 -3.28848749e-01
   2.61355788e-01 -5.13019133e-03 -7.53718764e-02  2.86682192e-02
  -4.84147370e-02  3.43301475e-01 -3.30544189e-02  1.79027859e-02
   3.59410867e-02  1.47763789e-01  1.91075757e-01  1.42023012e-01
  -2.45580915e-02 -7.36050755e-02 -3.87351774e-02  2.46812016e-01
  -2.82353491e-01  2.25003771e-02  6.55050278e-02  9.92936641e-03
   8.43170378e-03 -9.57348794e-02  2.30898604e-01 -3.11255660e-02
  -4.14435305e-02  6.46979362e-02 -1.37568777e-02  4.74116392e-02
   2.95773566e-01  7.50561303e-04  5.22693712e-03 -1.84312873e-02
  -3.55369151e-02  2.14026034e-01  1.56511545e-01  2.69059706e-02
   1.14317900e-02  6.55769482e-02 -3.32800783e-02  1.63836583e-01
  -1.07063949e-01 -1.38970166e-01 -6.89578950e-02 -2.52028983e-02
   1.51982659e-03  1.64231330e-01 -1.18260877e-02 -3.03551350e-02
  -1.77817568e-01  3.43569592e-02  6.90126494e-02  9.87310037e-02
   2.49209553e-02 -3.28075048e-03  3.20391767e-02 -2.78978497e-01
  -3.01753748e-02 -4.33097407e-02 -5.19635007e-02  2.12922961e-01
   3.09157223e-02  1.96799003e-02  3.21962476e-01 -1.73938051e-01
   1.18454844e-01 -1.33426055e-01 -3.95401642e-02 -2.31176004e-01
  -7.37079456e-02  8.83660689e-02  1.77826405e-01 -1.10083774e-01
  -1.49252191e-01  1.88036971e-02  3.71725447e-02 -5.87736331e-02
  -6.40936941e-02  2.76748445e-02  1.16492890e-01  8.19273442e-02]
 [ 2.69536898e-02 -7.82666653e-02 -1.64510071e-01 -3.06970686e-01
  -7.34270513e-02  9.79136750e-02  6.85924804e-03  7.62459561e-02
  -3.19766372e-01 -2.32289866e-01 -5.00373356e-02 -1.51086703e-01
  -4.65111174e-02 -1.88410997e-01  6.08268529e-02 -2.41217297e-02
   9.04612839e-02 -2.26382360e-01 -1.20372564e-01 -1.00003950e-01
  -3.77629176e-02 -9.26967114e-02 -1.11401230e-01 -1.95434652e-02
  -1.71489090e-01  1.13547578e-01 -2.06877753e-01 -1.32934704e-01
  -1.22126065e-01  1.91628426e-01 -1.50807530e-01  4.52711992e-02
   2.56248802e-01 -3.94642055e-02 -3.85598093e-02 -3.17550480e-01
  -9.86512005e-02 -1.85049221e-01 -2.14479238e-01  9.19049531e-02
   1.60873234e-02 -4.51195203e-02  1.26244100e-02  1.07801221e-01
  -2.09360253e-02  2.60501076e-02 -8.64723623e-02 -7.47908056e-02
   1.99342566e-03 -6.84060529e-02  2.41980162e-02 -1.73626952e-02
  -1.50450738e-03 -2.61860311e-01  7.39176944e-03 -3.45979631e-03
   7.75939301e-02 -2.51421779e-01 -6.82441518e-03  6.75975345e-03
   5.62361069e-02  1.05986901e-01  1.25211561e-02  2.48403639e-01
  -9.95819718e-02 -4.82637174e-02 -6.11587688e-02  4.18345593e-02
  -9.95037407e-02 -5.03681451e-02  5.28883561e-02  2.89477268e-03
  -7.30155110e-02 -1.27020374e-01 -7.55324215e-02 -5.42348996e-02
  -1.08622074e-01 -3.92403789e-02  1.18504256e-01 -2.61106025e-02
  -2.04194058e-02 -2.22565401e-02 -6.05448056e-03 -2.69979864e-01
   7.76206609e-04 -2.53266692e-01 -1.88847575e-02 -8.68192241e-02
  -1.41393721e-01  3.57197449e-02 -9.53504518e-02 -1.38634145e-01
  -1.43583436e-02 -3.10945481e-01  7.44527206e-02  4.99331877e-02
  -2.96471268e-03 -6.93984032e-02 -8.50778967e-02 -1.84189543e-01
   2.62648147e-02 -7.80605478e-03  2.73673441e-02  2.14011759e-01
  -5.33483587e-02 -6.62305430e-02  2.73505673e-02 -1.34806484e-01
   4.11712890e-03 -5.38931526e-02 -9.66951028e-02  1.58350430e-02
   1.14258975e-01 -2.22970801e-03  3.48402485e-02 -9.16275457e-02
  -2.29499340e-02  5.19256219e-02 -4.95515391e-02 -4.52777632e-02
  -3.51668715e-01 -1.74097903e-02 -2.03541204e-01  7.12187588e-02
   5.83865494e-02 -1.98669285e-01  9.25699249e-02 -2.34270636e-02]
 [-2.23887891e-01  3.68589275e-02  2.59478897e-01 -3.34987044e-01
  -3.21853608e-01  4.17391919e-02 -2.50745088e-01 -2.28231713e-01
   4.54245135e-02 -3.10008466e-01 -6.02674522e-02 -3.31450216e-02
   4.36553694e-02  3.04546773e-01  1.62101731e-01  4.68613580e-02
   2.77934730e-01 -1.49237841e-01  1.93504512e-01 -1.85646281e-01
   2.63041615e-01 -1.12049527e-01  2.08044678e-01 -1.49780577e-02
  -1.39265016e-01 -7.00763017e-02  3.02727640e-01  1.42146006e-01
   1.07417241e-01 -1.32138684e-01  3.16033244e-01  2.43879467e-01
  -2.50538826e-01  3.94314155e-02 -5.60879074e-02 -8.89508501e-02
   5.26059121e-02  2.83893012e-02 -4.06078428e-01 -3.63465011e-01
  -3.29357609e-02  2.77248118e-02  3.81601751e-02 -6.78249300e-02
  -1.20737795e-02 -1.16327358e-02  2.47424752e-01 -2.71365643e-01
  -2.70041019e-01 -3.05479895e-02 -4.25786972e-02 -3.34740407e-03
  -3.38897184e-02 -4.27539647e-01 -5.99617697e-02 -1.03376638e-02
   8.00005570e-02 -3.28814164e-02 -5.15766323e-01 -6.19950481e-02
  -2.48721898e-01 -3.97161156e-01  1.27597256e-02  5.10241427e-02
  -5.13458736e-02 -3.15372311e-02 -1.50809392e-01  1.92640070e-02
  -1.05784796e-01 -9.44619775e-02  2.13759691e-01  1.68373098e-03
   3.17076184e-02 -3.38185243e-02 -5.84213473e-02 -1.80510119e-01
  -1.15290068e-01  1.96842086e-02 -1.34158000e-01 -6.20112345e-02
  -1.28857434e-01 -1.22910589e-01 -8.83412957e-02 -3.32757354e-01
  -2.20127590e-02 -4.01880980e-01  3.65757085e-02 -1.37337118e-01
   1.92894757e-01 -1.43861845e-01  4.13663313e-02  2.81541288e-01
  -4.06112336e-02  3.12791020e-02 -1.00460693e-01 -5.19093312e-02
   3.88902694e-01 -4.86221872e-02  7.14944378e-02  2.71137990e-02
  -2.69793812e-02  3.63888443e-02  4.41583572e-03 -9.01845247e-02
   4.47976105e-02  4.29657334e-03  2.71461364e-02 -5.13962209e-01
  -6.32097423e-02 -4.99552302e-02 -5.37298679e-01  1.31229877e-01
   2.96531051e-01 -1.31457344e-01  1.89273898e-02  1.82002619e-01
  -1.84672698e-02 -2.63541222e-01  2.02826470e-01 -1.57691687e-01
  -2.89024413e-01 -2.35574283e-02 -7.15159774e-02 -6.25805929e-02
   1.51799843e-02  3.95791382e-01 -1.32324278e-01  8.63344669e-02]
 [-1.87072918e-01 -2.11486407e-02 -2.78075725e-01 -5.20986617e-02
  -2.64729202e-01 -1.26246437e-01  1.05666697e-01  5.63921392e-01
  -9.77512673e-02 -2.81638324e-01  1.66965686e-02  1.60828680e-02
   3.60454023e-01 -5.61120689e-01  2.41710290e-01 -8.13473668e-03
   2.28073835e-01 -3.16429913e-01  2.87264168e-01 -3.36884484e-02
  -2.51226872e-01 -3.20232324e-02 -1.71987474e-01  2.31261298e-01
  -3.53504747e-01  8.48955736e-02  2.89807856e-01 -1.28320038e-01
   5.99607788e-02  7.32784644e-02 -1.79911911e-01 -3.19610506e-01
  -1.52962655e-01  4.42976952e-02 -2.13358328e-02  2.86735833e-01
   6.82190210e-02 -5.21324277e-02 -2.10639775e-01  2.42832508e-02
  -3.08490749e-02  5.54030351e-02 -5.24015762e-02 -1.07109547e-01
  -7.32893497e-03 -4.24692854e-02 -3.47421527e-01 -1.34284735e-01
   4.03903276e-02 -1.68228354e-02 -6.22576289e-02 -2.63572372e-02
   5.62049598e-02 -3.11126355e-02 -5.95616512e-02 -4.63902112e-03
  -2.16374874e-01 -3.81878130e-02 -4.01263475e-01 -2.79834811e-02
   4.34342586e-02  2.61514455e-01 -1.82088390e-02  4.97694075e-01
  -4.42854732e-01 -4.01423015e-02 -1.98489219e-01 -3.76821496e-02
   1.70601234e-02  3.75193134e-02 -5.81858456e-01 -3.27855237e-02
  -2.28123218e-02  4.41515725e-03  2.58332049e-03  1.12279050e-01
  -1.31168723e-01  6.58514500e-02  3.52345640e-03 -3.36794518e-02
  -4.10309993e-02 -3.27107906e-02 -7.69511461e-01  1.02165312e-01
   5.92874475e-02  3.30099016e-01  1.01944776e-02  2.29385808e-01
  -1.36101395e-02 -6.82832539e-01  3.66613315e-03 -3.67145598e-01
   7.07834810e-02  1.17272228e-01  1.97324723e-01 -3.04665659e-02
  -7.81164020e-02 -4.23630513e-02 -1.76752076e-01  3.67244184e-01
   3.69196609e-02 -4.55198288e-02 -3.02524883e-02  2.41269827e-01
  -3.37097421e-02  2.76807174e-02  1.81508120e-02  4.38421339e-01
   1.99612416e-02  3.32902074e-02 -3.88756730e-02  1.42526291e-02
   2.34163210e-01 -4.61976796e-01 -1.00257017e-01 -1.21469311e-01
   2.03354545e-02 -4.68074471e-01  3.91098738e-01  4.62048277e-02
  -6.58552051e-02 -3.52798402e-02  1.27801806e-01  7.07907230e-02
   3.11489683e-02 -1.71723634e-01 -5.29054105e-01 -1.23144716e-01]
 [ 5.60983606e-02  4.07291166e-02  3.85245949e-01  2.64604896e-01
  -9.45889726e-02  3.03902060e-01  2.82056242e-01  2.26383507e-01
  -1.94768161e-01 -2.83699900e-01 -2.33091391e-03 -4.01344508e-01
   2.38993406e-01  5.23195639e-02  7.26107955e-02 -3.58361937e-02
   2.00990558e-01  1.36566937e-01 -4.20355231e-01 -1.07483678e-01
  -3.61290604e-01 -4.46020737e-02  5.11230677e-02  3.63249272e-01
  -4.47323561e-01 -2.64603227e-01 -1.86485246e-01  2.73423105e-01
   2.26322338e-01  1.78571522e-01 -1.72262177e-01 -5.53730950e-02
  -1.15751237e-01  2.32213791e-02 -2.12606154e-02 -4.46395241e-02
  -3.77552733e-02  1.72786787e-02 -7.75878310e-01  1.90426037e-01
  -6.15438186e-02 -3.42657715e-02  5.87111805e-03 -6.89589679e-02
  -5.37002943e-02 -5.28217182e-02 -4.16215986e-01 -3.73189598e-01
   1.36969373e-01 -6.92933574e-02 -6.59460053e-02 -4.47062030e-02
  -5.39946258e-02  5.82095645e-02 -2.11472046e-02  3.49797532e-02
   3.69856507e-02 -3.36632460e-01 -6.92410991e-02  1.11925751e-01
   2.75173217e-01  1.44293576e-01 -6.15042448e-02  5.86794242e-02
  -2.15697661e-01 -3.99123020e-02 -9.78662074e-02 -7.18707666e-02
   3.92013453e-02  2.09851071e-01 -1.23549446e-01  2.56712325e-02
   1.53289735e-03 -6.30902797e-02  3.34523208e-02 -8.44352990e-02
  -8.94138888e-02  2.51414254e-02  8.31495151e-02  2.93438509e-02
  -1.49680898e-01 -4.83824126e-02  4.83644679e-02 -1.60661891e-01
   4.79027741e-02  2.35637605e-01  4.37523276e-02  5.26295118e-02
   2.20415667e-01  3.86143863e-01 -8.73815790e-02  9.89709370e-05
  -4.74896766e-02 -4.34425613e-03  6.60595624e-03  3.14978398e-02
  -1.13934167e-02 -2.20829695e-02  5.00219576e-02 -3.71685773e-02
   3.72049287e-02 -5.69100305e-02 -5.20884432e-02 -3.59886080e-01
   1.83319033e-03 -3.15278508e-02 -1.23236328e-01  1.69049263e-01
   2.55478304e-02  3.41802761e-02 -3.62235844e-01  2.39490584e-01
  -4.78393435e-01  6.09326623e-02  2.39674941e-01 -2.59979125e-02
  -4.22458947e-02 -2.22865894e-01 -2.18951598e-01 -4.51093167e-01
  -2.69117147e-01 -3.42858434e-02 -1.03009254e-01 -8.19564164e-02
   7.58688524e-02 -8.65286663e-02  7.63173625e-02 -1.22854717e-01]
 [-1.19240575e-01  2.66940948e-02  2.77750462e-01  1.65672362e-01
  -7.47911930e-02 -3.69205419e-03  1.25210479e-01  7.62864426e-02
   5.84873743e-02  3.21254820e-01 -4.44708541e-02  1.12170987e-02
   6.57017082e-02  1.16135208e-02 -4.22883146e-02 -5.48965670e-02
  -6.37763977e-01  1.35531873e-01  9.51383859e-02  1.26222640e-01
  -9.70580503e-02  1.83048055e-01 -5.19802682e-02 -5.30079231e-02
  -6.43560588e-01 -1.87568367e-01 -1.84495300e-02  1.91577896e-01
   4.30475511e-02 -4.88706864e-02 -1.45105451e-01  8.92817825e-02
   3.28087449e-01 -8.42214301e-02 -4.21755873e-02 -4.38301057e-01
   9.33536291e-02  3.13558757e-01 -7.28631794e-01 -2.17473134e-01
   2.71604471e-02  3.46828997e-02  5.10018840e-02 -1.09929040e-01
  -4.67852764e-02  1.19597716e-02 -3.80832553e-01  3.96598950e-02
  -5.84560484e-02 -6.69965222e-02  3.03810704e-02 -2.38738041e-02
   1.58561599e-02  1.13056310e-01  5.17165242e-03 -2.31389273e-02
   1.59578491e-02 -9.20569897e-02  7.16364458e-02  2.28234813e-01
   1.11998007e-01 -4.41801772e-02  2.15905253e-02  2.52029717e-01
   2.04603486e-02  1.51404403e-02 -3.05894539e-02  5.50121441e-03
   3.77700888e-02 -1.48777366e-01 -3.14498067e-01  4.63027060e-02
   4.67795879e-02  3.37179512e-01  3.47529054e-02  1.36478245e-01
   2.33633090e-02 -9.69053153e-03 -9.41585079e-02 -1.90124083e-02
  -7.39755556e-02  2.23376736e-01  2.15041742e-01 -1.64342783e-02
   3.39323431e-02  4.75522637e-01 -4.17666696e-02  3.90780866e-01
   1.10127985e-01  3.36881757e-01  7.96091482e-02 -7.19629675e-02
   4.48846854e-02 -7.76075661e-01 -7.57128373e-03 -5.92992790e-02
   1.28181294e-01  5.11411838e-02 -2.81231284e-01  1.88564938e-02
  -1.20885056e-02  1.33878849e-02 -6.42128065e-02 -3.89576674e-01
  -4.55070771e-02  5.42352870e-02 -1.43063711e-02 -1.17146708e-01
   1.29366908e-02 -2.48145987e-03 -8.54212493e-02  1.95971131e-01
  -1.78134799e-01 -2.53560305e-01 -7.35731274e-02  7.64835626e-02
  -5.93360960e-02  9.97530445e-02  2.60812551e-01 -3.23670655e-01
  -3.15957308e-01 -2.04667542e-02  1.73584878e-01 -5.69128431e-02
  -1.64911091e-01  2.82872945e-01  2.10257262e-01  1.51412245e-02]
 [ 1.08698577e-01 -4.86897901e-02 -9.51250270e-02  2.45255291e-01
  -1.94387943e-01  2.56907810e-02  5.03952727e-02  1.09141372e-01
   7.48671517e-02  5.36201745e-02 -8.55106413e-02 -2.27802843e-01
   1.96796894e-01  8.34233239e-02 -8.62035602e-02 -2.33146194e-02
  -3.37338932e-02 -2.61005796e-02 -3.87808941e-02  8.52002129e-02
  -9.17073637e-02  1.00068346e-01  1.74614191e-01 -1.26820520e-01
   1.89845905e-01 -1.76970169e-01 -1.85711868e-02 -8.87936428e-02
   8.19327831e-02  1.69354066e-01  2.66664296e-01  2.22185314e-01
  -1.09732719e-02 -2.19086098e-04 -8.50476772e-02 -3.46703678e-02
  -4.81026024e-02 -5.47581166e-03 -4.79295284e-01  8.06850102e-03
  -5.56126190e-03 -2.53052991e-02  5.98021597e-02  1.49098113e-02
  -3.45821753e-02 -9.39959064e-02 -9.72438790e-03 -4.25409496e-01
   1.87149998e-02 -4.00307477e-02 -2.52424367e-02  5.16696945e-02
  -5.35169654e-02 -3.34668905e-02 -7.84599856e-02 -5.14598936e-02
   1.21432386e-01 -1.90930367e-02 -2.62119416e-02  8.90659839e-02
   7.87023529e-02  2.83223033e-01  2.14839876e-02  7.28124306e-02
   3.67691249e-01  1.25117702e-02 -1.47952497e-01 -6.02854826e-02
   1.85777973e-02  1.93461061e-01 -1.71933636e-01  3.17282416e-02
  -2.16359738e-02 -1.09779574e-02  4.05016914e-02 -2.37719834e-01
   4.15213376e-01 -4.55439053e-02  1.86278895e-01  1.33317960e-02
   2.16831472e-02 -3.90389562e-02  2.72821095e-02 -4.67967272e-01
   1.53005254e-02 -6.05467856e-02 -1.11369723e-02 -8.66252780e-02
  -2.23203927e-01  2.78812140e-01  3.41961347e-02 -5.31852618e-03
  -5.67478500e-02  4.27065670e-01 -1.13885969e-01 -6.68643117e-02
  -2.39297390e-01  1.82946548e-02  3.23086590e-01  5.58360033e-02
  -6.97637647e-02  2.58264411e-02  6.39604917e-03 -1.35087892e-01
  -2.05706656e-02 -2.02449244e-02 -7.82165229e-02 -5.27493805e-02
  -9.67098493e-03 -6.34602755e-02 -4.25937593e-01  1.34951770e-01
  -2.59109706e-01 -3.66355419e-01 -2.37992704e-02  1.93738461e-01
   2.20520198e-02 -3.04285109e-01  2.81859428e-01 -5.06854594e-01
  -3.66719663e-02 -4.00769636e-02  9.97832268e-02 -9.81839374e-02
   5.26552089e-02 -9.17861424e-03 -1.15329675e-01  1.53231159e-01]
 [-4.78193015e-02 -3.51761915e-02 -4.10164654e-01 -4.35118936e-02
  -2.69267470e-01 -1.75753012e-01 -4.96403165e-02 -1.27469778e-01
   4.64271428e-03  1.54941991e-01  7.78236380e-03 -2.25954130e-01
  -4.29445691e-02 -2.50864118e-01 -1.35270700e-01  4.72233854e-02
   6.43631294e-02 -1.72515094e-01 -2.02161074e-01  4.98171747e-02
   2.48494834e-01 -3.21661159e-02 -5.54082403e-03 -1.31094204e-02
  -1.12407714e-01  1.50558427e-01 -1.66905299e-01 -1.91105172e-01
   4.00773995e-02 -1.72378886e-02 -1.76887378e-01  9.73761827e-02
   9.17204842e-02 -3.11787520e-02 -9.55666229e-03  3.07621416e-02
  -3.22685130e-02 -1.26806483e-01 -4.30982448e-02 -7.19366893e-02
  -2.95530632e-03 -5.90536967e-02 -1.14233289e-02  3.11351120e-02
  -3.84664908e-02  5.48231676e-02 -1.81451619e-01 -2.76343316e-01
  -1.91486806e-01 -7.54839778e-02  1.81297667e-03  1.66241415e-02
   8.57067760e-03 -3.30312178e-02 -4.29552458e-02  1.80520602e-02
  -1.25423651e-02 -2.24600360e-01 -9.53039750e-02 -1.08045913e-01
  -8.52436572e-03  1.28343105e-01 -7.87752643e-02 -2.06061751e-02
   9.53112841e-02 -6.99273795e-02 -8.47838596e-02 -3.14144902e-02
  -7.92405661e-03 -1.77554220e-01 -4.32790956e-03  3.71158421e-02
   1.22919409e-02 -8.28477219e-02 -3.15160900e-02 -1.47911683e-01
   6.70198649e-02 -3.76610011e-02  2.43838012e-01  5.07369777e-03
   8.67697075e-02 -4.27759886e-02 -2.19339699e-01 -2.77853578e-01
  -3.11743971e-02 -8.08216333e-02 -1.70766227e-02 -1.80720747e-01
   8.24385211e-02 -1.12208545e-01 -7.46988356e-02 -3.63176793e-01
   4.34668772e-02 -1.82027906e-01  5.28181605e-02  4.58242651e-03
  -6.66219816e-02 -6.57728389e-02 -6.88521937e-02 -7.95642734e-02
   2.24577426e-03 -2.42539868e-02 -5.56918792e-02  1.37985110e-01
  -5.87140806e-02  1.77829750e-02 -3.19418088e-02 -9.76058021e-02
  -5.94066828e-02 -3.77539285e-02 -4.86378610e-01 -1.89376831e-01
   1.44725934e-01  8.88490677e-03 -3.86941247e-02 -2.91550551e-02
  -3.87160177e-03  1.05316699e-01 -4.06431891e-02 -8.26524794e-02
  -1.15828328e-01 -5.87468152e-04 -1.81481555e-01  4.41964008e-02
  -2.31914073e-02 -1.34924531e-01  8.07408020e-02 -1.66797340e-01]
 [-1.67321563e-01  5.26347831e-02  8.04026499e-02 -4.73089442e-02
  -1.45978123e-01  1.58404648e-01 -2.86940515e-01 -1.73134997e-01
  -8.89528990e-02 -2.41125505e-02 -5.67633845e-02 -5.18396832e-02
   6.09143041e-02  2.37880871e-01 -1.27422679e-02 -2.13137846e-02
  -1.40168248e-02 -2.58252293e-01  3.19208860e-01 -9.86567810e-02
  -8.57624263e-02  3.58010642e-02  3.53406310e-01 -9.60832685e-02
  -1.70065627e-01 -1.80051431e-01 -8.79255235e-02  9.02087688e-02
   1.42571226e-01 -1.24749206e-01  1.21432237e-01  8.27801079e-02
  -5.11681661e-02 -5.02943285e-02  5.27394935e-02 -2.36987650e-01
   4.23795283e-02  2.17123836e-01 -3.17100585e-01 -3.10740173e-01
   2.43757125e-02 -1.02135278e-02  1.87938288e-02  1.42023772e-01
  -3.18864733e-02 -5.44394888e-02  1.61608100e-01  8.91537517e-02
   2.21039262e-02 -2.40740177e-04  3.40611525e-02 -2.76007503e-02
  -1.13839761e-03 -2.00920746e-01 -2.65818611e-02 -3.00946180e-02
  -1.68243095e-01  6.35973364e-02  9.50850919e-02  1.35143213e-02
  -8.97210464e-02  2.14640662e-01 -6.50643110e-02 -3.19323927e-01
  -3.44348215e-02  1.42456964e-02 -4.80726585e-02  5.03955968e-02
   1.29028177e-02  1.00428481e-02  1.50359403e-02  4.86826822e-02
  -2.55462881e-02  2.82075971e-01  3.67200077e-02 -6.32639527e-02
   2.97916867e-02  1.34830177e-02 -1.25485376e-01  1.16127403e-02
   1.65492892e-02 -3.22075367e-01  1.51483938e-01 -3.99393350e-01
   6.35559112e-02 -1.66664049e-01 -5.53563908e-02 -1.80545807e-01
   1.27272159e-02 -2.35769629e-01  4.28756662e-02  1.21153615e-01
  -1.96880028e-02  2.48563409e-01 -3.84195060e-01  3.80161661e-03
   3.29781413e-01  3.65910791e-02  2.29790226e-01  5.15560573e-03
  -4.65830676e-02  3.85421403e-02 -1.24188494e-02 -1.08649172e-01
  -4.90043238e-02 -2.50484869e-02  2.48865373e-02 -4.12411064e-01
   4.64519076e-02 -1.82700548e-02 -4.90488917e-01  1.16464771e-01
  -1.48338526e-01  6.05382323e-02  2.89918959e-01  6.48495331e-02
   3.97885852e-02 -2.86109149e-01 -1.72599494e-01 -4.18339610e-01
  -3.41347158e-01 -5.24767190e-02 -5.74925654e-02  1.47480406e-02
  -5.50820492e-02 -2.45240778e-02  8.88455138e-02  1.46645308e-01]
 [-1.66590840e-01 -3.64208743e-02 -2.20238045e-01 -2.28632778e-01
  -2.39574209e-01 -2.81388402e-01 -1.20825656e-01  6.31993473e-01
  -5.41713983e-02 -3.73383820e-01 -4.87087108e-02 -1.96043745e-01
   4.58773315e-01 -3.06403816e-01  4.72836792e-01 -4.41914573e-02
   6.18671253e-02 -5.04209638e-01  3.71381134e-01  2.73373514e-01
  -1.89848632e-01 -1.21391304e-01 -1.74182907e-01 -2.10348323e-01
  -2.56146848e-01  2.10781284e-02  2.53601432e-01 -4.04999517e-02
  -1.08367316e-01 -2.97515765e-02 -1.39939889e-01 -5.91438375e-02
  -1.44330204e-01  4.93865944e-02  5.87090179e-02  2.91526943e-01
  -1.12370367e-03 -1.81785841e-02 -2.40327660e-02 -1.85514875e-02
  -4.34334576e-02  5.79023454e-03 -2.45452323e-03 -2.35533086e-03
   2.79085860e-02 -1.51981516e-02  2.82952059e-02 -8.34200457e-02
  -2.31675804e-02  8.48209038e-02  1.31187066e-02 -9.02420282e-03
   5.43596596e-03  8.70127901e-02 -5.96221313e-02  5.52475415e-02
  -2.40618825e-01  2.70058066e-02 -4.97975767e-01 -3.23631638e-03
   1.56914666e-01  2.54940987e-01 -1.20105529e-02  8.83633196e-01
  -2.72459269e-01 -2.87552271e-02 -7.52289817e-02 -5.17989434e-02
   9.50730816e-02  1.62238553e-01 -4.60376024e-01 -8.31853449e-02
  -5.92136271e-02  3.30208912e-02  5.74026108e-02 -2.04804048e-01
  -5.95021129e-01  5.76888882e-02  3.44668888e-02 -8.66906792e-02
  -3.37790787e-01  1.31105140e-01 -6.19128168e-01  1.06202409e-01
  -5.11729233e-02  1.35190725e-01 -1.73984729e-02 -4.88034606e-01
   9.54458043e-02 -9.47638631e-01  2.44797040e-02 -2.53916532e-01
   3.09044756e-02  2.71754622e-01  1.16615571e-01 -2.60387035e-03
  -1.27834037e-01 -1.46327838e-02 -1.98181063e-01  2.54215956e-01
   3.03869396e-02  4.08522300e-02 -4.47400324e-02  3.46188754e-01
  -3.36222425e-02  6.20134221e-03 -3.64657715e-02  2.33235851e-01
  -2.37991698e-02  3.15499455e-02 -1.19790696e-01  2.59458303e-01
   3.91934663e-01 -4.34091628e-01  4.68322575e-01 -1.92237385e-02
  -5.15382029e-02 -3.70196968e-01  2.73310930e-01  2.09286630e-01
  -3.28140527e-01 -2.53264830e-02  9.18936729e-03  8.49315450e-02
  -4.51164991e-02  1.35986852e-02 -4.59858537e-01  1.89910941e-02]
 [ 3.88356388e-01  2.28562187e-02 -1.12856217e-02  3.34947318e-01
   1.42866760e-01  3.10267285e-02 -4.00556438e-02  1.28823191e-01
  -6.78734183e-02 -3.89492393e-01 -4.55927663e-02 -2.53597677e-01
   1.22547075e-01  6.22441471e-02  4.70780551e-01  3.86923389e-03
   1.06738798e-01  1.75414719e-02 -5.04031718e-01 -1.95396125e-01
   2.82037169e-01 -5.46146259e-02  1.28198072e-01  9.30416584e-02
  -2.28006870e-01 -1.88643754e-01 -1.42894939e-01  2.45838284e-01
   1.50367066e-01  2.92810619e-01  1.15573995e-01 -4.27057296e-01
   1.16996862e-01 -3.07690334e-02 -5.11261029e-03  1.45210668e-01
  -1.91756971e-02  8.13466758e-02 -3.77035826e-01 -1.29443154e-01
  -2.33439952e-02  8.07627942e-03 -5.86417094e-02 -4.35728505e-02
   1.21972908e-03 -2.67459918e-02 -3.58014286e-01  6.10318296e-02
  -6.64491877e-02 -1.68786931e-03 -1.34622324e-02 -1.84469335e-02
  -1.59345698e-02  3.33208055e-03  1.77991372e-02  4.04176898e-02
  -2.48699874e-01 -5.16101308e-02  2.54360825e-01 -1.39379427e-01
   1.44493327e-01  3.89039293e-02 -7.20357820e-02  1.66712031e-01
  -3.19676660e-02 -7.79173046e-04 -9.66001824e-02  7.41825486e-03
  -8.88085142e-02 -8.83375406e-02  2.86017179e-01  4.27874103e-02
  -5.91683388e-02 -2.94941872e-01 -7.27664493e-03  6.96399584e-02
   1.51062459e-01  3.22258584e-02  2.47340277e-01  5.69027569e-03
  -2.23994806e-01 -7.31920674e-02 -1.13467611e-01 -7.68263638e-02
  -2.77264491e-02 -6.90444037e-02 -4.88916151e-02  1.25279009e-01
  -7.69660771e-02  2.92578906e-01 -3.10141444e-02 -1.44343808e-01
  -3.30513865e-02 -6.38983130e-01 -1.56189710e-01  1.66413262e-02
  -6.49735853e-02 -5.18277399e-02 -3.78746688e-01  7.78630972e-02
  -4.75270003e-02  4.49451879e-02 -2.95111928e-02 -6.33756146e-02
  -6.95588440e-02 -9.21032056e-02  1.06052393e-02 -2.48868287e-01
  -2.86803730e-02 -7.83447921e-03 -3.75080287e-01  1.35483280e-01
  -1.56922266e-01  5.47437817e-02  1.63626686e-01 -2.05584317e-01
  -6.43843710e-02  6.00286573e-02 -3.48044932e-01 -3.27247649e-01
   6.46731397e-03  9.79285873e-03 -8.20369944e-02 -6.26775846e-02
  -4.83894069e-03 -3.78261387e-01  1.28043532e-01  2.34045312e-02]
 [ 1.83923677e-01  1.21310893e-02  1.96288258e-01  1.00028932e-01
  -2.14053527e-01 -2.37077206e-01  1.23499826e-01  7.94830620e-02
   3.41661903e-03 -1.10395491e-01 -5.00527918e-02 -1.42377928e-01
   1.04488589e-01  1.12420637e-02  6.45625666e-02 -1.06256912e-02
  -4.23769206e-01 -1.71561122e-01  1.23520039e-01  1.76067259e-02
   2.11032912e-01  1.56757459e-01  1.27251863e-01  4.85738739e-02
  -5.94973681e-04 -4.14471626e-01 -5.52957915e-02 -2.12866351e-01
   1.64844662e-01  1.69362663e-03  9.71074849e-02 -2.75408387e-01
   1.33031413e-01  6.94275193e-04 -3.82330045e-02 -2.70777404e-01
   4.53933105e-02 -5.99600114e-02 -5.79702675e-01 -8.60744901e-03
   2.62434576e-02 -3.13996896e-02  4.85081784e-02 -2.86713503e-02
  -2.66504847e-02 -4.67045791e-02 -2.12137058e-01  8.74454752e-02
   4.97945920e-02  3.71905677e-02  2.95393299e-02 -4.00895327e-02
  -2.13903189e-02 -6.33738264e-02 -9.96443722e-03 -3.83800119e-02
  -2.94742346e-01  8.55154917e-03 -2.08239198e-01  2.09574290e-02
  -2.01724768e-01  3.64881456e-01 -2.83483621e-02  2.17086166e-01
  -2.63184816e-01  3.85971554e-02 -9.05026682e-03 -9.50364117e-03
  -5.03509454e-02 -8.81921411e-01 -3.57530653e-01  2.90304478e-02
   5.00374138e-02  1.41406104e-01 -7.72689730e-02 -1.00069322e-01
  -2.31536757e-02  8.14206339e-03  1.56066746e-01 -7.51085803e-02
  -2.44997606e-01  3.76757443e-01 -3.15113459e-03 -1.94456935e-01
  -2.27829795e-02  2.24429113e-03 -9.06714797e-02  1.89671308e-01
   2.83459872e-01  2.52813876e-01  7.88917243e-02 -2.06629246e-01
  -2.79881321e-02 -1.16193140e+00 -1.90412521e-01 -4.03152853e-02
   5.56128800e-01  5.80173265e-03  1.66898131e-01  2.84522414e-01
   2.16818526e-02 -5.95764183e-02  2.15922520e-02 -3.36300522e-01
  -8.67997557e-02 -1.02177873e-01 -7.07787573e-02  6.74909949e-02
   3.25839072e-02 -3.78605700e-03 -7.15753958e-02  4.16997187e-02
  -4.68857050e-01 -3.78508449e-01 -2.74682701e-01  1.87420025e-01
   1.69675797e-02  9.53703299e-02  2.86296487e-01 -1.64926201e-01
  -3.94909054e-01 -1.13069657e-02  1.69343144e-01  8.58974829e-03
   1.27941463e-02 -1.18119441e-01 -3.41790244e-02  1.24659806e-01]
 [ 2.78450131e-01  6.24741334e-03  1.67042136e-01  1.56283051e-01
   2.03062370e-02  7.07364967e-03 -1.35280743e-01  1.67372748e-01
   5.41992635e-02 -6.21340796e-02 -5.76410629e-02 -7.84738213e-02
  -1.71951473e-01  3.15670341e-01 -3.51988971e-02 -3.67054716e-02
  -3.20759028e-01 -8.01654358e-04 -5.39136231e-01  2.51330376e-01
   7.53249135e-03 -9.98700708e-02  3.77416313e-01 -9.75236148e-02
  -2.58932322e-01 -1.79268807e-01 -9.83620808e-02  1.38920277e-01
   1.15769193e-01  1.87023237e-01 -4.44447994e-03 -8.58943071e-03
   1.84189156e-01 -2.43701190e-02 -7.65253380e-02 -8.85625556e-02
  -2.33191364e-02 -6.90783113e-02 -2.07674906e-01 -2.17298865e-01
   2.85494179e-02 -6.26174137e-02  2.07110159e-02  2.60245860e-01
  -1.05674416e-01 -8.18129480e-02 -8.34544227e-02  2.04557523e-01
   4.11760658e-02 -2.34735338e-03  2.43048705e-02 -2.18125549e-03
  -6.19314723e-02 -6.17592894e-02  4.70835753e-02  6.09346782e-04
   2.63075322e-01  4.49089818e-02  1.76568002e-01  1.42596588e-01
  -2.96231378e-02 -1.08734081e-02  1.64263658e-02  2.02296957e-01
  -1.20567791e-01 -2.36283839e-02 -6.68586371e-03  3.52462530e-02
  -1.06115609e-01  1.44178316e-01 -1.04557186e-01 -2.57425960e-02
  -3.62108015e-02 -1.04692265e-01 -1.29127968e-02  5.23766875e-02
   2.28482410e-02  2.38259733e-02  1.27345860e-01  6.59663277e-03
  -1.37709677e-01 -6.39014840e-01  7.05043152e-02 -1.69798583e-01
   1.30807364e-03  3.27308625e-02  1.84165742e-02  2.07398325e-01
  -2.66722906e-02  1.24936752e-01  2.18753144e-02  1.55559853e-01
  -4.89448011e-02 -3.10492039e-01 -1.74097911e-01 -3.09226457e-02
  -2.02654064e-01 -2.12920457e-02  1.00472204e-01 -4.89463471e-03
   6.45870296e-03 -6.71547353e-02 -3.30473743e-02 -7.79776573e-02
  -8.40261206e-02  3.85640399e-03 -7.56231472e-02  2.57878453e-02
  -6.41935244e-02  1.10365897e-02 -6.79166913e-02 -4.52791229e-02
   4.82574850e-03  8.08837190e-02  1.90223202e-01  1.33253023e-01
  -4.93292660e-02  1.70405075e-01  4.24147695e-01 -1.96892828e-01
   3.63370553e-02  3.26176025e-02 -5.05142286e-02 -1.93202235e-02
  -1.28638119e-01 -1.69155031e-01 -1.36728603e-02 -1.15207940e-01]
 [-1.47768212e-02 -4.52634878e-02 -5.17523944e-01  9.97055620e-02
   2.79623382e-02 -1.23787619e-01 -8.08830410e-02 -5.35252355e-02
  -3.12323660e-01  3.30339909e-01 -4.33189273e-02 -1.12487875e-01
  -1.52439684e-01 -2.40638390e-01 -1.14552185e-01 -1.00184143e-01
  -2.94427536e-02 -1.59954742e-01 -4.41300929e-01  1.20466180e-01
   2.46675551e-01 -1.69250473e-01 -4.13242802e-02  1.75366536e-01
  -1.38902724e-01  2.84964561e-01 -2.30505113e-02 -1.93334371e-01
   1.19191995e-02 -2.19538033e-01  9.53859165e-02 -1.49006531e-01
   5.75426444e-02  1.26556149e-02  4.17472571e-02  1.27894044e-01
  -2.01525772e-03  7.53777400e-02 -1.23254143e-01 -6.60910755e-02
   7.78267160e-03 -4.58609080e-03  6.32172525e-02  3.09551470e-02
  -9.43720564e-02  4.02330272e-02 -4.12392527e-01 -4.23097968e-01
  -1.72294438e-01 -7.91984200e-02  1.09868348e-02  3.93469166e-03
   4.83844951e-02 -2.64344037e-01 -4.49866615e-02  1.12692593e-02
   2.13094115e-01 -1.40330687e-01 -2.03443661e-01  2.50148065e-02
  -3.69359590e-02 -1.25403881e-01 -6.07630834e-02  9.99573525e-03
   7.12111816e-02 -3.79214883e-02  1.09972201e-01 -7.33383596e-02
  -2.09846236e-02  5.26569225e-02 -1.61271542e-01  8.64056684e-03
   2.53861267e-02  1.33953243e-01 -5.72474077e-02 -9.92597267e-02
   2.25656833e-02 -1.02050304e-01  3.24883237e-02 -2.19840035e-02
   8.71816501e-02 -1.58994257e-01 -2.25548074e-01 -2.26136044e-01
   8.08879919e-03 -7.23188594e-02 -3.10904998e-02 -8.61071423e-02
  -1.53375208e-01 -1.35148838e-01 -6.86344802e-02 -6.29811212e-02
   3.38769704e-02 -1.38986513e-01  1.58757687e-01 -3.15825380e-02
  -1.62805408e-01 -2.24867407e-02 -2.05781445e-01 -1.01766862e-01
  -3.07094716e-02  1.50923515e-02 -6.59746304e-02  4.19456549e-02
  -1.49597479e-02 -1.05155567e-02 -4.60739732e-02 -6.80861697e-02
   9.90851037e-03 -6.69304505e-02 -5.16210377e-01 -1.10874757e-01
  -7.79204294e-02  4.99079935e-02  6.02036424e-04  7.90866744e-03
  -7.71107599e-02  9.78377685e-02 -1.80076167e-01 -8.58043134e-02
   9.20205712e-02 -7.11645558e-02 -2.32931763e-01 -5.85971260e-03
   5.62035106e-02 -7.66058415e-02  1.98340654e-01 -1.40150949e-01]
 [-9.10596251e-02  1.06891626e-02 -6.82353005e-02 -2.81947047e-01
  -4.18290854e-01  1.08717650e-01 -3.18141758e-01 -8.01731944e-02
   5.33032529e-02 -2.15960905e-01 -5.26926853e-02  1.12795644e-01
  -2.94732414e-02  4.16485295e-02 -1.45983845e-01 -6.57504704e-03
  -1.82804063e-01  1.36676580e-01  2.46602714e-01 -5.80713972e-02
   2.45154630e-02 -6.61403239e-02 -6.85786083e-02  2.35702127e-01
  -1.53348476e-01 -4.76898104e-02 -1.80971578e-01  3.31969976e-01
   6.19407557e-02  3.05049159e-02 -1.47902176e-01 -1.43737927e-01
   9.41627994e-02 -3.38739455e-02 -3.35896760e-03 -6.35711774e-02
   8.86025950e-02  1.12702891e-01 -1.08487718e-01 -3.62115055e-01
  -2.49548797e-02  1.88408513e-02 -6.37735352e-02  3.20544481e-01
  -5.02062403e-02 -9.63454414e-03  3.25708389e-01  2.25412384e-01
   1.63214102e-01 -4.69408035e-02 -5.46714589e-02 -5.35877869e-02
  -2.43218411e-02 -4.00305837e-02 -5.80817945e-02  3.50864828e-02
  -6.34958148e-02  1.25009671e-01  1.16140820e-01  1.48098767e-01
  -2.90345758e-01 -1.34907722e-01 -2.11033821e-02 -4.02809680e-01
   1.44919634e-01  8.26060772e-03 -4.00295854e-03 -5.56931132e-03
  -9.11238641e-02 -4.64845225e-02  8.74172971e-02 -6.79590255e-02
   2.27637850e-02 -1.54856995e-01  4.02065292e-02  6.25128001e-02
   2.49394000e-01 -6.68392405e-02 -8.24287534e-02 -2.80024260e-02
  -2.43253112e-01 -2.65792459e-01 -3.70081700e-02 -1.52639478e-01
   2.22372655e-02 -1.01750709e-01 -4.92427722e-02  1.13667257e-01
   7.41337836e-02 -2.98347652e-01  4.37727198e-02 -2.19274223e-01
   9.56948940e-03  1.89456522e-01 -3.63745511e-01 -1.15704387e-02
  -2.70445663e-02  4.12399732e-02  1.42124116e-01 -9.73191485e-02
  -3.36765684e-02  5.46256155e-02  2.77779326e-02  1.37449980e-01
   8.36252607e-03  4.46350910e-02 -2.47879047e-02 -1.01414867e-01
  -1.84222888e-02  2.64265034e-02 -3.91168028e-01 -4.52995487e-02
   3.92712280e-02 -4.45526838e-02  1.36773601e-01 -5.60462475e-02
   9.06193722e-03 -3.16738874e-01 -2.26911232e-01 -2.48252794e-01
  -1.23073459e-01  3.89364697e-02  1.35899961e-01  4.71197031e-02
  -3.54832560e-02 -1.21322915e-01  2.20282767e-02  2.31885388e-01]
 [-1.14928663e-01 -5.95930628e-02  7.31038582e-03 -1.94796726e-01
  -2.62813032e-01 -9.60183442e-02 -5.68532534e-02  3.77440751e-01
   4.60545085e-02 -2.28490934e-01  5.41866794e-02  1.03835221e-02
   3.09830278e-01 -1.16364025e-01  3.04867536e-01  1.79466438e-02
   1.89636171e-01 -2.96635956e-01  3.17682326e-01  2.11641446e-01
  -1.53349489e-01 -7.94603750e-02  1.61919311e-01 -2.66297817e-01
  -1.75452247e-01  1.45026073e-01 -1.16606325e-01 -1.22013606e-01
   1.34792821e-02 -2.51678936e-02 -1.12606296e-02 -9.95577425e-02
  -6.32091612e-02 -1.77337751e-02 -3.31927463e-02  2.44414032e-01
  -3.75105999e-02  2.50348121e-01 -9.68410522e-02  3.01417094e-02
  -1.54268472e-02 -9.08807386e-03 -5.73788583e-02  1.03584513e-01
  -4.90756780e-02  4.52112518e-02  2.95551270e-02 -6.83005303e-02
  -3.22106220e-02  5.63670881e-03 -3.38640250e-02 -5.46009913e-02
   7.41340965e-02 -1.61066383e-01 -7.64995720e-03 -5.38086034e-02
  -2.63883382e-01  2.45029107e-01 -4.40052122e-01 -6.91423044e-02
   1.53501734e-01  1.77861258e-01  1.23881530e-02  6.83148801e-01
  -4.01198804e-01 -7.80535340e-02  1.88736737e-01  1.01151466e-02
   4.86145578e-02  2.94743389e-01 -3.78211766e-01 -4.07790858e-03
  -1.17893293e-02  1.81067646e-01 -1.94734540e-02 -1.12554774e-01
  -2.69584417e-01  6.65041879e-02  1.01868741e-01 -3.59395966e-02
  -8.32077637e-02 -1.05573907e-01 -9.02051210e-01  5.91932349e-02
  -7.29790255e-02  3.14485691e-02  2.04005614e-02 -5.32096252e-02
   3.41143996e-01 -1.09600222e+00  4.43390347e-02 -4.31159995e-02
  -1.04430411e-03 -2.37887159e-01  2.41875961e-01 -5.70829958e-02
  -1.51666403e-01 -3.23331207e-02  5.49271181e-02  1.61542013e-01
  -8.97375494e-03 -5.05960993e-02  2.00317316e-02  2.87743777e-01
   4.04067673e-02 -5.03628701e-02 -6.24772869e-02  1.98073402e-01
  -5.05011380e-02  1.50636304e-02 -8.85712579e-02  1.10100351e-01
   3.43765020e-01 -4.42248821e-01  3.09909284e-01  4.44296896e-02
   5.55714443e-02 -3.91742408e-01  3.24393779e-01  1.71799958e-01
  -3.44330855e-02 -4.97325659e-02  1.12235680e-01  6.28120154e-02
  -1.14556871e-01 -1.79099403e-02 -3.75286341e-01 -1.53024411e-02]
 [-1.36321321e-01 -1.04754989e-03 -1.34252995e-01  2.72937715e-01
  -8.05558637e-02 -9.81443375e-02  3.85520346e-02  1.59062445e-01
  -6.92814589e-02 -1.93848878e-01  5.22944629e-02 -2.67097324e-01
   1.24510862e-01  1.84382573e-01  1.76538855e-01  1.69757679e-02
  -3.77664894e-01 -9.76565331e-02 -1.24187574e-01 -1.85971424e-01
   2.28316262e-01  5.50638698e-02  1.05319154e-02  7.69774169e-02
  -4.41614270e-01 -2.70280361e-01 -3.20709944e-01 -2.86201406e-02
  -4.08325016e-01 -9.00433213e-02  1.08892970e-01 -1.59497354e-02
  -2.46481493e-01 -2.56797590e-04  2.34563574e-02 -5.63787967e-02
  -8.94276500e-02 -8.64310116e-02  5.28679974e-02 -2.35292628e-01
   2.34389920e-02 -7.13411206e-03 -2.67929323e-02 -1.64531365e-01
   3.77851352e-03  1.52891725e-02 -1.42041624e-01  2.64692485e-01
  -8.93061012e-02 -7.18326680e-03  5.21415360e-02  2.60626432e-02
  -4.77486290e-02  1.99839741e-01 -2.00271271e-02  4.82221320e-02
  -2.38971978e-01  4.09616865e-02  6.42212331e-02 -3.74511583e-03
  -8.24478194e-02  2.16169339e-02 -6.71397299e-02 -1.88671440e-01
  -2.05223843e-01  1.20127406e-02  2.58733571e-01  2.18063015e-02
  -2.09854413e-02 -5.41537255e-03 -4.28427130e-01  4.77814712e-02
  -4.13940102e-02 -1.27264019e-02 -2.80455817e-02 -2.03141440e-02
  -2.23662645e-01 -6.25688769e-03  4.22643311e-02  2.62785256e-02
  -1.67794093e-01  2.42387697e-01 -1.67221978e-01 -1.13501273e-01
   3.23654478e-03 -1.64410129e-01  1.00285243e-02  3.94538790e-01
  -6.16391040e-02  3.59248072e-01 -1.29617658e-02  1.20970618e-03
   5.03457384e-03 -3.14592831e-02  9.91969407e-02 -6.18902035e-02
   1.63964555e-01 -2.06247065e-02 -1.45357132e-01 -1.04810387e-01
  -6.08019880e-04 -3.45360376e-02  4.63915709e-03 -1.44344196e-01
   2.45597847e-02  1.96887664e-02 -8.60052034e-02 -1.94599964e-02
   9.17543564e-03 -3.45681002e-03 -3.58286537e-02  7.89995119e-02
   6.13941699e-02  1.60805926e-01 -6.32450283e-02 -3.11444938e-01
  -2.76610982e-02 -7.63974190e-02  1.50956679e-02 -2.68278271e-01
  -1.02366783e-01  4.00110818e-02 -3.30886841e-02 -2.06681453e-02
   2.31458880e-02 -1.50011644e-01 -9.27707627e-02 -3.58213991e-01]
 [ 3.41466337e-01 -3.56475227e-02  2.55036920e-01 -1.70525104e-01
  -2.41560638e-01 -1.21315390e-01 -1.21328905e-01  2.66208112e-01
  -4.38422188e-02 -2.71472484e-01 -5.90581670e-02  9.67330113e-02
  -2.19045162e-01 -1.98287398e-01  1.13040984e-01  3.35002020e-02
  -2.05913782e-01  1.13426663e-01 -5.00819050e-02  4.34892438e-02
  -8.64941031e-02  1.14689209e-01  3.31191272e-02 -5.63346818e-02
  -1.46034598e-01 -1.02347821e-01 -2.14729890e-01 -3.14959764e-01
  -8.63632485e-02 -2.12393418e-01 -4.01651151e-02 -8.22449699e-02
   4.92647253e-02  1.93527788e-02 -5.48339784e-02 -3.21805961e-02
   4.83391248e-02  1.22207634e-01 -1.12304211e+00 -8.41720179e-02
  -4.14483510e-02  2.32839044e-02 -4.98546213e-02  2.94552948e-02
  -6.97025284e-02  5.39584458e-02 -3.55530411e-01  2.74146974e-01
  -3.11069191e-02  3.22423736e-03 -5.29660359e-02 -9.03991535e-02
  -1.71244459e-03  5.73877916e-02 -2.51770951e-02  6.05270118e-02
  -1.63043961e-01 -1.14175603e-01 -3.44406933e-01 -6.20841384e-02
  -8.85448307e-02  3.82901996e-01  1.97753543e-03  3.02331299e-01
   7.09218830e-02  3.70454080e-02 -2.80962765e-01 -6.43461198e-02
   6.75852597e-03 -1.51738241e-01 -3.85292321e-01  3.66664827e-02
  -4.99797501e-02 -5.26475422e-02  3.28328721e-02 -6.58399984e-02
   1.49755433e-01  1.77439954e-03  2.15601642e-02 -2.70236973e-02
  -2.88461715e-01 -6.75188750e-03  6.77135587e-02 -2.38402441e-01
  -2.82445364e-02  3.78028341e-02  3.27439383e-02  1.47803560e-01
   6.49816543e-03  2.96078205e-01  5.35740294e-02 -3.07423800e-01
  -2.47993246e-02 -4.04028177e-01 -5.77602461e-02  1.21758664e-02
   3.55449557e-01 -2.69306637e-02  8.55438858e-02  1.30289093e-01
  -3.11378893e-02 -3.06332074e-02 -6.79309368e-02  1.51882321e-01
   2.42705420e-02 -9.59421918e-02 -4.38299626e-02 -2.00272694e-01
  -3.55877876e-02  4.09754999e-02  6.40097931e-02  2.89386418e-02
   1.81336343e-01  3.14179175e-02 -1.67984307e-01 -1.94289774e-01
  -4.43763845e-03  1.92378730e-01  2.93657273e-01 -3.20682257e-01
  -3.84797096e-01 -1.37452446e-02  7.97576904e-02 -6.69959486e-02
  -5.47885373e-02 -4.02343214e-01 -1.21567085e-01 -1.08752504e-01]
 [ 3.48067731e-02 -2.26680730e-02  1.68456391e-01 -2.85721701e-02
  -7.81954229e-02 -3.43540683e-02  3.47931422e-02 -9.98256579e-02
   3.71363088e-02  1.93843126e-01 -2.13145465e-02 -1.49130866e-01
   2.17255905e-01 -1.62883833e-01  1.00378372e-01 -5.47864214e-02
  -5.42306840e-01  2.17079848e-01  7.93809630e-03 -1.80901319e-01
   3.10482532e-01 -1.08913019e-01 -2.31537402e-01 -3.47899571e-02
  -1.09333970e-01 -3.15343320e-01 -1.07153855e-01  1.42825961e-01
   4.67795692e-02 -3.89884025e-01  2.88397580e-01  6.23628832e-02
   1.64066087e-02 -5.15380763e-02 -7.99385756e-02  9.45108533e-02
  -9.87094790e-02  5.63010685e-02 -1.78328037e-01 -1.83573663e-01
  -1.92000773e-02 -2.33212672e-02 -7.95619190e-02 -7.14468062e-02
  -8.87572169e-02  1.67910326e-02 -2.03690410e-01 -1.14933267e-01
   2.79681087e-01  5.46672195e-03  2.61451583e-02 -9.56168100e-02
  -1.15474477e-01 -9.09943357e-02 -2.84219906e-02  3.53357084e-02
   1.90836295e-01  1.50480047e-01 -5.97011484e-02  3.56553346e-02
   1.02535717e-03 -1.23201393e-01  3.39542069e-02  2.18152583e-01
  -1.33587450e-01  2.34491192e-02 -1.07855067e-01  1.88743435e-02
  -4.61048409e-02 -4.00996879e-02  9.80054587e-02 -8.50876719e-02
  -4.22516502e-02  2.10485384e-01 -9.19860788e-03  2.42760286e-01
  -7.72887021e-02 -4.41614874e-02  8.30023289e-02  1.94159523e-02
   1.58512622e-01 -2.69712508e-02  1.27897024e-01 -3.30037266e-01
   5.85409924e-02 -7.23446161e-02 -1.80401951e-02  2.85169899e-01
  -3.20611686e-01 -1.19725093e-01  2.51408294e-02  5.97880781e-02
  -6.41525351e-03  8.99865255e-02 -1.33663584e-02  7.61599978e-03
  -2.09884048e-01  1.88061446e-02 -6.19001389e-02 -9.78085306e-03
   2.03712024e-02 -1.69179565e-03  2.90196687e-02  2.50516087e-01
   1.93012822e-02 -3.97233292e-02 -2.37848386e-02 -4.92210314e-02
  -2.20946874e-02 -2.08091754e-02 -1.79713890e-01 -2.26585835e-01
   2.66491890e-01  2.46536687e-01  3.09948295e-01  1.83971256e-01
  -4.97338437e-02 -7.15601295e-02  3.80965881e-02 -1.46578431e-01
  -5.49805760e-02 -8.32895935e-02 -5.38684689e-02  3.14292200e-02
  -6.77106455e-02 -5.74454546e-01  1.81438416e-01 -3.35937858e-01]
 [ 2.35112719e-02 -6.40522018e-02 -6.18211508e-01 -1.89434886e-02
  -1.39899582e-01 -1.18901581e-01 -1.69487484e-02  6.71269149e-02
  -1.22099817e-01  3.80177736e-01 -3.12569253e-02 -1.58466518e-01
   3.05946320e-02 -1.58048570e-01  8.64340216e-02  2.76015587e-02
  -7.34116286e-02 -1.16458073e-01 -5.46370745e-01  6.74286336e-02
  -3.53550166e-02 -1.48380131e-01 -1.39935225e-01  9.98318419e-02
   3.32755595e-02  1.13255307e-01  4.30190703e-03 -1.42599195e-01
  -2.15829238e-02  1.73329096e-02  1.10424973e-01 -8.22613686e-02
  -5.69166541e-02 -7.13289157e-02 -7.24551380e-02 -2.29024991e-01
  -9.24829990e-02  3.68793681e-02 -3.44215333e-02  9.12878513e-02
  -7.85557181e-02  2.78606322e-02 -1.69309564e-02 -6.53908253e-02
  -3.86006534e-02 -3.42320949e-02 -2.98833340e-01 -4.72928584e-01
  -1.30877659e-01 -7.36359134e-02 -1.19945742e-02 -5.64238355e-02
   3.14954296e-02 -1.09360144e-01  4.27255221e-03  1.57577861e-02
   1.71606332e-01  1.18796863e-02 -1.24583859e-03 -1.43421873e-01
  -4.12043966e-02 -6.20784722e-02  1.88553426e-02  4.28773575e-02
   1.77463874e-01  1.50974840e-02  2.49425530e-01 -4.20811996e-02
   2.53101960e-02  1.04564130e-02  3.94870341e-02 -4.22715582e-02
  -2.24298593e-02  6.47892132e-02 -6.15050085e-02 -1.71165634e-02
   3.33633184e-01 -3.25316191e-02  2.00649500e-01 -1.02055995e-02
   2.93239690e-02 -2.02898338e-01 -1.01704389e-01 -1.33085176e-01
  -2.22203298e-03  4.33115438e-02 -3.91771086e-02  6.07445352e-02
  -9.53745246e-02 -1.03520058e-01 -7.58795142e-02 -2.53344476e-02
   2.71261577e-02 -1.42142335e-02 -6.34756088e-02 -1.78370008e-03
  -7.29035810e-02  2.37300564e-02 -1.84735119e-01 -1.26274571e-01
  -4.66896147e-02 -1.62155386e-02 -7.16071129e-02 -1.21643029e-01
   8.94832052e-03 -3.00255213e-02 -4.27475348e-02  1.37731498e-02
  -9.99988616e-03  4.63779718e-02 -3.50246668e-01 -2.37148013e-02
  -1.97939575e-01 -5.19900210e-02 -1.09022520e-01 -2.45591253e-02
  -4.97233905e-02  6.69957027e-02  8.01747758e-03 -1.02248363e-01
   1.25814378e-01  1.88925248e-02 -9.50046182e-02  1.16015505e-02
  -2.74365265e-02 -2.42778480e-01  1.70664549e-01  5.83870970e-02]
 [ 2.92604804e-01  4.73469794e-02 -6.92519359e-03 -7.72368833e-02
  -2.10648388e-01  6.42950600e-03 -1.53236255e-01 -7.29052126e-02
   1.56674191e-01 -2.25955769e-01 -2.06928309e-02 -1.20921589e-01
  -1.45085543e-01 -2.01523274e-01 -7.07392171e-02 -4.01579812e-02
   1.14496514e-01  3.33069898e-02  7.40739331e-02  6.95388764e-02
   1.71634376e-01 -6.33522645e-02  5.10709547e-02  2.42459148e-01
   1.52127072e-01  2.52581060e-01 -1.38133883e-01  1.44561931e-01
  -1.01548806e-02 -3.22566926e-01 -1.63234025e-01 -1.25226721e-01
  -2.20965445e-01  4.33279425e-02 -5.39730266e-02 -1.58005338e-02
   3.62037569e-02  3.24716717e-01  1.85367808e-01 -3.41198742e-01
  -4.50778119e-02 -2.11288631e-02 -6.34513199e-02 -2.50964388e-02
  -5.92862368e-02 -4.91224043e-03  3.46127987e-01 -3.94488238e-02
   5.85798472e-02  7.55342469e-02  3.54969222e-03  2.06515621e-02
  -1.91545840e-02  9.44073126e-02  9.51024611e-03  5.71254939e-02
   1.87306896e-01  2.26190463e-01 -8.52216333e-02  9.92641374e-02
   7.75064435e-03  2.52386272e-01  4.49059792e-02 -2.07049504e-01
  -1.46564960e-01  3.40814032e-02 -2.03923747e-01 -1.53776901e-02
  -5.15402257e-02 -8.54880288e-02 -4.37348127e-01 -3.03843413e-02
  -3.10209617e-02 -8.47405791e-02  1.41020641e-02 -2.77878612e-01
   3.25752139e-01  7.99657591e-03  4.72869128e-02  4.20758165e-02
  -5.41893840e-02 -2.67832279e-01 -2.70022929e-01 -2.11363778e-01
  -3.53331156e-02 -3.39480524e-04  2.19193324e-02  1.41868666e-01
  -4.04535271e-02 -1.92055628e-01 -1.90138072e-02 -5.58097176e-02
  -1.02732992e-02  1.68586358e-01 -1.52725831e-01  1.18024787e-02
  -2.05971487e-02  4.26237360e-02  7.49105811e-02 -1.18091814e-02
   2.94878404e-03 -5.59381954e-03 -1.29624289e-02  2.77390629e-01
  -5.86094409e-02 -3.79085243e-02 -8.85945410e-02  1.72086522e-01
   4.92133610e-02  4.69244495e-02 -2.09286004e-01  1.17392376e-01
   8.73724371e-02  1.86748400e-01  2.84583122e-01 -3.41642529e-01
   3.98079604e-02 -7.44360313e-02 -2.23368019e-01 -7.55980089e-02
   7.76422545e-02  1.16239570e-03  4.00282741e-02 -3.97991724e-02
   7.58784683e-03  2.31658503e-01  1.18335702e-01  1.70658201e-01]
 [-2.51776785e-01 -1.76617540e-02  2.48017162e-02 -5.22845499e-02
  -3.02161038e-01 -8.04325473e-03  4.12056819e-02  3.46621633e-01
  -9.62646976e-02 -7.69449025e-02  8.20091926e-03 -1.22594453e-01
   3.79913956e-01 -2.89407969e-01  3.90233040e-01 -4.23931442e-02
   5.51040955e-02 -7.46772408e-01  4.09036100e-01  1.01757064e-01
  -1.46726429e-01 -7.91886374e-02 -8.56528059e-02 -3.58099878e-01
  -2.70598024e-01  1.96054965e-01  1.59575552e-01 -2.44371846e-01
   5.66687137e-02 -2.07102343e-01  1.87145919e-01 -2.87128747e-01
   2.41181403e-01 -3.04690450e-02 -2.43260693e-02  9.87325907e-02
  -2.02709865e-02  1.71677589e-01 -6.24124594e-02 -2.11714476e-01
  -5.95871620e-02  3.13016959e-02 -9.55129191e-02 -1.63895816e-01
   2.75741667e-02 -1.65329054e-02 -2.77377099e-01 -1.67117327e-01
  -1.29350394e-01 -1.79467443e-02  5.06965742e-02  4.35408279e-02
  -6.33146912e-02 -2.89365333e-02 -3.11406516e-03  4.79813293e-02
  -2.95580298e-01  3.22430402e-01 -2.78886378e-01 -6.93445876e-02
   7.77354091e-02  8.31656232e-02  3.41693349e-02  1.41633064e-01
  -2.88128138e-01 -7.24194944e-02 -1.40828043e-01 -2.81094369e-02
   7.11793303e-02  6.91881478e-02 -4.69939321e-01 -1.65781900e-02
  -3.32607180e-02 -3.90094742e-02 -7.28763733e-03 -5.55802137e-02
  -3.21536027e-02 -4.58884239e-03  9.92250219e-02 -7.58871585e-02
  -1.81178436e-01  1.01826889e-02 -4.68031138e-01  1.14813767e-01
  -2.18275748e-02  1.63671061e-01  4.78707552e-02 -3.06042492e-01
   2.55753100e-01 -6.07718587e-01  4.27211262e-02 -5.94699532e-02
   3.00047528e-02 -1.79243013e-01  1.39573827e-01  3.37304920e-02
  -3.26383680e-01 -4.83314395e-02 -8.43468606e-02  2.48259723e-01
  -1.47300065e-02 -2.89908610e-02  1.98404007e-02  2.09849745e-01
   2.99280491e-02  1.98920593e-02 -1.87531970e-02  2.61639543e-02
  -2.52486132e-02  4.27997708e-02 -3.20739686e-01 -3.85750160e-02
   2.05282956e-01 -4.81414557e-01  1.15001559e-01  2.23163310e-02
  -5.31631336e-02 -4.77010220e-01  1.67310342e-01  1.62252877e-02
  -1.68715268e-01  3.11558377e-02  6.79698363e-02  1.47661893e-02
  -6.28547743e-02 -1.23812534e-01 -9.29005861e-01  2.74774116e-02]
 [ 2.91695863e-01 -5.76126277e-02  2.16422543e-01 -2.01913565e-02
  -1.01911388e-01  7.32540637e-02  4.65938449e-02 -2.18217105e-01
  -1.11224063e-01 -3.85847270e-01  1.11317914e-02 -4.66678768e-01
  -7.69596687e-03  5.52789867e-02  2.37021089e-01 -2.42037093e-03
  -2.07261503e-01  1.63770691e-01  1.79250777e-01 -6.73047006e-02
   4.71436754e-02  1.23238303e-02  1.92758977e-01  1.16687298e-01
   2.46095642e-01  1.34597063e-01 -3.85200053e-01 -1.39843449e-01
  -7.23271146e-02 -1.94084868e-01 -4.60015312e-02 -7.90522546e-02
  -4.83882474e-03  1.12685431e-02  7.78098404e-03  8.54255706e-02
  -4.50858735e-02  3.01010698e-01  1.45634949e-01 -4.04269814e-01
   5.26315570e-02 -5.68170436e-02 -5.33259027e-02  1.91838935e-01
  -5.27831689e-02  1.71636026e-02  1.04149297e-01 -1.20465942e-01
  -1.26629665e-01 -6.20236360e-02 -4.24550809e-02  1.61015801e-02
  -1.03630736e-01 -1.08437620e-01 -4.13114540e-02 -6.37243986e-02
   1.30293772e-01  1.99799582e-01  2.65033722e-01  2.68781275e-01
  -1.27390191e-01 -3.62159349e-02 -5.14783710e-02 -2.14337725e-02
   1.58103704e-01 -2.01275703e-02  1.36177450e-01  3.34682725e-02
  -6.08362593e-02  2.43907005e-01 -2.41274640e-01  5.44223934e-02
   2.42637470e-02  2.56996125e-01  1.10200411e-02  2.05707312e-01
  -1.21080972e-01  4.76655588e-02  8.76852795e-02 -6.99395984e-02
  -3.96705605e-02  7.45712295e-02 -1.41585935e-02 -1.13592155e-01
   4.91628870e-02 -1.31567195e-02  6.47881106e-02  1.35279134e-01
   2.35439479e-01  1.15572661e-01  7.57426303e-03  2.41790097e-02
  -2.15330534e-02  9.23290197e-03  1.50274739e-01  2.89324801e-02
  -1.46671593e-01  8.05886369e-03 -1.17951035e-01  1.71775028e-01
  -6.08877130e-02 -4.45294194e-02 -6.39327839e-02 -3.19330283e-02
  -4.15323675e-02 -1.76259154e-03  1.58622917e-02 -3.90706956e-02
   6.34480733e-03 -2.11253036e-02  1.50925308e-01  1.07788607e-01
   9.21352953e-02  7.55769107e-03 -3.91867042e-01 -1.76635459e-01
   3.63109447e-02 -9.81043428e-02  4.98514436e-02  2.17401579e-01
   4.75730486e-02 -9.27644670e-02 -6.85613826e-02 -1.19195051e-01
   4.56180470e-03 -1.00444362e-01 -1.57833874e-01 -1.00378618e-01]
 [ 4.03783739e-01 -2.42470987e-02  1.36987820e-01  3.62727940e-02
  -1.61219925e-01 -6.15885593e-02  2.18000617e-02  1.16621241e-01
  -9.75211337e-02 -2.35606637e-02 -3.09902113e-02 -2.07848132e-01
   2.84675330e-01 -1.56400830e-01  2.99950004e-01 -1.36693669e-02
   2.87287794e-02 -4.33525667e-02 -1.28013223e-01 -3.85341309e-02
  -1.82919979e-01 -1.04251662e-02  3.19272429e-01 -2.93094546e-01
   2.29991049e-01  3.78517918e-02 -1.19249813e-01 -9.42584723e-02
   6.26696227e-03 -1.57870695e-01 -1.42228249e-02 -1.88912988e-01
   2.29610041e-01 -3.74090858e-02 -4.01878841e-02  3.12388204e-02
  -7.15438798e-02  1.33389145e-01 -1.89500958e-01 -2.45696865e-02
  -5.32404631e-02 -5.40930517e-02 -5.00302911e-02 -8.91000181e-02
  -1.00417569e-01 -4.51712683e-02 -2.75223732e-01  2.56283432e-01
   2.03018170e-02 -3.96485589e-02 -8.47839564e-02 -8.43111649e-02
   1.82896499e-02  7.49919042e-02  5.71558587e-02 -4.72182930e-02
   1.07292794e-01 -2.25187019e-01 -1.19123384e-01  1.96402743e-01
   1.00469559e-01  2.73095638e-01  1.33619532e-02  3.99286151e-01
  -1.30939409e-01 -2.51954235e-02 -1.53565571e-01 -1.24927731e-02
  -8.57308879e-02  1.25716701e-01 -2.80568868e-01  5.87354414e-02
   8.61348864e-03  2.33448520e-01  3.23168822e-02  2.03771919e-01
  -2.35612676e-01 -5.35242520e-02  1.82124246e-02 -6.90891519e-02
   9.07760952e-03  8.81678164e-02  2.17862129e-01 -5.60880490e-02
  -2.94104442e-02  3.66554737e-01 -8.07088166e-02  1.79798782e-01
   2.71868259e-01  8.71852264e-02  5.87473400e-02  2.79561490e-01
  -5.08720092e-02 -1.72078729e-01  1.28385723e-01 -1.66709200e-02
   3.31924796e-01 -4.62188311e-02  7.83209354e-02  9.00869593e-02
  -1.84193030e-02  4.29050699e-02  1.70235336e-02  8.91154818e-03
  -7.28001073e-02  6.11126190e-03 -5.18771783e-02 -1.84550732e-01
  -3.09736840e-03 -5.88296019e-02  2.77297050e-01 -2.93809086e-01
   2.87543625e-01 -7.42309168e-02 -4.43514697e-02 -2.64599361e-02
  -4.29503024e-02  2.66182363e-01  2.85984159e-01 -2.38562182e-01
   1.39975801e-01 -1.57108381e-02  1.12288445e-01  5.56066409e-02
  -1.17509507e-01  1.66175291e-01 -1.90808162e-01  5.97864389e-02]
 [ 1.61628559e-01  5.23521043e-02  1.25602454e-01  1.20591648e-01
   7.57290283e-03  1.16840154e-01  2.25389063e-01 -3.31125021e-01
   7.49706253e-02  7.73878247e-02 -3.24913636e-02 -2.61954188e-01
  -7.93783441e-02 -3.27936292e-01  1.73633873e-01 -2.16712244e-02
  -2.46823087e-01  1.23846211e-01 -2.17384666e-01  1.74826756e-01
   6.98837359e-03  4.50258665e-02 -4.57623377e-02 -1.23020135e-01
   2.10925356e-01 -2.80466110e-01 -1.05739221e-01  2.08749454e-02
  -4.28634658e-02 -3.19763571e-02  2.19255894e-01  2.78776586e-01
  -1.15951397e-01  2.11557914e-02 -6.81988895e-02  1.21873934e-02
  -7.54168928e-02  7.87016377e-02 -9.86473337e-02 -3.72479588e-01
  -4.95658740e-02  1.19031994e-02 -8.22005700e-03  2.87287295e-01
  -9.72973183e-02 -8.78606737e-03 -1.12376481e-01 -1.85604975e-01
   1.73883423e-01 -1.62153933e-02  1.38662588e-02  2.11252812e-02
  -4.96454313e-02 -6.77967025e-03 -2.44734753e-02 -4.65251505e-02
   5.18110320e-02  1.02348492e-01 -2.18361951e-02 -4.64938045e-01
  -2.89544106e-01 -3.92202660e-02 -2.69692838e-02 -6.66463003e-03
  -1.20957226e-01  1.11860083e-02 -3.18736434e-01 -6.98465332e-02
  -6.18666373e-02 -9.76756439e-02 -3.90014231e-01 -1.99828874e-02
  -3.40874046e-02 -2.36823298e-02 -4.70134988e-02  2.33221337e-01
   9.58996192e-02  2.49607470e-02 -2.71984451e-02  1.49338720e-02
  -1.21641392e-02  1.23440400e-01 -2.53057536e-02 -8.03296119e-02
   3.66060063e-03 -1.65476695e-01  4.13228646e-02 -3.07421446e-01
  -9.46303755e-02  7.66352043e-02  2.45277211e-02 -1.33004889e-01
   4.45528254e-02 -2.28329673e-01  1.42489806e-01  1.68584455e-02
  -2.73360848e-01  4.09052148e-02 -1.16739780e-01 -5.14461733e-02
  -3.43596889e-03  4.78283357e-04 -9.30735841e-03 -5.75711601e-06
  -1.82571576e-03 -2.63333134e-02 -1.05119394e-02 -2.90952682e-01
  -3.76646295e-02 -5.11969216e-02  6.94508776e-02  1.38021514e-01
  -2.68925369e-01 -8.79214257e-02  1.48639455e-01 -2.20404178e-01
   3.56387123e-02  7.77776018e-02 -4.93752724e-03 -7.50900060e-02
   8.83889198e-02 -4.38793475e-04  6.45417422e-02 -6.99170232e-02
  -3.96728981e-03 -3.79208565e-01  2.12272137e-01 -1.62940875e-01]
 [-7.89648145e-02  2.26497403e-04 -6.50746465e-01 -1.03210978e-01
   7.03376606e-02 -1.65198669e-01  7.12468326e-02  6.68111490e-04
   5.93967289e-02  2.43518472e-01  3.61346491e-02 -1.25642806e-01
   4.58263494e-02 -1.90116644e-01 -1.74772695e-01  5.97983636e-02
  -2.15676993e-01  6.71345219e-02 -1.61682725e-01 -4.43310384e-03
  -2.72881269e-01 -9.71914753e-02  2.26392835e-01  1.27221420e-01
   1.39581516e-01 -6.66785538e-02 -1.28052801e-01 -1.75083011e-01
  -1.20480530e-01  2.29323789e-01  1.93257034e-01 -1.34032324e-01
  -7.53007457e-02 -6.53487146e-02 -8.71650875e-02 -3.21221650e-01
   1.72067452e-02  5.73075339e-02 -2.18031090e-02 -1.11154676e-03
  -8.91922340e-02 -2.06310712e-02  2.00867727e-02 -2.29159057e-01
  -3.61772329e-02 -8.81535839e-03 -1.12729058e-01 -1.48574263e-01
  -1.55313900e-02 -8.38280767e-02  3.29825096e-02  1.74205878e-03
  -5.52834049e-02 -2.07525581e-01 -1.24756042e-02 -4.67285607e-03
  -1.71349719e-01 -1.84980389e-02  4.59476598e-02 -9.20207892e-03
   5.59937768e-02 -1.97975367e-01  2.44959220e-02  1.81630030e-01
  -8.49065185e-02 -9.43866894e-02  1.16411328e-01  3.13217528e-02
  -9.31751914e-03  2.59189075e-03 -1.51189655e-01 -6.81927055e-02
  -1.89218931e-02 -1.18751302e-02  2.44378969e-02  3.41818593e-02
   2.44336173e-01 -1.65894243e-03 -7.91146681e-02 -6.17973655e-02
   2.86096800e-02 -5.86967543e-02  8.54333192e-02 -1.95109658e-02
  -5.53998426e-02 -4.83168550e-02  2.03528833e-02  2.34787147e-02
  -7.33136386e-02  5.41118905e-04 -7.15639144e-02 -8.74004662e-02
   3.05619817e-02 -4.70303185e-02  7.85145629e-03  8.45766277e-04
   9.89502296e-05 -7.61150941e-02 -1.61794990e-01 -1.49056777e-01
  -1.98144857e-02 -1.35143837e-02 -8.68904591e-03  3.17591429e-02
  -4.23169769e-02 -3.29137705e-02 -3.40147093e-02  8.78930390e-02
   3.67752053e-02 -3.07767245e-04 -1.92730442e-01  1.33753121e-01
  -6.58550039e-02 -4.88801822e-02  9.51300487e-02  6.71563204e-03
  -5.47620319e-02  2.76534915e-01 -7.57173598e-02 -1.63591594e-01
   1.84275761e-01 -9.80743915e-02 -8.75724480e-02  3.99113260e-02
   5.15695708e-03 -2.17135817e-01  1.61656410e-01  8.72716978e-02]
 [ 1.29721940e-01  5.31474501e-03  7.28854612e-02 -2.51534760e-01
  -1.03057802e-01 -1.50652468e-01  4.21669930e-02  3.05969492e-02
   5.59701808e-02 -1.00605689e-01 -4.96553928e-02 -3.27019347e-03
  -5.10349907e-02 -3.08985472e-01 -3.06874603e-01 -7.19870254e-02
   1.17615968e-01  3.80962074e-01 -9.26781595e-02  9.09731537e-02
   4.56217825e-01 -8.70676637e-02 -4.20198768e-01  4.58479643e-01
   3.87156457e-01  2.63561279e-01 -1.82214320e-01  3.89164358e-01
   1.76246673e-01 -2.35338047e-01 -1.34301051e-01 -8.32714885e-02
  -3.37572545e-01  5.80150587e-03 -5.83378896e-02 -4.33027698e-03
   2.04509050e-02  4.20790642e-01 -3.15273434e-01 -3.75100732e-01
  -2.77643111e-02 -1.37686757e-02  1.74895748e-02  2.31783792e-01
  -8.02283511e-02 -4.89461534e-02  2.24477515e-01  7.50456080e-02
  -5.31801395e-02 -4.88612987e-02  7.77042378e-03 -3.80401080e-03
   4.16249745e-02  4.60509099e-02 -5.00124209e-02 -5.43358363e-02
  -2.89558563e-02  1.27417162e-01  3.93603668e-02 -1.90912142e-01
   1.89182818e-01 -4.39807437e-02 -1.32067427e-02 -1.64087832e-01
   1.98821694e-01  3.11324615e-02 -1.22082435e-01 -1.01537481e-02
  -7.40594417e-02 -1.14747025e-01 -3.79707634e-01  4.07327749e-02
  -7.43444078e-03 -4.26430926e-02  3.07419822e-02  1.07456714e-01
  -6.70434609e-02  3.05319298e-02  1.20468475e-01 -4.14118804e-02
   2.51309723e-02 -1.16064690e-01 -3.41593832e-01 -1.95314899e-01
   3.08409967e-02 -1.09588608e-01 -2.17319801e-02 -9.37988386e-02
  -2.37496972e-01 -2.06869841e-01  1.41053060e-02 -1.07515857e-01
   3.93143632e-02  9.98166054e-02  2.75120381e-02 -1.28043490e-02
  -1.01579152e-01  1.88421551e-02  4.30297218e-02  1.42658353e-01
  -5.53222420e-03 -5.01194447e-02  1.98570150e-03  1.46313235e-01
  -2.38115732e-02  1.90768894e-02 -3.32022761e-03 -1.82716399e-01
  -1.08926669e-02 -3.34165655e-02 -8.88856351e-02 -2.08115697e-01
   6.48538619e-02  5.14916256e-02  5.39267957e-02 -2.07485467e-01
   6.54096231e-02  3.12761366e-01  2.33145073e-01  4.11666073e-02
  -1.90660715e-01 -5.67796230e-02  4.55307364e-02 -5.95150888e-03
  -1.63308531e-02  1.32415757e-01  2.52487242e-01  5.84266242e-03]
 [-3.24980706e-01 -4.98932265e-02  1.54744536e-01 -8.05548504e-02
  -3.65437478e-01 -1.25493765e-01 -3.26320291e-01  1.76926538e-01
  -3.08999628e-01 -3.31369251e-01  2.54940651e-02 -2.13087454e-01
   8.10320079e-01 -4.07982737e-01  5.17054260e-01 -1.05533414e-01
  -8.61791745e-02 -2.62077659e-01  3.98444206e-01 -2.72587575e-02
  -9.00182948e-02  3.23463716e-02 -2.65433222e-01  1.34484842e-01
  -1.88668847e-01 -4.72533554e-02  2.06877381e-01 -9.50684771e-02
   1.20760031e-01 -6.74258247e-02 -3.54770452e-01 -4.74231035e-01
   9.36310366e-02 -2.92612258e-02  4.39542830e-02  6.00133575e-02
  -4.79567051e-02 -1.94087774e-01 -2.53433883e-01 -7.24906698e-02
  -3.07766553e-02  3.25704888e-02  1.51549401e-02  1.46052152e-01
  -2.30417810e-02 -4.67342213e-02 -2.69516379e-01 -3.30366910e-01
  -4.76424070e-03  4.18947600e-02 -4.32691500e-02 -2.79643554e-02
   4.63214368e-02  2.23038778e-01  4.72800843e-02 -2.53940336e-02
  -1.53992578e-01  3.64699572e-01 -6.87770918e-02  1.22337677e-01
   1.42248333e-01  1.04690365e-01  1.53901835e-03  5.85090578e-01
  -2.79904455e-01  5.45907440e-03 -6.67141527e-02  2.84468383e-02
  -9.68526863e-03 -1.68115832e-02 -5.76076388e-01 -1.17070274e-02
  -2.12312564e-02 -4.24969912e-01  2.72962116e-02  1.73231289e-01
   2.38877505e-01  1.43503267e-02 -3.95067744e-02 -4.18968946e-02
  -2.86250085e-01 -1.29368141e-01 -4.86526787e-01  5.97087480e-02
  -1.81372762e-02  3.17242473e-01  5.85644767e-02 -2.04274714e-01
   2.56660372e-01 -6.80117726e-01  2.90550496e-02 -4.42857116e-01
   3.23150046e-02 -2.68431067e-01 -2.08363354e-01  2.15080343e-02
  -6.25861213e-02  3.93643565e-02 -1.66178986e-01  2.98478454e-01
   2.51368359e-02  2.76849084e-02 -1.41100562e-03 -1.17704034e-01
   3.33444551e-02 -5.14543653e-02 -3.72683518e-02  3.38242054e-02
  -4.75728251e-02  7.69843487e-03 -3.45402211e-01  1.43798932e-01
   3.01903516e-01 -2.21212626e-01  1.05193481e-02 -1.00364596e-01
   3.20167542e-02 -3.12849283e-01  2.12357759e-01  3.09473295e-02
  -1.80625364e-01 -2.40201894e-02  8.09466243e-02 -4.92767897e-03
  -2.32903194e-02 -1.83333427e-01 -4.84376460e-01  2.86797415e-02]
 [ 8.07737485e-02  4.78482284e-02  1.57401979e-01  2.54455894e-01
   9.21739042e-02  1.11225784e-01 -4.03852090e-02  7.28954598e-02
   2.24665403e-02 -8.29274282e-02 -6.12964563e-04 -5.49359024e-01
  -2.62325466e-01 -2.54042540e-02 -3.12140305e-02 -1.66255031e-02
  -2.19718809e-03 -1.25746384e-01 -1.94963217e-01 -8.32702145e-02
   1.61885202e-01  4.32952940e-02  1.27484933e-01 -5.92286363e-02
   1.75040454e-01  7.77247623e-02  5.15770242e-02 -1.31678507e-01
   5.26735745e-02  5.61322197e-02  4.83833328e-02 -2.33119845e-01
  -2.43696690e-01  1.34723959e-02  5.09641226e-03  3.66927803e-01
  -5.98580167e-02  6.64060786e-02  1.50085986e-01 -2.08904639e-01
   3.97769809e-02  1.39816096e-02  2.69266851e-02  3.46864164e-01
   4.16146368e-02 -3.19861583e-02 -3.75237286e-01 -1.81018673e-02
   3.24053735e-01  1.50784766e-02 -3.32263834e-03 -2.77389325e-02
  -5.63213937e-02 -1.03441089e-01 -6.12644181e-02  3.64276916e-02
  -1.43321529e-01  1.79223895e-01 -1.98864907e-01 -1.93158731e-01
   6.53116927e-02  1.16318002e-01  3.97020206e-02 -2.64095753e-01
   4.18378353e-01 -5.88254333e-02  1.21850654e-01  8.12140666e-03
  -5.78770190e-02 -1.62326306e-01  3.89086604e-02  6.29183576e-02
  -6.68366328e-02 -1.75064251e-01 -6.81631863e-02  2.06940651e-01
  -4.10223395e-01 -6.09723991e-03 -6.72432110e-02 -3.96875329e-02
   1.23546980e-01  3.12640816e-02 -1.62218690e-01 -2.16519296e-01
   2.71476172e-02  1.46890461e-01 -2.17287280e-02 -2.95053750e-01
   4.58126932e-01  1.51841581e-01 -3.08584273e-02 -5.86015023e-02
   4.13722061e-02 -4.13373597e-02 -9.16237198e-03 -2.43586823e-02
   2.51980219e-02 -6.68191761e-02  3.02897066e-01  1.06845312e-01
   1.04513271e-02  3.61093320e-02  1.20251216e-02  8.23373273e-02
  -5.92432432e-02 -3.30387801e-02  1.04352631e-01  1.81739256e-01
  -2.93888766e-02 -2.70020030e-02  1.09095789e-01  1.92742586e-01
  -3.04434270e-01  2.05032885e-01 -4.20926660e-01 -1.84568211e-01
  -2.17182208e-02  3.36955994e-01 -4.70629126e-01  1.13865748e-01
   3.98682915e-02 -5.81922047e-02 -3.93868377e-03 -3.14627960e-02
   2.69741081e-02 -2.24824950e-01 -1.14216164e-01  1.23454683e-01]
 [ 4.12188083e-01  4.31241356e-02  1.09513290e-01 -1.26345884e-02
  -8.60789791e-02 -2.28600055e-01  9.35175046e-02 -2.67195493e-01
   4.09585238e-02 -2.92898029e-01 -4.13658619e-02 -2.38006845e-01
   1.69253454e-01 -2.38440186e-01  2.58364473e-02 -7.99012557e-02
   3.49948972e-01  3.86505574e-02  7.35392421e-02  1.72417730e-01
   9.25565362e-02  1.30363524e-01  4.94257584e-02  3.93396206e-02
   3.76037359e-01  9.71960500e-02 -1.22431159e-01 -1.39802203e-01
   2.20963046e-01 -4.68480825e-01  8.37933272e-02  4.47473712e-02
  -8.76344889e-02 -5.94465025e-02 -2.94957310e-02  9.30256993e-02
  -3.53894308e-02  2.10315496e-01 -5.05753934e-01  1.81059405e-01
  -3.02546471e-02 -6.11807778e-02 -8.21939930e-02  2.36316308e-01
  -7.34580904e-02  7.41102025e-02  1.00723371e-01  1.76538184e-01
   1.67996809e-01 -3.78062427e-02  3.56546529e-02  1.28773609e-02
  -5.82585074e-02 -1.53881654e-01  7.22778670e-04  4.28670319e-03
   4.05680723e-02 -1.43386781e-01 -3.29599142e-01 -1.29603269e-02
  -2.84626812e-01  3.17022800e-01 -4.44882214e-02  1.31939441e-01
  -1.58004746e-01 -3.43811251e-02 -2.29865476e-01  2.86795571e-02
   3.43751465e-03 -1.20018832e-01 -1.29768535e-01  1.88818462e-02
  -4.79890080e-03  8.16069692e-02 -7.39199668e-02  2.89424747e-01
  -1.87477231e-01 -5.63524626e-02 -4.64709401e-02 -5.87029904e-02
  -2.06406027e-01  2.52688915e-01  6.57618716e-02 -9.38131064e-02
  -3.44564207e-03 -3.09519097e-02 -2.63406876e-02 -1.26580313e-01
   5.55320263e-01  1.83892310e-01  6.02622665e-02  3.84196222e-01
   2.54931599e-02 -4.71621573e-01 -3.07158213e-02  5.04042320e-02
   3.66079062e-01 -2.48412229e-02 -4.43606563e-02  2.95976132e-01
   4.87159826e-02 -1.70933474e-02 -7.10674152e-02  4.26673107e-02
  -6.11775145e-02  1.69042461e-02  4.53683846e-02  4.42209840e-02
  -4.52201776e-02 -2.18753004e-03  2.27044970e-01  2.03384552e-02
  -1.85668662e-01 -1.23298787e-01  1.08356597e-02 -1.09868541e-01
  -4.89563271e-02  1.20647445e-01 -7.68373758e-02 -3.27173859e-01
  -1.61093846e-01  3.12617458e-02  1.55691594e-01 -5.03733605e-02
  -4.02326435e-02  1.18409954e-02 -4.75943349e-02 -3.81489731e-02]
 [ 2.88171023e-01 -4.94812205e-02  1.41687185e-01  2.80183721e-02
   1.06946573e-01 -1.04992561e-01  1.03108641e-02  1.04371086e-01
   1.97852716e-01  7.89032876e-02 -4.80521470e-02  1.15849152e-01
  -1.54731199e-01 -1.43526986e-01 -2.57337511e-01 -3.00896186e-02
  -2.81746089e-01  1.01019077e-01 -1.08308144e-01  3.63759726e-01
   1.06932946e-01 -1.04180463e-01  1.28654823e-01 -6.68138564e-02
  -4.17058408e-01  5.54696620e-02 -2.23538801e-01  2.23849088e-01
   2.31477432e-02  9.63397324e-02 -2.42775958e-02 -1.96082160e-01
   6.86255321e-02 -6.29461110e-02 -6.76685348e-02  1.21661551e-01
   4.82712965e-03  4.25407588e-02 -2.16922134e-01 -2.64289945e-01
  -4.50378060e-02 -4.80455570e-02 -6.37134770e-04 -1.40661687e-01
  -6.91830441e-02 -7.94304442e-03 -4.65699770e-02 -7.12106749e-02
   9.57429484e-02 -7.11752921e-02 -2.75777443e-03  1.03450771e-02
  -6.00179285e-02 -5.25645688e-02 -2.81795859e-02 -6.18190430e-02
   8.30364823e-02  1.22184299e-01 -3.36609930e-02 -1.91875190e-01
  -1.06664598e-01  1.53085753e-01  6.69226237e-03  7.63120800e-02
  -2.53810734e-02 -4.39029373e-02 -1.80937186e-01 -3.47746201e-02
  -1.26180276e-01 -2.42326587e-01 -2.15420090e-02  1.37932161e-02
   2.80384533e-03  4.15904671e-02  2.18316857e-02 -5.63881323e-02
   1.87221900e-01 -4.93351743e-03  2.05835998e-02  3.62625753e-04
   6.27904311e-02 -2.86835637e-02 -1.52512919e-03 -4.30831164e-01
   1.66507869e-03  1.28721669e-01 -5.55144288e-02 -3.21574688e-01
  -6.65936023e-02  3.47959101e-02 -6.43397048e-02 -1.49806172e-01
  -3.30453664e-02 -1.49815738e-01 -1.65184811e-02  2.62161400e-02
   5.79473823e-02 -8.28335620e-03  2.31190920e-01  1.60399020e-01
  -4.44999337e-02 -6.56165704e-02  1.83499064e-02  1.83521304e-02
  -1.30878082e-02 -3.82638280e-03 -1.14292391e-02 -2.07134597e-02
  -3.81839052e-02 -2.28261650e-02 -2.34439030e-01  8.64624679e-02
  -6.18972294e-02 -1.55948088e-01  1.44979889e-02  4.79860455e-02
  -5.85457981e-02  5.15480042e-02 -1.69011816e-01 -3.53282511e-01
  -9.12579522e-02 -7.54547268e-02  4.54293378e-02 -2.74330936e-02
  -7.97398686e-02 -3.46682519e-02 -1.28714740e-01 -1.90165162e-01]
 [-4.96821702e-02  1.67128034e-02 -2.46797964e-01 -1.13095939e-01
  -1.16743833e-01  9.99047607e-02 -8.19855407e-02  6.85528442e-02
  -4.03106548e-02  2.24350080e-01 -3.61067355e-02  1.98779404e-02
  -2.09763989e-01 -3.00236166e-01 -5.84393255e-02  6.24518059e-02
  -9.13867578e-02 -1.15527678e-02 -4.87408675e-02  6.30357042e-02
  -6.72699660e-02 -7.07199275e-02  2.08054036e-01  1.06682479e-01
   4.96343449e-02  1.79779395e-01  1.01726219e-01 -1.25774920e-01
  -8.34821910e-02  5.91048300e-02 -5.20394892e-02 -1.57739460e-01
  -1.82344779e-01  1.85910985e-02 -4.92582321e-02  1.08731128e-02
  -9.52184051e-02  4.16726805e-03  3.68317701e-02 -1.12571523e-01
  -6.03612186e-03 -3.78989913e-02 -5.35579510e-02 -1.91504821e-01
  -5.71573190e-02  1.84824392e-02 -2.88407225e-02 -5.42227216e-02
   6.24170946e-03  1.49321405e-03 -2.54023299e-02 -1.22170094e-02
   3.52539606e-02 -8.68429542e-02 -7.86814839e-03 -1.21296486e-02
   4.98744361e-02  1.23914830e-01  2.00092569e-01  4.46753465e-02
  -1.02882430e-01 -2.01372206e-01  7.85454642e-03  1.00992583e-01
  -3.18317302e-02  1.66146411e-03  8.19311142e-02 -1.41947540e-02
  -1.03044920e-01  8.09694976e-02 -3.34676981e-01  1.75035745e-03
  -5.83769567e-02  1.84769765e-01 -9.73453000e-02  1.31637394e-01
   4.57798541e-02  3.23926425e-03  4.40554926e-03 -1.61321685e-02
   3.12487893e-02 -1.22619189e-01  2.95061320e-02 -2.50639588e-01
  -5.54225547e-03 -2.98063625e-02 -3.63840498e-02 -4.15573828e-02
  -3.29790056e-01  7.29937777e-02 -4.14125957e-02 -2.09918737e-01
   1.47563387e-02 -2.16402024e-01 -8.19080472e-02 -1.70801412e-02
  -2.46497959e-01  2.49173213e-02 -1.95691600e-01  4.35064398e-02
  -9.29353312e-02  3.60722728e-02 -1.55098280e-02  9.44574773e-02
   1.44869536e-02  2.92047746e-02  6.25390187e-02 -4.57595110e-01
  -5.81979156e-02 -7.42454305e-02  2.91432068e-02  9.46594626e-02
   8.52927566e-02 -8.62062871e-02 -2.31484815e-01 -3.05176061e-02
  -8.21185857e-02  1.10848740e-01  1.49348989e-01  9.52632800e-02
   2.46284619e-01 -3.99699360e-02 -2.65229106e-01  9.48703885e-02
  -1.42361075e-02 -1.01486512e-01  5.30370139e-02  8.02201778e-03]
 [ 7.67298564e-02 -1.51019655e-02  2.28344679e-01 -3.88837129e-01
  -8.32752287e-02  2.18548141e-02 -1.61343738e-02 -1.91818655e-03
   1.73416555e-01  1.26147434e-01 -5.53137287e-02  1.66333273e-01
  -3.39153893e-02 -3.16444725e-01 -2.96844959e-01 -4.11382876e-02
  -3.19961488e-01  3.16590548e-01 -1.67739525e-01 -8.92763138e-02
   2.21062571e-01 -4.04916927e-02 -4.05963629e-01  2.30199158e-01
   1.21213563e-01  1.10513613e-01  1.75128594e-01  1.30294695e-01
   6.53664172e-02 -7.85029531e-02 -2.28842292e-02 -1.69709131e-01
  -1.96078479e-01 -2.28868946e-02 -2.36357730e-02 -1.45057097e-01
   7.42446184e-02  1.71481758e-01 -3.88918340e-01 -1.96559489e-01
   3.36748958e-02  6.93601440e-04  2.56323796e-02 -1.74652725e-01
  -3.71481404e-02  5.09761944e-02 -1.60468332e-02 -1.15458265e-01
  -3.87235761e-01 -2.41261050e-02  4.35279049e-02  1.80917960e-02
  -4.07360867e-02 -3.07465523e-01 -2.45793127e-02  2.86183320e-02
  -8.77386108e-02 -5.74020557e-02  1.93016812e-01 -2.58253127e-01
   1.04305491e-01 -9.78376865e-02  4.25322389e-04 -1.69722382e-02
   7.70381689e-02 -4.39791307e-02 -1.47615507e-01 -1.99792720e-02
  -5.85880950e-02 -9.04752240e-02  3.87728103e-02 -6.45383149e-02
   5.28962314e-02 -5.90800121e-03 -1.70317777e-02 -9.73250940e-02
   1.12880550e-01 -3.47556621e-02  1.80727988e-02  2.45933905e-02
   1.44532382e-01 -6.77296817e-02 -3.25889170e-01 -3.26135218e-01
   8.42969585e-03 -1.47226870e-01 -5.18351421e-02 -2.77593046e-01
  -1.38550261e-02 -1.55709490e-01 -1.50019946e-02  3.96542586e-02
  -1.78469217e-03 -1.72099277e-01 -2.64226794e-01 -8.55325069e-03
   2.33827889e-01  4.65452485e-02 -1.53845444e-01 -5.47867417e-02
  -4.29639127e-03  3.47572789e-02  2.91116890e-02  1.37817532e-01
   3.81996930e-02 -4.83971983e-02  4.68133539e-02 -2.35728249e-02
   2.61828955e-02  2.83504985e-02  1.24654196e-01 -2.22548768e-01
   4.90615219e-02 -1.84864447e-01 -1.87034711e-01 -2.50108749e-01
   3.66570726e-02 -3.97918485e-02  1.55558646e-01 -1.15380339e-01
  -6.19817376e-02  2.59381272e-02  4.85937372e-02  6.43956959e-02
  -4.39892635e-02  1.24379424e-02  2.48188242e-01 -1.14028588e-01]
 [-3.85627866e-01 -3.74255329e-03  1.47081211e-01 -3.58608246e-01
  -5.71290672e-01  6.69393316e-02 -2.22114384e-01  2.88562924e-01
  -2.75513411e-01 -7.92477131e-02  1.13546737e-02 -1.06835954e-01
   8.65643859e-01 -5.23133278e-01  8.68232787e-01 -7.49110952e-02
  -2.32075695e-02 -5.20645320e-01  2.41188839e-01 -1.46885775e-02
   4.68695536e-03 -6.22752719e-02  1.14408545e-01  6.06543198e-02
  -2.14391902e-01 -1.16881495e-02  1.52984992e-01 -7.71272043e-03
   2.08910003e-01 -3.13472673e-02 -4.10252571e-01 -4.78409082e-01
  -2.12274998e-01 -2.27039866e-02 -1.96588151e-02  1.74178690e-01
  -2.42531095e-02 -4.53344733e-01 -2.29938358e-01  4.29655351e-02
   5.34229539e-02 -1.89677421e-02 -2.92651299e-02  1.76684111e-01
   5.68249971e-02 -1.51473181e-02 -1.16866745e-01 -4.08235967e-01
  -1.34388339e-02  2.55276822e-02 -5.60242012e-02  2.75349058e-02
  -6.29258603e-02  9.79049206e-02  4.51539569e-02 -2.71724612e-02
  -2.54719734e-01  8.02934766e-02 -2.02977672e-01 -1.57141402e-01
   1.77371949e-01  2.17052445e-01  2.48269215e-02  7.79341936e-01
  -5.95831908e-02 -3.46743055e-02 -1.77292582e-02  2.56650075e-02
   2.29849294e-02 -1.26646170e-02 -6.31860197e-01 -9.70722467e-04
  -4.43930849e-02 -1.19740546e-01 -7.16348514e-02 -1.82350911e-03
   1.38877243e-01  7.16318935e-02  4.14801836e-02 -6.37296066e-02
  -5.91809511e-01 -2.89139561e-02 -4.87123907e-01  5.69297075e-02
   6.32020459e-03  1.68201327e-01 -7.74239004e-03 -4.02194560e-01
   8.20484832e-02 -4.03693736e-01 -8.40241164e-02 -8.70350003e-01
   6.34410158e-02 -2.75617689e-01 -8.47448260e-02 -7.65675604e-02
  -2.48338267e-01  5.51233850e-02 -2.44018078e-01  9.35885906e-02
   5.05085289e-02 -6.08871914e-02 -5.40552586e-02 -9.12532061e-02
   4.79477942e-02 -3.40868942e-02 -2.21307892e-02  2.34724343e-01
  -5.49473092e-02 -1.86764691e-02 -3.10358405e-01  1.11139044e-01
   2.47831672e-01 -4.41062272e-01  3.31984103e-01 -1.10385172e-01
  -6.32513836e-02 -3.53061855e-01  9.16270316e-02  2.17847209e-02
  -1.54535770e-01 -1.77240372e-02  6.54034689e-02  1.11769047e-02
  -7.23420382e-02 -1.82766840e-01 -7.34810472e-01  1.97677791e-01]
 [ 3.56597096e-01 -1.11460825e-03  3.64520073e-01  2.11404823e-03
   2.44486853e-01 -3.80292535e-01  3.53468448e-01 -1.22532882e-02
   1.31240815e-01 -3.38905185e-01 -3.64131257e-02 -3.38878900e-01
   7.98744615e-03 -1.99597836e-01  7.68578351e-02  9.60832555e-03
  -4.71981466e-01 -1.61876820e-03 -4.39756870e-01  2.90875807e-02
   3.86501372e-01  3.96934785e-02 -1.54399782e-01 -7.42438287e-02
   9.56531614e-02 -3.10419738e-01 -2.70680666e-01  7.62980282e-02
   1.06652848e-01  2.25546628e-01  4.16379541e-01 -1.59099042e-01
   2.43067443e-01  3.98231745e-02 -4.20503467e-02 -1.70945361e-01
  -2.51507889e-02 -8.01122785e-02  2.55231559e-01 -1.39756605e-01
  -8.72239878e-04 -5.52855097e-02  3.06205489e-02 -3.12406898e-01
  -1.18630037e-01  5.22440225e-02 -4.58836734e-01  3.63448352e-01
  -7.98806995e-02 -2.39594784e-02  5.93563868e-03 -2.23453213e-02
   2.72337273e-02 -2.52578873e-02  3.72272683e-03 -1.59463417e-02
  -1.23088010e-01  1.63348168e-01  4.01955023e-02  7.59076932e-03
  -1.82825644e-02  1.40737489e-01 -3.55367409e-03 -1.62792668e-01
   9.38025564e-02 -2.22158851e-03  1.15085654e-01 -2.21198183e-02
  -9.81845185e-02 -8.41045603e-02 -3.44074607e-01  1.69429462e-02
  -6.23516366e-02 -2.86872685e-01 -9.48644057e-03  1.01013549e-01
  -6.94952831e-02 -2.49721128e-02 -4.00793040e-04 -3.10054235e-02
  -2.07524925e-01 -1.64992943e-01  4.48478051e-02  9.43185762e-02
  -3.62622216e-02  7.28214458e-02 -1.03510566e-01 -4.91736419e-02
  -2.72849202e-02 -9.04778368e-04 -7.10882843e-02  1.30347848e-01
  -5.05247377e-02  1.37797773e-01  5.53271249e-02 -3.94603163e-02
  -5.71586937e-02  1.82439052e-02  1.06419601e-01 -1.72237203e-01
   7.77543522e-03  4.16207202e-02  4.59853560e-02 -1.66706592e-01
   1.70789231e-02  5.68539575e-02 -6.40534759e-02  1.12707362e-01
   3.75107229e-02 -1.33455796e-02 -5.37924059e-02  6.46784231e-02
  -4.20394689e-01 -1.85339153e-02 -7.85954595e-02 -3.55243653e-01
   2.68966574e-02  4.30376492e-02 -2.58829780e-02  4.24491949e-02
  -3.11904252e-01 -4.29947041e-02 -9.20344144e-02 -6.63908646e-02
   4.29721624e-02  5.86479008e-02  2.00258002e-01 -9.91531741e-03]
 [ 2.19736306e-04  4.44306657e-02  1.63730502e-01 -2.17529517e-02
  -2.05784723e-01 -2.27428123e-01  3.88258010e-01  5.16207106e-02
  -2.21982040e-03 -1.48255795e-01 -9.59384963e-02 -1.63784772e-01
   3.07049990e-01 -1.41968831e-01 -6.50745407e-02  1.52534824e-02
  -2.20542088e-01  2.67204255e-01  8.28810856e-02  4.03426541e-03
  -3.80841047e-01 -1.09363951e-01 -6.92146495e-02 -5.65834232e-02
  -1.00338146e-01 -1.05895065e-01  6.72151968e-02 -1.46949157e-01
   1.28363565e-01 -1.08482413e-01  1.00250158e-03  1.12100504e-01
  -2.79214740e-01 -6.18711337e-02  3.14708650e-02 -1.10888377e-01
   1.17390547e-02  2.44944274e-01 -9.11397338e-01  5.61531372e-02
  -6.41148314e-02 -3.63003053e-02 -3.96055914e-02  3.80859613e-01
  -1.99062494e-03  5.06853759e-02 -2.74023622e-01  2.45307595e-01
