base_model/conv2d/kernel:0
(5, 5, 3, 6)
[[[[ 1.46933928e-01 -2.63808221e-01 -1.95111454e-01  1.09859452e-01
     4.21798229e-01  1.51747048e-01]
   [ 1.39865428e-01 -1.91346094e-01  1.88417137e-01  2.21788079e-01
    -1.83101207e-01 -1.35246828e-01]
   [-1.12064198e-01  1.84315648e-02  3.85199413e-02 -4.34449501e-03
     8.92301798e-02 -3.55502069e-01]]

  [[-3.21614482e-02 -2.31372952e-01 -4.14421201e-01 -2.54567236e-01
     8.04117545e-02 -2.27880538e-01]
   [-1.82146072e-01 -3.24385554e-01  1.66682959e-01  4.42252792e-02
    -2.01498345e-01 -2.55712774e-02]
   [-1.57136187e-01  6.58146590e-02  6.82953447e-02 -2.44013801e-01
    -6.40983954e-02 -2.40553562e-02]]

  [[ 1.89657196e-01 -8.52930471e-02  1.07822374e-01 -9.60122794e-02
    -3.34477797e-02 -1.78580180e-01]
   [-4.23314005e-01 -1.74348295e-01 -5.24380356e-02  5.58833741e-02
    -1.95672795e-01 -3.29536766e-01]
   [-1.05753615e-01 -9.79425162e-02 -8.77269283e-02 -5.10663316e-02
    -3.21801603e-01  1.20059438e-01]]

  [[ 1.23899408e-01  5.39517999e-01  1.63080260e-01  2.29682386e-01
     2.09840819e-01 -1.95178598e-01]
   [ 3.58123854e-02  2.34803662e-01 -4.14930969e-01  2.27511808e-01
    -1.01976320e-01  8.27634856e-02]
   [ 4.31282334e-02 -6.07840791e-02 -2.18162119e-01  1.03624128e-01
    -3.21479023e-01  4.41981643e-01]]

  [[-2.55436096e-02  5.62099099e-01  4.00965780e-01 -1.31990880e-01
     3.36600572e-01  1.44965217e-01]
   [ 3.75655182e-02 -9.78028402e-03 -3.11008662e-01 -5.83114773e-02
     7.68373832e-02  2.33779405e-03]
   [ 9.40548480e-02  1.67621467e-02  1.35697322e-02  6.00578450e-02
    -4.38330263e-01  2.85931230e-01]]]


 [[[ 2.00803280e-01 -5.41641377e-02  2.19961092e-01 -2.01112628e-01
     1.01765387e-01  1.66767591e-03]
   [ 1.42485842e-01  2.19450966e-01  2.43921861e-01 -1.07637577e-01
    -2.59270370e-01 -1.25696659e-01]
   [ 2.86321670e-01  4.30079967e-01  1.36216000e-01 -9.86226797e-02
     1.69470266e-01 -4.47281241e-01]]

  [[-1.43675789e-01 -1.79981999e-02  3.53625804e-01 -3.51072222e-01
    -2.62374252e-01 -2.48589754e-01]
   [-3.06635916e-01 -6.01667091e-02  4.45619941e-01  7.01323822e-02
    -1.29394799e-01 -9.83999968e-02]
   [-8.08674991e-02  4.14132088e-01  8.65866616e-02 -1.28402352e-01
     2.16099888e-01  9.65436846e-02]]

  [[-2.01371953e-01 -2.04477191e-01  5.70232868e-01  4.10862058e-01
    -3.89214940e-02 -3.46283108e-01]
   [-5.55563509e-01 -2.71145403e-02  3.05731565e-01  5.32970488e-01
     1.06867269e-01  7.75118545e-02]
   [-2.00280339e-01 -2.21209377e-01  2.75116116e-01  4.45098698e-01
     3.87456626e-01  4.68291759e-01]]

  [[ 4.01732385e-01 -1.84750006e-01  2.11240336e-01 -3.25034231e-01
    -2.87161469e-01 -1.79745838e-01]
   [ 4.51443970e-01 -4.21990424e-01  8.31938535e-02 -1.19463794e-01
     3.33841890e-02  1.61870852e-01]
   [ 3.04016709e-01 -4.17342007e-01  6.26841411e-02 -1.16167568e-01
     3.32084775e-01  5.84499717e-01]]

  [[-2.40614459e-01  2.75988370e-01  4.51204717e-01 -6.32305965e-02
     5.19996919e-02 -5.88808034e-04]
   [ 1.05895899e-01  1.16342744e-02  5.81083111e-02 -2.66023546e-01
     2.47172996e-01  1.51894212e-01]
   [-9.18525234e-02 -2.89146692e-01 -2.04177558e-01 -4.39435542e-02
     1.12151161e-01  9.23665613e-02]]]


 [[[ 2.49099091e-01 -1.23080097e-01 -2.64225215e-01  1.19984269e-01
    -2.86513597e-01  7.88861886e-02]
   [ 2.78108150e-01  1.74364731e-01 -4.37802702e-01 -1.38661917e-02
    -2.25696102e-01 -1.04016513e-01]
   [ 3.04862708e-01  4.38090444e-01 -5.82491100e-01  1.30175829e-01
     3.57823074e-01 -3.18846792e-01]]

  [[-1.89479753e-01  1.78307787e-01 -1.76557347e-01  5.31840086e-01
    -3.17993492e-01  4.98407558e-02]
   [-2.81524360e-01  3.25445056e-01 -3.04961532e-01  4.50223535e-01
     1.03293294e-02 -1.70603823e-02]
   [-2.60976046e-01  5.36137581e-01 -3.10283691e-01  2.92609900e-01
     4.73457873e-01  3.06713700e-01]]

  [[-2.95634687e-01  1.81581870e-01  4.26744819e-02 -1.67008325e-01
    -2.69409001e-01 -1.69058070e-01]
   [-5.71817696e-01 -1.75731480e-02 -1.48763508e-01 -5.72538972e-02
    -1.23269580e-01 -4.31561284e-02]
   [-3.89071941e-01 -7.68328458e-02 -2.85202324e-01 -1.41923055e-01
     3.58399808e-01  4.83934134e-01]]

  [[ 5.14478326e-01 -6.42892951e-03 -1.26771092e-01 -2.11190566e-01
    -3.26169312e-01 -1.52908877e-01]
   [ 4.40245003e-01 -2.95257211e-01  1.26864575e-02 -3.69511962e-01
     2.11361378e-01  1.04609199e-01]
   [ 5.43229401e-01 -2.67328382e-01  1.19767368e-01 -4.82253104e-01
     4.98550713e-01  3.75425279e-01]]

  [[-3.14858794e-01 -9.45190042e-02  1.02386929e-01  8.51972923e-02
    -2.49441713e-02  1.28686726e-01]
   [ 1.85488865e-01 -1.71779171e-01 -2.50284374e-01  1.18824162e-01
    -1.08336750e-03 -1.51559353e-01]
   [-2.19065517e-01 -9.24290359e-01 -3.16126421e-02  4.55404771e-03
     2.40012202e-02  1.06478203e-02]]]


 [[[ 2.09527254e-01  1.42153665e-01  2.74464428e-01 -7.61613995e-02
    -2.26575643e-01  1.22665547e-01]
   [ 1.02366000e-01  2.52262414e-01 -1.78685829e-01 -1.87567532e-01
     1.02811977e-01  6.21646233e-02]
   [ 1.80670083e-01  3.58079970e-01  2.46809726e-03  1.93205625e-01
     5.38671613e-01 -7.31150359e-02]]

  [[-2.40186051e-01  1.19920678e-01 -1.79383203e-01 -7.67276436e-02
    -2.12881461e-01  3.91225703e-03]
   [-2.32031062e-01 -2.79589649e-03 -1.77018076e-01 -1.94396600e-01
     1.48777023e-01  6.29098788e-02]
   [-1.20907333e-02  1.60662025e-01 -1.70296624e-01 -1.12413064e-01
     2.49861911e-01  3.32591653e-01]]

  [[-1.67765468e-01 -2.79770643e-01 -2.09172085e-01 -5.76271474e-01
    -4.38500196e-01  4.76787724e-02]
   [-4.49344069e-01 -5.72075658e-02 -1.88773334e-01 -5.85244477e-01
    -8.44510496e-02 -2.47231573e-02]
   [-1.86843932e-01 -7.19650611e-02 -7.54196197e-02 -4.80048746e-01
     3.12692463e-01  1.67891428e-01]]

  [[ 2.40301386e-01 -5.11308573e-02 -2.31134981e-01  1.30657315e-01
    -3.07288021e-01  6.69451803e-02]
   [ 4.36720729e-01  1.16216354e-01 -3.48206043e-01  1.37737289e-01
     1.65949374e-01 -9.70094949e-02]
   [ 2.59224296e-01  7.75914937e-02  6.12943694e-02  1.95505798e-01
     8.97887349e-02  1.44002378e-01]]

  [[-1.33997025e-02 -1.17832951e-01 -1.55244144e-02  2.68623024e-01
    -1.68818504e-01  3.39381069e-01]
   [ 7.74860829e-02 -7.68798143e-02 -9.12875980e-02  2.78008431e-01
     1.86111599e-01 -3.76128912e-01]
   [-2.36914560e-01 -4.97598052e-01  1.71829075e-01  9.88714620e-02
    -1.14851937e-01 -2.12336078e-01]]]


 [[[-7.81370625e-02 -1.41830202e-02 -1.54648095e-01  1.21163830e-01
    -2.32085407e-01  1.80402264e-01]
   [ 1.09738097e-01 -1.49982274e-01  1.69083878e-01 -3.02702278e-01
    -4.11564223e-02  2.98640102e-01]
   [ 5.25263473e-02  1.69683233e-01  4.80149865e-01  3.57652307e-02
    -1.36041716e-01 -5.79364076e-02]]

  [[-4.86656763e-02 -9.20365602e-02 -2.49693796e-01  1.53626930e-02
    -3.74678820e-01  2.01757133e-01]
   [-1.57367542e-01 -2.28498235e-01  6.13599271e-02 -9.76740196e-02
     8.60163867e-02 -8.85152817e-02]
   [-2.13166010e-02 -1.84617890e-03  3.77055705e-01  1.36582032e-02
    -4.93102595e-02 -1.07065858e-02]]

  [[-1.87650859e-01 -2.05537900e-02  2.97227278e-02  3.20870727e-01
    -3.19799572e-01  3.29974353e-01]
   [-3.67946237e-01 -5.34302853e-02  1.18622720e-01  3.06024849e-01
     1.43686563e-01 -1.91051811e-01]
   [ 8.55893791e-02  2.63369572e-03  2.57795453e-01  2.08103806e-01
    -1.42502934e-01 -2.51232564e-01]]

  [[ 6.55776858e-02  1.67326286e-01 -2.24047944e-01  1.83902830e-01
    -2.13908970e-01  2.79751658e-01]
   [ 7.33975833e-03 -5.06788231e-02 -1.86340027e-02  1.55797958e-01
     1.49319740e-02 -1.58802941e-01]
   [ 5.07956631e-02  1.49093449e-01  1.88709944e-01  1.65753976e-01
    -1.64008334e-01 -4.58362639e-01]]

  [[ 4.75820825e-02 -4.34872471e-02 -1.77021429e-01 -1.52653486e-01
     2.18741223e-01  5.09547174e-01]
   [ 1.87077764e-02 -6.70637190e-03 -9.31037292e-02 -1.20228238e-01
     3.34568262e-01 -1.66668221e-01]
   [ 7.86123648e-02 -2.04915136e-01  1.37569815e-01 -1.27263367e-01
    -1.45189792e-01 -6.57660246e-01]]]]
base_model/conv2d/bias:0
(6,)
[-0.17190935 -0.07123545  0.05281395  0.14187197  0.0430294  -0.05175382]
base_model/batch_normalization/gamma:0
(6,)
[0.69972044 0.5508427  0.6654399  0.48280877 0.22467628 0.51040137]
base_model/batch_normalization/beta:0
(6,)
[-0.35691747 -0.2763599  -0.45733112 -0.28786835  0.00459315 -0.40729338]
base_model/dense/kernel:0
(1536, 128)
[[-1.62219943e-03 -3.20978835e-02 -6.30696164e-03  3.07212234e-01
   1.58561215e-01 -4.31213647e-01 -2.13209689e-01 -1.27171576e-01
  -2.57827789e-01 -3.91439460e-02 -5.55603683e-01 -6.10449314e-02
   7.87435919e-02  7.20437527e-01 -2.94977222e-02  2.40466539e-02
  -2.14255396e-02  2.47261394e-02  3.16994861e-02  6.62026480e-02
  -2.59435952e-01 -1.39897197e-01 -4.04028624e-01 -4.48021963e-02
   2.47041974e-02 -8.33096728e-02 -1.22869164e-02 -2.40326282e-02
  -7.17672557e-02  2.20263794e-01  1.15431011e-01  9.50385109e-02
  -3.08457226e-01  7.75738573e-03  1.83884323e-01 -4.31992598e-02
   3.86652589e-01 -1.82694748e-01  4.26089466e-01 -1.60169099e-02
   5.01614988e-01 -5.64814061e-02 -1.56483263e-01 -4.60740864e-01
   1.77858509e-02 -4.07274127e-01 -4.68580332e-03 -4.31223840e-01
  -7.65174553e-02  1.08781703e-01 -3.51784557e-01 -9.71038699e-01
   5.01867175e-01 -5.72657511e-02 -1.50359897e-02 -6.53213784e-02
   5.96042931e-01  2.69782706e-03  5.30358136e-01  1.36202127e-01
  -4.92786944e-01 -1.77470632e-02  3.06825489e-01  2.80368209e-01
  -2.33751908e-01 -8.88440162e-02 -1.21292714e-02 -1.68751925e-01
   8.74267519e-03 -6.79058507e-02 -2.13740662e-01 -6.04999885e-02
  -5.01044929e-01 -1.18372925e-01  2.76425350e-02  4.87210369e-03
  -5.37320226e-02 -4.49928641e-02  2.88126856e-01 -5.88051789e-02
  -3.89694087e-02 -3.51728015e-02 -2.14827023e-02 -1.85007192e-02
   7.40076482e-01 -3.26730646e-02 -4.81643453e-02  1.41933590e-01
  -5.51738255e-02 -6.70799166e-02 -2.33898565e-01  1.79638080e-02
   3.88483137e-01  2.57197648e-01  3.22048999e-02  3.01453739e-01
  -2.60470033e-01  1.71381369e-01 -4.65123579e-02  3.15240741e-01
   2.53841132e-01 -1.90697670e-01  7.61356652e-02 -9.78398100e-02
  -8.07120204e-02  4.30352688e-01  3.68847959e-02 -6.19196407e-02
  -3.25360633e-02 -6.27623722e-02  2.40925416e-01  2.39446342e-01
  -7.81158388e-01 -3.76743972e-01 -3.89919616e-02  5.84728420e-01
  -2.47530509e-02 -3.44873816e-02 -1.70360450e-02  4.96714950e-01
  -3.99234056e-01 -1.25411479e-02  2.78401785e-02 -1.32671565e-01
  -4.27469909e-02 -5.12018740e-01  3.21182519e-01 -3.24410528e-01]
 [ 4.26200032e-02 -1.56467948e-02 -6.16086647e-02 -1.07309937e-01
  -1.58617228e-01  3.45903099e-01 -5.40712178e-01 -5.90382040e-01
  -9.69950855e-02 -1.75604708e-02  3.93604279e-01 -1.71980988e-02
   6.88168705e-02 -2.42484525e-01 -1.07267813e-03  4.92965840e-02
  -2.18712110e-02 -4.55993898e-02 -5.81505932e-02  1.21966721e-02
  -2.25447059e-01  6.04944443e-03 -1.31236970e+00  1.11133102e-02
  -3.66410762e-02  1.05938531e-01 -1.82993356e-02 -5.05509198e-01
  -4.30468768e-02 -3.02211046e-01  1.57804489e-01  1.94892943e-01
   6.37221217e-01  9.14385766e-02 -2.41576836e-01  3.78936201e-01
  -3.97975713e-01 -5.24621129e-01 -5.15484452e-01  9.34864394e-03
  -9.64489043e-01 -5.37413396e-02 -7.13547766e-02  1.79752067e-01
   5.86684905e-02  5.56426585e-01  1.20334495e-02 -5.27987301e-01
  -2.89185327e-02 -1.65584147e-01 -2.33590811e-01 -1.86319602e+00
  -2.32780606e-01 -3.11371356e-01 -2.17246613e-03  1.04667735e+00
   7.96467587e-02  2.10381933e-02  2.61489600e-01 -1.81112319e-01
  -3.15183729e-01 -4.37572412e-02 -5.51138520e-01 -1.14708565e-01
  -1.92678824e-01 -1.59694284e-01 -5.93571179e-02 -1.87498224e+00
  -1.62971504e-02 -1.20492699e-02  3.93622398e-01  2.38746945e-02
  -2.45879233e-01 -1.07674003e+00 -2.34278530e-01 -5.64124659e-02
   3.96386534e-02  4.67798533e-03 -5.83466411e-01  2.13558376e-02
   4.53593358e-02 -4.25471395e-01  2.20720973e-02 -4.13402691e-02
  -6.02297485e-01  2.74248440e-02  2.35758536e-02  1.18603766e+00
  -4.47086571e-03  5.41073568e-02  8.84351790e-01 -2.85580335e-03
  -2.69913495e-01  3.06963086e-01 -7.42349744e-01  3.13188955e-02
   1.00200152e+00 -4.93583083e-01 -8.65842104e-02 -4.48828965e-01
  -5.25336802e-01 -2.86904693e-01  2.26368502e-01  2.82490432e-01
   2.64566660e-01 -5.07351816e-01  4.35160190e-01 -1.71956234e-02
  -5.06729782e-02 -2.86207378e-01 -8.60216543e-02 -2.17526987e-01
   4.24038976e-01 -1.45120278e-01  4.62587401e-02 -3.58702064e-01
   1.09436791e-02  4.40757394e-01 -2.18876936e-02 -2.57109851e-01
  -6.34308279e-01 -2.41943896e-02 -1.30479789e+00 -3.65695432e-02
   7.77852349e-03 -7.61749983e-01 -9.94159102e-01 -1.49473190e-01]
 [-2.95017883e-02 -4.12432104e-03 -2.78261490e-02 -2.58336365e-01
  -5.68631990e-03  5.19408695e-02  4.75670770e-02  2.19476987e-02
   6.81288866e-03  2.29468141e-02  2.14034632e-01 -1.58047061e-02
  -1.15074247e-01 -3.24842595e-02 -9.48908627e-02 -5.55218942e-02
  -1.34053845e-02 -3.98548273e-03  1.87901853e-04  6.77406490e-02
   9.37349722e-03 -5.41332476e-02  1.17823727e-01  1.29282093e-02
  -3.17483842e-02  2.11346194e-01 -1.73999550e-04  1.59237564e-01
   1.88335795e-02 -4.13359180e-02 -1.98836297e-01 -1.96476057e-01
  -1.57719463e-01 -1.08203493e-01  1.18537717e-01 -9.30149555e-02
   4.02277056e-03  1.33667827e-01  1.30770832e-01  2.56328396e-02
  -7.77575448e-02  5.23101389e-02 -1.20095409e-01  3.18840563e-01
  -3.37738767e-02  5.38507737e-02 -1.16680190e-01 -3.86401415e-01
  -5.20191006e-02 -6.85839579e-02 -1.52711958e-01  2.65815526e-01
  -5.82436062e-02  2.61563212e-01 -2.47724988e-02 -8.02124813e-02
  -1.67219400e-01  2.23430675e-02  1.88887596e-01  1.01382799e-01
   8.63841176e-03 -4.54837196e-02 -1.64127544e-01  4.25380021e-01
   1.75705701e-01  1.37225226e-01 -1.11824378e-01 -3.76488902e-02
   6.27541402e-03 -2.08576713e-02 -1.41958415e-04  1.48901967e-02
   7.55255148e-02  3.65913272e-01 -9.39774811e-02  7.11413380e-03
  -7.18962401e-03 -1.42920241e-02 -5.64141385e-03  4.61996533e-02
  -3.31887417e-02 -5.39982654e-02  3.81111354e-02 -4.29734848e-02
  -1.77912027e-01 -8.86291713e-02  3.31953615e-02 -1.48627162e-01
   1.57959517e-02 -1.03652887e-02  8.41383636e-02 -5.07018007e-02
   7.95051455e-02 -2.75874019e-01  1.56898856e-01  2.67741203e-01
  -1.69731900e-01  2.34947219e-01 -2.02202871e-01 -1.58826247e-01
   3.72758284e-02 -1.34564996e-01 -1.25453994e-01 -1.71268322e-02
  -1.20497771e-01 -9.16465819e-02 -1.83308378e-01 -7.46655762e-02
  -2.00271215e-02 -1.87696710e-01  1.03821710e-01 -4.19012725e-01
   4.76808660e-02  1.96133420e-01  2.73535252e-02  4.00437824e-02
  -2.50666700e-02 -2.47447059e-01 -8.20112005e-02 -1.09230302e-01
  -3.23614180e-01 -7.40849748e-02  4.32924144e-02  2.45886892e-02
  -4.35088053e-02  4.46064547e-02 -4.74667102e-02 -1.00480020e-01]
 [-6.41149879e-02  2.78630834e-02 -5.26195280e-02  1.28744006e-01
  -8.87508597e-03  4.36779112e-01  9.14179310e-02 -1.37157068e-01
  -1.11134924e-01 -2.04075431e-03 -4.36851710e-01 -7.66313374e-02
   4.67305109e-02 -1.11983597e-01 -5.13368100e-03 -4.18863855e-02
  -3.08418069e-02 -6.37207180e-02 -9.95285902e-03 -8.50657523e-02
  -1.00020558e-01 -1.27585605e-02 -3.98914039e-01 -2.14957893e-02
   2.80300267e-02 -1.69204455e-02  5.61480410e-03  2.48802125e-01
  -2.51323748e-02  1.94027200e-01  9.06306356e-02 -1.87640175e-01
   5.44134714e-02  1.43542886e-01 -5.21599829e-01 -4.12568040e-02
   1.99719861e-01 -7.79083464e-03 -2.22491100e-01 -6.13723658e-02
   8.25408027e-02  1.17148738e-02 -3.42252031e-02 -5.51048458e-01
  -2.37600598e-02  6.15594648e-02  9.57278162e-03  2.59124368e-01
   1.73135214e-02 -2.34010845e-01 -7.50692189e-02 -1.79667622e-01
   2.14581519e-01  2.36919090e-01 -3.82482447e-02  5.59853911e-02
   1.61340922e-01 -1.72678456e-02 -4.60183695e-02 -6.09332277e-03
   1.94489390e-01  3.19169879e-01 -3.33219320e-01 -2.31572390e-01
  -1.60260722e-01 -1.65972948e-01 -5.49736246e-02 -1.42899454e-01
  -2.28635478e-03 -4.04432639e-02 -2.17476524e-02 -2.50178855e-03
   1.11729391e-02  3.20554972e-01  1.66346341e-01 -3.31327915e-02
  -7.23736212e-02  5.13693467e-02 -3.42082419e-02 -2.92423368e-02
  -5.63348345e-02 -2.54506990e-02  2.08360441e-02  1.81255694e-02
   3.85730043e-02  3.30904424e-02 -1.63915660e-02 -3.58858943e-01
  -6.48031458e-02 -4.80748527e-02 -3.00579108e-02  2.57907286e-02
  -1.79992184e-01  1.17332183e-01  3.20230782e-01  3.13810408e-01
  -1.07866831e-01 -5.18347502e-01 -7.27278069e-02 -6.99732825e-02
   1.68284908e-01 -9.34094414e-02  1.95025961e-04  6.93368688e-02
   6.19808435e-01 -1.32052124e-01 -8.74813199e-02  1.57007817e-02
   2.59528067e-02  4.04665358e-02 -1.90047443e-01  1.34588301e-01
   1.21461144e-02 -1.86730340e-01 -4.08898778e-02 -4.44264486e-02
   3.28276195e-02 -1.51093706e-01 -5.09601347e-02  2.91669816e-01
  -1.19219832e-01 -4.61323112e-02  1.78301215e-01 -1.86748691e-02
  -2.95710769e-02  7.89780170e-03  6.74673691e-02 -2.83609957e-01]
 [ 2.10876763e-03 -2.00524516e-02 -5.01630455e-02 -2.90711939e-01
   9.31803510e-03 -5.17433695e-02 -1.14448471e-02  4.49399799e-02
  -5.29858768e-02  2.77034733e-02 -8.38037133e-02 -1.31659843e-02
   2.42439564e-02 -5.56617342e-02  2.42229626e-02 -3.87326479e-02
  -4.26288601e-03 -7.04653654e-03 -5.69982231e-02  2.00061537e-02
   9.52016711e-02  5.10966368e-02  6.23074062e-02 -6.29649237e-02
  -2.32267585e-02 -2.57154461e-02  1.15572996e-02  6.39920542e-03
  -2.89373379e-02 -2.93817166e-02  1.48403183e-01  5.30835614e-02
  -9.68549177e-02  3.19897197e-02 -2.71784365e-01 -9.70263034e-02
  -4.38766122e-01  1.27227381e-01 -2.93797385e-02 -1.35840969e-02
   1.25244692e-01  3.97418402e-02  2.41266131e-01  2.07895055e-01
   1.40729016e-02 -6.82028830e-02 -9.97443274e-02 -9.17583704e-03
  -3.98655946e-04 -4.06824015e-02  1.78230599e-01  3.82844731e-02
  -1.49837313e-02  1.49749368e-01 -7.52782002e-02 -1.47221789e-01
  -3.85858506e-01  2.30186582e-02 -8.81115943e-02  1.29756063e-01
  -1.65283412e-01 -7.59619549e-02  1.64268360e-01  2.19840869e-01
   9.24479514e-02  5.22490777e-02  3.10369637e-02  8.00826699e-02
  -3.57581340e-02 -4.87108640e-02  3.25860642e-02 -1.05955806e-02
   9.89408642e-02  2.08700430e-02 -8.91325623e-02 -1.70064513e-02
  -7.19080865e-02 -5.20058488e-03  1.19608037e-01  1.75695568e-05
   6.52689778e-04  1.38157606e-01  1.34679945e-02 -8.22309218e-03
   2.00110570e-01  2.21074130e-02 -7.66061321e-02 -1.10726669e-01
  -6.80425093e-02 -5.02156280e-02 -1.35609865e-01 -2.73683630e-02
   1.53904319e-01 -2.08007112e-01  5.32459877e-02  1.14607811e-01
  -2.33578712e-01 -6.90412223e-02 -7.09896237e-02 -1.15847640e-01
   4.16125462e-04  1.05735555e-01  3.22553627e-02 -8.49406272e-02
  -5.50418459e-02 -2.07040057e-01 -2.03233063e-01 -3.82449254e-02
   5.19747436e-02 -2.11122353e-02  3.85234579e-02 -1.37992753e-02
  -1.16865272e-02  3.27557445e-01 -1.60826035e-02 -3.03294927e-01
  -1.07880449e-02  1.65833607e-01 -6.10915497e-02  2.39338037e-02
  -3.17647487e-01 -1.54377799e-02  1.15099199e-01 -5.70411421e-02
  -1.27542928e-01 -2.30171587e-02 -3.03076386e-01  7.47101894e-03]
 [ 1.67660415e-03  3.44918035e-02 -3.28750871e-02 -4.19442356e-01
   1.08937033e-01  9.90151688e-02  2.30233222e-01  3.26940976e-02
  -2.20573872e-01  3.14764231e-02  3.83371264e-01  1.25777442e-02
  -1.83885187e-01 -1.37853503e-01 -2.40767486e-02 -3.60141955e-02
  -3.51442099e-02 -4.02114391e-02 -1.90101359e-02  9.71479267e-02
   2.79951375e-02 -7.48685598e-02  2.83025168e-02 -1.73711237e-02
  -1.06659625e-02  7.13455528e-02 -2.75985952e-02  2.25740314e-01
   4.82598059e-02 -1.73735335e-01 -9.19153728e-03 -2.10743807e-02
   5.80202509e-03  2.46298630e-02 -1.26323119e-01 -9.91073549e-02
  -3.98647040e-01  4.31583375e-02 -1.14857472e-01 -2.61035841e-02
  -1.71842813e-01 -4.02128249e-02  2.51215082e-02  3.53325844e-01
   8.17129761e-03 -2.92663034e-02 -4.55296524e-02 -1.22407727e-01
  -3.76203842e-02 -2.43240774e-01  2.72139072e-01  8.21197256e-02
  -7.19055831e-02  1.32447705e-01 -8.23907182e-02 -7.00151846e-02
   8.21115524e-02  1.81345809e-02  8.64233673e-02  1.79090798e-01
  -2.09860772e-01 -8.63865092e-02  1.04044951e-01  3.71960193e-01
  -5.56181110e-02 -1.68190628e-01 -7.96159208e-02 -3.09136450e-01
  -2.64989361e-02 -2.20006872e-02 -3.45825702e-01 -5.74260652e-02
   1.54018179e-01  1.92177668e-01 -8.58034790e-02 -4.29184251e-02
  -6.79800287e-02 -4.80852984e-02  3.08580957e-02  2.78225783e-02
   4.00827825e-02 -9.73148867e-02  9.52770561e-03 -1.61543582e-02
  -2.37079963e-01 -6.56858608e-02 -1.56916550e-03  7.69413784e-02
   3.46431434e-02  1.84241943e-02  4.12797071e-02 -6.10820241e-02
   1.67188607e-02 -8.80730301e-02  5.73495636e-04  5.16622774e-02
  -3.51522505e-01  1.75506756e-01 -1.87901229e-01 -1.27648786e-01
  -1.10076359e-02  1.59887448e-02  1.09372787e-01 -1.49593830e-01
  -2.20491618e-01 -4.30195957e-01 -2.54123628e-01  1.06447935e-02
  -1.72956344e-02  1.82015561e-02 -5.85270720e-03 -3.15921843e-01
   1.48787513e-01  1.67185683e-02  5.64487949e-02 -4.38962519e-01
   4.10792837e-03 -9.44833905e-02 -2.78217252e-02  1.88499223e-02
  -2.30452344e-01 -6.70479536e-02  2.82054394e-02  6.45501316e-02
  -7.76337758e-02 -7.46575221e-02 -1.56035677e-01 -4.05942202e-01]
 [ 3.70849743e-02 -3.54332700e-02 -3.34484056e-02  1.94562912e-01
  -6.83465153e-02 -6.24147654e-01 -4.53957319e-02  5.97402221e-03
   2.83923279e-02 -6.35746047e-02 -1.31992102e-01  2.84357695e-03
  -1.14584282e-01  3.82279277e-01 -1.51288067e-03 -2.98412628e-02
  -9.50589718e-04 -2.74095256e-02  4.26767841e-02 -2.51022339e-01
  -2.08533511e-01 -4.12432440e-02 -3.81447643e-01 -5.39062396e-02
  -6.45132437e-02 -1.63612813e-01  5.03106881e-03  1.45859793e-01
  -6.70523569e-02  7.91416764e-02 -4.96718027e-02  3.48589718e-01
  -1.09491616e-01  2.20120043e-01 -1.00750715e-01 -2.82279134e-01
  -9.77689773e-02  9.55047179e-03 -2.17881486e-01 -3.06735169e-02
  -8.18278939e-02 -7.51472730e-03  1.14510499e-01 -3.63100171e-01
   5.29381707e-02 -2.31617957e-01 -7.72436485e-02 -4.68107373e-01
  -4.05143239e-02  1.04021497e-01  9.02859718e-02 -5.14040232e-01
   1.76147357e-01 -9.84037891e-02  2.94538848e-02  4.20829445e-01
  -2.25829944e-01  2.92965192e-02  3.79020870e-01 -1.88630462e-01
  -1.94753170e-01  5.54501526e-02 -1.41754642e-01 -1.69542447e-01
   1.29160568e-01  1.07931174e-01  9.99831855e-02 -2.17642784e-01
   1.82963684e-02 -2.24831346e-02  2.83121109e-01 -1.02808312e-01
  -5.28479032e-02 -6.17048442e-01 -2.42854968e-01 -7.00356290e-02
   3.32306349e-03 -5.99447228e-02  2.35536769e-02 -2.59123300e-03
   3.78106087e-02 -2.10548371e-01  2.96968617e-03 -3.33129875e-02
   6.24259636e-02 -1.46494166e-03 -7.85065070e-02 -6.81536347e-02
   1.80293024e-02  4.57104146e-02  2.11687729e-01  2.84710992e-02
  -2.34281898e-01  3.22275490e-01 -2.00933859e-01  1.82593822e-01
  -9.29411799e-02 -1.78105626e-02 -1.71339691e-01  3.37922484e-01
   8.81480277e-02  2.25764245e-01  4.36933607e-01  7.24069476e-02
   1.60065562e-01  2.01548636e-01 -2.28222176e-01 -9.07587353e-03
  -4.31980379e-02  1.47611901e-01  1.43265296e-02  1.45556077e-01
   1.66514814e-01  1.85479864e-01 -2.07882822e-02  1.08681567e-01
  -2.02153828e-02 -4.22844253e-02 -3.95352729e-02  2.45171487e-01
   1.80559650e-01 -3.02328654e-02 -3.63574214e-02  9.24118422e-03
   4.43421714e-02  2.00131968e-01  1.05710045e-01 -2.79172450e-01]
 [-5.98207861e-02 -7.73118585e-02 -6.70895129e-02 -3.62326540e-02
  -1.86600477e-01 -1.10738568e-01 -3.92425597e-01  3.00729603e-01
   1.41676236e-02 -2.30572168e-02  1.29226996e-02 -2.01853216e-02
  -1.88199297e-01  1.48857087e-01  3.80395465e-02 -1.53372367e-03
  -5.76358661e-02 -4.15143222e-02  3.76883335e-02  3.04397523e-01
  -9.24662128e-02  1.29520550e-01 -1.62904356e-02  2.12799571e-02
   4.74286973e-02  1.23009428e-01 -4.98049259e-02  2.75822729e-01
  -3.61190885e-02  1.39108628e-01 -1.49007246e-01  2.31230333e-01
  -1.99288353e-01  3.79680783e-01  1.40459359e-01  1.16103422e-02
  -8.52128491e-02 -1.81072429e-02 -4.17040706e-01 -1.82710327e-02
  -3.54569852e-02  5.62666357e-02 -1.30246446e-01  1.68699279e-01
  -2.13501919e-02 -3.71352658e-02 -7.16493577e-02 -1.81808218e-01
   4.65573333e-02  1.44520581e-01 -2.68089890e-01 -4.98444587e-01
   3.21250588e-01 -4.29693684e-02 -4.06929851e-03  1.16105527e-01
   2.80526243e-02 -4.91434149e-02 -3.51504087e-01 -2.78431237e-01
   8.54893252e-02  3.16311479e-01 -4.97849315e-01  3.63223106e-01
  -8.55501276e-03 -6.97973147e-02  7.83021212e-01  4.82779831e-01
  -2.59831958e-02  1.09732356e-02  2.97536522e-01 -8.23605284e-02
   1.20965250e-01 -4.58948724e-02 -2.54994519e-02 -4.26863767e-02
   1.45962341e-02 -5.83725832e-02 -1.38479024e-01  1.43512320e-02
   4.41707037e-02 -3.56054008e-01 -4.65079732e-02 -9.69825238e-02
  -4.24490049e-02 -6.46643713e-02 -4.25544828e-02  6.52498975e-02
  -5.56278676e-02 -6.89598843e-02  9.95785929e-03 -5.61321387e-03
  -9.89056155e-02  2.72413999e-01 -1.14374451e-01  1.37777135e-01
   1.32114649e-01 -4.41503137e-01 -1.96053579e-01  3.37126665e-02
  -4.27524522e-02 -2.30648875e-01  2.56551743e-01  5.10948300e-01
   7.55421594e-02  1.84620887e-01  3.28488797e-01 -2.29546465e-02
  -3.73418555e-02  1.63685996e-02  1.98033616e-01  1.36979520e-01
   3.16890404e-02 -6.26482740e-02  2.38198601e-02  1.53337680e-02
  -4.80079800e-02 -5.25088236e-02 -3.00487187e-02  2.43536264e-01
  -1.03586435e-01  3.46134044e-02  2.23910868e-01  2.41590831e-02
   4.64206375e-02 -9.51448500e-01 -8.91231596e-02 -5.42269684e-02]
 [-5.88959940e-02 -1.92979500e-02 -4.79342490e-02 -1.59858093e-01
  -7.49883950e-02  1.53887182e-01  1.77926093e-01 -7.36593604e-02
   1.20002823e-02  1.04377344e-02  2.72028856e-02  4.26307470e-02
  -1.55072734e-01  2.98330281e-02  2.05370244e-02 -3.23597342e-02
  -2.52780579e-02  1.05272476e-02  3.63240205e-02  5.01383170e-02
   6.41838685e-02 -5.58473356e-02 -2.63614744e-01  2.28731148e-02
  -8.06167629e-03  4.92667444e-02  2.81348936e-02  2.69401401e-01
  -6.83803286e-04  1.08427525e-01  1.51703790e-01  3.90018262e-02
  -3.04402530e-01 -4.68564153e-01  1.57185450e-01 -2.62185782e-01
   1.72228497e-02 -2.57490486e-01  2.43108422e-01  4.32117321e-02
  -2.21425593e-01  5.13721928e-02 -2.19103724e-01 -1.44915625e-01
  -6.31674156e-02  1.93526074e-02 -1.42784208e-01 -1.85621113e-01
  -1.77818481e-02  3.81001025e-01 -2.40730405e-01  1.34348989e-01
   2.13447839e-01 -8.24384764e-02 -8.36559944e-03 -3.97782028e-01
  -1.73340753e-01  2.49345619e-02  6.26659617e-02 -9.46750417e-02
  -2.74270386e-01 -2.00814888e-01 -3.68649215e-02 -8.11964497e-02
   1.40597910e-01 -3.60158421e-02 -8.74833465e-02  1.66737154e-01
   2.00624093e-02 -5.56853926e-03  3.97797197e-01 -1.22449420e-01
  -2.16195032e-01 -2.46569514e-01 -1.27769530e-01  1.77034251e-02
   3.68762687e-02  1.53459460e-02  4.42649936e-03 -5.35391551e-03
  -2.71617677e-02 -3.43378663e-01 -5.00217900e-02 -1.92769729e-02
   1.20734677e-01  9.23338067e-03 -7.08006471e-02 -1.82899565e-01
   1.05688628e-02 -5.25637306e-02  2.01926187e-01  8.41588830e-04
  -2.52353144e-03  1.39602214e-01  5.25383418e-03 -1.68212757e-01
   4.95791435e-01  6.07534163e-02 -1.46125227e-01  2.09835798e-01
  -1.04503974e-01  9.33505502e-03  3.37000452e-02  1.77615747e-01
  -6.15214147e-02  1.28302410e-01  3.89386192e-02 -4.92289886e-02
   2.29742099e-02 -6.97462121e-03 -1.28117040e-01  3.12100768e-01
  -4.21917923e-02 -5.07361814e-02  2.48421468e-02  2.34792978e-01
  -4.35792143e-03 -2.15246633e-01 -9.74750817e-02  2.12842170e-02
  -1.06140673e-01 -5.49030565e-02 -5.37488341e-01 -6.10784106e-02
   3.45868729e-02  1.94781885e-01 -7.73546994e-02  1.21112607e-01]
 [ 6.75602700e-04 -7.06128180e-02 -3.58166620e-02  1.50161952e-01
   1.00624286e-01 -6.73614219e-02  1.56319767e-01 -1.53676644e-01
  -9.42579063e-04 -3.72509435e-02  3.59155893e-01  2.81799491e-02
  -1.63929332e-02 -4.24427502e-02 -6.24889508e-02  2.64106672e-02
  -1.91443358e-02 -3.61984558e-02  2.51055397e-02 -1.58782899e-01
   7.53610022e-03  7.06612617e-02 -2.72107542e-01 -4.95889485e-02
  -9.04201251e-03  4.36437763e-02 -2.43585091e-02  9.95226437e-04
   4.80362820e-03  3.70216787e-01  5.09462580e-02 -1.48008689e-01
   1.93281937e-02 -6.88124821e-02 -3.32752168e-02 -8.93345177e-02
  -6.79258704e-02 -4.44854140e-01 -1.16186112e-01 -4.32308130e-02
   3.15534249e-02  2.11973512e-03 -2.35952556e-01 -5.60769677e-01
   7.31850695e-03 -3.88760060e-01 -7.56301507e-02 -1.80041745e-01
  -4.33381908e-02  3.25178495e-03 -3.42663765e-01 -1.21122360e-01
   1.46552429e-01  2.56332219e-01 -6.51030764e-02  1.62294015e-01
   2.78372671e-02 -7.56571814e-02 -6.72955960e-02 -3.37077886e-01
   2.11846098e-01  3.60594511e-01 -2.58472413e-01 -3.25155020e-01
   2.65861806e-02  1.11856565e-01 -3.40139061e-01 -2.63240933e-01
   4.99478988e-02 -8.37804005e-02 -5.88659585e-01  4.14128089e-03
  -1.14678048e-01 -3.33079368e-01 -2.50335544e-01  2.29042806e-02
  -2.42779031e-02 -3.46289799e-02  2.13262498e-01  4.97168042e-02
  -1.38190333e-02 -9.65383649e-02  4.09943126e-02  2.79031210e-02
   3.03747118e-01 -3.10510937e-02  5.57436459e-02  1.02314190e-03
  -7.48754442e-02  3.11791096e-02  1.50165275e-01 -6.54035285e-02
   2.49080449e-01  4.57122564e-01  4.34354484e-01  2.84505665e-01
   2.68516690e-01 -2.21452609e-01  5.94776720e-02 -1.00559436e-01
   2.46597782e-01 -5.67747235e-01 -1.71922922e-01  1.15130782e-01
   5.11587448e-02 -2.00671777e-01 -1.33988038e-01  4.98967841e-02
  -3.10572851e-02  2.51297593e-01  1.04604647e-01 -6.82615936e-02
   1.21066876e-01  7.25073591e-02 -1.49450535e-02 -8.10350925e-02
   6.27665520e-02  8.33690464e-02  1.03261083e-01  6.29093945e-02
   1.82552233e-01  1.60471927e-02  1.95779026e-01 -4.30147611e-02
  -9.06941146e-02 -1.73310235e-01  1.47619531e-01 -1.64050564e-01]
 [-3.70653942e-02  8.55321810e-03  1.75574142e-02 -1.26469627e-01
   3.80106270e-02 -1.14935795e-02  5.61950952e-02  6.05620332e-02
  -1.87381003e-02  1.54784415e-03  8.74534994e-02  2.02447781e-03
   3.23663354e-02 -7.38053694e-02  4.56538387e-02 -5.38741611e-02
  -1.11924753e-01 -3.01140230e-02  4.02050316e-02 -1.09812789e-01
   4.99343090e-02 -3.17611955e-02  1.18431769e-01  6.42989762e-03
  -1.04924686e-01 -1.91394702e-01 -7.39677101e-02  2.82370776e-01
  -4.40004282e-02 -3.41996998e-01 -2.03783885e-01  5.94554432e-02
  -1.07692191e-02 -1.74409226e-01 -9.93163325e-03 -9.94248763e-02
  -3.77996802e-01  2.21210375e-01 -2.74079014e-02 -4.13096063e-02
  -7.25392848e-02 -2.68006139e-02  1.90423638e-01  1.63104251e-01
   1.76523011e-02 -1.53157160e-01 -5.74140586e-02  1.11934088e-01
  -1.25917932e-02 -3.75395715e-01  1.20683588e-01  9.06513333e-02
  -6.24541678e-02  7.47274086e-02 -4.99021076e-02  1.17071219e-01
  -3.46378922e-01 -7.43242055e-02  7.77605921e-02  3.88074182e-02
  -3.92322131e-02  1.02874048e-01  3.93516600e-01  2.07564607e-01
   4.01703753e-02 -3.59398127e-02 -8.67699608e-02 -2.82903135e-01
  -1.22053605e-02 -3.78691219e-03  4.21840474e-02  3.48464330e-03
   6.81642964e-02 -2.22994247e-03 -2.45051369e-01  6.31852262e-03
  -2.50856392e-02  2.27050111e-02  2.76588351e-01 -2.14009173e-02
   2.89326701e-02 -1.17274486e-01 -4.95141484e-02 -2.67504472e-02
  -2.14955166e-01 -7.27213696e-02  4.46537361e-02 -2.84894168e-01
  -2.94110868e-02  3.62285152e-02  3.18991505e-02 -3.45922820e-03
   1.25575423e-01 -2.36848861e-01  7.08260536e-02  1.54897049e-01
  -3.70990813e-01  4.18207720e-02 -2.93289453e-01 -3.64607722e-02
  -1.27823250e-02  9.77254733e-02  1.98866166e-02  5.00410423e-02
  -1.12432763e-01 -3.43051314e-01 -3.25049162e-01  3.64364162e-02
  -1.53434435e-02 -1.54241800e-01  4.97596115e-02 -1.66765198e-01
   4.79165688e-02  1.09355696e-01 -5.05651012e-02 -2.47663960e-01
  -7.57115483e-02 -9.48769823e-02 -2.75947303e-02  1.37961090e-01
  -1.87137946e-01  2.81934533e-02 -2.03821734e-01  7.60426372e-02
  -4.79126833e-02 -1.45924520e-02 -1.57186329e-01  1.01683535e-01]
 [ 3.33197862e-02 -2.22359337e-02 -1.77975316e-02  5.03748506e-02
   2.11466268e-01  1.08083203e-01 -9.03029647e-03  2.90124044e-02
  -3.10122907e-01  3.86850946e-02  2.13266388e-01  1.75564513e-02
  -1.85606942e-01  1.29246665e-02  3.68055589e-02  2.74622403e-02
  -5.79131432e-02 -3.94160580e-03 -5.83158098e-02  1.77260652e-01
  -1.12801053e-01 -2.17561513e-01 -3.61470617e-02 -2.97174230e-02
  -7.95731544e-02 -7.38281161e-02 -4.87663485e-02  6.17326014e-02
  -2.19705682e-02 -8.10293108e-02  1.32830441e-01  2.41947293e-01
  -1.92655742e-01 -2.42707431e-01 -2.54554629e-01 -4.06117916e-01
  -1.34203464e-01 -4.39393055e-03 -2.47294396e-01  4.50126268e-02
  -1.28381059e-01 -5.33818454e-02  3.60452309e-02  3.81570905e-02
  -1.24642467e-02 -2.02639010e-02 -1.57224704e-02  1.06282994e-01
   3.32476720e-02 -2.38600120e-01  7.55626857e-02 -9.31064412e-02
   5.00058196e-02 -1.36594161e-01 -4.08685245e-02 -1.21971540e-01
  -8.23516846e-02 -1.37048028e-02  2.57816520e-02 -2.18997449e-01
   6.69595972e-02 -7.82376900e-02 -1.06071763e-01  2.71195501e-01
  -3.85963172e-01  1.17239632e-01  3.04937642e-02  1.78707704e-01
  -5.51824905e-02 -2.40697935e-02 -2.18254328e-01 -1.18472323e-01
   1.10143766e-01 -7.35421702e-02  4.97229666e-01 -2.93949954e-02
  -2.84171035e-03  5.12422882e-02 -1.10274822e-01 -4.05618921e-02
  -1.43152904e-02 -1.32146478e-01  1.57183036e-02 -1.19790882e-02
   4.18489911e-02 -6.85708150e-02 -8.63862485e-02  4.90147956e-02
  -5.42303026e-02  4.14736681e-02 -1.48707405e-01 -1.70709956e-02
  -1.81628838e-01 -6.29907176e-02 -1.56787150e-02 -4.83202823e-02
  -1.53623685e-01  5.94598874e-02 -2.44449914e-01  1.80992901e-01
   8.21503624e-02 -1.49937481e-01 -2.31233895e-01 -4.17065263e-01
  -1.98182359e-01 -4.65199739e-01 -1.08252324e-01 -7.64462054e-02
   2.48092506e-03  2.03063741e-01 -1.50963917e-01 -1.65454999e-01
   1.91042535e-02  1.58082008e-01 -6.23239093e-02 -6.56193793e-02
  -6.99875578e-02 -1.48217529e-01 -6.17365241e-02  1.93724576e-02
  -3.32747132e-01  1.24419923e-03 -1.07540108e-01 -4.76307934e-03
   9.37311165e-03 -2.35663950e-01 -2.32927114e-01 -4.34228688e-01]
 [ 2.26040296e-02  2.49949843e-02 -6.49006218e-02 -2.15442091e-01
  -1.12783715e-01 -6.10632718e-01 -5.05069852e-01  2.87107617e-01
  -1.89717673e-02  2.68422514e-02  1.37488037e-01  1.39585733e-02
  -7.08014965e-02 -5.78369081e-01 -4.92616184e-02 -7.33867809e-02
   4.49912697e-02 -6.98916567e-03  2.85201762e-02  1.84085980e-01
  -1.71962216e-01 -1.77803457e-01 -1.47631824e-01 -7.13884085e-02
   6.97756484e-02  4.99334605e-03 -6.22651428e-02  7.75416121e-02
  -6.62099421e-02 -7.58970901e-02 -1.43848956e-01  3.02734256e-01
   1.57580525e-01 -6.44982517e-01  1.19265541e-01  9.46049541e-02
  -3.28854084e-01  1.59385428e-01  8.57936889e-02  3.00567616e-02
  -8.23700354e-02 -6.54332489e-02 -3.51274073e-01  1.65604129e-01
   1.70321446e-02 -1.64919242e-01 -7.52202123e-02 -1.76132247e-01
  -3.06639336e-02  1.24829561e-01 -1.09995224e-01 -8.40684120e-03
   2.67955124e-01 -1.73162133e-01 -3.29629481e-02  2.28881136e-01
   1.59660384e-01  2.31088400e-02  3.02038878e-01 -2.44414464e-01
   8.16440731e-02  2.88201822e-03  6.01207130e-02  2.05262512e-01
   1.45688327e-02 -8.51644799e-02 -1.37812227e-01  1.19784363e-01
   1.83147453e-02 -8.92462581e-02  7.62671307e-02 -3.90537013e-03
   1.33029059e-01 -3.03884119e-01 -5.82990885e-01 -2.05571055e-02
   3.73236276e-02 -6.06630817e-02  3.06849808e-01 -2.47268025e-02
   3.70811261e-02 -4.49587684e-03 -5.97829821e-05 -1.02101892e-01
   1.21699311e-01 -6.00906052e-02 -2.70613916e-02  2.01762110e-01
  -1.86331738e-02  1.04147417e-03  1.01581946e-01  2.76712906e-02
  -2.87272722e-01  4.96111155e-01  4.11944628e-01 -1.20420426e-01
  -9.50052962e-02 -3.13741318e-03  7.77251869e-02  2.30953470e-01
  -1.91172194e-02 -6.01324067e-03  1.69579387e-01 -4.56834100e-02
   2.44189769e-01  1.46652371e-01  4.14970696e-01 -5.54361157e-02
   6.29183324e-03 -7.25610033e-02  1.13431089e-01  1.61815926e-01
   6.33695722e-02 -4.97196801e-02  1.59829302e-04 -1.19208894e-03
  -3.01946998e-02  1.42027140e-01 -4.25668918e-02  9.73557681e-03
  -5.58617413e-01  3.89956795e-02  2.46583641e-01 -2.16918420e-02
   3.23441140e-02 -3.32141399e-01 -1.70636192e-01 -1.31545454e-01]
 [ 2.88958140e-02 -2.63033025e-02 -2.56968802e-03  1.58864051e-01
  -1.09464288e-01 -3.69558275e-01 -1.72533736e-01  6.39574900e-02
  -1.00159384e-02 -3.53711993e-02  6.19067587e-02 -6.35042340e-02
  -1.90707609e-01  4.99862909e-01  1.87339466e-02  3.33650745e-02
  -2.64137960e-03 -7.86090177e-03 -9.63845477e-03 -1.33552849e-01
  -7.04143941e-02 -3.42610367e-02  2.71358699e-01 -1.83071792e-02
  -1.03407241e-02  2.02779368e-01 -3.42380139e-03  6.99535292e-03
  -3.50622162e-02 -2.35306770e-02 -1.40742302e-01  2.82357335e-01
  -2.75389612e-01  1.01449661e-01  1.28422216e-01  7.67330900e-02
  -1.36516124e-01 -5.86061358e-01  1.49832204e-01  3.63002270e-02
   2.21170112e-01  4.95912656e-02  1.20060280e-01 -1.49801895e-01
  -7.66577199e-02 -1.31439030e-01 -3.69721390e-02 -1.59453496e-01
  -1.05626285e-02  1.34981364e-01 -2.74307787e-01 -1.68314382e-01
   1.98113695e-01 -4.20161426e-01 -1.54503752e-02 -2.61666983e-01
  -5.22974133e-02 -9.18716639e-02 -7.22813457e-02 -5.43682650e-02
  -4.59654510e-01 -6.35862574e-02 -2.36950129e-01  2.10335180e-01
  -1.20710157e-01  2.90973354e-02  2.47578770e-01  6.16968513e-01
  -5.40695563e-02 -6.97811991e-02 -1.51046023e-01 -5.94031624e-02
  -4.52515334e-01 -1.33066207e-01  3.10636252e-01 -4.46575284e-02
  -4.05507796e-02 -3.66048962e-02 -3.34753722e-01  2.43457612e-02
  -1.17264464e-02 -3.31896394e-01 -3.46627831e-02  1.40967285e-02
   9.24816281e-02 -7.24667683e-02 -6.93794265e-02  2.74253845e-01
   1.07835820e-02 -5.89580880e-03 -1.85004875e-01  5.44154039e-03
  -1.84743151e-01  6.61122501e-01 -4.00283374e-03 -1.65891906e-05
   1.95595548e-01 -3.34778875e-01 -5.53623028e-02 -2.68303871e-01
  -2.78913945e-01 -7.20295906e-02 -2.37790160e-02  3.74362499e-01
  -4.50952291e-01  4.03194577e-02 -8.87362808e-02 -9.96343046e-03
  -8.95956904e-03  2.67040223e-01  1.17172256e-01  9.76475626e-02
   7.08344653e-02  1.33052036e-01 -3.02223936e-02  1.26658872e-01
   2.45250724e-02 -1.11586779e-01 -5.14014363e-02  1.02481730e-01
   2.87561473e-02 -1.59231375e-03  2.51436949e-01 -7.55350068e-02
   1.20310120e-01 -5.06184459e-01  1.38396071e-03  3.40697691e-02]
 [ 1.67276021e-02 -4.20562737e-02 -8.48487392e-03 -3.28128994e-01
   7.07679149e-03 -2.57269610e-02  3.85155231e-01 -1.28670409e-01
  -9.95465592e-02 -2.26245075e-02 -1.55605987e-01 -6.15902618e-02
  -6.00572862e-02  2.75896221e-01  3.49242911e-02 -6.36396259e-02
   1.42248338e-02 -2.02040486e-02 -4.29062992e-02  4.68244776e-02
  -4.24018428e-02 -1.12411156e-01 -1.36355869e-02  2.41134278e-02
  -1.14470003e-02 -7.69831240e-02 -6.22869655e-03  2.62570120e-02
   5.01937866e-02  5.45717999e-02  7.09349811e-02  2.76081175e-01
  -3.30406189e-01 -2.76584536e-01  1.91143870e-01  9.12471935e-02
  -1.05111361e-01 -6.64292555e-03  2.79361278e-01  5.43947965e-02
   3.21241677e-01 -2.36119591e-02 -1.12920836e-01 -6.84294328e-02
  -3.90621312e-02  2.86757112e-01 -1.93734411e-02 -1.15091048e-01
  -7.67009854e-02  1.44269615e-02  3.29949200e-01  1.21226057e-01
   1.75912306e-01 -9.96604338e-02 -5.41706793e-02  7.08291354e-03
  -2.00523511e-01  1.78955197e-02  4.34887074e-02  4.45219651e-02
   1.30348906e-01 -8.87848623e-03 -2.55265534e-01  2.09281087e-01
  -2.57047378e-02 -1.67065859e-01 -2.60722339e-01  2.50549079e-03
   5.84553182e-02  3.64427455e-02 -7.58799259e-03 -1.04069501e-01
   2.17949644e-01 -2.71025509e-01 -2.36329764e-01  1.79133806e-02
  -5.97509742e-02  7.65897380e-03  1.67349547e-01 -4.14034631e-03
  -4.92488919e-03 -2.20337465e-01 -6.62335157e-02 -3.23567912e-02
   9.24579799e-03  5.42230904e-02  1.33218514e-02 -2.57895440e-01
   9.33542196e-03 -3.59264389e-02  8.71606693e-02  4.24046889e-02
   1.63229808e-01  9.10791531e-02 -2.27725685e-01  6.04763925e-02
   3.49501580e-01  2.86011514e-03 -2.62647152e-01  1.08381219e-01
  -6.62349015e-02 -3.18207406e-02 -2.59553809e-02  1.39139015e-02
   7.54446834e-02  5.62213920e-02 -3.05350702e-02 -2.22499818e-02
  -1.72251917e-03  2.96951294e-01 -9.10821334e-02  1.37566417e-01
   3.89896706e-02 -6.03920072e-02 -3.11416239e-02  4.14216518e-01
  -9.87678915e-02 -4.41520996e-02 -2.73216367e-02 -3.63371074e-02
  -2.30466351e-02  4.13833559e-02 -1.83569819e-01  3.60423401e-02
  -4.63755354e-02 -4.72161770e-02  1.74692258e-01 -2.78864093e-02]
 [ 2.81816639e-04 -7.53351301e-02 -5.24393208e-02 -3.92487682e-02
  -6.12433851e-02  2.29240820e-01  2.37686068e-01  1.13185905e-01
  -5.93405515e-02 -3.23677324e-02 -5.65579943e-02 -2.64792908e-02
  -1.60503522e-01 -1.95854619e-01 -6.67627007e-02 -2.53121089e-02
   5.16791232e-02 -6.06671162e-02  4.93336469e-03 -1.11145809e-01
  -3.73942405e-02 -6.35847971e-02  1.78443655e-01 -1.42640471e-02
   5.82018308e-02  5.53451926e-02  1.26509983e-02 -1.62441686e-01
  -6.31560981e-02  5.90968251e-01 -2.27079287e-01  1.26632467e-01
   1.14936687e-01 -2.48667717e-01 -2.68453211e-01 -1.26891971e-01
  -4.66418173e-03 -3.30584973e-01  2.28883445e-01 -1.95401590e-02
   4.16400164e-01  2.19981465e-02 -3.44809234e-01 -3.80002826e-01
  -2.21490450e-02  6.03392683e-02 -1.07486241e-01  3.41415793e-01
  -4.57113087e-02  1.71743929e-01  1.46516878e-02  7.41612315e-02
   1.23587414e-03 -5.33998162e-02 -1.62982102e-02  1.50859833e-03
  -1.99865088e-01 -4.41844985e-02 -1.07947715e-01 -8.80695283e-02
  -3.36792201e-01  2.33788237e-01 -2.53610790e-01 -6.07026398e-01
  -1.34656340e-01  1.74080923e-01 -7.12146759e-02  2.93055803e-01
   3.98179926e-02  8.35650414e-02  1.71904698e-01  2.37636436e-02
  -4.96472418e-02 -3.40024710e-01 -1.52543560e-01  1.58423409e-02
   4.93296469e-03 -1.03261270e-01  4.29789782e-01  5.49529865e-02
  -1.48941660e-02  5.19655319e-03 -2.76583694e-02 -6.03681430e-02
   1.82749540e-01 -8.14355016e-02  3.13010439e-02  2.95076013e-01
   2.40952219e-03 -5.41699193e-02  1.65803641e-01  1.56750083e-02
   4.24597822e-02  3.74904066e-01  2.13207483e-01  6.39763534e-01
   2.12013219e-02 -1.37152776e-01  2.00880766e-02  3.33552994e-02
  -1.01204775e-01 -2.65424341e-01 -1.00692008e-02 -4.04303581e-01
  -8.86262208e-02 -1.37589157e-01 -1.61200508e-01 -2.85613425e-02
  -5.46752028e-02 -9.24402177e-02  9.61607397e-02  1.13867402e-01
  -2.43417010e-01  4.91338298e-02 -6.57756403e-02  3.78367901e-02
   6.50709644e-02 -2.35500112e-01 -2.67703962e-02 -5.44581972e-02
   2.84029186e-01  1.91032130e-03  2.62379855e-01 -8.34241956e-02
  -1.00782394e-01  5.91933131e-02  1.43582821e-02 -5.19376695e-02]
 [-5.16256392e-02 -4.36516702e-02 -2.99508814e-02 -2.32513443e-01
   3.96684520e-02 -1.47557214e-01  2.20925644e-01  8.91136825e-02
  -1.10378496e-01 -3.29775251e-02  4.55530956e-02  3.42454351e-02
  -9.79545265e-02 -1.19447917e-01  2.33606510e-02 -7.60860518e-02
  -7.35866353e-02 -2.87073012e-02 -5.95691055e-02  2.37617925e-01
  -3.50777581e-02 -1.12523727e-01  1.25492617e-01 -4.01138188e-03
  -3.50532345e-02 -1.62161693e-01  3.34193669e-02  1.52467966e-01
  -3.49855050e-02 -3.99672478e-01 -1.07268713e-01  7.91324899e-02
   1.54886529e-01 -3.19172800e-01 -9.64903310e-02  7.55450949e-02
  -4.01445806e-01  1.13587469e-01  7.24309683e-02  2.71567106e-02
  -2.78671682e-01 -1.35647608e-02  1.72938868e-01  1.16031334e-01
   5.11576049e-03 -3.18122469e-02 -1.05422936e-01 -2.31278703e-01
  -7.48533681e-02 -1.27516657e-01  1.53239202e-02 -3.67671251e-02
   1.16436891e-01  2.63397563e-02 -1.59453228e-02  2.29244549e-02
  -2.48433381e-01 -4.15285937e-02  1.02811255e-01 -8.40898231e-02
   1.13709733e-01 -4.59267199e-02  1.02077313e-01  3.38981479e-01
   3.26050706e-02  1.28734196e-02 -7.18982592e-02 -2.45871261e-01
   3.34841385e-02 -3.78781222e-02 -2.95023620e-02  8.60103592e-02
  -9.76688927e-04 -7.49447271e-02  9.54813138e-02 -4.08717878e-02
   6.85336720e-03 -9.50451009e-03  1.52446225e-01 -4.22223881e-02
  -1.50353536e-02  6.54475242e-02  3.23210396e-02  4.56512310e-02
  -4.22824509e-02 -7.03857467e-03  8.26166943e-02 -1.69441979e-02
  -4.93638171e-03  5.71679175e-02  1.77768901e-01 -1.23063121e-02
   1.17718406e-01 -2.18995720e-01  1.38100032e-02 -1.23765051e-01
  -2.81265527e-01  2.62777135e-02  3.10551990e-02  4.06343006e-02
  -1.27588227e-01  2.19305232e-01  4.45399210e-02  1.57376915e-01
  -1.72076896e-01 -2.55811214e-01 -1.74215928e-01  6.10477338e-03
   4.87059280e-02 -1.10442102e-01  9.59407911e-02 -9.87910852e-03
   2.40149852e-02  2.14852154e-01 -2.15610471e-02 -2.17264190e-01
  -2.98859160e-02 -2.34557554e-01 -8.05538148e-02  2.02275082e-01
  -3.29966575e-01 -6.23377971e-02 -2.24878997e-01 -3.06752883e-02
  -3.21938805e-02 -1.84100289e-02 -1.66140169e-01 -1.01684667e-02]
 [-3.19002718e-02 -5.38415872e-02 -5.71391732e-03  2.05794573e-01
   1.69043720e-01 -1.90202132e-01 -1.90855086e-01 -2.08262414e-01
  -2.05727190e-01 -4.65245806e-02  1.17688186e-01 -9.97025892e-03
  -6.45180121e-02 -5.21349370e-01 -1.22612761e-03 -8.50381181e-02
  -6.48700446e-02 -1.32611282e-02 -7.07863867e-02  1.31525934e-01
   3.99798853e-03 -7.97483847e-02  1.78108156e-01  4.54142131e-02
  -1.48790494e-01  2.93397461e-03 -3.68579221e-03 -1.41125038e-01
   4.37199436e-02  1.30571216e-01  1.65995071e-03 -1.87749282e-01
  -6.46048784e-02 -1.98586762e-01 -3.23375940e-01 -1.97247565e-01
  -1.18182629e-01 -1.63997009e-01 -3.41741979e-01  1.43540418e-03
   8.81099775e-02 -3.87496017e-02  1.05025999e-01  1.69110261e-02
   5.83770573e-02 -7.53966644e-02 -3.45211662e-02 -1.37923598e-01
  -6.40070066e-02  9.87746939e-02 -4.59524952e-02 -2.24393830e-01
   1.07472450e-01 -9.97950807e-02 -2.92214635e-03 -2.57054240e-01
   1.91203833e-01 -6.26789629e-02  2.65363175e-02 -1.76267624e-01
  -8.98057669e-02  2.56147813e-02  1.15756474e-01  1.94525927e-01
  -1.31506965e-01  7.77280554e-02  1.81116804e-01  4.04539984e-03
  -6.40632659e-02  2.79462039e-02  4.39569354e-03 -5.08635864e-02
   4.92756926e-02 -2.14562863e-01  1.95342749e-01  1.99788492e-02
  -5.14776520e-02 -1.65025070e-02 -1.34875834e-01 -3.64107974e-02
  -4.39032121e-03  1.97373793e-01 -8.54982436e-03 -3.91360223e-02
   1.23283677e-02  5.26732719e-03 -8.84741321e-02  4.92647626e-02
  -2.34404244e-02  2.92858128e-02 -1.62170172e-01  1.08470805e-02
  -1.21607937e-01 -2.06588283e-01 -1.31342530e-01  7.57421628e-02
  -3.53973299e-01 -3.67097035e-02  1.48399211e-02 -1.57857850e-01
  -2.39135530e-02  5.73927723e-02 -1.17231198e-02 -3.93691421e-01
  -1.37142211e-01 -2.07415089e-01 -1.88284203e-01 -2.50067078e-02
   3.67942788e-02 -2.58456729e-02 -1.32426485e-01 -3.92877936e-01
  -2.87328571e-01  9.43795592e-03  2.96164248e-02 -1.38276935e-01
   2.32055746e-02 -2.08487138e-01 -3.57010737e-02  5.25637791e-02
  -2.00107291e-01 -3.44593972e-02  9.74694937e-02  1.96469342e-03
  -1.01576105e-01 -1.96168378e-01 -2.57742941e-01 -4.78284210e-01]
 [-6.03788234e-02 -6.24948107e-02 -4.36347462e-02  3.72684121e-01
  -1.58895463e-01 -4.44340914e-01 -1.50966510e-01 -1.19807370e-01
   1.67824045e-01  2.16686316e-02  2.03995258e-01  2.99371164e-02
  -1.60686582e-01 -4.92118448e-02  3.53465229e-02 -8.44566375e-02
  -4.34310287e-02 -5.03566340e-02 -2.52132434e-02  4.24369387e-02
  -1.66574180e-01  1.58675790e-01 -4.53772426e-01 -2.57540457e-02
  -8.29393491e-02 -8.95106792e-03  2.18840614e-02  1.17821299e-01
  -7.36503899e-02  2.07800522e-01 -1.67086467e-01  2.24760652e-01
  -1.60323352e-01  8.50688890e-02  3.24605376e-01 -2.10672021e-01
  -6.19095713e-02 -3.38426083e-02 -1.53484479e-01 -3.98479663e-02
  -1.83462471e-01 -1.80941038e-02 -1.84787780e-01 -4.88405898e-02
  -1.34084802e-02  1.01540834e-01  5.96086401e-03 -3.21100056e-02
   4.73153256e-02  1.61502987e-01 -1.80918556e-02 -3.26696336e-01
  -7.56180286e-02  5.72459325e-02 -7.77509017e-03 -1.10320427e-01
  -3.12502086e-01  1.61126591e-02  3.70988548e-01 -6.22870913e-03
  -7.78159872e-02 -1.02242842e-01  3.23340535e-01  1.65025711e-01
   2.02357396e-01  1.15700677e-01  6.11811504e-02  1.81148335e-01
  -6.22487590e-02 -6.26966432e-02 -2.81904221e-01 -5.44314198e-02
  -2.72213966e-01 -1.25055611e-01 -3.26595992e-01 -6.79531023e-02
   3.12057734e-02 -4.71052676e-02 -5.15090115e-02  4.76844832e-02
  -4.24727909e-02 -1.31399214e-01 -4.98078950e-02 -1.42876580e-02
   2.17482641e-01  3.97092029e-02 -3.85941789e-02  1.60961315e-01
  -5.15422635e-02 -7.34942174e-03 -4.74666758e-03 -3.08617800e-02
   3.35398689e-02  6.11866405e-03  7.88482130e-02  1.71855688e-01
   4.49790061e-01 -1.67216390e-01  1.52177945e-01 -3.88839692e-01
  -7.80166537e-02 -1.63176596e-01 -6.55265003e-02 -7.72744464e-03
  -1.23628102e-01 -8.44332650e-02  4.12254743e-02 -1.74664650e-02
  -2.08867155e-02  1.90600172e-01 -1.56461164e-01 -3.30446422e-01
   3.76665667e-02 -2.16558903e-01  3.65683809e-02 -1.18668512e-01
  -1.90775599e-02  2.49276713e-01 -6.68492094e-02 -7.28533641e-02
  -5.71559668e-01 -4.55437601e-02 -7.27356970e-02 -5.07432558e-02
  -1.04755647e-01 -3.48354578e-02  2.60822475e-02 -3.65779027e-02]
 [ 1.47199100e-02 -3.92754897e-02 -6.33474812e-02  1.83580995e-01
   3.42176184e-02 -3.99746567e-01 -2.26180956e-01  3.03727329e-01
  -3.01051289e-01 -8.29416290e-02  5.77063411e-02 -1.13610632e-03
  -2.45955251e-02  1.88726429e-02 -1.37183699e-03 -2.37963442e-03
   2.02529645e-03  1.84735544e-02  1.46125183e-02 -2.54004806e-01
  -6.64495304e-02 -7.04602227e-02 -1.49909005e-01  9.33256888e-06
   6.21409155e-02  1.98422045e-01 -9.81991068e-02 -4.11568359e-02
  -5.56165911e-02  2.89235771e-01 -9.56899151e-02  2.08131522e-02
  -1.23823911e-01 -3.99880223e-02  7.32479542e-02  6.73594624e-02
   2.57490486e-01 -3.28451693e-01  8.04100707e-02  4.16102484e-02
  -8.50121081e-02 -3.49074267e-02  9.96599793e-02 -4.04783159e-01
   6.10202132e-03  6.08871430e-02 -2.47475170e-02 -3.99776429e-01
  -7.13296980e-02  1.37209492e-02 -3.31514925e-02 -2.43195400e-01
   2.30209142e-01 -8.37995335e-02 -8.46727490e-02  2.07086653e-01
   4.49079052e-02  1.47215147e-02  8.46209079e-02 -7.32316375e-02
  -5.67261100e-01  3.11031282e-01  2.79340982e-01  4.98750359e-01
  -2.45874673e-01  3.73705570e-03  1.14032686e-01  4.71833527e-01
  -3.65055054e-02 -1.63631011e-02  5.84218949e-02  2.84363385e-02
  -4.62896824e-01 -1.55637890e-01  3.11362177e-01  3.45743704e-03
  -4.46542129e-02 -4.12646309e-03  2.40285881e-02  2.27752142e-02
   3.20433080e-02 -6.23047799e-02  1.57706887e-02  6.41879207e-03
  -1.46792307e-02 -9.30109173e-02 -6.63434565e-02  1.85976587e-02
  -4.32085097e-02 -1.33109614e-02 -2.01687694e-01 -1.96722634e-02
  -3.94323915e-01  3.70286740e-02  1.10986903e-01 -3.27548146e-01
   5.51400967e-02 -6.92272484e-02 -1.48687186e-02  2.27071866e-02
   4.85175885e-02 -1.17044389e-01  1.90699384e-01  1.22078791e-01
   1.48167580e-01  3.21149796e-01 -4.08182681e-01  3.22565669e-04
  -6.21663742e-02  1.74238309e-01 -1.07298130e-02  1.89140394e-01
   1.27792910e-01  2.00236633e-01 -6.48713261e-02  1.66156903e-01
   2.46070269e-02  4.58820313e-02 -4.67571393e-02 -1.35179507e-02
  -2.20846813e-02  1.06585333e-02  1.69632614e-01 -3.31309587e-02
  -9.91974957e-03 -2.18705088e-01  3.95505130e-01 -1.18398517e-01]
 [-3.29899713e-02 -3.17667238e-02  3.25901583e-02 -2.04762608e-01
  -1.62525438e-02 -1.62464976e-01  3.81552905e-01 -1.78867415e-01
  -2.36880928e-01 -2.04960592e-02 -2.28587985e-02 -1.33918030e-02
  -8.51081982e-02  1.29094318e-01 -4.83243465e-02 -2.48460025e-02
   4.64864671e-02  9.67523083e-03 -3.71398143e-02  2.01392099e-01
   4.13733497e-02  3.94748263e-02 -5.54471230e-03 -4.86370064e-02
   3.44101563e-02 -1.17032908e-01  1.06258905e-02  1.69748127e-01
   1.50463413e-02  8.57834145e-02  1.22612804e-01  1.43264318e-02
  -2.08198428e-01 -9.63335708e-02  1.40229717e-01  1.49285689e-01
  -2.06271484e-01 -3.03497136e-01  2.23148718e-01 -5.99537008e-02
   3.23731527e-02 -1.08293984e-02 -1.73160374e-01 -9.85363424e-02
  -1.96554512e-03  1.97006926e-01  1.04483096e-02 -1.48049831e-01
  -1.65155120e-02 -8.25499594e-02  1.41872540e-01 -3.09825595e-03
  -1.38927281e-01 -9.68215540e-02  1.88386086e-02  2.29444593e-01
  -1.54247954e-01  8.29214752e-02 -6.58128634e-02  1.31917119e-01
   2.01505944e-01  6.61976635e-02 -1.69601545e-01  1.27276242e-01
   1.11674301e-01  2.98840404e-02 -3.23812246e-01  2.10665584e-01
   5.94651587e-02 -1.47090871e-02 -1.38984129e-01 -1.13357589e-01
   1.51248500e-01 -1.76706120e-01  1.56629588e-02 -3.58060785e-02
   1.75457299e-02 -1.10863475e-03  2.38518920e-02 -5.12661366e-03
   8.04606974e-02  5.26045784e-02  1.41120832e-02 -2.80360170e-02
  -4.31741625e-02  1.82952341e-02  4.55387490e-04 -1.87825993e-01
  -6.79786922e-03 -4.68727909e-02  1.97833963e-02 -1.58171216e-03
   1.87490657e-01 -1.71966627e-01 -3.77121896e-01 -3.48339565e-02
  -6.10796027e-02 -9.20381323e-02 -1.76132277e-01  2.83257991e-01
  -1.94871187e-01  7.67214298e-02 -2.26226717e-01  4.51769292e-01
   3.21496502e-02 -2.04595149e-01 -7.38142133e-02 -9.21982080e-02
  -2.64857411e-02 -5.25544025e-02  5.58636524e-02 -1.59703851e-01
  -6.82465583e-02 -1.11575142e-01  3.69418561e-02  1.38152257e-01
  -5.88595010e-02  2.42519956e-02 -5.59668243e-02  1.28385946e-01
  -1.90709978e-01 -1.34141427e-02 -2.67460085e-02  8.95301066e-03
   6.18865015e-03 -2.11293846e-01 -6.91735093e-03 -9.71726701e-02]
 [ 3.67012620e-02 -5.16854376e-02  7.60614127e-03  2.83302307e-01
   3.50902051e-01 -2.22304258e-02  2.22975001e-01 -1.18094891e-01
  -2.42283851e-01 -1.08745582e-02  2.14313686e-01  3.85354236e-02
  -1.01159602e-01 -1.28738862e-02  2.82361750e-02 -9.13474336e-03
  -5.74443005e-02 -5.66994883e-02 -4.19857353e-02  1.74404100e-01
  -6.24289736e-02 -1.26124069e-01  4.62284461e-02  5.41846901e-02
   5.00943214e-02  2.27216017e-02 -4.49996814e-02 -1.16827019e-01
  -7.44358003e-02  3.11030477e-01  1.89446837e-01 -1.60514578e-01
   4.42564160e-01  1.05258584e-01  5.52760474e-02 -2.43788317e-01
   1.81481332e-01 -7.76315868e-01 -2.32920915e-01 -6.33317977e-02
   2.89906681e-01 -6.56782091e-02 -4.04445350e-01 -4.37070936e-01
   5.19659778e-04 -1.83164462e-01  3.98252569e-02  2.53207013e-02
  -2.75591705e-02  6.61844388e-02 -4.57510315e-02  1.30182803e-01
  -2.95813441e-01 -1.86768264e-01 -6.41047210e-02 -6.32181987e-02
  -3.79022919e-02 -1.11806639e-01 -1.26578152e-01 -5.19423261e-02
  -3.53953354e-02  8.65119621e-02 -6.35671243e-02 -9.25774500e-03
  -1.75321266e-01  9.57708284e-02  1.38376439e-02 -8.93121958e-02
  -2.73682829e-02 -1.51895657e-02 -1.79877922e-01 -8.53362773e-03
  -4.20888156e-01  2.25140795e-01 -2.21982859e-02 -5.01968898e-03
   5.07104620e-02 -7.51290470e-02  2.20740899e-01 -5.99449836e-02
   8.26418549e-02 -2.75013685e-01 -6.34509698e-02 -9.06544849e-02
   3.69948149e-01 -4.75132801e-02  8.71578883e-03  1.49161935e-01
  -9.70577821e-02 -5.26858978e-02  3.23523968e-01 -3.19454074e-02
  -1.81316122e-01 -3.12750190e-01  1.02696240e-01  5.29099524e-01
  -1.32230297e-01 -2.51606405e-01 -2.71010011e-01  7.37016201e-02
   5.90278544e-02 -3.33410315e-02  6.87809139e-02 -2.15337113e-01
  -4.98932123e-01  6.18554279e-03 -1.12361319e-01  6.21321029e-04
  -5.67742996e-02  1.92450032e-01 -1.88540500e-02  2.36843362e-01
   2.81705409e-01 -6.65563643e-02  4.91416901e-02  4.51828420e-01
  -1.93514787e-02 -9.35916379e-02 -2.29830369e-02  1.15656540e-01
  -2.66871997e-03 -1.85560621e-02  2.62044340e-01 -4.36963663e-02
  -4.44544740e-02  1.57394648e-01  3.80616456e-01 -6.67001903e-02]
 [-4.90572527e-02  1.13651389e-02 -6.25926852e-02 -2.22667217e-01
   8.59057754e-02 -1.16934627e-01  1.34151101e-01  1.72756389e-02
   6.95363060e-02  2.17285194e-02  2.42113099e-01  2.27577556e-02
  -1.00735828e-01 -2.92913824e-01 -2.75049079e-03  6.55128621e-04
  -4.17855196e-02  1.47824623e-02  5.91079099e-03  1.40288159e-01
  -1.81623429e-01 -6.23088889e-02  1.65465862e-01 -2.65589524e-02
  -4.68611158e-02 -2.64703184e-01  3.36478651e-02  2.43176962e-03
  -2.89493892e-02 -3.20081592e-01 -1.23374216e-01  6.95650950e-02
   4.81919125e-02 -2.46322364e-01 -6.27482086e-02 -3.14079300e-02
  -3.72394800e-01  1.33413628e-01  5.83100878e-02 -2.46523656e-02
  -2.06565022e-01  5.73242344e-02  1.48384064e-01  2.61793077e-01
   6.58005290e-03 -2.91160438e-02 -3.93913351e-02 -2.08475828e-01
  -4.00290042e-02 -1.32362366e-01 -1.88818593e-02 -1.79250352e-02
   1.04928948e-01  9.86175332e-03 -1.07308524e-02  3.93267237e-02
  -4.13738936e-01 -1.00680418e-01  7.04118907e-02  1.96290851e-01
   2.61114165e-02  8.55616108e-02  5.35167716e-02  3.31763536e-01
   9.17852819e-02 -5.21698743e-02 -8.56108777e-03  6.08392544e-02
   5.68348961e-03 -7.91747794e-02  7.75478408e-02 -2.63324976e-02
   6.76151067e-02  4.06114906e-02 -3.00221648e-02  3.30693573e-02
  -4.94791456e-02  1.55522665e-02  2.46688239e-02 -5.03632911e-02
  -7.06917569e-02  1.48416311e-01 -2.25002021e-02  2.07411312e-02
  -1.51551828e-01 -4.49560992e-02  2.88314987e-02 -2.38883674e-01
   6.61379993e-02 -1.43243978e-02  3.34577560e-02 -5.06919846e-02
   1.95882812e-01 -2.97118694e-01  4.81164223e-03 -1.73096005e-02
  -6.03713281e-02  2.37626918e-02  1.45262003e-01 -1.68835759e-01
  -8.10394958e-02  1.71108112e-01 -6.14440674e-03  6.81702048e-03
  -5.36608770e-02 -7.48863146e-02  3.90077988e-03  2.60835271e-02
  -5.67888245e-02 -2.95295388e-01  2.39406731e-02 -1.47853002e-01
   2.59203494e-01  1.54418647e-01  2.25655343e-02 -2.76571214e-01
   3.40366587e-02 -1.59034297e-01 -3.83837856e-02  2.64807075e-01
  -1.81738526e-01  5.34459278e-02 -1.25932932e-01 -3.89750227e-02
  -2.34545730e-02  4.60452288e-02 -1.17454097e-01  1.35623202e-01]
 [-3.34205031e-02 -4.09018248e-02 -2.10802350e-02  1.60111502e-01
   1.65170237e-01 -8.73287618e-02 -2.51858503e-01 -1.26220733e-01
  -8.70596431e-03  3.74306366e-02  1.74285918e-01 -2.53252946e-02
  -4.46264036e-02 -2.23051772e-01  4.41394886e-03 -3.62590291e-02
   1.43205945e-03  2.70055700e-02 -3.20747308e-02  1.27138169e-02
   1.33205473e-01 -7.00764433e-02  2.89852619e-01 -5.27529754e-02
  -1.67635873e-01 -8.12710598e-02 -2.60390155e-03 -3.15855667e-02
  -8.58477317e-03  1.41097993e-01  3.39132659e-02 -2.75533319e-01
   1.34103045e-01 -1.66283950e-01 -5.50619423e-01 -1.35637701e-01
   4.75624623e-03 -6.23418130e-02 -1.21261671e-01  3.19480672e-02
   1.56567693e-01 -6.60533085e-02  1.84173971e-01  1.90163583e-01
  -8.31655879e-03 -1.74890012e-01 -3.79711241e-02  1.83633730e-01
  -5.06013222e-02  1.05779842e-01 -1.48367062e-01 -2.26219684e-01
   5.59622794e-02  1.71104461e-01 -4.27808724e-02 -2.70406216e-01
   1.91265754e-02  3.79176810e-02 -5.17084450e-02  1.02799155e-01
   5.92788979e-02  1.66345254e-01  3.19867969e-01  2.14194715e-01
  -2.65056849e-01  2.36145213e-01  2.81052679e-01  2.23554075e-02
  -2.85844523e-02  1.37165254e-02  6.05458654e-02 -1.37746662e-01
  -2.69893147e-02  1.58762131e-02  1.62413761e-01 -2.55048129e-04
   2.28661466e-02  5.83471209e-02 -1.36755710e-03 -1.44792153e-02
   3.72544304e-02  1.07209422e-01 -3.44390646e-02 -8.29797611e-02
   1.85497567e-01 -7.61368275e-02  4.02991986e-03 -9.09810364e-02
  -3.32829356e-02  3.51292863e-02  6.95455540e-03 -3.29838768e-02
  -4.04209226e-01 -2.06201240e-01 -7.12954486e-03 -4.24425825e-02
  -1.32328033e-01 -3.69488783e-02  1.91743389e-01 -1.37669250e-01
  -9.24923941e-02 -1.06348405e-02  1.23045504e-01 -9.71853286e-02
  -1.56296328e-01 -2.05164313e-01 -9.86178443e-02 -6.66795969e-02
   3.79103497e-02 -2.36554727e-01  8.67507011e-02 -3.39026511e-01
  -3.30788165e-01 -2.24715434e-02 -4.46419418e-02 -5.29338002e-01
  -4.14712401e-03 -3.64364088e-02  1.39504587e-02 -1.79942220e-01
  -5.87378331e-02 -6.07994795e-02  1.38841137e-01  5.77959232e-02
  -7.55495578e-02 -1.80252925e-01  1.70320030e-02 -1.37746707e-01]
 [-1.73271988e-02  4.77640107e-02 -1.24788303e-02 -3.17920707e-02
   9.33533907e-02 -9.48574468e-02  7.79010728e-02 -7.84001220e-03
  -1.59934267e-01 -1.58630889e-02  6.52101412e-02  1.05557898e-02
   3.94136347e-02 -3.78854215e-01  4.98577878e-02 -6.07543625e-02
  -6.43211529e-02 -1.54282404e-02  1.57695860e-02 -7.87548870e-02
  -2.29853556e-01 -4.94762771e-02 -1.85799092e-01 -1.80654880e-02
  -2.34879255e-02  4.96943630e-02 -5.45659252e-02  1.83010057e-01
  -9.71787726e-04 -1.22014835e-01 -4.88278419e-01  1.67326152e-01
   8.55778158e-02 -3.48498225e-02  2.22179040e-01 -1.04955500e-02
  -1.95440829e-01  1.82751164e-01  4.00895149e-01 -3.33286263e-02
   8.22010785e-02  4.65925969e-02 -2.31274888e-01 -1.71475541e-02
   3.21786441e-02  3.26723838e-03 -1.81950070e-02 -3.49405497e-01
   9.28773917e-03 -7.56399259e-02 -5.13786733e-01 -2.55103260e-01
   4.67565320e-02  3.27039123e-01 -9.12387390e-03  4.21158113e-02
   8.16431418e-02 -2.80889124e-02  6.13829076e-01 -7.95839801e-02
   8.13573301e-02 -1.39415622e-01  9.33660194e-02 -2.28109583e-01
   2.21985742e-01 -2.48453483e-01 -9.99391600e-02  2.92026885e-02
  -4.71381396e-02 -7.51390308e-02 -2.23949015e-01  6.76864013e-02
   9.34939459e-02 -2.96944588e-01 -9.37455893e-02 -4.00363952e-02
   3.20524611e-02 -4.34238352e-02 -1.55542220e-03 -3.56849446e-03
  -3.70702147e-02 -8.56928676e-02  1.78808291e-02 -6.89934418e-02
  -9.88276768e-03  1.18276738e-02 -3.94138619e-02  7.67077804e-02
   6.79045450e-03 -5.55625223e-02  2.67982781e-01 -4.11306210e-02
   2.35107958e-01  9.05257314e-02 -2.53724217e-01 -2.42733449e-01
   1.26338378e-01 -2.42088556e-01  6.68309256e-02 -1.86805427e-01
  -3.03933978e-01 -2.21766829e-02 -2.58394331e-01 -1.80485159e-01
   1.33971721e-01  2.34092213e-03  2.79737972e-02  1.20567847e-02
  -2.69588344e-02 -4.43195924e-03 -3.27457696e-01 -2.52553761e-01
   1.01353768e-02  1.18432105e-01  1.59337781e-02  3.74360457e-02
   1.55232893e-02  1.09327689e-01  1.73499826e-02  1.27338916e-01
  -4.13355142e-01  3.56231183e-02 -6.13166131e-02  3.58753540e-02
  -1.04573540e-01  6.50807545e-02  4.10555035e-01  2.47752801e-01]
 [-4.07209210e-02 -8.27908218e-02 -5.46979643e-02  6.62624836e-02
  -1.46864146e-01 -3.14027190e-01 -3.54765207e-01  4.71174359e-01
  -1.45984784e-01 -1.33855653e-03 -1.19319864e-01  2.14762259e-02
  -2.40689870e-02  2.03025222e-01 -5.82266860e-02 -1.39338672e-02
  -4.68806876e-03 -4.93388809e-02  4.46658991e-02 -3.72279108e-01
  -3.97382155e-02  2.10231892e-03 -2.48167932e-01 -3.82547155e-02
   1.57805365e-02  8.69430229e-02 -5.67401536e-02  1.76812351e-01
   3.65057476e-02 -1.46811111e-02 -6.10582568e-02  1.49049804e-01
  -5.01586236e-02  2.49343775e-02  1.82961121e-01 -1.30470723e-01
   6.92781359e-02  8.20576493e-03 -3.63389313e-01 -6.07154220e-02
   1.85604185e-01 -7.12847756e-03  3.72027904e-02 -2.51519650e-01
  -2.22472083e-02 -5.91096617e-02 -9.82339606e-02 -4.26459491e-01
  -3.99002880e-02 -6.74607530e-02 -1.61131501e-01 -1.99417993e-01
  -3.29668634e-02  7.83500895e-02  7.79388100e-02  1.89666092e-01
   2.04490408e-01 -4.01422158e-02 -2.32492518e-02 -4.28541452e-01
  -4.49820012e-01  4.22362328e-01  5.84857762e-01 -3.50934304e-02
  -3.13582093e-01  1.25831679e-01  3.96958560e-01 -1.75676763e-01
  -4.39830422e-02 -6.22398965e-02  6.15753829e-02 -9.14700851e-02
  -3.83696169e-01 -9.96682793e-02 -3.70356649e-01  2.02597883e-02
   5.96272526e-03  6.70378562e-03 -9.21435505e-02 -5.90916863e-03
   1.82297751e-02  5.18624857e-02  9.06552002e-03 -4.89721540e-04
   1.45059917e-03  8.58737272e-04  2.04168223e-02 -4.49160598e-02
  -7.06647485e-02 -6.59551471e-02  7.41292238e-02 -2.95642260e-02
  -4.89319444e-01  1.09394193e-01  1.99466988e-01 -1.19858883e-01
   1.06639035e-01  4.07984197e-01  3.30555528e-01  2.31581375e-01
   5.67671359e-02 -3.86475712e-01  8.40304494e-02 -2.73093600e-02
   5.33270955e-01  3.00285518e-01  1.31307945e-01 -5.53174280e-02
  -3.24490294e-02 -3.75706307e-03  2.67436922e-01  2.04776540e-01
   1.92478865e-01  3.23815554e-01 -5.28522171e-02  1.21058701e-02
  -2.28621252e-02  1.15290344e-01 -4.65010777e-02 -3.97009313e-01
  -2.23724544e-02  1.43031701e-02  1.54126301e-01 -6.40021488e-02
  -6.53634546e-03 -9.71854031e-01 -2.54886597e-01  6.90546781e-02]
 [ 2.64349431e-02  4.37277108e-02  2.36110911e-02  2.01286644e-01
   1.04115205e-02 -2.52705991e-01 -2.60792196e-01 -1.10547543e-01
  -1.74864337e-01  2.73397323e-02  1.60360202e-01  1.93205336e-03
   9.08740517e-03  3.58558834e-01 -6.30586371e-02 -5.46283983e-02
  -4.37676571e-02  4.97589670e-02 -3.50069590e-02 -4.86664400e-02
  -1.63442176e-02  5.16622178e-02 -2.52348036e-01 -1.62030931e-03
  -6.78000599e-02 -1.90814540e-01 -2.21351385e-02  9.17133987e-02
   1.51474131e-02  1.39204502e-01 -4.04112577e-01  1.52539872e-02
  -1.67812228e-01  8.38507339e-02  1.44622564e-01  1.51044771e-01
   1.69003129e-01 -1.80722222e-01  3.35226536e-01 -5.13917692e-02
  -2.14924768e-01 -3.95944752e-02  1.88394915e-02  2.84517761e-02
   2.19142046e-02  1.74937159e-01  4.82929987e-04 -1.94192469e-01
   8.22066236e-03  2.81320699e-02 -1.43115923e-01 -2.96855867e-01
  -7.30818417e-03  7.71438703e-02  7.61013245e-03  9.84616801e-02
  -3.55062246e-01  6.36323467e-02 -2.12084398e-01  5.22973798e-02
  -1.46940812e-01 -1.45876050e-01 -2.13134155e-01  2.94739008e-02
  -4.51901881e-03  5.87583259e-02 -1.68003529e-01  4.71972823e-01
  -3.40205356e-02  1.12930778e-02 -1.70834124e-01 -2.10588686e-02
   2.20183566e-01  2.46980086e-01  1.09665222e-01 -6.49040267e-02
  -2.82821171e-02  3.80342789e-02  1.15923323e-01 -6.38038367e-02
   7.08642378e-02  7.45917708e-02  2.82843485e-02 -3.64192463e-02
  -1.34190500e-01 -2.34102756e-02 -7.80291529e-03 -6.90555796e-02
   1.48050990e-02 -4.20898348e-02 -6.09516688e-02  6.37446120e-02
   3.34887989e-02 -1.02792252e-02 -3.10250610e-01 -1.09991960e-01
   2.77089141e-03 -1.88728608e-02 -2.96498567e-01 -1.25797763e-02
   8.45050588e-02 -2.83009111e-04 -2.80836374e-01  4.83594775e-01
  -9.98024791e-02 -8.23162943e-02 -8.41575488e-02 -5.46049178e-02
   4.85003106e-02 -3.95025849e-01  1.57333136e-01 -9.16865617e-02
   1.54022172e-01  3.54942307e-02 -4.80197072e-02 -2.66427528e-02
   2.72994898e-02  8.01563039e-02 -6.00284897e-02  7.03685135e-02
  -5.83696902e-01  9.53688473e-03 -6.29240926e-03  1.87656898e-02
   9.89328139e-04 -1.49115667e-01 -1.34677127e-01 -3.39663625e-01]
 [-5.78680374e-02 -5.06565347e-02 -2.21044617e-03  3.99455994e-01
   2.49211550e-01 -5.33221737e-02 -4.11786586e-02  6.30160049e-02
  -3.07281494e-01 -7.05526676e-03 -7.11154658e-03  1.85816847e-02
  -2.84906272e-02  2.71580322e-03  3.72663210e-03 -3.08101606e-02
  -6.48361742e-02 -3.73171382e-02  5.94683327e-02  1.97459713e-01
  -2.46944368e-01 -1.31024688e-01  4.01818931e-01  8.39923136e-03
   3.04245185e-02 -1.52196199e-01 -1.37446187e-02  7.78082982e-02
  -1.89269613e-02 -2.22152680e-01  1.57677799e-01  1.24918157e-02
   9.36792642e-02  1.54749483e-01  1.28810003e-01 -2.08388492e-02
  -2.74177524e-03 -5.70394516e-01 -4.70573962e-01  4.40361127e-02
   1.19237177e-01 -2.25859769e-02 -2.90540814e-01  2.83567631e-03
  -2.29068547e-02 -1.10551193e-01 -6.33446276e-02  1.71187669e-01
   4.76357527e-02 -3.91314961e-02 -3.00459396e-02  9.16571841e-02
  -3.24217111e-01 -3.78399231e-02 -7.98004791e-02 -2.76219279e-01
   2.70768762e-01 -7.23677501e-02 -2.41555162e-02 -1.62732720e-01
   9.59933735e-04  1.11412458e-01 -1.02154016e-01  9.29559916e-02
  -4.14075762e-01 -1.53568517e-02  4.34609741e-01  2.61252522e-02
  -8.74210075e-02 -2.41309348e-02 -9.73456278e-02 -2.80277487e-02
  -2.21999303e-01 -2.00598523e-01 -1.30226687e-01 -3.43026146e-02
  -6.21512830e-02 -9.47201177e-02  2.29225382e-02 -7.98757449e-02
  -3.12519036e-02  4.03878763e-02 -1.83089578e-04 -2.10240390e-02
  -1.00575589e-01 -9.04744938e-02  3.40134371e-03  5.69485724e-02
  -7.56634474e-02 -4.07123454e-02  1.55926213e-01 -6.68208301e-02
  -5.88847548e-02 -2.50939757e-01  2.03258842e-01  1.61144540e-01
  -2.28399277e-01 -1.60289139e-01  1.90763716e-02  2.45610073e-01
   1.65636688e-01  3.97286424e-03  6.94447681e-02 -2.88043559e-01
  -2.22962290e-01 -9.32443738e-02 -6.48933575e-02  2.08788048e-02
   7.86916539e-03  2.91229859e-02  3.86609696e-02  3.05885464e-01
  -3.43135670e-02 -3.24927300e-01  2.87371147e-02  1.85510218e-01
   4.37243842e-02  1.98106140e-01 -2.31200792e-02  4.82862256e-02
  -1.17979525e-02 -1.34559544e-02 -2.96858996e-02 -4.14240621e-02
  -1.06527284e-01 -3.26573074e-01  2.21247032e-01  2.93295056e-01]
 [-7.72455782e-02 -9.70656238e-03 -2.50972193e-02 -4.11978923e-02
  -1.95609219e-03  3.26370746e-02  1.68040872e-01  1.17270239e-02
  -2.25263596e-01  1.33542335e-02  2.89288580e-01  2.08702926e-02
   5.94205335e-02 -1.39742017e-01 -4.15773690e-02  2.31845547e-02
  -2.58467607e-02 -8.43485743e-02  2.95797400e-02  2.93743253e-01
  -1.22987412e-01  6.19591959e-02  1.11930847e-01  8.07884708e-03
   1.21924449e-02 -2.09720284e-01 -3.04470658e-02 -5.59590980e-02
  -5.93144484e-02 -1.50286496e-01 -3.29572320e-01 -4.86934744e-02
   2.89899975e-01 -4.10840511e-02 -2.00429991e-01  4.29132432e-02
  -2.30997309e-01  1.23815857e-01  1.44871399e-01  5.17573804e-02
  -1.27667487e-01 -3.12900753e-03  7.22985566e-02  2.50882834e-01
  -6.25133812e-02 -9.95865241e-02 -2.51141912e-03 -3.16024989e-01
   6.10728236e-03 -1.02517873e-01  9.67912748e-02  3.56754176e-02
   1.13674976e-01  8.07715431e-02 -5.98314079e-03  1.46661639e-01
  -1.03998780e-01 -5.76900765e-02  9.90608707e-02  8.46046731e-02
  -8.78950134e-02  5.12926020e-02  1.45656779e-01  2.41457447e-01
  -2.93056164e-02  3.78860906e-02 -5.55729158e-02 -2.84729302e-02
   5.35374274e-04 -3.84853035e-02 -8.05416256e-02 -8.86382011e-04
   4.10093889e-02  1.85154602e-01  5.09412847e-02  2.02001594e-02
  -3.94168869e-02 -1.68266036e-02 -2.10614828e-03 -5.64317703e-02
  -4.78860140e-02 -2.11432818e-02  9.60171781e-03 -5.03454804e-02
  -1.43286228e-01 -8.79068002e-02  3.20396759e-02 -1.27570167e-01
   2.30923649e-02  8.73986818e-03  1.18956640e-02  8.03527597e-04
   1.09443098e-01 -1.72105655e-01 -1.36699472e-02 -5.52903069e-03
  -8.97562280e-02  7.82930702e-02 -7.62750432e-02 -5.59716783e-02
  -2.61970013e-02  1.31988153e-01 -7.17288852e-02  1.34719804e-01
  -2.06353348e-02 -6.25620410e-02  1.00838892e-01  4.02460061e-02
  -1.37819545e-02 -1.43650874e-01  5.53574599e-02 -1.31958738e-01
   2.13395625e-01  1.07476078e-01 -1.62178054e-02 -2.71012723e-01
  -2.08305661e-02  3.28728557e-02 -6.33657426e-02  1.40590280e-01
  -1.70206681e-01 -5.91497347e-02 -8.21223930e-02 -3.27648818e-02
  -3.93099226e-02  1.42536849e-01 -8.80093873e-02  5.34096323e-02]
 [-2.43928097e-02 -4.55914140e-02  3.43244001e-02  8.79781321e-02
   1.77990153e-01  4.47614715e-02 -1.33187667e-01 -1.41867504e-01
   2.92560868e-02 -2.68228306e-03  2.30991945e-01 -2.01848894e-02
  -1.29893616e-01 -2.63721108e-01 -2.31569763e-02  3.88454013e-02
  -6.29367158e-02 -4.88906540e-02  2.81289723e-02  9.72472224e-03
   1.09824471e-01  2.40925550e-02  1.10769525e-01 -1.22634275e-02
  -4.00384665e-02 -1.06811866e-01 -7.97413290e-02 -2.53287524e-01
  -4.43565138e-02  1.45368844e-01  4.27855283e-01  1.18533187e-01
   2.66327232e-01 -5.40530860e-01 -1.56982750e-01 -1.05644628e-01
  -1.79476753e-01  8.00645798e-02 -6.28831461e-02 -5.78190386e-02
   1.20792434e-01 -4.40129265e-03  1.08539432e-01  8.69284421e-02
  -8.22535623e-03 -1.73579946e-01  8.06947704e-03  6.06064089e-02
  -8.49081278e-02  4.15227979e-01 -1.96467906e-01 -7.38651305e-02
   8.90073329e-02 -7.90381283e-02  2.92621423e-02 -4.19572778e-02
  -4.99659255e-02 -7.81737715e-02 -1.88948382e-02 -7.62026384e-02
   9.88627374e-02  8.24818537e-02  4.51520234e-01  4.43331391e-01
  -2.36439526e-01  3.14995438e-01  1.71373889e-01  3.34460378e-01
  -2.61451397e-02 -6.59392625e-02  2.46579558e-01 -1.02247000e-01
  -1.81293935e-01  2.77496785e-01  1.72482897e-02 -3.21676359e-02
  -5.95205687e-02 -3.39374468e-02  4.52388525e-02 -4.45897551e-03
  -1.89441815e-02 -2.89005693e-02  4.67795022e-02 -1.72109623e-02
  -8.64652321e-02 -1.27123874e-02 -4.12409455e-02  1.09911881e-01
  -2.89676506e-02 -3.36758792e-02  1.09891735e-01 -4.35869955e-02
  -1.37881666e-01  2.37287730e-02 -1.53660178e-01  7.29471967e-02
   1.17182299e-01 -2.31048748e-01 -5.01504950e-02 -2.93490976e-01
   4.36679386e-02 -1.62439510e-01 -2.28299901e-01 -3.82867843e-01
  -2.41594106e-01 -3.10087800e-01 -1.02184698e-01 -2.95244288e-02
   6.61025271e-02 -9.35558751e-02  1.74215257e-01 -2.44153589e-01
   4.18564454e-02 -1.31863188e-02 -1.83943007e-02 -2.88989931e-01
  -1.73759181e-02  1.95273813e-02 -1.94966719e-02 -6.20445721e-02
   1.35960996e-01 -7.21615972e-03 -5.51071949e-02 -1.35521609e-02
  -7.06480891e-02 -2.41091311e-01 -1.08462185e-01 -1.70138940e-01]
 [ 1.50712794e-02 -5.78535721e-04 -5.78122586e-02  1.65491790e-01
  -6.34306222e-02  3.22184846e-04 -1.16592813e-02 -1.26267383e-02
  -3.47697228e-01 -1.66230462e-02  2.02209473e-01  8.25519860e-03
  -4.77415770e-02  1.39796920e-02 -4.60116938e-02 -3.10710855e-02
   2.31950674e-02  2.57377867e-02 -3.18706781e-02 -1.71239227e-01
  -2.24085569e-01 -9.75243449e-02 -4.66667324e-01  2.65753735e-02
   8.06973502e-02  1.00650601e-01  2.28565540e-02  6.27085567e-02
   3.25106233e-02  5.06964810e-02 -4.58391234e-02 -1.28018543e-01
  -6.72193021e-02 -8.56111199e-02 -1.34866744e-01  3.23597193e-01
   2.53860742e-01  6.13298893e-01 -2.54069060e-01 -1.24739036e-02
  -3.45788568e-01 -3.13919783e-02  3.55137050e-01  5.11086695e-02
  -5.28505370e-02 -1.24061834e-02 -1.06931560e-01 -4.97728586e-01
  -6.90687001e-02  3.75056230e-02 -3.63881558e-01  1.08652562e-01
   3.56703669e-01  2.86381811e-01 -9.04266536e-02  1.69446506e-02
  -1.16768256e-01  4.66235355e-02  1.80543229e-01  4.51274738e-02
   2.06552103e-01  4.20078412e-02  4.26867068e-01  2.26645902e-01
   1.33825123e-01  1.58887267e-01 -1.70307919e-01  6.33255169e-02
   3.86856198e-02  4.51465175e-02  6.10825140e-03 -9.67380106e-02
  -6.98458329e-02 -3.07794392e-01 -2.54321009e-01  4.49446663e-02
  -5.62948026e-02  7.17315311e-03  2.04946399e-01 -8.26237276e-02
  -3.50041389e-02 -3.26225348e-02 -3.79243307e-03 -8.91505405e-02
  -1.96164995e-01 -3.98266502e-02  1.46190757e-02  7.54652470e-02
   1.91499330e-02  2.76483763e-02 -1.74790651e-01 -3.61297932e-03
   3.66785079e-01  1.06664769e-01 -2.04433903e-01  2.04943106e-01
  -2.22256109e-01  2.25441486e-01  7.10995942e-02  1.46809056e-01
  -1.74296468e-01  1.67649478e-01  4.28058147e-01 -2.32036889e-01
   2.31045917e-01  2.64690757e-01  3.63348335e-01 -1.22910514e-02
   1.07375849e-02  1.54843703e-01 -1.10500947e-01  2.24531014e-02
   8.71156007e-02  2.80881494e-01  1.72412936e-02 -1.47535697e-01
   1.03611657e-02  1.84746772e-01  3.78513969e-02 -4.81376275e-02
  -2.63282508e-01 -7.91189969e-02 -3.41449112e-01 -5.27609251e-02
  -3.81098315e-02  2.30486318e-01 -1.22188486e-01 -3.96676250e-02]
 [-2.58229319e-02  5.08883176e-03  2.11383533e-02 -2.66182087e-02
  -1.93841923e-02  2.31589433e-02 -4.89275485e-01  3.04786295e-01
  -1.46001533e-01  2.78580841e-02  2.72231139e-02  1.51282754e-02
  -1.03561752e-01  6.15207516e-02  1.71692856e-02 -2.64013987e-02
  -5.24806790e-02 -5.21462634e-02 -3.77680883e-02 -8.47528651e-02
  -2.54143830e-02  9.12690386e-02 -3.05172876e-02 -4.44178842e-03
  -4.68880730e-03  3.09254795e-01 -3.11975144e-02  6.15187168e-01
   6.25338033e-03  1.98617667e-01  5.86398132e-02 -1.83493659e-01
  -1.15347095e-02  8.27752948e-02  4.38528091e-01 -3.61161590e-01
  -9.87090264e-03 -3.43542546e-01 -3.27263921e-01  4.37047929e-02
   5.07609367e-01  1.28070703e-02 -3.97638120e-02 -2.03827113e-01
  -4.43475097e-02 -2.63533711e-01 -1.10903591e-01 -1.99964702e-01
  -1.67267397e-03 -2.71395147e-01 -2.21648321e-01 -6.55159831e-01
  -3.31994295e-02  2.33694047e-01 -4.37768102e-02 -3.91502917e-01
  -1.16409220e-01 -4.07723896e-02  9.87906381e-03 -3.93273175e-01
  -4.81784046e-02  4.59065795e-01  3.01794857e-01  2.53892779e-01
  -9.55736041e-02 -1.39483944e-01  4.45137918e-01  5.10485880e-02
   4.55759950e-02  1.09887291e-02 -3.00887693e-02 -2.76879761e-02
  -3.97321582e-01  5.02266467e-01 -6.02655448e-02 -5.01444787e-02
  -1.34317297e-02  1.95984785e-02 -1.07224464e-01 -3.11411656e-02
  -7.03801885e-02 -9.85214114e-02 -3.70123759e-02 -1.16993245e-02
   2.77510881e-01 -2.34991554e-02 -5.16780913e-02  8.94047990e-02
   4.94629703e-03 -5.32366931e-02  5.50410822e-02 -4.12110388e-02
  -1.76708817e-01  5.47985733e-02  9.77175608e-02  1.17291771e-01
   3.00745517e-01  1.53717116e-01  3.97802383e-01 -1.28884107e-01
   7.68615976e-02 -1.37933031e-01 -1.16940238e-01  5.52657694e-02
   3.19360614e-01 -3.67202431e-01  2.20847458e-01  4.09214869e-02
  -4.86623272e-02  1.14021413e-01  2.04497501e-01  2.40854159e-01
   1.75986856e-01 -2.21507996e-02 -4.21479158e-02  2.29925796e-01
  -6.46378193e-03 -6.65457547e-02 -1.46762421e-02 -3.99431735e-02
  -2.68587530e-01  4.13577585e-03 -7.55213574e-02 -6.52671084e-02
  -7.18168840e-02 -6.53624475e-01 -3.80444795e-01 -1.03261426e-01]
 [-4.34142277e-02 -3.50315645e-02  5.30554429e-02 -3.97257209e-01
  -2.60217357e-02  3.92967388e-02 -2.50159323e-01 -3.08416337e-02
  -2.03473225e-01 -4.36387546e-02  7.27497488e-02  1.61957312e-02
  -3.10017876e-02  1.10198848e-01  1.90109629e-02 -5.59819154e-02
   9.47737414e-03 -4.13790941e-02 -3.43457125e-02 -2.62832999e-01
  -1.53089523e-01 -5.43788224e-02  1.41161978e-01 -3.18061709e-02
  -1.49144176e-02 -1.11912206e-01 -5.91153465e-02 -2.62654305e-01
  -5.68675213e-02  1.24062032e-01 -8.13117623e-01 -2.77245611e-01
  -5.15970849e-02  2.19455466e-01  1.87729791e-01 -1.87693223e-01
  -1.89878745e-03 -6.77850470e-02  1.33433938e-01  2.83693452e-03
  -4.23599124e-01  3.52768861e-02 -1.24479018e-01 -1.76987350e-02
  -4.63636890e-02 -4.81954142e-02 -8.75925943e-02 -2.25281894e-01
  -4.01110053e-02 -1.66064650e-02 -5.16271740e-02 -2.08070204e-01
   7.17393011e-02  1.83930576e-01 -9.13783386e-02  3.51151191e-02
  -8.70381296e-02  7.32121393e-02 -2.73748368e-01  2.44069517e-01
   8.31352994e-02 -3.78905505e-01  1.08616665e-01 -1.19333833e-01
  -7.56970793e-02  4.89459187e-02 -5.93722463e-02  2.64335692e-01
   5.71590997e-02 -1.70947611e-02  3.13532799e-01 -2.19624061e-02
   2.44166508e-01  2.34490871e-01  3.43541875e-02 -3.23016904e-02
   7.71795213e-03  5.55712916e-02  1.25112280e-01  9.36787669e-03
  -1.91192696e-04  9.42969229e-04  4.19048294e-02 -4.95326892e-02
  -3.80354315e-01  3.81823815e-02 -3.98207344e-02 -3.03603467e-02
  -5.49494624e-02 -7.45219812e-02 -1.27695560e-01  4.95468490e-02
  -7.47328922e-02  1.90125600e-01 -1.72146425e-01  7.10660145e-02
  -1.51788309e-01 -2.58013830e-02 -2.43285913e-02 -2.11019352e-01
  -7.03404099e-02 -1.61498979e-01  1.22549281e-01  1.23491935e-01
  -1.37911728e-02  8.23064521e-02 -1.35000408e-01 -3.02388780e-02
  -2.99252733e-03  6.24058843e-02  1.34223914e-02  2.12347060e-01
   3.05093586e-01  1.79886922e-01  6.54044822e-02 -6.73346967e-02
  -7.86479786e-02 -1.53723016e-01  6.06170576e-03 -7.17737749e-02
   1.12345628e-01  3.10051325e-03 -7.88934901e-02 -5.94863780e-02
  -3.34710465e-03  1.64578229e-01 -5.18484712e-02 -2.33140409e-01]
 [-5.10017527e-03 -5.99121265e-02 -6.52264804e-03  2.69274991e-02
   8.59692246e-02  3.74425083e-01 -7.19878152e-02  1.26147360e-01
   1.74888432e-01  1.52545888e-03 -1.70999929e-01 -3.61631773e-02
  -8.87075886e-02  1.11416459e-01  2.32640598e-02 -3.98135073e-02
  -3.07805520e-02 -9.61312279e-03  5.62240519e-02  1.90451309e-01
  -6.82517961e-02 -9.66720507e-02  2.15528473e-01  3.18749957e-02
   9.11595449e-02 -1.37552306e-01 -3.71652166e-03 -1.29491230e-02
  -3.84808704e-02  1.85686544e-01  8.45930874e-02  2.29544520e-01
   1.83437020e-01  2.38619313e-01  3.34788829e-01 -1.88762252e-03
   2.09156543e-01 -4.01249528e-01 -6.62664846e-02 -2.55070496e-02
   4.20946509e-01 -2.32227650e-02  8.85432288e-02 -2.38987967e-01
  -3.97014208e-02  6.12969957e-02 -7.22794747e-03 -1.77296907e-01
   3.10526416e-02 -3.62637967e-01 -1.10623389e-01 -2.69149512e-01
  -3.06277990e-01 -1.30498409e-01  2.48173308e-02 -2.59044081e-01
  -1.12592898e-01 -4.60878350e-02 -7.13032007e-01  7.90045410e-02
   1.76173542e-02 -3.49133089e-02  1.28678933e-01 -9.12459195e-02
  -1.54216066e-01  7.88301453e-02  3.94755840e-01  7.52327442e-02
  -1.65837388e-02 -2.85840947e-02 -6.04546480e-02 -7.55095705e-02
  -8.43725801e-01  3.89072374e-02  3.18398103e-02 -1.85667176e-03
  -3.63979265e-02 -1.03470691e-01  6.50848374e-02 -3.28963734e-02
  -2.84730662e-02 -9.87181365e-02  3.54112461e-02 -7.07721412e-02
   1.86648980e-01 -1.12991221e-03 -1.64558049e-02  2.74429351e-01
   2.24361867e-02  1.29927881e-03  7.79018626e-02  2.95966212e-02
   4.37428541e-02  2.24367864e-02 -3.72372419e-02  7.48213977e-02
   3.76466624e-02 -1.54982954e-01  1.07961155e-01  5.23097217e-02
   3.69930789e-02 -6.08685464e-02 -7.52774328e-02 -2.77246624e-01
   1.02118462e-01 -3.74052413e-02  8.79817009e-02 -3.85306850e-02
  -7.58608505e-02  2.36831471e-01  6.43679500e-02 -8.15977752e-02
  -3.87623399e-01 -3.88232559e-01  1.64649282e-02 -3.15288723e-01
  -3.25620435e-02  1.20614797e-01 -5.87104484e-02 -2.22663432e-01
   5.74258044e-02 -8.45791698e-02 -4.55042481e-01 -5.77741526e-02
  -9.82131064e-02 -1.31981075e-01 -2.39389196e-01  3.79129723e-02]
 [ 5.57437260e-03 -2.33841012e-03 -1.90589540e-02 -9.45531949e-02
   4.24865037e-02 -2.96330079e-02  6.37573227e-02 -4.15221155e-02
  -1.65252924e-01 -5.77115677e-02  1.89136967e-01  3.27779166e-02
  -1.55083723e-02  6.28041551e-02 -7.75417984e-02 -2.17110850e-03
  -2.19466053e-02  4.24567834e-02 -4.46467511e-02  2.79377878e-01
  -1.87439278e-01 -6.57005981e-02  5.27203791e-02 -6.66322410e-02
  -4.50375229e-02 -1.14090487e-01 -1.07766315e-02 -3.12821311e-03
  -2.35501137e-02 -5.22993207e-02 -2.35163450e-01 -5.59414104e-02
  -6.14243560e-04 -1.68374151e-01 -1.44600213e-01 -3.52753811e-02
  -3.31316441e-01  1.83336344e-02  1.88195050e-01  5.01662716e-02
  -2.07596570e-01 -5.84878400e-02  1.02241442e-01  1.94735333e-01
  -5.10953143e-02  5.50432093e-02 -3.51671875e-02 -2.61753261e-01
  -4.44365963e-02  3.99460979e-02  2.56515801e-01  8.35111067e-02
   5.68094030e-02  1.81211755e-01 -6.22671507e-02  7.56883696e-02
   7.12278113e-02 -7.83911273e-02  8.27042609e-02  1.07641227e-03
  -9.23361480e-02  8.54893848e-02  3.73975337e-02  3.14592838e-01
   1.91004440e-01 -4.89089172e-04 -2.55704135e-01 -1.63763940e-01
   2.51963623e-02  3.82882339e-04 -2.21653804e-01 -2.45434772e-02
   8.34765509e-02 -3.49515937e-02 -7.50591829e-02  2.83232555e-02
  -5.01157790e-02 -3.59947011e-02  6.93453848e-02 -2.95268334e-02
   9.36125312e-03  1.67855874e-01  9.50470753e-03 -6.75704181e-02
  -3.55661139e-02 -3.88679728e-02 -2.63457112e-02 -2.48630702e-01
   1.03885764e-02 -8.98637157e-03 -7.93266967e-02 -4.70907353e-02
   1.52797595e-01 -2.06342474e-01 -2.24706173e-01 -1.17583744e-01
  -4.83490899e-02  1.61573008e-01 -1.32780612e-01  6.70023486e-02
  -1.01714708e-01  1.95022464e-01 -5.33211865e-02 -4.16818634e-02
  -2.19788309e-02 -5.51610403e-02 -5.32369316e-02 -7.23965187e-03
   3.73180173e-02 -1.31859273e-01  7.36116692e-02 -5.36583662e-02
   1.64422244e-01  2.03847185e-01  8.82793963e-03 -2.32240960e-01
  -4.86922897e-02 -3.13968137e-02 -2.47642826e-02  2.55042553e-01
  -7.26891384e-02  3.41842999e-03 -1.86845243e-01 -1.07495971e-02
  -6.30783141e-02  3.33492011e-02  1.53341731e-02  1.25514954e-01]
 [-4.17243317e-03 -1.17257088e-02  2.94730403e-02  4.82526533e-02
   1.32681489e-01  5.98829649e-02 -1.71237841e-01 -2.42744371e-01
   8.12481865e-02 -6.45487532e-02  2.17836071e-02 -4.27900292e-02
  -1.30339935e-01 -3.02490473e-01 -8.61428306e-03 -3.03795785e-02
  -1.04035540e-02  1.42673193e-03  2.70512532e-02  6.94670081e-02
   1.16410613e-01  5.21315634e-02  4.11445498e-02  3.82363498e-02
  -1.28181413e-01 -1.10638693e-01 -5.23963384e-02 -4.70224135e-02
  -5.77824898e-02 -2.67162863e-02  1.42715842e-01 -2.58971274e-01
  -2.88160276e-02 -1.80358574e-01 -3.06375384e-01 -3.96920741e-03
  -1.34739839e-02  1.03298634e-01 -1.81058809e-01 -2.34770663e-02
   9.02935937e-02 -4.31380495e-02  1.57357931e-01  1.01019859e-01
  -5.17435335e-02  1.10289268e-02  4.04959731e-02  6.24467544e-02
  -2.19568573e-02  5.54410554e-02 -6.01109713e-02 -2.04594601e-02
  -7.70484284e-02 -1.63493603e-01 -3.80147733e-02 -1.25768721e-01
   8.89990851e-02 -3.01749948e-02  1.98997743e-02 -3.69284302e-02
   6.09400868e-02 -8.46860632e-02  1.91255763e-01  3.52129370e-01
  -2.26177886e-01 -2.21329220e-02  1.47534519e-01 -1.94598466e-01
   1.42823355e-02 -6.81709349e-02  1.17677227e-01 -8.91748369e-02
   1.32399186e-01 -1.07209431e-02 -6.64768592e-02  1.44995693e-02
  -7.16852024e-02 -5.81470281e-02 -4.78671454e-02  1.07533066e-02
  -1.28309792e-02  1.00827605e-01 -5.33736534e-02 -8.03449228e-02
  -8.72601569e-02 -3.35559435e-02 -5.72537817e-02  1.91629723e-01
  -7.63773769e-02 -3.13900001e-02  1.28201589e-01 -6.72099441e-02
  -1.61149278e-01 -3.98906410e-01  5.39033748e-02  2.98539042e-01
   2.65953802e-02 -1.57690629e-01 -3.00982386e-01 -3.67660195e-01
   8.44568834e-02 -9.94651541e-02  1.44739393e-02  5.46114445e-02
  -3.78107905e-01 -2.47444659e-01 -3.08620512e-01 -1.29442168e-02
  -4.12487723e-02 -3.36072505e-01  1.27125710e-01 -2.88985401e-01
  -8.40199664e-02  1.85782492e-01 -3.04471236e-03 -1.43501878e-01
   1.24744400e-02  2.40684673e-01  5.67075759e-02  1.52842447e-01
   1.47076815e-01  2.64947247e-02 -5.07458672e-02  1.91323999e-02
  -6.11135960e-02 -1.69083253e-01 -7.89614245e-02 -1.64343536e-01]
 [-5.84740043e-02 -6.49311841e-02  5.52156800e-03 -5.08048274e-02
  -7.33226538e-02  1.23201400e-01 -1.76247787e-02  2.83410549e-02
   1.86123118e-01 -1.71003174e-02 -1.12076335e-01  3.20097944e-03
  -1.21179886e-01  5.41668059e-03 -5.60549423e-02 -6.68844655e-02
  -5.71306348e-02 -4.18462465e-03 -1.52427312e-02 -1.03555486e-01
  -8.16688016e-02 -1.52630419e-01  2.97233816e-02  2.49433611e-02
  -5.73327392e-03  4.52764146e-02 -1.85647588e-02 -3.82783264e-02
   5.53980190e-03  3.71945277e-02  5.00744916e-02 -2.19463244e-01
  -2.88063902e-02 -3.89803611e-02  2.80032754e-01 -3.57889123e-02
   2.40982454e-02  3.49320203e-01  3.14170986e-01  5.09307813e-03
  -1.35047525e-01 -3.74218747e-02 -5.06303310e-01  2.52926946e-01
   5.15527697e-03 -7.43778870e-02 -1.38027510e-02 -2.26861209e-01
   9.55948606e-03 -1.54956996e-01 -1.69226229e-01  4.03401442e-03
   2.62152940e-01  4.48053271e-01 -2.97611430e-02 -2.27572829e-01
  -2.13715836e-01 -1.57079864e-02 -1.64155662e-01  8.24721828e-02
  -3.87848258e-01  1.55000165e-01 -6.80432320e-01  1.97865348e-02
   6.67772219e-02 -1.08369395e-01 -1.20705940e-01  1.31994799e-01
  -1.24073997e-02 -1.04185678e-02  2.13015482e-01 -1.06466189e-02
  -3.71551871e-01 -4.57116872e-01 -5.54882959e-02  7.13720359e-03
  -4.52508926e-02 -4.73545566e-02  1.21555530e-01 -7.56460428e-02
   5.86643629e-03  7.51479119e-02 -1.97704835e-03  1.71955377e-02
   1.15500681e-01 -7.94466771e-03 -8.43394548e-02  5.84174022e-02
  -5.49323577e-03 -1.34668797e-02 -2.58389473e-01 -6.62918836e-02
   3.23117107e-01  2.74660796e-01 -1.78274587e-01  2.23392293e-01
  -4.99305800e-02  3.65663618e-02 -2.64353603e-01 -2.70011783e-01
  -1.94734618e-01  3.11796606e-01 -1.89548929e-03  3.18040401e-01
   3.28155786e-01  2.95385383e-02  1.88636288e-01 -6.41926378e-02
   2.48119123e-02  1.42681494e-01 -1.48388058e-01  2.15335310e-01
  -1.01544164e-01  9.91759300e-02  2.58437693e-02 -4.86495793e-02
  -4.28915918e-02 -3.81099820e-01 -9.77700949e-02 -4.04414162e-03
  -2.27843434e-01  4.45479453e-02 -2.26268202e-01 -8.94807093e-03
  -3.66267450e-02  4.18439180e-01  1.71794355e-01  1.93345994e-01]
 [ 4.17544544e-02 -1.55670345e-02 -2.81067914e-04  4.93137330e-01
   5.65700270e-02  1.79292604e-01 -8.30290839e-02  1.50684938e-01
  -1.26894265e-01 -1.03485212e-02 -2.65934229e-01 -2.28227880e-02
  -1.68754458e-01 -1.05408736e-01 -9.42824036e-03 -1.59214865e-02
   2.59093884e-02  1.06249973e-02  1.24506224e-02  7.01143071e-02
  -7.59005025e-02  1.66530475e-01  2.76291519e-02  6.57093944e-03
  -3.14170271e-02  5.87650239e-02 -4.11947481e-02  2.57420897e-01
   2.62990147e-02 -2.88169533e-02 -1.89978749e-01 -2.56868124e-01
  -1.71629518e-01 -2.00094625e-01  1.87799543e-01  2.56002545e-02
   5.56231663e-02 -1.72620401e-01 -1.91370040e-01  6.87586470e-03
   3.13287258e-01 -4.13043983e-02  8.38905349e-02 -4.43607330e-01
   2.02580523e-02 -1.29055515e-01 -6.32231161e-02 -1.54312737e-02
  -6.29747882e-02 -2.60960907e-01 -1.04687281e-01 -2.79707998e-01
   8.22035298e-02 -3.41730230e-02 -1.80329122e-02  1.14294805e-01
   6.27330737e-03 -1.35151491e-01  5.58982432e-01 -9.90946218e-02
  -5.08186996e-01  6.47795722e-02 -1.31283421e-02  1.68597445e-01
  -4.82391417e-01 -7.43657053e-02  4.61016268e-01 -3.72391969e-01
   6.78399997e-03 -2.83868182e-02 -2.60770231e-01 -5.11479713e-02
   3.92286390e-01  2.09037125e-01 -2.65495092e-01  6.53121062e-03
   1.29979784e-02 -7.92775955e-03 -6.89349174e-02  4.30964157e-02
  -3.41321640e-02 -4.42109145e-02 -7.51278028e-02 -4.96417917e-02
   6.38467550e-01 -1.37008009e-02 -2.42097639e-02  1.47475436e-01
   2.26521771e-02 -4.70152162e-02  1.46241263e-01  1.34352539e-02
  -1.76217824e-01 -4.75795120e-01 -1.02479607e-01  7.83101246e-02
   6.16063952e-01 -2.01881513e-01  1.27708882e-01 -3.65779221e-01
  -7.32310265e-02 -1.25029042e-01  2.88054019e-01  3.35799791e-02
  -5.83839137e-03 -1.03188492e-02 -2.46981047e-02 -5.81755526e-02
  -7.37518668e-02 -1.62127435e-01 -4.98810001e-02  7.62235373e-02
  -2.84787863e-02  1.39547586e-01 -6.23967722e-02 -3.24538611e-02
  -4.57944162e-02 -4.45739664e-02  3.97784002e-02  3.29377688e-02
   2.30557490e-02  1.13995243e-02 -7.15112165e-02 -8.97986516e-02
  -6.53516827e-03 -6.57182872e-01  6.92908987e-02  4.03709531e-01]
 [-4.61467952e-02  5.17866062e-03 -9.53502208e-03 -3.53453994e-01
  -1.01684831e-01  1.11849003e-01  1.75534431e-02  1.46210641e-01
  -7.22179934e-02 -3.09491269e-02  1.31426775e-03 -6.04826026e-02
   2.10052311e-01 -3.06754440e-01 -9.59508121e-02 -2.36710161e-02
  -2.69272048e-02  6.43507689e-02  4.32394184e-02 -1.25203386e-01
  -9.79543328e-02  4.40115184e-02  2.95382053e-01 -4.98322770e-03
   7.08551779e-02 -2.56975591e-01  5.97994402e-02 -1.98226944e-01
  -3.62400487e-02  1.49339393e-01 -7.82005847e-01 -5.11993729e-02
   7.04645067e-02  1.02010563e-01 -1.89332832e-02 -2.69611984e-01
  -3.73059779e-01 -7.56815746e-02 -1.10183463e-01 -7.28526339e-02
  -1.11616828e-01 -2.07136143e-02 -1.96621507e-01  3.43199708e-02
   5.90893701e-02 -1.93275318e-01 -3.03893182e-02 -4.67126429e-01
  -6.55533969e-02  1.55314744e-01 -5.80253312e-03 -5.93618862e-02
   1.63489610e-01  3.04601938e-01 -8.92940238e-02 -1.65550515e-01
   1.03297137e-01  1.73542760e-02 -1.21332310e-01 -5.41383326e-02
  -9.25870053e-03 -2.76465714e-01  3.58051747e-01  1.84376780e-02
  -1.73433516e-02 -7.89318830e-02  1.90304354e-01  8.25665817e-02
  -3.76245305e-02  2.66495198e-02  2.39498988e-01 -7.02246651e-02
   2.49207076e-02  2.93011755e-01 -7.28777871e-02  3.90937738e-02
  -1.66161098e-02 -3.94219346e-02  3.22858453e-01  1.51669970e-02
   9.25731957e-02  6.74040988e-02 -2.66210781e-03  7.07895979e-02
  -4.82523516e-02 -7.60233924e-02 -1.00016400e-01  2.94858813e-01
   3.13429721e-02 -6.94677159e-02 -2.53734291e-01 -3.41712497e-02
  -9.06907767e-02  3.27469520e-02  6.40412718e-02  2.04022080e-01
  -2.17213437e-01  1.27134863e-02 -4.95554917e-02 -1.95138901e-01
   7.30535462e-02 -1.51460111e-01  1.80745751e-01 -6.76046014e-02
   3.78818251e-02 -1.84269100e-01 -3.54208499e-01 -5.68445288e-02
  -6.81483224e-02  2.74462044e-01  1.29123330e-01 -9.98005457e-03
   9.60139781e-02  8.10061842e-02 -2.88392138e-02  1.60541028e-01
  -7.62430876e-02 -1.37021482e-01  3.66375595e-02 -1.94148690e-01
   2.83346534e-01 -5.60170598e-02  6.50740936e-02  1.60696432e-02
  -8.01665112e-02  7.67265409e-02 -1.93406299e-01 -4.98389639e-02]
 [-4.90340730e-03  1.04245944e-02 -2.88132988e-02 -1.42261498e-02
  -1.24043904e-01  5.61953932e-02  8.90007764e-02 -4.20177653e-02
  -2.51697123e-01 -6.52505308e-02  4.55764830e-02  2.65592057e-02
  -4.24955562e-02 -2.16804639e-01 -1.88803487e-02  2.24289182e-03
  -7.43594579e-03  2.00346261e-02  6.08628429e-02  3.79708968e-02
  -2.25377634e-01  1.97631091e-01  9.37632173e-02 -6.61639357e-03
   1.28090769e-01 -2.14899495e-01 -5.34286490e-03  2.90160954e-01
  -6.30463883e-02 -1.00419849e-01 -3.26209247e-01 -8.06268975e-02
   1.08967505e-01 -4.08190787e-01  1.09663680e-01  2.50618219e-01
   3.13020289e-01 -1.07395649e+00  4.56252173e-02  3.35513949e-02
   2.68717408e-01  1.83324367e-02  4.95643467e-01 -3.03878784e-01
   2.67850570e-02 -1.26835763e-01 -5.08132949e-02  2.62345761e-01
  -2.43355171e-03 -2.93896228e-01 -1.87317446e-01 -3.92801434e-01
  -2.28774786e-01  5.69665097e-02  4.02029939e-02  1.11398790e-02
  -3.60691875e-01 -5.29919304e-02  3.16825271e-01 -1.42578214e-01
   1.00761220e-01  7.13605136e-02  2.78170928e-02 -6.67171031e-02
  -8.66680294e-02 -2.64243394e-01  4.71935540e-01  3.14880386e-02
  -1.59586500e-02  9.72677115e-03  5.81321046e-02  8.66249576e-03
  -2.62512475e-01  6.53829277e-02  3.15800160e-01  1.80974312e-03
  -3.69421020e-02 -2.32796520e-02  9.13209096e-02 -6.79569617e-02
  -5.49002253e-02  3.08771878e-02  3.00148912e-02 -9.62645933e-02
  -2.42011696e-02 -5.06557673e-02  1.20201912e-02 -1.87784545e-02
  -9.94503777e-03 -3.44667248e-02  3.23391318e-01  4.44428585e-02
  -2.13493556e-01 -6.11450598e-02  1.80932790e-01  6.50520399e-02
  -7.88155347e-02 -2.82743424e-02  2.00980604e-02 -2.91527778e-01
   7.86818489e-02  1.62691884e-02 -1.98782720e-02  6.76580966e-02
  -2.19658706e-02 -6.69425726e-02  8.49275067e-02  2.94351373e-02
  -1.82197411e-02 -1.11898176e-01 -1.04648814e-01  2.92693168e-01
   4.13205707e-03 -1.93584442e-01 -1.59726012e-02  5.74949160e-02
  -9.17460248e-02 -5.56418598e-02 -7.34336823e-02  2.84350067e-02
   1.52058631e-01 -5.35998717e-02 -3.47260028e-01 -3.38818841e-02
  -5.99559136e-02 -2.46917441e-01 -7.33029395e-02  2.46401280e-02]
 [-6.23254143e-02  1.30407680e-02  1.20561011e-02 -1.11799397e-01
  -6.63264771e-04 -3.64155765e-03  2.06384528e-02 -9.34113786e-02
  -1.27790228e-01 -3.19314301e-02 -1.96916237e-02 -5.94848022e-02
  -1.12525880e-01  7.96344504e-02  1.79421958e-02  2.41839997e-02
  -6.59534261e-02 -5.01311980e-02  5.30269230e-03  5.59016578e-02
  -6.04548790e-02 -1.04021598e-02  7.88476411e-03 -3.57510056e-03
  -7.25065470e-02 -1.69353485e-01 -3.65156569e-02 -3.10220663e-02
  -5.76969124e-02  2.19737351e-01 -9.79906768e-02  1.59953877e-01
  -1.41239733e-01  8.55941549e-02 -1.16334066e-01 -4.50179987e-02
  -1.95141390e-01  1.10118978e-01  8.05203989e-02  1.83322020e-02
  -3.47528219e-01 -9.48788505e-03  1.47861108e-01  2.29154840e-01
  -7.91252255e-02 -4.25788201e-02  7.27947149e-03 -1.88018322e-01
  -6.80828691e-02 -2.66515650e-02  8.71362239e-02 -3.81160225e-03
   1.13215551e-01  1.06651120e-01  5.07305237e-03  2.74898037e-02
  -2.32642866e-03 -1.11790234e-02  1.18193366e-01 -8.82392451e-02
  -1.88856293e-02 -1.12396009e-01  1.49221703e-01  1.98345557e-01
   1.03489362e-01  9.99813899e-02 -1.67005479e-01  1.69383716e-02
  -8.91900063e-02  1.05304306e-03 -1.16070814e-01 -2.89781168e-02
   4.56008837e-02 -1.12310112e-01 -1.41059190e-01 -1.93368886e-02
   4.36259201e-03 -7.83915743e-02  1.29313156e-01 -2.74803839e-03
  -2.60506254e-02 -7.12769851e-03 -6.84657320e-02 -4.32140492e-02
  -7.15584159e-02 -1.89903490e-02  6.01773672e-02 -2.44561508e-01
  -3.88549045e-02  5.23184352e-02 -2.12111235e-01 -7.53647536e-02
   5.54315485e-02 -1.94557220e-01 -2.90100300e-03 -2.69740485e-02
  -1.45457476e-01  3.60724144e-02 -1.00346148e-01  3.50185856e-02
  -1.06809258e-01  2.39935398e-01  3.02983727e-02  1.39874980e-01
  -4.23537828e-02 -5.78105301e-02 -7.78822601e-02 -2.64294585e-03
  -2.92940587e-02 -6.88280985e-02  1.41260130e-02  8.14014524e-02
   2.50588685e-01  3.58210742e-01 -3.31863314e-02 -2.05043018e-01
   9.96229053e-03 -1.77301660e-01 -8.00366774e-02  1.32275477e-01
  -1.93702541e-02 -1.59986876e-02  4.45312262e-03  4.94610965e-02
  -1.12852175e-02  5.19420542e-02  4.50312486e-03  1.49443159e-02]
 [-3.64296772e-02  1.25002395e-02 -4.29530516e-02 -2.12968707e-01
   1.16728388e-01  1.00049384e-01  4.64567309e-03 -8.58833864e-02
   8.19610283e-02 -6.65386394e-02 -9.85900834e-02 -1.70672406e-02
  -4.59522661e-03 -2.50398278e-01 -2.60198507e-02 -5.59797101e-02
   3.61265279e-02 -4.71052006e-02 -3.26086953e-02 -2.23046929e-01
  -1.92178674e-02 -6.41503930e-02  1.29849583e-01 -3.71741317e-02
  -6.60576895e-02 -1.09488294e-02  1.05102118e-02  5.25118448e-02
   2.33449060e-02 -1.77640155e-01  2.53970236e-01 -2.10770011e-01
   3.52078676e-02 -9.00012329e-02 -1.31846935e-01 -1.56809568e-01
   2.67906338e-01  7.45553598e-02 -1.57926381e-01 -5.58157787e-02
  -2.99625862e-02 -8.19084700e-04  1.06930062e-01  2.29610458e-01
  -6.01172214e-03  1.77931142e-05  4.64635761e-03 -1.10519595e-01
  -6.39389977e-02 -1.57855570e-01 -9.30061638e-02  1.61937743e-01
  -2.94662490e-02 -1.66845277e-01 -2.36741547e-02 -4.64668721e-01
   2.75949556e-02 -1.10673271e-02 -3.87663301e-03  4.84224111e-02
   9.31708962e-02 -1.31203741e-01  5.38531393e-02  2.87201464e-01
   3.99589278e-02  1.51258275e-01  5.05110845e-02 -1.26377553e-01
  -1.10941427e-02  2.19511613e-02  1.98338479e-02 -1.12901188e-01
   6.58378452e-02 -1.95231400e-02 -1.83589801e-01 -3.13266851e-02
   2.48064175e-02  1.22012831e-02 -5.10559324e-03 -1.00945443e-01
   6.24881722e-02 -1.00526169e-01 -2.61025806e-03 -7.78071284e-02
   1.32696122e-01 -7.16255680e-02  5.49941175e-02  2.33779736e-02
  -2.85335388e-02 -3.20543349e-02  2.42338419e-01  6.10185508e-03
   1.23437569e-01 -5.98908328e-02 -9.97878015e-02  3.27085316e-01
  -1.53736442e-01 -1.60342440e-01 -1.15896307e-01 -1.95412397e-01
  -1.58524606e-02 -7.58779198e-02 -2.81228036e-01 -2.47555971e-01
   1.53163880e-01 -1.99640721e-01 -1.62246525e-01  1.40534854e-02
  -1.24406163e-02 -2.07386725e-02  4.45331261e-02 -3.64289314e-01
  -3.34903575e-03  1.41982600e-01 -2.50551999e-02 -2.02515423e-01
   8.83486867e-03  1.09544352e-01 -2.47642659e-02  2.12375119e-01
  -7.75276124e-02 -4.73669991e-02 -2.25255162e-01 -1.38182659e-02
  -9.05389786e-02 -5.29874228e-02 -7.27019086e-02 -1.43796027e-01]
 [ 3.33031677e-02  3.68597806e-02  3.59236225e-02  4.44816470e-01
  -3.63068618e-02  3.32118571e-01  1.38361260e-01 -2.79244948e-02
   8.65252540e-02 -3.55948620e-02  1.39506727e-01  1.62752084e-02
  -3.01763024e-02 -1.41113088e-01  4.92836349e-02 -3.80504020e-02
   2.82212067e-02 -2.27848291e-02  4.40658852e-02 -2.50613004e-01
  -1.81934550e-01  5.88252433e-02 -1.72886953e-01 -3.45441699e-02
  -3.32851745e-02 -1.23414047e-01 -5.65929152e-02 -1.04704224e-01
  -1.38976723e-02  1.47721767e-02  1.09766416e-01  3.08805108e-01
  -5.81704713e-02 -3.41477811e-01  2.73159087e-01  3.28255177e-01
   9.67815965e-02 -4.14792188e-02 -1.66666865e-01 -5.75418621e-02
  -2.78537482e-01  5.35929836e-02  5.02865076e-01  1.06985144e-01
   2.14292537e-02 -1.65555313e-01  5.77920582e-03 -6.15117788e-01
  -1.46496277e-02  3.40331122e-02 -2.76825041e-01  1.43540621e-01
   1.29789654e-02  4.21737999e-01 -8.61742161e-03  4.24720235e-02
   1.31242752e-01  3.33033502e-02  3.71442229e-01 -1.49991155e-01
   9.23959911e-03  6.92301840e-02  6.22148216e-02 -2.26165187e-02
   1.35405526e-01 -3.57881099e-01 -2.80224998e-02 -2.91586310e-01
  -4.44976427e-02  3.19252312e-02 -5.49050681e-02 -2.91703902e-02
  -2.13988140e-01 -2.10490748e-01 -2.78229952e-01 -5.73870167e-02
   5.87827119e-04 -1.00306652e-01  2.36372232e-01 -6.51815012e-02
   3.01660155e-03  5.54711185e-02  3.45399380e-02  3.04298960e-02
   5.10109141e-02 -6.08037375e-02 -8.07656795e-02  1.60541967e-01
   5.38896676e-03 -3.85424159e-02 -2.74754703e-01 -3.21304649e-02
   1.97051410e-02 -1.03827521e-01 -3.99813354e-01  1.02961082e-02
   1.17493913e-01  1.89901873e-01 -5.98429926e-02  1.70957774e-01
  -3.21251124e-01  7.01982602e-02 -4.90054674e-02  2.17021510e-01
  -3.72050881e-01  6.43076658e-01 -1.39063946e-03 -1.84899960e-02
   9.78069194e-03 -3.20533365e-02 -2.35690042e-01  1.97488174e-01
  -1.41271293e-01  1.43947586e-01 -3.90689597e-02 -1.17758155e-01
   3.38573717e-02 -5.22929914e-02  1.38224876e-02  3.39436114e-01
   8.66009369e-02 -6.08810633e-02 -4.77303714e-02  3.16508673e-02
   5.51286824e-02 -1.19439051e-01  1.05210260e-01  7.73002803e-02]
 [-3.55925150e-02  3.20818136e-03  4.77035902e-02  4.55401003e-01
   6.95375800e-02 -9.88502875e-02 -4.88318443e-01  8.50421637e-02
   1.04405053e-01 -7.60333538e-02 -3.38364035e-01 -6.73864484e-02
  -3.87215130e-02 -1.35178389e-02 -2.62374766e-02 -5.69693595e-02
  -7.58163780e-02 -3.70920822e-02 -1.99381746e-02  1.32520005e-01
  -2.97625899e-01 -6.51383623e-02 -1.30555004e-01 -5.55803813e-02
   3.34640965e-02 -8.97401348e-02 -6.73980787e-02  3.49718451e-01
  -5.45884408e-02 -1.70571923e-01 -1.69266060e-01 -1.25328466e-01
  -1.92823797e-01  1.93050221e-01  1.66152224e-01  2.02311590e-01
   1.04042687e-01  2.31187761e-01 -2.70638585e-01  3.72071676e-02
  -1.11336753e-01  1.86158400e-02  2.93576449e-01  2.67558880e-02
  -1.92100629e-02  4.10557054e-02  9.80261248e-03 -3.11968952e-01
